1155 100
the 0.133983 0.183179 0.182304 -0.110201 0.475565 -0.067251 -0.049128 0.717711 -0.285031 0.004612 0.440079 -0.100970 0.371585 -0.326876 0.245059 0.003161 -0.079759 0.284087 -0.359288 0.323014 0.065731 -0.109813 0.316604 -0.199680 0.155909 -0.289716 0.451956 0.223646 -0.070780 -0.082913 0.064870 -0.283457 0.383489 0.157117 -0.227499 0.158240 0.226209 -0.446964 -0.261298 0.073065 0.332800 -0.202250 -0.269779 0.303077 -0.084939 0.231562 -0.299483 -0.329967 -0.074500 -0.144350 0.013083 0.464266 -0.240572 -0.147549 -0.051661 -0.166113 0.279856 0.077065 0.170045 0.411843 0.279953 -0.103889 0.008104 0.084243 0.228938 -0.336089 -0.035062 0.288012 0.250517 0.129662 -0.038119 0.217094 0.104769 -0.308840 -0.574299 -0.165688 0.129573 0.136297 0.108445 -0.276416 -0.063002 0.302235 -0.166532 -0.202319 -0.140205 0.198434 -0.050628 -0.340485 -0.210729 0.590618 -0.436026 -0.024246 -0.003011 0.152159 -0.489825 0.075965 -0.490222 -0.020430 -0.304360 0.074978
and 0.249824 0.049855 0.312369 -0.031327 0.389323 -0.151774 -0.012632 0.621201 -0.101719 0.196321 0.416559 -0.117472 0.404687 -0.359165 0.221860 0.038177 -0.044006 0.119337 -0.319674 0.218258 -0.032454 -0.177522 0.198515 -0.180621 0.161727 -0.290188 0.357687 0.333857 -0.004107 -0.242925 0.040181 -0.378104 0.258359 0.178375 -0.112919 0.043050 0.250320 -0.260121 -0.110556 0.178755 0.218751 -0.283721 -0.328888 0.174728 0.040959 0.164240 -0.252862 -0.332118 -0.051092 -0.184270 0.033825 0.341435 -0.261217 -0.148295 0.038349 -0.192964 0.216684 0.265809 0.107750 0.241760 0.053458 -0.115350 0.094018 0.113243 0.181893 -0.192670 -0.086899 0.224688 0.260980 0.179898 0.068746 0.240430 0.058066 -0.348370 -0.491210 -0.169531 0.094696 0.192920 0.072203 -0.223164 -0.129770 0.363432 -0.101354 -0.186461 -0.208581 0.170516 -0.150513 -0.278767 -0.090481 0.622017 -0.389125 0.020943 -0.083155 0.132243 -0.460871 -0.081882 -0.338242 0.063374 -0.149605 0.034816
of 0.160752 0.231458 0.266444 -0.132536 0.471581 0.014251 -0.065820 0.800646 -0.255135 -0.014909 0.466637 -0.153108 0.326267 -0.289738 0.300837 -0.001497 -0.126196 0.292536 -0.289263 0.297439 0.090333 -0.145950 0.307078 -0.106896 0.095616 -0.416127 0.429344 0.257087 0.021132 0.012781 0.207798 -0.234895 0.346737 0.101874 -0.254204 0.147398 0.128324 -0.381075 -0.337239 0.028618 0.307570 -0.106639 -0.322317 0.241425 -0.013859 0.243515 -0.426424 -0.381687 -0.028060 -0.104267 -0.041967 0.412055 -0.163860 -0.069149 -0.059604 -0.064171 0.248926 0.134455 0.194182 0.371444 0.391087 -0.141808 -0.043990 0.024625 0.194458 -0.384721 -0.031832 0.332139 0.175664 0.121089 -0.125830 0.263811 0.035285 -0.277323 -0.562782 -0.234715 0.179365 0.109663 0.151498 -0.216496 -0.050978 0.258910 -0.162526 -0.246140 -0.018931 0.192222 -0.089124 -0.317039 -0.218909 0.500897 -0.474898 -0.055089 0.147245 0.165604 -0.453439 0.032556 -0.588104 -0.035033 -0.277286 0.021507
to 0.342571 -0.071751 0.401575 -0.137690 0.191558 -0.295527 -0.126457 0.753094 0.155522 0.565466 0.460868 -0.023033 0.283088 -0.210109 0.329741 0.097315 -0.027806 0.000950 -0.078801 0.073143 -0.260605 -0.157837 0.249829 0.022562 -0.032490 -0.496037 0.272087 0.291093 0.065743 -0.507629 0.080385 -0.434711 -0.050669 0.341015 0.004050 -0.032321 0.117650 0.103062 0.154368 0.285008 0.106351 -0.232493 -0.345767 -0.023079 0.106750 0.146401 -0.090312 -0.237578 -0.008344 -0.183143 0.073176 0.086430 -0.286031 0.002611 0.060782 -0.177157 0.071826 0.407603 0.196378 -0.165321 -0.205375 -0.263826 0.178396 -0.045413 0.082141 0.102389 -0.145017 0.190762 0.161192 0.280857 0.066257 0.308762 0.001184 -0.208798 -0.349672 -0.208500 0.325740 0.127531 -0.008213 -0.061802 -0.411138 0.276512 0.153418 -0.336356 -0.086320 0.077550 -0.168132 -0.222796 0.096434 0.632079 -0.323486 0.041304 -0.058413 0.089989 -0.262319 -0.125627 -0.116473 0.254076 -0.066719 -0.044394
a 0.198255 0.063810 0.249990 -0.090734 0.351066 -0.178566 -0.053011 0.745284 -0.098577 0.230853 0.477013 -0.082874 0.348440 -0.289264 0.264594 0.054893 -0.064350 0.183215 -0.241671 0.240646 -0.062539 -0.157647 0.240813 -0.151237 0.090493 -0.326779 0.397781 0.273302 -0.046038 -0.233173 0.030112 -0.334209 0.228743 0.187935 -0.139546 0.063909 0.209670 -0.259463 -0.119323 0.137267 0.240207 -0.218334 -0.343275 0.167604 -0.011895 0.203087 -0.216560 -0.305560 -0.056223 -0.186502 0.050446 0.325985 -0.282854 -0.109197 -0.013847 -0.161009 0.222697 0.244834 0.172409 0.181631 0.087185 -0.136460 0.070187 0.058275 0.172703 -0.182548 -0.065267 0.240643 0.228579 0.197467 0.015545 0.234212 0.064635 -0.237209 -0.479422 -0.154648 0.204304 0.133219 0.078850 -0.227899 -0.156938 0.319493 -0.048913 -0.244746 -0.127227 0.145007 -0.108035 -0.280390 -0.064227 0.616223 -0.389110 -0.018820 -0.051815 0.132935 -0.402375 -0.020933 -0.358977 0.089394 -0.208909 0.042243
i 0.433298 -0.177209 0.477741 -0.043913 0.112311 -0.464875 -0.050285 0.717274 0.361331 0.812091 0.442988 0.030620 0.256734 -0.289473 0.286374 0.223439 -0.026799 -0.097805 -0.029767 -0.020449 -0.376828 -0.196882 0.170288 -0.014229 0.017649 -0.479225 0.223561 0.260785 0.012755 -0.721037 -0.115117 -0.578698 -0.237465 0.437270 0.065886 -0.150718 0.189810 0.292312 0.329399 0.373116 0.068494 -0.355548 -0.390276 -0.126857 0.095806 0.121787 0.137943 -0.178978 -0.009160 -0.344680 0.158103 -0.004044 -0.392410 -0.058345 0.124770 -0.217493 0.030874 0.643889 0.146601 -0.309923 -0.540712 -0.265828 0.304316 -0.035687 0.055592 0.315038 -0.230587 0.106880 0.182442 0.358227 0.212590 0.253762 -0.010878 -0.170878 -0.260108 -0.140246 0.357889 0.140178 -0.091857 -0.119775 -0.439932 0.333980 0.258515 -0.349236 -0.225828 0.035950 -0.197769 -0.196939 0.258248 0.796294 -0.298769 0.133238 -0.251224 0.067009 -0.212461 -0.203957 0.152484 0.426062 0.013559 -0.112631
he 0.356854 -0.162036 0.362266 0.000317 0.193726 -0.348732 0.008860 0.595948 0.164061 0.613845 0.442893 -0.019275 0.349875 -0.331975 0.230177 0.119267 -0.051917 -0.024458 -0.183571 0.105849 -0.233840 -0.227000 0.071754 -0.174806 0.142324 -0.302702 0.277523 0.351869 -0.052301 -0.582599 -0.117883 -0.533864 -0.011538 0.318216 0.012143 -0.089496 0.280586 0.026802 0.201315 0.325305 0.097780 -0.370567 -0.361311 0.029524 0.093913 0.090164 0.019471 -0.234262 -0.058393 -0.318710 0.119095 0.145087 -0.393692 -0.166674 0.089775 -0.258257 0.138359 0.476868 0.084771 -0.081019 -0.364308 -0.163576 0.236627 0.070958 0.117680 0.090181 -0.171643 0.148219 0.278202 0.279794 0.239311 0.251992 0.026179 -0.275217 -0.345175 -0.101789 0.183818 0.209079 -0.078532 -0.167877 -0.266830 0.402450 0.090256 -0.272810 -0.300530 0.104597 -0.211989 -0.242366 0.138155 0.741470 -0.297698 0.092835 -0.273188 0.085506 -0.348747 -0.182209 0.008112 0.255757 -0.004110 -0.027377
in 0.218185 0.094403 0.313693 -0.063533 0.387298 -0.109281 -0.040411 0.710482 -0.123059 0.192801 0.437440 -0.116685 0.341253 -0.315055 0.266581 0.025820 -0.091802 0.173137 -0.260167 0.231240 -0.008105 -0.150881 0.217942 -0.116675 0.120155 -0.368927 0.362355 0.304904 0.015275 -0.180193 0.110781 -0.331370 0.252797 0.185918 -0.139444 0.060010 0.191870 -0.260296 -0.151392 0.137823 0.233736 -0.193689 -0.330071 0.164179 0.034916 0.179481 -0.296392 -0.337657 -0.040523 -0.165074 0.009116 0.334144 -0.222622 -0.107520 0.005583 -0.123812 0.198136 0.216786 0.170390 0.219112 0.132541 -0.126188 0.056238 0.038477 0.193848 -0.226650 -0.083840 0.271734 0.208557 0.147565 -0.005948 0.263127 0.031096 -0.296871 -0.480743 -0.219127 0.165608 0.158562 0.081218 -0.186028 -0.132857 0.292736 -0.089253 -0.230109 -0.127008 0.174766 -0.134445 -0.299088 -0.108944 0.581583 -0.396147 -0.007005 0.006417 0.145264 -0.445007 -0.049674 -0.392518 0.041156 -0.180796 0.013261
that 0.355776 -0.122730 0.394841 -0.053963 0.125151 -0.379781 -0.064389 0.694265 0.231658 0.669229 0.463844 -0.031866 0.303031 -0.249671 0.270374 0.163718 -0.049395 -0.053141 -0.090920 0.065247 -0.293912 -0.187124 0.151814 -0.027856 0.019696 -0.423836 0.250733 0.295809 0.031543 -0.551376 -0.006465 -0.498881 -0.105899 0.365028 0.063693 -0.083100 0.155657 0.149208 0.253241 0.314039 0.094221 -0.320430 -0.404899 -0.051656 0.128139 0.129375 0.039965 -0.226513 -0.013795 -0.329379 0.117709 0.106317 -0.358687 -0.092900 0.089628 -0.177743 0.071545 0.479131 0.154406 -0.200376 -0.362422 -0.195028 0.261879 -0.013800 0.130046 0.159252 -0.196891 0.134533 0.202934 0.294999 0.153066 0.277944 -0.032732 -0.186489 -0.263455 -0.184112 0.307601 0.151963 -0.066628 -0.085353 -0.348559 0.341603 0.170999 -0.323775 -0.151087 0.093993 -0.185988 -0.225368 0.178512 0.686616 -0.294594 0.082970 -0.214364 0.082628 -0.269326 -0.202800 0.016535 0.275653 0.000028 -0.062947
his 0.254013 0.007955 0.266865 0.009746 0.406563 -0.207212 0.061592 0.611170 -0.139096 0.200140 0.376476 -0.099353 0.444579 -0.397523 0.201486 0.019862 -0.030179 0.140643 -0.364090 0.232928 -0.007080 -0.162396 0.179151 -0.293507 0.232708 -0.233617 0.386090 0.353308 -0.057889 -0.351852 -0.065948 -0.429370 0.311489 0.209986 -0.108599 0.013777 0.355031 -0.297948 -0.106146 0.212556 0.243068 -0.318559 -0.321080 0.223444 0.023363 0.119881 -0.241838 -0.320526 -0.072035 -0.221091 0.063411 0.369784 -0.330672 -0.208617 0.037445 -0.280977 0.242208 0.246452 0.107268 0.279265 0.002123 -0.085201 0.097635 0.170821 0.194407 -0.173370 -0.098985 0.185891 0.328436 0.151655 0.131814 0.247825 0.094401 -0.354174 -0.511870 -0.140385 0.027234 0.225573 0.065547 -0.242243 -0.129086 0.402937 -0.085191 -0.149817 -0.313116 0.170495 -0.146918 -0.288746 -0.098408 0.685559 -0.359467 0.028021 -0.163537 0.123726 -0.509291 -0.087380 -0.311484 0.050029 -0.156334 0.092854
was 0.226523 -0.017004 0.307280 0.001478 0.323799 -0.215247 0.003127 0.541011 0.007972 0.337872 0.402933 -0.095485 0.411320 -0.326167 0.202960 0.082637 -0.075481 0.005304 -0.284620 0.194054 -0.063260 -0.170130 0.116241 -0.194207 0.155109 -0.247827 0.316970 0.352018 0.009149 -0.296877 0.021028 -0.428039 0.179076 0.215741 -0.030204 -0.028962 0.230613 -0.198423 -0.012863 0.237958 0.201764 -0.246345 -0.365988 0.061659 0.095633 0.134574 -0.144666 -0.289152 -0.077507 -0.274059 0.086033 0.295620 -0.307706 -0.157288 0.088159 -0.172000 0.182058 0.280069 0.078886 0.113143 -0.095059 -0.094748 0.182624 0.094149 0.202980 -0.143355 -0.096351 0.206099 0.284063 0.161652 0.108604 0.263702 0.016351 -0.303520 -0.386317 -0.172116 0.133796 0.183438 0.003064 -0.163145 -0.171222 0.374065 -0.021002 -0.271876 -0.216532 0.120910 -0.188473 -0.307555 0.001774 0.601043 -0.322695 0.069619 -0.177220 0.125058 -0.469508 -0.123656 -0.214149 0.052476 -0.094703 -0.007375
it 0.342675 -0.087492 0.383504 -0.088392 0.146666 -0.389392 -0.069808 0.750715 0.231137 0.660676 0.462115 -0.012541 0.240784 -0.234443 0.281643 0.180051 -0.059751 -0.019380 -0.019769 0.061148 -0.324170 -0.164623 0.167774 -0.003842 -0.016422 -0.430413 0.263611 0.257610 0.033586 -0.526356 -0.009418 -0.459538 -0.112804 0.347430 0.031555 -0.067664 0.098947 0.160714 0.217456 0.303728 0.095551 -0.304321 -0.386278 -0.015103 0.072917 0.154509 0.018681 -0.204792 -0.016250 -0.300090 0.125647 0.093676 -0.352854 -0.039024 0.067440 -0.172170 0.052022 0.487567 0.178194 -0.235348 -0.315900 -0.222341 0.226591 -0.055197 0.103167 0.160714 -0.179458 0.152309 0.165767 0.282665 0.105081 0.263630 -0.010789 -0.158643 -0.289877 -0.177062 0.330047 0.107001 -0.044763 -0.105584 -0.347553 0.312851 0.180758 -0.326959 -0.124546 0.091154 -0.183713 -0.213833 0.181263 0.692173 -0.312693 0.074377 -0.164351 0.064743 -0.207132 -0.148233 0.006430 0.295482 -0.065582 -0.081383
you 0.475043 -0.126421 0.502592 -0.212429 0.055572 -0.469886 -0.181151 1.004437 0.399401 0.896794 0.542494 0.023954 0.074208 -0.110852 0.421291 0.238959 -0.056557 -0.035797 0.196437 -0.096859 -0.531981 -0.171158 0.330224 0.256833 -0.202809 -0.731009 0.167219 0.147408 0.061409 -0.704655 0.048683 -0.514059 -0.399462 0.471352 0.054881 -0.126641 -0.015868 0.485569 0.323893 0.336757 0.022168 -0.262264 -0.427501 -0.208587 0.081362 0.185956 0.095557 -0.183394 0.043578 -0.249476 0.121786 -0.142495 -0.287657 0.147271 0.065710 -0.155637 -0.060682 0.681714 0.260253 -0.537171 -0.441276 -0.386620 0.212492 -0.197163 -0.024755 0.421631 -0.273667 0.106087 0.063599 0.395444 0.028688 0.304124 -0.039233 -0.018301 -0.210295 -0.228662 0.593194 0.022475 -0.011987 -0.033497 -0.613137 0.211455 0.391944 -0.436881 0.031977 -0.015644 -0.138194 -0.159804 0.313827 0.693971 -0.372381 0.106302 -0.052143 0.046928 0.051907 -0.131265 0.125356 0.550177 -0.053642 -0.184564
had 0.260111 -0.092238 0.348252 0.006377 0.295205 -0.238328 -0.021194 0.535507 0.046145 0.452001 0.433262 -0.081973 0.430742 -0.327860 0.221308 0.077872 -0.063111 -0.016711 -0.324649 0.210228 -0.080194 -0.170959 0.089701 -0.228615 0.185574 -0.250804 0.315532 0.413748 0.036812 -0.417146 0.029011 -0.505203 0.158788 0.260502 0.027032 -0.052533 0.332073 -0.124631 0.075134 0.308197 0.193957 -0.296806 -0.408596 0.021471 0.126858 0.099996 -0.114961 -0.291607 -0.088388 -0.312391 0.115835 0.304751 -0.339475 -0.210023 0.135390 -0.210128 0.175118 0.321180 0.100137 0.048437 -0.195321 -0.100962 0.247738 0.133636 0.221803 -0.082209 -0.105424 0.183309 0.361400 0.195072 0.148137 0.296796 -0.027577 -0.362576 -0.377329 -0.209856 0.109266 0.247420 -0.050767 -0.152758 -0.230424 0.397107 0.007334 -0.274299 -0.270979 0.135814 -0.192066 -0.359508 -0.003291 0.644062 -0.273878 0.052197 -0.218333 0.157860 -0.495803 -0.188878 -0.168454 0.065076 -0.019910 0.031511
with 0.244014 0.064390 0.298423 -0.110313 0.344065 -0.130599 -0.085981 0.794463 -0.084779 0.214474 0.436549 -0.102310 0.305816 -0.234525 0.285399 0.017386 -0.074540 0.185582 -0.169668 0.201144 -0.088660 -0.153874 0.288092 -0.035400 0.030341 -0.444612 0.348086 0.291572 0.033769 -0.225672 0.123420 -0.310645 0.179903 0.195673 -0.119299 0.040651 0.136360 -0.177298 -0.140225 0.153461 0.200043 -0.149170 -0.330570 0.114013 0.015185 0.185663 -0.278268 -0.329380 0.014582 -0.108515 -0.018832 0.255729 -0.222873 -0.024752 -0.025855 -0.156240 0.182648 0.264103 0.193264 0.123714 0.113749 -0.156359 0.017043 0.002440 0.122799 -0.159469 -0.092210 0.243823 0.158270 0.180615 -0.026451 0.262459 0.045790 -0.235786 -0.483763 -0.213140 0.229205 0.115053 0.098164 -0.155802 -0.190393 0.230123 -0.043448 -0.237248 -0.075462 0.153845 -0.103172 -0.218251 -0.106762 0.521808 -0.379806 -0.023335 0.058064 0.131266 -0.349442 -0.037707 -0.383360 0.107224 -0.189511 -0.001143
as 0.309926 -0.093666 0.345465 -0.032171 0.216129 -0.297842 -0.026961 0.661354 0.073415 0.474777 0.452962 -0.084968 0.321340 -0.249793 0.212847 0.088749 -0.089808 0.024600 -0.150672 0.113487 -0.225780 -0.188920 0.129965 -0.101920 0.061281 -0.351783 0.284507 0.349735 0.033311 -0.422542 0.049229 -0.418778 0.039109 0.263017 0.024882 -0.066702 0.195840 -0.015194 0.100653 0.280073 0.121682 -0.322198 -0.411194 0.077969 0.105418 0.159743 -0.142587 -0.274313 -0.034337 -0.207552 0.090714 0.192171 -0.310826 -0.090453 0.074896 -0.222608 0.116837 0.375627 0.152788 -0.120269 -0.176753 -0.175960 0.164178 0.035562 0.139029 0.008035 -0.135969 0.206262 0.214612 0.238958 0.113908 0.283597 0.017811 -0.224416 -0.391111 -0.157066 0.204237 0.208226 -0.008890 -0.114897 -0.273873 0.332668 0.081077 -0.281112 -0.157093 0.133260 -0.191202 -0.230531 0.090425 0.639034 -0.325856 0.007415 -0.123846 0.061624 -0.319962 -0.153893 -0.151899 0.182678 -0.058815 0.012308
for 0.285863 -0.012480 0.370516 -0.092872 0.222025 -0.241731 -0.095157 0.737308 0.096009 0.473497 0.482836 -0.056859 0.287327 -0.201729 0.302289 0.087517 -0.057716 0.050509 -0.109397 0.123012 -0.202719 -0.167964 0.211017 -0.008903 0.005668 -0.428476 0.297455 0.288443 0.032733 -0.379317 0.076341 -0.388712 0.005101 0.261109 -0.022002 -0.024475 0.126623 0.002468 0.064839 0.211081 0.134737 -0.223207 -0.376777 -0.013823 0.082886 0.161093 -0.100174 -0.278227 -0.001197 -0.231558 0.077217 0.153950 -0.267638 -0.023914 0.048142 -0.129634 0.127485 0.370494 0.168669 -0.076851 -0.106122 -0.184476 0.150144 -0.017253 0.116498 0.001306 -0.140526 0.191663 0.160091 0.247246 0.050079 0.278407 -0.002619 -0.206811 -0.360362 -0.192691 0.289236 0.130499 0.005759 -0.119396 -0.290061 0.287626 0.082979 -0.307777 -0.079787 0.109041 -0.147552 -0.226252 0.051500 0.592121 -0.341611 0.046138 -0.066194 0.117711 -0.288968 -0.114222 -0.179049 0.214257 -0.094559 -0.044647
at 0.276942 -0.013483 0.340578 -0.049336 0.321276 -0.189887 -0.046232 0.656215 -0.006048 0.360524 0.439226 -0.062743 0.394222 -0.286466 0.279301 0.058842 -0.045857 0.073649 -0.236838 0.191402 -0.113514 -0.200392 0.181798 -0.127748 0.107836 -0.378782 0.297400 0.347620 0.024342 -0.339534 0.024180 -0.398364 0.166825 0.243019 -0.056960 -0.001774 0.211795 -0.147893 -0.035797 0.195388 0.155263 -0.264532 -0.339852 0.068506 0.067486 0.135945 -0.170521 -0.316969 -0.005714 -0.204852 0.036941 0.260709 -0.282421 -0.100360 0.037300 -0.213785 0.174728 0.330435 0.144698 0.105667 -0.049848 -0.135749 0.128986 0.037145 0.148468 -0.110445 -0.118059 0.212386 0.201592 0.222327 0.106167 0.223384 0.049757 -0.316607 -0.458087 -0.173472 0.203425 0.164362 0.027626 -0.168157 -0.209819 0.314956 -0.026002 -0.203986 -0.190610 0.168501 -0.152436 -0.240007 -0.028296 0.624783 -0.367012 0.060021 -0.082333 0.133365 -0.421488 -0.108514 -0.264003 0.152255 -0.125175 0.000078
is 0.290329 -0.034819 0.378588 -0.098059 0.206927 -0.282735 -0.105814 0.764041 0.130732 0.517779 0.484593 -0.064499 0.266384 -0.180135 0.287241 0.128325 -0.090906 0.000523 -0.051353 0.103281 -0.251491 -0.176412 0.215120 0.026991 -0.042619 -0.455016 0.293179 0.279244 0.060677 -0.360555 0.080052 -0.410008 -0.031369 0.283455 -0.036223 -0.041949 0.060327 0.037034 0.082396 0.251968 0.154445 -0.183283 -0.410339 -0.019855 0.073733 0.174434 -0.105300 -0.228169 -0.005225 -0.209729 0.074804 0.141074 -0.285344 -0.001486 0.042032 -0.120760 0.084096 0.376456 0.176653 -0.158289 -0.138608 -0.189964 0.163951 -0.077173 0.131445 0.035441 -0.125249 0.220352 0.141667 0.225628 0.032726 0.305383 -0.010328 -0.132016 -0.345221 -0.204617 0.351117 0.082207 0.016540 -0.108320 -0.310735 0.260610 0.144077 -0.367798 -0.059591 0.059755 -0.159242 -0.210047 0.094817 0.567682 -0.348232 0.049003 -0.069063 0.096041 -0.249791 -0.095246 -0.145590 0.201738 -0.112042 -0.096512
which 0.223937 0.025329 0.286471 -0.073987 0.333568 -0.178174 -0.029831 0.633807 -0.062193 0.281271 0.448263 -0.090609 0.348901 -0.326926 0.247386 0.066350 -0.056695 0.115706 -0.270738 0.204333 -0.051714 -0.164570 0.184754 -0.164957 0.143651 -0.310180 0.366387 0.287796 -0.023204 -0.284313 0.029930 -0.376736 0.189096 0.219387 -0.081176 0.047141 0.236657 -0.182773 -0.038290 0.171102 0.233314 -0.269568 -0.310288 0.147228 0.049941 0.174108 -0.158650 -0.280014 -0.053326 -0.220420 0.073993 0.314593 -0.281903 -0.152844 0.029854 -0.142038 0.183251 0.247654 0.140775 0.160840 0.011623 -0.134305 0.120743 0.073943 0.197076 -0.143828 -0.092245 0.211957 0.259779 0.179908 0.047514 0.218760 0.020033 -0.274554 -0.410799 -0.176884 0.146903 0.172703 0.015069 -0.184768 -0.174718 0.350758 -0.043691 -0.242372 -0.188472 0.164590 -0.125884 -0.307177 -0.028477 0.641533 -0.361871 0.016396 -0.117448 0.115680 -0.403884 -0.066092 -0.271892 0.090119 -0.144198 0.040446
my 0.275650 -0.049065 0.346995 -0.036404 0.275361 -0.312856 -0.016437 0.694128 0.066673 0.453124 0.395082 -0.041753 0.346351 -0.306448 0.266607 0.088952 -0.007729 0.053183 -0.178049 0.143977 -0.155079 -0.169830 0.198770 -0.112469 0.084647 -0.375777 0.291946 0.276891 -0.000780 -0.457482 -0.044273 -0.446017 0.057621 0.303070 -0.041369 -0.027535 0.188310 -0.010981 0.048950 0.250979 0.170331 -0.299254 -0.344580 0.057772 0.058348 0.124253 -0.107747 -0.260352 -0.022611 -0.248084 0.080482 0.185415 -0.326112 -0.080539 0.058225 -0.244973 0.142318 0.387630 0.142419 0.017724 -0.187317 -0.152970 0.158485 0.028612 0.129556 0.021964 -0.168110 0.150667 0.202170 0.222712 0.104499 0.224905 0.039538 -0.240076 -0.419449 -0.167081 0.193668 0.166886 0.003316 -0.151716 -0.301471 0.327980 0.080358 -0.227826 -0.215789 0.103272 -0.142321 -0.228437 0.032700 0.677092 -0.344658 0.071872 -0.142916 0.102667 -0.355741 -0.098540 -0.154279 0.192946 -0.096954 -0.005809
have 0.352245 -0.144127 0.406282 -0.094871 0.076753 -0.381085 -0.124093 0.709704 0.275924 0.754635 0.472531 -0.015921 0.221800 -0.171830 0.300799 0.165197 -0.065396 -0.093917 -0.028035 0.036717 -0.357129 -0.169706 0.149891 0.015473 -0.054580 -0.475624 0.224728 0.283416 0.048386 -0.563845 0.021446 -0.490174 -0.195819 0.381599 0.080460 -0.116054 0.136210 0.241770 0.276042 0.342659 0.096421 -0.259612 -0.459985 -0.150578 0.119750 0.133872 0.050172 -0.199372 0.003098 -0.300113 0.119772 0.029471 -0.307267 -0.058703 0.082161 -0.168301 0.039213 0.527391 0.167948 -0.296690 -0.388904 -0.222452 0.247436 -0.063240 0.101830 0.202961 -0.194340 0.163848 0.213249 0.329605 0.102693 0.294421 -0.078181 -0.128333 -0.214893 -0.226317 0.346049 0.137463 -0.078585 -0.021942 -0.446030 0.286785 0.246198 -0.365775 -0.105869 0.048661 -0.157503 -0.221139 0.216920 0.663481 -0.282074 0.066995 -0.168018 0.110699 -0.199201 -0.191260 0.049326 0.286992 0.050011 -0.072409
be 0.317730 -0.066104 0.405711 -0.153315 0.150811 -0.308197 -0.098521 0.808574 0.180635 0.690439 0.512239 -0.057363 0.170483 -0.202033 0.283174 0.157874 -0.111003 0.015223 -0.043397 0.046678 -0.327558 -0.192076 0.183023 0.000591 -0.072005 -0.529261 0.256657 0.216068 -0.045736 -0.494587 -0.035405 -0.465239 -0.162720 0.324228 -0.034951 -0.060485 0.080633 0.159011 0.170963 0.300173 0.150130 -0.309316 -0.430327 -0.076192 0.047522 0.222967 0.024960 -0.249118 0.003068 -0.242594 0.143920 0.038086 -0.289038 -0.013789 0.025482 -0.139044 0.081033 0.546545 0.153375 -0.213870 -0.249341 -0.240857 0.185188 -0.081785 0.087398 0.135192 -0.201250 0.193194 0.183239 0.355986 0.078297 0.254156 -0.042499 -0.129403 -0.286986 -0.146582 0.333505 0.121596 -0.045726 -0.059657 -0.378219 0.269568 0.207469 -0.380673 -0.075325 0.045758 -0.154444 -0.258818 0.206354 0.708937 -0.407215 0.069379 -0.132447 0.066013 -0.163663 -0.111652 -0.022167 0.326098 -0.033292 -0.116985
this 0.237037 0.091855 0.256979 -0.193314 0.263403 -0.182041 -0.147250 0.917969 -0.066772 0.286298 0.516712 -0.080184 0.203988 -0.148319 0.352776 0.048868 -0.110024 0.245976 -0.063645 0.180897 -0.166570 -0.138464 0.354653 0.024402 -0.085093 -0.520175 0.389304 0.194923 0.008015 -0.214895 0.146720 -0.275105 0.103344 0.250484 -0.147213 0.080175 0.053475 -0.097092 -0.094137 0.125677 0.230741 -0.139597 -0.333294 0.113511 -0.030292 0.239310 -0.219585 -0.284725 0.004897 -0.103084 0.016506 0.226792 -0.210326 0.033090 -0.079305 -0.126386 0.144355 0.260830 0.267377 0.028593 0.159885 -0.193968 0.010760 -0.094255 0.103674 -0.104692 -0.092825 0.283273 0.084889 0.216767 -0.074450 0.239290 0.021478 -0.125546 -0.452161 -0.208977 0.371469 0.074733 0.083951 -0.162281 -0.250398 0.194841 0.026542 -0.313942 0.042405 0.129743 -0.055118 -0.217751 -0.019244 0.525848 -0.421312 -0.022172 0.076437 0.123149 -0.229729 0.031498 -0.357198 0.176814 -0.251361 -0.029885
him 0.301971 -0.063024 0.349634 -0.056557 0.247880 -0.295931 -0.025758 0.645131 0.089586 0.488661 0.409007 -0.046811 0.327108 -0.285435 0.253472 0.109436 -0.042634 0.020653 -0.175281 0.101801 -0.199550 -0.162572 0.192156 -0.110123 0.068013 -0.366543 0.276049 0.307044 0.001811 -0.456283 -0.027686 -0.465023 0.036231 0.297138 -0.018211 -0.045264 0.217624 -0.012404 0.089606 0.283957 0.162801 -0.301648 -0.348372 0.015958 0.071473 0.142015 -0.067305 -0.251911 -0.033968 -0.249757 0.092569 0.172132 -0.306967 -0.089487 0.088076 -0.223600 0.123842 0.378105 0.125106 -0.023395 -0.197056 -0.168358 0.182862 0.055304 0.154652 0.021813 -0.156198 0.158721 0.240937 0.241356 0.111171 0.237419 0.004690 -0.252888 -0.377240 -0.156033 0.194063 0.175804 -0.022608 -0.143356 -0.299692 0.325807 0.080010 -0.265517 -0.202616 0.111117 -0.161203 -0.256324 0.090347 0.672271 -0.327726 0.072484 -0.178790 0.091907 -0.333870 -0.119812 -0.115526 0.208251 -0.082838 -0.015242
there 0.305760 0.018159 0.340021 -0.080270 0.229472 -0.291415 -0.031724 0.677126 0.093027 0.471263 0.531287 -0.073484 0.320835 -0.259629 0.232215 0.110991 -0.095613 0.031795 -0.117163 0.182002 -0.196338 -0.198725 0.150335 -0.076957 0.053589 -0.309714 0.327922 0.269134 -0.006757 -0.358048 0.037150 -0.439392 0.051133 0.238542 -0.023577 0.008605 0.142738 -0.071127 0.107021 0.219959 0.188571 -0.281775 -0.354395 0.088137 0.084364 0.170964 -0.042042 -0.232579 -0.039637 -0.303567 0.138566 0.257966 -0.371457 -0.135489 0.056849 -0.106927 0.138891 0.338379 0.167860 -0.012584 -0.154570 -0.148249 0.209161 0.007495 0.158350 -0.010090 -0.092668 0.175587 0.182839 0.224390 0.083356 0.239234 0.033391 -0.196516 -0.328018 -0.195382 0.258695 0.133212 -0.023095 -0.203247 -0.227250 0.363087 0.032451 -0.319681 -0.154733 0.113260 -0.157242 -0.282230 0.100811 0.682900 -0.343989 0.052138 -0.176909 0.086524 -0.311994 -0.111685 -0.136052 0.162687 -0.128245 -0.035156
on 0.250854 0.042789 0.326091 -0.095859 0.359116 -0.172907 -0.063086 0.723465 -0.042995 0.291267 0.456889 -0.082263 0.338911 -0.291752 0.286721 0.051147 -0.064137 0.137577 -0.231612 0.195460 -0.091239 -0.156439 0.248248 -0.100180 0.096317 -0.412719 0.341343 0.298104 0.018652 -0.276752 0.084099 -0.381074 0.183398 0.240732 -0.088440 0.028363 0.178402 -0.153742 -0.074361 0.200593 0.216675 -0.235121 -0.350682 0.103770 0.042658 0.175935 -0.216964 -0.320583 -0.021171 -0.183657 0.033018 0.286349 -0.246010 -0.084614 0.028890 -0.166545 0.177073 0.264503 0.170949 0.120881 0.030963 -0.148654 0.087511 0.044341 0.161727 -0.139664 -0.113543 0.250961 0.216169 0.194798 0.024897 0.238751 0.029258 -0.280577 -0.465683 -0.204651 0.200805 0.170692 0.052254 -0.156301 -0.219128 0.310074 -0.031591 -0.252239 -0.127505 0.180226 -0.118841 -0.280491 -0.033415 0.623356 -0.402488 0.026166 -0.026540 0.128850 -0.402543 -0.048381 -0.315131 0.113243 -0.152298 0.002444
me 0.319883 -0.087641 0.388204 -0.088809 0.169250 -0.344567 -0.057173 0.716208 0.170142 0.607614 0.442465 -0.023412 0.250365 -0.244672 0.286536 0.146765 -0.021877 -0.011221 -0.081524 0.058194 -0.282932 -0.154477 0.197772 -0.029446 -0.013055 -0.443852 0.242482 0.273833 0.015277 -0.530927 -0.041867 -0.453262 -0.078669 0.333616 0.006521 -0.068192 0.154975 0.126359 0.169851 0.299106 0.112652 -0.314564 -0.369874 -0.037063 0.063026 0.146335 0.007798 -0.232338 -0.025373 -0.256497 0.115765 0.073289 -0.324297 -0.018316 0.064345 -0.209246 0.077465 0.461214 0.163856 -0.159453 -0.290182 -0.206833 0.177868 -0.029852 0.097829 0.151792 -0.188159 0.133220 0.171298 0.284056 0.103360 0.248711 -0.004132 -0.177608 -0.333588 -0.139467 0.284777 0.121238 -0.022319 -0.104130 -0.357207 0.295697 0.171894 -0.283491 -0.163347 0.078410 -0.155656 -0.212737 0.144209 0.649324 -0.320661 0.077907 -0.165305 0.070082 -0.222071 -0.137088 -0.024763 0.296759 -0.065544 -0.064501
s 0.291073 -0.018810 0.365192 -0.055742 0.297515 -0.240862 -0.053880 0.775774 0.050847 0.401608 0.478236 -0.083053 0.358787 -0.247397 0.258366 0.087727 -0.063333 0.057041 -0.163961 0.185254 -0.157309 -0.190752 0.226078 -0.053543 0.061848 -0.393297 0.323285 0.297127 0.033609 -0.327581 0.072719 -0.390190 0.087227 0.258655 -0.059864 -0.000137 0.137573 -0.072874 -0.017642 0.203606 0.176487 -0.215280 -0.407754 0.049975 0.066813 0.158888 -0.176410 -0.286731 -0.013512 -0.224398 0.044094 0.210353 -0.290968 -0.047857 0.025707 -0.194289 0.172341 0.373042 0.163647 0.011159 -0.084428 -0.143658 0.123607 -0.003604 0.163572 -0.073241 -0.117887 0.214689 0.209487 0.217017 0.063346 0.297140 0.029850 -0.209395 -0.433260 -0.190438 0.275508 0.118519 0.034891 -0.162032 -0.247487 0.316436 0.056160 -0.286057 -0.131751 0.104507 -0.158276 -0.213949 0.007214 0.591278 -0.372007 0.027611 -0.084910 0.130532 -0.355027 -0.119985 -0.233126 0.157811 -0.137853 -0.046815
said 0.374543 -0.167208 0.431778 -0.019500 0.168986 -0.388499 -0.060659 0.687423 0.237239 0.671938 0.461411 -0.021701 0.318280 -0.210725 0.311901 0.133635 -0.002178 -0.112941 -0.065285 0.045877 -0.324556 -0.239266 0.153641 0.009872 -0.010338 -0.442562 0.149122 0.342264 0.074088 -0.577341 -0.072047 -0.475905 -0.086059 0.360910 0.087659 -0.129869 0.174439 0.150121 0.241009 0.294318 0.020700 -0.302792 -0.403457 -0.137622 0.128379 0.086285 0.009941 -0.253409 0.017573 -0.259610 0.092242 0.028940 -0.330613 -0.024972 0.083289 -0.264344 0.055921 0.533930 0.151081 -0.216738 -0.380834 -0.184175 0.218161 -0.014638 0.079400 0.199509 -0.242353 0.097462 0.177975 0.352212 0.177485 0.289011 -0.033280 -0.225268 -0.298550 -0.133574 0.310510 0.135012 0.010809 -0.066791 -0.382265 0.335471 0.198950 -0.246600 -0.162036 0.068071 -0.166847 -0.150999 0.159639 0.598612 -0.259435 0.112596 -0.199267 0.096363 -0.230170 -0.246890 -0.001020 0.333602 0.024588 -0.086746
all 0.271680 -0.011295 0.309923 -0.100405 0.238110 -0.228531 -0.093389 0.733528 0.028950 0.374975 0.439494 -0.072493 0.243384 -0.225787 0.283542 0.068839 -0.080966 0.108691 -0.115627 0.133713 -0.164988 -0.156257 0.234876 -0.028485 0.002350 -0.426518 0.327643 0.247878 0.025477 -0.336748 0.067997 -0.373711 0.042506 0.257218 -0.053477 0.011789 0.137280 -0.036198 0.022492 0.203937 0.168516 -0.208774 -0.346709 0.040856 0.046317 0.160708 -0.137414 -0.252502 -0.003809 -0.193022 0.051259 0.185736 -0.247919 -0.042439 0.014129 -0.138040 0.133845 0.315356 0.185841 -0.018037 -0.041700 -0.169618 0.107539 -0.023302 0.116147 -0.021138 -0.124967 0.213519 0.161614 0.213585 0.015876 0.252559 0.013010 -0.180593 -0.375224 -0.178957 0.281649 0.135757 0.007724 -0.118063 -0.247494 0.254382 0.067356 -0.292391 -0.064432 0.108105 -0.116709 -0.224837 0.038187 0.549394 -0.336306 0.021043 -0.047819 0.113287 -0.272160 -0.074859 -0.203259 0.185580 -0.119527 -0.019480
upon 0.244832 0.054756 0.308603 -0.035077 0.393444 -0.151739 -0.011554 0.657052 -0.084775 0.220639 0.424317 -0.107547 0.393749 -0.343431 0.234833 0.025953 -0.067772 0.128377 -0.291340 0.232105 -0.021957 -0.151321 0.210919 -0.180810 0.169136 -0.326798 0.341297 0.334510 0.001373 -0.249176 0.050537 -0.387048 0.267375 0.205311 -0.110624 0.039800 0.240816 -0.236842 -0.123220 0.170464 0.224050 -0.247363 -0.336915 0.144216 0.050971 0.152893 -0.257659 -0.327093 -0.043117 -0.177162 0.034121 0.343044 -0.268647 -0.147412 0.039245 -0.170580 0.210325 0.260437 0.143163 0.224585 0.051649 -0.118712 0.102983 0.082646 0.193639 -0.201783 -0.090645 0.231724 0.252427 0.165600 0.041603 0.253603 0.037161 -0.337390 -0.468089 -0.202799 0.127360 0.174754 0.064610 -0.191308 -0.152035 0.361040 -0.097519 -0.206134 -0.181476 0.194366 -0.147648 -0.288104 -0.078136 0.624373 -0.388047 0.013320 -0.053475 0.137703 -0.473879 -0.072290 -0.351350 0.040930 -0.144069 0.019980
we 0.381283 -0.054430 0.404095 -0.082724 0.223968 -0.346904 -0.079274 0.747809 0.176665 0.624992 0.511615 -0.004471 0.251082 -0.236728 0.321337 0.158966 -0.020873 0.006525 -0.097934 0.067130 -0.286134 -0.185340 0.207692 -0.006165 0.024517 -0.460353 0.240828 0.229525 -0.015141 -0.539986 -0.027969 -0.475551 -0.084101 0.329808 0.004996 -0.052210 0.195996 0.104020 0.158435 0.274382 0.101195 -0.354817 -0.382877 -0.024425 0.075520 0.165365 -0.011147 -0.230612 -0.030618 -0.281486 0.130361 0.089197 -0.309589 -0.074401 0.077779 -0.175146 0.087661 0.496705 0.160667 -0.169507 -0.279135 -0.255592 0.216968 0.000592 0.084206 0.149658 -0.178463 0.147558 0.188075 0.311927 0.115652 0.259083 0.015330 -0.197141 -0.329274 -0.183731 0.332481 0.136118 -0.004023 -0.155604 -0.369105 0.351259 0.151841 -0.301834 -0.151775 0.070976 -0.140334 -0.260923 0.168951 0.707154 -0.365081 0.086226 -0.147461 0.080569 -0.219973 -0.124534 -0.023483 0.327721 -0.043987 -0.029321
from 0.240992 0.049671 0.317775 -0.092056 0.336395 -0.159642 -0.054999 0.729808 -0.058893 0.278241 0.441005 -0.097834 0.333882 -0.279630 0.278928 0.056724 -0.058734 0.124449 -0.221463 0.202098 -0.083261 -0.165284 0.236128 -0.107933 0.075838 -0.405587 0.340366 0.305838 0.031540 -0.275566 0.080857 -0.368035 0.178798 0.220476 -0.100733 0.034517 0.176320 -0.162876 -0.067465 0.175971 0.203577 -0.220006 -0.348818 0.087074 0.046164 0.164360 -0.227218 -0.303028 -0.024264 -0.184382 0.026019 0.281776 -0.257411 -0.091957 0.019393 -0.148287 0.171241 0.273118 0.166411 0.137954 0.038223 -0.159823 0.090672 0.034871 0.167985 -0.135712 -0.108849 0.255777 0.216401 0.198072 0.021222 0.256575 0.014387 -0.284119 -0.458511 -0.213229 0.218994 0.152462 0.066565 -0.159807 -0.202362 0.299911 -0.040541 -0.248721 -0.116618 0.167586 -0.130773 -0.275778 -0.051463 0.595974 -0.377635 0.006029 -0.023353 0.140616 -0.392725 -0.073150 -0.323998 0.099931 -0.160470 0.007319
not 0.371538 -0.128083 0.393625 -0.112916 0.116043 -0.388059 -0.104768 0.802283 0.224547 0.657300 0.518339 -0.036602 0.246640 -0.195990 0.320607 0.191379 -0.070576 0.007297 -0.021238 0.072701 -0.325750 -0.196628 0.210679 0.019551 -0.024851 -0.487211 0.284916 0.243939 0.024559 -0.562660 0.037575 -0.492556 -0.139308 0.363266 0.036853 -0.069818 0.137231 0.193282 0.248795 0.285807 0.104601 -0.272681 -0.427638 -0.048536 0.102612 0.171317 0.044581 -0.210055 0.004356 -0.288292 0.128764 0.066265 -0.337223 -0.030611 0.081068 -0.134486 0.047970 0.493732 0.195201 -0.272307 -0.304470 -0.239517 0.226772 -0.029923 0.080327 0.189274 -0.161963 0.131713 0.166444 0.295596 0.100689 0.282751 -0.042024 -0.134585 -0.264197 -0.175455 0.369977 0.108311 -0.069218 -0.094519 -0.410078 0.324543 0.197784 -0.360034 -0.080896 0.063979 -0.181243 -0.225282 0.206942 0.655892 -0.293283 0.065774 -0.158321 0.089194 -0.183027 -0.175547 0.004148 0.334783 -0.044559 -0.068444
but 0.305155 -0.042129 0.363212 -0.066552 0.215942 -0.314938 -0.048585 0.711169 0.136698 0.516222 0.456157 -0.049803 0.321126 -0.252672 0.259646 0.116146 -0.049896 0.015285 -0.147078 0.122430 -0.218443 -0.169334 0.181286 -0.070173 0.061414 -0.392823 0.296930 0.305647 0.017969 -0.437065 0.020631 -0.450577 -0.003332 0.300347 -0.006489 -0.046792 0.180007 0.017909 0.114630 0.266526 0.140665 -0.269889 -0.398692 0.005989 0.080506 0.158228 -0.054277 -0.252994 -0.035221 -0.274166 0.098530 0.172362 -0.318587 -0.085977 0.059375 -0.167922 0.120739 0.404226 0.165223 -0.074448 -0.211965 -0.180484 0.190408 0.014339 0.148436 0.035422 -0.148407 0.172533 0.223629 0.252834 0.091700 0.282160 0.003555 -0.215311 -0.340160 -0.203015 0.265370 0.158456 -0.010855 -0.128996 -0.294428 0.345220 0.092536 -0.297625 -0.135755 0.105540 -0.168526 -0.244028 0.081533 0.656486 -0.329562 0.056249 -0.139567 0.104647 -0.321647 -0.135779 -0.109452 0.206307 -0.072880 -0.037163
or 0.181261 0.186800 0.263246 -0.279835 0.327696 -0.090693 -0.208897 1.072273 -0.180567 0.147738 0.568821 -0.145036 0.175853 -0.093693 0.387457 0.017902 -0.139097 0.338810 -0.032166 0.198560 -0.124456 -0.099047 0.422676 0.087934 -0.143760 -0.611071 0.443683 0.182450 0.057937 -0.055032 0.264633 -0.184957 0.152472 0.183052 -0.232772 0.140719 -0.033005 -0.187520 -0.263179 0.061036 0.237680 -0.040739 -0.372784 0.147323 -0.084810 0.310789 -0.341434 -0.346022 0.055789 -0.023629 -0.031040 0.259373 -0.131364 0.129995 -0.121627 -0.060558 0.164531 0.176560 0.336093 0.087992 0.398967 -0.204125 -0.129666 -0.144662 0.105329 -0.225816 -0.070366 0.355740 0.018131 0.172270 -0.226163 0.292666 0.029119 -0.081694 -0.538805 -0.264157 0.413333 0.021833 0.145310 -0.159247 -0.221336 0.123584 -0.039388 -0.318858 0.148144 0.146038 -0.037235 -0.230794 -0.096690 0.445801 -0.479243 -0.063968 0.242648 0.153457 -0.228308 0.090402 -0.523484 0.154462 -0.332548 -0.026816
no 0.296678 -0.073136 0.359071 -0.077915 0.158217 -0.315674 -0.054330 0.710499 0.173819 0.518392 0.523909 -0.025506 0.293998 -0.209887 0.285975 0.154520 -0.078912 0.015617 -0.097710 0.139137 -0.239668 -0.211362 0.148691 -0.068357 0.021334 -0.348595 0.317305 0.279587 -0.006337 -0.408786 0.012980 -0.443970 -0.018652 0.293812 -0.030693 -0.001718 0.135762 0.005090 0.169642 0.205554 0.131738 -0.242763 -0.396353 -0.008582 0.080932 0.152284 -0.026919 -0.227394 -0.034681 -0.318934 0.113145 0.176201 -0.336510 -0.106178 0.026031 -0.096724 0.122654 0.397264 0.156162 -0.095625 -0.196307 -0.154485 0.210349 -0.009245 0.157302 0.035018 -0.133643 0.183411 0.201333 0.235658 0.094734 0.267303 -0.008921 -0.174280 -0.300433 -0.144501 0.327568 0.093497 -0.034621 -0.167501 -0.275252 0.372515 0.116405 -0.357288 -0.093084 0.076131 -0.182199 -0.224194 0.140290 0.629087 -0.285308 0.060906 -0.175246 0.092716 -0.266718 -0.140675 -0.107931 0.222412 -0.074560 -0.060399
by 0.217239 0.091402 0.282800 -0.088487 0.365809 -0.119071 -0.061121 0.737685 -0.107926 0.192728 0.455269 -0.112081 0.328227 -0.271980 0.266903 0.034088 -0.084555 0.179161 -0.236777 0.233195 -0.042144 -0.158949 0.252346 -0.099912 0.082343 -0.375516 0.378815 0.294268 0.021302 -0.197282 0.112865 -0.324822 0.226967 0.190557 -0.133552 0.066295 0.183307 -0.249260 -0.150636 0.147861 0.238491 -0.194449 -0.347143 0.151676 0.023823 0.188024 -0.269917 -0.327314 -0.033896 -0.147579 0.017338 0.317492 -0.234484 -0.099715 0.000754 -0.128257 0.198140 0.225066 0.179239 0.194024 0.128517 -0.140348 0.050344 0.049590 0.184410 -0.215311 -0.067808 0.273002 0.200276 0.160555 -0.013443 0.254939 0.048358 -0.273487 -0.487524 -0.210068 0.186523 0.148804 0.079986 -0.185803 -0.156007 0.292436 -0.075443 -0.239866 -0.106604 0.170351 -0.121381 -0.285848 -0.109017 0.565170 -0.389200 -0.009515 0.004451 0.135571 -0.406639 -0.032011 -0.378262 0.064773 -0.199107 0.021003
they 0.306439 -0.005161 0.355215 -0.091628 0.314140 -0.219079 -0.065324 0.696568 0.027402 0.415905 0.516206 -0.050421 0.302206 -0.304156 0.279616 0.110401 -0.022199 0.079173 -0.246540 0.172595 -0.136281 -0.162771 0.186861 -0.142083 0.110322 -0.389302 0.348160 0.254092 -0.032798 -0.415978 0.041360 -0.458093 0.086456 0.264096 -0.057863 0.021557 0.247262 -0.094306 0.058060 0.240181 0.202557 -0.365087 -0.349874 0.087690 0.063472 0.181406 -0.095357 -0.262014 -0.057490 -0.254398 0.120987 0.246116 -0.311013 -0.157551 0.080959 -0.137113 0.159194 0.340038 0.119955 0.041294 -0.095329 -0.210297 0.168732 0.077308 0.155672 -0.043373 -0.128633 0.207264 0.267117 0.235488 0.081254 0.232743 0.036995 -0.249995 -0.380504 -0.205922 0.219090 0.205608 -0.009198 -0.200338 -0.253100 0.367049 0.035473 -0.288354 -0.175159 0.145643 -0.119112 -0.343639 0.056420 0.702436 -0.396549 0.043049 -0.140874 0.110181 -0.361853 -0.087097 -0.172318 0.192041 -0.106374 0.029873
her 0.271071 0.004655 0.295433 -0.049276 0.337136 -0.264349 -0.021130 0.712633 -0.009700 0.348226 0.414931 -0.095729 0.390963 -0.328346 0.229757 0.054045 -0.029672 0.080225 -0.209110 0.194928 -0.138620 -0.183206 0.249159 -0.130599 0.112075 -0.350305 0.351201 0.299621 -0.013330 -0.376689 0.004876 -0.420575 0.154152 0.240447 -0.089583 0.010165 0.224762 -0.134101 -0.034534 0.221236 0.199238 -0.243259 -0.343806 0.093612 0.034391 0.165171 -0.178167 -0.271634 -0.012394 -0.180435 0.044399 0.256735 -0.324266 -0.105518 0.040447 -0.232277 0.195107 0.365305 0.137742 0.104704 -0.072459 -0.162098 0.131555 0.046929 0.172520 -0.098485 -0.096285 0.198040 0.272773 0.194379 0.059816 0.254170 0.052996 -0.259920 -0.471250 -0.188326 0.168228 0.151831 0.067692 -0.208682 -0.234463 0.343682 -0.008913 -0.203711 -0.202046 0.116578 -0.151438 -0.233186 -0.003847 0.662914 -0.361189 0.029454 -0.114729 0.100455 -0.374107 -0.078954 -0.251382 0.134350 -0.161042 0.007748
were 0.200524 0.020911 0.311690 -0.049007 0.331282 -0.168956 -0.043005 0.624281 -0.052649 0.280589 0.445851 -0.073388 0.333148 -0.264868 0.219391 0.077442 -0.042438 0.097434 -0.289521 0.214346 -0.069166 -0.125523 0.161098 -0.176319 0.099418 -0.294403 0.338368 0.309835 0.010823 -0.290329 0.064786 -0.370632 0.202930 0.208601 -0.066011 0.012210 0.244152 -0.212172 -0.032776 0.211691 0.205346 -0.283106 -0.384292 0.088448 0.069184 0.158452 -0.208411 -0.276464 -0.074260 -0.213435 0.066160 0.320560 -0.228138 -0.154911 0.038786 -0.140278 0.185980 0.234475 0.112820 0.115023 -0.001181 -0.125196 0.112730 0.086092 0.172792 -0.130859 -0.082582 0.265084 0.271233 0.159592 0.052836 0.246670 0.044375 -0.286755 -0.426889 -0.186934 0.139266 0.207981 0.055352 -0.159028 -0.180888 0.348974 -0.025095 -0.224608 -0.142457 0.171458 -0.120447 -0.305853 -0.031448 0.584586 -0.339672 -0.022416 -0.068674 0.125182 -0.443075 -0.110940 -0.288292 0.028101 -0.120715 0.063477
one 0.207715 0.076669 0.277194 -0.079532 0.330642 -0.177106 -0.034308 0.667107 -0.059603 0.260871 0.434599 -0.086430 0.338307 -0.276830 0.256942 0.080037 -0.081015 0.123318 -0.234004 0.214898 -0.067535 -0.141408 0.217777 -0.124082 0.105711 -0.335676 0.345144 0.272655 -0.015600 -0.241734 0.046872 -0.344539 0.192239 0.203569 -0.111463 0.034735 0.180808 -0.211352 -0.080569 0.159307 0.238126 -0.224529 -0.332284 0.119133 0.029193 0.182691 -0.185479 -0.291249 -0.049976 -0.199556 0.052296 0.313856 -0.269273 -0.113666 0.001926 -0.135462 0.194640 0.255464 0.160530 0.172016 0.046831 -0.132306 0.123836 0.033783 0.182278 -0.166441 -0.083587 0.232631 0.208725 0.194064 0.024003 0.231609 0.037231 -0.270132 -0.428094 -0.167753 0.183852 0.130469 0.048113 -0.197210 -0.156745 0.310476 -0.043999 -0.241622 -0.130252 0.143774 -0.123705 -0.294462 -0.041887 0.599330 -0.384837 0.023036 -0.065804 0.123757 -0.398774 -0.039648 -0.292428 0.072259 -0.179342 -0.000347
so 0.304163 -0.055663 0.346418 -0.049650 0.227835 -0.291072 -0.050779 0.711023 0.121466 0.506673 0.448940 -0.050188 0.311034 -0.250766 0.264016 0.112535 -0.059550 0.030676 -0.128987 0.127485 -0.203639 -0.159928 0.167838 -0.073695 0.053886 -0.384659 0.306694 0.291588 0.042503 -0.432339 0.029623 -0.435684 0.008600 0.292656 0.001242 -0.043962 0.182280 0.012077 0.115561 0.250470 0.130640 -0.270991 -0.382711 0.007649 0.087698 0.150970 -0.061258 -0.236824 -0.012724 -0.250127 0.099040 0.174191 -0.314626 -0.091910 0.060581 -0.160098 0.103062 0.395459 0.145586 -0.080719 -0.194004 -0.186768 0.193500 0.007619 0.140070 0.033916 -0.125427 0.198360 0.215550 0.246865 0.089012 0.264150 -0.011415 -0.216468 -0.340905 -0.185975 0.266066 0.142804 -0.023390 -0.120792 -0.295677 0.318650 0.089561 -0.292620 -0.129405 0.103664 -0.152464 -0.237079 0.083432 0.639532 -0.316841 0.053424 -0.140595 0.115793 -0.305296 -0.150348 -0.129433 0.207164 -0.084825 -0.020350
are 0.278239 -0.018698 0.369312 -0.121687 0.171803 -0.279241 -0.110910 0.771509 0.130174 0.532549 0.495950 -0.036539 0.199818 -0.163102 0.318836 0.126532 -0.040415 0.030950 -0.053667 0.080387 -0.271711 -0.148150 0.218521 0.043261 -0.065872 -0.473789 0.248587 0.251471 0.045274 -0.408074 0.056295 -0.376108 -0.038784 0.312530 -0.030054 -0.058259 0.103938 0.076640 0.108728 0.230776 0.120747 -0.248118 -0.422791 -0.074237 0.059616 0.170359 -0.088220 -0.227590 -0.020876 -0.213661 0.081668 0.096911 -0.225048 -0.023795 0.018770 -0.144765 0.097156 0.408453 0.174551 -0.163946 -0.174865 -0.211470 0.129537 -0.056667 0.089352 0.105186 -0.161879 0.229888 0.148082 0.250001 0.032351 0.266221 -0.021201 -0.134971 -0.312004 -0.204286 0.324569 0.117476 0.046725 -0.094062 -0.335971 0.282493 0.150071 -0.316805 -0.020941 0.087701 -0.096132 -0.220964 0.115510 0.575401 -0.318755 0.005253 -0.030382 0.108503 -0.225910 -0.118189 -0.124677 0.193096 -0.056459 -0.029561
man 0.271770 0.019350 0.301019 -0.067196 0.278892 -0.217163 -0.019219 0.681356 -0.006848 0.329030 0.431607 -0.092578 0.325860 -0.305844 0.237699 0.076586 -0.090809 0.103563 -0.172021 0.172031 -0.125090 -0.178459 0.181915 -0.095936 0.078668 -0.343757 0.327289 0.293466 0.001654 -0.296810 0.036241 -0.386634 0.126068 0.221426 -0.089019 0.003898 0.164654 -0.133922 -0.044993 0.198335 0.176241 -0.243257 -0.346879 0.104675 0.051250 0.154445 -0.164053 -0.283690 -0.032481 -0.207195 0.056326 0.250595 -0.286670 -0.088462 0.022737 -0.146694 0.147708 0.332229 0.139634 0.068150 -0.036130 -0.136174 0.125019 0.025453 0.152244 -0.097968 -0.092609 0.198606 0.191348 0.199957 0.051233 0.240595 0.019781 -0.233718 -0.401397 -0.168202 0.200639 0.140534 0.023694 -0.177240 -0.197814 0.315487 -0.017211 -0.229970 -0.155606 0.138397 -0.153479 -0.256226 -0.011985 0.600888 -0.362026 0.024637 -0.086129 0.084529 -0.359823 -0.089330 -0.237937 0.127724 -0.147946 -0.018525
been 0.276604 -0.068824 0.350622 -0.048000 0.215631 -0.280372 0.001097 0.611044 0.093426 0.430449 0.479921 -0.051213 0.325902 -0.291047 0.246668 0.127976 -0.019390 0.050715 -0.259343 0.131221 -0.131195 -0.190303 0.109068 -0.167045 0.163112 -0.275127 0.348889 0.320648 -0.043048 -0.452370 -0.004561 -0.434777 0.036772 0.286711 -0.057437 0.021703 0.276855 -0.068644 0.105328 0.213524 0.149861 -0.336665 -0.364170 0.046257 0.075743 0.146699 -0.007155 -0.290832 -0.086497 -0.325141 0.116322 0.221092 -0.335129 -0.178300 0.037415 -0.131082 0.178944 0.365932 0.107065 0.029514 -0.178181 -0.111313 0.170098 0.084634 0.197641 -0.009043 -0.115255 0.142593 0.284897 0.221652 0.141994 0.285393 -0.004222 -0.212610 -0.299683 -0.143773 0.198942 0.171979 -0.046810 -0.226097 -0.214671 0.399264 0.037717 -0.274526 -0.213450 0.110861 -0.180162 -0.261626 0.058584 0.653188 -0.285258 0.072776 -0.216508 0.111421 -0.343720 -0.130682 -0.098241 0.201568 -0.047647 -0.015782
them 0.265505 -0.010481 0.330947 -0.067593 0.283754 -0.248629 -0.044556 0.675212 0.028092 0.394721 0.429320 -0.047745 0.300627 -0.269566 0.255194 0.111487 -0.049201 0.069071 -0.188709 0.148186 -0.146930 -0.158376 0.198319 -0.108460 0.064197 -0.380871 0.303945 0.269207 0.000804 -0.374038 0.013296 -0.415774 0.077762 0.269930 -0.053037 -0.013622 0.204544 -0.076907 0.045748 0.228828 0.179770 -0.279876 -0.354617 0.056040 0.043203 0.159473 -0.106956 -0.276681 -0.028753 -0.244973 0.074625 0.229201 -0.275422 -0.107770 0.053842 -0.180363 0.138366 0.344754 0.148898 0.044533 -0.113755 -0.157253 0.138374 0.040026 0.142964 -0.041635 -0.138781 0.193093 0.228586 0.227841 0.074664 0.246148 0.038040 -0.246193 -0.390918 -0.175127 0.208170 0.153416 0.015430 -0.158932 -0.242636 0.320899 0.045597 -0.248204 -0.146269 0.136507 -0.131098 -0.279659 0.033248 0.621494 -0.350221 0.039542 -0.101659 0.121695 -0.347839 -0.104616 -0.179714 0.161403 -0.112317 -0.021870
when 0.310716 -0.053651 0.365105 -0.066232 0.237124 -0.279080 -0.057508 0.651129 0.106208 0.474615 0.417114 -0.051563 0.343868 -0.282434 0.275106 0.109276 -0.040486 0.017983 -0.171836 0.100120 -0.197801 -0.180132 0.184777 -0.080763 0.068928 -0.384967 0.271494 0.325211 0.032333 -0.443905 0.027661 -0.448999 0.055961 0.311189 0.012337 -0.041743 0.185907 -0.006350 0.102217 0.269953 0.149803 -0.288005 -0.354842 0.013202 0.084867 0.138456 -0.082554 -0.258925 -0.014022 -0.247405 0.082638 0.183054 -0.298411 -0.095382 0.080288 -0.206615 0.122971 0.367808 0.141827 -0.049128 -0.200981 -0.159332 0.188160 0.029368 0.147989 0.030152 -0.155379 0.188390 0.227082 0.250132 0.114252 0.242676 0.002886 -0.267161 -0.379876 -0.193483 0.230605 0.178805 0.002863 -0.117376 -0.301176 0.354640 0.061568 -0.270815 -0.167929 0.138243 -0.147439 -0.243653 0.060723 0.660293 -0.323917 0.061209 -0.125868 0.108603 -0.353700 -0.147031 -0.138129 0.194846 -0.055478 -0.012261
an 0.232720 0.023531 0.291051 -0.086866 0.274335 -0.207121 -0.051890 0.753097 -0.042514 0.315437 0.462021 -0.079880 0.301887 -0.245499 0.258582 0.064051 -0.083946 0.135820 -0.168831 0.192332 -0.126703 -0.173767 0.217062 -0.094236 0.048813 -0.371167 0.338926 0.272887 -0.016227 -0.293178 0.049396 -0.336977 0.138547 0.230548 -0.097149 0.035183 0.178752 -0.129513 -0.054483 0.160978 0.191442 -0.204007 -0.337277 0.121717 0.014680 0.173997 -0.171036 -0.276339 -0.028393 -0.186103 0.048346 0.258550 -0.272452 -0.054789 -0.010917 -0.173174 0.164025 0.280555 0.168669 0.068206 0.027148 -0.162683 0.087914 0.027788 0.152864 -0.101404 -0.098164 0.207432 0.191508 0.202788 0.026606 0.250217 0.023132 -0.194915 -0.424231 -0.150212 0.248647 0.117761 0.047976 -0.178401 -0.209540 0.272339 0.004981 -0.255662 -0.117015 0.115928 -0.119394 -0.231725 -0.033800 0.582810 -0.352899 -0.000928 -0.041679 0.108252 -0.312847 -0.063766 -0.282362 0.148410 -0.165622 0.005228
up 0.248970 0.036079 0.315258 -0.068597 0.335779 -0.207289 -0.052482 0.695001 -0.011416 0.339225 0.417101 -0.081503 0.333569 -0.288312 0.262756 0.063483 -0.046327 0.096437 -0.201472 0.158327 -0.105672 -0.147144 0.231758 -0.109657 0.089177 -0.398589 0.308589 0.293172 0.017980 -0.313267 0.033344 -0.392901 0.138144 0.246708 -0.068941 0.003891 0.173298 -0.121827 -0.047814 0.212243 0.188002 -0.258970 -0.340015 0.091691 0.038506 0.167424 -0.189813 -0.291457 -0.018191 -0.180536 0.045674 0.247206 -0.267284 -0.060344 0.050285 -0.184893 0.159507 0.309161 0.155034 0.096037 -0.023710 -0.161445 0.109459 0.028560 0.159632 -0.090015 -0.120737 0.223890 0.202263 0.200885 0.053031 0.231840 0.031874 -0.267754 -0.466648 -0.191059 0.196733 0.168581 0.039474 -0.156838 -0.219026 0.291126 -0.010918 -0.244232 -0.163413 0.159793 -0.118466 -0.271128 -0.014595 0.622238 -0.367659 0.032915 -0.070741 0.110282 -0.392130 -0.068110 -0.270368 0.129862 -0.147536 -0.006823
what 0.349622 -0.096824 0.352018 -0.116239 0.145737 -0.346637 -0.102008 0.760011 0.186027 0.611860 0.459945 -0.025217 0.239547 -0.196906 0.314779 0.165476 -0.051090 0.011847 -0.014849 0.058612 -0.314961 -0.169307 0.237256 0.046811 -0.040041 -0.479859 0.247499 0.232405 0.029572 -0.522931 -0.000128 -0.443163 -0.094951 0.334441 0.027408 -0.072414 0.113850 0.171310 0.200312 0.285074 0.094847 -0.277230 -0.371297 -0.032468 0.068867 0.143182 0.002078 -0.192796 -0.001418 -0.223965 0.104134 0.068010 -0.312235 -0.016601 0.063889 -0.161720 0.055908 0.469768 0.179911 -0.230890 -0.272264 -0.231957 0.198441 -0.046371 0.065942 0.177295 -0.165502 0.128219 0.129021 0.297145 0.080229 0.246156 -0.015657 -0.145642 -0.303318 -0.178283 0.358574 0.091431 -0.015253 -0.094297 -0.368545 0.284311 0.156931 -0.316279 -0.094089 0.069249 -0.126225 -0.179451 0.168723 0.618181 -0.302091 0.055813 -0.115383 0.059857 -0.165789 -0.133425 -0.035986 0.322362 -0.058026 -0.069302
would 0.337673 -0.102681 0.413146 -0.104569 0.168180 -0.358464 -0.110369 0.724006 0.194141 0.632902 0.477875 -0.015714 0.286949 -0.216019 0.314044 0.132099 -0.031816 -0.037164 -0.096296 0.061678 -0.292971 -0.173569 0.196779 0.002278 -0.034401 -0.473153 0.254469 0.321694 0.079125 -0.534215 0.030633 -0.481700 -0.069027 0.341401 0.039794 -0.070492 0.167804 0.132402 0.210911 0.322576 0.106116 -0.259160 -0.382302 -0.059465 0.123535 0.129127 -0.025122 -0.219460 -0.030662 -0.240015 0.103962 0.104429 -0.330974 -0.040798 0.079457 -0.196095 0.047221 0.443535 0.180315 -0.215129 -0.298551 -0.256812 0.235485 -0.027723 0.103913 0.140405 -0.166014 0.165204 0.202375 0.285386 0.100262 0.320023 -0.056630 -0.185396 -0.312178 -0.216221 0.312665 0.109675 -0.018267 -0.056301 -0.410437 0.305047 0.174345 -0.344831 -0.111632 0.058571 -0.156777 -0.234840 0.128535 0.645320 -0.283324 0.060108 -0.139588 0.093292 -0.241359 -0.161865 -0.065010 0.251977 -0.014016 -0.034970
if 0.337091 -0.047283 0.384810 -0.165702 0.094217 -0.334582 -0.149469 0.865201 0.218513 0.602531 0.494293 -0.018819 0.156985 -0.132136 0.350590 0.152921 -0.071410 0.019694 0.057153 0.001886 -0.354156 -0.135984 0.275377 0.151843 -0.121414 -0.579065 0.239429 0.199884 0.070869 -0.468085 0.112071 -0.372735 -0.171528 0.348950 0.003141 -0.055075 0.012127 0.212563 0.180629 0.242816 0.103815 -0.205511 -0.402253 -0.092299 0.063542 0.191338 -0.020224 -0.191666 0.015874 -0.188841 0.076043 0.007545 -0.260556 0.071313 0.007532 -0.109997 0.017830 0.450351 0.245746 -0.309740 -0.224209 -0.247155 0.139552 -0.130966 0.066420 0.183878 -0.179538 0.187286 0.080353 0.272103 -0.010855 0.295480 -0.044298 -0.060109 -0.266331 -0.230079 0.428636 0.067986 0.020918 -0.045027 -0.426366 0.216635 0.216270 -0.361381 0.052176 0.057536 -0.120515 -0.178519 0.163154 0.566889 -0.307331 0.024930 0.004548 0.074594 -0.111203 -0.103068 -0.075272 0.313187 -0.069741 -0.096673
out 0.232181 0.050730 0.300937 -0.096718 0.333023 -0.177585 -0.067371 0.694508 -0.051959 0.291156 0.442062 -0.079728 0.327023 -0.281880 0.271488 0.074376 -0.058009 0.125911 -0.219465 0.185246 -0.089192 -0.138611 0.243355 -0.120763 0.083739 -0.378151 0.346767 0.284864 0.021714 -0.282577 0.063318 -0.366255 0.178183 0.220586 -0.089915 0.023285 0.184660 -0.160328 -0.065684 0.194168 0.206515 -0.239439 -0.321415 0.112657 0.031102 0.171227 -0.197173 -0.294402 -0.046103 -0.181798 0.063873 0.277222 -0.258621 -0.081096 0.033316 -0.155984 0.171529 0.252020 0.156906 0.124617 0.027714 -0.156083 0.104291 0.043750 0.161655 -0.116606 -0.099749 0.226849 0.199314 0.192356 0.031888 0.246092 0.023214 -0.273129 -0.449719 -0.196554 0.199115 0.162328 0.046926 -0.163388 -0.205834 0.295607 -0.029121 -0.259264 -0.136795 0.174409 -0.105323 -0.290062 -0.035094 0.608330 -0.380978 0.012360 -0.063454 0.122909 -0.382690 -0.062442 -0.284345 0.104431 -0.164965 0.017473
who 0.267417 -0.000539 0.327509 -0.052973 0.282584 -0.229950 -0.035495 0.708203 0.025410 0.371267 0.474236 -0.075923 0.351281 -0.287996 0.257845 0.086939 -0.039350 0.086243 -0.228041 0.172919 -0.118424 -0.190221 0.189436 -0.134574 0.117438 -0.330515 0.336583 0.279251 -0.018240 -0.350300 0.020876 -0.406519 0.111568 0.260911 -0.083859 0.025945 0.205473 -0.112359 0.022887 0.184205 0.198685 -0.284043 -0.362827 0.105327 0.048680 0.168954 -0.119647 -0.292393 -0.049714 -0.258764 0.066906 0.253126 -0.313652 -0.124345 0.014776 -0.167232 0.186462 0.335054 0.140639 0.091994 -0.083943 -0.144041 0.133547 0.057700 0.170505 -0.066023 -0.128724 0.188764 0.229317 0.232370 0.097228 0.268855 0.036935 -0.236332 -0.391930 -0.171952 0.203880 0.160135 0.014185 -0.199299 -0.210267 0.357598 0.011883 -0.267059 -0.167944 0.124831 -0.164549 -0.265472 0.004091 0.659020 -0.370050 0.033151 -0.120673 0.124270 -0.375790 -0.102649 -0.210096 0.154886 -0.102477 -0.010145
any 0.202785 0.127586 0.252036 -0.270554 0.255199 -0.123094 -0.207283 1.069657 -0.125207 0.213574 0.558274 -0.098990 0.156287 -0.086362 0.396746 0.029146 -0.143849 0.346250 -0.014469 0.203749 -0.181124 -0.124693 0.430133 0.080522 -0.150193 -0.623251 0.455235 0.186680 0.036596 -0.144606 0.259885 -0.228512 0.098904 0.216841 -0.210142 0.131424 -0.016627 -0.126377 -0.208442 0.091687 0.230133 -0.042280 -0.373273 0.120067 -0.073280 0.283353 -0.297609 -0.307552 0.031632 -0.054274 -0.024781 0.224203 -0.169375 0.114302 -0.133623 -0.067869 0.172790 0.189443 0.343640 0.016162 0.329043 -0.202125 -0.075040 -0.137766 0.084237 -0.189179 -0.071392 0.327622 0.043636 0.195800 -0.179533 0.300546 0.013651 -0.074426 -0.497865 -0.258368 0.453806 0.031537 0.089046 -0.135612 -0.276323 0.112990 0.017453 -0.363742 0.175036 0.118336 -0.043562 -0.217212 -0.069013 0.457861 -0.457988 -0.064592 0.207250 0.146883 -0.191898 0.087637 -0.457867 0.182425 -0.319975 -0.045098
some 0.238235 0.018871 0.327015 -0.094499 0.293115 -0.225184 -0.055219 0.723915 0.002415 0.377782 0.475879 -0.052447 0.336356 -0.277325 0.294349 0.078847 -0.059480 0.108416 -0.222573 0.189514 -0.132964 -0.151155 0.210262 -0.103597 0.072441 -0.361312 0.358895 0.289137 -0.019242 -0.362277 0.039976 -0.414133 0.124593 0.250475 -0.083596 0.028829 0.189453 -0.141368 0.022318 0.187180 0.199811 -0.270423 -0.349857 0.080989 0.031811 0.173837 -0.136106 -0.300355 -0.056664 -0.240392 0.087546 0.269522 -0.293859 -0.106471 0.023663 -0.157051 0.175946 0.305135 0.160195 0.067580 -0.040461 -0.169405 0.129967 0.026499 0.177780 -0.084589 -0.126288 0.212510 0.222441 0.219102 0.055437 0.273396 0.025426 -0.265646 -0.417435 -0.163776 0.229847 0.142170 0.024758 -0.189635 -0.233895 0.349859 0.016236 -0.278665 -0.123314 0.133332 -0.150515 -0.292548 0.002874 0.646854 -0.352846 0.027302 -0.098453 0.121681 -0.374508 -0.082113 -0.235471 0.152645 -0.130204 0.000033
do 0.363695 -0.088256 0.391577 -0.179565 0.046198 -0.362238 -0.160760 0.855776 0.265248 0.722667 0.489765 -0.017299 0.104738 -0.071394 0.339209 0.201121 -0.047555 -0.021136 0.080466 -0.029053 -0.421007 -0.123624 0.281266 0.169287 -0.182435 -0.604154 0.228136 0.183627 0.078347 -0.534666 0.046845 -0.417560 -0.269407 0.398645 0.032333 -0.128844 0.021547 0.312788 0.227943 0.311698 0.074550 -0.217174 -0.444918 -0.173331 0.047980 0.186413 0.035408 -0.164626 0.033352 -0.204794 0.100333 -0.074261 -0.251845 0.069719 0.042711 -0.146596 0.012258 0.528823 0.212432 -0.403352 -0.293741 -0.276784 0.172465 -0.142061 0.036002 0.289211 -0.223690 0.179440 0.093068 0.328676 0.021557 0.300470 -0.068867 0.003603 -0.201308 -0.231248 0.463950 0.093517 -0.008563 -0.029599 -0.466551 0.206205 0.299369 -0.386429 0.062811 0.025500 -0.088908 -0.162911 0.235077 0.543802 -0.317077 0.047728 -0.031520 0.070009 -0.061179 -0.106460 0.027148 0.351805 -0.017040 -0.111317
will 0.363141 -0.109885 0.409932 -0.164294 0.109070 -0.383150 -0.159688 0.780727 0.257972 0.697795 0.470779 0.014390 0.217273 -0.144407 0.359207 0.141372 -0.013090 -0.057702 0.016324 0.014398 -0.370412 -0.167168 0.247175 0.105915 -0.135995 -0.562109 0.224995 0.287873 0.091202 -0.582984 0.063886 -0.455341 -0.145332 0.377489 0.047693 -0.074996 0.080360 0.227205 0.277369 0.321664 0.076744 -0.221655 -0.371476 -0.102941 0.113237 0.120184 -0.019417 -0.195273 -0.004354 -0.189397 0.090834 0.009552 -0.307592 0.026241 0.042550 -0.201351 0.011305 0.481988 0.213923 -0.310678 -0.343537 -0.313343 0.207249 -0.098178 0.037712 0.226972 -0.187517 0.172622 0.133613 0.321334 0.079221 0.344039 -0.051819 -0.120228 -0.273633 -0.220623 0.386888 0.075595 -0.003739 -0.004187 -0.496448 0.270365 0.248647 -0.360350 -0.010070 0.035453 -0.125840 -0.166242 0.157422 0.607263 -0.275537 0.053371 -0.070962 0.069547 -0.146935 -0.145066 -0.020767 0.305971 -0.005775 -0.055461
into 0.247681 0.055448 0.322486 -0.027890 0.384363 -0.149900 -0.045657 0.672447 -0.071660 0.256177 0.439872 -0.105709 0.372967 -0.334937 0.260590 0.036423 -0.061208 0.102581 -0.255308 0.193569 -0.051183 -0.168244 0.195789 -0.127993 0.135091 -0.350985 0.341362 0.325763 0.026722 -0.268660 0.055998 -0.348103 0.211756 0.214852 -0.087206 0.023071 0.210137 -0.226909 -0.085280 0.175777 0.200831 -0.246374 -0.330669 0.114819 0.052251 0.175953 -0.235989 -0.324805 -0.020575 -0.187811 0.027018 0.297873 -0.258085 -0.110956 0.040056 -0.176162 0.190974 0.279107 0.126935 0.171708 0.032216 -0.132543 0.090990 0.064498 0.179121 -0.162096 -0.115093 0.246773 0.256654 0.190233 0.044075 0.253764 0.038483 -0.309575 -0.479736 -0.202386 0.171261 0.176803 0.070149 -0.171385 -0.157170 0.333099 -0.045510 -0.225841 -0.157478 0.158548 -0.124419 -0.295676 -0.079958 0.612027 -0.367673 0.036019 -0.066694 0.131153 -0.430595 -0.074772 -0.328136 0.070008 -0.165669 0.024730
could 0.317372 -0.065434 0.346029 -0.100234 0.193855 -0.321762 -0.075157 0.693956 0.131095 0.516258 0.464125 -0.048585 0.299386 -0.236091 0.265936 0.129432 -0.071269 -0.006500 -0.120646 0.096927 -0.239202 -0.163144 0.203416 -0.043760 0.009721 -0.425052 0.297827 0.289012 0.055108 -0.434081 0.054531 -0.436669 -0.019811 0.312763 0.014973 -0.049658 0.171399 0.040990 0.111841 0.278530 0.142672 -0.226820 -0.396791 -0.024267 0.106408 0.166907 -0.052797 -0.236197 -0.025741 -0.226342 0.090917 0.146710 -0.306816 -0.080464 0.066774 -0.164547 0.078044 0.394373 0.169048 -0.131677 -0.204072 -0.204423 0.203559 -0.011326 0.127843 0.040295 -0.137591 0.192736 0.215780 0.249123 0.082920 0.293122 -0.037911 -0.185854 -0.322211 -0.218799 0.280617 0.141154 -0.023497 -0.089624 -0.333755 0.303782 0.120473 -0.334348 -0.107632 0.085582 -0.163174 -0.249172 0.109704 0.621914 -0.318762 0.060356 -0.114013 0.098686 -0.285617 -0.110934 -0.103705 0.209982 -0.074286 -0.035704
holmes 0.330635 -0.156741 0.319257 -0.003266 0.354030 -0.226306 -0.164100 0.791024 -0.003277 0.605869 0.614437 0.025062 0.342488 -0.284588 0.305401 0.036013 -0.088517 -0.054518 -0.053365 0.164610 -0.237254 -0.318842 0.039140 -0.163048 -0.036769 -0.466853 0.225979 0.339838 -0.057686 -0.340035 -0.159605 -0.360190 0.070028 0.310958 -0.151922 -0.138262 0.260729 -0.025795 -0.025003 0.257678 0.027345 -0.373409 -0.442610 -0.069774 -0.013613 -0.002305 -0.179099 -0.276694 0.128441 -0.110428 0.027386 0.040883 -0.303822 -0.070500 -0.096765 -0.310346 0.267880 0.641746 0.037914 0.036340 -0.258484 -0.071947 0.010494 -0.083028 -0.007660 0.033786 -0.273448 0.307279 0.289587 0.457934 0.135754 0.125956 0.109919 -0.132984 -0.550613 -0.017609 0.312900 0.107956 0.134463 -0.094451 -0.174467 0.389661 0.030070 -0.109861 -0.226105 0.065849 -0.072805 -0.092300 0.098680 0.652952 -0.450890 -0.023196 -0.087789 0.194131 -0.352058 -0.122687 -0.082933 0.225445 0.044463 -0.067648
down 0.249808 0.042122 0.293245 -0.050313 0.368672 -0.191465 -0.054950 0.672036 -0.050518 0.283195 0.410379 -0.086267 0.344566 -0.309536 0.251494 0.046887 -0.048658 0.109159 -0.204447 0.165066 -0.086826 -0.158842 0.217569 -0.103930 0.092929 -0.358376 0.322816 0.296255 0.015843 -0.300906 0.034968 -0.352975 0.180465 0.237406 -0.080865 0.012094 0.189072 -0.166486 -0.056998 0.179129 0.209415 -0.248581 -0.318596 0.112606 0.042259 0.161063 -0.212428 -0.300314 -0.029804 -0.157864 0.041122 0.247844 -0.253805 -0.072588 0.027755 -0.179862 0.163301 0.281336 0.143725 0.128453 -0.006852 -0.144339 0.082418 0.053847 0.152938 -0.118649 -0.116102 0.228573 0.225476 0.184233 0.037956 0.230413 0.037203 -0.285279 -0.476525 -0.190296 0.182438 0.168530 0.052405 -0.148554 -0.194582 0.309430 -0.029838 -0.222737 -0.167586 0.157683 -0.099391 -0.275318 -0.038730 0.593767 -0.371687 0.038356 -0.062229 0.135138 -0.394184 -0.051822 -0.279644 0.105062 -0.146067 0.023226
your 0.336631 -0.037476 0.388090 -0.125995 0.198132 -0.331503 -0.112701 0.869806 0.133755 0.556837 0.482969 -0.038696 0.249626 -0.219388 0.340653 0.126954 -0.051310 0.059218 -0.041714 0.077508 -0.286828 -0.172151 0.275177 0.056294 -0.069763 -0.547625 0.279124 0.240554 0.031256 -0.473114 0.034157 -0.424197 -0.058050 0.346746 -0.053507 -0.027008 0.083534 0.108338 0.111849 0.245921 0.140055 -0.243914 -0.397608 -0.013038 0.033618 0.165936 -0.094447 -0.241360 0.016333 -0.213820 0.074215 0.106954 -0.287863 0.025503 0.015822 -0.195488 0.087588 0.465459 0.203930 -0.145486 -0.187983 -0.242666 0.135048 -0.073566 0.088001 0.114538 -0.189244 0.198749 0.130997 0.281697 0.032410 0.286985 -0.000528 -0.150187 -0.367228 -0.211413 0.369686 0.082643 0.026664 -0.101176 -0.380440 0.250998 0.150273 -0.309750 -0.060185 0.083965 -0.116492 -0.204858 0.090840 0.644224 -0.369286 0.046793 -0.056285 0.101274 -0.216738 -0.096457 -0.130678 0.281203 -0.108880 -0.064525
their 0.232035 0.044946 0.320544 -0.116538 0.332784 -0.196077 -0.069976 0.745253 -0.049408 0.327329 0.485885 -0.085385 0.306064 -0.276430 0.283397 0.092946 -0.049207 0.139319 -0.237157 0.194764 -0.099763 -0.135539 0.250004 -0.118429 0.073339 -0.401191 0.373437 0.261596 -0.013663 -0.321516 0.060227 -0.388238 0.150840 0.242109 -0.105626 0.030037 0.190676 -0.150653 -0.022119 0.190779 0.240671 -0.265933 -0.364429 0.101151 0.025662 0.187020 -0.176983 -0.301285 -0.048128 -0.217707 0.062191 0.286254 -0.273394 -0.106635 0.024812 -0.150157 0.182315 0.295438 0.175711 0.108450 0.005623 -0.174886 0.105625 0.029413 0.160354 -0.109539 -0.110370 0.253029 0.234927 0.203212 0.014992 0.248336 0.044621 -0.234160 -0.444580 -0.196570 0.222198 0.157449 0.053577 -0.189014 -0.240354 0.318126 -0.004839 -0.268017 -0.128946 0.154152 -0.105792 -0.309808 -0.018355 0.628151 -0.384312 0.004948 -0.046341 0.120201 -0.374464 -0.057610 -0.270240 0.122985 -0.163591 0.018577
gutenberg 0.247782 0.434057 0.246915 -0.802931 0.420702 0.312114 -0.790370 2.288382 -0.693591 -0.448778 1.113650 -0.302691 -0.079272 0.346528 0.776783 -0.390053 -0.551630 1.238098 0.311950 0.456147 -0.323652 -0.326345 1.090240 0.634538 -0.737703 -1.456399 1.041553 0.079381 0.187046 0.611031 1.158460 0.218387 0.229808 0.145435 -0.556017 0.566390 -0.459216 -0.424361 -1.072494 -0.147006 0.482526 0.431980 -0.530534 0.348395 -0.343812 0.684249 -1.089566 -0.756243 0.390673 0.321521 -0.433806 0.473519 0.023132 0.749396 -0.487428 0.081115 0.457724 -0.190343 0.835500 0.147245 1.692184 -0.232305 -0.839492 -0.560510 -0.106193 -0.881896 0.070391 0.858990 -0.408879 0.002692 -0.942940 0.494672 0.234427 0.329978 -1.332771 -0.559159 1.106361 -0.000176 0.303266 -0.075846 -0.205306 -0.489646 -0.221254 -0.620252 0.851393 0.202302 0.283874 -0.042071 -0.514270 0.111551 -1.023957 -0.423263 1.027946 0.326468 -0.112896 0.505721 -1.463977 0.318279 -1.012636 -0.096447
she 0.347093 -0.063966 0.369288 -0.082157 0.234230 -0.322064 -0.075098 0.782677 0.125206 0.549786 0.487801 -0.044049 0.309701 -0.263517 0.291393 0.105532 -0.043800 0.043692 -0.094394 0.125849 -0.257805 -0.195255 0.222462 -0.028288 0.029267 -0.436117 0.313556 0.277290 0.023619 -0.470580 -0.009630 -0.454218 -0.017916 0.308945 -0.044875 -0.049515 0.164629 0.045154 0.103088 0.267807 0.144400 -0.272753 -0.389046 0.000553 0.054105 0.154207 -0.065774 -0.242913 0.009015 -0.226674 0.078196 0.139030 -0.331389 -0.059345 0.046981 -0.205204 0.134976 0.479688 0.166907 -0.078865 -0.202751 -0.213883 0.154976 -0.030230 0.117141 0.058922 -0.151872 0.200227 0.208289 0.285110 0.079340 0.265863 0.037364 -0.197644 -0.397003 -0.184540 0.297821 0.137976 0.010337 -0.158672 -0.314132 0.310677 0.102536 -0.288217 -0.161599 0.093093 -0.158261 -0.211535 0.098881 0.701398 -0.355108 0.039467 -0.115247 0.099263 -0.279761 -0.124822 -0.106547 0.270905 -0.111745 -0.046768
other 0.237522 0.108237 0.287635 -0.166975 0.328265 -0.141504 -0.126041 0.888716 -0.087047 0.266677 0.516527 -0.095251 0.255443 -0.194018 0.326406 0.044775 -0.112107 0.213999 -0.117792 0.210884 -0.122800 -0.140658 0.311329 -0.010288 -0.012505 -0.501707 0.388570 0.233805 0.034611 -0.184069 0.142050 -0.292145 0.150719 0.223950 -0.148839 0.071249 0.087084 -0.163665 -0.144380 0.123286 0.226417 -0.146549 -0.378424 0.105474 0.001451 0.229616 -0.267719 -0.316074 0.010269 -0.141767 0.005055 0.262685 -0.220022 0.002940 -0.051462 -0.116199 0.170868 0.246923 0.240536 0.108309 0.165559 -0.169727 0.025972 -0.056287 0.123067 -0.174655 -0.089172 0.289442 0.128552 0.187444 -0.078272 0.265779 0.030750 -0.187432 -0.501402 -0.228947 0.308024 0.087669 0.088155 -0.162779 -0.212261 0.229862 -0.012247 -0.289078 -0.004562 0.156595 -0.095969 -0.249637 -0.059057 0.545427 -0.445116 -0.007519 0.072374 0.135380 -0.316528 -0.013335 -0.385274 0.135953 -0.244730 -0.017482
project 0.225272 0.404593 0.230136 -0.639735 0.512017 0.234810 -0.667753 1.982376 -0.641102 -0.337686 0.887276 -0.416559 -0.019878 0.211649 0.753977 -0.238576 -0.359077 1.043650 0.181212 0.368901 -0.196001 -0.167990 0.990794 0.537284 -0.691894 -1.171922 0.820374 0.163629 0.274394 0.488096 1.027630 0.065595 0.310707 0.116891 -0.714640 0.525789 -0.377622 -0.279172 -0.868446 -0.243739 0.487559 0.413033 -0.430127 0.389775 -0.249056 0.456526 -1.111505 -0.577715 0.246453 0.406647 -0.358106 0.333808 0.213064 0.533218 -0.473324 -0.016451 0.269083 -0.053305 0.724513 0.157982 1.480771 -0.159749 -0.759846 -0.465913 -0.023637 -0.710993 0.095617 0.877381 -0.252218 0.137995 -0.739761 0.353587 0.031326 0.223088 -1.054131 -0.385386 1.003075 -0.086460 0.369110 -0.129006 -0.194571 -0.359795 -0.071044 -0.471468 0.725179 0.220248 0.106024 -0.049584 -0.371072 0.115029 -0.921869 -0.260136 0.828651 0.326130 0.009691 0.498178 -1.255666 0.088164 -0.820052 -0.170145
t 0.389074 -0.085467 0.642834 -0.058915 0.169959 -0.623528 -0.108166 1.065451 0.538413 0.939889 0.548187 0.116982 0.242607 -0.207866 0.388119 0.175190 -0.087177 -0.222224 0.249636 -0.096281 -0.597070 -0.180493 0.311546 0.242657 -0.128202 -0.765504 0.081897 0.284922 0.233389 -0.772596 -0.037148 -0.468068 -0.387392 0.575960 0.087023 -0.164971 -0.107105 0.418533 0.423961 0.390039 -0.050306 -0.256554 -0.578473 -0.312201 0.158766 0.061547 0.124705 -0.178175 0.092515 -0.363872 0.100572 -0.114416 -0.387676 0.241474 0.100591 -0.240697 -0.137572 0.662317 0.275035 -0.631184 -0.568753 -0.241459 0.275856 -0.213112 0.112311 0.361592 -0.383859 0.162707 0.081556 0.277975 0.061246 0.350448 -0.077886 -0.026922 -0.313327 -0.256103 0.600806 -0.019639 0.021111 -0.088966 -0.559305 0.239475 0.339512 -0.438452 -0.102529 0.055379 -0.258653 -0.025324 0.240862 0.681328 -0.287762 0.080602 -0.122589 0.145761 -0.011206 -0.274525 0.239029 0.560608 -0.108583 -0.297120
over 0.285774 0.010721 0.336883 -0.046857 0.333699 -0.205570 -0.040219 0.698632 -0.017332 0.336690 0.444624 -0.085148 0.381066 -0.308070 0.258999 0.043761 -0.054493 0.083638 -0.225642 0.201087 -0.100048 -0.161351 0.224660 -0.128285 0.100864 -0.372576 0.329367 0.333248 0.024379 -0.325799 0.035666 -0.406683 0.171310 0.238536 -0.062478 -0.009403 0.212184 -0.141459 -0.041011 0.215370 0.187263 -0.254666 -0.356057 0.091360 0.065942 0.163468 -0.207331 -0.310638 -0.014758 -0.189632 0.041626 0.278244 -0.295675 -0.103337 0.053195 -0.201176 0.172989 0.307994 0.149447 0.109722 -0.040972 -0.155309 0.117889 0.051478 0.164603 -0.099452 -0.115395 0.228152 0.239313 0.203679 0.072973 0.269037 0.046294 -0.292031 -0.470311 -0.206280 0.185033 0.167250 0.052426 -0.178461 -0.205936 0.327713 -0.027652 -0.243994 -0.187210 0.164502 -0.140279 -0.261078 -0.031543 0.639999 -0.367881 0.026021 -0.075057 0.123024 -0.410797 -0.097436 -0.279847 0.112858 -0.137663 -0.003516
more 0.275569 0.001103 0.340793 -0.104855 0.224961 -0.273370 -0.085041 0.717280 0.078844 0.438619 0.486098 -0.072579 0.302300 -0.228108 0.267513 0.108193 -0.057542 0.047236 -0.125435 0.163788 -0.194843 -0.189751 0.211966 -0.074207 0.004915 -0.431465 0.322317 0.256185 0.024015 -0.342238 0.059083 -0.408337 0.054442 0.250071 -0.032151 -0.013979 0.143028 -0.029110 0.047157 0.213086 0.156176 -0.196505 -0.392102 0.011256 0.077921 0.195556 -0.078729 -0.256772 -0.023276 -0.237975 0.094887 0.207168 -0.291867 -0.080253 0.049839 -0.133066 0.144200 0.348991 0.158646 -0.034747 -0.096671 -0.170826 0.153187 -0.007809 0.131521 -0.048780 -0.104726 0.224744 0.188697 0.257736 0.033332 0.251203 -0.015569 -0.172978 -0.356759 -0.203187 0.294316 0.103690 0.003890 -0.127391 -0.310129 0.297968 0.074036 -0.290703 -0.097928 0.102336 -0.139683 -0.241324 0.081572 0.633179 -0.366927 0.035404 -0.095551 0.103095 -0.308618 -0.092119 -0.193615 0.183509 -0.143527 -0.020259
about 0.269112 0.014849 0.330890 -0.113190 0.228810 -0.220095 -0.103843 0.764046 0.035203 0.387650 0.469623 -0.071441 0.257339 -0.185949 0.270027 0.075353 -0.082864 0.091642 -0.077043 0.141315 -0.203201 -0.152264 0.244816 0.013780 -0.046090 -0.445899 0.321698 0.255093 0.047942 -0.293626 0.110953 -0.352269 0.033020 0.243927 -0.068729 0.002553 0.076014 -0.035199 -0.008482 0.189213 0.157142 -0.174930 -0.355922 0.028905 0.055869 0.177295 -0.157755 -0.257018 0.008281 -0.183875 0.034949 0.164104 -0.243851 0.011914 0.016734 -0.141356 0.123134 0.320543 0.196244 -0.036603 -0.025942 -0.166765 0.076980 -0.047041 0.112434 -0.035238 -0.119603 0.238108 0.123843 0.202466 -0.005488 0.247378 0.016305 -0.147917 -0.402339 -0.191481 0.311093 0.109354 0.022611 -0.107805 -0.253776 0.217329 0.065064 -0.291841 -0.060169 0.104361 -0.123123 -0.205402 0.044720 0.540357 -0.368279 0.023099 -0.043801 0.105425 -0.265044 -0.074514 -0.219503 0.182456 -0.163810 -0.046162
now 0.334466 -0.064669 0.379599 -0.095002 0.214361 -0.303358 -0.079980 0.761946 0.136955 0.533678 0.477117 -0.044716 0.283442 -0.223582 0.306379 0.111788 -0.050681 0.027844 -0.096865 0.101599 -0.248558 -0.177423 0.231740 -0.002921 -0.005380 -0.468336 0.274474 0.277016 0.027170 -0.466919 0.029147 -0.444638 -0.021384 0.318143 -0.010557 -0.051539 0.135589 0.072100 0.113152 0.259502 0.138463 -0.255015 -0.381459 -0.018231 0.069213 0.153493 -0.070369 -0.259630 -0.010981 -0.226265 0.080466 0.128297 -0.301680 -0.029980 0.052856 -0.189349 0.103309 0.427949 0.177705 -0.111183 -0.192008 -0.203429 0.175251 -0.034843 0.096136 0.079515 -0.168212 0.185655 0.175717 0.269755 0.067639 0.269667 0.005656 -0.190337 -0.359488 -0.182776 0.304791 0.123885 0.006524 -0.109901 -0.348876 0.289838 0.136336 -0.308122 -0.108083 0.095689 -0.139639 -0.215344 0.097102 0.635031 -0.337389 0.056746 -0.103060 0.088515 -0.267698 -0.130168 -0.124368 0.242053 -0.083217 -0.043872
then 0.314626 -0.017093 0.365950 -0.087189 0.263864 -0.276514 -0.084303 0.767372 0.086180 0.464561 0.468495 -0.073657 0.306792 -0.271594 0.296351 0.087384 -0.053588 0.055432 -0.136124 0.110257 -0.215663 -0.169109 0.245072 -0.023231 0.028737 -0.452253 0.310737 0.301132 0.043339 -0.431508 0.051918 -0.423250 0.023461 0.301142 -0.033997 -0.030619 0.167774 -0.013216 0.068676 0.243221 0.167428 -0.261256 -0.388333 0.015122 0.069561 0.165173 -0.121405 -0.270210 -0.017448 -0.204587 0.061684 0.169522 -0.302520 -0.041760 0.055243 -0.185339 0.136208 0.396436 0.181708 -0.051897 -0.136133 -0.194713 0.133091 -0.008273 0.135043 0.021318 -0.143623 0.221731 0.198001 0.246608 0.051848 0.274158 0.021436 -0.215156 -0.411814 -0.213564 0.289718 0.134395 0.023539 -0.126191 -0.304693 0.294727 0.075370 -0.288942 -0.120565 0.115541 -0.130660 -0.250377 0.043533 0.643166 -0.359592 0.046111 -0.086838 0.108499 -0.310880 -0.101477 -0.177707 0.212570 -0.123206 -0.031425
has 0.287177 -0.045742 0.355483 -0.088743 0.266268 -0.256163 -0.085188 0.722142 0.053303 0.449800 0.482149 -0.073775 0.329894 -0.262947 0.284977 0.077286 -0.071217 0.048985 -0.176743 0.168806 -0.172317 -0.162980 0.209207 -0.076466 0.060547 -0.404333 0.330384 0.337102 0.045457 -0.379052 0.070800 -0.444764 0.083704 0.270836 -0.032854 -0.011277 0.188280 -0.067155 0.031733 0.262033 0.169244 -0.233257 -0.406532 0.038842 0.076800 0.150113 -0.154221 -0.294109 -0.034055 -0.242636 0.083067 0.224597 -0.300293 -0.074125 0.059393 -0.185324 0.155494 0.349239 0.173774 -0.032935 -0.118246 -0.160734 0.160256 0.010876 0.153971 -0.044578 -0.111634 0.208696 0.236741 0.235897 0.059224 0.302673 -0.005030 -0.250598 -0.412608 -0.213734 0.245070 0.149859 0.003227 -0.143838 -0.286062 0.317322 0.057599 -0.298947 -0.146952 0.107478 -0.164773 -0.281940 0.021645 0.620678 -0.336734 0.018164 -0.097243 0.124326 -0.365690 -0.123497 -0.213597 0.166903 -0.102241 -0.022920
little 0.225822 0.056009 0.298689 -0.067873 0.316217 -0.157245 -0.037406 0.642438 -0.035600 0.274136 0.416732 -0.075860 0.339408 -0.278272 0.233414 0.056481 -0.049335 0.089704 -0.222966 0.203737 -0.066576 -0.153836 0.201194 -0.101024 0.103616 -0.324658 0.311731 0.267294 0.015258 -0.245394 0.032918 -0.325297 0.169544 0.190510 -0.090009 0.023072 0.181859 -0.159762 -0.072479 0.163146 0.187336 -0.221111 -0.322963 0.080266 0.031210 0.167695 -0.165115 -0.285741 -0.023385 -0.176928 0.053337 0.256550 -0.247516 -0.093346 0.024621 -0.135260 0.175956 0.290026 0.119439 0.141233 0.015158 -0.131198 0.094057 0.040501 0.178080 -0.129464 -0.096811 0.201131 0.212138 0.179512 0.035395 0.216050 0.027244 -0.263466 -0.405455 -0.163926 0.170592 0.123989 0.068201 -0.178568 -0.158378 0.297212 -0.041629 -0.215667 -0.145672 0.140085 -0.121451 -0.238585 -0.049907 0.569200 -0.347422 0.032501 -0.056574 0.120556 -0.359750 -0.082444 -0.269638 0.094869 -0.138839 -0.009363
before 0.284277 -0.015130 0.352651 -0.068899 0.281061 -0.240359 -0.064007 0.703756 0.025335 0.412765 0.453542 -0.071978 0.331137 -0.277328 0.279982 0.068426 -0.061591 0.068253 -0.183571 0.146212 -0.163352 -0.177229 0.195434 -0.075992 0.059056 -0.396514 0.310022 0.318314 0.023895 -0.355483 0.048426 -0.411222 0.102231 0.259872 -0.043622 -0.013069 0.187048 -0.076260 0.022010 0.228072 0.172866 -0.269791 -0.379909 0.044176 0.073566 0.155533 -0.151012 -0.299454 -0.015199 -0.224817 0.069054 0.215044 -0.284209 -0.076803 0.048068 -0.180269 0.150463 0.336662 0.160124 0.014218 -0.082557 -0.156499 0.132848 0.027560 0.154018 -0.052922 -0.136538 0.214193 0.220404 0.230873 0.064005 0.259223 0.009989 -0.254713 -0.420268 -0.191914 0.228169 0.164239 0.018127 -0.130009 -0.252158 0.331454 0.031027 -0.271060 -0.135317 0.142462 -0.142094 -0.257259 0.011237 0.627651 -0.361607 0.030673 -0.082465 0.136090 -0.359145 -0.118746 -0.214420 0.164557 -0.099789 -0.008430
very 0.274460 -0.036003 0.328657 -0.070793 0.249118 -0.243322 -0.071870 0.701684 0.057763 0.419780 0.438880 -0.064812 0.306732 -0.231254 0.259340 0.097739 -0.064467 0.065018 -0.141482 0.142322 -0.173535 -0.179999 0.200602 -0.060850 0.038687 -0.392777 0.293509 0.285068 0.023610 -0.380527 0.036499 -0.386137 0.055644 0.252107 -0.032075 -0.020798 0.161928 -0.033288 0.047678 0.218167 0.153308 -0.245870 -0.347529 0.035323 0.068011 0.152591 -0.118718 -0.260810 -0.015386 -0.217241 0.074933 0.180569 -0.286119 -0.070062 0.039597 -0.177875 0.119107 0.362919 0.151728 -0.036868 -0.112921 -0.179070 0.142318 0.010879 0.127519 -0.005478 -0.125432 0.191242 0.191197 0.229127 0.058450 0.255318 0.019453 -0.215621 -0.380632 -0.164704 0.240007 0.141274 0.013575 -0.135478 -0.261100 0.301228 0.054008 -0.269039 -0.119491 0.106966 -0.136908 -0.218934 0.036735 0.604492 -0.339871 0.032707 -0.088606 0.105158 -0.293169 -0.104200 -0.173620 0.184911 -0.098801 -0.016249
two 0.240781 0.070247 0.306006 -0.083280 0.363279 -0.167559 -0.051095 0.714521 -0.071416 0.264637 0.456554 -0.074943 0.322842 -0.276937 0.273930 0.059050 -0.046473 0.146605 -0.218933 0.201100 -0.067278 -0.147362 0.238780 -0.116541 0.087325 -0.372841 0.354734 0.279309 -0.004569 -0.261359 0.054356 -0.359032 0.187048 0.202229 -0.123084 0.048090 0.187827 -0.193991 -0.094951 0.144439 0.200818 -0.248347 -0.338825 0.107254 0.030370 0.173209 -0.211485 -0.310288 -0.041151 -0.185959 0.049157 0.271135 -0.242966 -0.089723 0.013472 -0.158663 0.182052 0.275784 0.146690 0.160732 0.055300 -0.155033 0.086931 0.038562 0.161881 -0.157671 -0.104053 0.236004 0.215762 0.203715 0.019206 0.229168 0.029620 -0.271152 -0.464401 -0.181289 0.191853 0.155547 0.077314 -0.195659 -0.197428 0.311134 -0.029798 -0.228126 -0.125469 0.160548 -0.112666 -0.280987 -0.047633 0.599193 -0.395165 0.019832 -0.043478 0.122934 -0.382473 -0.066978 -0.318690 0.110330 -0.180098 0.011744
time 0.257976 -0.012427 0.337263 -0.095211 0.249828 -0.238668 -0.056957 0.681359 0.065249 0.443736 0.450415 -0.045119 0.269788 -0.238278 0.279532 0.084583 -0.042507 0.071730 -0.159544 0.137057 -0.162714 -0.157351 0.186355 -0.073279 0.047901 -0.395953 0.293633 0.265239 0.002372 -0.387253 0.026574 -0.394928 0.030481 0.272998 -0.057216 -0.009928 0.175009 -0.031608 0.059704 0.218199 0.161055 -0.269780 -0.335737 0.034109 0.058706 0.146001 -0.082747 -0.260870 -0.018753 -0.236338 0.090733 0.176374 -0.276272 -0.076100 0.041717 -0.164128 0.132512 0.339883 0.159900 0.003596 -0.120518 -0.175293 0.151133 -0.001183 0.135725 0.002962 -0.129134 0.186134 0.200733 0.229123 0.074482 0.247618 0.013403 -0.197360 -0.373597 -0.164597 0.232847 0.146355 -0.005828 -0.151932 -0.244306 0.304577 0.045070 -0.280975 -0.139681 0.129306 -0.134407 -0.258036 0.061851 0.617540 -0.331481 0.056801 -0.095792 0.118030 -0.303424 -0.086942 -0.149180 0.187165 -0.075978 -0.028288
come 0.302404 -0.085669 0.339158 -0.104037 0.112090 -0.298104 -0.091499 0.651861 0.174557 0.548435 0.410264 -0.017807 0.174142 -0.178148 0.278486 0.126974 -0.030954 0.011765 -0.044810 0.026166 -0.283045 -0.158380 0.189423 0.040594 -0.033379 -0.443022 0.197549 0.221398 0.006080 -0.477679 -0.008847 -0.397588 -0.126784 0.319504 0.000795 -0.064446 0.117340 0.159743 0.166743 0.253942 0.092490 -0.249040 -0.339869 -0.078096 0.050483 0.136645 0.009860 -0.206971 0.006266 -0.208247 0.080312 0.034410 -0.254077 -0.004856 0.042091 -0.155569 0.067136 0.434161 0.152591 -0.193948 -0.256022 -0.190269 0.153823 -0.048047 0.062768 0.157573 -0.181099 0.126311 0.137139 0.274897 0.069735 0.225815 -0.029821 -0.129434 -0.251938 -0.143609 0.292381 0.106553 -0.020835 -0.066545 -0.343887 0.239209 0.163568 -0.271953 -0.085817 0.064872 -0.110424 -0.167932 0.153596 0.558202 -0.284182 0.072586 -0.106130 0.065826 -0.155753 -0.111266 -0.024184 0.281419 -0.027548 -0.062633
way 0.208676 0.064568 0.275660 -0.099587 0.332733 -0.139165 -0.052856 0.662603 -0.087517 0.206994 0.407610 -0.080313 0.291299 -0.254547 0.261402 0.039349 -0.072099 0.156069 -0.218575 0.192658 -0.064003 -0.145318 0.241298 -0.103731 0.078238 -0.365639 0.332844 0.262330 0.012208 -0.221554 0.087934 -0.309029 0.186665 0.203200 -0.112358 0.051618 0.178545 -0.191243 -0.099136 0.157991 0.207679 -0.189847 -0.303699 0.125232 0.025045 0.175291 -0.226849 -0.282639 -0.017853 -0.158927 0.025413 0.283922 -0.219275 -0.081663 0.003301 -0.139305 0.162742 0.220712 0.154904 0.149363 0.084617 -0.144461 0.066564 0.036536 0.162163 -0.163012 -0.081534 0.236843 0.190266 0.156505 -0.006421 0.218798 0.040278 -0.254818 -0.432022 -0.185332 0.173102 0.140324 0.067257 -0.170021 -0.161863 0.267532 -0.048976 -0.230278 -0.104321 0.153165 -0.104461 -0.258763 -0.075952 0.550677 -0.361649 0.011286 -0.005541 0.131025 -0.356775 -0.027611 -0.314259 0.079044 -0.177930 0.023721
our 0.278561 0.038723 0.348569 -0.128947 0.298414 -0.240162 -0.098742 0.805045 -0.006653 0.383899 0.491295 -0.060232 0.282924 -0.240184 0.317197 0.081276 -0.051593 0.144309 -0.149304 0.160204 -0.170359 -0.165951 0.278133 -0.038453 0.006930 -0.448073 0.339453 0.261639 0.009089 -0.340925 0.063952 -0.373476 0.085696 0.277579 -0.084115 0.032589 0.160602 -0.079968 -0.011485 0.190978 0.195334 -0.241480 -0.371525 0.063967 0.019759 0.187600 -0.161832 -0.295178 -0.018308 -0.197350 0.061285 0.212446 -0.243882 -0.048694 0.000884 -0.170873 0.155201 0.340899 0.211445 0.036251 -0.004470 -0.176447 0.085591 -0.019694 0.143139 -0.062447 -0.124014 0.238097 0.181663 0.244630 0.016461 0.255849 0.022855 -0.210439 -0.438340 -0.190960 0.301155 0.125408 0.055499 -0.162430 -0.274962 0.293992 0.042826 -0.270674 -0.082321 0.126536 -0.105102 -0.247290 0.010888 0.622201 -0.396968 0.011690 -0.027587 0.126587 -0.302816 -0.057436 -0.251984 0.187581 -0.152853 -0.012052
work 0.165114 0.189354 0.220454 -0.327809 0.298364 -0.020926 -0.256538 1.087411 -0.219596 0.069334 0.550401 -0.149877 0.095977 -0.017630 0.421362 -0.033204 -0.186741 0.431787 0.023880 0.199987 -0.134124 -0.123260 0.471723 0.158232 -0.226046 -0.651763 0.447936 0.157111 0.079658 0.005660 0.362953 -0.129719 0.129606 0.166309 -0.264120 0.178936 -0.084114 -0.148913 -0.309358 0.025702 0.243298 0.050766 -0.320422 0.143730 -0.085078 0.296509 -0.433004 -0.333428 0.091784 0.038337 -0.080176 0.245441 -0.077383 0.196371 -0.177573 -0.033685 0.162386 0.095855 0.373732 0.059302 0.521170 -0.197060 -0.193411 -0.176946 0.054773 -0.259371 -0.029772 0.399659 -0.041476 0.146322 -0.278663 0.257125 0.025919 -0.022036 -0.548417 -0.262055 0.479284 0.022955 0.146179 -0.108380 -0.218209 0.013019 -0.028982 -0.339355 0.249903 0.146872 -0.011731 -0.154404 -0.136492 0.336330 -0.479506 -0.099274 0.323906 0.143248 -0.162636 0.156396 -0.571748 0.139854 -0.379390 -0.047820
well 0.304327 -0.055628 0.336979 -0.082295 0.176965 -0.288836 -0.070585 0.718107 0.110782 0.505361 0.445141 -0.054422 0.259564 -0.192468 0.254914 0.106225 -0.077314 0.026456 -0.072275 0.097814 -0.256292 -0.155527 0.180124 -0.014769 -0.012832 -0.416398 0.276751 0.267406 0.019412 -0.423854 0.046966 -0.384445 -0.024045 0.279358 -0.003019 -0.051033 0.129733 0.037476 0.110674 0.257583 0.119323 -0.261656 -0.374802 0.024818 0.060153 0.164722 -0.078974 -0.238005 -0.007238 -0.205131 0.075973 0.127186 -0.277568 -0.031953 0.038858 -0.174909 0.078926 0.370226 0.168569 -0.148395 -0.171091 -0.201162 0.143706 -0.015531 0.103139 0.059537 -0.125993 0.189073 0.148875 0.233197 0.068764 0.271685 0.011666 -0.167118 -0.336001 -0.176367 0.277994 0.139271 -0.017325 -0.103120 -0.303233 0.274868 0.115875 -0.300634 -0.094126 0.087568 -0.154771 -0.214462 0.099889 0.575979 -0.305005 0.027057 -0.079508 0.070360 -0.250718 -0.113004 -0.125471 0.227464 -0.080098 -0.020131
how 0.327486 -0.039085 0.385265 -0.115165 0.216595 -0.308707 -0.107912 0.808518 0.126366 0.523142 0.484099 -0.047860 0.272906 -0.228789 0.300416 0.117490 -0.057453 0.042959 -0.075030 0.104909 -0.256449 -0.170517 0.252462 0.007373 -0.017610 -0.478454 0.308227 0.275731 0.046315 -0.434646 0.075290 -0.442158 -0.035671 0.319884 -0.021913 -0.029152 0.126932 0.057666 0.107588 0.244705 0.137011 -0.234286 -0.403579 -0.007091 0.073962 0.178463 -0.096746 -0.251766 -0.003754 -0.219940 0.075027 0.135498 -0.289429 -0.014489 0.040923 -0.164415 0.097373 0.418904 0.186375 -0.131214 -0.166190 -0.208454 0.154742 -0.047297 0.107686 0.050480 -0.155490 0.214440 0.172328 0.270197 0.049073 0.292938 -0.009315 -0.173923 -0.371568 -0.204419 0.336940 0.124196 0.012857 -0.099992 -0.345720 0.295373 0.125760 -0.322777 -0.082499 0.100189 -0.150879 -0.226216 0.093963 0.629276 -0.356089 0.033824 -0.071170 0.103845 -0.267297 -0.128591 -0.142899 0.245046 -0.105964 -0.059145
face 0.246918 0.019625 0.277959 -0.037431 0.322850 -0.191053 -0.015013 0.674822 -0.046134 0.243600 0.401647 -0.095633 0.359849 -0.293787 0.222207 0.025722 -0.067915 0.117895 -0.238957 0.196643 -0.084039 -0.172340 0.207606 -0.134154 0.112102 -0.332876 0.340137 0.316614 0.011475 -0.288742 0.057338 -0.373768 0.185168 0.209976 -0.084831 0.017795 0.223611 -0.174589 -0.081398 0.190085 0.189921 -0.225715 -0.330940 0.121262 0.042206 0.149951 -0.226763 -0.300062 -0.026785 -0.168953 0.021613 0.288821 -0.266332 -0.106875 0.031889 -0.188920 0.190942 0.280404 0.142039 0.140336 0.009971 -0.128098 0.079666 0.067653 0.170379 -0.150489 -0.088838 0.214365 0.235656 0.169978 0.041061 0.246275 0.053690 -0.274991 -0.453350 -0.167651 0.158211 0.167358 0.055867 -0.176726 -0.168613 0.303041 -0.055010 -0.205819 -0.163801 0.158845 -0.143419 -0.229846 -0.052831 0.586526 -0.349615 0.006310 -0.062117 0.116114 -0.399089 -0.077406 -0.300708 0.097692 -0.151456 0.012688
came 0.264731 0.012442 0.329158 -0.084166 0.326335 -0.207235 -0.056330 0.684333 -0.025276 0.344803 0.454350 -0.090530 0.350252 -0.283036 0.263502 0.076479 -0.051919 0.102971 -0.221023 0.163362 -0.133608 -0.155816 0.227438 -0.093858 0.083811 -0.397696 0.323461 0.313185 0.012678 -0.324064 0.038780 -0.402109 0.149928 0.260877 -0.065971 -0.004022 0.196548 -0.148709 -0.034178 0.220694 0.197790 -0.252986 -0.369929 0.069318 0.040377 0.173454 -0.174975 -0.296313 -0.039313 -0.202253 0.053638 0.250915 -0.259129 -0.086218 0.050174 -0.181615 0.170334 0.302770 0.162561 0.069493 -0.040420 -0.151115 0.103440 0.034352 0.171053 -0.094233 -0.114529 0.244143 0.221158 0.209314 0.044422 0.245171 0.029229 -0.276252 -0.459203 -0.196918 0.216991 0.162221 0.040261 -0.153845 -0.228329 0.317475 -0.002957 -0.251866 -0.147397 0.158411 -0.116809 -0.288760 -0.006466 0.615233 -0.380933 0.044519 -0.080183 0.129430 -0.379508 -0.084380 -0.250728 0.143852 -0.148640 -0.004750
asked 0.309934 -0.064017 0.357046 -0.071332 0.197554 -0.282594 -0.082372 0.712080 0.125134 0.509630 0.460650 -0.050366 0.284483 -0.192254 0.283942 0.100296 -0.040082 0.010864 -0.085393 0.094853 -0.241544 -0.177017 0.209888 0.003861 -0.010837 -0.434054 0.251512 0.284719 0.042035 -0.426758 0.035155 -0.411204 -0.027087 0.307355 -0.008642 -0.051737 0.138791 0.066738 0.106883 0.240853 0.118137 -0.249283 -0.364353 -0.030806 0.080879 0.144647 -0.073654 -0.242882 0.013913 -0.197905 0.063808 0.109348 -0.287591 -0.027008 0.042728 -0.194896 0.093312 0.417937 0.150803 -0.122084 -0.187365 -0.191476 0.145684 -0.028251 0.102744 0.069256 -0.155397 0.177876 0.173477 0.259105 0.075055 0.262092 -0.000184 -0.176396 -0.336734 -0.178275 0.305074 0.125424 0.010978 -0.094622 -0.313223 0.280251 0.129580 -0.266728 -0.109581 0.082302 -0.126234 -0.194779 0.093420 0.582652 -0.319876 0.052051 -0.105434 0.103374 -0.239535 -0.133948 -0.117586 0.222076 -0.067893 -0.047600
can 0.328000 -0.022132 0.377152 -0.170788 0.180735 -0.300887 -0.151138 0.866605 0.141497 0.539323 0.504312 -0.031758 0.213254 -0.153669 0.341212 0.123533 -0.062206 0.060165 0.001256 0.070112 -0.299922 -0.164313 0.274524 0.097624 -0.104229 -0.550062 0.279175 0.249164 0.080888 -0.418735 0.113463 -0.387244 -0.069327 0.335191 -0.030809 -0.019612 0.047750 0.104224 0.103951 0.242124 0.134175 -0.201252 -0.390104 -0.028837 0.051693 0.174218 -0.106548 -0.231484 0.010245 -0.176914 0.059707 0.098511 -0.262264 0.035133 0.018175 -0.159557 0.071397 0.405055 0.237952 -0.180597 -0.143877 -0.258025 0.124241 -0.089948 0.086887 0.091069 -0.162523 0.227492 0.118469 0.264966 -0.002651 0.306317 -0.003508 -0.116198 -0.350022 -0.221299 0.398287 0.069555 0.039644 -0.076813 -0.386551 0.243196 0.157431 -0.346446 0.005609 0.070424 -0.116784 -0.193969 0.097631 0.586830 -0.354161 0.019064 -0.006275 0.106240 -0.195090 -0.082194 -0.150729 0.250144 -0.109712 -0.068611
see 0.329345 -0.050408 0.379093 -0.116346 0.166962 -0.317265 -0.105548 0.786586 0.166676 0.556993 0.455261 -0.032430 0.206202 -0.185197 0.294500 0.141056 -0.046861 0.023499 -0.015594 0.058729 -0.296011 -0.151497 0.245430 0.062170 -0.050223 -0.507782 0.242962 0.226350 0.057843 -0.467074 0.056925 -0.411203 -0.098140 0.324020 -0.008388 -0.058699 0.078137 0.132155 0.135100 0.246925 0.110025 -0.221875 -0.386318 -0.057531 0.055365 0.165563 -0.046468 -0.215156 0.013349 -0.224303 0.074385 0.064738 -0.262951 0.010355 0.048665 -0.152051 0.065693 0.448885 0.191578 -0.199287 -0.214275 -0.218221 0.144475 -0.061587 0.094451 0.126418 -0.172132 0.185588 0.135662 0.249903 0.032930 0.271670 -0.013452 -0.127146 -0.305306 -0.199203 0.359678 0.103902 -0.004996 -0.091475 -0.374713 0.236215 0.159978 -0.319106 -0.063122 0.081818 -0.140838 -0.207502 0.129870 0.608127 -0.327612 0.036834 -0.063404 0.094554 -0.175705 -0.117589 -0.070009 0.276711 -0.088407 -0.080232
should 0.291517 -0.037122 0.358431 -0.114907 0.181288 -0.295871 -0.111122 0.737293 0.136068 0.511586 0.466473 -0.031990 0.256780 -0.187518 0.306705 0.108300 -0.039528 0.025778 -0.081965 0.089710 -0.241331 -0.164628 0.227815 0.011906 -0.038111 -0.473760 0.282293 0.281587 0.051104 -0.433690 0.063428 -0.406621 -0.019718 0.306018 -0.023246 -0.022846 0.121933 0.056243 0.124637 0.243749 0.133080 -0.197813 -0.351243 -0.011106 0.073874 0.163354 -0.078477 -0.225323 0.000472 -0.182710 0.066662 0.133429 -0.285769 -0.018604 0.032456 -0.158738 0.067842 0.384645 0.181242 -0.117563 -0.173323 -0.241136 0.168841 -0.038863 0.104124 0.069401 -0.128030 0.203648 0.170979 0.264289 0.054174 0.290166 -0.025949 -0.174644 -0.330552 -0.199997 0.306917 0.089749 0.005355 -0.078885 -0.358972 0.265552 0.137954 -0.307807 -0.067789 0.067434 -0.119403 -0.203391 0.080254 0.594059 -0.311643 0.040816 -0.076457 0.091679 -0.251492 -0.100782 -0.145149 0.214611 -0.078477 -0.028167
drebber 0.278814 0.019967 0.332483 -0.094691 0.323643 -0.225162 -0.063409 0.786782 -0.028233 0.381436 0.509320 -0.098770 0.341641 -0.286732 0.289527 0.079617 -0.070357 0.136977 -0.180152 0.185945 -0.144247 -0.186197 0.231103 -0.087105 0.047458 -0.416521 0.359403 0.309060 0.003678 -0.347852 0.070838 -0.418714 0.127652 0.265340 -0.107418 0.021755 0.172807 -0.131909 -0.031045 0.195412 0.183282 -0.267005 -0.377273 0.091351 0.043275 0.172860 -0.175183 -0.320083 -0.023468 -0.226732 0.062283 0.257430 -0.291643 -0.065968 0.014577 -0.193552 0.183345 0.340849 0.165561 0.071269 -0.018155 -0.156646 0.104603 0.020992 0.157600 -0.091239 -0.131819 0.234609 0.196831 0.238915 0.048348 0.286585 0.031025 -0.231957 -0.469852 -0.183971 0.267251 0.157842 0.033986 -0.194576 -0.234077 0.323392 0.016322 -0.263427 -0.148275 0.130974 -0.136326 -0.271421 -0.010665 0.624909 -0.391409 0.012202 -0.080461 0.120340 -0.366785 -0.089692 -0.281613 0.181661 -0.165313 -0.019595
through 0.250612 0.051417 0.330943 -0.087346 0.353269 -0.185936 -0.072061 0.777584 -0.057482 0.288667 0.468774 -0.098585 0.335286 -0.272466 0.296121 0.069614 -0.076060 0.138520 -0.191824 0.190387 -0.094117 -0.143135 0.257516 -0.064967 0.063011 -0.428346 0.360540 0.280093 0.016652 -0.271940 0.093146 -0.342940 0.171304 0.232790 -0.117509 0.032473 0.160728 -0.159023 -0.091968 0.169314 0.215639 -0.224751 -0.361878 0.097562 0.030582 0.195185 -0.228968 -0.310947 -0.021745 -0.173068 0.026829 0.264617 -0.241453 -0.057340 0.010891 -0.140462 0.175450 0.291855 0.178874 0.105089 0.047857 -0.164266 0.065584 0.021094 0.158054 -0.128505 -0.118568 0.251152 0.199892 0.190925 -0.008952 0.267295 0.027905 -0.244991 -0.469100 -0.216158 0.247926 0.142759 0.060971 -0.181397 -0.226878 0.298604 -0.030983 -0.258549 -0.101034 0.157815 -0.122483 -0.274446 -0.057146 0.603307 -0.403624 0.013568 -0.002490 0.142215 -0.370371 -0.046709 -0.317562 0.118968 -0.186709 -0.009759
ferrier 0.307701 0.005035 0.297177 -0.075972 0.283605 -0.205997 -0.102064 0.761891 -0.022990 0.369390 0.469280 -0.050860 0.322970 -0.233677 0.269249 0.088377 -0.058879 0.105013 -0.178209 0.207313 -0.141181 -0.141770 0.267589 -0.050759 0.059430 -0.413058 0.360270 0.269075 -0.001080 -0.329123 0.087568 -0.381200 0.124907 0.203663 -0.113967 0.007714 0.163591 -0.098630 -0.035741 0.173903 0.151320 -0.205464 -0.381749 0.067892 0.021701 0.154562 -0.192633 -0.283225 -0.036804 -0.170958 0.057091 0.205451 -0.245807 -0.072878 0.002702 -0.179726 0.191836 0.362480 0.152227 0.037891 -0.005903 -0.146068 0.098090 0.004228 0.146164 -0.092439 -0.101426 0.249917 0.195115 0.228938 0.042460 0.249625 0.012558 -0.241912 -0.463899 -0.167262 0.276869 0.127407 0.068138 -0.181041 -0.258847 0.286372 -0.003576 -0.250585 -0.126780 0.129848 -0.133510 -0.234505 -0.036317 0.595581 -0.372653 0.002705 -0.035853 0.109979 -0.333987 -0.084682 -0.284416 0.186476 -0.165753 -0.048160
may 0.274224 -0.013644 0.357719 -0.155249 0.207327 -0.259364 -0.142977 0.802842 0.084393 0.463135 0.490628 -0.057168 0.223112 -0.159052 0.333588 0.090776 -0.049007 0.084550 -0.056528 0.089379 -0.247009 -0.156184 0.256742 0.044492 -0.078172 -0.509094 0.292656 0.261072 0.071171 -0.389172 0.108831 -0.360966 -0.009464 0.297033 -0.037191 -0.016391 0.087804 0.036952 0.075948 0.232731 0.132078 -0.183374 -0.376419 -0.010045 0.058409 0.163231 -0.136556 -0.235121 0.003430 -0.146429 0.044709 0.126697 -0.240178 0.017945 0.006132 -0.159017 0.075244 0.359385 0.225197 -0.131199 -0.083847 -0.232315 0.101899 -0.071375 0.079140 0.036350 -0.133230 0.228637 0.126700 0.252573 -0.003706 0.297276 -0.018947 -0.135239 -0.372542 -0.213472 0.341990 0.099946 0.035998 -0.086141 -0.348958 0.237716 0.115267 -0.301092 -0.005471 0.094735 -0.096820 -0.199244 0.053071 0.552839 -0.331555 0.002721 0.003564 0.110064 -0.219477 -0.079772 -0.192449 0.205772 -0.108060 -0.031886
eyes 0.257940 0.020439 0.297530 -0.071313 0.309446 -0.199043 -0.038175 0.707467 -0.026983 0.291530 0.419477 -0.070415 0.318611 -0.272963 0.256101 0.045903 -0.054867 0.111346 -0.191089 0.174516 -0.116640 -0.158567 0.223752 -0.100431 0.070303 -0.370052 0.321355 0.288827 0.007615 -0.309227 0.042628 -0.365523 0.150167 0.222650 -0.092743 0.017905 0.190344 -0.132672 -0.057177 0.182353 0.180745 -0.231004 -0.327264 0.105781 0.039957 0.143768 -0.196549 -0.284387 -0.013910 -0.168905 0.036850 0.248350 -0.258573 -0.083170 0.026793 -0.183446 0.162739 0.294368 0.158438 0.096893 -0.000404 -0.146387 0.094840 0.028381 0.147195 -0.109361 -0.111132 0.213958 0.208796 0.184252 0.028435 0.243069 0.045904 -0.242739 -0.446984 -0.183496 0.196919 0.148103 0.059760 -0.165583 -0.196132 0.294785 -0.007657 -0.225702 -0.143249 0.150754 -0.117355 -0.227151 -0.026039 0.583471 -0.358240 0.018466 -0.050299 0.116441 -0.352307 -0.060023 -0.268413 0.130211 -0.147396 -0.003459
answered 0.318379 -0.067277 0.367477 -0.081942 0.187084 -0.312837 -0.068653 0.710681 0.143661 0.524099 0.450700 -0.035270 0.280440 -0.211213 0.271249 0.110076 -0.051665 0.004094 -0.079115 0.086805 -0.255740 -0.177332 0.205151 0.001352 0.006205 -0.434548 0.252962 0.277898 0.049116 -0.438942 0.044575 -0.406638 -0.032916 0.296398 0.006037 -0.049270 0.132534 0.072750 0.121446 0.248623 0.106553 -0.239373 -0.373525 -0.041290 0.093367 0.135442 -0.063105 -0.231915 -0.000131 -0.222311 0.079453 0.115458 -0.299032 -0.035545 0.057254 -0.171232 0.088000 0.415358 0.168451 -0.128871 -0.218019 -0.198714 0.161773 -0.023078 0.115414 0.076460 -0.156420 0.161084 0.170707 0.254873 0.068666 0.273413 -0.014025 -0.178642 -0.327872 -0.191330 0.306033 0.114343 0.005087 -0.095052 -0.327802 0.285251 0.125359 -0.297104 -0.104113 0.092287 -0.142602 -0.190187 0.098603 0.590362 -0.302999 0.058627 -0.115345 0.088291 -0.232748 -0.140674 -0.098766 0.232061 -0.076249 -0.062790
than 0.315402 -0.020440 0.355401 -0.143816 0.225916 -0.275519 -0.110863 0.782374 0.063898 0.469311 0.495380 -0.084178 0.295980 -0.200787 0.285765 0.119818 -0.080361 0.074630 -0.118769 0.150002 -0.212061 -0.196285 0.242526 -0.005060 -0.016807 -0.457422 0.322497 0.260687 0.030236 -0.367785 0.081739 -0.410291 0.025982 0.265540 -0.055661 -0.003490 0.107726 -0.026689 0.049241 0.209888 0.152049 -0.196321 -0.382270 0.026834 0.063746 0.184329 -0.118079 -0.251561 -0.010612 -0.225740 0.057136 0.182980 -0.281172 -0.064070 0.036122 -0.123548 0.111286 0.399033 0.203890 -0.040145 -0.066896 -0.218961 0.147458 -0.025877 0.118563 -0.022966 -0.107991 0.243774 0.184849 0.265795 0.024089 0.266776 -0.027526 -0.175506 -0.384987 -0.204575 0.328999 0.107357 0.021816 -0.131347 -0.327637 0.284284 0.078554 -0.335863 -0.088103 0.091570 -0.141698 -0.238696 0.078540 0.642199 -0.357102 0.042436 -0.071224 0.101287 -0.280916 -0.100986 -0.191645 0.229552 -0.119758 -0.048030
found 0.267825 -0.026868 0.321058 -0.071283 0.248441 -0.233266 -0.059002 0.647284 0.033659 0.377606 0.413387 -0.059242 0.309064 -0.245311 0.264498 0.071531 -0.053392 0.070901 -0.168441 0.139380 -0.148119 -0.167795 0.183918 -0.076794 0.057311 -0.362474 0.282233 0.295604 0.027707 -0.344252 0.042375 -0.373835 0.077133 0.256997 -0.044125 -0.003512 0.180093 -0.061266 0.025116 0.206139 0.152702 -0.221330 -0.334530 0.044461 0.055333 0.132512 -0.134549 -0.257694 -0.025851 -0.194231 0.048156 0.199622 -0.259193 -0.071948 0.037100 -0.166478 0.133983 0.316054 0.151989 0.023007 -0.086646 -0.155324 0.123638 0.018096 0.137882 -0.044540 -0.118338 0.193186 0.199841 0.219260 0.063199 0.247800 0.000769 -0.220638 -0.374216 -0.167124 0.230957 0.135337 0.017680 -0.132774 -0.232246 0.279341 0.034705 -0.239529 -0.129991 0.109581 -0.122083 -0.229038 0.018307 0.567498 -0.314277 0.036805 -0.087962 0.116271 -0.315125 -0.097297 -0.197631 0.152982 -0.098300 -0.016325
hope 0.239619 0.029775 0.262963 -0.101338 0.266439 -0.188080 -0.076183 0.721845 -0.000008 0.302509 0.438920 -0.055722 0.268243 -0.224155 0.290801 0.037313 -0.090260 0.143019 -0.139825 0.143494 -0.101195 -0.180390 0.217270 -0.103448 0.051639 -0.383125 0.357234 0.267376 0.015237 -0.316511 0.074007 -0.350585 0.129496 0.240298 -0.121786 0.011639 0.190700 -0.134216 -0.010460 0.158004 0.174562 -0.180606 -0.312756 0.085223 0.048876 0.127066 -0.176996 -0.297550 -0.043245 -0.184605 0.020453 0.222645 -0.281963 -0.081540 -0.024722 -0.180179 0.165049 0.269537 0.193252 0.099350 0.002705 -0.116108 0.081240 0.000839 0.107248 -0.087717 -0.140686 0.232535 0.210844 0.168145 0.052080 0.272903 0.021803 -0.227337 -0.380009 -0.177212 0.250581 0.136642 0.030672 -0.134799 -0.176004 0.274307 -0.016216 -0.248085 -0.079063 0.139956 -0.137403 -0.239701 -0.053507 0.529598 -0.316316 -0.024643 -0.028925 0.142225 -0.349844 -0.081873 -0.213069 0.108604 -0.147901 0.006258
room 0.232639 0.048962 0.271623 -0.057207 0.315928 -0.157720 -0.033070 0.631374 -0.048777 0.255276 0.394483 -0.084989 0.320237 -0.272824 0.246041 0.049060 -0.075342 0.111343 -0.207149 0.181470 -0.070495 -0.156017 0.195149 -0.099144 0.089054 -0.317214 0.312694 0.274865 0.012779 -0.255635 0.043494 -0.324839 0.181519 0.197074 -0.085051 0.028031 0.182560 -0.179690 -0.067740 0.163495 0.191238 -0.210547 -0.321636 0.096776 0.032826 0.145108 -0.190632 -0.273827 -0.033733 -0.166316 0.039846 0.265169 -0.242152 -0.095814 0.012596 -0.141598 0.164635 0.256843 0.128718 0.138436 0.020239 -0.119434 0.089227 0.032656 0.160870 -0.127773 -0.095292 0.230209 0.195330 0.170546 0.037089 0.222276 0.032349 -0.254101 -0.423868 -0.171631 0.167906 0.135280 0.049375 -0.170027 -0.149625 0.294189 -0.042415 -0.221879 -0.137107 0.148960 -0.108644 -0.255666 -0.048672 0.543121 -0.348778 0.027006 -0.055194 0.127032 -0.367834 -0.075247 -0.282037 0.091186 -0.161797 0.005845
tm 0.353009 0.358723 0.387108 -0.619057 0.575922 0.081520 -0.606248 2.118212 -0.500438 -0.062071 1.059346 -0.362455 0.127023 0.038967 0.783906 -0.185472 -0.361483 0.943447 0.105707 0.406008 -0.265581 -0.272841 0.978434 0.447026 -0.591364 -1.259169 0.882039 0.259141 0.244391 0.195966 0.912670 -0.143156 0.259883 0.286474 -0.627290 0.423095 -0.222505 -0.259528 -0.713813 -0.066014 0.473881 0.219699 -0.567530 0.328630 -0.168739 0.509872 -1.012777 -0.632296 0.240308 0.225714 -0.285235 0.404542 0.001182 0.453931 -0.395241 -0.112851 0.312203 0.148063 0.737069 0.111287 1.209782 -0.263259 -0.574796 -0.378284 0.047873 -0.621952 -0.013993 0.849722 -0.104394 0.251411 -0.598342 0.468658 0.075596 0.094166 -1.137128 -0.461396 1.025790 0.002581 0.331559 -0.178414 -0.306107 -0.156151 -0.041606 -0.558767 0.575479 0.241405 0.035149 -0.184220 -0.296336 0.437670 -0.977119 -0.239370 0.688725 0.327215 -0.164733 0.354352 -1.201116 0.203101 -0.777440 -0.164838
