1834 100
and 0.262311 -0.015220 0.253877 -0.104289 0.266356 -0.017947 -0.887023 0.069161 0.044178 0.617827 0.032939 0.026409 0.446988 -0.434820 0.229290 -0.499174 -0.032849 -0.002298 -1.016592 0.169414 -0.287850 0.205046 0.217651 0.355636 -0.086756 0.116081 -0.314388 0.863390 0.341621 0.111367 0.060506 -0.488655 -0.835170 0.020363 -0.299526 -0.111841 0.466805 -0.381265 0.366503 0.057352 0.512354 -0.118632 -0.492961 0.700877 0.078935 0.442615 0.069573 -0.128915 0.311761 0.404050 -0.219971 0.022609 -0.130403 -0.176475 -0.377027 -0.176409 0.150630 0.427837 0.022589 0.073067 0.002405 -0.620899 -0.552076 1.036543 -0.351170 -0.101061 0.001728 -0.170366 0.202588 0.080455 -0.402061 0.632005 0.056586 -0.834916 -0.660571 -0.204895 -0.856379 0.302610 -0.040971 0.030244 -0.073049 -0.060332 -0.375142 0.174607 -0.470529 0.249127 -0.032683 0.216479 -0.185516 0.407051 0.170698 -0.181994 0.137081 -0.156431 -0.099414 0.177450 -0.230968 0.258924 0.135993 0.130855
the 0.222384 0.103491 -0.664151 -0.129093 0.094669 -0.106600 -0.817205 -0.206530 -0.755180 0.614053 0.308329 0.601678 0.365471 -0.024981 -0.063583 -0.333092 -0.636094 -0.124055 -1.061161 0.272114 -0.149450 0.483124 0.128157 0.485259 0.397558 -0.020451 -0.228196 0.240278 -0.171306 -0.330224 0.132199 -0.259686 -0.145365 0.583181 -0.227032 0.686965 0.357500 -0.662487 0.755749 -0.371314 1.026772 -0.848691 -0.624834 0.591191 -0.456344 0.576108 0.111838 0.029310 -0.186460 0.431366 -0.101386 1.114799 -0.795665 -0.901115 -0.383726 -0.976967 -0.401839 -0.254389 0.399274 0.525213 -0.030291 -0.819810 -0.316308 0.151997 0.014607 0.337221 -0.001113 -0.028116 0.191200 0.421576 0.343292 0.741738 0.498054 -0.852036 -0.728791 0.781221 -0.691165 -0.091520 -0.019417 0.159337 -0.835652 0.433501 0.547578 0.246791 -0.612468 1.041462 0.461929 -0.227622 -0.495631 0.526324 -0.338912 -0.139748 -1.023696 -0.454860 -0.863863 0.937866 -0.456576 -0.540955 -0.492873 -0.250623
i 1.099888 0.266697 0.314110 1.048443 0.368128 0.442920 0.138273 0.987378 1.489036 1.007824 0.064489 0.538908 -0.345356 -0.304215 -0.159097 -0.300559 -0.631784 0.293294 0.360499 -0.437207 -0.684205 -0.132716 0.340328 0.061631 0.439822 -0.026452 -0.271684 -0.062033 0.423327 -0.091065 -0.521869 -0.532171 -1.528695 1.134979 -0.333245 0.057894 -0.020047 -0.027025 0.094137 0.227921 -0.291010 0.333572 1.177937 -0.745716 -0.563748 -0.414850 0.280056 0.648423 0.286411 -0.061068 0.734795 -1.153521 -0.299509 0.268455 0.086829 0.248016 0.259412 0.892321 0.629910 -0.742447 -0.930381 -0.085576 -0.562413 -0.164223 -1.320772 0.514952 0.098204 0.997115 0.098044 0.343690 -0.709068 -0.583869 0.708044 -0.148939 -0.819326 0.078203 1.467885 0.975134 0.140870 -1.156645 0.614305 -0.497167 -0.166161 -0.221049 -0.294035 -0.960361 -0.935043 0.643680 0.618208 1.023976 -0.280705 0.398717 0.256071 0.055277 0.523377 0.139719 0.524706 1.251628 -0.644839 -0.482318
a -0.022597 0.052959 0.038039 -0.095523 -0.039682 -0.580285 -0.238940 0.212200 -0.258537 0.564587 0.189229 0.783875 0.013895 0.021812 0.047301 0.078178 -0.414093 0.847521 -0.154395 0.381685 -0.048410 0.333894 -0.108101 -0.648425 0.023374 0.894795 0.090362 0.072229 -0.482314 -0.254097 -0.183765 -0.072601 0.200300 -0.222968 0.007371 0.395765 0.614896 -0.671162 0.487968 -0.883583 -0.115164 -0.025580 -0.597981 0.067601 -0.157555 0.562487 0.092622 -0.277069 -0.654468 -0.255734 0.907654 0.074698 -0.945340 -0.221534 0.312654 -0.904615 0.338497 0.114787 0.582911 -0.174136 -0.396139 -0.384909 -0.342571 -0.121775 0.448566 -0.127005 -0.310141 -0.180854 0.311721 0.424786 0.256415 0.667994 -0.187437 -0.113003 -0.100595 0.151928 -0.309249 0.337474 0.608331 -0.506108 -0.543708 0.593471 0.250484 -0.142974 0.507464 0.791062 -0.218098 0.228757 0.220963 0.964909 -0.230424 -0.946086 -0.654783 0.072454 -0.444374 -0.326855 -0.180062 -0.247679 0.024125 0.095090
to 0.573850 0.301523 0.817680 -0.256952 -0.080131 0.247652 -0.927860 0.825042 0.108864 0.245664 -0.053055 0.167673 0.655245 -0.380816 0.132093 -0.560916 0.412314 -0.905792 -0.408993 0.170093 0.031972 0.006946 0.724566 0.504919 -0.443789 0.226165 -0.357024 0.291863 0.869307 0.249154 0.453569 0.261753 -0.587364 0.956312 0.125377 0.323481 0.148877 0.000056 1.342354 0.726408 -0.463816 -0.295322 0.661941 0.549035 1.018844 -0.341166 0.167756 0.189491 0.196238 -0.035260 0.342677 -0.184413 0.595646 0.179025 -0.841589 1.104135 0.707111 -0.532061 -0.268496 0.097539 -0.129110 -0.334906 0.336698 0.830523 -0.570909 -0.645709 0.407451 -0.015937 0.502454 0.492307 -0.788121 0.227946 -0.157240 -0.881693 -0.132850 -0.045397 0.428254 0.468682 0.391959 -0.126785 -0.681859 -0.242232 -0.317018 -0.962475 0.462395 -0.870832 -0.290210 -0.539108 -0.016478 0.614503 0.142162 -0.693208 1.059446 0.181854 0.378102 0.118566 0.275174 0.049202 -0.331175 0.195305
it 0.320844 0.064710 -0.014716 0.262430 -0.063482 -0.135237 -0.128134 0.808481 0.547797 0.909888 0.003408 0.476059 -0.329719 -0.198071 0.251542 0.071721 -0.666773 0.222620 -0.372976 -0.104861 -0.728955 -0.046327 -0.065029 0.136323 -0.323566 0.101976 -0.049815 0.112289 0.194110 0.132029 -0.522010 -0.577130 -0.396206 0.731253 -0.289170 0.495658 -0.410394 0.291621 1.300876 0.677463 -0.050511 -0.227971 0.201915 -0.542303 -0.171263 0.218211 0.468183 0.212819 0.104431 -0.646537 0.510382 -0.020245 -0.465946 0.020140 -0.217499 -0.193787 0.512858 -0.060143 0.294942 -0.295928 -0.573122 0.435503 0.285478 -0.082655 -0.556456 0.181736 -0.352597 0.318990 0.154974 -0.062888 -0.513756 0.367740 0.561708 -0.737793 -0.185835 0.042148 0.468012 0.421745 0.129183 -0.588229 0.130089 -0.379702 0.269280 -0.088981 -0.087927 -0.068561 -0.527582 0.486482 0.721756 0.577844 0.133072 0.379529 -0.654057 -0.154828 0.194538 0.009199 0.278549 0.400084 -1.134976 -0.968621
t -0.984176 1.158351 2.489998 1.669216 0.962975 -0.971558 0.947813 1.515785 2.014621 -0.329180 -0.113661 1.104630 1.410252 -1.031883 0.213551 -0.828885 -0.691435 -1.502158 -0.738322 -0.217932 -1.029897 0.055435 0.691954 -0.207322 0.536363 -1.138135 -1.499125 1.303401 1.348275 0.451841 -0.440812 0.495042 -1.359097 2.239820 -0.218817 0.001675 -0.834077 -0.036060 1.902956 0.608048 -0.853610 0.360471 -1.001595 -1.206486 0.466739 -1.020653 1.320682 0.149761 1.059017 -1.932723 0.298827 0.149803 0.194102 0.443676 -1.143410 0.437733 -0.170094 -0.990082 0.221760 -0.879214 -1.152704 1.727179 0.939628 0.292658 0.594407 -1.075811 -1.208020 0.460482 0.297982 -0.646516 -1.084513 0.132151 -1.053226 0.325530 -0.606307 -0.086247 1.057858 0.017317 0.218242 -1.600905 0.014503 -0.434872 -0.667616 -0.343646 0.070197 -0.397417 -0.554627 1.034335 -0.659529 -0.064866 0.991370 0.084837 -0.963153 -0.098373 0.638089 -0.642130 1.487219 0.711814 -1.496071 -0.990667
was 0.200405 -0.497412 0.097601 0.494962 0.793672 0.155414 -0.099876 -0.164086 -0.092218 0.263221 0.611214 -0.908852 -0.183630 -0.731617 -0.640939 -0.373809 -0.642509 -0.284247 -1.532516 -0.107417 -0.071189 -0.742509 -0.680976 -0.207613 0.197311 0.801774 -0.309756 0.658666 0.686390 0.520664 0.903339 -0.255432 0.100323 -0.569761 0.596784 -0.549477 -0.245281 -0.388094 -0.235038 0.168594 1.638550 0.410285 -0.936966 0.022543 -0.481214 1.058534 0.413856 -0.259034 -0.521789 0.143421 0.793849 -0.111203 -0.393134 -0.001524 0.116346 -1.430042 0.935004 0.401596 -0.169747 -0.160743 -0.117694 0.294587 -1.025348 0.210782 0.121838 0.131844 0.419257 0.445336 0.100905 -0.447892 0.272723 1.366555 0.312771 -0.509976 -0.754113 -0.346454 -0.225525 0.723230 0.115583 -0.504726 -0.184292 0.102490 -0.352502 -0.264243 -0.157779 -0.678270 0.158424 -0.203618 0.381855 0.094628 0.229181 0.199194 -0.814525 -0.100716 -0.292345 -0.445237 -0.194422 -0.682201 -0.152801 -0.557006
he 0.961774 -0.780401 0.020083 0.310350 0.060728 0.480543 -0.562309 0.920911 0.880748 1.578235 0.413415 0.737894 -0.536605 -0.242882 0.790464 -0.600715 -0.447535 0.690246 -0.347969 0.162179 -0.661306 -0.343027 0.023223 0.008484 -0.431701 0.477782 -0.539568 0.317063 -0.115019 -0.477200 -0.857749 -0.550940 -0.996583 0.019505 -0.440030 0.296831 0.001863 -0.032188 0.990008 0.223313 -0.328933 0.317046 0.406818 -0.104914 -0.494196 0.473219 0.263444 0.085131 0.150235 -0.108761 0.018058 -0.571763 -0.943596 0.218268 0.261040 -0.569406 0.443798 0.666776 -0.123154 -0.896714 -0.398017 -0.156881 -1.147225 0.142887 -1.314022 0.503595 -0.568676 0.418931 -0.004529 -0.433938 -0.092036 0.737083 0.148983 -1.171457 -0.349417 -0.524562 0.552563 0.655168 -0.452555 -0.202283 0.582238 -0.604733 -0.523651 -0.235356 -0.431521 0.059959 -0.704229 0.584564 0.256637 0.680916 0.050490 0.351759 -0.274767 0.668757 0.327767 0.246297 0.404338 1.036595 -0.451585 -0.770978
of 0.281132 1.063727 0.627308 -0.054090 0.806215 -0.116965 -0.030604 0.138774 -0.290071 0.575917 -0.156683 0.843083 0.481328 -0.410319 0.188379 0.130523 -0.328757 -0.274734 -0.448616 0.989993 0.472985 -0.002427 0.154536 0.155301 0.375877 -0.491980 -0.409143 0.326188 -0.420628 0.457389 1.138796 -0.465131 -0.257015 -0.599896 0.112935 -0.210756 0.027673 -0.599568 -0.529158 -0.181299 0.123248 0.273289 -0.972173 0.697054 0.253333 0.084339 -0.354883 -0.230145 0.211327 -0.709757 -0.703916 0.563161 -0.480042 -0.184709 0.144565 -0.511103 0.332915 0.238228 -0.108674 0.677583 0.180476 -0.816027 -0.413287 0.580889 0.750307 -1.196851 0.331751 -0.672686 0.263583 -0.003807 -0.234584 1.115701 0.155300 -0.316188 -0.756774 -1.046059 -0.840305 -0.970884 0.284951 -0.408483 0.530726 0.361906 -0.398385 -0.299308 0.072039 -0.190347 0.118834 -0.652628 -0.313786 0.727072 -0.367546 -0.597024 0.807189 -0.027693 -0.208188 0.135207 -0.654866 -0.406087 0.698753 -0.084429
you 1.189608 0.068115 0.022867 -0.162489 -0.630141 0.536465 0.508374 2.016572 0.640891 0.620690 -0.178971 0.851209 -0.690034 -0.278063 0.061892 0.743078 -0.309827 0.063608 0.264892 -0.245080 -0.650799 -0.018424 0.745789 0.145133 -0.350423 -0.766212 0.285356 -0.677553 0.102135 0.427232 0.090222 -0.231938 -1.222919 1.414898 -0.229023 0.258498 -0.127788 0.709684 0.637875 0.876912 -0.718261 -0.041702 0.792581 -1.081048 -0.215121 -0.546358 0.290623 0.188112 0.124793 -1.474102 0.628722 -0.485544 0.227965 0.306125 -0.001647 0.375095 0.127415 0.652070 -0.147943 -0.423159 -0.820931 -0.636326 0.441001 -0.531539 -0.749929 0.288651 -0.290209 0.249299 0.494252 0.537368 -0.897020 -0.332356 0.553162 0.688220 0.089330 0.107919 1.966901 0.034633 0.504003 -0.804271 -0.101650 -0.144356 0.503720 -1.035544 1.084948 -0.617179 -0.912524 -0.689094 0.565194 1.020814 -1.307674 0.044792 0.831312 0.172156 0.437293 0.146237 0.915119 0.952697 -0.776401 -0.354699
in 0.118219 0.530833 0.365178 0.021818 0.831367 -0.347859 -0.673997 0.078033 0.035479 0.187083 0.165039 -0.281889 0.388778 -0.324135 0.072947 -0.555318 0.287430 -0.156350 -0.014051 0.422689 -0.077403 -0.054478 0.093068 0.415169 0.228428 0.285827 -0.161559 0.425981 0.163077 -0.063401 0.470891 -0.594190 0.091302 0.052827 0.256428 -0.266607 0.010388 -0.465736 -0.308183 -0.455834 0.312815 -0.037487 0.111118 0.840187 0.401923 0.272600 -0.259520 0.004467 -0.283033 0.477806 0.151193 0.038218 -0.181547 0.027715 0.126763 0.366236 0.135342 0.111917 0.237020 0.195346 0.058618 -0.319403 -0.344977 0.457270 0.284019 -0.390417 0.058906 0.051248 0.157649 0.118515 -0.074451 0.281519 -0.127065 -0.362376 -0.700423 -0.605400 0.006116 0.326718 -0.046276 -0.119910 -0.010677 0.237229 -0.449633 -0.242702 -0.264877 0.130218 0.256502 -0.504676 0.037037 0.416159 0.177822 -0.411968 0.494386 0.308848 -0.315055 0.002708 -0.348283 -0.173781 0.528158 0.320447
that 0.434406 0.417498 -0.240497 0.122812 -0.172178 -0.179027 -0.048045 0.676272 0.344162 1.218468 0.429492 0.898744 -0.085450 0.086413 0.003979 0.349482 -0.640818 0.171904 -0.293751 0.383294 -0.420095 -0.097211 -0.319690 0.242767 -0.247469 0.274954 -0.094869 0.006942 -0.389481 0.327385 -0.203692 -0.203195 -0.339197 0.293517 0.071164 0.067521 -0.570113 -0.185426 0.736256 -0.005701 -0.131034 -0.287073 -0.261011 -0.117806 -0.142107 0.367549 0.465971 0.000567 -0.105502 -0.714389 0.106048 0.331517 -0.708272 -0.263564 -0.163669 -0.618187 0.537152 0.138350 0.268129 -0.008494 -0.326675 0.086183 0.509433 -0.429877 0.099275 0.002360 -0.184843 0.210546 0.135680 0.058576 -0.049444 0.701043 0.565544 -0.368123 -0.060581 -0.268218 0.715585 -0.094467 0.352121 -0.603651 0.235694 0.217303 0.169739 -0.426283 0.289085 0.322890 -0.175015 0.018757 0.571942 0.602966 -0.200490 -0.026905 -0.567141 -0.441181 -0.413370 -0.077309 0.182165 -0.074588 -0.640921 -0.681999
s 0.352176 -0.617386 0.132207 0.137963 0.226738 0.006741 0.552582 1.124980 0.222569 0.123823 0.402886 -0.664866 0.093303 -0.171302 -0.286556 0.381847 0.512370 -0.808491 -0.172492 0.230207 -0.365995 -0.780360 -0.434641 -0.230513 0.065546 0.241544 0.329386 -0.167847 -0.079192 0.067586 0.410339 0.027767 0.870485 0.183651 0.512247 -0.425580 -1.279145 0.655762 -0.511288 0.530785 0.962098 0.640226 -0.247922 -0.303035 -0.836783 -0.194452 0.150243 0.178726 -0.607289 -1.207340 0.231249 -0.046562 -0.389629 0.490217 0.399065 -0.727645 0.924879 0.092197 -0.294166 0.153524 -0.468516 0.224585 -0.110906 -0.780344 0.407323 0.761665 -0.226078 0.086685 0.202936 0.187140 0.426450 0.752385 0.098492 0.582090 0.249021 -0.673862 1.511936 -0.151600 -0.011864 -0.217132 -0.376654 0.902405 0.463033 -1.269109 1.031823 -1.206096 0.090713 -1.013581 -0.366955 0.118551 -0.592008 0.554538 -0.508879 0.688981 -0.828058 -0.714285 0.281376 -0.933829 -0.106596 -0.464804
but -0.092807 0.323755 0.765549 1.089489 0.494674 -0.201619 0.176091 0.592478 1.103395 0.418196 0.065217 0.384469 0.144918 -0.267181 -0.253769 -0.406964 -0.429478 -0.543254 -0.672241 0.121397 -0.812325 -0.214043 -0.017453 0.180903 0.170342 0.065703 -0.727751 0.819121 0.601347 0.469345 -0.126621 -0.030230 -0.895376 0.570105 0.133480 -0.381182 -0.547604 -0.242409 0.655851 0.115300 0.298022 0.545657 -0.441100 -0.241419 -0.316908 -0.066831 0.573819 0.178938 0.585511 -0.695312 0.253926 -0.079987 -0.022725 0.256353 -0.686433 0.013924 0.723306 -0.048521 0.414173 -0.185376 -0.750676 0.795454 0.017041 0.262544 0.129117 -0.157528 -0.175588 0.444477 0.056540 -0.200406 -0.766331 0.531438 -0.003831 -0.411984 -0.311887 -0.428096 0.410447 0.484334 0.070709 -0.665859 0.265596 -0.060381 -0.400343 -0.091860 0.229276 -0.419740 -0.317640 0.603531 -0.077724 0.389132 0.549398 0.053398 -0.431322 -0.295906 0.286965 -0.350795 0.481682 0.311471 -0.347487 -0.570945
we 0.900103 0.413858 0.109653 0.056112 0.236279 0.813659 -0.675381 0.290477 0.710140 1.179215 0.068118 0.324660 -0.483972 -0.066058 0.279282 -0.121594 -1.073305 0.433644 -1.108133 -0.329647 -0.429629 0.212479 0.396034 0.484731 0.147565 0.051304 -0.564004 -0.155355 -0.422354 0.099550 -0.139688 -1.222541 -1.903026 0.165194 -0.249621 0.535513 0.427027 -0.298079 0.705556 0.049167 -0.113716 -0.762023 0.686227 -0.471278 0.311090 0.812570 -0.051250 0.165846 0.095572 0.329046 0.761245 -0.550873 -0.028180 -0.159386 -0.119323 0.543972 0.585499 1.028600 0.312920 -0.432792 -0.297677 -0.644420 0.072745 0.592722 -1.011027 -0.115018 0.142119 0.772039 0.624515 0.519429 -0.426465 -0.044328 0.683026 -0.449165 -0.974662 -0.080602 1.471656 0.933855 -0.128008 -1.089903 0.808396 -0.635293 -0.023934 -0.438134 -0.540857 0.247218 -0.217941 -0.417873 1.108271 0.931694 -0.552267 -0.091887 0.352283 -0.440997 0.481084 0.638497 0.493232 0.871767 -0.310185 -0.239495
so 0.195768 0.151976 0.219545 0.521441 0.469151 -0.064782 -0.317322 0.253899 0.657787 0.202101 0.010151 0.019960 0.103522 -0.520525 -0.215028 -0.512697 -0.420453 -0.264522 -0.577579 -0.309925 -0.616396 -0.132059 -0.267724 0.234878 0.086801 0.216519 -0.769003 0.638934 0.825423 -0.045218 0.291619 -0.224309 -0.812553 0.225028 0.196370 -0.549125 -0.146052 -0.202690 0.737875 -0.069162 0.395146 -0.109728 -0.183407 0.001967 -0.143144 0.210246 0.292409 0.086437 0.378792 0.244655 0.385615 0.015116 -0.225268 0.107356 -0.506022 0.006403 0.658767 0.042636 0.247453 -0.430357 -0.503273 0.426980 -0.466669 0.542442 -0.214083 0.239912 -0.044494 0.453368 0.011936 0.133677 -0.493853 0.416711 0.101387 -0.691291 -0.597278 -0.158347 0.021618 0.766041 0.050965 -0.310327 0.195540 -0.102177 -0.075698 0.173480 0.055397 -0.236282 0.072731 0.565386 0.171605 0.448099 0.367690 -0.107790 -0.055126 -0.249667 0.320175 -0.036397 -0.075875 0.267169 -0.416896 -0.387179
on 0.300384 0.684941 0.298907 0.022541 0.858230 -0.063224 -0.761829 0.033973 -0.061000 0.033153 -0.153004 -0.307203 0.608235 -0.610706 0.081412 -0.455296 0.447806 -0.830454 -0.485305 0.132710 -0.072531 0.117306 0.499739 0.444382 0.304500 -0.371784 -0.020702 0.205931 0.481503 -0.037901 0.575683 -0.712154 -0.184297 0.091688 -0.041530 -0.418572 0.145034 -0.193717 0.070367 0.085386 0.467874 -0.013827 -0.342066 0.920233 0.324119 0.070437 -0.305715 -0.297976 0.174699 0.117803 -0.158732 0.232836 -0.026795 0.103168 0.203575 0.402010 -0.094392 0.084036 0.002454 0.469867 0.255124 -0.242721 -0.675080 0.989591 -0.050082 -0.174466 0.057041 -0.379465 0.053552 0.036741 -0.058280 0.523237 0.358179 -0.611226 -0.863250 -0.417995 -0.551827 0.060238 -0.267578 -0.058289 0.033253 -0.189135 -0.197845 0.036278 -0.589587 0.090154 0.360437 -0.499030 -0.352224 0.460908 0.017014 -0.348299 0.553971 0.359476 -0.252316 0.391466 -0.263627 0.155206 0.383992 0.135664
for 0.336322 0.219120 0.547359 0.177607 0.353405 0.271539 -0.361277 0.437205 0.108088 0.238842 -0.021413 -0.005695 0.235796 -0.110998 -0.027109 -0.480530 0.089228 -0.460216 -0.353622 0.394473 -0.300287 -0.037336 0.248764 -0.035786 -0.348084 0.177849 -0.127940 0.480329 0.496642 0.381636 0.315154 -0.103126 -0.666284 -0.233133 0.071530 0.000698 -0.047594 -0.074334 0.217306 -0.277323 0.123563 0.305524 -0.302565 0.133711 0.183950 0.179759 0.042325 -0.146099 0.322692 -0.160571 0.200431 -0.130377 0.422791 0.754093 -0.176767 0.606111 0.738381 0.300195 0.078621 0.042470 0.074363 -0.327418 -0.317810 0.539672 -0.088500 -0.331130 -0.083484 0.044819 -0.025931 0.378679 -0.441175 0.348930 -0.181682 -0.054415 -0.164905 -0.698146 0.151975 0.221155 0.014729 -0.217499 -0.067978 -0.098912 -0.220206 -0.506392 0.458014 -0.317528 0.027557 -0.318737 -0.081560 0.635484 -0.099794 -0.613931 0.642665 0.240543 0.154043 -0.266347 -0.429704 0.111971 0.205294 0.320208
up 0.134003 0.363798 -0.082845 0.203579 0.624699 -0.121279 -0.889823 0.085185 0.213841 0.335234 -0.254755 -0.211366 0.653648 -0.493559 0.231748 -0.640133 0.397024 -0.196302 -0.416058 -0.163788 -0.298706 0.052166 0.382686 0.111355 0.121139 -0.089216 -0.212694 0.397010 0.363118 -0.539403 0.037576 -0.764779 -0.208253 0.240357 -0.293841 -0.258276 0.582142 -0.214136 0.302112 -0.189940 0.425214 -0.365840 0.079985 0.546531 -0.024905 0.125088 0.023902 -0.103603 0.081935 0.512903 0.369716 -0.250445 -0.394635 0.091378 0.095175 0.172845 -0.036146 0.130275 -0.004783 0.035807 -0.083128 -0.219368 -0.737261 0.854589 -0.409618 0.271195 -0.166563 -0.211196 0.155903 0.178709 -0.057189 0.252413 0.068611 -0.603113 -0.847193 0.058382 -0.371164 0.662599 -0.352451 -0.159441 0.030413 -0.244369 -0.071607 0.254351 -0.671037 0.254678 0.354299 -0.065958 -0.152824 0.416188 0.179837 -0.028754 -0.172440 0.350608 -0.142209 0.333248 -0.204917 0.168204 0.018513 -0.025476
all 0.569703 -0.099930 -0.356537 -0.100570 0.374020 -0.277007 -0.325318 0.400413 -0.303668 0.728658 -0.327780 -0.398043 -0.291612 -0.377528 0.155358 -0.019839 -0.417400 0.160165 -0.855763 -0.356092 0.136058 -0.148684 0.232244 0.964160 -0.096325 -0.117558 0.184315 0.342380 0.196540 -0.046494 -0.283097 -0.824147 -0.168193 0.425395 0.471876 0.242087 -0.497513 -0.119683 0.744637 0.538831 0.755499 -0.422722 0.020545 -0.194620 0.092432 0.274694 0.349694 0.029866 0.144387 -0.304251 0.026125 0.575549 0.039454 -0.052079 -0.043923 0.068800 0.631324 -0.046755 0.071547 0.190174 -0.085250 -0.046560 0.615280 0.141493 -0.015274 0.060988 -0.136391 0.276286 -0.098476 0.392764 -0.483473 0.645806 1.010958 -1.432714 -0.229743 -0.179824 0.854919 0.526589 -0.039853 0.052888 -0.056714 -0.243576 0.305755 -0.767481 0.198823 0.336922 -0.039176 0.011732 0.456127 -0.305909 0.079169 0.085205 -0.027587 0.096543 -0.241087 0.193929 0.022722 0.091120 -0.544153 -0.465381
they 0.989601 0.204163 0.398188 0.043019 -0.039226 0.797073 -0.424298 0.738039 0.679606 1.134235 0.142229 1.030181 -0.798131 -0.256450 0.399011 0.113211 -1.135444 0.411184 -0.983774 -0.079270 -0.280089 0.093417 0.233830 0.301918 -0.216522 -0.089530 -0.668134 -0.170370 -0.237504 0.355191 -0.108313 -0.937126 -1.802314 0.058704 -0.231911 0.436032 0.262934 -0.057352 1.323997 0.406837 -0.540869 -0.570698 0.441647 -0.527077 0.184579 0.569432 0.169825 0.178595 0.202649 -0.445486 0.472962 -0.407054 -0.287756 -0.187162 0.049552 0.111105 0.510827 0.938885 -0.059287 -0.445015 -0.434779 -0.673873 -0.001059 0.495422 -0.917784 -0.374901 -0.171800 0.323903 0.439149 0.023884 -0.578354 0.514693 0.674538 -0.585244 -0.568659 -0.481529 0.905669 0.491740 0.022075 -0.945812 0.756573 -0.723880 -0.110250 -0.517174 -0.043199 0.371861 -0.625411 -0.114435 0.914511 0.884249 -0.530189 -0.418856 0.537371 -0.293981 0.711850 0.515076 0.752413 0.899534 -0.489493 -0.412477
out 0.458226 0.238479 -0.096980 -0.235033 0.696482 -0.068135 -1.091876 -0.086186 -0.134365 0.005814 -0.166779 -0.087690 0.673447 -0.831270 0.412464 -0.305321 0.138350 -0.425421 -0.454930 -0.390432 -0.238008 -0.319765 0.595201 0.257188 0.136862 -0.354014 -0.053657 0.168534 0.490703 -0.415092 0.286387 -0.535410 0.226628 0.096092 -0.016614 -0.573350 0.920907 0.030596 0.575087 -0.056458 0.183443 -0.674299 0.189662 0.256641 0.125212 0.022781 -0.191372 -0.475388 -0.086129 0.277777 0.529802 0.228699 -0.310145 0.094685 0.157263 -0.014768 -0.194610 -0.071772 -0.154801 0.119589 0.168117 -0.194167 -0.035626 0.906326 -0.354825 -0.060968 -0.334684 -0.296273 0.116267 0.202866 0.058358 0.512457 0.252032 -0.814063 -0.768045 0.061265 -0.184627 0.551221 0.008065 -0.141982 0.196783 -0.064600 -0.181988 -0.081726 -0.128555 0.638792 0.335247 -0.497502 0.078408 0.128317 -0.174067 -0.503671 -0.088835 0.286793 -0.353635 0.432613 0.268791 -0.144912 0.030440 0.049238
me 0.300090 -0.543574 -0.287698 0.286973 0.013490 0.157234 -0.187189 0.700747 0.340503 0.541843 -0.332892 -0.016054 -0.269544 -0.462276 0.252990 -0.088236 0.160290 -0.106978 -0.359930 -0.409810 -0.930903 -0.259788 0.523732 -0.116636 -0.237119 -0.383511 0.093906 0.110128 0.811136 -0.336311 -0.368350 -0.327885 -0.186418 0.910655 -0.458031 0.038063 0.374858 0.485675 1.078285 0.864498 0.607196 -0.181701 0.389011 -0.441221 -0.567696 -0.085180 0.377709 0.151616 0.353484 -0.475189 0.470440 -0.464795 -0.282236 0.424029 0.050939 -0.255628 0.154334 -0.059971 0.221221 -0.244287 -0.558783 0.144018 -0.510408 0.074066 -0.877907 0.842504 -0.136544 -0.312668 0.114783 -0.005351 -0.720252 0.229080 0.765033 -0.597959 -0.326742 0.471441 -0.291373 0.610498 -0.052618 -0.193567 -0.370606 -0.375364 0.567984 0.249772 -0.063635 -0.288595 -0.752640 0.485082 0.201069 0.392024 -0.038742 0.501838 -0.369604 0.335686 0.425201 0.113120 0.275907 0.753762 -0.852683 -0.694350
him 0.381463 -0.575669 -0.067234 -0.124613 -0.259769 0.157450 -0.612117 0.809381 0.302834 0.757615 -0.373175 0.461982 0.105104 -0.568302 0.671679 -0.407506 -0.089709 0.205551 -0.820623 -0.299057 -0.635205 0.112072 0.735052 -0.138553 -0.589574 -0.304728 -0.288575 0.539656 0.480830 -0.284238 -0.553911 -0.254286 -0.694532 0.847959 -0.566231 0.392461 0.929228 0.182613 1.443487 0.473422 0.055401 -0.428780 0.122997 -0.242767 -0.108820 0.228891 0.673732 -0.289488 0.335824 -0.318111 0.327457 -0.223394 -0.266533 0.091837 -0.284759 -0.149249 -0.020374 -0.230919 -0.394776 -0.359592 -0.346188 -0.038095 -0.322232 0.878803 -0.845841 0.331595 -0.477690 -0.439100 0.377380 -0.067737 -0.520292 0.265589 -0.208072 -0.898320 -0.193149 0.577911 -0.489177 0.492345 -0.331409 0.004767 -0.220494 -0.651244 0.007891 0.295712 -0.242288 0.278365 -0.326371 0.171574 0.018410 0.451040 0.152110 0.371782 -0.429465 0.376360 0.459761 0.245336 0.241711 0.899420 -0.679871 -0.451693
there -0.086913 0.988417 0.547672 0.599302 0.660194 -0.779962 -0.134158 0.180146 0.480766 0.789299 0.406418 0.319832 0.379643 -0.085949 -0.063145 -0.458216 -0.610186 -0.058435 -0.019994 0.570428 -0.589529 0.229562 -0.282558 0.247003 0.173073 0.639297 -0.351498 0.485030 -0.167019 0.264529 -0.212525 -0.721996 -0.560030 0.692174 -0.203933 0.390728 -0.733790 -0.532953 0.604572 -0.170104 -0.066482 0.072224 -0.130403 0.402054 0.319279 0.413433 0.430332 0.158256 -0.130286 -0.236752 0.373437 0.404495 -0.707072 -0.260720 -0.221061 -0.048358 0.207120 -0.219643 0.362208 0.004840 -0.496715 0.743671 0.067209 0.021134 0.501808 -0.351984 -0.062198 0.103587 0.072492 -0.288718 -0.209852 0.159802 0.042536 -0.494042 -0.564047 -0.079137 0.106038 -0.069361 -0.043387 -0.972864 0.068136 -0.063870 -0.356565 0.220214 -0.713863 0.132988 0.230559 0.394365 0.529893 0.785009 0.841019 0.242455 -0.875192 -0.167346 -0.009243 -0.193785 -0.154493 0.098135 -0.561802 -0.667266
says 0.215000 -0.405077 -0.254845 0.566277 0.311445 -0.480878 0.279304 0.814497 0.378211 0.212563 0.013720 -0.373028 0.634416 -0.648840 0.105782 -0.183431 0.678028 -0.465462 -0.414654 -0.474758 -0.532312 -0.525807 -0.075602 0.176269 0.029159 -0.435748 -0.293935 0.435563 0.555047 -0.303904 0.358763 0.486031 -0.006738 0.538856 -0.132593 -1.011308 -0.238715 -0.012601 -0.156532 0.088076 0.970724 0.177883 -0.438328 0.067559 -0.754907 -0.319215 0.754918 -0.420002 0.040191 -0.215520 0.044650 -0.050987 -0.322304 -0.332660 -0.080065 -0.969812 0.176850 -0.346668 -0.564529 -0.360906 -0.788664 0.514571 -0.418538 0.229180 -0.008420 1.163573 -0.296543 0.290666 -0.318404 0.054905 -0.374065 0.715539 0.204177 -0.241701 -0.298491 -0.161666 0.138442 0.328621 0.029719 -0.002610 -0.345977 0.334271 0.344870 -0.083744 0.209978 -0.413382 0.462692 -0.078090 -0.337926 -0.025258 -0.130716 1.097003 -0.703734 -0.151640 -0.410158 -0.230595 0.121270 -0.282251 -0.743228 -0.355221
got 0.009436 -0.121469 -0.363130 -0.011194 0.248893 -0.094537 -0.056509 0.206851 0.818494 0.713085 -0.019152 -0.132318 0.061007 -0.344236 -0.138445 -0.232399 -0.146954 0.247601 -1.092973 -0.086914 -0.742434 -0.477146 -0.221744 0.043632 0.046964 -0.346081 -0.528301 1.118640 0.092207 0.157275 0.726797 -0.346468 -0.765598 0.402255 0.277759 -0.818277 0.285432 -0.368715 -0.244366 -0.113009 1.018074 -0.173104 -0.186829 -0.186388 -0.270240 0.582331 0.858420 -0.517732 -0.131259 0.099400 0.630228 0.156263 -0.156908 -0.257623 -0.525321 -0.431992 0.732057 0.201350 -0.187384 -0.274609 -0.565769 0.717703 0.106495 0.807273 0.439895 0.172783 0.217377 0.159864 0.722134 0.066638 -0.404572 0.225728 -0.408406 -0.464916 -0.258978 0.203966 0.155633 0.627428 -0.431098 -0.394643 0.740575 0.229373 -0.096529 0.622034 0.012304 0.183130 0.094784 -0.905655 0.411833 0.337820 0.108922 0.859398 -0.834114 -0.446445 0.296868 -0.183056 -0.155376 0.105978 -0.176347 -0.469049
no -0.251842 1.078144 1.803337 1.688360 -0.241361 -0.921844 0.809021 1.660336 1.632621 -0.021922 -0.065132 1.536700 0.457761 0.455827 -0.066805 -0.581655 -0.842398 -0.542105 0.728419 0.802459 -1.393580 0.279617 0.271684 -0.698098 0.323598 0.394858 -0.463108 0.635673 0.543706 0.596880 -0.734469 0.189202 -0.735749 1.969428 -0.333492 0.900750 -0.929415 -0.467169 1.288342 -0.352768 -0.420990 0.879640 -0.108136 -0.662240 -0.590616 -0.786379 0.959003 0.701066 0.307772 -2.020528 1.160207 -0.044163 -0.240745 0.028056 -0.845783 0.508828 0.471757 -1.051426 0.799788 0.328935 -1.316304 1.293674 0.529411 -0.608746 1.070754 -0.881298 -0.658798 0.010747 0.327992 -0.167347 -0.488810 0.083092 -0.668989 -0.063280 -0.476160 0.479669 0.768144 -0.557499 0.002921 -1.772193 -0.437808 0.054960 -0.745473 -0.471423 0.784094 -0.598026 -0.324966 0.693412 -0.305579 1.109919 1.250351 0.100794 -1.087906 0.311490 0.795388 -0.648510 0.615213 0.722668 -0.519451 -0.818771
then 0.431975 -0.165108 -0.321438 -0.013889 0.421448 -0.233461 -0.862706 0.219802 0.273779 0.463740 -0.128039 -0.381921 0.503836 -0.864584 0.508928 -0.641686 0.203972 0.134866 -0.962138 -0.634013 -0.302021 -0.089417 0.293929 0.458494 -0.024566 -0.172404 -0.506609 0.745791 0.602866 -0.336476 0.026165 -0.282836 -0.627045 0.091000 -0.239200 -0.577510 0.774965 -0.307434 0.394747 -0.218684 0.575525 -0.583362 -0.133670 0.242814 -0.126377 0.357676 0.611765 -0.446778 0.089074 0.802769 0.087335 -0.187659 -0.333361 -0.501691 -0.095628 -0.351764 0.082919 0.089854 -0.486403 -0.330381 -0.305647 -0.205310 -0.519131 1.187701 -0.483002 0.628503 -0.293610 0.189131 -0.099209 0.145678 -0.379408 0.584334 0.137958 -1.087493 -0.974264 -0.006216 -0.472822 0.741127 -0.184457 0.125261 0.217361 -0.385522 -0.263864 0.160708 -0.548868 0.506114 0.629805 -0.050711 0.124433 0.052038 0.106255 0.506693 -0.094327 -0.099830 -0.201172 0.286382 -0.087231 0.231918 -0.264449 -0.093625
with -0.004960 0.364815 0.170912 -0.632522 0.490370 -0.151530 -0.680861 0.343095 -0.374766 -0.001087 -0.197369 0.086659 0.676606 -0.322901 0.345562 -0.317040 0.520110 -0.323523 -0.529824 0.687294 -0.159880 0.197822 0.368757 0.296741 -0.221715 -0.538550 0.287677 0.478973 0.009490 0.012758 0.718870 -0.571197 0.100468 -0.355745 -0.257088 -0.181724 0.162224 0.009123 -0.039557 0.026560 0.489977 0.076616 -0.789992 0.606992 0.255041 0.245716 -0.100535 -0.475374 0.138142 -0.292644 -0.273565 0.334794 -0.050207 0.194166 -0.008182 0.019636 -0.032830 0.358748 -0.295092 0.504530 0.407818 -0.735744 -0.292614 0.589132 0.392014 -0.544111 -0.346773 -0.606244 0.071734 -0.059749 -0.211895 0.716490 -0.147399 -0.109214 -0.372693 -0.807633 -0.746023 -0.391931 -0.279026 0.220112 0.099525 0.040118 -0.050194 -0.220348 -0.204853 0.463073 0.341122 -0.699406 -0.442842 0.278127 -0.219660 -0.495948 0.370571 0.491292 -0.479797 -0.038562 -0.525335 -0.302054 0.405835 0.114787
his 0.398315 -0.394693 -0.254222 -0.640076 0.133240 -0.363366 -1.012449 0.197923 -0.769934 0.410607 -0.413609 0.201506 0.457765 -0.520361 0.890978 -0.569056 0.321460 0.470747 -0.542255 0.239772 -0.319190 0.582451 0.404100 -0.231213 -0.146664 -0.137158 0.345666 0.054558 0.013120 -1.351698 -0.290094 -0.916857 0.432350 0.203924 -0.853544 0.424548 0.914829 0.082197 0.920832 0.200544 0.803954 -0.210687 -0.423575 0.845889 -0.524541 0.215909 -0.446209 -0.028618 0.076430 -0.011919 0.235605 0.344616 -1.093189 -0.248200 0.465486 -1.189252 -0.593537 0.097240 -0.052126 0.256681 -0.035314 -0.928564 -1.434922 0.676024 -0.700623 0.556251 -0.595176 -0.998378 0.003862 -0.245113 0.351576 1.076821 0.168108 -0.857065 -0.566679 0.005289 -1.852319 0.041707 -0.376767 0.458614 -0.789498 -0.019500 0.460027 0.745602 -0.893321 0.914986 -0.123550 0.377291 -0.575646 0.636232 -0.039805 0.143690 -0.485597 0.855468 -0.293729 0.594882 -0.354143 0.136164 -0.200838 -0.113438
as 0.542615 0.036396 -0.156801 -0.901664 -0.261592 -0.110743 -0.091612 0.357740 -0.405975 -0.354170 0.850057 -0.938347 -0.823742 -0.399961 -1.062091 0.264496 -1.443189 0.446926 -0.692429 -0.590880 -0.376949 -0.214932 -1.151784 -0.479053 -0.714689 0.488210 0.024818 0.433307 1.453115 0.742247 1.242878 0.066088 -1.369460 -0.672380 1.097768 -0.907540 -0.416660 0.219223 0.419854 -0.454854 0.333541 -0.692161 -1.515273 -0.393588 0.892424 1.316434 -0.469572 -0.289052 -0.213472 1.322710 0.765821 0.608891 0.037172 0.486148 -0.262541 -0.010918 1.070366 0.938652 1.114219 -1.511120 0.383910 -0.679152 0.141190 -0.319723 0.409018 0.295413 -0.152633 1.405697 0.031744 1.225094 -0.024486 0.543759 -0.079297 0.876306 -0.870814 -0.408516 0.931066 0.922390 1.302876 -0.224843 -0.519598 1.119251 0.559223 -0.893510 1.539009 -0.030481 -0.097772 0.133296 0.984673 0.792249 -0.954961 -1.777414 0.962338 -1.147911 0.094594 -0.831656 -0.989660 -0.030610 -0.741391 0.692168
she 0.498221 -0.485928 -0.205087 0.571576 0.689281 -0.105902 -0.808959 0.361179 0.965001 1.010216 0.281405 -0.333746 -0.404843 -0.183472 0.332459 -1.159396 0.115496 1.000031 0.163395 0.217951 -1.182085 -0.452960 0.162538 0.076052 -0.048867 0.570608 0.037362 0.436049 0.546865 -0.400816 -0.713843 -1.024074 -0.364584 0.180078 -0.702607 -0.011235 0.055768 0.124109 0.772212 0.566029 0.351061 0.727125 1.173097 -0.151365 -0.566707 0.282020 0.289563 0.727105 0.424841 0.529219 0.711810 -1.167416 -0.474658 0.469813 0.253572 0.098965 0.405528 1.056522 0.724200 -0.996713 -0.648610 -0.171844 -1.163622 -0.313333 -1.623414 0.511324 -0.237971 0.477097 -0.022854 -0.046083 -1.172072 0.029241 0.536976 -0.563460 -0.686641 -0.604472 -0.135059 1.536824 -0.093365 -0.223004 0.181028 -0.585117 -0.153520 0.377096 -0.512453 -0.467003 -1.384986 1.219086 1.079751 0.787184 0.196888 0.101968 0.161855 0.510602 0.653767 -0.010619 0.003309 0.870812 -0.409010 -0.450759
them 0.371590 0.479943 0.029494 -0.055185 -0.015155 -0.059028 -0.379575 0.268985 -0.061479 0.434672 -0.332223 1.054176 0.020768 -0.542425 0.338380 0.226279 -0.839563 -0.054390 -0.934079 -0.137765 -0.264780 0.213218 0.591953 0.117033 0.078543 -0.681629 -0.399987 0.072358 0.074173 0.261241 0.194972 -0.469004 -0.734149 0.482585 -0.286183 0.006826 1.048850 -0.258472 1.381377 0.307788 -0.176359 -0.677923 -0.147874 -0.270030 0.027619 0.230185 0.523264 -0.493023 0.201083 -0.870588 0.539242 0.477907 -0.359719 -0.586751 -0.157784 -0.553040 -0.101447 -0.115393 -0.312606 0.339244 -0.403562 -0.193334 0.265530 0.772866 -0.078879 -0.544729 -0.213999 -0.625498 0.334081 -0.114280 -0.414116 0.861811 0.562235 -0.839123 -0.586727 0.353249 -0.627961 -0.140529 0.067194 -0.758058 0.311589 -0.495606 -0.026760 0.262854 0.017552 0.781481 -0.040191 -0.422981 0.482573 0.554052 -0.154713 -0.071128 -0.203059 -0.212308 0.302803 0.471269 0.494732 0.371998 -0.263046 -0.511351
said 0.061770 -1.075471 0.319394 0.878125 0.638916 -0.396856 -0.219690 0.879143 0.960078 0.642307 0.383470 0.104359 -0.124668 -1.092624 0.441250 -0.670127 -0.061604 -0.019966 -1.559329 -0.124421 -0.940981 -0.770520 0.067750 0.136560 -0.571429 0.599589 -1.099695 1.080162 0.647771 0.459714 -0.340939 0.344420 -0.270846 -0.216549 -0.005158 -0.772245 -0.078986 -0.256114 1.150392 -0.248515 0.592567 0.680344 -0.744794 -0.269638 -0.764920 0.787758 1.051324 -0.692099 0.532329 -0.628168 0.210521 -0.293116 -0.577932 0.133718 -0.581918 -0.995766 0.944192 -0.437155 -0.387485 -0.615727 -0.959040 1.270677 -0.596317 0.828123 -0.204870 0.505599 -0.734604 0.247699 -0.288439 -0.766232 -0.847180 1.498762 -0.501244 -1.089264 0.006591 -0.768397 -0.517527 0.934502 -0.041118 0.034431 0.221165 -0.245343 -0.640825 0.033100 0.415226 0.006470 0.070973 0.616495 0.250675 0.149348 0.793357 0.429427 -0.900549 -0.014722 0.177439 -0.617962 0.612475 0.113958 -0.356968 -0.850400
down 0.296910 0.516003 -0.608604 -0.147989 0.847083 -0.144342 -1.355958 -0.284667 -0.238717 0.056536 -0.369780 -1.051893 0.581657 -0.667173 -0.080883 -0.733282 0.414855 -0.323938 -0.593217 -0.292907 -0.191344 0.159192 0.449258 0.854650 0.294712 -0.159790 -0.012313 0.434386 0.435047 -0.689399 0.550312 -1.142801 -0.384789 0.218365 -0.120966 -0.358230 0.560540 -0.278315 -0.073518 -0.357495 1.137288 -0.759191 0.128378 0.825175 0.173898 0.426537 -0.257451 -0.299673 -0.176235 1.416576 0.437827 -0.017109 -0.282624 -0.129753 -0.068716 0.763778 -0.157103 0.329865 0.028861 0.258612 -0.098362 -0.611692 -0.671351 1.155459 -0.336735 0.477487 0.131112 0.050067 0.384843 0.588135 -0.085530 0.013063 0.091535 -0.803358 -1.240739 0.119267 -0.145187 1.028634 -0.373415 0.255982 -0.054097 0.030181 0.180879 0.221080 -0.922570 0.261975 0.886983 -0.782015 0.015050 0.419936 -0.007360 0.086724 0.134972 0.186079 -0.428770 0.788235 -0.567551 -0.138644 0.271894 0.341197
see 0.076142 0.322440 0.018562 1.134163 0.729925 0.194597 0.474307 0.571254 1.034473 0.308351 -0.034988 0.395491 -0.224810 -0.466540 -0.495409 -0.431019 -0.333821 -0.081874 -1.063488 -0.179647 -0.770919 -0.178072 0.142896 0.086005 0.159283 -0.451429 -0.806636 0.724346 0.489566 0.478108 0.490023 0.014210 -1.627236 0.005801 0.067239 -1.187417 0.133058 -0.677401 -0.403374 -0.720374 0.797510 0.350870 -1.067778 -0.322887 -0.621180 0.391543 0.711963 -0.713031 0.585979 -0.407427 0.565694 -0.548131 0.162567 0.205312 -0.618822 -0.229954 0.453020 0.843053 0.076392 -0.601804 -0.662570 0.819975 -0.619848 0.469735 0.501998 -0.027112 -0.412156 0.851387 0.026983 -0.128490 -0.838427 0.303587 -0.295056 0.266632 -0.384962 -0.277837 0.519933 0.837136 -0.145185 -0.550347 0.692199 -0.179400 -0.068606 0.435018 0.382825 0.148788 0.137094 0.024118 0.127646 0.532789 -0.128932 -0.210638 -0.495726 -0.521677 0.367465 -0.178946 0.545795 0.503588 0.056942 -0.210369
what 0.798235 -0.334158 -0.582247 -0.174892 -0.448803 -0.541594 0.348303 2.020166 0.649410 0.842510 -0.049355 0.749792 -0.091584 -0.497664 0.316449 0.695527 0.104631 0.169900 0.595864 -0.277220 -0.933138 -0.345549 0.114758 0.552889 -0.579439 -0.311564 0.419596 -0.113012 0.313739 0.175710 -0.294273 0.260067 0.076392 1.196974 -0.129923 -0.125060 -1.009854 0.646632 1.016117 0.838689 -0.410772 0.016964 0.494412 -0.874993 -0.459048 -0.536827 0.762159 0.178232 0.175673 -1.217759 -0.012479 0.256823 -0.203078 0.051137 -0.250059 -0.002719 0.537221 -0.359023 -0.079035 -0.570705 -0.820042 0.355760 0.722156 -0.802621 -0.428409 0.694817 -0.591680 0.361614 -0.114545 0.442647 -1.178228 0.105299 0.702619 -0.317802 0.250514 -0.182091 1.381714 0.068555 0.705116 -0.137622 -0.012179 0.164835 0.389593 -0.846489 0.873673 -0.546523 -0.430810 0.257082 0.684451 0.362123 -0.508343 0.398841 0.204533 -0.043134 -0.216214 -0.335227 0.262186 0.456226 -1.265558 -1.078826
had 0.005757 -0.400692 0.117724 0.096889 0.595430 -0.346465 -0.114014 0.179278 0.315551 0.440174 0.334151 -0.300888 0.255944 -0.676197 -0.376476 -0.452924 -0.151546 0.251799 -0.846200 0.077687 -0.215041 -0.746528 -0.419610 -0.086390 0.020575 0.561934 -0.231617 1.081032 0.461032 0.219005 0.904185 0.123848 0.150316 -0.153931 0.804049 -0.722955 0.229352 -0.571135 -0.498926 -0.287396 0.962014 0.182701 -0.593184 0.167234 -0.184868 0.772899 0.755436 -0.499351 -0.483183 0.263850 0.685578 -0.010742 -0.448161 -0.025997 -0.226399 -1.048100 0.729207 -0.127387 -0.162842 -0.292663 -0.230567 0.516436 -0.113729 0.472903 0.660684 -0.242819 0.301350 0.199692 0.389671 -0.362029 -0.059390 0.725349 -0.607794 -0.514342 -0.427843 -0.248739 -0.393306 0.590841 0.010796 -0.216162 0.031329 0.449215 -0.701576 0.062176 0.223151 -0.156881 0.084495 -0.401966 0.191375 0.148511 0.409150 0.167446 -0.628754 -0.105127 -0.192557 -0.561591 -0.061037 -0.368681 0.180863 -0.106248
when 0.187246 0.019512 -0.103221 0.034876 0.414793 -0.413364 -0.675632 0.340366 0.696850 0.470308 -0.153800 -0.113542 0.663793 -0.556863 0.208093 -0.536286 0.180749 -0.000558 -0.433900 -0.392496 -0.508615 -0.291973 0.118970 0.727076 0.125016 0.311650 -0.525378 0.771500 0.390833 -0.365394 0.201713 -0.108830 -0.121321 0.620005 0.310168 -0.299792 -0.016186 -0.350107 0.488477 -0.189994 0.498660 -0.623468 0.435383 0.242405 0.046162 0.099459 0.515125 0.126322 0.046670 0.631101 0.310150 -0.020602 -0.247049 -0.318932 -0.711474 0.229306 0.518328 -0.511506 0.123877 -0.282876 -0.510915 0.366967 0.467289 0.537054 -0.077280 0.104048 -0.077043 0.349170 0.455432 0.410285 -0.541528 -0.001495 -0.100367 -1.017372 -0.580560 0.043505 0.378977 0.934374 0.110089 0.069908 0.084920 0.238151 -0.295532 -0.050572 -0.000064 0.167791 0.291897 0.059673 0.168727 0.021956 0.397836 0.030739 -0.130935 -0.347271 -0.289608 0.113673 0.242824 -0.085357 -0.229237 -0.233438
about 0.274448 -0.217412 0.153632 -0.010567 0.418381 -0.210332 -0.144600 0.333973 -0.036238 0.376313 0.351416 -0.370955 0.285769 -0.406668 -0.011417 -0.382860 0.242614 -0.030723 -0.555260 0.252726 -0.306439 -0.114638 0.206685 0.006455 -0.186349 0.420448 0.261905 0.524839 0.333480 0.595594 0.264908 0.042832 -0.008283 -0.597126 0.009361 -0.042945 0.138750 -0.342914 -0.680362 -0.470652 0.499781 0.270260 -0.214730 0.002990 -0.107657 0.511400 0.500547 -0.081174 -0.041599 0.257595 0.164025 -0.507650 0.213974 0.225458 0.219235 -0.488677 0.435935 0.215144 0.104651 0.017948 0.027938 -0.693500 -0.282896 0.282946 -0.122332 0.221240 0.134674 0.339904 -0.292531 0.138544 -0.699890 0.448308 0.147865 0.292980 -0.460534 -0.819816 -0.283368 0.316221 0.256511 -0.161170 -0.142539 -0.011523 -0.476344 -0.559966 -0.320265 0.057203 0.153962 -0.284516 0.392091 0.183307 -0.216753 0.078979 0.264595 -0.184354 -0.495916 -0.677386 -0.586537 -0.327602 0.106887 0.392718
at 0.069534 0.185048 0.259901 0.008994 0.490773 0.136320 -0.212271 -0.071589 0.076477 0.220787 0.069778 0.026250 0.912359 -0.101006 -0.127539 -0.388923 0.627292 -1.225090 -0.648833 0.507561 -0.371251 -0.263807 0.042329 0.384577 0.398620 -0.259147 -0.150347 0.492403 0.706439 -0.124338 0.775022 0.185630 0.541453 0.327539 0.427036 -0.259756 -0.394040 -0.284867 0.092066 -0.118628 0.745555 -0.061015 -0.100442 0.549031 0.094499 -0.072139 0.483194 -0.080597 0.213129 -0.345485 -0.154939 0.637540 -0.067099 0.060958 -0.177249 -0.586814 0.257500 -0.453714 -0.009543 0.631141 0.108368 -0.155585 0.049647 -0.038736 0.460957 -0.188459 0.549028 -0.405075 -0.149217 -0.264441 0.094170 0.767496 0.825141 -0.587753 -0.425686 -0.736442 -0.265744 -0.424668 -0.187548 -0.210857 -0.515446 -0.133181 -0.096696 -0.344434 -0.275959 0.257948 0.180400 -0.494929 -0.572767 0.443014 0.207737 0.407163 0.041314 0.067623 -0.610510 -0.114069 -0.327471 -0.424338 -0.152742 -0.008202
if 0.381324 -0.034283 0.229845 0.296933 0.015699 -0.283054 0.030287 1.356059 1.040903 0.260864 -0.048277 0.727958 0.112857 -0.620286 0.200483 -0.136236 -0.138933 0.221318 -0.289609 -0.286973 -0.813143 -0.156675 0.337098 0.247824 -0.442972 -0.205767 -0.488462 0.507267 0.480435 0.550588 -0.071774 0.334717 -1.037811 0.585375 -0.137311 -0.466013 0.047356 0.080151 0.715094 -0.210718 -0.460358 0.113971 -0.045612 -0.610540 -0.151864 0.006275 0.988625 -0.325938 0.448189 -0.636892 0.459437 -0.491108 0.208260 0.128684 -0.829177 0.454740 0.410215 0.105151 -0.128246 -0.673900 -0.802116 0.470213 0.437723 0.184434 -0.155235 -0.158487 -0.759995 0.497154 0.134649 0.119050 -1.197407 -0.002582 -0.594384 0.099985 0.015965 -0.287242 0.736042 0.602104 0.352727 -0.204300 0.387401 -0.241644 -0.341917 -0.259556 0.946422 -0.069399 -0.122185 0.148545 0.440096 0.402377 0.001110 -0.240787 0.287520 -0.215585 0.286888 -0.418466 0.567035 0.602811 -0.248453 -0.234943
by 0.116037 -0.353349 0.045537 0.257736 -0.282338 0.307643 -0.431597 1.046836 0.212845 0.921481 -0.211969 -0.486871 -0.672674 -0.234067 0.216247 -0.133353 0.258161 0.489016 -0.574198 -0.043302 0.205170 -0.435285 0.642936 0.999765 -0.550483 -0.588950 0.324327 0.749173 0.901111 -0.044024 0.115388 -0.081885 -1.310545 1.025715 0.105306 -0.180780 0.672533 -0.925992 -0.723145 -0.017449 1.428236 -0.492286 -1.231923 0.775823 0.595520 0.521675 -0.156109 -0.995502 -0.580975 1.424289 0.002651 -0.728613 -0.329881 -1.327079 0.169013 0.360331 -0.722810 0.106729 0.115267 -0.124571 -0.514143 -0.532959 0.183792 1.047149 0.292177 0.224738 0.757921 0.988319 0.255178 -0.342896 -0.484568 0.045094 0.128816 -1.250259 -0.814669 -0.103172 -0.128386 0.745797 0.000566 0.630865 -0.646843 0.910200 -0.300084 -0.244837 -0.597303 0.451920 -0.534552 -0.389163 -0.290871 0.165462 0.248417 0.736805 -0.075353 -0.646554 -0.090860 0.589676 0.741422 0.835354 -0.268511 0.934049
my 0.358907 0.089147 -0.353403 0.072903 0.280048 -0.410078 -0.476017 0.251330 -0.294463 0.309671 -0.552253 0.221622 0.578962 -0.281607 0.325299 -0.428453 0.313334 0.396508 0.218832 -0.070204 -0.461852 0.415340 0.369427 -0.110067 0.347238 -0.254964 0.482742 -0.169868 0.178019 -1.212609 -0.275298 -0.760562 0.148143 1.036072 -0.835024 0.430142 0.529277 0.107694 0.424103 0.272719 0.662273 -0.374434 0.472142 0.348338 -0.623785 -0.506103 -0.329858 0.486844 0.139533 0.085490 0.568736 -0.021552 -0.611947 -0.108276 0.183234 -0.564168 -0.596704 0.143009 0.563969 0.023415 -0.372587 -0.636887 -0.851912 0.029869 -0.804502 0.603306 -0.230715 -0.414022 0.020322 0.389003 -0.247525 -0.054868 0.670550 -0.192297 -0.611234 0.579876 -0.889585 0.400228 0.033371 -0.129032 -0.810253 0.054691 0.801862 0.841421 -0.705655 0.197363 -0.382154 0.628864 -0.222965 0.652560 -0.300389 0.212306 -0.407306 0.230328 -0.190226 0.655234 -0.339647 0.204460 -0.688031 -0.088192
well 0.618220 -0.236089 -0.134239 0.198757 0.112392 -0.219753 0.215630 1.167810 1.023603 0.588507 0.345675 -0.122211 0.071484 -0.392173 -0.112522 0.133460 -0.142991 -0.133263 -0.065868 -0.344911 -0.878095 -0.645082 -0.382201 0.302847 -0.092660 -0.270213 -0.294860 0.385143 0.419188 0.096905 -0.013438 0.139333 -0.578174 0.742067 0.193961 -0.803653 -0.890725 0.440005 0.178906 0.436037 0.089598 0.039485 0.217999 -0.624118 -0.511806 -0.310238 0.625372 0.207091 0.158717 -0.287600 0.082639 -0.104982 -0.156320 0.171274 -0.475651 -0.154437 0.611172 0.199270 0.139106 -0.773589 -0.718381 0.435819 0.416576 -0.256303 -0.400550 0.825909 -0.242486 0.924385 0.147989 0.453427 -0.562946 0.088733 0.111493 0.170041 -0.072309 -0.291484 1.550994 0.712939 0.359300 -0.423344 0.332390 0.428122 0.150545 -0.640048 0.692885 -0.799694 -0.321270 0.027739 0.387744 0.113234 -0.336442 0.581651 -0.074853 -0.372016 -0.153518 -0.364522 0.223119 0.110762 -0.886893 -0.572797
do 0.417546 -0.330765 -0.056019 0.342660 -0.445193 0.402033 0.671708 1.909493 0.674747 0.351396 -0.349935 0.241891 -0.670135 -0.384027 -0.157739 0.650240 -0.243172 -0.292413 -1.134236 -0.376795 -0.909407 -0.234946 0.468016 0.056147 -0.878846 -0.622606 0.106966 0.050416 0.396393 1.050862 0.126676 0.145703 -1.024561 0.527554 -0.197951 -0.415541 -0.405746 0.501692 0.805899 0.329932 0.592427 0.295206 -0.807423 -1.388026 -0.702946 0.243994 0.861791 -0.664667 0.360463 -1.761204 0.774693 -0.299905 0.652397 0.537217 -0.647629 0.207038 0.959688 0.352634 -0.430233 -0.191469 -0.724489 0.657836 0.503094 -0.014631 0.167996 0.320684 -0.759208 0.489964 0.351342 0.163701 -1.036647 0.483829 -0.031961 0.714279 0.460335 -0.303456 1.637090 0.446504 0.230299 -0.481764 0.271537 -0.091840 0.524162 -0.910341 1.633995 -0.409211 0.001795 -0.681230 0.474164 0.418037 -0.669698 0.153384 -0.190868 -0.232936 0.250536 -0.424243 0.871198 0.444910 -0.592553 -0.670904
would 0.817794 -1.158052 0.494900 -0.233521 -0.204213 -0.196087 -0.820454 1.050291 0.245137 0.117404 0.388445 0.124401 0.380013 -1.098620 0.174375 -0.589828 0.461957 -0.371583 -0.633091 -0.072839 -0.305550 -0.963318 0.076115 0.344741 -0.663386 0.718453 -0.631526 0.827130 1.352591 0.444297 0.687144 0.665288 0.672319 0.446082 0.571021 -0.260605 0.274409 0.344942 1.493740 0.801010 -0.382294 0.198226 0.926011 0.105205 0.029985 -0.137836 1.135808 0.093168 -0.108149 -0.337118 0.443457 -0.010655 -0.190426 -0.049307 -0.619605 -0.633998 1.033781 -1.032188 -0.959770 -0.356012 -0.696662 -0.012984 0.093018 0.786187 -0.797270 0.035376 0.140090 -0.267420 0.129175 -0.257931 -0.901859 1.155046 -0.576943 -1.203385 0.135518 -0.479605 -0.656617 0.582692 0.544343 0.350396 -0.834673 -0.120998 -0.970764 -0.779280 0.829153 -1.114017 -0.363159 -0.351604 0.186030 0.423870 0.288945 0.092286 0.558497 0.448108 0.385077 -0.353917 0.221176 -0.540539 -0.313356 -0.049558
come -0.009314 -0.100304 -0.634624 -0.064332 0.196727 0.105908 -0.282876 0.214551 0.520453 0.191314 -0.327138 -0.457279 -0.193516 -0.302168 0.040434 -0.314905 -0.014362 0.137822 -1.075664 -0.172191 -0.958825 -0.000889 0.185573 0.250093 0.079446 -0.551350 -0.409923 0.711460 -0.031320 -0.094008 0.193632 -0.693200 -0.982527 0.500881 -0.286427 -0.458523 0.415207 0.105020 0.057737 -0.035377 1.189715 -0.332327 -0.053175 -0.189862 -0.485620 0.548793 0.499121 -0.411249 0.114069 -0.006944 0.499089 -0.023063 -0.069641 -0.029481 -0.596377 0.303220 0.324342 0.484850 -0.101467 -0.134067 -0.610755 0.295114 -0.111673 0.578755 0.190337 0.500912 -0.309041 -0.053629 0.675686 0.411949 -0.524408 -0.142901 -0.327189 -0.046230 -0.400589 0.564663 0.147959 0.596693 -0.610366 -0.193839 0.616409 -0.109609 0.322790 0.544097 -0.121498 0.321647 0.260724 -0.923081 0.253961 0.405185 -0.108897 0.600181 -0.443733 -0.094234 0.285691 0.147377 -0.183832 0.238369 0.002476 -0.443976
one 0.091449 0.585948 -0.182899 0.082038 0.290913 -0.590558 -0.020151 0.336350 -0.009537 0.750236 0.098444 0.305788 -0.075630 0.163723 0.318857 0.081367 -0.343804 0.049917 0.306982 0.549168 -0.192994 -0.116471 0.408808 0.168006 0.490065 -0.046439 0.337387 0.006013 -0.504948 -0.101342 -0.021303 -0.360545 0.202806 0.271543 0.346299 -0.018286 -0.011456 -0.799064 -0.206391 -0.104794 0.111383 -0.091549 0.000954 0.251243 0.299384 0.281501 0.142241 -0.384301 -0.488321 -0.346479 0.431156 0.457036 -0.760647 -0.307561 0.560880 -0.350095 0.009122 -0.391514 0.228603 0.444392 -0.020981 -0.051131 0.519564 -0.254374 0.822472 -0.479302 0.237188 -0.179877 0.096834 0.087059 0.262795 0.557514 0.665202 -0.821381 -0.554723 -0.028268 0.437864 -0.396943 -0.116710 -0.716012 0.178886 0.283216 -0.251777 -0.457440 -0.128007 0.428899 -0.018796 -0.846597 0.297170 0.445099 -0.010554 0.248808 -0.396966 0.322548 -0.502927 0.043625 0.236026 0.083311 0.249064 -0.238835
or 0.153061 0.602286 0.150434 -0.818051 -0.081769 -1.050266 0.116818 1.289722 -0.759678 0.037257 0.213187 -0.056857 0.236878 -0.046697 0.510003 0.289546 0.047919 0.417689 0.249635 0.782963 -0.043407 0.654557 0.795601 -0.385079 -0.443461 -0.018786 1.082174 0.191859 -0.390116 1.150890 0.152593 -0.104438 -0.187526 -0.096635 -0.173272 0.523116 0.439422 -0.509877 -1.095227 -0.941571 -0.513116 0.018956 -0.726952 -0.043843 0.587829 0.672950 0.665436 -0.861168 -0.640517 -0.423685 0.718529 0.048320 0.489481 -0.083332 0.486622 0.148102 -0.119883 0.020206 -0.214283 0.518132 0.170434 -1.356715 0.703965 -0.061209 1.287038 -0.753036 -0.577693 0.015494 -0.179011 0.690513 -0.586255 0.246949 -0.694043 1.167337 -0.303806 -0.589421 0.306545 -0.887273 0.308942 -0.590144 -0.409057 0.379895 -0.464231 -1.196292 0.523471 0.697487 0.946378 -1.820467 0.610155 0.619620 -0.673531 -0.095174 0.600748 0.218528 -0.883019 -1.077411 -0.799330 -0.262328 0.656778 1.127836
jim 0.533520 -0.250849 -0.275559 0.129169 -0.025921 0.031913 -0.439896 0.591955 0.216316 1.038892 0.049013 0.521436 -0.131842 -0.236849 0.345672 -0.252885 -0.310777 0.297486 -0.318680 0.099240 -0.574401 -0.175654 -0.070125 0.122894 -0.387987 0.297713 -0.070159 0.231100 0.064954 -0.234592 -0.417690 -0.525831 -0.276732 0.333371 -0.350042 0.264279 -0.138439 0.059499 0.962752 0.349965 0.171786 -0.149642 0.186324 -0.001998 -0.370068 0.278765 0.339171 0.178107 0.096480 -0.269199 0.155090 -0.020407 -0.687387 0.063763 -0.001733 -0.523697 0.312445 0.154600 -0.004870 -0.301559 -0.304572 -0.101714 -0.498462 0.005291 -0.741194 0.341679 -0.259934 -0.030042 0.000344 -0.108018 -0.292388 0.537188 0.509385 -0.778688 -0.188265 -0.072369 -0.036282 0.357633 -0.070967 -0.123797 -0.003119 -0.336182 0.042827 0.097544 -0.337639 0.106303 -0.360407 0.478404 0.337269 0.457000 0.106190 0.224185 -0.432369 0.194148 0.041560 0.222932 -0.076288 0.389490 -0.714411 -0.736605
be 0.100956 0.020830 -0.044647 0.481210 -0.288772 0.527448 0.409924 1.287022 0.730671 0.580968 -0.130680 0.068738 -1.236204 0.129385 -0.090313 0.165541 -0.967306 0.519803 -0.984869 -0.070000 -0.952698 0.215367 0.194423 -0.565166 -0.579371 -0.168060 -0.141118 -0.051736 -0.351815 0.875249 -0.462167 -0.527995 -1.670810 -0.028666 -0.561366 0.107619 0.117109 0.248241 0.332327 -0.223622 0.453377 0.277933 -0.665878 -1.170299 -0.437194 1.033173 0.588924 -0.635037 0.016291 -0.924773 1.229616 -0.777987 0.192212 0.585848 -0.360358 0.565741 0.800327 1.034990 -0.141800 -0.392326 -0.636921 0.386351 -0.218807 -0.075021 0.031163 0.197141 -0.751515 0.664023 0.400712 0.356198 -0.514866 -0.030557 -0.409987 0.923287 0.035386 0.000881 1.507007 0.637338 -0.259017 -0.919323 0.582914 -0.369101 0.480429 -0.377635 0.903950 -0.250032 -0.002066 -0.664456 0.764461 1.089329 -0.521694 0.154179 -0.497802 -0.165279 0.708434 -0.557522 0.335125 0.905744 -0.163971 -0.568616
d 0.635223 -1.196501 0.213967 -0.473652 -0.098681 -0.435879 -0.534072 1.029473 0.716006 0.113337 0.269724 -0.322205 0.374338 -1.030808 0.056370 -0.533275 0.694651 0.239544 -0.361342 -0.223917 -0.485898 -1.086516 -0.026073 0.163128 -0.510697 0.567847 -0.337378 1.055697 1.035052 0.150224 0.887423 0.729874 0.574901 0.565260 0.868622 -0.790218 0.618974 0.302939 0.373160 0.310095 -0.072975 -0.036814 1.078771 -0.108146 -0.202006 -0.050013 1.344144 -0.065695 -0.435175 0.159014 1.002226 -0.521459 -0.081218 0.121522 -0.737333 -0.496838 1.074874 -0.721412 -0.673152 -0.718817 -0.901063 0.106071 0.515465 0.569019 -0.354050 0.085456 0.097734 0.163412 0.723417 0.256720 -0.866487 0.346914 -1.366810 -0.436881 0.253706 -0.175158 0.060386 1.216990 0.389917 0.297593 -0.423833 0.450543 -0.852402 -0.443619 1.338265 -0.918346 -0.440182 -0.926372 0.381417 0.240100 0.131636 0.309731 0.457997 0.232043 0.196239 -0.678706 0.451562 -0.509778 0.083809 0.296627
didn 1.361544 -0.099884 0.420572 1.494821 -0.807654 0.370530 0.013528 1.508446 0.502694 -0.216194 -0.315502 0.248457 -1.097923 -0.648582 -1.113090 -0.163350 0.312808 -0.953345 0.276757 -0.647110 -0.578363 -0.336850 -0.204214 0.577062 0.314400 1.398844 -0.685844 -0.588092 1.607834 0.859576 1.686998 0.548537 0.073677 1.156427 0.880857 -0.330923 0.235868 -0.475481 0.745981 0.188208 0.588921 0.319199 1.933820 0.639801 -1.049444 -0.364617 1.058397 0.582087 -0.785823 -0.871349 2.213492 -0.577597 -0.055534 -0.994281 -0.233329 -0.307110 1.609542 -1.527548 -0.835936 0.760463 -2.148525 0.329070 -1.343632 0.479728 -0.075363 0.694895 1.304156 -0.198418 -0.254720 0.253040 -1.331232 1.010662 0.930161 -1.292070 -0.321569 0.260727 -0.462813 0.459557 0.276188 -0.720156 -1.348751 -0.357550 -0.538034 -0.223912 1.062335 -1.757071 0.158295 -0.975624 0.389220 1.873069 0.380841 0.705528 0.817573 -0.099102 1.247975 0.045779 0.700751 -0.139686 0.137051 -0.071775
her -0.046323 -0.333230 -0.618146 -0.015229 0.741078 -0.867964 -0.938344 -0.059926 -0.059512 0.186299 -0.465781 -0.526528 0.409828 -0.700045 0.447144 -1.062984 0.706322 0.916587 -0.277557 -0.021883 -1.023086 0.090765 0.702967 -0.034226 0.162564 0.070063 0.420837 0.532160 0.458400 -0.843706 -0.103706 -0.950813 0.589379 0.532719 -0.862448 0.037400 1.126680 -0.023412 0.635277 0.358783 1.102484 0.106103 0.796333 0.262402 -0.706076 0.231699 0.316305 0.288015 0.310615 0.402733 1.092010 -0.526968 -0.461676 0.057546 0.048113 -0.498474 -0.261756 0.220539 0.396548 -0.250997 -0.638196 -0.221105 -0.944869 0.370174 -0.830450 0.410220 -0.288804 -0.676007 0.258412 0.007914 -1.140883 0.137080 0.189391 -0.473925 -0.799058 0.329945 -1.803250 1.130110 -0.083418 0.121892 -0.618588 -0.320897 0.307657 1.286713 -0.698186 0.312005 -0.593973 0.626771 0.599018 0.487404 0.170447 0.236132 -0.383791 0.455754 0.262310 0.243274 -0.300739 0.228002 -0.171725 -0.153126
is 0.341555 -0.067125 0.197447 0.046892 0.226627 -0.227243 0.851817 1.671380 -0.004015 -0.014461 0.415044 -0.542551 0.111602 -0.125742 -0.326311 0.736394 0.665300 -0.958720 0.298119 0.446170 -0.413299 -0.868463 -0.166085 -0.222229 -0.199557 -0.376381 0.856247 -0.215832 0.082664 0.708393 0.725869 0.326907 0.873468 0.274893 0.465694 -0.658154 -1.558951 0.665973 -0.952857 0.415140 0.648808 0.801189 -0.579015 -0.388456 -0.502831 -0.354442 0.185733 -0.214489 -0.539420 -1.721015 0.096084 0.263488 0.115588 0.839978 0.431970 -0.310285 0.723534 -0.073125 -0.190123 0.286158 -0.008179 0.185803 0.368875 -1.190197 1.086930 0.320843 -0.232658 0.186863 -0.119502 0.250170 0.078189 0.672281 0.251000 1.261749 0.206249 -0.893215 1.918786 -0.734280 0.348739 -0.562578 -0.326278 0.907672 0.375389 -1.842817 1.471021 -1.254279 0.204502 -1.502291 -0.217284 0.217704 -0.930366 0.297395 0.102043 0.637217 -0.930929 -0.976795 -0.025508 -0.723251 -0.223067 -0.346605
don 1.637032 0.102189 0.146115 1.172599 -1.193211 0.231299 0.415734 2.424743 0.424684 -0.160395 -0.599463 0.725889 -0.944429 -0.492319 -1.013532 0.623004 0.705534 -1.260199 0.475713 -0.440435 -0.737346 -0.180339 0.006087 0.820757 0.059881 0.610496 -0.059366 -1.008683 1.180127 1.193733 1.639041 0.524427 0.345374 1.510228 0.490800 -0.376818 -0.205212 0.174024 0.740147 0.615462 0.496239 0.307956 1.951215 0.167148 -1.550914 -0.983097 1.453534 0.566750 -0.719021 -2.247456 2.042836 -0.384899 0.151941 -0.856911 -0.322441 -0.224261 1.686390 -1.389331 -1.282777 1.375845 -2.398998 0.026684 -0.662751 -0.003136 0.090473 0.806415 0.875474 -0.468962 -0.237022 0.539980 -1.716694 1.034075 1.232731 -0.604985 0.259197 0.043308 0.334542 -0.152378 0.406591 -0.758906 -1.228096 -0.269299 0.066426 -0.837601 1.823533 -1.826589 0.253152 -1.663293 0.338659 1.963543 -0.251520 1.035815 0.917280 -0.008805 0.846832 -0.123423 0.826817 -0.444740 -0.081196 -0.419497
get 0.264820 0.299250 -0.170308 0.077768 -0.211106 1.000035 -0.252248 0.681989 0.443755 0.293061 -0.748871 0.473418 -0.330969 -0.277812 -0.086412 -0.042191 -0.617282 -0.199238 -1.758775 -0.300354 -0.589283 0.491829 0.507784 0.102149 -0.418753 -0.906038 -0.508370 0.527543 0.238567 0.709981 0.522665 -0.748320 -2.141982 0.310800 -0.568249 -0.280338 0.982750 0.083939 0.916960 -0.100892 0.817793 -0.470440 -0.786342 -0.580379 -0.075751 0.633192 0.641691 -0.948403 0.439769 -0.804721 0.812680 -0.146333 0.529243 0.169797 -0.958668 0.603259 0.526638 0.963997 -0.706420 0.157166 -0.388128 0.113655 -0.099259 1.253294 0.107496 -0.283543 -0.528550 -0.114644 0.726802 0.250399 -0.738496 0.202805 -0.301213 0.019894 -0.198223 0.295770 0.337002 0.464307 -0.510735 -0.437326 0.837806 -0.662024 0.454300 0.324671 0.437815 0.309130 0.425226 -1.080468 0.153348 0.884368 -0.442774 -0.210861 -0.159785 -0.240182 0.789195 0.244576 0.230641 0.776017 -0.005339 -0.233869
time -0.550944 0.182098 0.104927 0.116426 0.603989 0.096484 0.404384 0.329562 1.025283 0.936696 0.431289 -0.257828 -0.212883 0.075617 0.095109 0.057642 -0.117070 -0.318313 -1.118043 0.196153 -0.656282 -0.900103 0.176384 0.162888 -0.016947 -0.580154 -0.294708 0.597734 -0.043101 0.419248 0.519382 -0.140340 -0.634538 -0.022854 0.327920 -0.914249 -0.288619 -0.604061 -0.450762 0.140881 0.567871 -0.319371 -0.567284 -0.160722 0.669358 0.763704 0.780725 -0.587526 0.091970 -0.176246 0.189891 -0.344538 -0.028634 0.201750 -0.136423 -0.535543 0.747309 -0.120694 0.038004 -0.169994 0.048817 0.533208 0.725613 0.004265 0.709596 -0.101053 0.546868 0.546797 0.458368 -0.560276 -0.139288 0.655181 0.559174 0.005825 -0.600001 -0.471188 0.934341 0.227563 -0.306738 -1.023904 0.794582 0.047841 -0.316004 -0.747840 -0.256349 0.209008 -0.117967 -0.724490 0.679908 0.181150 0.243140 1.085610 -0.390755 -0.156981 -0.052613 -0.614293 0.505880 0.245485 -0.221279 -0.703624
ain 0.487652 0.828737 0.947009 1.907428 -0.368565 -0.017546 0.860817 1.674993 0.560862 -0.039755 0.150924 -0.239104 -0.917726 0.363330 -1.138788 0.369737 0.237625 -1.521080 0.698239 0.430967 -0.820983 -0.382178 -0.659855 -0.032174 0.333351 1.281470 -0.202045 -0.869877 0.118005 1.151397 1.357038 -0.239188 0.585029 0.600666 0.676057 -0.420622 -1.390785 -0.446933 -0.315684 -0.009232 0.946087 1.033664 0.699439 0.587453 -1.037306 -0.008040 0.705288 0.358878 -1.357893 -2.049847 2.144257 -0.372274 -0.376673 -0.253506 0.291119 -0.003800 1.893963 -1.097703 -1.187065 1.342452 -1.822926 1.301010 -0.932346 -0.561599 1.520363 0.103064 0.794743 -0.216548 -0.108030 -0.229348 -0.132389 1.095887 0.466369 -0.101067 -0.086466 -0.480424 1.495895 -0.585465 -0.263330 -1.544070 -0.895680 0.337621 -0.167179 -1.050905 1.439216 -2.220377 0.927508 -1.685308 0.224503 1.860721 0.647810 1.290646 -0.567416 0.465219 0.692901 -0.749431 0.826573 -0.604365 0.551155 -0.702879
right 0.158394 0.049773 -0.587757 -0.467143 -0.027009 0.191903 -0.558363 0.425706 0.672128 0.559113 0.036714 -0.382128 0.145079 0.134511 0.303380 -0.030553 0.109222 -0.631352 -0.730468 0.274223 -1.261245 -0.082154 -0.124939 0.756232 -0.154516 -0.530686 -0.026804 0.125340 -0.012751 -0.048605 0.028727 -0.924092 -0.130918 0.323610 -0.544235 -0.313892 -0.673360 0.625630 0.731795 0.868292 0.719768 -0.481257 0.413643 -0.289841 -0.194345 0.085493 0.408383 0.315078 0.379672 -0.023899 -0.056172 0.014391 -0.211486 -0.048632 -0.569813 0.146537 0.729580 0.251360 -0.042311 0.305476 -0.466068 -0.130732 0.378670 0.047940 -0.638824 0.823198 0.109756 0.261752 0.365147 0.262039 -0.590886 0.225575 0.877577 -0.121350 -0.192417 -0.456900 0.603713 0.528823 -0.300250 -0.300533 0.718426 -0.133483 0.633970 -0.223265 -0.584106 -0.183155 0.067306 -0.472355 0.580546 0.430598 -0.048470 1.203982 -0.160815 -0.316389 -0.209037 0.073845 -0.322042 -0.214337 -0.786312 -1.025719
this 0.452375 0.209496 -0.370129 -0.300985 -0.666708 -0.374265 0.178719 1.014133 -0.493140 0.848444 0.194243 0.852921 -0.189601 0.717864 0.236008 0.351689 -0.572321 0.649418 0.207668 0.690398 -0.143366 0.168442 0.299752 0.162422 -0.284313 -0.101291 0.737094 -0.148805 -0.496317 0.366169 -0.197565 0.124847 -0.034537 0.867374 -0.094179 0.914193 -0.172746 -0.397544 0.389140 -0.269004 0.276047 -0.403710 -0.121347 -0.336799 0.014713 0.267086 0.546350 -0.193370 -0.526243 -0.749618 0.334946 0.769822 -0.053876 -0.518489 -0.108824 -0.403322 0.096454 -0.245246 0.240233 0.613085 -0.062539 -0.666874 0.976988 -0.900512 0.671356 -0.376975 -0.098013 0.163935 -0.004993 0.334660 -0.074077 0.326269 0.512326 -0.037280 -0.057905 0.209436 0.810843 -0.605302 0.356393 -0.592403 -0.546133 0.425286 0.253370 -0.933557 0.638863 0.721000 0.158458 -0.805574 0.521315 0.530590 -0.429106 0.198876 -0.318260 -0.202671 -0.368589 -0.005231 -0.364242 0.041140 -0.573341 -0.126724
could 1.115471 -0.681581 0.156967 -0.689049 -0.430050 -0.217681 -0.570025 0.819358 0.135563 -0.413287 0.359727 -0.251457 0.098388 -1.218578 -0.449229 -0.202419 0.031990 -0.001348 -0.384591 -0.678149 -0.220678 -0.661644 0.015979 0.212920 -0.525319 0.407358 -0.279255 0.565501 1.839234 0.667231 1.610217 0.800049 -0.144847 0.622931 0.898198 -0.750448 0.851846 0.038530 0.651363 0.301816 -0.176923 -0.271499 0.484957 -0.004999 0.269923 0.076229 0.894629 -0.133546 -0.312000 0.606532 1.144062 -0.319834 0.311995 -0.608397 -0.616746 -0.536451 0.688986 -0.528447 -0.419524 -0.632148 -0.785389 -0.456984 0.281535 0.783529 -0.600073 -0.047538 0.571843 0.309929 0.482244 0.364693 -0.893929 0.555838 -0.565385 -0.505969 -0.356372 0.029646 -0.694365 0.972154 1.089443 0.175799 -0.892285 0.393274 -0.646052 -0.431342 1.234721 -0.842559 -0.357915 -0.473511 0.788471 0.579108 -0.142407 -0.271402 1.203429 -0.376692 0.353961 -0.290386 0.141479 -0.375502 -0.223591 0.632544
warn 0.202913 0.657632 1.061242 2.104091 0.063073 0.006320 0.324559 0.511695 0.326953 -0.357303 0.247638 -0.492345 -1.287868 0.035672 -1.357460 -0.496541 -0.495376 -1.162780 -0.021239 0.274248 -0.796183 -0.196767 -0.788438 -0.249315 0.712708 1.789587 -0.772530 -0.314032 0.788629 1.091575 1.699030 -0.399239 0.296742 0.154416 0.897182 -0.368232 -0.369871 -1.168432 -0.102410 -0.435236 1.451204 1.071263 0.383289 1.093983 -0.832126 0.787034 0.692339 0.142269 -1.315965 -0.896055 2.660996 -0.307662 -0.600680 -0.668402 0.248366 -0.509399 1.702640 -1.222505 -0.781516 1.190597 -1.730983 1.411519 -1.917748 0.195220 1.385987 -0.194228 1.334684 -0.321797 -0.135117 -0.600528 -0.009065 1.403996 0.298607 -0.950211 -0.804183 -0.112569 -0.439950 -0.014339 -0.498424 -1.514181 -1.001319 -0.070474 -0.669520 0.172598 0.490686 -1.713465 0.863501 -1.098779 0.345112 2.092031 1.387088 0.999578 -0.710147 0.280412 1.212224 -0.568083 0.367383 -0.390141 0.963752 -0.476168
ll 0.770225 -0.517390 -0.265026 -0.722282 -0.665410 -0.442270 -0.387557 1.524933 0.165090 -0.511293 -0.233024 -0.377707 0.801170 -0.876351 -0.003202 0.188049 1.170390 -0.737991 -0.295023 -0.574342 -0.342072 -0.557417 0.512997 0.673116 -0.409513 -0.523069 -0.072758 0.538324 1.135285 0.459153 1.065177 0.678725 0.522382 1.369396 0.446286 -0.749238 0.405752 0.716894 0.608158 0.708651 -0.230273 -0.552721 1.244589 -0.294409 0.025011 -0.934512 1.377457 -0.124622 -0.285892 -0.542017 0.632375 0.033420 0.529085 -0.309334 -0.932795 0.330644 0.824188 -1.068917 -1.181047 0.185945 -1.017047 -0.350918 1.222237 0.767320 -0.243916 0.534172 0.084868 -0.141475 0.503594 0.941233 -1.310235 0.131378 -0.574706 -0.008464 0.396966 0.232633 0.564057 0.445721 0.664071 0.292087 -0.809826 0.432886 0.030686 -1.094684 1.562572 -1.154426 0.288693 -1.824444 0.203762 0.293473 -0.607645 0.746955 0.955573 0.084806 -0.083628 -0.288833 0.086781 -0.899005 -0.347008 0.387591
went -0.143844 -0.037794 -0.883675 -0.280507 0.720065 -0.157097 -0.648474 -0.337423 -0.278221 -0.050230 -0.292631 -1.348132 0.218192 -0.890535 -0.241099 -0.701390 -0.215281 -0.014837 -1.659559 -0.678320 -0.749703 0.149755 -0.112977 0.130388 0.299505 -0.676323 -0.324661 1.169189 0.879697 -0.291062 0.972086 -0.689321 -1.029264 0.077247 -0.100148 -0.862219 0.827115 -0.343683 -0.451743 -0.374645 2.297818 -0.786438 -1.256970 0.373655 -0.103642 1.146953 0.355866 -0.936771 -0.125540 1.390343 0.502299 0.356679 -0.168476 -0.272262 -0.325714 -0.412800 -0.060344 0.343296 0.004050 -0.289950 0.037339 0.031198 -0.996802 1.269966 0.415211 0.837282 0.099943 0.116946 0.225630 0.456480 -0.168197 0.317077 -0.033602 -0.512960 -1.399461 0.668703 -1.080290 0.866076 -0.481256 0.122177 0.075515 0.017185 0.621016 1.049855 -0.935567 0.484285 1.007185 -0.633011 0.014273 0.259287 -0.035910 0.613902 -0.702481 -0.506792 -0.098597 0.163058 -1.299126 0.150175 -0.272535 -0.077280
off 0.281917 0.224221 -0.290656 -0.522983 0.642650 -0.263068 -1.228923 -0.090272 -0.430926 -0.074102 -0.324419 -0.802742 0.735414 -0.750130 0.312378 -0.532103 0.514744 -0.258855 -0.559079 -0.302437 -0.044553 0.021382 0.369359 0.441157 0.052143 -0.360417 0.279365 0.413107 0.686166 -0.553285 0.429761 -0.874581 0.279186 0.157373 -0.110566 -0.395196 0.628367 0.077620 0.309164 0.030102 0.743529 -0.675095 -0.073769 0.628970 0.324876 0.063239 -0.294142 -0.219735 -0.024564 0.752735 0.123108 0.254336 -0.206991 0.017991 0.160078 0.222291 -0.289094 0.093941 0.086918 0.223320 0.300902 -0.606056 -0.332533 1.065707 -0.313426 0.216510 -0.148594 -0.260649 0.073552 0.351037 -0.073506 0.427590 0.296750 -0.684489 -0.842720 -0.091182 -0.696996 0.651949 -0.122871 0.323120 -0.164793 0.051248 0.098277 0.080173 -0.607693 0.508398 0.371904 -0.459190 -0.149538 0.054741 -0.019868 -0.281352 0.386139 0.372924 -0.458615 0.389364 -0.518010 -0.160045 -0.026423 0.329760
good 0.511424 0.007439 0.304675 0.199590 0.481376 -0.101684 -0.115439 0.525331 0.576699 1.142117 0.640671 -0.197602 -0.052355 -0.223954 -0.382141 -0.166900 -0.441289 0.169370 0.056817 0.233586 -0.683256 -0.768164 -0.714766 -0.003382 -0.370475 0.586274 0.071649 0.402075 0.433854 0.157259 -0.000963 -0.135464 -0.430402 0.285047 0.485292 -0.225324 -0.855169 0.086859 0.070939 0.152957 0.161111 0.209550 -0.170455 -0.080278 0.134265 0.562208 0.324957 -0.004372 -0.199105 0.306731 0.438067 -0.050792 -0.412969 0.499514 -0.024881 -0.244441 0.782677 0.279802 0.487540 -0.647482 -0.149463 0.646990 0.161153 -0.326105 -0.174382 0.071757 0.332403 0.679328 0.018698 -0.084343 -0.063748 0.125068 0.071093 -0.382408 -0.239505 -0.537787 0.744368 0.632892 0.392277 -0.618109 0.044667 0.298472 -0.318538 -0.254164 0.124104 -0.595527 -0.548078 0.496070 0.747236 0.682228 0.322668 0.007548 -0.426210 -0.403379 0.140443 -0.586429 -0.217359 0.307084 -0.809127 -0.446377
over 0.154787 0.229163 -0.051940 -0.199910 0.642811 0.165491 -1.013847 -0.352663 -0.216352 0.391855 0.056797 -0.642930 0.435870 -0.425117 0.028564 -0.556331 0.178228 -0.590387 -1.096786 0.238960 -0.198273 -0.103744 0.094336 0.318399 -0.075472 0.090453 -0.157252 0.502865 0.374390 -0.042409 0.661647 -0.825796 0.011266 -0.393612 0.109462 -0.493345 0.312392 -0.358086 0.159418 -0.097688 1.043068 -0.320110 -0.458586 0.794489 0.311290 0.766152 -0.001917 -0.388717 -0.077159 0.577251 0.207086 0.139365 -0.313712 -0.042102 0.107143 -0.299102 0.348844 0.166996 -0.237335 0.475813 0.251756 -0.368116 -0.606464 0.935945 -0.071719 -0.003898 0.379331 -0.287801 0.253997 -0.169774 0.214942 0.922851 0.419903 -0.776714 -0.840729 -0.551070 -0.722330 0.419610 -0.305070 -0.181635 0.092616 -0.105402 -0.219682 0.002020 -0.719789 0.353370 0.545267 -0.581085 0.061221 0.463348 0.312676 0.071342 0.004574 0.134283 -0.300081 0.138995 -0.438319 -0.308952 0.228639 -0.073998
way -0.192035 0.444007 0.047164 0.113769 0.490203 -0.072897 0.373856 0.613603 0.508523 0.461549 0.198910 -0.185153 -0.403322 -0.222881 0.002145 0.160353 -0.288472 -0.610888 -0.518226 0.130644 -0.445190 -0.505932 0.115559 0.314472 0.093323 -0.618841 -0.301742 0.294744 0.084013 0.435877 0.493018 -0.426244 -0.331681 0.401083 0.442539 -0.570702 -0.823834 -0.098212 0.143465 0.710430 0.208720 0.031178 -0.376938 -0.137698 0.520173 0.275245 0.224802 -0.267957 0.144507 -0.768500 0.046081 0.475596 -0.070208 0.311117 -0.099286 0.107623 0.561469 -0.090042 -0.192355 -0.168690 -0.103577 0.800702 0.487006 0.057842 0.730037 -0.288546 0.075509 0.213926 0.188946 -0.209113 -0.254639 0.500304 0.500490 -0.374567 -0.235083 -0.405854 1.097445 -0.133754 -0.170859 -0.643578 0.476436 0.049410 0.225159 -0.561084 0.159404 -0.365306 -0.063875 -0.679631 0.298377 0.318809 -0.056318 0.472139 -0.151740 0.186032 0.082035 -0.205172 0.334266 0.168722 -0.350302 -0.746304
go 0.074027 0.203145 -0.368891 0.399273 -0.390498 0.358192 0.161581 0.989249 0.515739 0.077400 -0.788648 0.083789 -0.548025 -0.085040 -0.006781 0.006069 -0.365520 -0.150039 -1.148221 -0.422015 -0.939150 0.605596 0.933353 0.035555 -0.102115 -1.090019 -0.107660 0.107039 0.270444 0.460500 -0.188991 -0.521408 -1.494019 0.867917 -0.747378 0.123553 0.681670 0.174971 0.778371 0.272335 0.791621 -0.173566 -0.329157 -0.851712 -0.443678 0.293830 0.799296 -0.485480 0.514824 -0.883511 0.936574 -0.414488 0.488509 -0.015562 -0.614561 0.739323 0.267991 0.311005 -0.276738 0.186378 -0.866250 0.141357 -0.007547 0.514473 -0.133693 0.367041 -0.404217 0.011698 0.469610 0.474746 -0.979074 -0.167029 0.074305 0.239746 -0.269629 0.654563 0.506748 0.511612 -0.512758 -0.450396 0.151913 -0.658561 0.870112 0.264569 0.318823 -0.006006 0.106665 -0.729410 0.225857 0.833945 -0.368848 0.627782 -0.298323 -0.154554 0.722529 0.171931 0.322910 0.919977 -0.265103 -0.388681
just 0.327562 0.251465 0.090825 0.042935 0.160800 -0.195336 -0.120315 0.335309 0.049274 0.325819 0.419788 -0.047696 -0.321321 -0.402541 -0.289036 0.007073 -0.625892 -0.218890 -0.739586 -0.120904 -0.290702 -0.118663 -0.229836 0.230340 -0.150219 0.120504 -0.229595 0.123299 0.599676 0.569715 0.352739 -0.177695 -0.479117 0.193570 0.272270 -0.152417 -0.434145 -0.060660 0.899434 0.295000 0.167948 -0.215793 -0.480024 -0.054435 0.226920 0.572110 0.353737 -0.054067 0.178735 -0.153656 0.312914 0.405831 -0.060778 -0.088118 -0.239551 -0.308242 0.549062 -0.044328 0.186853 -0.184942 -0.144730 0.214266 0.059708 0.087863 0.030321 0.034637 0.011726 0.300821 -0.052835 -0.025039 -0.281177 0.811779 0.484620 -0.507297 -0.485553 -0.222820 0.146325 0.291201 0.415506 -0.390335 -0.209600 -0.065830 0.197898 -0.303464 0.213340 -0.063762 0.050441 0.202581 0.608817 0.517737 0.013548 -0.231262 -0.076844 -0.453946 0.086787 -0.101885 -0.080478 0.099932 -0.637979 -0.364723
like 0.083118 0.058928 0.383104 0.281165 0.587624 -0.150786 0.162458 0.514609 0.609067 0.571973 0.432018 0.151624 0.120673 -0.484609 -0.305647 -0.177112 -0.119808 -0.216767 -0.500775 0.280593 -0.447076 -0.432373 -0.328907 -0.037538 -0.114460 0.220787 -0.182614 0.540885 0.238933 0.455425 0.266865 0.111655 -0.302673 -0.153549 0.359556 -0.573665 -0.511439 -0.097706 -0.212962 -0.183793 0.208912 0.435128 -0.773186 0.066812 -0.111951 0.497115 0.428858 -0.301452 0.028021 -0.407605 0.032628 -0.062368 -0.449865 0.406170 -0.091271 -0.568558 0.353917 0.338088 0.025690 -0.415388 -0.108674 0.462396 -0.233262 -0.094950 0.501452 -0.106297 -0.134647 0.150911 -0.039231 -0.344139 -0.096979 0.505281 -0.190412 -0.035852 -0.230921 -0.666636 0.144745 0.006845 0.126595 -0.317918 0.203276 0.122977 -0.378418 -0.221647 0.111797 -0.114636 -0.146305 0.106121 -0.037377 0.467515 0.078130 -0.189118 -0.425613 -0.047419 -0.279394 -0.606662 0.193730 0.041918 -0.087338 -0.324618
old 0.199015 -0.293438 -0.127654 0.182626 0.374906 -0.122231 -0.473121 0.530840 0.052010 0.663808 0.745569 0.299713 -0.173798 -0.123602 0.234421 -0.231683 0.350247 0.202660 0.078278 0.145804 0.002047 -0.115702 -0.605839 -0.048218 0.254225 0.558486 -0.371872 0.238095 -0.310582 0.002835 0.366718 0.135928 0.096039 -0.776758 0.006158 -0.445724 -0.096389 -0.515786 -0.612656 -0.891130 0.469892 0.273389 -0.722896 1.009410 -0.182494 0.523003 -0.080621 -0.481819 -1.064948 0.004396 -0.550518 -0.130355 -1.345104 -0.625010 0.883374 -1.239783 -0.163171 0.340614 0.087995 -0.139800 0.182837 -0.391478 -1.434411 -0.089422 0.343954 0.848314 -0.447112 0.125943 -0.691155 -0.268054 0.487806 1.363014 0.516042 -0.554423 -0.601776 -0.845997 -0.223585 -0.616726 -0.288231 0.037164 -0.187156 0.601446 -0.119617 -0.626942 -0.478854 0.468796 0.409197 -0.612341 -0.595651 0.367095 -0.533138 -0.182390 -0.274534 0.575503 -1.121161 -0.328011 -0.246001 -0.331782 0.360837 -0.076711
now 0.306482 0.141235 0.018064 0.269102 0.192045 -0.214491 0.046683 0.749775 0.686512 0.296394 -0.004336 -0.062924 -0.003991 -0.308956 0.056960 -0.006374 -0.127786 -0.246121 -0.457745 -0.389855 -0.676049 -0.161254 0.098166 0.345322 0.026050 -0.318509 -0.340913 0.121267 0.294624 0.130001 -0.009794 -0.313091 -0.488676 0.570036 -0.054848 -0.305413 -0.398239 0.169742 0.611378 0.335284 0.055301 -0.175102 0.317862 -0.487154 -0.171783 -0.014474 0.648770 0.124105 0.236116 -0.427839 0.384472 -0.097180 0.004389 0.026956 -0.269127 0.071883 0.522470 -0.047153 -0.062059 -0.243073 -0.636127 0.328513 0.291324 0.063981 -0.289517 0.447469 -0.219139 0.399723 0.097308 0.211264 -0.638892 0.242784 0.416455 -0.126064 -0.308342 -0.177536 0.865314 0.483353 0.066320 -0.584456 0.160357 -0.230731 0.241812 -0.430845 0.237006 -0.231568 0.040237 -0.051519 0.487925 0.343032 -0.067440 0.573366 -0.025314 -0.171717 0.170082 -0.146153 0.255905 0.182559 -0.638945 -0.517968
around 0.149397 0.381434 0.051647 -0.171734 0.591709 -0.211529 -0.969402 -0.233073 -0.120804 0.268159 0.181123 -0.324588 0.521463 -0.490220 0.182136 -0.602208 0.011666 -0.413361 -0.919995 0.046536 -0.195042 0.031659 0.182521 0.381121 0.116762 0.014387 -0.396625 0.461078 0.519827 -0.102375 0.562515 -0.462211 -0.158833 -0.143519 0.018920 -0.325429 0.495914 -0.572376 0.484130 -0.329074 0.628451 -0.593045 -0.311688 0.774358 0.379532 0.682627 0.269846 -0.390787 -0.072397 0.657475 0.260045 0.287562 -0.331697 -0.441654 0.057328 -0.249611 0.110932 -0.193684 -0.164633 0.280090 0.055802 -0.315329 -0.396955 0.992756 0.034466 -0.076780 0.219766 -0.210334 0.072029 -0.161408 0.047742 0.908208 0.302953 -1.004540 -1.100771 -0.299900 -0.810525 0.338082 -0.176784 -0.223364 -0.129011 -0.184634 -0.276654 -0.003004 -0.754769 0.661361 0.650991 -0.405827 0.172081 0.435512 0.388545 0.148784 0.054876 -0.009589 -0.216587 0.240507 -0.349571 -0.171020 0.076403 0.052454
know 0.403338 -0.064571 -0.005928 0.994975 0.013159 0.065934 1.059640 1.904893 1.175551 0.428820 -0.280411 0.799324 -0.022473 -0.696092 -0.317103 0.418940 0.020851 -0.621682 -0.882015 -0.337740 -1.022068 -0.517147 0.406655 0.046797 -0.359416 -0.999356 -0.107043 0.338173 0.571272 0.961791 0.099000 0.688304 -1.081731 0.809576 -0.056825 -0.850425 -0.410365 0.438530 0.041112 0.451717 0.449679 0.295369 -0.649369 -1.161758 -1.101420 -0.430584 1.374739 -0.394669 0.613154 -1.911331 0.337835 -0.691322 0.403556 0.444630 -0.685689 -0.344037 0.623852 0.190831 -0.115968 -0.367791 -1.015488 0.638047 0.418781 -0.249301 0.038539 0.453354 -0.702615 0.630414 0.099060 0.150264 -1.442551 0.304734 0.151671 0.899849 0.164524 -0.162314 1.171541 0.292618 0.214850 -0.548793 0.514016 -0.325901 0.133888 -0.562933 1.021514 -0.478257 -0.379552 -0.357626 0.092474 0.197528 -0.686797 0.275922 -0.327672 -0.513812 -0.078506 -0.578221 0.846321 0.300495 -0.842163 -0.728036
de -0.414054 0.381408 -0.438559 -0.405564 -0.005194 -1.020697 0.283521 1.312261 0.533148 -0.190269 -0.495213 -0.626212 -0.009394 0.658747 -0.444344 -0.786804 0.878196 -0.331626 1.822460 1.292749 -1.923757 0.420195 0.583418 -0.787962 0.534180 -0.750722 1.275671 0.234083 0.269431 -1.576672 -0.383452 -0.458110 0.984788 2.496180 0.358862 0.387095 -0.313181 0.465308 -1.033999 0.026987 1.057743 0.313088 0.723311 0.110628 -1.035396 -1.144202 -0.250533 0.906826 -0.437970 -0.161975 1.370530 0.056619 -0.676340 1.168544 -0.104994 1.256432 -0.328435 -0.600397 2.262301 0.240124 -0.934584 -0.296223 0.145312 -1.586613 0.794407 0.796546 -0.075268 0.008933 1.513055 2.034789 0.007256 -1.930052 -1.443484 1.588331 0.446382 1.141216 0.957138 0.619133 -0.376125 0.045239 -1.162286 1.986351 1.514749 0.454382 1.068319 -0.585821 -1.555645 -1.355473 -1.136741 1.501179 -0.476141 0.235236 -0.354951 1.247857 -0.526119 -0.446454 -0.634472 -0.043184 0.419851 0.327889
can 1.373664 -0.044715 0.046182 -0.143867 -1.148218 0.144538 -0.095317 1.664585 0.043516 -0.410030 -0.076247 0.244529 -0.229130 -0.497273 -0.803788 0.604127 0.479151 -0.769115 0.282677 -0.389407 -0.253701 -0.486461 -0.185128 0.476363 -0.424420 0.400772 0.028380 -0.291019 1.132981 1.003817 1.780110 0.702663 0.151086 0.939667 0.817165 -0.669340 0.037517 0.240056 0.298055 0.276514 0.084762 -0.134277 0.895882 0.273938 -0.458401 -0.529899 0.850190 0.049959 -0.733389 -0.914378 1.276567 -0.047933 0.288434 -0.672597 -0.558879 -0.177845 1.205098 -0.933964 -0.988022 0.694641 -1.165931 -0.276357 0.321421 0.323560 0.267577 0.259796 0.642971 -0.183280 0.185746 0.595071 -0.814940 0.682331 0.131838 -0.219054 0.186985 0.062286 0.286957 -0.215508 0.756427 -0.142708 -0.961259 0.486206 -0.203038 -1.006042 1.948716 -1.358881 0.409762 -1.555128 0.322105 1.149157 -0.451409 0.164727 1.050670 -0.141137 0.273928 -0.200277 0.309706 -0.705392 0.065611 0.318155
tom 0.681865 -0.628121 -0.148521 0.475798 0.130342 -0.237127 -0.178512 0.708540 0.623190 0.895682 0.463873 0.143314 -0.198874 -0.038552 0.310481 -0.642137 -0.447074 0.224781 0.463176 0.289875 -0.995031 -0.669321 -0.397418 -0.124095 -0.180600 0.539634 -0.045276 0.255232 0.534617 -0.466853 -0.405320 -0.250499 0.030465 0.348348 -0.282488 0.078060 -0.771899 0.014497 0.770413 0.231658 0.274684 0.522842 0.329858 -0.271557 -0.595583 0.240568 0.355521 0.315419 0.110959 0.102141 0.132018 -0.149951 -0.737456 0.076868 0.321581 -0.749705 0.429017 -0.010342 0.347131 -0.806267 -0.392650 -0.005253 -0.833844 -0.771694 -1.014533 0.686145 -0.182109 0.445536 -0.237730 -0.267828 0.006762 0.685462 0.522056 -0.770124 -0.567039 -0.569833 0.418039 0.580281 -0.066880 -0.121980 -0.083223 -0.185637 -0.356215 -0.121746 -0.309050 -0.569941 -0.616129 1.026364 0.499899 0.304262 0.304309 0.750378 -0.371937 0.582146 0.073266 -0.136328 -0.211261 0.572255 -0.715132 -0.831218
en -0.382913 0.253998 0.072480 -0.272079 0.358569 -1.020926 0.298449 1.339226 0.952643 -0.322138 -0.526519 -0.798883 0.495378 0.349312 -0.369691 -0.889638 1.042082 -0.471247 1.720462 1.081410 -1.858121 -0.033229 0.536616 -0.750325 0.429728 -0.830986 1.082712 0.593584 0.681316 -1.483511 -0.229152 -0.262731 0.785527 2.276030 0.511677 -0.161631 -0.534603 0.675770 -1.084670 0.161617 0.760162 0.464299 0.668452 -0.081677 -0.729631 -1.383610 -0.176181 0.804003 -0.145628 -0.042967 1.003273 -0.208836 -0.276159 1.617961 -0.289027 1.358944 -0.070805 -0.374985 2.083616 -0.293998 -0.737544 -0.027573 0.327261 -1.323999 0.575335 0.586227 -0.251784 0.206376 1.358703 1.905638 -0.139258 -1.832906 -1.606378 1.590729 0.407723 0.675380 1.292650 0.869441 -0.246601 0.016638 -0.838305 1.746185 0.984815 0.132591 1.226510 -0.928499 -1.578825 -0.884258 -1.138385 0.987682 -0.315312 0.066645 -0.024155 1.227612 -0.443417 -0.699560 -0.511133 0.078862 0.284097 0.331074
along 0.383809 0.255951 -0.316546 -0.306376 0.593244 -0.148518 -1.259245 -0.021836 -0.190236 -0.022138 -0.276065 -0.991133 0.380575 -0.737116 0.308083 -0.523784 0.315073 -0.325430 -0.844736 -0.589771 -0.056384 0.038035 0.466581 0.917213 0.234903 -0.421763 -0.191073 0.408784 0.557285 -0.479226 0.281246 -0.956333 -0.276297 0.459236 -0.073516 -0.373066 0.574647 -0.020602 0.379933 0.086383 0.695364 -0.868688 0.280940 0.539951 0.269018 0.040887 -0.120356 -0.156114 -0.138773 0.902857 0.158043 0.132270 -0.184005 -0.439671 -0.123390 0.577075 -0.105359 0.005041 -0.089303 0.143390 -0.172767 -0.575485 -0.140646 1.128958 -0.443406 0.471843 -0.056568 0.155164 0.333449 0.695736 -0.283350 0.250389 0.227019 -0.797479 -0.881592 0.144220 0.076856 0.912478 -0.154933 0.176773 -0.043803 0.051236 0.137494 -0.193274 -0.489001 0.361036 0.485000 -0.797879 -0.000980 -0.017784 -0.126483 0.109526 0.422020 0.137971 -0.425010 0.686959 -0.083511 -0.200398 -0.019874 0.195815
done 0.152286 -0.767569 0.205679 0.537534 0.413493 -0.080941 0.161330 1.001476 1.005455 0.816914 0.454558 -0.224812 -0.318812 -0.488922 -0.047970 -0.079275 -0.008339 0.076824 -0.978304 -0.074717 -0.668903 -1.060434 -0.276757 0.309206 -0.355844 0.215742 -0.396785 0.767646 0.316029 0.489649 0.102621 0.104903 -0.162643 0.262906 0.491201 -0.765495 -0.815423 -0.126632 0.070943 0.160169 0.783751 0.417582 -0.474961 -0.350566 -0.441919 0.533649 0.769174 -0.402362 -0.041780 -0.417905 0.323439 -0.177484 -0.164786 0.098416 -0.402826 -0.526626 0.983894 -0.023939 -0.163906 -0.516671 -0.680851 1.086725 0.305731 0.140596 0.216628 0.291059 -0.043752 0.741269 0.191731 -0.371424 -0.513312 0.668090 -0.169177 -0.520842 0.088510 -0.685001 0.995274 0.765820 0.081999 -0.202761 0.239321 0.389342 -0.286184 -0.460573 0.633013 -0.439220 -0.226689 -0.046232 0.437831 0.134127 0.245020 0.573528 -0.740955 -0.282486 0.022450 -0.555783 0.629456 -0.027736 -0.486137 -0.558100
couldn 1.192608 -0.014783 0.536841 1.451020 -0.526154 0.178144 -0.259227 1.083443 0.658223 -0.157888 -0.133502 0.245447 -0.762145 -0.570867 -1.027905 -0.503429 0.094563 -0.719717 0.206329 -0.468440 -0.661513 -0.514761 -0.182599 0.377507 0.261125 1.384338 -0.817040 -0.152237 1.545587 0.765972 1.779976 0.310373 0.129167 1.119274 0.772092 -0.507047 0.540570 -0.729705 0.673571 0.015218 0.614590 0.455079 1.695836 0.756914 -0.973942 -0.182868 1.178244 0.365642 -0.792894 -0.538728 2.403879 -0.696988 -0.245205 -1.043331 -0.430501 -0.526284 1.547452 -1.508755 -0.896676 0.724009 -2.098957 0.672948 -1.134082 0.658117 -0.065424 0.166683 1.291920 -0.311547 0.108719 -0.093925 -1.013308 0.982201 0.389534 -1.500474 -0.437920 0.337578 -0.852798 0.591338 0.200540 -0.791002 -1.136326 -0.206056 -0.762981 0.172752 1.071076 -1.810534 0.202330 -0.688180 0.553943 1.862586 0.843920 0.782697 0.365518 0.043772 1.259642 0.006707 0.685483 -0.192570 0.356089 -0.142921
man 0.303453 0.214908 -0.104716 0.084426 0.400942 -0.727480 0.134157 1.139627 0.424721 1.247705 0.525503 0.133677 0.476043 -0.661028 0.430765 -0.184268 0.091678 0.252365 0.594591 0.475749 -0.165942 -0.827020 -0.245618 0.054834 -0.272409 -0.024147 -0.010685 0.578800 -0.205618 -0.351125 -0.555418 0.031297 -0.106552 0.625994 0.342533 -0.693897 -0.813853 -0.061858 -0.746419 0.428484 -0.452565 0.089526 -0.411182 0.622801 0.206354 -0.082357 0.196542 -0.147157 -0.139502 -0.067492 -0.801194 0.114620 -1.217800 0.248638 0.310895 -0.693545 -0.468558 0.209477 -0.279979 -0.948310 0.141322 0.112554 0.006610 -0.245281 0.191432 0.231153 -0.383803 0.231096 -0.205298 -0.164104 0.410439 0.183557 -0.224290 -0.127431 -0.304473 -0.248277 0.768131 -0.272337 0.138668 -0.144530 0.109016 0.384646 -0.696224 -0.423149 -0.424590 -0.210427 -0.282080 0.099949 -0.234315 -0.079745 -0.099294 0.327312 -0.353334 0.328651 -0.785547 -0.241106 0.060546 0.323017 -0.600745 -0.401695
because 0.109699 -0.023596 0.500774 0.705491 0.403234 -0.311076 0.005996 0.771950 0.839092 0.453015 0.248046 0.350124 -0.065602 -0.456942 -0.067404 -0.120204 -0.609189 -0.164940 -0.790936 -0.090947 -0.754907 -0.277626 -0.179718 0.256020 -0.031036 0.408358 -0.650620 0.578525 0.333979 0.628031 -0.201196 -0.149143 -0.432134 0.394644 0.144171 -0.138358 -0.792494 0.040240 1.093645 0.202117 0.150125 0.318334 -0.146392 -0.540466 -0.295779 0.261521 0.633889 0.180188 0.347444 -0.890047 0.352851 0.170124 -0.151411 0.223792 -0.650954 -0.067117 0.966279 -0.149726 0.239473 -0.266738 -0.691616 0.830869 0.222965 0.022902 -0.004085 -0.128418 -0.415041 0.383433 0.002102 -0.079899 -0.784378 0.667986 0.144604 -0.411156 -0.132950 -0.454152 0.717285 0.497874 0.239038 -0.639190 0.264496 -0.132845 -0.268330 -0.363541 0.491898 -0.305399 -0.143244 0.458174 0.471552 0.336303 0.380802 -0.105085 -0.372332 -0.304025 0.187136 -0.428435 0.411440 0.090278 -0.579589 -0.882892
back -0.068794 0.422449 -0.184779 -0.160274 0.662816 -0.296398 -0.963957 -0.034498 0.310653 0.114812 -0.285048 -0.332536 0.531466 -0.367916 0.509296 -0.851059 0.316566 -0.140661 -0.461382 -0.021495 -0.604644 0.134151 0.588129 0.438536 0.131139 -0.514554 -0.385028 0.680385 0.302652 -0.588342 0.018630 -0.885322 -0.518398 0.529436 -0.352241 -0.235895 0.524515 -0.115792 0.585109 0.016009 0.338344 -0.588762 0.343620 0.419243 0.361386 0.136642 0.128051 -0.100928 0.296344 0.616349 0.190168 0.118297 -0.079686 0.060175 -0.220698 0.784824 -0.030149 0.040657 0.072270 -0.045913 -0.124368 -0.207326 -0.227188 0.893333 -0.293147 0.080506 -0.357046 -0.106105 0.409155 0.365969 -0.371711 -0.023908 -0.173085 -0.664040 -0.847336 0.139949 -0.125644 0.751717 -0.510229 -0.019207 0.344175 -0.286094 0.040182 0.253929 -0.600794 0.567660 0.303107 -0.429798 0.050386 0.277563 0.196453 0.077791 0.121972 0.364022 0.070081 0.408169 -0.382410 0.310156 0.037215 -0.098580
ever 0.360263 0.317434 1.022436 1.137537 0.205537 -0.380022 0.531062 1.205259 1.354381 0.375720 0.284238 1.128032 -0.122503 -0.525531 -0.202820 -0.253712 -0.739945 -0.117427 0.055522 -0.108046 -0.806901 -0.352874 -0.059669 -0.133554 0.069898 0.350440 -0.928728 0.383151 0.741854 0.560012 0.214719 0.475703 -0.927233 1.070904 0.268662 -0.222588 -0.378282 -0.388179 0.992406 -0.014341 -0.653709 0.470816 0.099479 -0.574928 -0.297644 -0.166657 0.971827 0.187432 0.217426 -1.120311 0.860103 -0.354148 -0.317757 -0.021721 -0.517889 -0.410845 0.574283 -0.353697 0.187238 -0.732776 -1.206018 0.988209 -0.032532 -0.238818 0.009882 -0.376878 -0.186798 0.478692 0.150661 -0.389005 -0.689799 0.455961 -0.198291 -0.253034 -0.358112 -0.061246 0.667011 0.312681 0.464530 -1.098336 -0.042892 -0.210929 -0.709489 -0.221456 0.787033 -0.631319 -0.556629 0.685494 0.403860 0.742988 0.499215 -0.052489 -0.184349 -0.080756 0.615112 -0.483250 0.955690 0.672606 -0.581589 -0.726645
your 0.332164 0.319835 0.010156 -0.541604 -0.547097 -0.454580 0.048366 1.148709 -0.467199 -0.284744 -0.469303 0.473230 0.391122 0.040739 0.318637 0.471082 0.501660 -0.217481 0.456829 0.308774 -0.444203 0.580915 0.428885 0.023327 -0.283097 -0.614617 0.822571 -0.495517 0.057464 -0.247747 0.005924 -0.295875 0.270297 1.132454 -0.698019 0.575689 -0.221479 0.742825 0.902822 0.518319 -0.084802 -0.145571 0.147122 -0.137320 -0.263354 -0.753486 -0.072163 0.349423 0.029376 -1.335029 0.372434 0.421072 0.101203 0.085590 -0.007607 0.216542 -0.211546 -0.042135 0.066322 0.541970 -0.378819 -0.778901 0.279905 -0.521517 0.007225 0.125695 -0.683873 -0.589482 0.144985 0.485880 -0.403812 0.144107 0.220719 0.654257 0.120550 0.072132 0.246931 -0.589921 0.323873 -0.031791 -0.945663 0.286584 0.833054 -0.481127 0.761677 0.067160 -0.166390 -0.458397 -0.221524 0.576920 -0.643656 -0.116035 0.332350 0.488129 -0.318471 0.060353 -0.075946 -0.124385 -0.428960 -0.008077
going 0.220335 0.089786 -0.146756 -0.045746 -0.269489 -0.189780 -0.112880 0.797004 0.200308 0.496843 0.061253 0.223367 0.078629 -0.234584 -0.309614 0.215573 -0.617743 -0.127100 -0.651465 -0.022285 -0.616070 -0.116770 -0.073458 0.153923 -0.793663 0.247576 0.040364 0.603996 0.382537 0.794411 0.121695 -0.094030 -0.708808 0.657337 -0.140134 0.217503 -0.641942 0.255672 1.459238 0.335017 0.221638 -0.115657 -0.343653 -0.607749 0.309393 0.407572 0.651372 -0.327362 0.175866 -0.716987 0.342156 0.677924 0.063339 0.290323 -0.923828 0.324275 0.756982 -0.320163 -0.059014 -0.220095 -0.125788 0.882521 0.888407 0.056724 0.199919 -0.081439 -0.328736 0.134562 0.299340 0.024860 -0.655496 0.203485 -0.043093 -0.250409 0.027333 0.284499 0.672536 0.098078 0.387878 -0.392801 -0.007980 -0.007309 0.086961 -0.425651 0.595732 -0.334576 0.309834 -0.035744 0.725884 0.643630 0.147833 -0.268507 -0.473875 -0.407623 0.216587 -0.214964 -0.265180 0.289037 -1.092209 -0.773718
how 0.792549 -0.481709 -0.201740 -0.184625 -0.577232 0.132018 0.065845 1.650005 0.600348 0.558647 0.002389 0.471749 -0.361558 -0.469323 -0.140522 0.359618 -0.147974 0.003895 -0.199988 -0.357044 -0.694079 -0.396046 0.087773 0.313589 -0.779955 0.051558 0.021177 0.139949 0.704903 0.515320 0.249821 0.348218 -0.590320 0.787657 0.193905 -0.193099 -0.400701 0.446278 1.134107 0.481096 -0.140456 -0.124980 0.386905 -0.822737 -0.174920 -0.089307 0.657085 0.083753 0.130446 -0.725579 0.438320 -0.065290 0.162493 0.270807 -0.628073 0.193572 0.908688 -0.131952 -0.097365 -0.611614 -0.660970 0.021568 0.547603 -0.299378 -0.501754 0.400472 -0.265674 0.527563 0.225170 0.525059 -1.100177 0.222831 0.228679 -0.013262 0.276591 -0.145070 1.227415 0.515393 0.705662 -0.136864 -0.125079 0.177595 0.168417 -0.959899 1.306946 -0.617740 -0.481351 -0.129891 0.644154 0.563848 -0.509800 -0.164321 0.588754 -0.220613 0.235001 -0.341699 0.347969 0.350512 -0.873934 -0.488058
why 0.325679 -0.191938 0.357528 0.460100 -0.022285 -0.242083 0.626183 1.721701 1.069619 0.443016 0.234394 0.609317 0.039543 -0.298528 -0.021146 0.208826 0.056603 -0.421338 0.016662 0.124075 -1.041547 -0.547797 -0.050848 0.036243 -0.397609 -0.258707 -0.096013 0.283725 0.421832 0.423722 -0.124501 0.438966 -0.351116 0.941501 0.062832 -0.459507 -1.036166 0.476737 0.533583 0.373144 -0.100096 0.481457 -0.209114 -0.777719 -0.583897 -0.420600 0.752617 0.043350 0.237692 -1.536365 0.139258 -0.136783 -0.078690 0.561962 -0.446170 -0.161218 0.619938 -0.047249 0.074751 -0.495112 -0.806884 0.616170 0.454295 -0.737979 0.136092 0.232736 -0.739207 0.519714 0.073429 -0.025077 -0.669227 0.339771 -0.119154 0.437923 0.302808 -0.482279 1.478911 0.056833 0.357777 -0.474287 0.067094 0.272916 0.012044 -0.863858 1.191314 -0.584163 -0.501860 0.039114 0.011362 0.319689 -0.193026 0.218868 -0.226802 0.149691 -0.148596 -0.668215 0.702384 0.225877 -0.676725 -0.746582
some 0.295155 0.411558 0.042339 -0.182005 -0.064527 -0.298559 -0.309626 0.518764 -0.152174 0.492465 -0.120198 0.701315 0.182098 -0.120194 0.420373 -0.032600 -0.519279 0.207212 -0.077456 0.317745 -0.097995 0.211179 0.394307 0.017462 0.029956 -0.103470 0.074443 0.123226 -0.224570 -0.078830 -0.163049 -0.299994 -0.197640 0.482369 0.002923 0.344567 0.400438 -0.306026 0.653858 -0.154963 -0.226053 -0.366765 -0.016268 -0.087481 0.146060 0.093090 0.245824 -0.258680 -0.235466 -0.445459 0.443276 0.448471 -0.491593 -0.273276 0.031645 -0.138747 -0.079960 -0.140701 -0.095256 0.169691 -0.126963 -0.342512 0.494137 0.167970 0.309164 -0.515046 -0.333398 -0.298551 0.235349 0.310217 0.025214 0.381667 0.022068 -0.554411 -0.300370 0.200557 0.188090 -0.201650 0.100493 -0.452335 -0.029571 0.128180 -0.030530 -0.322789 0.263013 0.509992 -0.014631 -0.518521 0.103741 0.457256 -0.178805 -0.224617 -0.229943 0.187233 -0.212910 0.153257 0.121734 0.074387 -0.090725 -0.050270
more -0.247207 0.816180 1.113956 0.897269 0.344677 -0.614371 0.564516 1.007210 0.435616 0.219810 0.140599 0.527503 -0.083423 -0.147821 0.260403 -0.247539 -0.190857 -0.486863 0.240250 0.556982 -0.587932 0.168336 0.491684 -0.423570 -0.085036 -0.064323 -0.266172 0.043875 0.094959 0.861550 -0.030812 -0.077729 -0.287534 0.259088 -0.127745 0.205098 -0.130030 -0.547517 0.171196 -0.179658 -0.721689 0.585207 -0.390757 -0.160467 0.306984 0.211572 0.757205 -0.380506 -0.139940 -1.211111 0.815052 -0.184699 -0.014352 0.117287 0.358571 0.119881 0.296279 -0.565763 -0.512926 0.117895 -0.687035 0.613606 -0.166717 0.101856 0.743184 -0.751830 -0.221137 -0.022321 -0.285765 -0.433502 -0.611274 0.454929 -0.369339 0.169683 -0.252228 -0.663138 0.273187 -0.525748 -0.060582 -1.107900 -0.170410 -0.324952 -0.487964 -0.372076 0.128119 -0.251776 0.172431 -0.370211 0.356854 0.897413 0.421361 0.527519 -0.290999 0.337245 0.480908 -0.718341 0.333917 0.330296 0.035876 -0.199623
little -0.028326 0.602559 0.250329 -0.194742 0.928599 -0.655780 -0.307849 0.006921 0.034264 0.599518 0.286242 -0.078838 0.590083 -0.631782 0.073994 -0.340213 -0.180289 0.226133 -0.245265 0.497952 -0.169748 -0.229735 0.102546 -0.155369 0.128035 0.026217 0.168378 0.631689 -0.091317 0.065241 0.192056 -0.437561 -0.092233 -0.099992 0.231206 -0.323664 0.390808 -0.457755 -0.660937 -0.385525 -0.009060 -0.028149 -0.707889 0.372579 0.356191 0.673162 0.359645 -0.685754 -0.281387 0.185893 0.361545 0.091908 -0.587139 0.210279 0.309050 -0.435954 -0.143849 0.224241 0.028142 -0.139711 0.285485 0.051018 -0.028759 0.365839 0.740151 -0.636942 -0.068438 -0.288310 0.258764 -0.185020 0.180034 0.246693 -0.530807 -0.226739 -0.693246 -0.119991 -0.427829 -0.006633 0.031590 -0.555049 0.339753 0.067020 -0.744072 0.109979 -0.483926 0.456700 0.145330 -0.336430 0.270784 0.446722 0.270528 -0.140462 -0.459659 0.225585 -0.377925 -0.432504 -0.267759 0.055538 0.309198 -0.029377
here 0.449838 0.168274 -0.334949 -0.557442 -0.111332 -0.245285 -0.076050 0.916458 0.009966 0.321530 -0.054824 0.032030 0.237958 -0.151396 0.219032 0.481563 0.364806 -0.025638 0.131413 0.059576 -0.381410 -0.072546 0.228303 0.410071 -0.267980 -0.423325 0.413420 -0.020677 -0.227025 0.029814 0.144108 -0.231265 -0.073293 0.580868 -0.101172 -0.102658 -0.345775 0.425826 0.079400 0.171239 -0.105674 -0.446717 0.245315 -0.244428 0.086889 -0.238902 0.176928 -0.054348 -0.216397 -0.525207 0.038651 0.200096 0.097266 0.137601 -0.089904 0.371773 0.250051 0.168243 -0.080115 0.084622 -0.189529 -0.483610 0.729089 -0.259521 0.161012 0.194193 -0.394540 0.073089 0.265376 0.659073 -0.444523 -0.086506 0.150317 0.446919 0.088683 -0.162629 1.131358 -0.082503 0.252150 -0.106773 0.002669 0.438303 0.365545 -0.845315 0.705203 0.042053 0.134418 -0.937851 0.292438 0.245775 -0.684353 0.022461 0.435419 0.091749 -0.571872 -0.109925 -0.064790 -0.232090 -0.249408 -0.060150
say 0.346244 -0.268517 0.063456 0.592721 -0.151765 -0.023111 0.745653 1.605571 0.952350 0.368334 -0.028682 0.347137 -0.465558 -0.261648 -0.177793 0.270546 -0.098638 -0.126543 -0.234869 -0.101042 -1.096360 -0.348878 0.010431 -0.223627 -0.560063 -0.324572 0.035759 0.157766 0.370015 0.591462 -0.139277 0.252721 -0.737948 0.465148 -0.130647 -0.485265 -0.621316 0.497788 0.311330 0.119393 0.288908 0.606822 -0.524363 -1.004892 -0.879491 -0.021954 0.738453 -0.226141 0.304950 -1.337637 0.499885 -0.447000 0.078715 0.598552 -0.271926 -0.036432 0.686866 0.346110 0.033188 -0.520485 -0.847322 0.638272 0.008753 -0.517293 0.053769 0.573267 -0.764990 0.505473 0.042939 0.111588 -0.762231 0.225861 -0.146160 0.684158 0.246712 -0.356901 1.210966 0.332627 0.133912 -0.387072 0.256840 0.029033 0.269162 -0.510776 1.146400 -0.454389 -0.342581 -0.020337 0.233096 0.485640 -0.376903 0.170197 -0.335528 -0.071895 0.159008 -0.655041 0.511362 0.456219 -0.544885 -0.670542
any 0.087041 0.749010 0.991127 0.560185 -0.504190 -0.516196 0.492271 1.366277 0.165779 -0.000237 0.030788 1.306615 -0.251073 0.285868 0.156949 0.021306 -0.845424 0.030804 0.210935 0.761646 -0.527224 0.512641 0.601064 -0.445947 -0.066890 0.201823 0.017510 -0.015484 0.019183 0.969617 -0.009734 0.071205 -0.499785 0.700290 -0.240166 0.970042 -0.102861 -0.589538 0.821366 -0.344697 -0.685463 0.434094 -0.365551 -0.475228 0.018012 0.108277 0.703650 -0.068392 -0.143008 -1.665952 1.046259 0.131495 -0.029459 -0.225638 -0.272332 0.094292 0.298171 -0.616984 0.055196 0.449829 -0.617670 0.025973 0.382072 -0.386312 0.959500 -1.218494 -0.379142 -0.211214 0.084923 -0.116523 -0.446120 0.602714 -0.330544 0.134061 -0.270488 0.046084 0.337504 -0.857414 0.248649 -1.222273 -0.582114 -0.149392 -0.490313 -0.779595 0.881916 -0.039594 0.023649 -0.427761 0.238677 1.060247 0.238298 -0.203051 -0.181747 0.277473 0.468848 -0.392145 0.376072 0.353382 -0.020396 -0.210465
never 0.686137 -0.330768 0.641663 0.960251 0.150374 -0.259492 0.232448 0.986529 0.790514 0.258767 0.116801 0.460498 -0.083155 -0.989131 -0.103013 -0.529757 -0.311830 -0.322149 -0.127204 -0.477008 -0.461373 -0.607692 0.183417 0.131677 0.137542 0.354274 -0.843421 0.364158 1.192312 0.316629 0.571239 0.688343 -0.253598 0.761855 0.427002 -0.436805 0.233159 -0.470155 0.586742 0.161701 -0.106317 0.401798 0.263031 -0.075192 -0.447228 -0.192282 0.953210 -0.072876 0.024756 -0.392258 0.797594 -0.451969 -0.402335 -0.553760 -0.191308 -0.866930 0.362368 -0.842333 -0.412158 -0.565125 -1.164463 0.556360 -0.535774 0.341084 -0.388155 0.029995 0.221966 0.289434 -0.169687 -0.407394 -0.662109 0.764369 0.092988 -0.951114 -0.574834 -0.085424 -0.290736 0.469816 0.428967 -0.422225 -0.476262 -0.224180 -0.840925 -0.046608 0.355145 -0.854334 -0.344980 0.399036 0.136926 0.512730 0.488559 0.473130 -0.013603 -0.096069 0.387344 -0.168298 0.851332 0.289480 -0.337533 -0.387006
too 0.191787 -0.042087 0.201130 0.167821 0.141153 -0.189240 -0.022231 0.618476 0.414491 0.558303 0.295044 0.135654 0.001087 -0.202150 -0.064297 -0.083224 -0.289822 0.030735 -0.244900 0.097604 -0.450308 -0.364351 -0.285839 -0.049782 -0.212766 0.286175 -0.189822 0.443457 0.282793 0.202190 0.062505 -0.042763 -0.264533 0.231208 0.233994 -0.188368 -0.443780 -0.078574 0.345869 0.005709 0.059378 0.112485 -0.280760 -0.165103 -0.009468 0.282194 0.441379 -0.070546 -0.084846 -0.205350 0.260602 0.030335 -0.395784 0.108427 -0.118455 -0.318783 0.536192 0.052299 0.067456 -0.392692 -0.335654 0.193481 0.139060 -0.059921 0.071514 0.065746 -0.115165 0.294974 0.054626 0.055500 -0.154666 0.428607 0.020962 -0.232636 -0.160654 -0.331299 0.434843 0.255292 0.260609 -0.362163 -0.081490 0.234933 -0.114899 -0.388423 0.340052 -0.205780 -0.167779 0.166345 0.253938 0.402548 0.070510 0.028713 -0.266620 -0.079032 -0.115258 -0.417784 0.010258 0.028063 -0.451962 -0.295212
two 0.039803 0.491306 -0.318034 -0.884879 0.301075 -1.250421 -0.160283 0.385260 -0.660761 0.142408 0.133094 -0.107473 0.179860 -0.055069 0.611456 -0.037531 -0.084637 1.019387 0.440248 0.441818 -0.182109 0.688108 0.403717 -0.616816 0.000852 0.062027 0.902742 0.079525 -0.485504 -0.076792 -0.178121 -0.553035 0.193264 -0.205159 -0.328075 0.540865 0.691411 -0.522165 -0.798550 -1.080766 -0.321601 -0.571132 -0.247980 0.032833 0.367080 0.625880 0.402124 -0.388743 -0.725811 0.363053 0.683778 -0.028474 -0.360218 -0.290257 0.895188 -0.307291 -0.490512 0.117494 0.348292 -0.019555 0.001333 -1.411878 0.147304 -0.139454 0.644563 -0.135086 -0.491360 -0.031224 0.046461 0.827004 -0.014292 -0.064056 -0.339083 0.566254 -0.761482 -0.040228 -0.339210 -0.175333 0.340313 -0.465389 -0.500093 0.370744 0.088339 -0.407073 -0.252875 1.160787 0.427704 -0.757834 0.678343 0.476579 -0.493136 0.113135 0.118638 0.285496 -0.836484 -0.702832 -1.091965 -0.169275 0.215652 0.679994
again 0.475562 -0.301703 -0.135928 0.010593 0.301652 -0.029737 -0.739745 0.401466 0.402212 0.466727 -0.079920 -0.169167 0.234431 -0.640651 0.264235 -0.618833 0.146722 0.093927 -0.667880 -0.288170 -0.479747 -0.186605 0.231612 0.494045 -0.195147 -0.121678 -0.410603 0.747928 0.700417 -0.237550 0.100092 -0.307681 -0.771398 0.506819 -0.177857 -0.363905 0.349040 -0.063621 0.618265 0.210184 0.482022 -0.268287 0.173919 0.232882 -0.026794 0.164532 0.392260 -0.121711 0.253837 0.545635 0.114958 -0.152117 -0.168945 -0.114527 -0.347322 0.016875 0.208127 0.206973 -0.184723 -0.447150 -0.361802 -0.082079 -0.373873 0.837438 -0.651422 0.439091 -0.094216 0.175746 0.138478 0.129283 -0.652569 0.237484 -0.005059 -0.874492 -0.563812 0.032515 -0.241607 0.816491 -0.083407 0.187698 0.053602 -0.195804 -0.144473 0.218560 -0.314122 0.042871 -0.060092 0.143205 0.145423 0.264492 0.094070 0.155550 0.098210 -0.030166 0.164092 0.275938 -0.114944 0.348991 -0.403846 -0.096560
