4022 100
the 0.461531 0.270592 -0.161446 -0.585889 -0.328004 0.212133 0.087190 1.380449 -0.552259 -0.190183 0.604028 0.531962 0.348295 0.211745 0.049816 0.700668 -0.350292 -0.681693 -0.635706 0.029833 -0.298082 0.064459 0.820398 0.712617 1.060221 0.148820 -0.724663 0.183692 -0.864843 0.861602 0.453902 -0.764410 -0.546637 1.215557 -0.183353 -0.036330 0.211280 -0.700019 1.011540 -1.583790 -0.086034 -0.209026 0.703098 0.866644 -0.384875 -0.500633 0.254133 0.533228 0.800768 -0.144741 -0.361154 1.280462 -0.958719 -0.237804 -1.267235 -0.136922 0.598787 -1.193801 0.221856 0.439152 -0.532825 0.274764 0.355996 0.029458 0.071129 0.714462 -0.268911 -0.163829 0.265020 0.014589 -0.887791 0.445551 -0.462325 0.444903 -0.722013 0.367926 -0.309556 0.283940 -0.176311 -0.196958 0.062147 0.667279 -0.543110 0.003703 -0.378321 0.225036 0.183354 0.109051 -0.229061 -0.469965 -0.877961 -0.694449 0.060230 -0.616514 -0.032501 0.543733 0.546352 -0.117855 -0.520762 0.067122
of 0.102028 1.170040 -0.440884 -0.131691 0.653355 -0.682569 -0.526505 0.178705 1.139214 -0.464166 0.691615 1.114948 0.214822 -1.187752 0.851222 0.530979 -1.478573 0.386458 0.654304 -1.214119 0.603014 0.509262 0.256512 0.499569 0.822639 -0.970160 -0.703439 1.049352 -1.416166 1.007563 0.540126 0.080217 -0.406771 0.590651 -0.321474 -0.916075 0.164313 -0.464105 0.393385 -1.517820 -0.229199 0.432699 -0.570606 0.200690 -0.226361 -0.319658 -1.823465 0.534183 -0.539636 0.046458 -0.136418 -0.265274 -0.977204 1.045246 0.422460 -0.518207 0.325593 0.307830 0.129285 0.267122 -0.128420 -0.683501 -0.217954 1.474608 -0.027525 -0.762366 0.259437 -0.676392 0.627494 0.339735 -0.850151 1.231464 0.527689 0.499066 -0.407526 -0.215433 -0.673600 -0.130759 -0.670142 -1.240859 0.656413 0.101906 0.576003 -0.799045 0.300936 -0.510988 -0.418714 -0.218312 0.134986 0.181848 0.051580 -0.832060 0.371991 0.117948 -0.017088 0.195068 0.108735 -1.993742 0.215461 -0.163789
to 0.521377 -1.655710 0.340657 -0.484983 -0.669590 0.604915 -0.360932 0.132531 0.681854 0.507805 -0.410484 -0.872365 1.108205 -0.331320 0.407687 0.399711 0.115644 0.230038 0.194367 0.340213 1.156936 -0.003554 -0.859071 -0.332420 -0.710730 1.157153 0.374573 -2.381372 -0.418615 -0.821417 -0.812621 0.898862 -1.121614 0.973189 -0.838433 0.657077 -1.572960 -0.154563 1.776059 2.333808 -1.385100 0.251119 1.694504 1.025582 0.661085 -0.107289 -0.007129 0.839617 -0.087341 2.657207 -0.908825 -0.538042 -0.146391 -0.107559 1.403757 1.494975 0.726345 0.892128 0.543989 1.131221 1.090766 -0.394952 0.777494 -0.899522 0.809606 -0.082215 2.381622 -0.016870 -0.084930 1.658734 -0.507947 -0.242874 0.730494 -0.836676 -0.373945 0.206523 1.709089 0.712682 0.053352 0.531803 -1.294537 -0.371077 0.851581 -0.353493 -0.466620 -0.947524 -1.827892 -1.204255 0.940176 1.633359 0.738700 -1.076946 0.798298 0.417378 0.218609 0.901679 -0.080750 0.469648 0.741763 -0.693271
and 0.542786 0.470739 0.152136 -0.162203 0.581131 -1.515456 -0.590342 0.389920 0.654170 -0.224423 0.210791 0.384138 -0.331839 -0.998096 -0.560952 -0.264024 0.218841 -0.379970 -0.697659 -0.725472 -1.112191 -0.331119 0.180644 0.207209 0.382864 -0.561882 -1.254870 0.362925 0.807517 0.273960 1.108639 -0.315503 -0.597226 -1.331893 0.319068 -0.036183 -0.342719 1.151984 0.858568 0.434566 -0.232837 -0.102051 -0.004662 0.134270 -0.549066 0.792630 -0.797416 0.591383 0.141700 -0.548775 0.114601 1.577726 -0.365248 -0.513014 -0.450001 -1.473577 0.653927 0.544264 0.350129 -0.127376 0.509011 0.907358 -0.213436 0.413272 -0.337578 0.333040 0.645683 0.289639 0.413259 0.631986 -0.071288 0.260303 0.770771 0.291022 -0.163915 0.221257 0.164697 -0.462464 1.266243 -0.938569 -0.152507 -0.235258 -0.971591 -0.884053 0.643974 -0.304881 0.448652 0.473460 -0.230743 -0.389979 -1.107978 -0.519988 0.406745 -0.330894 0.178321 -0.463165 -0.422244 0.468475 0.971305 1.063254
in 0.487675 0.863125 0.255890 0.374472 0.912962 -0.788209 0.187177 -0.356257 -1.183239 0.292159 -0.487827 -0.624399 -1.787924 -0.938246 -0.554459 -0.076993 -1.099614 -0.198067 0.585217 0.158943 -0.470068 0.629159 -1.552968 0.377237 0.964938 -1.322149 0.134077 -0.295035 -0.969995 0.200353 0.478739 -0.842314 -0.024546 -0.135634 -0.663131 0.591472 1.507439 -1.458520 0.325001 -0.911328 -0.613859 0.485613 2.050978 0.603713 0.660695 -0.117311 -1.269543 0.020919 -1.539572 0.037396 0.873632 0.304436 -0.042535 -0.367579 -1.024077 1.063021 -0.092715 0.569063 0.937280 -0.542136 -0.181723 0.008773 -0.507830 -0.305116 0.869347 -1.318499 -0.933561 -0.576412 -0.737552 -1.276080 -0.892123 1.879395 0.067492 -0.398099 -0.878670 -1.004872 0.930266 0.149140 0.393529 -0.790629 2.181317 -0.830736 -0.396947 0.162033 -0.759132 -0.731329 -0.511117 -0.209275 0.968621 1.138353 -0.981979 -0.517357 0.476496 -0.031468 0.175602 -1.030316 -0.794531 0.525495 -0.046199 0.072404
a -0.590796 0.411866 -1.017124 -0.206457 -0.754495 -0.259863 0.255973 1.161700 1.215681 -0.314375 -0.882195 -0.023592 0.871413 0.331794 2.620995 0.909628 1.394813 -0.323793 -0.282323 -0.482324 -0.011834 -1.522648 1.462160 0.006655 -0.046904 1.450622 0.755270 0.304771 -0.144097 -0.566635 -2.169989 1.181340 -1.031505 0.454765 0.279243 -0.722867 1.369005 -0.899643 -0.940877 -1.560438 0.367044 -0.769617 0.085114 -0.016277 -0.658056 1.486818 0.247745 0.057274 0.450369 -1.110860 -1.074575 0.034946 -1.116751 -0.206790 1.053323 0.438218 0.329086 1.029996 1.089896 -1.538301 -1.264503 1.510804 0.353664 0.600833 1.131167 -0.979438 0.676644 -0.615340 0.159036 0.102160 0.480975 0.714703 -0.673631 0.394277 0.634749 1.236583 1.496105 1.025292 0.954949 -0.344965 2.577983 1.024426 -0.324036 0.527052 0.617501 -0.013234 -0.523244 1.133120 1.133867 0.574923 -1.048763 0.517520 -0.462488 0.136267 -0.503690 2.106402 -0.909927 -0.274281 -0.852610 0.488151
it 0.127942 0.816610 0.689108 0.564911 -0.144557 -0.072559 -0.830699 0.334180 0.849863 0.196287 0.186045 -1.080767 0.755503 0.674615 0.888408 0.105585 -1.106334 0.036940 0.457506 1.110592 -0.476525 -0.451247 -1.618778 -0.271604 -0.623017 0.608350 -0.124594 -1.189876 -1.290946 -0.369096 -0.729095 -0.099727 -0.718820 -0.731971 -0.065626 0.493309 -0.795339 0.745901 0.615770 0.166753 -0.633054 -1.467087 1.331561 0.500230 -0.688824 -0.208403 0.101703 -0.279728 0.900111 0.042524 0.813354 0.362902 -0.043910 -0.847770 -0.097550 1.244208 0.360878 0.829480 0.769200 -0.088012 -0.566582 0.761130 0.079115 -0.212169 0.302049 0.242963 -0.772303 0.020211 -0.002579 -0.067106 2.102634 -0.453543 0.246914 -0.220267 0.053976 0.470544 -0.214142 -0.139275 -1.488237 0.961574 -0.180002 0.312232 0.407121 0.398274 -0.456265 -0.416772 -1.579761 0.764291 0.217450 0.604542 -0.246122 1.884818 -1.889866 1.143726 0.832660 1.006448 1.244029 0.156444 -2.096904 -0.806053
which 0.231353 -0.883311 -0.039817 -1.205121 0.782933 -1.060654 -0.431261 0.196763 0.612786 -0.730508 -0.109931 -0.716883 0.208040 -0.744774 -0.564857 0.408170 -1.396549 -0.614118 1.639583 -0.105477 0.605780 -1.526782 -0.836549 0.186119 -0.366005 -0.674405 0.013234 0.574809 -0.384372 0.951839 -0.737408 1.366806 -0.390764 -0.365661 1.292183 -0.139566 0.007179 0.749887 1.193064 -0.794011 1.106303 0.284637 0.424702 1.145692 -0.242134 0.611465 0.779905 0.523330 0.106784 -0.734118 1.063788 -0.185186 0.879101 0.812316 -0.666466 1.019871 0.792790 0.438828 0.674323 0.615847 -0.326616 -0.700897 0.103827 0.346195 -1.401630 0.033560 -1.368890 -1.568665 1.520320 0.746388 -1.212365 -0.635511 0.341481 -0.601142 0.151809 -0.417083 -0.317322 0.409022 -0.977077 -0.090900 0.576495 1.523224 0.170569 -0.605850 -0.101767 0.666585 -0.168097 0.288255 0.323273 -0.882888 -1.463727 -0.645011 -0.395187 0.479898 1.122792 -0.522970 -0.224793 -0.164251 -0.056890 -0.747117
is -1.329352 0.480677 0.722696 -0.302947 0.901910 -0.173384 -1.014622 0.470425 0.723920 0.396541 -0.919022 -0.615307 -0.384350 -0.107990 -0.484651 0.377275 1.309634 -0.387428 0.171022 -1.582592 -0.577824 -0.978120 -0.924660 -0.842243 0.327372 -0.276064 0.596667 1.829615 1.168429 0.973644 -0.988952 -1.671311 0.409873 0.228515 -0.696713 -0.135362 0.284706 -1.681921 -0.814478 1.276430 1.466532 1.001497 -2.133444 0.333493 -0.759908 0.196476 0.576772 0.560760 -0.727970 1.156978 0.248352 0.694354 -0.527514 -0.423013 1.998947 1.997373 -1.476670 -0.329033 -1.091469 -1.004554 -0.788386 0.913254 1.841762 -0.507770 1.578206 1.514690 -0.093748 0.119715 0.386421 -1.613546 0.212769 -0.000684 -0.245134 -0.007669 0.163542 0.006774 0.140593 -0.013846 1.053683 0.057862 -0.940494 -0.191507 1.417092 0.063230 0.345757 -2.020527 0.446381 -1.268493 -1.539882 0.128647 -0.778800 0.506587 -0.256312 1.601899 -1.471031 0.270896 -0.258599 0.398020 -1.434269 -0.262239
be 0.067918 -0.488852 -0.080636 0.566406 1.193478 1.072181 0.299094 1.375937 1.138638 1.952417 -1.171056 0.116711 -0.460882 0.590724 -1.621427 0.014276 -1.000048 -0.108243 0.441962 -0.538373 -0.404013 -1.713178 -2.069357 0.192834 -1.174787 -0.518967 -1.285327 0.678831 -1.505790 1.093405 -1.727819 -1.525563 -0.240645 -0.602387 -0.407982 1.094177 -0.120113 -0.666474 -1.690988 -0.407578 2.247633 -1.670579 -3.029298 -0.385928 -1.383358 1.160011 0.607209 -1.267613 0.261411 -0.752505 2.040332 -0.514367 2.029088 -0.909597 0.204270 2.490565 0.483385 0.989020 -2.433544 0.395300 -0.634599 1.445532 0.013374 0.082223 1.091962 -1.268928 -0.972307 0.647780 0.697737 -0.328710 2.585297 -1.494152 -0.853175 -0.988477 0.332113 0.558462 0.641034 0.550588 -0.704325 2.796063 -0.292553 0.875169 -0.084947 -0.145761 -0.232580 -0.515982 -0.912144 -1.210299 -0.281261 0.915880 -2.646352 0.461586 -2.497336 -0.139880 0.109270 -0.406631 0.937542 2.031020 -0.791223 -1.357136
that 0.226286 0.608403 -0.148284 -0.727635 -0.702265 -0.458036 0.638574 0.091330 0.584251 0.918919 0.001951 0.055994 0.561775 0.116252 1.392948 0.599681 -1.476395 -0.275950 0.091420 0.688527 -1.022798 -0.301435 -0.444224 0.572084 -0.127625 -0.470233 -0.273564 -0.138136 -0.932478 0.755760 0.197192 1.092920 -0.270810 0.573348 0.698479 -0.276632 -0.526685 0.466694 0.317549 -1.491438 -0.232102 -0.653578 -0.167286 1.097652 -0.520647 -0.387520 1.112078 -0.000711 0.672188 -0.295484 0.369762 -0.325087 0.212393 -0.155972 -0.604947 0.415505 0.501861 0.544812 0.080745 -0.500360 -0.558691 0.825918 0.564150 -1.147548 0.279748 -0.256285 -1.064401 -0.875878 0.448174 -0.514083 0.547801 0.158906 -0.248200 0.726951 0.293511 0.031772 1.362770 0.022378 -0.458014 0.187178 0.083847 0.066109 -0.740650 0.826123 -0.658352 -0.356612 -0.172629 -0.861618 0.195944 0.427807 -0.750443 0.635216 0.534707 0.457726 -0.111967 0.165358 -0.148722 -0.016501 -0.699421 -1.043653
or -0.298010 0.892244 -2.234063 -0.478212 1.035117 -1.342872 0.688065 0.995006 -1.270724 0.690114 0.051231 -0.918041 0.199424 -1.375553 0.274380 -0.596187 -1.193070 -0.538395 -0.713761 -1.223102 -0.197059 -0.834971 1.103853 0.499610 1.239909 1.132140 -1.547462 -1.242792 0.836966 -0.457366 -0.969750 -0.082757 0.055083 0.143755 1.340360 0.283478 -0.389666 0.098771 -1.327713 1.505259 -1.610801 0.465164 -1.133550 0.203141 -0.870032 0.286376 -0.767677 -0.591004 0.435464 0.404351 -0.341417 0.497226 -1.104587 -0.940463 1.005904 -0.297477 -1.197656 0.772632 -0.124604 0.133351 1.018633 -0.381525 0.036812 0.641573 0.262588 0.225725 -0.178370 -0.568252 -2.274240 -1.177154 -0.790004 2.015803 -0.916699 -0.264577 -1.131373 -0.097250 -0.511572 -0.762216 0.162585 0.383846 0.546696 0.629720 -1.021629 -1.571633 -0.597143 -0.203007 -0.163304 -0.076570 1.614654 0.424802 -0.020130 0.047812 -1.012488 -1.673187 -1.151632 -0.160667 0.532517 -0.594303 1.203469 1.208916
as -0.612576 0.261573 -0.057050 -1.649984 -0.791070 -0.326045 0.930120 -0.036134 0.209165 -0.077419 -0.565264 -2.122072 0.155609 0.419801 -0.941437 1.158838 -1.731431 1.025383 2.180599 -0.631666 0.728628 -0.545853 -1.455680 -1.015752 0.317676 0.920994 -0.174605 0.919348 0.016034 1.533301 0.868146 0.593132 -2.182838 -1.029804 0.438346 -0.698778 0.098873 0.004480 1.680413 -0.696770 -0.237708 -1.251303 -2.067534 -0.212610 0.240950 0.426828 0.509151 -1.190996 -0.483200 1.870164 2.547788 -0.268625 -0.478071 -0.884918 1.150945 -0.232565 0.670868 -0.180756 -0.114013 -1.062185 0.383678 -0.524467 -1.011463 -0.607041 2.134173 1.838764 -1.695889 0.402786 -0.124948 -0.066558 -0.647581 -0.127237 -0.177593 0.696999 -0.390917 0.791251 0.861299 -0.285170 -0.309821 0.853038 0.968449 0.532831 -1.090878 0.471751 0.548666 1.448006 -0.210245 0.546954 -0.057440 1.622723 -0.614414 -0.498626 0.709273 -1.942055 1.992697 -0.601639 -1.442415 1.100054 -0.813209 1.663560
for 1.275663 0.406153 1.244604 0.246353 1.396766 0.703825 -0.352490 -0.086183 0.010795 1.356407 -0.450354 -0.317951 0.843442 0.451624 1.410078 -1.041784 -0.586608 -0.496421 1.427019 0.660116 -2.336045 -2.079742 1.341289 1.219871 -1.005201 1.676646 0.383431 2.713056 0.718718 -0.793345 0.863022 -0.687041 -1.253228 -0.444604 1.574949 -0.365205 -1.527598 0.437800 1.415063 0.349529 -1.282901 0.145255 0.500267 -0.893525 0.921744 -1.729093 -1.984972 0.064361 -0.891807 0.019884 -0.758431 -0.505130 -0.244073 0.646490 0.588016 2.142464 0.126912 3.384848 -1.364831 0.089870 0.136163 -0.886249 0.251998 0.091754 -1.138724 -0.518035 -0.340185 -1.628572 -0.418264 -0.641201 -0.882788 1.081244 1.093973 -2.247942 -1.320063 -1.043142 0.188117 0.817032 1.069479 -0.861892 1.370580 0.545741 0.197061 1.073588 -0.390193 1.876682 0.977471 1.592434 -2.469593 0.604338 -0.150218 0.416309 0.782528 -0.625594 -1.597839 0.580437 -0.044411 0.252356 -0.497102 1.026634
by -0.669507 -0.450720 0.360141 -0.545642 0.845077 1.259120 0.624081 1.740989 -0.026397 0.693434 -0.465740 0.222497 -1.145739 -0.222921 1.211085 -0.053556 -1.093537 -0.312074 1.136223 2.346179 0.814087 0.134625 0.278597 -0.450722 0.802638 -0.510175 0.037987 1.780486 0.105019 -0.841009 1.530339 -1.023595 0.347567 1.308864 -0.714587 0.139821 1.150011 1.014748 -0.051469 0.777193 0.119439 1.393178 -0.243010 0.114680 0.673797 -0.316433 -0.743597 -1.699743 0.219735 0.085890 0.462324 -0.576632 -0.444806 -0.742309 -0.457271 0.157026 -1.057806 -0.587925 0.020041 -0.619811 -0.400132 -0.535604 -0.273140 2.488731 0.625530 -0.926256 0.946753 0.731550 -0.050760 0.129881 -0.653282 -0.720979 -0.692049 -1.672316 0.272857 -1.714108 -1.274879 0.275851 -0.688967 2.589264 -0.263513 1.474372 0.644715 -0.534678 -1.057243 -0.150262 -0.659632 0.205788 0.000802 0.217135 1.140483 0.094101 0.783604 0.103310 -0.601016 -0.245666 -0.714684 0.385018 -0.630643 0.118853
their -0.130259 -1.130200 -1.969988 -0.307816 -0.737461 0.183527 0.711577 0.141241 -1.262544 -1.076215 0.437910 -0.148419 0.297609 -1.445739 -1.165270 0.677526 -0.354539 1.714738 -0.419248 0.869240 -1.059717 0.830107 -0.316058 0.425723 -0.293612 -0.505115 2.029916 -1.805588 -0.966332 -0.804270 -0.995802 -0.962565 0.427022 1.353318 0.848146 -1.012833 -0.349099 1.343050 2.672599 -0.866046 1.790452 -0.978089 -1.798813 0.263484 -0.573039 -1.477319 -0.460919 -0.243829 -0.207046 0.993555 -0.651488 0.936653 -1.577368 -1.088642 -0.308639 -1.897029 0.146960 0.437505 1.030868 0.963456 0.055738 -0.318626 0.061808 0.858893 -0.738041 -0.122360 0.008119 -0.040138 0.153351 0.296776 0.651898 -0.964350 1.570563 0.969361 -1.021432 1.126095 -0.448772 -0.760746 1.612797 -0.971036 -0.160036 -0.096455 0.056389 -1.599291 -1.824517 2.311626 1.533662 0.986105 0.678371 -0.314337 0.650082 -0.710556 0.496188 0.041404 0.892989 -0.743927 1.863122 -1.262597 -0.201511 0.044938
this -0.259345 0.765724 0.550425 0.612387 -0.270721 -1.878707 1.118451 0.914050 -0.858891 0.605309 1.889871 0.564508 -1.683298 -0.221381 1.341399 0.309883 -1.287018 0.192785 1.145719 1.259842 1.266198 -0.567212 0.341403 0.458237 -0.009018 -0.210434 1.110162 0.514270 -1.815449 0.493806 -1.156678 -0.591216 -0.133657 2.326031 -0.035725 -1.318939 0.829471 -0.498216 0.566754 -1.875523 0.046636 -0.378162 0.916436 1.160074 0.609181 -0.541594 1.916026 0.812012 0.556597 -0.655339 0.354591 0.589043 0.222015 -0.001529 -1.832535 -0.862458 1.071476 2.603820 0.411458 -1.182217 0.426957 0.695026 0.966140 -1.578157 -0.244021 -0.984326 -1.030163 -0.564780 0.280396 0.069956 0.911976 -0.452780 -1.051830 -0.321282 0.162088 1.666181 -0.014336 0.243414 0.515058 -0.288371 0.286950 0.919711 0.587455 0.950045 -0.579551 -0.498656 0.876939 0.246737 1.256076 0.996072 0.221524 0.850290 -3.000462 -0.288767 0.626995 1.005491 -0.627298 0.510047 -0.291712 -2.145054
not 1.326163 -1.455709 0.223555 0.055002 -1.280666 -1.131081 -0.964544 1.712330 -0.793832 -1.374882 1.823887 -1.815792 1.391207 0.304542 2.177319 1.356400 -1.300791 1.909411 0.812140 1.250148 -1.431033 -0.828155 -0.170135 -0.150588 -0.127906 -1.147225 0.570402 -2.352499 -1.497345 -0.833194 1.559162 -0.849062 -0.829011 -0.018156 -0.420724 0.065695 0.884032 1.164858 1.322134 -0.845441 -1.053177 -0.265434 -1.241860 0.881612 -0.449827 1.750688 0.997767 -0.085180 1.153677 0.178367 0.279071 -1.300630 -0.332197 1.507890 1.185781 2.812405 -1.133375 0.266508 1.922328 -1.692900 0.547210 -0.175806 -0.694694 1.191156 -0.104651 1.381912 1.133592 -2.490052 0.119240 -0.596208 0.725220 -1.122235 0.275111 -0.047830 0.483218 1.185629 1.259968 -1.907967 -1.491403 1.381913 -1.393393 -0.438773 0.871322 1.248626 0.446049 -0.080012 -0.877674 0.132405 0.989778 -1.046841 1.533522 -0.146738 -1.571282 0.813536 1.319289 -0.685971 0.842357 1.432689 -0.262013 1.051568
are -2.043820 -0.352486 0.649314 -0.712183 0.405042 0.481006 -0.047764 -0.106907 -0.323390 1.313248 2.165046 -0.226645 -0.922614 1.221762 -1.816406 0.158245 1.691495 2.354813 -0.453426 -0.489822 -1.662253 -0.351884 -2.778050 0.101476 -1.348133 -0.350452 -0.956142 1.290325 1.298640 -0.106563 0.541068 -1.403867 0.764063 0.397334 -1.352341 0.518849 0.362398 -0.223308 -0.948078 0.594825 1.392446 0.743672 -2.507781 -2.036437 0.161123 0.248537 -1.311946 0.092750 -0.426569 0.317472 0.186421 2.480787 2.726539 -1.444372 0.880753 0.836426 -0.693621 -1.326690 -1.818603 -1.807655 -0.816894 0.464185 1.017414 1.249605 -0.066717 1.492822 -0.616447 1.110753 0.872298 -1.803183 -0.568958 -1.387007 0.081832 0.022984 -1.159475 -0.074308 -1.323259 1.065735 2.181432 -0.049665 -0.778176 0.533691 1.130410 -2.058913 1.650498 -0.093754 0.760998 -2.123117 -0.400566 0.381697 -0.024682 -0.376897 0.522368 2.956680 -2.788457 -1.488072 0.070564 -1.452665 -0.807522 0.994402
they 0.717481 -1.842523 -0.611350 -0.029356 -1.027582 0.615636 -0.544206 1.353434 0.307283 -1.087636 2.113652 -0.345862 -0.411096 -0.160133 -1.081324 -0.627850 0.843821 0.721584 -1.137992 1.158285 -1.006950 -0.405043 0.152586 -0.077723 -1.839401 -0.526823 0.372758 -0.757579 -0.629325 -1.744793 -0.302441 -2.747210 -1.636955 -1.343177 -0.040874 1.418426 -0.442174 -0.412477 1.372045 0.470843 0.681881 -1.597604 0.259694 -1.194640 -0.022416 1.109729 1.107200 0.862168 -0.646928 1.869036 1.194590 -0.505249 -1.090184 -1.689615 0.971665 1.360464 0.816573 0.209281 0.118994 0.666965 0.791286 -1.776394 0.115572 0.006080 0.073182 -0.692442 0.514112 1.684668 -0.797428 -0.333696 1.955125 -1.216030 1.668925 0.974903 0.478153 -1.063904 0.481168 0.131687 -1.150097 -1.513159 1.981912 -1.598357 0.734893 -0.585270 -0.348757 1.599383 0.456114 -0.706497 -0.020193 -0.206247 -0.065614 1.841567 -1.396452 -1.235711 0.083995 0.350763 0.819841 1.538899 0.034081 -0.711156
have 0.103189 -2.408352 -0.758245 -1.342842 0.694689 1.410152 -2.032289 -0.614742 0.677203 2.424009 1.162624 0.929787 0.000857 2.502719 -0.145424 -1.592015 -2.718499 -1.374674 0.141927 2.772209 -0.697287 1.331283 -1.606043 -1.860876 -1.461851 -0.104283 1.206322 0.670913 -3.187980 0.923970 0.221808 -0.685868 1.252368 -2.072627 -0.261155 1.289302 1.697982 -0.080750 -1.297352 -1.181686 1.970263 0.472451 -2.600742 -1.648827 -1.434868 -1.451115 -2.555498 -1.879350 1.531537 -0.865271 0.298206 1.019269 3.641293 -1.047563 -0.364906 -0.216197 0.835245 0.125763 -0.859848 -0.180364 -0.384771 1.662041 -0.221253 1.817556 1.773204 -2.989141 0.070292 -0.441110 1.603696 0.680773 0.775320 -0.895376 -1.097563 0.267910 -0.902174 0.156730 -0.823901 0.339747 -2.279827 1.663756 -2.158884 -1.339586 -0.460539 -0.863551 -2.483541 -1.573419 0.456708 -1.110499 -0.036083 0.726655 -1.131532 -0.386908 -1.295383 0.823364 0.150477 -1.236177 -1.041837 0.575988 1.206099 0.503085
upon 0.513400 -2.363150 1.819416 1.531297 1.617010 0.105851 2.064769 -0.020359 -0.780164 0.879498 1.290451 -2.047943 -0.581639 -2.047928 -0.668064 0.005343 0.655171 -0.401244 0.675404 0.729734 1.518444 -0.764557 0.778198 0.153305 2.471762 -1.976762 0.706801 0.935482 0.558372 1.058734 1.517048 -2.982512 -0.025940 -1.089340 -1.697476 1.036863 0.114915 0.848529 0.464804 -0.662871 -0.234285 1.225549 -0.288632 -1.095145 1.363862 0.154401 -0.398703 -1.035849 2.525528 2.306854 -0.751141 0.029578 0.992030 -0.523415 0.661041 0.173792 0.078190 0.360684 0.464123 0.435781 0.322628 -0.374787 -0.112321 1.572166 -0.078874 0.567310 0.708162 -0.742789 0.978954 -1.353500 0.661678 -0.751454 -0.769057 -1.994805 1.130333 -0.273080 -0.643744 0.260527 -0.038515 0.407961 -0.365701 1.873083 -0.937141 0.687470 1.163314 1.765387 -1.993242 0.225954 -0.437783 2.155771 1.309023 -0.827714 1.357588 -1.398601 -2.177612 0.896535 -0.794802 -0.684369 1.587476 -0.566135
from 0.812311 -0.164698 0.901742 -0.908142 0.555143 1.184065 1.547433 1.709109 0.042208 -1.866189 -1.767794 -0.807492 0.121485 -0.223282 1.903066 0.055146 -0.269056 0.046381 0.015147 1.198270 -0.520332 -0.649025 -0.252914 -1.045742 2.026202 -2.436644 0.192544 1.147755 1.190308 -0.586388 1.705279 -1.195783 -1.076340 -1.936628 0.036045 0.757534 0.832998 0.532457 0.084130 1.351082 0.685372 1.090603 0.090019 -0.981926 1.497293 -0.544329 -0.438988 -0.753486 0.079155 -1.033102 -2.705916 -0.566651 -0.974658 -0.833856 0.455913 0.328688 -1.896998 -0.445663 0.173399 0.403136 -0.772617 -0.845939 -0.065526 -0.039873 0.565405 0.653228 -0.098393 -0.468557 0.074060 -0.136555 -0.120774 -0.380525 1.276263 -2.756260 -0.476490 -2.470508 0.142653 -0.144706 -0.765450 1.189111 1.069506 -0.789358 -1.278492 1.223203 0.297478 0.106311 -1.284096 -0.118245 0.588619 -0.299961 0.275800 0.170572 -0.201434 -0.765298 0.187610 -0.835551 -2.226215 -0.692238 -1.578575 -1.002864
but 0.626508 0.896123 -0.792549 -0.750458 0.330563 -1.249001 -1.066108 0.258348 0.893041 -0.874585 -0.265818 -0.382435 0.776255 -0.017820 -0.925522 0.407826 -0.305404 0.812294 -0.666605 0.442233 -0.717989 -0.580795 0.131049 -0.502457 0.714800 0.363840 0.334081 -0.071153 -0.861560 1.691662 0.521569 -0.576833 -1.414314 0.551559 0.793679 -0.379683 0.193047 -0.068021 0.329395 0.734686 0.078773 0.409518 -0.668012 -0.061128 -0.420653 0.989968 -1.135348 0.095361 -0.616419 0.198191 0.053561 0.123675 -0.627903 1.319129 0.663306 -0.379954 -0.029836 0.233039 1.365318 -0.527819 0.501876 0.619092 0.960078 1.427791 0.414259 -0.015906 0.735528 -0.687548 -0.433570 0.214605 -0.424605 -0.508971 0.953217 -0.822707 -0.945000 -0.281116 -0.424082 0.511821 -0.815366 0.024224 0.881011 0.399076 -0.824781 0.515263 0.778358 0.167186 0.183273 0.836976 -0.509808 -0.011162 -0.694580 0.446810 0.121171 0.610047 -0.207074 -0.417898 0.953191 0.656964 -0.766149 0.011327
those 0.383992 0.066789 -1.035533 0.226693 -0.793909 0.190659 1.125662 -0.056516 -0.953268 -0.505519 1.609609 -0.283481 -0.177533 -0.523789 -2.032051 -0.684715 0.315222 0.221971 -0.620188 0.693212 -1.025752 1.401954 0.888889 1.617367 -1.053315 -0.832018 -0.492678 -2.129662 0.288768 0.132272 -0.200451 -1.401722 1.424740 -0.810300 -0.268668 0.550919 1.772677 0.432006 0.460329 -0.814686 -0.107244 -0.004802 0.208700 -0.622168 -0.420813 -0.527952 -0.644202 -0.827818 -0.129560 1.146196 -0.101973 2.530217 0.770920 -1.753358 -2.381109 0.069487 -0.292374 -0.121548 0.241864 -1.071623 -0.792872 0.484276 1.240595 -0.025066 -0.063714 -0.810048 0.636246 -0.165535 0.079033 -0.156706 0.919633 -0.535114 -0.132784 -0.179633 -1.374363 -0.468958 0.219327 -0.161542 -1.588986 -0.598628 0.703631 0.296726 2.556971 -1.024099 -0.540303 2.147534 0.338333 -1.591616 -1.143386 -0.213403 0.261633 -2.282494 -0.969074 0.711243 0.433636 -0.206280 1.072462 -2.321767 0.572385 -0.090619
than 1.376994 1.029756 -1.312877 -2.503010 0.468339 -1.783491 -1.746310 0.620751 0.009764 1.695851 -1.600515 -0.684061 1.878292 0.559722 -1.824501 0.868897 -1.045060 0.703988 -0.231813 -1.017676 -0.323728 0.097354 -0.899343 0.718774 0.996226 1.108640 -1.696115 -0.397507 0.047945 0.561631 0.424060 -1.893081 -0.738986 -1.090318 1.436723 0.442404 -0.358744 -1.432907 -1.515495 -0.558751 -2.308895 1.638030 0.695362 -0.448658 -0.825170 -0.753871 -0.033516 0.714977 0.514564 -1.201305 -0.532832 2.674815 -0.292893 0.118644 3.058414 1.348922 -1.453856 1.660428 1.871804 1.121091 2.970871 0.210732 2.277823 2.624079 0.362695 0.705302 0.295302 0.068181 -0.460768 -0.647891 -0.461212 -0.144037 -3.398970 2.609437 -0.301751 -1.428361 0.738629 0.328942 0.560127 1.146323 -0.597875 -0.924635 -0.732261 -0.842077 0.130978 0.646091 0.340809 1.230799 1.669358 1.068695 0.921113 1.228557 -2.097316 -2.388320 0.919227 -2.162744 1.771057 -0.966523 0.939923 1.752694
all -0.287970 -1.082167 -0.116152 0.044192 -0.306334 -0.960003 0.930011 0.805485 -1.072742 -0.130901 -0.459431 -0.863360 -0.687266 0.248465 -2.010769 -1.435638 -0.127385 0.758825 -0.197447 0.182632 0.052058 -0.056488 -0.576964 0.204013 -0.540392 -1.137345 1.743413 0.428357 0.174008 0.454365 0.913348 -0.558659 0.190946 -1.477570 0.697785 2.218715 -1.241212 1.162342 -0.094421 -0.198209 1.141329 -0.416539 0.396389 -0.752602 -0.946426 -1.216928 0.760556 0.231710 0.238372 -0.894626 -0.691393 0.994285 -0.077383 0.358195 -1.132304 0.510881 0.928843 -0.894079 0.363502 0.745781 -0.413184 -0.285820 1.069229 -0.694325 1.128587 1.203610 -1.868004 -0.466058 0.074943 1.447248 -0.529039 0.300967 0.405040 -0.822270 0.591254 -1.141195 -0.140765 0.768869 -0.380906 -0.047508 -0.463768 0.501652 1.562265 -2.187511 2.630273 0.257553 -0.018331 0.882583 -0.742036 -0.638379 0.025428 -1.474094 -0.291184 0.906322 1.675298 -1.368918 -0.346552 -0.830246 1.075182 0.140209
with -0.122119 0.037842 -1.095675 -1.726437 -1.359968 1.250207 -1.389699 0.208757 -0.655999 -0.669555 -1.804981 -0.952080 -0.630345 0.535565 -0.303899 0.567137 -0.693814 0.354391 1.149581 1.844780 -0.122659 -0.578874 0.645203 1.506839 -1.169592 -2.513247 -0.773327 1.194537 0.703281 -0.270701 1.714407 -1.442661 -1.267563 -1.990452 -0.676610 -0.188480 -1.927152 0.514544 0.484767 1.179616 2.023171 1.676779 1.073014 0.394488 -0.315390 -0.046605 -1.351122 0.044089 0.270667 0.025984 0.075844 0.311444 -1.045358 0.176489 -0.596394 -1.325654 -0.980886 0.067646 0.826981 0.312757 -1.393925 -0.639832 -0.619625 0.350874 -0.934323 -0.684611 0.520726 -0.394887 1.112786 0.178324 -0.665279 1.306417 -1.724777 -0.860450 -0.183496 -1.611601 -0.891361 0.749670 -0.971617 -0.638491 -0.228153 -0.528853 0.395147 -0.995118 -0.863342 0.459102 0.922186 0.899413 -0.538046 1.563970 0.923395 0.307730 1.203392 -0.668323 0.010768 -0.911369 -0.958201 0.182097 1.962820 0.475525
at 0.452436 -0.788190 0.085612 -0.026473 -0.870452 1.254504 0.984423 -0.639227 1.090909 0.900508 0.125959 1.100200 0.782389 -0.519998 0.227975 3.125082 -0.791509 -1.546992 -1.221140 0.231330 0.251056 -2.524329 -1.993483 0.165644 1.511477 -2.783575 0.160819 0.475369 0.725903 -0.060266 1.824934 -0.161101 0.646760 -0.588992 0.585513 2.127035 -0.500772 -1.631463 -1.396321 -2.002864 -1.378717 -0.603150 1.397970 0.887879 -0.129855 -0.903748 -1.398499 0.517590 -0.494452 0.685817 -0.951849 0.582474 -0.236514 -0.850365 -0.768357 0.071699 -1.892569 1.238763 -0.687329 -0.579346 -0.514245 -1.519977 1.332968 -1.387221 0.335832 -1.907358 1.050899 -0.204046 -0.824920 -2.132252 1.079241 -1.319100 2.310637 -1.544577 -1.134229 -0.859875 1.303520 -0.528279 -1.903716 -0.399024 -0.342310 -1.786428 -1.742040 1.073853 -1.591354 1.798181 -1.634944 -0.503877 -0.652272 2.604510 -1.835614 0.765858 0.435608 -0.949159 -0.162757 -0.409356 0.753320 0.560496 -2.530406 2.081183
more 1.192788 0.915549 0.194849 1.798491 -0.258237 -1.767218 -1.101372 -0.846705 0.520227 0.577843 0.501895 -0.587429 0.736663 0.678752 0.003566 0.314725 -1.061131 -0.933812 0.064917 1.164596 -0.356345 -1.470870 -0.608882 -1.117712 -2.388929 -2.053500 -0.865617 -2.261348 0.134611 1.143955 -1.688832 -1.437775 0.829727 -1.658197 1.014284 0.535410 -0.381694 0.068065 0.694213 0.217909 -2.354245 0.763103 0.289392 -1.963586 2.208806 1.173676 1.334662 0.399795 -1.005535 -1.424980 2.306783 0.075646 -0.804829 -0.887107 1.245371 0.678419 0.113341 0.635697 -0.830636 0.505925 -0.572033 0.143163 -0.083148 -0.260051 0.548561 -1.724921 1.359932 0.648970 0.312869 1.903552 -0.309848 -0.228475 -2.118618 1.834977 0.955869 -1.883406 0.387401 -1.521549 -0.637601 0.331701 -1.389546 0.138432 0.088591 0.236736 -0.536927 0.944488 1.203452 0.452633 1.034616 1.474823 -0.179422 -0.349190 0.357924 0.487230 -0.054395 -0.624880 0.268357 -0.026650 -1.527520 0.333347
was -1.538522 -1.111554 0.275915 0.451487 1.602931 -0.238884 -1.255751 -0.052167 0.812841 0.439463 -0.962998 -0.022449 0.683748 0.743009 -0.414335 0.102406 2.046304 -0.658172 -0.485917 -1.487948 -0.022541 0.568036 -0.111279 -0.286332 0.821487 0.783884 1.059086 2.979720 1.211297 0.512244 0.430127 -2.071768 1.196060 1.618428 0.444411 0.001433 1.289497 -3.019409 -0.341880 0.791515 0.953640 -0.520769 -2.144208 0.557561 0.150582 -0.657982 -0.620303 -0.655277 -1.195691 0.584639 0.625619 0.860343 0.687746 0.517605 2.421419 1.654862 -1.117857 -0.645465 -1.233955 0.138318 0.065598 1.049554 1.838926 -0.712084 2.657825 1.119374 0.397135 0.317306 0.410885 -2.111511 0.368143 0.236321 0.662473 -0.036409 -0.900791 0.113621 0.497250 0.387476 1.409551 0.027655 -1.698976 0.869571 -0.562359 0.650456 0.102123 -0.875819 0.192045 -2.366790 -1.009738 -0.008840 0.433165 1.274762 -0.481458 1.263969 -1.362379 0.087312 -0.617697 1.320547 -1.512321 -0.938852
been -1.272125 -0.090175 1.392188 -1.351054 1.347379 -1.146844 -0.081782 -0.276243 1.397788 -1.646423 -0.210518 -1.060070 0.283079 2.851997 -3.523428 -0.327639 1.962212 -0.823845 -0.554502 -1.277816 0.481250 -0.452094 -2.027650 0.772288 1.529771 0.759671 0.226727 1.134369 1.099610 -0.291770 -0.173639 -1.344790 -0.983674 0.635635 -1.066314 3.188884 1.718459 -0.752239 0.422297 0.294825 0.798512 -2.197645 -2.471295 -0.873850 0.908750 0.132331 0.805338 -2.989615 -0.243748 -0.255442 1.475005 -0.594232 1.344627 -0.045414 -0.530047 3.906622 0.954861 1.649724 -1.531614 2.252483 -1.141282 2.083609 1.233966 0.359203 1.671909 -0.543313 0.510208 -1.536125 1.673892 -2.194251 2.182333 0.928233 1.120052 0.409886 0.958790 -0.192191 -0.764774 0.037138 0.631115 -1.043404 -1.205883 1.022784 -0.445752 -0.961725 0.304203 0.873769 -0.735298 0.057443 0.680934 0.595305 0.925439 1.280581 -2.465395 0.414499 0.057852 0.401073 2.002948 0.389800 1.506501 -1.486112
any -0.547525 -0.021578 -2.913912 0.036678 -2.204617 -1.155546 1.566185 -0.379939 0.895286 0.769026 -1.604376 0.771755 0.329350 0.886899 1.315407 -1.723229 1.268234 0.123474 -0.649278 1.758916 0.005087 -1.157937 0.938109 -0.285415 -1.155629 0.889440 -0.222955 0.696776 -1.107580 -0.037591 -0.953680 1.251762 0.140045 0.577682 1.661857 -0.050655 -1.567397 -0.328332 -1.095149 -0.391125 -1.874632 0.041984 -0.897072 0.896094 -0.493933 0.780832 1.516679 0.439309 -0.408086 -0.553387 0.705719 -1.270151 -1.088170 -1.340287 -1.257010 -0.388077 0.695652 0.084178 1.201718 0.043990 0.156486 1.621674 1.621511 -0.472191 3.142208 -1.867384 -0.674380 -1.956836 1.031227 1.437275 0.852271 0.718432 -0.730767 0.330164 0.083427 -0.104155 1.091701 -0.738510 -2.993901 -0.272019 1.621168 1.033086 -0.714950 -0.816844 2.769858 -0.254266 1.490363 0.663606 1.679793 1.206092 0.380798 1.537707 -0.417245 -0.711130 -0.669323 2.166032 -0.316638 -1.815399 -0.605784 -2.724727
great 1.898363 1.991061 1.432861 0.641789 -2.110726 0.629612 -0.591776 -0.816152 1.027556 -1.904395 0.705930 -1.862850 2.638008 -1.860220 0.168780 0.937505 0.570993 -0.465185 -1.012588 -0.085034 -2.257845 0.394585 -1.533103 0.324194 -0.678586 -0.056918 0.506877 1.767726 0.462277 0.135671 -0.864349 2.198037 0.139034 -0.366226 -0.273307 -0.797638 0.133489 0.394759 -0.414911 -1.807999 -0.546247 2.066935 0.668820 -0.382790 0.173623 0.908606 0.191316 -2.116123 1.094727 1.620901 -1.241152 0.966323 0.606147 -1.887134 -0.810145 0.715032 2.505114 -1.260315 -0.373676 2.150058 -0.618295 -0.685662 -0.156735 1.130976 0.699268 0.443144 0.622179 -0.368928 0.358713 0.430739 0.693927 -0.588656 0.789171 -1.177957 0.438277 -0.768091 0.614637 -1.180639 -1.939896 0.719307 3.456527 -0.797222 0.106243 -2.074003 -2.151313 0.028519 -0.998757 -0.812395 -0.902819 -1.321249 0.229378 1.846410 0.936912 1.724860 0.294109 -0.099610 -1.220184 -0.512246 1.449968 -0.546944
them 0.576659 -1.028142 -0.568970 0.248653 -1.150567 -0.064417 -1.019611 -0.537316 0.283409 1.011492 -0.209107 0.060033 0.460344 0.382748 -1.533452 -0.088743 -0.540280 0.503499 0.906991 -0.214818 -1.616206 0.267895 -0.551997 0.599602 -1.544479 1.006537 0.163178 -1.472331 1.386752 -0.790626 -2.446713 0.309020 -0.896704 1.110720 1.175997 -0.162602 0.306156 0.286184 2.195175 0.951595 -0.633028 -2.034150 0.754563 0.329734 -0.209740 0.027859 -0.124224 -0.619537 1.109568 1.508892 -0.003100 1.121564 0.462870 -1.555143 -0.234026 0.383528 -0.277358 0.969497 1.482562 0.766374 -0.396333 1.038311 0.344063 -0.107383 -0.683880 0.176762 0.023571 0.271933 -0.861657 -0.118804 1.566706 -0.879721 0.953795 -0.639551 0.293562 -0.185174 -1.284750 0.715709 -0.398302 0.534666 -0.216301 -0.444546 0.830041 0.362330 -0.210453 1.378367 -0.669893 -0.234601 0.481215 -0.077405 0.136488 0.948130 -0.599229 0.024622 0.940787 -0.078330 0.488679 -0.203155 -0.351595 -0.875259
other 0.774135 0.094906 -0.800914 1.347316 -1.679344 1.398943 -0.301789 0.871891 0.267091 1.158937 1.202187 0.935077 -0.658679 0.902705 -0.921076 -0.733730 -1.242473 -1.069536 2.086515 -0.051437 0.384010 -0.624198 -0.053578 0.271754 1.069552 -0.720029 -0.350460 -1.472246 -0.952997 3.023490 -1.797141 -0.340405 1.219548 -0.807386 0.228063 -0.743516 0.488941 0.162696 0.442115 -0.091661 -1.193006 1.578592 -1.261055 -1.967327 0.926456 -0.400359 -0.760400 0.189403 -0.620073 0.650759 0.486641 0.503759 0.533829 -0.018360 -0.845904 0.710714 0.307427 -0.645232 0.415006 1.072143 -2.458114 1.950155 0.180654 -0.157056 -1.132979 1.086778 -1.848319 -0.855763 0.006711 -1.072715 -0.387490 0.907583 0.483476 -1.379944 -2.233681 -1.648903 -1.356565 0.206794 -0.087334 -0.663896 0.309701 0.736580 1.985457 0.667728 0.234742 2.575700 -1.071058 -1.285426 1.375968 0.157716 -0.406196 0.182368 -0.243230 -0.860911 0.360560 -2.704062 0.679121 -1.699903 0.411601 0.056486
his -0.264995 -0.810184 -2.736829 -0.304514 -1.735511 -0.665987 1.682273 0.338028 -0.968412 0.052613 -0.054979 -0.642065 0.335601 -2.100766 0.622730 1.237343 -1.049836 0.166272 1.156867 -2.287621 -0.835769 0.468062 0.712183 -1.623387 0.392720 -0.343497 2.980254 -1.162730 0.600424 -1.666618 -2.738673 -0.723568 0.748282 1.145641 0.561404 -1.110281 -0.625661 1.160982 1.703724 1.785887 1.276820 -0.652168 -0.642029 2.514530 -1.311812 -1.014392 0.074730 0.677618 1.292934 0.151821 -0.332872 0.478141 -1.763115 -0.238506 0.421123 -2.584463 -0.445344 -1.341390 2.889443 1.598671 -0.718459 0.707133 -0.751065 0.430775 -0.758001 0.079069 -0.657990 -0.866109 -0.138119 -0.323579 3.188216 0.286315 1.253650 0.271683 0.300211 0.282742 -0.473852 -0.213853 0.700564 -0.976297 -0.034372 -0.123966 -1.034259 0.033685 -0.794569 1.033492 0.229489 3.149685 0.774964 0.844595 -1.892167 0.327138 0.499822 0.504947 0.697773 0.335721 1.525060 -1.349538 -1.515242 -0.169341
part 1.050508 -0.252944 0.007414 -0.913884 1.719239 2.297554 -1.766500 2.049472 1.666493 0.313347 -0.949692 0.038940 0.473957 -0.252650 1.155691 -1.063919 2.049197 -0.240050 1.450260 -0.326697 -0.984056 1.065879 -0.096048 -0.380679 0.658343 -2.495438 2.395787 0.943469 1.434695 1.341677 0.801300 -1.577795 -1.013660 0.164426 2.771834 2.505200 0.263042 -1.416516 -2.829252 1.470394 -0.559196 -0.467178 0.795259 -0.996231 0.125822 -0.680997 -0.855653 -0.185753 0.488176 1.193334 -1.735532 2.088875 0.407145 0.527641 0.331726 1.610627 0.285022 1.268461 0.402045 0.160085 -0.208747 1.225020 1.007757 -1.021302 -1.400081 0.258560 -1.079931 -1.254104 -2.499928 0.075312 -1.374974 0.351630 -1.780851 0.329487 0.265144 -0.549512 0.343979 0.018832 -1.473904 1.259304 0.978050 -1.331583 -0.488438 1.856975 -0.884367 0.453959 -0.872517 0.052893 0.971256 -1.390625 -1.286441 0.054221 -0.887280 -1.411827 2.106163 -2.585048 0.906181 -1.941185 1.021088 0.404525
he -0.745432 0.080818 -1.508920 0.667054 -1.126832 -0.615102 0.276447 1.778828 0.673323 0.225752 0.593839 -1.841829 0.011745 0.284720 0.320882 0.098159 -0.207164 -0.172299 1.827873 -1.457201 -1.125111 -1.777562 -0.034667 -2.066368 -0.068063 0.896739 0.841962 -0.499476 -0.239673 -1.308304 -2.133419 -2.707934 -1.773390 -1.330737 -1.089311 1.582777 -2.537966 -0.156016 0.271237 2.228405 -0.614321 -1.378914 1.862346 0.756758 -1.115076 0.865592 -0.314897 0.561499 0.059490 -1.021463 1.416314 -0.903752 -1.694021 0.335179 1.035401 0.172514 0.416527 -0.246544 1.749141 1.281971 0.110889 0.303032 -0.549690 -0.456214 -0.105482 -0.459103 -1.384861 -0.284535 -1.049427 -1.177197 4.596624 1.471995 1.032651 -0.241202 1.631940 -0.439745 -0.819425 0.749375 -0.940713 -0.911324 1.029949 -0.556218 -0.696246 0.415268 0.602586 0.938454 -1.396427 2.531426 -0.220514 0.856664 -1.771852 2.857890 -2.620063 0.617632 1.052904 1.622022 1.680774 0.211819 -2.131447 -1.622849
would -0.135936 -0.863061 1.081518 -1.516073 -1.285535 -1.271562 -3.123395 -2.640688 -0.184821 1.403695 0.420798 -0.424072 0.192111 0.605042 -0.635730 0.280478 2.063963 0.872014 -0.833906 -1.369654 -1.421018 0.174873 -0.726838 1.668270 -1.408723 -0.192031 1.637996 0.549662 2.008835 1.955070 0.977884 -0.463311 -1.291391 0.475883 0.756490 0.534165 1.035309 -2.007550 2.963264 2.263526 -0.106876 -0.083028 1.793060 0.353839 2.214790 -0.690940 -0.341216 1.843576 -1.679415 3.014497 -1.338633 1.150622 -0.219495 0.363104 2.208651 -1.103644 -1.325407 -0.508699 1.468357 0.562662 -1.753901 -1.281568 1.373715 -0.774594 2.162258 2.629809 2.097427 -0.420754 1.268913 -0.909929 -0.522288 0.058195 -1.796801 1.365536 0.104495 -1.537867 0.059391 -1.854023 0.109459 0.777262 -0.725438 -0.158032 -0.387792 0.803176 -0.907569 -0.938134 0.747290 -0.187047 0.498340 1.278305 2.852325 1.622676 -0.064858 0.464870 1.148922 0.656676 -0.539150 0.014470 1.189467 0.914350
price 0.505545 1.149340 -0.194838 -1.595537 -0.594629 -1.646840 -3.562507 0.298117 -2.332656 1.004202 -1.268780 0.073090 1.417398 0.908002 -1.037446 1.251281 0.303768 -1.229111 2.314300 1.144273 -0.922665 -1.384642 -2.035856 -0.024782 -0.681314 -1.392505 0.800359 -0.230876 0.058655 0.098570 0.413130 0.478319 -2.906731 -3.416760 1.056035 0.957935 0.953158 1.158682 0.386961 -0.291369 -3.399585 -1.798288 0.645937 -1.232341 1.184669 -1.859064 -1.513668 0.251485 2.575807 1.469394 1.170949 -0.672646 -0.125565 0.064467 -0.698330 1.596949 -0.483366 2.319603 -3.023827 0.297585 1.088836 0.811242 2.125859 0.037055 -0.505335 2.405144 1.125453 -2.056453 -3.385368 -3.418736 2.521753 1.904380 -1.635817 0.085161 -0.374020 1.966376 -0.317120 0.812049 -0.580565 0.510665 -1.625462 1.431833 1.455348 0.417363 1.465088 -1.661951 -0.761993 -0.250639 -0.045327 0.876276 -0.796237 0.454260 1.652055 -0.286801 1.313431 -0.635321 0.381638 1.247494 -2.361900 0.299408
so -1.296948 0.975364 -1.208484 0.130173 0.417141 -0.505673 -0.301257 1.582511 2.809667 -0.006454 -0.334638 -0.935475 0.055556 0.105988 0.385549 1.611535 -1.288952 1.315159 1.828053 1.387553 0.976026 -0.332758 -1.638844 -2.571686 0.617482 -0.012438 1.346552 -0.044832 -0.443807 1.642254 0.952552 0.373504 -1.724331 -1.507712 1.552562 -0.143119 1.260560 -0.730954 1.857769 -1.058253 -0.956942 -1.414065 -0.221287 -1.968100 0.352152 0.208055 0.520252 -1.208033 0.539490 0.975173 1.714130 0.040228 -1.774856 -0.617947 -0.364944 -0.769167 -0.469308 0.603350 0.477066 -0.655896 0.269704 1.116251 1.117387 0.086050 0.505844 1.796784 1.606457 2.335522 -0.394263 0.090572 1.220996 -2.504423 1.068704 0.288653 1.118183 0.014838 0.626118 -0.262172 -2.139439 0.546248 0.489406 -0.420403 0.118797 0.800859 0.769465 -0.248426 1.850212 1.954213 -0.564343 1.215564 -0.365545 -0.018105 -0.563916 1.699739 1.430107 -1.068376 -1.083558 1.543803 -1.274706 1.517406
country 1.171629 1.589821 -0.081475 -0.491777 -2.263368 -0.369401 -1.020693 1.612269 1.251217 0.999047 -0.679752 -0.074686 0.864235 -1.578978 -2.402261 0.667691 -0.302643 1.202364 1.471215 0.861451 -0.945300 0.553308 -1.813102 -0.069696 -0.012869 -0.530658 0.369822 0.556730 -0.856175 0.805415 -0.156345 -0.233073 0.794835 -1.873327 1.238779 0.315911 -0.797118 -0.104695 0.780359 0.973402 -0.308759 0.335865 -0.516090 -0.869321 -1.088670 0.099047 -1.068495 -1.153812 0.206935 0.316649 0.893178 0.474442 -0.580920 -2.436988 1.296138 1.772598 1.383977 1.428117 -1.218631 0.451840 -0.810904 1.116250 0.499701 -0.628360 -0.148747 0.831315 0.458890 -0.847470 0.283270 -1.392862 -0.276868 -1.771433 0.645820 1.149814 2.747898 -1.401039 -0.688932 -1.289017 -0.775508 -0.909211 1.450247 -0.671952 -0.115970 0.472074 -1.173197 -1.345838 -1.502764 0.209121 0.102663 -1.083135 0.012738 1.027486 0.665770 0.934976 1.227622 -0.855359 0.946673 -2.171106 -1.826672 -0.670366
very -0.837224 1.734876 0.300113 -1.281513 0.737171 -0.386512 -0.803505 1.639774 0.470367 -1.743771 0.332118 -2.317081 0.059015 -0.039654 -0.064746 1.844538 -1.353015 1.843670 0.918712 2.006128 2.072905 -0.099540 -1.241993 -2.139371 -1.712502 -0.777750 1.577567 -0.694438 -0.327212 0.684845 -1.278039 1.327524 -0.288300 -0.925299 -0.025251 -0.227650 0.295669 0.059399 -0.575031 -2.814095 0.245701 0.402847 0.310487 -1.211975 1.503054 1.313624 0.776978 -1.813944 -0.147818 0.079392 2.210043 -0.200576 -0.888857 -2.190517 0.435755 0.250945 -1.262196 1.098510 0.027374 -2.989776 -0.078897 0.107186 1.462580 -0.495438 1.387496 0.583614 1.247699 0.549815 0.962393 1.315416 -0.476804 -1.194854 -0.837448 1.174764 1.594866 0.055808 -0.546754 -0.500254 -2.835552 -0.032080 1.040485 -0.386611 -0.199760 0.942883 0.288887 1.147984 0.040877 0.828780 -0.622613 3.094894 -0.620161 -0.074767 0.405981 2.069362 2.053650 1.666587 -0.983958 0.820789 -1.076278 1.037384
one 0.035527 0.889524 -0.581139 0.664915 -1.184544 -0.845746 0.882144 1.816745 -0.259021 0.591079 -2.082822 -1.235780 0.964554 1.944440 1.008186 1.027259 -0.993602 -0.592325 0.365679 0.504886 -0.670118 -1.033849 1.018389 0.499652 -0.340014 -1.669660 -0.036370 -1.520000 -2.424386 -0.875971 0.627313 1.104755 0.605999 -1.078081 -0.047134 -1.135714 1.214472 -2.112371 -0.275827 0.850438 -0.300422 0.229658 -0.031850 -1.226881 0.951297 2.102742 1.189384 -0.687680 -0.425068 0.339109 -0.065137 0.890225 -0.032361 0.063531 0.617122 0.810077 1.526813 1.561636 0.071879 -0.459134 -1.204194 0.554223 1.603757 0.054335 0.163129 -1.126140 -0.392538 -0.991756 -0.535685 0.734237 0.714865 0.496578 0.745945 -0.867002 0.233081 -0.578149 0.532289 -0.513116 -0.265182 -0.046698 0.334405 -0.464554 -0.448692 2.213439 1.381284 -3.480419 -1.028574 0.121498 2.428431 0.611006 -0.934378 1.578550 -1.731163 -0.372542 -0.061284 -0.322095 0.966695 -1.953229 -1.520950 -0.530356
same -2.850739 -0.572094 0.169652 -0.854643 -3.038492 -2.499195 -0.038944 1.880070 -1.364668 -0.380390 -1.246152 -0.661669 -2.358078 0.251053 -0.321480 1.177491 -0.459259 0.129705 2.103935 0.852128 2.760907 -1.234556 -0.116948 2.362702 -0.864854 0.271285 0.551696 2.054250 -0.992277 1.577650 -1.143343 0.855849 -0.338435 -1.079662 -0.088315 -0.855868 -1.352406 -0.910238 0.752931 -0.888889 -1.709924 -0.017707 -0.805044 0.836686 0.548666 0.774066 1.008456 1.712930 -0.934713 -0.677210 1.531185 -0.192251 1.280749 0.040144 -0.540468 -0.918485 4.806618 2.175624 0.126525 -0.406673 0.829612 -0.254824 -0.807175 -0.281532 0.592851 -0.495379 -1.983745 0.348162 -0.434755 -0.050509 0.726326 1.797415 1.175200 -0.656590 -0.546655 1.198071 -0.267273 0.134100 -1.210733 -0.596198 2.434254 0.639484 1.787365 1.243661 -0.551140 -0.355461 1.294196 -0.689045 0.935999 0.679688 0.093592 1.900125 -2.046983 -0.503049 -0.327574 -0.558156 -0.195909 -1.006784 1.648459 0.190117
has -0.516007 -1.348139 -0.868997 -1.598635 0.464452 1.118005 -4.984859 -0.975404 0.393598 0.572109 0.647873 -0.436767 0.884592 1.319645 1.695842 -2.222106 -1.462896 -2.548801 0.272292 2.013879 0.180525 1.908002 0.110583 -3.168716 1.042202 0.144673 2.345928 2.583274 -0.674799 1.844626 0.396485 -1.054198 1.703925 -1.837502 0.441703 0.142691 2.210167 -1.391002 -0.839532 1.622302 1.665376 2.866231 -1.725254 -0.256285 -1.656572 -1.855389 -1.734977 -0.669421 1.377879 -0.475900 0.502664 0.906550 0.967943 -0.915836 2.495677 -1.225811 -0.141531 -2.001983 0.204331 -1.509994 -1.218024 2.623387 1.760480 -0.288036 2.343966 -0.542691 1.264283 -1.143875 1.202911 -0.344017 -0.508184 0.757104 -0.136383 -0.682850 -1.468050 -0.681472 -0.995221 0.199999 -1.722602 1.290203 -2.478813 -1.368388 0.275348 0.123145 -2.593760 -2.552975 1.040387 -1.304788 -2.431903 -0.678416 -0.159347 0.831539 -0.570517 1.549294 -1.971866 0.206375 -2.547810 1.779604 -0.676797 0.666764
some -1.016307 -0.108420 0.276309 1.280596 -1.930714 -1.863536 1.794504 -0.991581 -0.804024 -0.862566 0.274189 -0.909793 -0.239345 -0.416209 -0.312013 0.163677 0.397920 0.218053 -1.308416 1.973434 -1.781239 -0.795808 -0.240306 1.508939 -0.762525 1.280790 1.877442 -0.106380 -0.857333 -1.743158 -1.058371 0.509567 0.257929 -0.123498 0.822510 -0.943902 -0.750278 -1.015255 0.085958 -0.821139 0.176359 -0.609659 0.721620 -0.227519 0.197622 1.111391 0.091836 -1.171407 -0.337798 -1.195525 -1.181720 0.448883 -1.533983 -0.939309 -0.457663 0.680313 1.669625 -0.210508 0.484380 0.642610 0.220708 0.852856 0.776697 -0.913887 2.008212 -1.751624 -0.834677 -2.249939 -0.107753 1.150686 -0.763789 -0.221611 0.233480 -1.538814 0.538355 0.045091 0.172711 0.508145 -2.234837 -1.213600 1.458650 0.382052 1.225360 -0.427806 2.033687 -0.663567 0.706277 -0.099689 0.624817 0.733298 -0.418541 0.594673 -1.693836 -0.349663 0.782345 0.049135 -0.635002 -1.519262 0.814506 -0.719823
can 1.563013 -0.523511 -2.408202 -1.974752 -1.909535 1.094921 -3.029871 -2.263790 0.196112 1.360344 1.640605 0.646245 -0.537435 1.001540 0.274082 0.260534 0.471299 0.760562 2.294457 -0.421395 -1.446382 -3.392370 -1.916400 0.129108 -1.284495 1.021685 -0.256677 0.552092 3.607951 2.917812 1.641817 0.303857 0.133687 1.875273 2.123306 0.968677 0.270444 -2.485834 0.163932 3.446113 -1.879173 1.641872 0.894667 0.203375 0.347752 0.445869 1.374541 2.173528 -1.907076 2.926337 1.734505 -0.447161 -0.806470 -1.508624 2.908934 -1.380936 -0.269197 -2.707443 2.139340 -1.406608 -1.097709 -1.252658 1.099108 -0.816888 0.373177 1.584909 0.421666 -0.571986 -0.214639 -0.483782 0.128854 0.020434 -0.480093 0.630017 -0.211294 0.098405 -0.851963 -1.070793 -0.487987 0.069979 0.467215 0.306550 -0.471370 1.215635 1.009192 -0.197967 1.447390 0.225906 1.191072 0.612625 1.067242 -0.141922 1.260154 1.532669 -0.340989 1.493183 -0.781002 -2.323709 0.377171 0.516363
greater 1.348763 1.652817 0.304334 1.085530 -2.999506 -0.480114 -0.729166 -0.808193 0.906860 0.493502 -0.428612 0.324289 0.707103 -0.909299 0.335615 2.362789 -0.205926 -1.451477 -0.945644 1.589580 0.020018 0.368432 -2.282711 -0.874198 -2.755071 -1.770366 1.106300 0.498867 -0.357824 0.454973 0.822767 -0.580206 -1.665268 -1.564520 0.285424 -0.990161 0.972034 -0.827030 1.007362 -0.736821 -2.330366 -0.358864 0.230896 0.201130 0.102186 -0.858263 0.918011 -0.564426 0.053538 -1.162970 0.139255 0.755125 -1.343269 -0.058959 0.544948 -0.299079 1.061538 -0.945793 -0.022361 2.899052 0.694120 1.342786 -0.955602 0.686351 0.561353 -1.344707 0.738333 1.320619 0.147947 -0.071283 -0.598805 -1.194465 -1.741138 -0.654771 1.895953 -3.289885 -0.420174 0.884696 -2.537846 0.511164 2.601172 -0.714210 2.056097 -1.055567 0.693030 1.573538 0.428474 1.457610 1.180638 -0.783142 -1.132391 0.551307 1.157265 1.774071 1.591934 -0.659301 -0.390118 -2.881489 -0.483573 -1.196369
its -0.592834 -0.012347 -1.576377 -0.418923 -0.161284 -0.647250 -0.781278 0.171662 -2.047592 -1.917886 -0.469513 0.379489 0.300279 -1.799343 -0.422910 0.072063 -0.873981 1.199853 -0.360117 1.495759 0.025112 0.036908 -0.771804 1.320144 0.328081 -0.639137 2.203159 -1.369368 -2.545424 0.440840 -1.687644 -0.738351 0.690330 0.492105 0.912295 -0.250187 -0.470369 -0.261261 1.690920 -0.587672 1.142393 -1.336531 -2.546305 2.372128 -1.190466 -1.469217 0.750797 -0.878288 0.416276 1.027377 -0.074437 -0.394801 -1.839221 -0.780753 -0.773441 -1.978414 0.161650 0.922254 0.000987 0.063456 -0.347741 0.956220 -0.572672 -0.893861 -0.999990 -1.412720 0.955672 -0.855089 1.000632 0.943233 0.583247 0.025039 -0.214525 0.266138 -1.113461 0.879538 -0.472087 -2.535436 1.719488 -1.077176 -0.590518 -0.520224 0.424803 -1.194753 -3.315533 1.810398 0.282508 1.034574 1.201648 -1.368829 -0.037241 0.734572 -0.249305 -0.470196 1.491719 0.530893 1.651656 -0.639210 -0.940762 0.260610
much 0.460465 1.518669 0.053978 -1.185984 0.132192 -0.085796 -1.817485 -0.385976 0.125077 -0.385267 -0.122529 -1.120269 0.371344 -0.050254 0.698529 -1.201649 -0.408215 0.480409 -0.305506 -0.922834 -1.613654 1.416950 -1.599307 -0.108933 -0.066299 -1.452442 1.014795 -2.083889 -0.796107 0.439275 -1.916788 -1.115564 -0.749595 0.537353 0.677624 0.172695 0.184379 1.331692 -2.523442 -0.658838 -2.299671 -0.562317 -0.288841 -0.858553 -1.157878 1.030712 -0.030278 1.429460 1.018088 1.946842 -0.292290 0.655029 0.117110 -1.634365 1.298950 0.218980 1.799350 2.269894 0.787909 1.643237 0.430009 0.498616 -0.191494 0.619461 2.767883 0.719733 1.302665 -0.598229 -0.959105 0.493382 1.763950 0.777848 -0.819960 1.926573 0.093934 0.354297 0.612801 -2.000719 0.425889 2.587098 0.918647 1.042552 -0.272126 0.074761 -1.934310 0.111652 0.027628 0.298800 0.267098 0.554641 0.943730 1.261068 -0.060173 -0.425841 -0.206726 -1.231682 1.190098 -0.355255 0.181214 0.633573
labour -0.015291 -0.176935 -2.387487 -0.490355 -1.410562 -0.333406 -0.526470 -1.325079 0.988101 1.124905 -0.697246 -0.797764 -0.566447 2.188408 -0.563740 -0.629966 1.570405 -0.162304 1.412623 0.544196 -1.964757 -0.434295 -2.396208 -2.112672 0.474343 -1.327652 1.137901 -0.326349 -0.431249 -0.185506 -0.203566 -0.952949 -1.295795 -2.158209 1.284804 0.154522 1.098997 -0.422646 1.253976 -1.618037 -2.531819 0.577343 -0.936612 0.716656 1.489923 -0.804367 0.144420 0.457616 1.950782 2.113592 -0.430988 0.586176 -0.743079 -0.385587 -1.414974 2.912033 0.869198 0.795406 0.397875 -2.860792 -1.475246 -1.479211 0.461814 2.156123 -1.585421 1.358128 -0.773162 -0.953891 0.024359 0.452368 1.991715 0.689825 -1.149852 -0.172739 0.307918 -0.024800 -1.025830 1.306648 -0.309956 2.626868 1.510852 -2.609017 0.256326 -0.105831 -1.380588 0.471154 1.150814 -0.071928 0.821688 -0.471737 -0.017825 -0.738848 -2.073734 1.411224 0.600197 0.718141 3.188432 -1.426369 -0.833636 -0.643538
no 1.321001 -0.687456 0.745785 -1.302089 -0.885798 -2.170048 2.507415 -0.448747 -0.308125 0.450348 -0.628543 1.114399 0.769094 0.984747 2.467729 0.020091 0.621959 0.962699 0.518111 1.469363 -2.624760 -2.190118 1.345764 -1.170515 -0.760800 1.344769 0.570995 0.227363 -2.342004 -1.927925 -0.537654 -1.138789 0.282711 1.287472 -1.285652 1.470746 0.441870 0.580745 -0.552538 -1.841447 -0.652239 1.303001 -0.037144 0.083162 -1.598197 -0.544278 1.816038 -0.181413 -0.940264 -1.691206 -0.462195 -0.838665 -2.838795 -1.007422 -0.944833 3.087214 -0.897470 1.397171 2.892810 0.396634 0.205728 1.437450 0.236283 1.581408 1.887804 -1.461388 -0.787125 -3.258966 1.267128 1.144274 -0.445277 -0.069506 -1.556056 1.264511 0.626026 -0.509990 1.187114 -0.571461 -1.150213 -2.004811 1.801488 3.319539 0.711212 -0.552989 1.999386 1.793765 0.642916 1.194542 0.175952 0.414548 1.866808 1.171700 -1.763440 -2.390949 0.426396 0.759015 -0.707684 -0.091091 -0.800406 -0.435568
such -0.491376 -0.302158 -1.043887 1.403140 -0.776377 -0.710485 0.043741 -0.393013 0.515307 0.239881 3.363644 -0.523572 -0.025369 -1.156605 0.160698 -0.721536 -0.791663 1.313434 1.345557 1.404990 -0.451984 -0.970802 -0.742851 -0.323244 -0.156791 0.684989 1.201871 -0.065385 -0.652735 1.211540 -0.987424 -0.876882 0.553368 0.076362 1.185909 0.538539 0.547718 0.295264 0.510329 -1.491960 0.170973 -0.169791 0.132602 -1.137100 -1.066081 1.600761 -1.244303 -1.266243 -0.505641 0.684704 0.074849 -0.380997 -0.153755 -0.893788 -1.273520 -1.452437 2.626156 -0.870568 0.033346 -1.082714 -0.255774 -0.743988 -0.176584 -1.533905 -0.946770 0.612197 0.025488 0.711875 -0.629690 1.108240 1.251391 -1.295614 0.886502 -0.988368 -0.236971 -0.075961 -0.631510 0.252524 -1.569825 -0.888705 1.762064 1.027813 2.083630 0.088323 -0.940360 2.148392 0.902287 0.672648 -1.243913 0.306717 0.424180 -0.584846 -0.585958 -1.167874 0.306890 -0.414428 -0.123517 0.223532 0.134413 0.515082
may -2.239895 -0.551558 0.948302 -0.700213 -1.108877 0.265917 -2.259589 -1.953707 -1.068824 -0.006554 1.947960 -0.676407 -0.788095 -0.943066 0.143239 0.077262 0.757656 0.893390 -1.639174 -0.278057 -2.092590 -2.484562 -1.628266 0.512476 0.275530 -0.165793 -0.312122 0.053810 1.151403 -0.182301 -1.363731 1.107855 -0.501398 1.737621 1.944389 -0.462882 1.034787 -1.757602 0.730871 3.362437 -0.911456 2.282541 0.012935 -0.777449 1.239041 -0.220424 0.499296 0.972889 -1.670220 2.742963 -0.100139 -0.286241 0.602996 -1.908509 1.571205 -0.496615 -2.115444 0.025487 0.343116 -0.952337 -2.853381 -2.364323 2.024704 -1.366289 0.800907 1.532392 0.655600 -0.358040 0.103877 -0.198932 -2.568313 -0.052040 -2.606733 0.640827 -0.095186 0.941288 -0.235352 0.332066 -1.460545 -0.937559 0.039924 -0.000159 0.124163 1.907009 1.629580 -1.206672 0.270870 -1.102420 -0.411741 1.646201 1.263363 0.954503 1.117192 1.171736 0.592687 0.047338 -1.850887 -1.195536 1.439466 0.620607
trade -1.080982 1.556451 -0.000909 1.111183 -2.179770 -2.700762 -2.177276 -1.389543 1.212674 1.326199 0.231390 0.443146 0.875803 1.466812 -1.177490 0.534303 0.165174 2.382287 2.587753 1.448176 0.346845 1.252427 0.053397 0.574737 1.595820 -2.503777 -0.631739 0.868214 -0.548419 -0.191874 -1.262327 -1.529185 1.915431 0.065546 -0.223761 1.441181 -0.132197 -0.278924 1.369588 0.660346 -2.274319 0.668503 -0.588936 -0.308104 -0.625382 0.792205 -0.814058 -2.478633 0.225281 1.182835 -1.378246 1.124613 1.498219 -1.541535 0.545733 2.085306 0.462893 -0.471216 -0.721277 -0.983318 -0.931860 -0.292621 0.329110 -2.167074 2.114843 0.217826 -0.859240 -1.512928 -0.966644 1.201132 0.248643 -2.447820 1.611529 -0.341286 1.648479 -0.330253 0.766420 1.599206 -1.178957 2.926745 2.546393 0.017704 -0.814417 2.126750 -0.487810 -0.659988 0.762197 -0.447915 1.253547 -0.743335 -1.348871 1.424597 -0.752271 0.529937 1.305795 0.656714 1.335144 0.305766 -0.653426 -1.495364
produce 0.018506 0.185939 -0.503654 -0.871779 0.404554 -0.952606 -2.290485 -0.113723 0.319918 3.292196 -2.450153 0.003786 1.621103 -1.201595 -1.299178 1.203266 1.266411 -1.224755 -0.118980 0.210349 -1.174427 -0.695965 -2.830214 1.136329 1.171190 -0.655149 2.013702 0.578740 -4.021624 1.051563 0.531946 0.676984 -1.530652 -0.841801 0.030533 1.848377 -0.225330 0.451926 0.754797 1.213750 -2.503103 -0.479366 -0.121296 -2.080064 1.269606 0.429344 -0.152558 -0.515852 1.169321 -0.515773 -2.334277 -0.436862 -0.783052 -2.015478 1.576632 0.075974 -0.573597 0.568556 -1.895457 -0.287183 1.023636 -0.828661 1.197200 1.188601 -0.028954 0.902264 -0.026426 -2.341697 -3.204973 0.497751 0.203529 -1.303447 -2.364367 0.202890 1.049632 0.236840 0.136290 -2.068302 -0.870635 0.388018 1.442101 -1.907330 1.818650 0.339830 -0.146906 0.255328 -1.240432 0.713378 0.684319 -1.341639 -3.661845 -0.418667 -1.268705 -0.409116 0.244046 -0.729706 0.235738 -1.787554 -1.674813 -1.102127
had -0.487406 -2.643542 -1.878316 -2.261857 -0.250599 0.950940 -3.337643 -1.621710 0.425221 1.061410 1.465384 0.237211 1.788212 2.239599 0.152533 -1.801994 -0.160570 -1.517340 0.016435 1.507519 -0.822021 1.639112 -0.423676 -1.282886 -0.972809 1.436240 2.377219 1.847063 -0.017800 0.634466 1.681957 -1.698277 1.745375 -0.246048 1.024864 1.242405 1.994567 -0.841473 -0.262619 1.636023 0.036981 2.052951 -0.082285 0.173244 -1.088888 -1.679252 -2.840755 0.698387 0.653023 0.816754 0.455997 1.841798 2.897375 -0.398158 1.750687 -1.326467 1.243511 -0.616363 0.224057 -0.250085 -0.690788 0.343146 0.782717 1.495979 0.755827 -1.939685 1.122515 -1.464316 1.287694 -0.757715 -0.184071 0.650229 0.033707 0.066424 -2.155930 -0.904501 -1.707544 -0.489465 -0.978123 -0.975664 -0.468005 -0.180917 -1.715118 0.669777 -1.689626 -0.022497 0.754050 -0.796271 -0.418147 -0.975190 0.939191 1.749847 0.280818 1.295170 -1.148473 -0.734622 -1.689364 -0.049173 0.334988 0.494220
what -1.664116 -2.228939 -0.991176 -1.453790 -0.015062 -0.716881 0.868702 -1.806758 -0.971941 -0.066580 -0.601386 -0.425919 -0.156439 -0.105812 1.657363 0.781307 -0.350154 -1.026410 1.549568 0.678203 1.812718 -1.629962 -0.669045 0.333573 -3.757365 -0.999007 -0.105071 -1.640473 -0.668514 -0.509348 -0.440927 1.646912 0.231104 -0.144131 2.100040 0.823088 0.093867 1.843784 2.086161 -0.380156 -0.884957 -0.739230 -1.578752 1.697919 0.068073 -0.441832 2.346050 0.515360 1.904627 0.509673 1.671983 0.637121 -0.223349 -0.047295 -0.655690 3.323814 2.013345 1.647594 -1.175792 0.766879 -1.518638 -0.047390 -0.555862 -0.972254 -1.867578 0.108377 -1.479324 -2.231887 0.371312 0.913430 0.021405 -0.854152 -2.418966 0.020122 -0.800544 -0.578513 1.492421 0.556777 -0.904938 0.132488 -0.698601 1.413593 -1.190300 -0.970886 -1.269531 0.624336 0.836201 -0.003385 1.188072 1.077682 -1.836225 -0.536182 -0.435806 0.827943 1.243720 -1.732282 1.035130 0.292499 -1.889213 -1.901664
who 1.336267 -1.590688 -0.984180 -0.296825 -2.565087 0.487279 1.207952 1.775504 1.682879 -0.088480 0.810420 -1.944479 -0.027742 0.002671 -1.430825 0.295831 1.034576 0.036042 0.169275 -1.553251 0.867718 -0.430227 -0.364268 -0.989866 -1.252373 1.321453 -0.968653 -0.544841 2.235135 -0.156013 -0.935954 0.140469 -1.888789 1.669138 1.693641 -0.475800 -2.152947 0.290753 1.224885 -0.012595 1.566333 0.757947 0.482984 1.039038 1.672123 1.785710 0.656366 -0.187974 -0.885165 -0.436411 0.136633 -2.114940 0.163430 1.102390 0.496302 1.795873 3.194808 -0.748917 2.056555 2.807492 -1.300251 -0.941925 -0.481531 1.975337 -0.255191 -0.121898 -1.011266 -1.086071 0.140084 0.610022 1.082265 1.275881 2.801182 0.689755 0.851186 -4.050767 -0.260446 1.357536 0.131742 -0.303622 0.135488 1.003428 -0.281919 -0.177789 0.974628 0.954777 -2.144617 0.972383 1.010288 1.224521 -0.886646 1.745538 0.509863 0.046541 0.615767 -2.334372 0.751932 0.745603 1.416206 -0.311412
were -2.057731 -1.538817 0.008394 -0.150515 0.306094 0.710098 -0.397267 0.197347 0.657719 0.831669 1.409389 0.133805 -0.059320 1.436725 -1.605623 -0.053696 1.905801 1.842547 -0.582670 -1.059881 -0.819634 1.882532 -1.957070 1.071354 -0.377368 0.688295 0.083288 1.357207 0.539763 -0.252192 1.714862 -2.205545 1.145567 1.406456 0.245086 0.736358 0.035521 -1.176313 0.104987 1.225618 1.502522 -1.366124 -2.517999 -1.550144 0.074838 0.221132 -1.948098 -0.646484 -1.917763 -0.154084 0.553047 1.827209 3.191310 -0.136178 1.694912 0.367152 -0.488953 -1.330873 -1.625101 -0.642816 -0.146103 0.009893 0.186734 0.720308 0.805400 1.280353 -0.314669 1.240131 0.724171 -0.968990 -0.249555 -1.615158 1.238589 -0.000466 -2.029514 0.230281 -0.950234 0.314277 1.857213 -0.251309 -1.055453 0.847531 0.284206 -0.870519 1.704853 1.043975 -0.482826 -1.772147 0.725101 -0.445778 0.024717 0.413012 0.342706 1.790004 -2.245435 -1.830779 0.034072 -1.039573 -0.372942 0.013164
must -0.484797 -1.839361 0.950565 -0.151459 -1.428365 -0.470766 -2.221203 -1.757722 -1.513227 1.646287 1.256585 -1.635912 -0.927550 0.604618 -0.479118 0.276913 0.676635 -0.510075 -1.082399 -1.059698 -1.587295 -1.890488 -2.793520 -0.510930 0.478694 -1.207243 1.100617 1.728138 3.675784 1.148286 0.534989 0.858029 -1.076128 0.649405 0.474838 0.155758 2.415652 -0.849416 1.298093 1.310363 -0.775148 1.510861 2.126631 -0.136472 1.243294 -1.033487 1.047763 1.510821 0.032315 2.823534 -1.512629 0.856689 -0.060589 0.266324 1.648408 -0.249829 -2.061082 0.363798 0.480574 -0.838957 -2.764237 -1.700270 0.379427 -0.965738 1.154632 1.577792 1.346740 -2.658623 0.633031 -0.681073 -1.336578 0.779905 -0.810804 0.550897 0.526335 -0.112981 -0.439290 -1.090867 1.141886 0.713227 -0.810691 -0.150968 1.081773 0.407379 0.692538 -0.967670 0.906012 -0.271014 1.320221 1.009930 2.745741 0.208293 -0.517534 -0.212656 0.234949 0.639343 -0.279044 0.087206 2.180124 1.765754
only -0.642689 2.073914 -0.559524 -2.133162 -0.359068 -0.587887 1.039671 1.798365 1.500227 0.989538 -0.801402 1.351008 -0.902410 0.210612 -0.317396 -0.011737 0.184448 -1.340090 0.465877 -0.573492 2.103482 -0.212745 0.592636 -0.103500 -0.841651 0.525826 1.387312 -0.139293 -1.169573 0.962669 -0.586533 1.255380 -0.659497 -0.248104 0.830637 -0.089916 -1.534834 0.307503 0.251848 -0.164462 -0.462940 0.601210 0.032588 1.625859 1.569894 -0.619961 -1.048614 0.672696 1.153794 0.820632 -1.752620 -0.016210 0.461438 -1.688077 -1.414243 2.081257 -0.249358 0.361790 0.180914 -0.717146 -0.834401 -1.067421 2.701193 0.609936 0.897234 -0.614096 -0.671586 0.872912 0.636144 -0.153056 1.164589 -0.259023 -0.883210 -0.304544 -0.952946 -2.077712 -0.654086 -0.643684 0.369410 0.317825 1.623477 -0.563197 0.347820 -0.766043 1.538410 0.501335 -0.881018 0.443350 0.070890 -0.206704 -0.165263 0.177375 -0.083518 0.385683 -0.026432 -1.099853 -0.664174 0.518887 -0.980818 -1.597288
therefore 0.365856 0.363676 -0.451325 -0.351015 0.339928 -1.185287 0.360637 0.334444 0.275422 0.713352 0.082435 -0.060813 -0.048791 -0.659621 -1.153354 0.261191 -0.877365 -0.015895 0.213567 0.682054 -0.485488 -1.493430 -0.748765 -0.134824 0.897719 0.148822 -0.255646 0.075325 -0.732103 1.392913 -0.102320 0.140271 -1.806093 -0.711567 0.225890 0.182785 0.298048 0.667099 0.539502 -0.411756 0.212323 -0.319278 0.516893 -0.562603 -0.349222 0.260236 -0.881053 0.676002 0.226645 -0.479820 0.636114 -0.758624 0.495598 0.618993 -0.530883 0.250151 -0.189911 0.646357 0.756785 0.070585 -0.860738 -0.379899 0.131699 0.849862 0.294996 0.390866 0.339248 0.285475 0.705262 0.089991 0.417965 -0.569653 -0.313999 -0.109739 -0.164050 0.409796 0.525964 0.338482 -0.397224 0.767132 -0.015078 0.996805 -0.382462 -0.594017 0.122439 -0.013761 -1.148022 0.816208 0.161697 0.316931 -0.443189 0.519223 -0.128484 0.156680 1.096614 0.861088 0.292422 0.207747 -0.189833 -0.477660
an -0.732347 1.232195 -0.188085 1.073303 0.053796 -1.664161 1.844039 1.163810 1.242709 0.607797 0.073880 1.255347 0.202171 1.495241 0.947277 -0.543069 1.376468 -1.160073 0.655378 0.702072 -1.004321 -1.576107 0.736468 -1.562856 0.655475 1.544009 0.094855 -0.659907 -0.997650 0.383139 -2.381337 2.199011 1.161712 1.201283 -0.688103 0.487430 0.410171 1.274790 -0.627860 -2.004908 0.024817 -0.745326 -0.747463 2.513071 -0.036680 -0.392197 2.423115 0.279650 -0.788782 -1.060488 -0.870418 0.600334 -0.569167 0.441908 -2.540860 -1.968512 0.447588 -0.383369 -1.098018 -0.789300 -0.107046 -1.959239 0.754765 1.097313 2.519213 -0.650025 0.137894 -1.706598 1.420091 1.066045 2.010866 0.943155 -1.264943 1.263175 -0.283146 2.673561 1.560362 -0.802631 1.658211 -0.434358 0.295196 0.444456 -0.155673 -0.879805 -1.321073 0.394349 0.838690 0.688923 -0.075780 2.055300 0.272364 0.333136 0.484780 0.998855 -0.319316 2.143626 -1.330930 0.376909 -0.128255 -1.316527
different -0.746649 1.760614 0.400416 1.001103 -1.270376 -0.316707 -0.043644 0.687291 -1.881248 -0.606760 1.683682 -0.107239 -1.422901 -2.455861 -1.778845 -0.224499 -1.525818 -0.337759 -0.181066 0.653965 -0.270120 0.318108 -1.654149 0.957800 1.848435 -1.289171 0.299975 -1.261530 0.195598 2.387950 0.240323 2.208422 -0.427845 -1.832103 0.684357 -0.721050 2.163193 0.688005 1.061005 -1.168199 -0.412487 1.325107 0.385635 -0.813667 -0.568066 1.191759 -0.379349 -0.251627 0.630342 -0.215015 -0.689867 0.071023 2.699125 -0.836642 -0.492414 1.417263 1.583623 0.430404 -1.091412 0.283208 -2.130533 0.159481 0.005132 0.002678 -1.576241 1.044150 -1.196898 0.090747 0.327507 0.207775 0.841010 0.846489 1.159656 -2.793839 -0.674995 -0.056944 -1.335105 1.601095 -0.355756 -0.467825 -0.553676 0.428030 1.987368 -1.152493 0.939065 1.012409 -0.356139 -2.329669 0.067911 -1.480663 -0.314081 -0.494835 -0.860206 1.614147 1.426487 -0.826358 -0.034817 -1.030985 1.597270 0.005435
every -0.566599 0.775200 -0.629717 -0.137294 -1.618618 -2.021627 2.848178 1.108356 -0.944586 1.668404 -1.654859 -0.827465 1.295160 -0.109392 1.587103 -1.034044 0.975558 -0.744311 -0.805231 1.727992 -0.015048 -0.202196 -0.078815 -0.559083 1.407492 1.439474 -0.536803 1.852191 -1.406323 0.425427 -0.450019 1.926330 -1.459819 0.834403 -0.261051 -1.057186 -0.096815 0.572559 -1.038227 -1.729744 0.347936 0.295088 -1.102089 0.772396 -1.106445 -0.464662 2.131349 1.835586 0.149512 -0.834337 -0.082065 -1.053458 -1.825484 0.432277 0.214895 0.336297 1.370155 0.383515 1.576204 -1.164289 -2.042215 0.095461 -0.527844 -0.166492 2.460839 -0.085147 -1.296711 -0.877487 0.364989 1.293401 0.434110 2.711630 -0.345550 1.196032 1.910302 1.191401 1.954313 0.276921 0.972316 -0.362151 0.672552 -0.878165 -0.031439 -0.192758 1.616896 -1.049207 0.132273 1.479507 0.850719 -0.150112 -0.900688 0.846944 -2.049932 0.530215 -1.080831 3.091002 -1.447258 -2.846747 -1.513077 0.136331
quantity 0.321657 1.238168 -0.917333 -1.719966 0.969852 0.850913 -2.920236 1.783885 0.821734 1.357025 -2.614783 -0.097114 1.966550 0.974802 -2.166100 -0.296504 1.987696 -0.224616 2.333167 -0.819899 -2.084477 -1.205390 -1.636330 -0.175270 -1.789722 -1.359932 1.588138 -1.130251 0.847657 1.656577 0.280302 -0.359087 -1.904544 -1.928911 1.370428 1.277634 -0.422986 1.002346 0.269019 0.539436 -1.628097 -2.325211 -0.145020 1.193743 -0.620189 0.138447 -0.349262 0.080053 0.085245 1.343850 0.733799 1.542239 -0.154668 -0.868540 0.645110 -0.905389 -0.303062 2.147941 -3.804054 -1.178864 -0.287012 -1.247081 0.748569 0.301478 -0.569670 0.308158 0.445937 -3.710266 -0.733858 -2.025094 0.378013 1.270188 -2.730117 0.181878 1.115526 -0.954962 -0.191200 -0.193872 -0.114025 2.074605 1.513089 0.866822 1.472446 2.514484 0.805321 -1.309302 0.227252 -0.289079 0.785711 0.339791 -1.561201 -0.012681 1.509701 -1.721001 0.050580 0.312061 1.526645 -0.012786 -0.353242 0.550293
value 0.985735 1.227578 -0.529164 -0.511739 0.322569 -0.324810 -1.818077 0.266548 -0.118029 0.524838 -2.057847 -0.730679 1.406414 -0.044646 -1.883863 -0.227347 1.480418 -1.013566 0.911054 0.337253 0.036593 -1.586478 -1.830554 0.722631 -1.486959 -1.222878 1.044366 -1.334244 -0.607325 0.955029 -0.236248 -0.914689 -1.815528 -1.861648 0.903222 0.171155 0.738259 0.729900 0.953768 0.562999 -1.834485 -0.264115 -0.772452 0.750260 0.817565 -0.886691 0.697695 0.535555 2.012031 1.687965 0.444787 0.256979 -0.262524 -0.470239 0.698306 0.079409 -0.074164 0.480161 -2.560609 -0.959510 -0.417525 -0.840534 0.828950 0.534640 -1.369715 0.576958 1.463342 -2.934407 -1.223849 -1.116718 0.263104 1.059424 -2.831674 -0.691847 -1.016486 1.381320 -1.207414 -1.150119 -0.895711 0.954542 -0.922513 1.814570 0.338763 0.259462 0.895725 -0.420938 -1.881703 -0.745805 1.850287 0.101962 0.515352 0.596173 -0.262775 -0.155669 1.293773 -0.857409 1.186640 0.466522 -0.231051 -1.102013
people 1.174283 0.791524 -0.191152 -1.096643 -1.563898 -0.146337 0.343171 1.105821 -0.746323 0.576713 -1.854942 -1.406576 0.176039 -0.323168 -1.514827 -0.910649 1.211346 1.619549 0.588065 -0.456351 -1.822373 3.355113 0.562518 -0.077576 -1.760970 0.547655 -0.797367 -1.417767 0.965607 -1.303873 -1.169747 -0.621931 -1.012719 0.304992 0.413874 0.865499 0.651542 -0.409990 0.554009 0.620118 -0.915217 0.325129 -1.105564 -0.635547 -0.914040 1.925902 0.556672 -0.559445 0.050121 2.197705 0.623036 1.166680 0.140202 -0.314692 -0.361115 1.220342 1.698041 0.864513 0.946027 0.408354 0.312319 1.524829 0.332632 2.908797 0.035669 -1.114275 1.451512 0.723970 -0.241216 1.307163 1.076234 1.143360 0.385606 0.639624 1.014589 0.598399 0.776088 -0.636960 -1.890289 0.900723 2.223852 -2.141248 -0.315773 0.032225 0.280140 -0.229538 -0.858865 -0.714963 -1.148295 0.552515 0.286046 -0.643173 0.242512 1.370974 1.179781 -0.841210 1.390392 -1.215151 -0.017032 1.045026
if 0.986041 -0.546318 -1.442022 -1.183430 -1.093990 -0.259390 1.304889 0.297341 0.700281 1.020540 -1.071777 -0.562400 0.288610 -0.457051 1.996765 0.798942 -1.821585 -0.834841 0.970640 -0.747180 0.547960 -0.317553 0.013503 0.441982 0.115286 -1.834108 0.593640 0.628388 -0.757811 0.517381 0.452665 0.643170 0.239056 -0.466163 1.048491 0.153831 -0.657516 0.084504 0.571605 -1.285377 -0.339713 0.244130 -0.322781 1.031839 1.147678 0.609852 -0.275031 0.154810 0.794802 -0.282931 0.720731 -1.127809 0.689597 -0.580089 0.520276 2.802864 -1.035847 0.475062 1.855919 -0.709775 -0.729183 -0.545565 -0.075327 -0.433965 0.177056 0.728089 -0.961869 -0.630020 1.478812 -0.204797 -0.495459 -0.593520 -0.855588 0.625125 0.102214 -0.772352 0.994697 0.227106 0.696080 0.755345 1.027771 0.813833 -1.015330 0.477396 -0.010046 1.447853 -0.845283 0.815143 1.050883 1.061181 0.295272 -0.147985 0.332441 -2.134618 0.327496 -1.475843 -1.306288 1.412988 0.952913 -0.097975
money 0.811596 0.293417 -0.637020 -0.538130 -1.399175 1.094923 0.178803 0.281022 -0.181180 1.232782 0.346759 -0.824556 1.971659 -0.380970 0.238142 1.835424 1.133177 -1.882574 0.174318 0.194762 0.345064 -2.244597 -1.162155 0.257963 -1.008369 0.220029 -0.060212 0.830619 -0.863021 -0.247500 -1.000427 -1.826562 -1.465593 -0.713633 -0.053363 -0.127056 -0.076293 0.319301 -0.600339 0.062991 -1.525277 -0.522208 0.722954 0.841198 -1.242903 -2.153345 -1.291851 -0.012450 0.480238 -0.041676 1.036094 0.787704 0.121776 -1.392547 0.261085 -0.681533 0.091481 0.614353 0.029600 -0.471882 -1.065645 -0.868897 0.841788 1.267930 -0.062354 -0.919327 0.586749 -2.909265 -1.427515 -2.141593 0.806271 1.000143 0.617523 0.325719 -0.898047 1.262871 -1.236170 0.712532 -0.458870 1.040924 1.254437 2.113820 -0.180151 0.311220 -0.426571 -1.159034 -1.441375 -0.522607 0.289248 0.727977 0.760648 0.885711 -1.871213 0.689332 1.357618 -0.169617 0.606067 0.867957 -2.169019 -1.097882
either -0.568647 -0.949795 -1.376381 0.614548 -0.748774 0.494539 0.032805 -0.084126 -0.458570 -1.096413 -0.006005 0.722875 -0.074593 -0.824969 0.076390 -1.160547 -0.100123 0.035146 1.197839 1.194057 0.005578 -0.471393 -0.587290 0.184556 0.069972 0.512112 -0.195104 -0.129715 0.571903 -0.562294 -0.991207 -0.666024 0.389659 -0.176357 0.443074 -0.653690 -0.386463 0.713950 0.858670 1.804688 -1.839470 0.853044 -0.632505 0.999603 0.588777 0.230801 -0.232781 -1.031423 -0.978998 1.185243 0.551578 -0.767436 -0.581909 -1.062194 0.059579 0.543094 0.641265 -0.753976 -1.257004 0.923082 -0.389699 0.170607 0.552443 0.289100 0.769949 -0.285726 -0.038168 -1.994780 -0.150448 1.537616 0.218216 -1.496047 -0.490866 -1.233730 -1.511974 -0.503731 -1.287023 0.590614 -0.970922 -0.098793 0.952212 0.860450 0.569097 0.530166 0.499300 0.242277 -0.180307 0.542668 -0.297076 2.350641 0.278957 -0.125180 -0.701833 -1.442365 0.740624 0.006284 1.010716 -0.518785 -1.104693 -0.316775
though -0.039534 0.666928 -0.427909 -1.574809 -0.323946 -0.489488 0.722318 0.544667 1.234091 0.010461 0.170770 -0.599340 -0.169004 -0.443347 0.844113 1.493316 -0.242698 -0.163692 -0.108685 -0.086120 -0.024373 -0.004486 -0.261834 1.093528 0.386371 -1.598329 0.352036 0.700956 -0.218209 0.408103 -0.493012 -0.139497 -0.379816 -0.461037 0.873325 -0.433403 0.402503 0.138667 -0.557018 -1.090887 1.173648 0.499187 -0.742757 -0.749409 0.497816 0.542766 -0.991142 -0.153973 0.444356 -0.590036 0.438105 0.399731 0.569909 -1.131979 0.040780 2.001424 -0.765427 0.216592 0.617973 -0.777140 -0.382689 0.534189 0.220968 -0.015583 -0.761479 0.388148 0.377421 -0.683313 1.471468 -0.865554 -1.414168 -0.616140 -0.374444 0.958410 0.328979 0.782594 0.067912 -0.579122 -0.440977 0.304532 -0.149209 0.691144 -0.435641 0.007982 0.102060 -0.049445 -0.285293 -0.356756 0.853081 1.223399 -0.033581 -0.087347 0.074352 0.412307 0.470472 -0.748434 -0.987642 1.081538 0.816194 -0.624296
land 0.339035 1.003087 0.166726 -0.322125 -0.522257 -0.341798 0.845666 -0.620371 -1.219774 1.214210 0.154645 0.774831 1.195809 -2.317173 -1.076241 0.676039 0.206622 -0.976991 1.754886 -0.598650 -1.708099 0.244378 -2.060239 -0.151848 -0.455957 0.067056 1.716142 0.514713 0.311720 0.371736 0.684752 -0.659835 0.100643 -0.704187 -1.094636 1.116547 0.277596 -0.291771 1.517359 -0.536993 -0.788578 -0.013524 -0.966629 -1.039762 0.472082 1.065650 2.136466 0.296859 1.703936 1.791434 2.200378 1.486039 -0.164690 -0.812206 0.556918 1.268270 1.120466 1.712849 -1.198657 -0.859458 -1.366061 2.137148 1.460875 0.922617 -1.638243 -0.142304 -1.641019 0.039900 -0.125878 -0.155858 0.363967 0.613326 -2.239620 -0.648734 0.963463 -0.672713 1.121144 -2.033293 0.155994 0.834427 1.532541 1.368372 0.116327 0.061155 0.791584 -0.125477 -2.119616 1.496614 0.051989 0.785160 -0.470802 0.826991 -0.533650 -1.163146 0.521665 2.610313 1.567945 -0.843702 -1.262093 -0.936088
most -1.348415 2.157328 1.512378 1.001701 0.022459 -2.792130 -0.989035 0.991908 -0.431556 1.407282 -0.082151 0.234662 -1.171104 1.148446 -0.523106 -0.322430 -1.951990 0.580908 1.810309 1.408311 0.279130 0.270579 -1.160383 -1.531832 -1.477736 -0.318235 0.178530 -0.861892 -0.816517 0.683424 -1.308428 1.173278 1.069850 -1.971500 0.369033 0.045983 -1.412028 -0.701499 0.282476 -0.106895 -1.405932 0.226633 -0.636532 -1.473191 1.924514 0.983064 1.311582 0.390117 -1.221784 -0.712934 0.835816 1.335438 -1.367683 -0.135853 -0.170969 0.981469 2.775152 -0.675762 1.054713 -0.540091 0.440544 1.734926 -0.326144 -1.373786 1.121235 -0.265843 -0.285540 1.790546 -1.861687 2.854872 -0.869146 -0.015548 -1.403557 0.590179 1.092640 -0.618170 1.660810 -0.838897 -1.022318 0.316288 -0.441666 -1.158944 2.177764 0.027852 1.191383 -0.225384 0.872563 -1.021594 0.155006 0.341870 -1.425120 -0.425874 0.798132 2.401849 1.317972 -0.426841 -1.333103 -1.205919 -0.769635 0.501262
own 0.301546 -1.787660 -0.529357 2.265164 -1.026998 0.012756 0.581816 0.215207 1.212064 0.876676 0.629483 0.406960 1.875371 -0.338377 -0.553662 -0.422588 -0.962383 -1.068719 0.520293 1.528572 -1.019938 -0.483104 -1.106425 1.122624 0.556645 -0.150604 1.806977 -1.176719 0.994905 0.244247 0.685967 -1.115852 -0.093065 1.570265 0.578591 -0.676598 -2.238808 2.968892 1.693712 1.237696 0.676419 -1.190340 -1.132226 -1.154176 -1.361383 0.063446 -1.518815 1.782344 1.151883 -0.180860 -0.522321 0.154876 -1.084934 -0.684958 1.203764 1.280074 1.718169 -1.340279 -0.063012 0.064095 -1.120056 -1.078416 0.936315 -0.923842 1.503534 0.162310 -1.694854 -0.501740 -2.231075 0.028662 1.219440 1.188903 1.244035 -0.094894 -1.187817 0.718327 -0.671127 -1.404993 0.055228 -1.427474 1.617988 1.656138 -1.909638 -2.023116 0.576585 0.471978 -0.489306 1.478782 -0.043058 -0.372024 -0.381810 0.712284 0.915007 0.571400 2.214502 -0.753727 -0.504508 -0.420945 0.928622 -0.395180
when 0.217351 -1.189093 -1.411684 -1.240604 -0.066467 0.056487 1.145690 -0.088099 1.242845 0.611455 -0.599656 -0.636967 1.300465 -0.106986 1.000255 1.054200 -1.080532 -1.280558 0.621860 -0.804954 0.313630 -0.917148 -0.835328 0.509811 0.318062 -0.677953 -0.248019 1.475780 0.555596 -0.624339 1.532808 0.992289 0.502347 0.051263 1.042442 0.654160 -0.002847 0.454956 0.370037 -0.749884 -0.384465 -0.279798 0.759627 0.975877 1.431885 0.264512 -0.224563 0.176279 0.285288 -0.789859 1.551044 -0.139435 0.281432 -0.453146 -0.043300 1.056220 -0.047365 -0.435627 1.042355 -0.512024 -0.298638 -0.904086 0.450961 -0.536287 -0.464642 0.934384 -0.533161 -1.422898 1.137453 0.021866 -1.113425 -0.271994 0.773767 0.542494 0.080212 -0.573101 0.771216 0.400750 0.566878 0.189898 -0.310218 1.767340 -0.885577 -0.279296 0.450005 0.943930 -0.035756 -0.027115 0.329238 1.370605 0.239365 -1.482544 1.354448 -1.014151 -0.261455 -1.088177 -1.766045 0.675527 0.000626 -0.325928
revenue -1.274951 2.807406 -1.165263 0.143717 0.106968 0.604115 -0.618538 0.103566 0.565397 0.729124 -0.401921 0.844935 -0.032764 0.380479 0.034230 0.863589 0.506213 0.829451 0.818746 -0.158012 -1.060973 -0.186253 -0.838296 -0.296575 0.548078 -0.375004 1.598197 -0.353381 -0.535281 0.825448 -1.051410 -0.132036 -1.607397 0.555687 0.562772 0.744877 1.434926 0.519346 0.532070 1.804429 0.343135 2.319132 -0.814686 -0.921988 -0.194684 1.414445 0.013555 -1.875845 2.899602 0.627418 -1.576438 0.278129 -0.324034 0.635455 -0.093624 1.405805 -0.276390 -0.465458 -1.923288 0.926782 -0.776087 -0.265719 0.346307 0.609434 -1.740431 1.284307 0.410175 -2.413315 -1.384886 1.140857 1.416053 0.364278 -1.221843 -1.141891 -0.103763 0.047407 -0.596538 -1.336284 -2.241520 0.720381 1.136651 -0.030470 -2.425176 1.171516 0.697591 -0.995216 -2.054041 -0.248688 0.820028 0.175136 -1.260353 -0.079569 0.498089 1.503572 1.611974 0.472332 0.911170 -1.188920 -1.501377 -2.591025
whole -0.569957 0.019637 0.344588 0.613789 -0.476345 -0.255059 0.813016 1.037543 -0.237631 0.750056 -0.687552 0.921266 1.388719 -1.568317 1.664560 1.047602 -0.070359 -0.297601 -0.554458 0.134787 -0.323923 -0.984697 -0.188410 0.029620 0.024115 -2.094161 1.760787 1.076950 -0.618205 0.668402 -0.323900 -0.669646 -1.387594 -0.146840 -0.141295 0.071356 -0.649996 -0.322528 -0.014585 -0.690481 -0.615977 1.598486 0.005744 1.156999 -0.004418 -0.802421 1.316563 1.393965 0.954027 0.296034 -0.889289 0.247638 1.100063 0.463106 -0.921764 1.270652 0.780088 0.140510 0.303831 1.027493 -1.024316 -0.123790 0.016878 0.645238 0.238723 -1.466749 -1.097535 1.590756 -0.172005 1.061306 -0.135711 0.233056 -0.923914 0.294903 0.377458 -1.099230 0.550937 -0.241201 -0.734245 -0.168864 1.171423 -0.450900 0.032014 0.078255 0.266347 -1.030762 0.071699 -0.058752 0.201489 -0.988509 -0.483132 0.313293 0.073297 1.088748 1.222665 0.781472 0.038807 -1.446305 0.941445 -0.545646
silver 1.364948 0.064285 -1.543214 -1.152768 -1.222647 -0.069828 -0.073730 0.172066 0.393902 -0.577386 -2.423949 1.407365 1.278273 -0.707879 -1.381617 1.436663 0.446262 -1.033816 0.818965 2.704517 -2.174220 1.681212 -0.834018 0.187482 -2.117756 -0.400356 0.921955 -0.418544 -2.237642 1.242942 -0.380027 -1.328224 -1.125909 -1.834242 0.369514 1.214982 -0.686721 -1.014168 -0.635520 -2.034968 -2.187557 -2.658179 -1.084834 2.053406 -0.193201 -1.803474 0.676111 -1.754589 -0.340793 1.506519 2.956678 0.114728 0.079233 -0.957945 -0.951966 -0.565369 -0.841669 1.814181 -1.226925 -0.030102 0.713394 -0.311719 0.982284 -0.256392 -0.364286 1.729283 1.227834 -0.885675 1.492005 0.644680 0.253452 0.309046 -1.298367 0.274929 0.532992 -0.564280 -0.762469 -1.038461 1.538417 -0.343503 1.222969 1.351353 2.082200 1.517375 -0.992178 -0.812306 -2.461299 -1.861517 1.988892 -1.012170 -0.497631 1.526369 -1.037175 1.350120 0.031237 0.399511 0.550401 1.016795 -0.098094 -0.427379
could 0.949708 -0.669948 -2.109112 -2.757704 -1.024261 0.525380 -2.199442 -2.439382 0.925380 1.085832 1.687225 0.483570 0.191084 0.936686 0.599177 -0.203893 1.432950 0.051676 0.041625 -0.462455 -0.979022 -0.420554 -0.394246 0.448334 -0.959283 1.441074 1.439124 0.847477 2.106527 2.373710 1.169787 0.606829 -0.374066 2.039338 2.888600 0.748020 0.025483 -1.717356 0.870539 2.581905 -0.849016 0.355384 0.660730 -0.300222 2.591238 -0.171895 -0.725811 1.028982 -1.205597 2.968918 0.440922 -0.043654 0.906648 -1.180067 1.797173 -1.575580 -1.291005 -2.055618 1.796627 -0.660557 -0.444597 -1.593232 2.767080 -0.420403 1.993855 0.207764 1.579931 -0.005010 0.965585 -0.628744 0.123720 -0.472047 -0.400187 0.462173 -0.376877 -1.036434 -0.272351 -1.836046 -0.859938 0.514350 1.246614 0.706032 -1.032642 0.696119 0.658390 0.530448 0.483386 0.826187 1.059957 0.713729 2.310740 0.818368 1.649558 0.973334 -0.866401 0.940612 -0.925094 -0.424354 0.839517 -0.235420
capital 0.124389 2.561158 -1.220049 0.765096 -1.057036 -0.116483 -1.041178 -0.946916 1.053904 2.184340 -1.770836 -1.033392 1.171313 1.087303 -0.950535 0.142612 1.441723 -0.350209 0.848199 -0.855687 -1.075111 -0.870689 -1.043449 -0.391969 0.058526 -1.603782 0.416510 0.156124 0.297075 0.807320 -1.047519 0.191520 -0.880166 -0.102391 -1.048274 1.094408 1.085706 -0.779171 1.147655 1.604874 -0.970108 0.582353 0.848094 1.138178 -0.481969 0.369241 -0.353626 -0.717339 2.089917 1.577294 -0.879687 1.249419 0.608251 -0.821306 0.726588 1.949723 -0.051961 0.025841 -1.108210 0.501255 -1.288331 -1.136106 -0.327820 0.559646 0.772221 -1.800953 -0.912126 -2.184103 -1.352481 -0.219456 1.264888 0.167372 -1.197074 -0.867481 1.466802 -1.360994 -0.327147 0.541286 -0.936661 0.964745 3.410623 -0.959913 -2.517264 0.096570 -0.604230 -0.635263 -0.697339 0.557024 1.199084 0.418404 -1.219848 0.932210 -1.200450 1.129686 1.775710 1.084160 1.206172 -0.347445 -0.671521 -2.137531
time -0.884899 -0.984290 -2.069703 0.066516 0.324806 0.960077 -2.442489 2.530163 -0.356558 -0.248959 -0.640371 -0.213414 0.990965 1.582291 -1.189203 -0.380376 -0.842331 -0.218691 2.065349 0.010689 -0.767403 -0.168804 1.487815 -1.110823 -0.673391 -0.138711 1.424229 0.368508 -0.451051 -0.416188 0.200536 0.792700 0.014122 -0.307715 1.321784 0.964602 0.264886 -2.218623 1.165271 -1.196554 0.390164 -1.562964 0.580299 0.122482 -0.164995 -1.616161 -0.478859 -0.356715 0.414562 -0.607989 1.999425 -0.364843 1.531889 0.370794 1.595513 2.320834 -0.520400 0.562777 0.630741 1.311464 0.577463 -0.400794 1.053466 -0.332708 0.166379 2.731104 0.115193 -1.628150 -0.797465 -1.190981 0.018947 1.211062 -0.701649 1.278826 0.295210 3.570117 0.214295 -0.248467 -2.459629 -0.180949 2.007392 -0.850138 -2.476919 -0.285162 -1.157489 1.496129 -1.957147 -0.696201 0.868965 0.927582 0.570567 1.414608 1.161147 -0.159456 1.782358 1.770356 0.863403 0.779760 1.564442 0.024609
two 0.316636 0.175707 0.243424 0.743836 0.651122 -0.911971 0.150415 0.829013 -1.830916 -1.551947 -0.008673 -0.068137 -0.696818 -0.831603 -0.582453 -0.616276 0.229078 -0.225923 -0.448994 -0.062508 -0.000448 -0.904527 0.984237 -0.996293 -0.136758 -0.503489 0.904756 -1.135049 -1.280663 1.135413 0.454196 0.403525 1.378579 -1.833404 0.941874 1.693872 0.989856 -1.038164 -0.660362 -1.265953 -0.856240 0.945464 0.451783 -0.306959 0.271387 0.794250 1.064410 -1.222692 -0.957777 -1.221638 -0.149840 -0.574332 1.189609 -1.054050 1.002422 0.290781 0.863622 0.450536 -1.583641 1.040932 -1.950323 -0.551562 1.229906 1.434095 0.997817 -0.024774 -1.366569 -1.679204 1.396003 1.738113 0.547224 0.362296 -0.057693 -0.998867 0.177985 -1.783332 -0.818788 0.819307 0.332221 -0.832230 -0.951898 0.670190 0.842388 -0.024229 1.593469 0.017351 -0.323399 -1.329985 -0.267682 -0.758180 -0.730789 -0.464924 -1.075067 -0.478155 -0.362747 -1.111223 0.623270 -1.578455 0.061976 1.445132
on 2.725156 -0.029772 3.061135 -1.410692 0.849000 -1.935815 0.652465 0.462796 1.540405 0.237780 -1.011111 0.695784 1.629377 -0.499230 0.150353 0.956870 1.978925 1.111369 -0.959298 1.092154 0.601516 -0.255075 1.589714 1.624192 2.234012 -4.350729 -0.749366 -2.139207 -0.554130 0.963327 1.648991 -1.852254 1.614239 -0.222772 -0.782665 -0.814334 -1.585988 1.023487 -0.222332 1.573709 -1.236495 1.500247 -0.037639 0.727590 -1.349277 -1.054381 1.904414 -1.612607 0.404286 -0.455646 -1.814520 1.123579 1.041582 -2.487466 0.594112 1.100600 -0.487179 -0.094783 1.054764 -1.121671 -0.592171 0.690326 -0.984599 2.279335 -1.440046 0.541594 -1.602650 0.065501 -0.783372 0.437259 1.680753 -1.583116 0.130163 0.622275 1.700240 -1.322705 -0.248752 0.856417 -1.121489 1.075767 -1.473385 -0.695073 -0.059452 1.893464 1.659549 0.341955 0.912998 -1.034658 2.244985 3.141841 -2.022766 1.341220 1.659782 0.057368 -1.528424 1.886226 -1.103057 1.180564 2.547447 -1.788457
there 2.127988 2.122882 -0.541763 -0.086714 0.770296 -0.409836 -0.861515 0.865039 1.937654 1.107655 2.255544 -0.663499 -0.125156 -0.348292 0.496249 0.118366 -1.280790 -0.730611 1.718369 2.683144 -0.781920 -0.834170 0.220910 -0.260724 -1.060980 0.367189 -1.051920 -0.543368 -1.673693 0.906235 -0.292281 -0.927695 0.451600 -1.872982 1.273157 1.263224 0.285675 -0.919425 -1.674100 -1.079388 -0.641643 0.875073 2.054799 -1.051696 -0.412242 0.259999 -0.384277 0.066708 -0.886081 -0.061724 1.167949 0.071291 0.479249 -1.474334 0.700379 0.392600 0.103614 0.201315 0.208127 -1.278651 -0.059049 -0.359464 0.473253 0.414701 -2.156988 0.302001 1.122355 -0.295814 -0.968480 0.360589 -0.024181 -0.398855 -0.397626 0.431025 0.494032 -0.941480 0.525400 -0.316309 -1.157858 0.548162 0.599558 -0.550499 0.034800 0.528398 -2.075672 0.941737 -1.019015 -0.441273 0.385696 1.138002 -0.989105 1.616283 -0.689651 -0.002581 0.002303 0.687492 -0.182883 0.296043 -1.807356 0.381506
stock -1.265505 1.192818 -1.828807 0.553073 -1.011111 0.266212 -0.765924 0.167034 0.709759 0.480934 -0.413434 -1.040967 0.960762 0.647460 -0.261937 0.423048 0.117839 0.103105 1.210746 -0.461880 -0.136122 -1.413727 -1.195898 0.407230 -0.368361 -1.971850 1.954968 -0.117325 0.114415 -0.231624 -1.158069 -0.732480 0.512327 -0.829675 -1.059606 0.778990 1.580522 -0.170058 2.167555 1.349940 -0.599426 0.121390 0.467311 0.891711 0.308882 1.085794 -0.176678 -1.388933 2.128428 2.769656 0.121089 0.654254 0.398883 -0.663400 0.154460 0.797679 1.116248 0.262263 -1.240895 -0.369785 -2.073132 -0.703630 0.406896 1.174952 -0.736670 -0.549636 -2.035184 -1.686785 -0.490236 -0.225752 1.759764 -0.771473 0.838942 -0.232777 1.471261 -0.676799 -0.433081 1.387563 -0.545831 1.934358 2.394902 -0.296860 -2.191430 0.406963 -0.516547 0.162277 -0.133634 0.968782 0.451281 0.531722 -0.798340 0.392070 -0.559047 0.259020 2.706265 0.977567 1.232149 -1.055029 -1.259293 -1.994528
however -0.102417 0.884759 0.245525 -0.407798 0.909917 -1.487131 0.065871 0.095478 0.799088 0.009482 0.700103 -0.121701 -0.675735 -0.587497 -0.559202 0.219290 -0.477823 0.113463 -0.075912 0.824301 -0.624745 -0.330686 -0.601565 -0.337835 0.791044 -0.194236 0.151689 -0.153352 -0.737650 1.081384 -0.387313 -0.047925 -0.843417 -0.722547 0.397022 0.989775 0.478867 1.375944 0.028500 -0.491283 0.124705 0.561295 0.174316 -0.974568 -0.055377 0.621217 -0.269220 -0.421317 0.335748 0.362073 0.828621 -0.765021 0.501995 -0.089626 -0.398849 0.619684 -0.360372 1.029555 1.354305 0.475220 -0.210306 0.977802 -0.031078 0.239777 1.065465 -0.450470 1.206085 0.151232 -0.038607 0.842754 -0.319287 -1.295065 -0.426588 0.375479 0.530832 -0.053232 0.721536 -0.167655 -0.728912 -0.281363 -0.719119 0.460016 -0.094579 -0.094900 0.173947 0.086388 -0.326571 -0.157896 0.108127 0.979828 -0.786682 0.391163 -0.000088 0.833004 0.742195 -0.486743 -0.171029 1.153859 0.018712 -0.671262
goods 0.524343 -2.107465 -1.170058 -0.483115 -2.453109 -0.479576 0.082257 -0.256499 0.505189 1.849664 -0.884922 -0.875265 0.269115 0.806927 -0.272912 1.062604 0.596403 -0.181353 1.913052 1.323120 -0.826441 0.421814 -1.417281 0.823546 -0.720693 -2.777396 -1.036979 -0.193048 -0.192768 0.267555 -0.065775 -1.503967 -1.953905 -1.849264 0.379323 1.633945 -2.078448 -0.424678 -0.564980 0.496800 -2.314566 -1.244963 -0.360253 -0.430906 0.083491 -1.294983 -0.857890 -1.587186 0.322510 2.392828 -0.220184 1.235641 1.761837 -1.486371 1.014041 1.077376 -0.208257 -0.703097 -0.254530 -1.551044 -0.446190 -0.439950 1.596922 0.102239 1.028075 -0.509650 -1.158909 -2.104174 -1.327719 -0.272056 0.506635 0.214130 1.084099 -1.206223 0.287983 -0.565426 -1.154927 1.592475 -0.199433 1.146906 2.525110 -0.076635 0.889953 1.058458 0.957708 0.250009 -0.407097 -0.446927 1.061110 -1.079282 -0.941841 0.715084 -1.648916 -0.644282 0.169090 0.375035 -0.261182 0.401431 -0.088700 -0.100452
into 1.830861 -0.032675 0.725894 -1.059578 1.305641 0.559744 -0.784433 -0.150475 0.199477 0.396044 -0.827767 -0.527606 -0.908468 -1.319494 -0.324020 -0.439573 0.064126 -0.842281 1.533395 -0.015043 0.555053 0.322434 -0.560300 0.382351 2.160294 -2.055046 -1.456910 0.900195 1.322503 0.917062 1.524482 1.080704 -0.112713 -1.799055 -0.750221 0.828803 0.072669 -0.803937 0.349881 0.791816 0.281190 0.714469 1.127709 0.083424 0.069515 1.860383 -1.556941 -1.343624 -0.553235 -1.265514 -1.218318 0.211131 1.151647 -0.890159 0.469692 -1.002568 -1.453414 0.914018 -1.245485 -0.080693 -0.902770 -1.260228 -1.588399 1.056525 -0.207567 -0.132381 -2.000189 2.189142 2.236060 0.161311 -0.320113 -0.549581 -1.293738 -1.458345 -0.151062 -2.153037 1.221509 1.578388 0.178832 1.524752 1.773786 -1.498886 -0.701377 -0.028500 -0.097212 0.513044 -0.458504 -2.093681 1.787362 0.188028 -0.542703 -0.298848 -0.291238 -1.933191 -0.328949 1.200547 -2.740168 -0.508719 1.082123 -0.268393
both -0.323405 -0.503680 0.255984 -0.645416 -0.026033 -0.428586 -0.156161 0.274942 -0.562023 -0.437145 -0.310436 -0.100232 -0.253626 -0.166032 -1.128429 -0.214467 -0.870632 0.983763 -0.183967 0.365976 -0.262984 0.092226 -0.741826 0.187064 -0.179114 -0.266882 1.390571 -0.182294 -0.380567 -0.712480 -0.562928 0.372280 -0.567212 -0.616746 0.226272 0.294074 -0.297079 0.004528 1.250551 -0.286523 0.416514 -0.623159 0.384524 -0.224461 0.252198 -0.154009 0.373273 0.135349 0.796070 0.167772 -0.536387 0.948046 -0.937075 -0.329495 -0.515651 0.345416 0.120498 0.810751 0.511059 0.068569 -0.472806 -0.421739 0.154452 0.595351 -0.121995 0.213310 -0.817030 0.346219 0.243100 1.028998 -0.688859 0.438929 0.309775 -0.119908 -0.136831 -0.699281 0.018498 0.683802 -0.065387 -0.048609 -0.331199 0.350856 0.303468 -0.667346 -0.049114 -0.002699 0.475649 0.422877 -0.271605 -0.311116 -0.013966 -1.064500 -0.271328 -0.208425 0.890713 0.265739 -0.565376 -0.265006 0.825657 0.470964
market 0.607496 0.375579 0.000514 -0.194132 -1.743042 -0.590948 -2.087324 -0.985888 0.404472 0.212075 -0.995691 -0.624631 1.570740 0.289905 -1.417197 2.044574 0.159792 -0.149941 0.956839 1.643668 0.030627 -0.541289 -2.515069 -0.654644 0.766823 -3.025566 -1.162111 0.158201 -0.676488 0.586165 -0.307595 -0.152771 -1.453008 -1.712109 1.504643 1.021513 -2.103631 -1.746218 0.142099 -1.534747 -0.778314 -1.910479 -0.516513 0.448542 0.926705 -1.483655 -0.936293 -0.303462 -0.397854 1.521690 -1.175351 0.788046 -0.294800 -1.894349 0.951383 0.786593 0.978583 0.997726 -0.456456 -0.378365 -0.700095 0.930318 1.321199 -1.667487 0.661255 0.839969 0.370716 -1.149974 -1.492239 -0.885874 0.279038 -0.707191 1.135921 0.314746 0.451858 0.976939 1.372537 0.335580 -1.228922 1.815697 0.701938 -1.063087 -0.073363 0.735982 -1.138234 0.698936 -0.302318 -0.456459 0.513686 0.342493 -0.971131 1.010245 -0.244943 -0.735773 0.724373 1.864259 1.132736 0.812813 -2.136352 0.660145
countries 1.005264 0.987086 0.478777 -1.098800 -1.845120 -0.834382 -0.177144 0.345784 0.721031 0.199480 -0.060245 0.071043 0.068682 0.257026 -1.392529 0.360831 -0.076532 2.062667 0.699039 0.862303 -1.780882 1.635198 -0.134872 0.790139 -0.648836 -0.933669 -1.801569 0.018798 0.063171 -0.159173 0.750653 -0.499363 0.119588 -2.483974 1.479830 1.840553 -1.136812 -1.044538 -0.734688 0.204731 0.559108 -0.288464 -0.942475 -1.624081 -0.754728 -0.284534 0.293377 -0.893236 -0.948866 1.588788 0.271042 0.940458 0.386721 -2.256551 1.156941 2.198825 0.647829 0.052319 -0.718490 0.061262 -0.905197 1.292486 1.435986 0.056897 0.800467 0.647273 0.288051 -2.026267 0.169910 0.402093 -1.615680 -1.226849 1.075497 0.227764 0.984036 -1.355959 -0.403489 -0.639223 -0.158960 0.074726 -0.079417 0.079156 0.225292 -1.378788 1.178605 -0.568568 -1.123495 -0.470045 0.116284 -1.089831 -1.292761 1.856714 -0.363935 1.082815 0.257664 -0.013991 0.798592 -0.284553 -1.447443 -0.729447
will 0.920184 -0.654193 -0.832962 -0.755079 -1.260881 -0.416169 -2.362779 -1.520325 -0.465593 1.425637 0.436535 -0.901228 -0.380360 0.552009 -0.356455 0.289533 0.934895 -0.046017 -0.312638 -0.864500 -1.363918 -0.853131 -0.816260 0.568064 -1.809074 0.223504 0.736501 0.498454 2.861973 2.035686 0.122898 0.352938 -1.161623 0.614844 1.088130 0.267261 0.073686 -1.506278 1.298182 2.160944 0.146714 1.003678 2.048994 0.030764 1.339888 -0.185761 0.003947 2.421927 -1.429049 2.491238 -0.633262 0.635456 0.826173 -0.645512 1.736417 -1.144322 -1.833978 -0.886182 1.390288 -0.404489 -1.451799 -2.437002 1.339683 -1.074301 0.577395 1.161958 1.743155 0.742763 0.998087 0.036500 -0.494613 -0.147817 -1.945042 0.400536 0.103866 -0.323224 -0.170859 -0.680151 0.845027 0.466342 -0.831657 -0.466139 0.620391 -0.163191 1.267201 -0.604280 1.157401 0.627786 0.514521 1.185741 1.396319 0.148350 0.783304 0.855470 -0.575389 0.335723 -0.683056 -0.262226 1.733309 1.617571
always -0.287474 0.375349 -1.385909 -0.953415 -0.709369 -0.463673 0.746233 0.597118 -0.164375 0.509413 -1.141006 -0.852915 -0.627272 0.642380 -1.691306 -0.600521 -0.501557 -0.094715 1.071155 1.630447 -0.519239 -1.257181 -0.537971 -0.287275 -0.668542 -0.652219 0.910171 -1.343376 -0.582252 0.268407 -1.957143 -0.208576 -1.564283 -0.738707 -0.067917 0.963491 -0.894243 1.269669 0.558354 -0.607683 0.090191 0.423949 0.949100 -0.347066 -0.693933 -0.627531 0.784636 0.932761 0.296625 0.753904 0.077418 -0.691084 0.246821 -0.807105 -0.514139 1.987017 0.060461 1.223465 1.158567 0.784762 -1.357416 -0.450999 0.954616 0.455420 1.401364 -0.226063 0.695695 -0.434314 0.913994 0.950249 0.328099 -0.411469 -0.615907 0.273819 1.575827 -1.145658 0.067047 0.413310 -0.358701 0.384410 0.233080 0.622045 0.967678 0.145564 0.063281 0.337597 -0.659058 1.578166 -0.663027 2.096414 0.642711 0.417618 -0.137401 0.468385 0.552147 0.173267 0.633306 0.804982 -0.117710 -0.127256
expense -0.687170 1.219697 -1.094369 0.469321 1.207868 -0.173196 -0.918057 1.086716 -0.306589 1.590233 -0.527985 1.080772 0.104219 0.392091 0.073624 -0.018195 0.061331 0.477646 0.168950 0.004667 -1.958378 -0.337726 -0.417113 -1.450375 -0.517234 -0.306567 1.933367 0.945774 -0.353669 -0.498866 -0.798517 -0.492808 0.350558 -0.180587 1.556511 1.174172 0.791115 0.989763 1.554505 -0.225829 0.451472 0.857030 0.609532 -0.584927 0.034891 -0.864481 0.935372 -0.485012 1.624882 -0.615114 -0.633908 -0.457351 0.001690 0.224587 0.634020 0.908382 -0.842512 0.415552 -1.722660 0.031077 0.369877 -0.887772 0.818019 1.736293 -1.016829 0.994082 -0.028638 -1.319050 -1.669209 1.100026 1.200764 0.304558 -0.732263 1.189907 1.208163 1.344210 0.198702 -0.761143 0.092915 0.920343 1.025741 -0.313097 -1.647223 -0.008498 -0.306076 0.025318 -0.916653 0.499981 -0.135564 1.055385 -0.443936 -0.060188 1.865079 1.497117 0.851236 1.082319 1.509361 0.041193 -0.385285 -1.774742
might -0.764564 -1.461593 1.112131 -1.055361 -1.143968 -0.205016 -2.157853 -2.615401 -0.861037 0.644770 1.542316 -0.213289 -0.430330 -0.188409 0.049942 0.153057 2.148017 0.579476 -1.024998 -0.770134 -1.001606 -1.155649 -0.799866 1.297134 -0.905437 0.318338 0.761815 1.100374 2.343797 0.475112 -0.187910 0.184489 -1.087591 1.532212 1.915204 0.539783 1.008589 -1.746923 2.212312 2.308318 -0.422400 0.793362 1.263702 -0.743790 1.766856 -0.226269 -0.546165 0.678900 -0.537128 1.945673 0.020043 0.660659 0.368053 -0.575700 1.475858 -0.467856 -1.641314 -0.395371 1.030550 0.878865 -1.539346 -1.391980 1.087317 -0.429839 1.364231 1.269108 1.996738 -0.379662 1.337517 -0.732110 -1.760250 -0.540986 -1.887057 0.302019 -0.326101 0.120833 -0.141914 -0.918524 -1.499539 -0.196247 0.247063 0.646968 -0.720472 1.085556 0.475866 -0.298651 0.097358 -0.157966 0.662592 0.767030 2.574034 0.996917 0.489780 0.368055 0.254636 0.507408 -2.054935 0.458938 1.733382 0.413364
less 0.673481 0.143170 -0.477299 1.534075 -1.278322 -0.669321 -0.637538 -1.547973 -0.680027 -0.652383 -0.868485 -0.071471 1.019323 0.882274 -0.247645 0.502921 -0.597825 -0.814252 -0.177890 1.549761 -0.625319 -0.343010 -1.374016 -0.271136 -1.407749 -1.455813 0.291288 -1.648810 0.063464 0.714426 -1.769956 -1.708902 0.519091 -0.960470 0.053797 -0.572680 0.104696 0.055959 0.905996 -0.086156 -2.620444 0.704060 0.247142 -1.213035 0.992279 0.617866 1.244877 0.289014 -0.221994 -0.703061 1.567412 0.981845 -1.138101 -0.465477 1.713029 0.802506 0.865369 1.184900 0.153087 1.461453 -0.567406 0.685855 1.011069 0.764591 1.640159 -1.345795 1.148893 -0.255012 0.547226 1.715696 1.090285 -0.527146 -1.382125 1.562882 0.300031 -1.640514 0.487768 -0.442576 0.064028 0.335701 0.235479 0.684945 0.240848 0.713695 -0.028330 0.366194 0.535983 1.372254 0.252583 2.262870 1.034767 0.824819 -0.500175 -0.182407 -0.146614 -0.719863 1.202289 -0.130305 -1.928079 0.159819
even -0.635444 0.060005 -0.331066 -0.066656 -0.638720 0.282998 -0.640577 -0.001631 0.105079 -0.825691 0.318127 0.284996 0.435547 0.035001 -0.094412 0.338343 0.029843 0.660668 -0.266396 0.406159 -0.956960 -0.133003 -0.487612 -0.401528 0.065321 0.018477 0.649499 0.486755 -0.622155 -0.312224 -0.985314 -0.062951 -0.348934 0.050186 0.815963 -0.109967 -0.337289 -0.353679 -0.212994 -0.959686 -0.325695 0.489082 0.225094 -0.516737 -0.213602 0.131559 -0.845891 0.289710 -0.245900 -0.172850 0.286376 -0.222360 0.068883 -0.603872 0.181771 1.050426 -0.035689 0.268291 1.049520 0.582458 0.031318 0.021328 1.382746 -0.082793 0.323575 0.545508 0.340005 -0.186366 -0.086576 0.274509 -0.468915 -0.566872 -0.142795 0.743622 -0.274745 0.208344 0.954442 0.253491 -0.882767 -0.772457 0.373452 -0.023774 -0.398090 -0.133154 0.660177 0.065831 -0.314594 -0.079819 -0.731656 1.576705 0.026280 0.968324 0.641977 0.207256 0.582918 -0.724285 0.078205 0.857839 -0.586584 0.140238
tax -1.948057 -0.094445 -0.846705 0.893499 1.354878 -0.966451 -0.159908 0.655240 -0.500607 2.714222 0.083583 -1.744473 -0.528508 -1.611865 0.230577 -0.048140 0.594939 -1.343283 1.016424 -0.992082 -0.225812 0.166674 -0.058176 -0.809029 -1.095260 -0.703049 0.976625 1.755795 -2.546354 0.227517 0.021024 -0.133027 -0.272966 -0.433034 -0.725585 1.530083 0.370527 0.182254 0.061705 -0.899382 -1.796308 0.323461 -0.229274 -0.619514 1.622017 1.795470 -0.437168 -0.707576 1.710984 0.586576 0.752335 0.305873 1.742881 0.576525 1.082848 0.227797 0.118900 0.899087 -0.572219 0.185829 0.353599 -0.472775 0.403618 0.916615 -0.287567 1.447031 0.592719 -0.676359 -1.152481 0.833017 0.127789 0.443030 -2.516558 -0.696432 1.106462 0.157390 -0.036904 -0.051567 -0.430807 0.805450 0.169732 0.253110 -0.060720 0.617960 -0.650839 -0.222731 -1.104459 -0.751055 -0.633796 0.938228 -0.310993 0.141610 -0.425535 -1.831104 -1.335627 0.128618 0.343506 0.284934 -2.735758 -1.474087
particular -0.080203 -1.104323 -1.424953 1.370048 -0.724668 -0.129671 -0.514625 1.498274 0.092587 -0.146885 1.486680 0.026908 0.069690 -1.984930 -0.123482 -0.831852 -0.479526 0.060877 0.907508 1.817660 0.243737 -0.972104 -0.358564 0.082854 1.796456 -0.517123 0.390067 0.220944 -0.875040 0.951868 -1.637343 1.080991 0.833778 1.204829 0.732846 -0.839165 0.349029 0.380369 0.097372 -0.278238 -0.194530 1.509511 -0.345332 0.101438 0.595859 1.101128 -1.603878 -0.477120 -0.383819 0.606670 -0.062092 -1.175204 1.745459 -0.829241 -0.250214 1.475504 1.106555 0.404776 1.162592 0.482879 -0.964609 -0.330894 1.211424 -1.544628 -1.394996 0.529505 -1.646477 -0.451519 -0.284854 -0.527401 -0.221761 -0.533511 0.883420 -1.476895 0.393246 0.215968 0.074950 0.834312 -0.693444 -0.964960 1.300080 -0.737779 0.548927 0.534703 -0.139897 0.067312 -0.031356 -0.281364 1.158582 0.260699 -0.287825 0.512437 0.229135 -1.379857 -0.197656 -0.302826 -0.030474 -1.978834 0.426726 -0.776889
interest 0.067368 -0.249133 -1.240066 -0.375738 -1.221636 -0.940198 -0.506482 -0.276568 -0.719857 0.805688 -1.024774 -0.852815 0.271548 0.278859 -0.535099 1.411605 0.928332 0.611501 1.420428 0.257425 0.920090 -0.427578 -0.151555 -0.576006 0.335443 -0.587663 1.209168 0.104832 0.384906 -0.299200 -1.824334 -0.754625 -0.386496 0.247836 1.189409 0.711386 0.135264 -0.363603 1.869602 0.619005 -0.705221 1.431011 0.316467 -0.196226 -0.283700 -0.941856 -0.309783 -2.003149 1.241777 1.913092 -0.380620 -0.259336 -0.378427 -0.340406 -0.402084 1.006693 -0.064981 0.153382 0.534689 1.124659 -0.358039 0.612009 0.335026 1.097043 -0.381842 0.771459 -0.268686 -0.421207 -2.414444 -0.095060 1.841021 0.736610 1.637119 0.863962 -0.700239 0.214783 0.598101 0.071694 -0.643476 0.206863 -1.172421 0.300653 -1.550621 0.494467 -1.126796 -0.707129 -0.216456 0.180445 0.825403 0.755612 0.420840 -0.125401 0.972766 -0.127274 2.092363 -0.356380 0.709130 0.840774 -1.198679 -0.315243
