1180 100
the 0.123432 0.255428 0.369080 0.159847 0.386123 -0.201476 0.121753 0.949695 -0.392314 0.204868 -0.143761 0.347348 0.091517 -0.242012 -0.480566 0.201315 -0.197962 0.073007 -0.152600 0.308272 -0.046152 0.411773 0.204772 0.114020 0.384976 -0.391249 -0.240507 0.066120 -0.093349 0.128056 0.160479 -0.391988 0.167314 0.041324 0.152528 -0.033198 0.130864 -0.268729 -0.027266 -0.062081 0.224259 -0.468905 -0.279307 0.361026 -0.080124 -0.227970 -0.079659 -0.023698 -0.020039 -0.168738 -0.184886 0.275167 -0.316675 -0.144384 -0.311338 -0.309456 0.018517 -0.105297 0.357850 0.524021 -0.475010 -0.640420 0.058596 -0.124923 0.159588 0.148206 -0.171013 0.086383 0.262721 0.482868 0.087046 0.412271 -0.511374 -0.186949 -0.327925 -0.148524 -0.029643 0.036175 0.284551 -0.144959 -0.097204 0.398495 0.345617 -0.230071 0.238125 0.055032 0.114269 -0.289737 -0.098691 0.523401 -0.603308 -0.622442 0.092735 0.088345 0.202180 0.053616 -0.196552 0.024152 -0.278718 0.116651
of 0.207932 0.326273 0.485604 0.229406 0.327993 0.164624 0.199986 0.812031 -0.289926 0.375624 -0.311006 0.286204 0.316704 -0.322470 -0.282326 0.189794 -0.197145 -0.271796 -0.199968 0.373284 0.181681 0.302783 0.044208 0.349220 0.408120 -0.313300 -0.240855 0.226023 0.209682 0.221272 0.357289 -0.499726 -0.060504 -0.150760 0.217226 -0.211978 0.148045 -0.329956 0.093405 -0.054625 0.208879 -0.329827 -0.420746 0.336094 0.194271 -0.179956 -0.441867 0.020086 0.130589 -0.397413 -0.403941 0.183421 -0.371681 -0.174766 -0.162419 -0.227119 -0.058904 0.056854 0.237572 0.560922 -0.397380 -0.583401 0.140175 -0.162590 0.226614 -0.096444 0.045201 0.038342 0.327300 0.343340 -0.203807 0.663808 -0.445059 -0.339940 -0.554074 -0.536349 -0.192677 -0.088696 0.378771 -0.137158 -0.042625 0.508158 0.305790 -0.069563 0.165340 -0.197464 -0.100315 -0.103695 -0.230635 0.454493 -0.573696 -0.652422 0.280798 -0.085012 0.153708 -0.144790 -0.464172 -0.030470 -0.077593 0.078268
to 0.281990 -0.104380 0.313337 -0.156782 0.122958 0.054674 -0.108505 0.553272 -0.013239 0.464303 0.129668 -0.026970 0.139509 -0.102618 0.357660 0.241884 0.021319 0.196694 -0.142064 0.151886 -0.139043 0.108112 0.345434 -0.043691 0.111953 -0.283801 0.359920 0.521673 0.199779 -0.213728 0.399488 -0.342084 0.040228 0.248669 0.215267 -0.274642 -0.035731 0.069197 0.374639 0.353674 0.013928 0.117454 -0.569068 0.146520 0.214303 -0.213958 -0.218244 0.008514 0.212383 0.062028 -0.009843 0.213152 -0.112453 0.027306 0.048290 -0.175331 0.169144 0.425582 0.481856 0.127019 -0.155315 -0.366346 0.300352 -0.026830 -0.061460 -0.058274 0.079913 0.099211 0.226444 0.170994 0.395100 0.535049 -0.010396 -0.206204 -0.046847 -0.481919 0.133809 0.045298 -0.147143 -0.041428 -0.174532 -0.164594 -0.000779 -0.261360 -0.028033 -0.001668 -0.316552 -0.288900 -0.051654 0.552001 0.068787 -0.173219 0.018858 0.195101 -0.374658 -0.187669 -0.214652 -0.044303 0.289300 0.112350
and 0.208893 0.050583 0.380026 0.021648 0.224608 -0.001514 0.026445 0.732029 -0.175765 0.203014 0.029438 0.116151 0.093337 -0.112111 -0.066472 0.231844 -0.156098 0.176381 -0.145388 0.229450 -0.111017 0.261318 0.259992 0.134277 0.205270 -0.410635 0.068614 0.218545 0.146550 -0.024201 0.367106 -0.364891 0.091248 0.064059 0.169299 -0.201851 0.056919 -0.027753 0.099760 0.129432 0.141367 -0.181894 -0.513559 0.161212 0.073837 -0.179520 -0.248643 -0.102447 0.176614 -0.094319 -0.153040 0.252657 -0.112527 -0.041242 -0.136152 -0.203544 0.186926 0.254480 0.375983 0.299019 -0.225088 -0.449408 0.102429 -0.071961 0.052292 -0.006205 -0.010035 0.106148 0.169737 0.252006 0.237145 0.461931 -0.172264 -0.230553 -0.250477 -0.363308 -0.004302 0.063805 0.000423 -0.140651 -0.074027 0.065300 0.078387 -0.223914 0.094038 0.024851 -0.160294 -0.263226 -0.056433 0.537510 -0.300982 -0.350836 0.112954 0.138811 -0.049324 -0.119882 -0.275673 0.036692 0.065068 0.129137
in 0.172294 0.271284 0.397953 0.115826 0.311488 -0.107116 0.134538 0.811013 -0.182901 0.432079 -0.091920 0.259222 0.231099 -0.211341 -0.119426 0.264484 -0.110889 -0.006175 -0.107378 0.355942 0.021523 0.159587 -0.103157 0.165539 0.367770 -0.308288 -0.116469 0.307328 0.130539 0.085564 0.271649 -0.395389 -0.018767 -0.013362 0.156496 -0.176604 0.070055 -0.314351 0.173611 0.027793 0.127199 -0.252513 -0.312271 0.271188 0.128410 -0.106598 -0.226336 0.026723 0.042152 -0.288723 -0.249844 0.139911 -0.390943 -0.114946 -0.151542 -0.144539 -0.130185 0.009175 0.338651 0.341699 -0.356361 -0.430106 0.170401 -0.120821 0.247607 -0.005190 -0.004370 0.022912 0.268832 0.360501 0.004234 0.540031 -0.445019 -0.231912 -0.315499 -0.382213 0.121352 0.035867 0.246569 -0.157394 -0.060132 0.339155 0.304573 -0.107350 0.158291 -0.162027 -0.140785 -0.199396 -0.177637 0.469950 -0.465784 -0.526353 0.100839 0.013923 -0.068706 -0.093244 -0.285086 0.003873 -0.137565 0.111532
a -0.188682 -0.011952 0.197377 0.070862 0.034458 -0.138667 0.089426 0.870525 0.056476 0.423955 0.001828 0.334937 0.423754 -0.050470 0.119968 0.185362 -0.022476 0.155710 -0.176469 0.405885 -0.006034 0.237403 0.034606 -0.154105 0.463776 -0.076635 0.043058 0.216596 0.136785 -0.228643 -0.142534 -0.231137 0.186160 -0.073287 0.091090 -0.357079 0.153335 -0.154521 0.049760 0.174724 0.104095 -0.201696 -0.723338 0.302991 -0.016491 -0.158384 0.106631 0.063019 0.011581 -0.266065 -0.161154 0.049803 -0.559833 -0.100593 -0.120111 -0.362599 0.159325 0.148807 0.362453 0.311170 -0.438997 -0.107697 0.270483 0.069253 0.357007 -0.092555 0.148823 -0.173558 0.439641 0.387921 0.261037 0.658524 -0.218388 0.070662 -0.395425 -0.216553 0.177127 -0.162440 0.002670 -0.292462 0.011131 0.312375 0.238876 -0.262778 -0.120306 0.032543 -0.064026 0.003027 0.082102 0.588419 -0.405418 -0.406683 -0.208915 0.231859 -0.299754 -0.087684 -0.278014 -0.030896 -0.139505 0.162480
that 0.171581 0.113741 0.296745 -0.095951 0.220796 -0.374122 0.054185 0.713028 -0.096547 0.569023 -0.060299 0.138057 0.215379 -0.218783 0.020825 0.289222 -0.031685 0.101172 -0.051035 0.298851 -0.116545 0.020911 -0.042647 -0.220019 0.270757 -0.245076 0.012509 0.373363 0.005471 -0.121981 -0.053577 -0.453499 -0.051355 0.143897 0.268539 -0.159469 0.051972 -0.143079 0.311718 0.231818 0.058711 -0.320911 -0.393583 0.280085 0.051462 -0.120155 0.066349 0.066180 0.021475 -0.276543 0.086441 0.214201 -0.471614 -0.148264 -0.103672 -0.185902 0.005100 0.123411 0.363089 0.226209 -0.437320 -0.405922 0.367095 -0.005156 0.300629 0.149224 -0.191156 -0.073435 0.336647 0.456442 0.449247 0.384696 -0.400494 -0.188399 0.082496 -0.202096 0.217340 0.132074 0.075948 -0.048652 -0.122462 0.286497 0.364479 -0.203191 0.050386 -0.058094 -0.178555 -0.327631 -0.089293 0.530069 -0.308899 -0.282356 -0.185027 0.117579 -0.200302 -0.119801 0.056678 -0.016785 -0.022077 0.062791
it 0.258960 0.013175 0.252190 -0.239725 0.232579 -0.602324 0.029593 0.660527 -0.037993 0.547701 0.070751 0.021830 -0.004635 -0.137705 0.179534 0.335900 -0.113359 0.331175 0.070853 0.248133 -0.298664 -0.183419 -0.028838 -0.406778 0.140895 -0.269618 0.252267 0.437474 -0.088265 -0.254914 -0.089833 -0.460788 -0.060690 0.283496 0.295364 -0.118329 -0.053206 -0.027960 0.385667 0.417810 -0.022850 -0.232998 -0.476514 0.194378 -0.055029 -0.045790 0.169531 0.032595 -0.039986 -0.161270 0.284647 0.275111 -0.420179 -0.099997 -0.046524 -0.167412 0.066675 0.319744 0.432335 0.051184 -0.370458 -0.378727 0.387264 0.049780 0.220039 0.177979 -0.222612 0.036099 0.272522 0.395998 0.714643 0.240734 -0.264183 -0.223375 0.289416 -0.117791 0.372228 0.201271 -0.124878 0.021535 -0.150170 0.056722 0.292609 -0.268748 0.014713 0.002415 -0.292031 -0.446414 -0.021380 0.630441 -0.215704 -0.109824 -0.311900 0.201243 -0.295491 -0.101635 0.171874 0.072174 -0.010794 0.038307
is 0.257373 0.147500 0.238499 -0.062445 0.245298 -0.523423 0.052599 0.642992 -0.082981 0.648151 -0.051698 0.039828 0.209471 -0.223482 0.109276 0.310226 -0.011045 0.101955 0.009292 0.226818 -0.228507 -0.151535 -0.141395 -0.242191 0.166669 -0.174318 0.132043 0.635762 0.049871 0.023078 -0.004067 -0.444319 -0.070196 0.145063 0.211446 -0.152099 -0.033267 -0.320962 0.271714 0.293973 0.002961 -0.141421 -0.483172 0.177785 0.012863 0.019244 0.108070 0.108718 -0.073499 -0.283149 0.092829 0.246909 -0.500434 -0.081308 0.026772 -0.158120 -0.108654 0.087831 0.338165 0.093029 -0.365667 -0.301831 0.432959 -0.053293 0.347069 0.166643 -0.095836 0.040831 0.331470 0.423541 0.317635 0.445041 -0.422281 -0.109745 0.032414 -0.193862 0.401254 0.004486 0.094025 -0.034272 -0.254041 0.168253 0.305871 -0.183218 0.041731 -0.273451 -0.247824 -0.333735 -0.189851 0.491440 -0.297663 -0.246187 -0.182177 0.066850 -0.386065 -0.114155 -0.026922 -0.051088 -0.094150 0.041840
be 0.233698 -0.108078 0.196522 -0.288997 0.164183 -0.505235 0.030819 0.704870 0.010617 0.465118 0.078262 -0.044692 -0.100573 0.001082 0.182219 0.361788 -0.236667 0.582687 0.036503 0.207306 -0.378198 -0.171267 0.099593 -0.438278 0.017895 -0.340534 0.362125 0.462575 -0.088064 -0.288563 -0.012342 -0.387706 -0.084290 0.332392 0.222788 -0.150307 -0.070668 0.093542 0.220705 0.398048 0.076917 -0.136062 -0.733896 -0.015850 -0.105059 0.058065 0.189166 -0.121849 0.100053 -0.044358 0.365105 0.211084 -0.277590 0.017622 -0.123175 -0.044020 0.201158 0.487571 0.406569 -0.078754 -0.221486 -0.300038 0.327763 0.055808 0.194056 0.120564 -0.244291 0.105251 0.218931 0.389070 0.810201 0.183189 -0.157757 -0.170162 0.356533 -0.020908 0.453939 0.196451 -0.302134 0.139951 -0.084364 -0.261472 0.161162 -0.402174 0.103506 -0.029161 -0.308550 -0.514929 0.004331 0.665659 -0.216981 0.002612 -0.282340 0.237139 -0.311650 -0.098502 0.108438 0.160872 0.132326 0.019761
as 0.120296 0.076260 0.320338 -0.086503 0.130741 -0.253066 0.110799 0.585252 0.002457 0.389987 0.103070 -0.034967 0.042633 -0.085926 0.191402 0.229883 -0.195468 0.191870 -0.002396 0.163748 -0.108666 -0.040439 -0.172999 -0.292263 0.311891 -0.211550 0.185944 0.516953 0.212853 -0.199743 0.239138 -0.257120 -0.243735 0.196751 0.339106 -0.338141 0.071699 -0.080001 0.456899 0.236038 -0.077029 -0.180804 -0.616795 0.213643 0.135656 0.117022 -0.110137 -0.111360 0.133540 -0.042398 0.038179 0.252607 -0.267561 -0.029857 -0.043757 -0.304855 0.114511 0.340306 0.360756 -0.006517 -0.323160 -0.351430 0.298877 0.024017 0.334397 0.137528 0.012618 0.116211 0.298375 0.450255 0.448387 0.514294 -0.206637 -0.156637 0.033242 -0.145671 0.263368 0.233490 0.042945 0.014241 -0.212826 0.182760 0.253640 -0.208949 0.191961 -0.097328 -0.414106 -0.163540 -0.146231 0.592788 -0.140476 -0.322293 -0.001745 0.133955 -0.314174 -0.169917 -0.192026 0.098258 0.039766 0.237363
or 0.187431 0.049840 0.141617 -0.012908 0.076916 -0.075520 -0.009994 0.946639 -0.134904 0.151610 0.012774 0.075315 0.138630 0.119475 0.055659 0.137260 -0.132036 0.369811 0.043800 0.231483 -0.262080 0.303085 0.380669 0.214367 0.080320 -0.349239 0.211546 0.312651 0.274143 0.101489 0.393449 -0.203001 0.108709 0.076351 0.108473 -0.098088 -0.230880 -0.001760 -0.179452 0.193026 0.087940 0.007555 -0.673689 0.079065 0.020345 -0.047179 -0.116186 -0.068835 0.192126 0.028514 -0.258025 0.174414 -0.209580 0.166512 -0.194451 -0.132498 0.147316 0.225561 0.520258 0.174604 -0.001715 -0.177567 0.052231 -0.297391 -0.078165 -0.135736 0.137359 0.127061 -0.001535 0.245668 0.123914 0.553587 -0.084361 0.010638 -0.395864 -0.342502 0.229601 -0.254268 -0.208342 -0.142274 -0.052117 -0.203430 -0.102416 -0.195150 0.152074 0.021162 -0.120367 -0.156828 0.095417 0.418988 -0.426547 -0.259640 -0.003010 0.102328 -0.112078 -0.057575 -0.386348 -0.018702 -0.085615 0.057862
his -0.050891 -0.223840 0.179985 0.103130 0.044151 0.397630 0.100819 0.612656 0.058161 0.221245 -0.158274 0.181886 0.392179 0.032601 0.295134 -0.071205 -0.190146 0.141472 -0.337067 0.150072 0.128976 0.575732 0.767285 -0.042924 0.311712 -0.064191 0.504815 0.160930 0.320814 -0.339860 -0.059699 -0.416517 0.402450 0.024041 0.225414 -0.672191 0.084170 0.461042 0.143108 0.545599 0.260379 0.087964 -1.129375 0.403926 0.088859 -0.519556 -0.074115 0.047460 0.168783 -0.007958 -0.113438 0.240023 -0.210369 0.011068 -0.132107 -0.594210 0.356473 0.531944 0.469756 0.332303 -0.339864 0.045849 0.355884 -0.093300 -0.108524 -0.157066 0.265821 -0.112111 0.225150 -0.007254 0.628129 0.898887 0.376830 -0.059772 -0.507349 -0.471522 -0.230123 -0.262590 -0.258229 -0.124536 -0.079022 0.077037 -0.082064 -0.285337 -0.500635 0.138124 -0.167590 0.177063 0.203870 0.730734 -0.152848 0.004132 -0.157130 0.350730 -0.296212 -0.276425 -0.192072 -0.034430 0.224444 0.174388
for 0.213040 0.136653 0.368178 0.030640 0.223893 -0.043371 0.064900 0.725711 -0.144450 0.336091 -0.066743 0.107705 0.205953 -0.098414 -0.012002 0.164346 -0.152399 0.065149 -0.074819 0.287970 -0.068373 0.140969 0.150272 0.122757 0.196160 -0.290503 0.095414 0.315102 0.160635 0.041014 0.258583 -0.421038 -0.050161 0.050065 0.257813 -0.201999 0.026713 -0.074523 0.206129 0.168893 0.123580 -0.191243 -0.521350 0.218494 0.140324 -0.148310 -0.211896 -0.021992 0.103126 -0.186181 -0.136717 0.240941 -0.251324 -0.059138 -0.109923 -0.186399 0.066765 0.205883 0.353068 0.302398 -0.277162 -0.371570 0.227216 -0.134455 0.103016 -0.029446 0.010599 0.069008 0.188791 0.278375 0.228315 0.518683 -0.192115 -0.240868 -0.259869 -0.390821 0.042071 0.033528 0.020125 -0.087352 -0.108872 0.188062 0.167453 -0.128767 0.049217 -0.058588 -0.189190 -0.188679 -0.089294 0.509493 -0.385406 -0.301160 0.053686 0.076751 -0.078348 -0.144399 -0.237098 -0.000877 -0.012627 0.084247
by 0.180200 0.001523 0.340355 0.022242 0.173761 0.119988 0.028160 0.668129 -0.100492 0.359630 -0.088778 0.094938 0.203302 -0.128438 0.082261 0.151492 -0.098194 0.055458 -0.170135 0.253936 -0.017918 0.270853 0.335825 0.118128 0.196482 -0.274737 0.153776 0.276676 0.164332 -0.061388 0.232753 -0.467349 0.061923 0.115116 0.258437 -0.287975 0.084284 0.042126 0.184006 0.234170 0.167560 -0.112111 -0.639066 0.227425 0.136202 -0.248204 -0.226420 -0.025918 0.135342 -0.106708 -0.080749 0.229614 -0.176115 -0.095163 -0.066282 -0.194319 0.138040 0.354763 0.353441 0.322881 -0.302294 -0.385178 0.236930 -0.091563 0.098476 -0.089000 0.021222 0.052111 0.220400 0.197661 0.294930 0.531379 -0.055579 -0.260810 -0.246966 -0.516004 -0.104468 0.003137 -0.051743 -0.089472 -0.088315 0.097263 0.101145 -0.181955 -0.087168 0.049673 -0.194449 -0.227966 -0.024649 0.586984 -0.220905 -0.238225 0.009560 0.127698 -0.107182 -0.224091 -0.201959 -0.005338 0.168585 0.077833
he 0.052907 -0.175694 0.156796 -0.164180 -0.023736 -0.296496 0.040715 0.631280 0.144603 0.632876 0.009264 0.147613 0.420605 -0.045126 0.390507 0.076198 -0.030742 0.177633 -0.009921 0.381291 -0.156718 0.022681 0.086122 -0.415227 0.316552 -0.001816 0.347725 0.423368 0.096766 -0.392533 -0.307455 -0.522644 0.087616 0.017298 0.272279 -0.465256 -0.038964 0.106954 0.408057 0.536453 -0.046111 -0.120910 -0.881050 0.335433 0.030024 -0.205628 0.257708 0.141288 -0.045392 -0.236856 0.146863 0.135699 -0.585475 -0.145806 0.020918 -0.380814 0.197437 0.471751 0.378353 0.136196 -0.445571 -0.057022 0.499812 0.059913 0.211446 -0.068872 0.046541 -0.125657 0.400973 0.309435 0.758634 0.661021 -0.001772 -0.084175 -0.094503 -0.326711 0.252840 -0.063608 -0.314209 -0.122704 -0.108836 0.228836 0.117803 -0.320379 -0.380340 0.046752 -0.331595 -0.069434 0.182426 0.727073 -0.176163 0.051141 -0.450626 0.306334 -0.409001 -0.155370 0.079332 0.048032 0.072715 -0.017081
any 0.123808 0.129190 0.117837 -0.069401 0.005260 -0.417140 0.033452 0.963925 -0.125534 0.349016 -0.057162 0.173681 0.239350 0.069555 0.021190 0.146476 -0.005149 0.338106 0.131375 0.337124 -0.368895 0.167803 0.145026 -0.113385 0.186183 -0.233456 0.118577 0.384988 0.160580 -0.018123 -0.005518 -0.150881 0.008271 0.065072 0.194951 -0.049405 -0.200883 -0.182926 -0.107348 0.208402 0.000626 -0.171893 -0.673882 0.117053 -0.066037 0.050604 0.184941 0.076371 0.070552 -0.067165 -0.048959 0.112601 -0.464079 0.045579 -0.203212 -0.103517 0.153636 0.100697 0.482712 0.156594 -0.183985 -0.124596 0.228710 -0.172752 0.140331 -0.061578 -0.045176 0.002038 0.142827 0.496408 0.325509 0.513610 -0.230971 0.095800 -0.157641 -0.178837 0.391047 -0.267747 -0.191248 -0.125330 -0.108478 -0.020899 0.054762 -0.266303 0.181377 -0.031202 -0.032171 -0.223768 0.132460 0.432796 -0.466835 -0.263339 -0.215135 0.149270 -0.116565 0.014837 -0.182512 -0.057543 -0.237463 0.040026
they 0.260024 -0.124270 0.363964 -0.265593 0.204325 -0.252215 -0.092313 0.625482 -0.040686 0.375050 0.348428 0.066743 -0.067411 -0.147418 0.199048 0.363315 -0.078460 0.423143 -0.158953 0.347019 -0.299931 0.024721 0.136162 -0.287198 0.183282 -0.523568 0.159665 0.178496 -0.118397 -0.422119 0.261876 -0.530616 0.145758 0.237390 0.197905 -0.170885 0.128136 0.054720 0.363885 0.284140 0.049350 -0.227976 -0.500221 0.029429 -0.008462 -0.199300 -0.058000 -0.103269 0.028779 -0.016796 0.293529 0.295403 -0.133869 -0.149497 -0.027192 -0.068937 0.251907 0.419270 0.413825 0.148707 -0.301973 -0.571755 0.225817 0.223658 0.128380 0.036893 -0.208134 0.129317 0.221920 0.238601 0.733896 0.111382 -0.055321 -0.297204 0.256234 -0.391893 0.163869 0.397862 -0.285944 -0.168163 -0.023354 -0.138159 0.193246 -0.346957 -0.013397 0.266628 -0.249358 -0.591909 0.058493 0.755517 -0.103266 -0.152004 -0.170478 0.321256 -0.219462 -0.159913 0.063968 0.168475 0.194982 0.123590
their 0.098523 -0.080463 0.360298 0.045908 0.235451 0.241496 0.020096 0.643300 -0.151168 0.102565 0.064304 0.118894 0.075480 -0.107398 -0.009003 0.179938 -0.234078 0.229820 -0.315332 0.185693 -0.039088 0.490700 0.584586 0.079759 0.240888 -0.416648 0.205797 0.030171 0.076985 -0.183984 0.312201 -0.419842 0.356017 0.137282 0.172170 -0.381100 0.172475 0.203914 0.129638 0.200910 0.274527 -0.110314 -0.696451 0.190311 0.068293 -0.440991 -0.278373 -0.148198 0.141965 0.014478 -0.075708 0.341400 0.052582 -0.055615 -0.155058 -0.307726 0.309109 0.404021 0.426348 0.400235 -0.274829 -0.413279 0.134225 -0.028030 -0.089543 -0.058329 -0.003096 0.139598 0.161752 0.052830 0.427794 0.433384 0.112738 -0.243811 -0.289049 -0.442041 -0.232786 0.093285 -0.120526 -0.165863 -0.041607 -0.030221 0.016250 -0.283549 -0.148583 0.260151 -0.078107 -0.247157 0.105492 0.675831 -0.173255 -0.260589 0.091249 0.273815 -0.063459 -0.227591 -0.187820 0.037701 0.172500 0.199424
which 0.204774 0.063583 0.331989 -0.072347 0.236339 -0.292656 0.060697 0.734755 -0.137980 0.474575 -0.013490 0.113277 0.158082 -0.190606 0.032015 0.273415 -0.123079 0.119056 -0.038944 0.341804 -0.129848 0.018115 0.025894 -0.101127 0.240093 -0.277785 0.038585 0.313457 -0.014545 -0.053720 0.032408 -0.478728 -0.015915 0.130718 0.283791 -0.177664 0.067726 -0.100449 0.294575 0.186191 0.095132 -0.270404 -0.431876 0.257887 0.043778 -0.142069 -0.054060 0.047182 0.027600 -0.246408 0.017242 0.249069 -0.351615 -0.146192 -0.139520 -0.166147 0.030367 0.185531 0.378286 0.267062 -0.378344 -0.474162 0.276412 -0.023621 0.279796 0.065582 -0.162782 -0.000067 0.311445 0.359894 0.372967 0.346638 -0.300894 -0.246691 -0.016451 -0.310785 0.125299 0.127583 0.004490 -0.107340 -0.104510 0.216855 0.294677 -0.196217 0.004774 0.001431 -0.172225 -0.332259 -0.063089 0.581606 -0.332211 -0.308319 -0.122078 0.114519 -0.110898 -0.173967 -0.032926 0.019825 -0.013781 0.061441
not 0.240871 -0.055142 0.318135 -0.128701 0.222238 -0.270783 0.045689 0.661696 -0.041564 0.450922 0.108311 0.085887 0.065851 -0.132619 0.188176 0.333507 -0.124598 0.313710 -0.089645 0.214430 -0.153382 0.023936 0.181708 -0.201094 0.157591 -0.322491 0.242693 0.379709 -0.040126 -0.250882 0.142541 -0.465296 0.036162 0.247904 0.222635 -0.213478 0.042928 0.077487 0.367547 0.291945 0.085519 -0.099387 -0.537093 0.178171 0.025038 -0.154931 0.022783 -0.009066 0.058390 -0.073428 0.162623 0.225515 -0.234222 -0.041466 -0.068747 -0.157274 0.083412 0.350725 0.425123 0.083619 -0.340969 -0.405496 0.292982 0.044567 0.127664 0.136454 -0.120714 0.008377 0.239898 0.268263 0.592636 0.344169 -0.158007 -0.241932 0.104109 -0.235452 0.203985 0.185628 -0.113233 -0.009533 -0.127209 0.013442 0.211397 -0.290022 0.024576 0.023569 -0.282732 -0.384337 -0.062509 0.638674 -0.140254 -0.187592 -0.138401 0.219370 -0.260050 -0.181390 0.009239 0.097779 0.132720 0.096066
but 0.239304 0.065967 0.280490 -0.079866 0.182723 -0.307922 0.065058 0.661700 0.000426 0.537860 0.010683 0.098667 0.160499 -0.081062 0.150006 0.250846 -0.058798 0.227643 -0.069806 0.273165 -0.176409 0.036121 0.094564 -0.181883 0.183118 -0.198604 0.247247 0.471153 -0.001078 -0.114439 0.021315 -0.446189 -0.014044 0.177683 0.251480 -0.219646 -0.017883 -0.035559 0.286220 0.324794 0.076000 -0.099862 -0.583533 0.159269 0.021904 -0.106181 0.067133 0.076742 -0.004849 -0.149376 0.107521 0.214911 -0.341072 -0.072418 -0.061708 -0.170532 0.051845 0.279194 0.410621 0.141320 -0.348753 -0.325438 0.383165 -0.005313 0.169556 0.095675 -0.080265 -0.014316 0.248415 0.351108 0.469605 0.423956 -0.187868 -0.195739 0.024424 -0.309535 0.244200 0.064139 -0.096867 -0.059627 -0.148719 0.067355 0.200303 -0.237608 -0.009690 -0.066576 -0.230899 -0.280184 -0.075043 0.638812 -0.252676 -0.139285 -0.177986 0.125216 -0.301410 -0.152316 -0.005862 0.052300 0.058085 0.055940
power -0.030021 0.022957 0.172660 0.145206 0.093842 -0.084551 0.081356 0.704542 0.026234 0.450548 -0.186175 0.180103 0.443276 -0.059209 0.037672 0.036670 -0.023198 -0.034064 -0.153284 0.364842 -0.023596 0.315690 0.157181 -0.053329 0.362857 0.038180 0.071151 0.227411 0.115248 -0.012811 -0.207867 -0.494552 0.086530 -0.021071 0.244705 -0.400095 0.123863 -0.068047 0.143704 0.291188 0.085328 -0.218515 -0.676192 0.366295 0.011973 -0.274397 0.079712 0.101587 -0.083453 -0.279030 -0.092356 0.247041 -0.447366 -0.136145 -0.095266 -0.321252 0.047314 0.280686 0.315071 0.401448 -0.501041 -0.188146 0.429842 -0.137108 0.307033 -0.078643 0.139404 -0.139255 0.315558 0.351296 0.360657 0.589837 -0.093926 -0.099063 -0.372494 -0.406718 -0.060197 -0.149079 -0.122310 -0.275497 -0.088747 0.353281 0.211240 -0.122291 -0.337653 0.030661 -0.132367 -0.050014 0.160593 0.674154 -0.410247 -0.184667 -0.315375 0.094495 -0.237170 -0.284396 -0.049073 -0.060032 -0.047181 0.037416
have 0.153373 -0.119599 0.210703 -0.207378 0.105083 -0.195335 -0.052328 0.612788 0.055222 0.594267 0.183010 0.026681 0.179494 -0.080172 0.314635 0.327429 -0.058439 0.256845 -0.098861 0.297153 -0.222252 0.047893 0.018905 -0.269863 0.107092 -0.271643 0.237305 0.414965 0.076975 -0.273903 0.100286 -0.443089 0.073502 0.252846 0.166002 -0.313392 0.128188 -0.009036 0.272610 0.270759 0.052639 -0.008743 -0.718228 0.007844 0.040039 -0.095348 -0.039277 -0.068271 0.089383 -0.155770 0.149657 0.245668 -0.205379 -0.075953 0.025814 -0.091287 0.160451 0.410160 0.338536 0.067164 -0.257246 -0.262051 0.345064 0.103981 0.257015 -0.039861 -0.073611 0.046686 0.332344 0.286577 0.496625 0.312938 -0.122390 -0.152743 0.095709 -0.399189 0.171200 0.109772 -0.249802 -0.093213 -0.075747 -0.139015 0.167448 -0.260624 -0.109308 0.017117 -0.238738 -0.392143 0.029017 0.670382 -0.030836 -0.181080 -0.181917 0.208319 -0.442612 -0.294870 -0.109442 -0.056038 0.238447 0.105476
all 0.259560 0.143770 0.330915 -0.005933 0.283832 -0.243138 0.097590 0.796098 -0.221992 0.192822 0.030357 0.165763 -0.046958 -0.097033 -0.179565 0.252348 -0.218062 0.286989 -0.037058 0.235641 -0.179207 0.141830 0.125463 0.081727 0.163155 -0.444038 -0.000087 0.197055 0.023185 0.067159 0.314012 -0.376791 0.041529 0.103135 0.173238 -0.026612 -0.015064 -0.105782 0.080812 0.068626 0.160108 -0.214580 -0.363917 0.110000 -0.017572 -0.111627 -0.127465 -0.061856 0.063974 -0.131656 -0.095179 0.247167 -0.158738 -0.038682 -0.242202 -0.115039 0.072617 0.064053 0.398482 0.219537 -0.256407 -0.484320 0.063502 -0.106605 0.127183 0.094768 -0.135583 0.123830 0.116107 0.323374 0.216214 0.318899 -0.280674 -0.206002 -0.123808 -0.218277 0.170146 0.152537 0.040299 -0.086976 -0.068690 0.064641 0.198420 -0.234543 0.251930 -0.000147 -0.114938 -0.340716 -0.110523 0.446913 -0.403684 -0.382323 0.081259 0.141217 0.042697 -0.055084 -0.166866 0.111826 -0.075498 0.111010
this 0.237508 0.123515 0.180095 -0.000264 0.209397 -0.355540 0.064955 0.911297 -0.114053 0.214349 0.096453 0.161288 -0.031696 0.092562 -0.012033 0.225760 -0.195745 0.462129 0.071079 0.180692 -0.279567 0.091546 0.176382 0.058397 0.076377 -0.407359 0.148392 0.325198 0.041984 0.063579 0.305309 -0.197060 0.029572 0.167361 0.109926 -0.009250 -0.175493 -0.066519 -0.053167 0.130391 0.104857 -0.097860 -0.414653 0.078397 -0.039406 0.015381 0.023123 -0.071975 0.082267 -0.035005 -0.131942 0.150656 -0.245133 0.120787 -0.263043 -0.117730 0.035177 0.096588 0.481155 0.064453 -0.101685 -0.293625 0.046506 -0.184909 0.062161 0.075591 -0.056286 0.092355 0.023173 0.339761 0.251703 0.334314 -0.272900 -0.033951 -0.128585 -0.088807 0.395412 0.015719 -0.020196 -0.078008 -0.079566 -0.095811 0.103300 -0.236858 0.313329 -0.023140 -0.124540 -0.268682 -0.092067 0.405114 -0.457160 -0.289044 -0.021814 0.095400 -0.108771 0.027152 -0.224953 0.105721 -0.197889 0.070005
are 0.219880 0.006321 0.363981 -0.161185 0.305731 -0.212636 -0.038664 0.662711 -0.112221 0.444807 0.306224 0.022168 -0.087203 -0.185930 0.063223 0.427394 -0.107958 0.363460 -0.170569 0.178710 -0.260164 0.048911 0.000674 -0.140470 0.114380 -0.533079 0.037026 0.248480 -0.025670 -0.240354 0.402400 -0.396846 0.148032 0.315849 0.109393 -0.204595 0.199185 -0.064095 0.262685 0.052434 0.081581 -0.148842 -0.367345 -0.031763 0.005354 -0.118369 -0.248427 -0.132578 0.090539 -0.121748 0.085911 0.361727 0.034549 -0.080872 -0.089419 -0.040419 0.115337 0.215684 0.391613 0.099801 -0.253181 -0.613141 0.139539 0.156378 0.222740 0.138529 -0.237883 0.212074 0.221753 0.213596 0.420859 0.133270 -0.296634 -0.272865 0.137100 -0.328534 0.090766 0.415437 0.002813 -0.125280 -0.054252 -0.079432 0.230880 -0.330429 0.179124 0.109648 -0.166613 -0.569845 -0.076755 0.637284 -0.037905 -0.386697 0.061562 0.269554 -0.229138 -0.240079 -0.102447 -0.021804 0.165403 0.212688
no 0.211138 -0.070589 0.160991 -0.298079 -0.042054 -0.677928 0.008390 0.763912 0.042960 0.748433 0.041685 0.088577 0.427686 -0.029049 0.267440 0.284342 0.043570 0.263920 0.150207 0.502090 -0.384688 -0.131987 -0.005474 -0.445351 0.175390 -0.037232 0.247183 0.529581 -0.009998 -0.152836 -0.319506 -0.500326 0.063187 0.105062 0.246470 -0.243568 -0.162175 -0.199416 0.323094 0.375489 -0.059964 -0.077775 -0.763401 0.239125 -0.004013 -0.133131 0.298671 0.234992 -0.101528 -0.333300 0.169459 0.216137 -0.656518 -0.174354 -0.025917 -0.100980 0.103001 0.283094 0.473821 0.192287 -0.366314 -0.108496 0.575979 0.006084 0.275578 -0.052158 -0.091388 -0.021973 0.431120 0.460105 0.594297 0.469309 -0.239423 0.050804 0.029806 -0.302070 0.470835 -0.200424 -0.321613 -0.198453 -0.163427 0.100779 0.197173 -0.354886 -0.223642 -0.021679 -0.153345 -0.251643 0.270289 0.643901 -0.205455 -0.069679 -0.479913 0.224455 -0.348934 -0.214214 0.058457 -0.041450 -0.047597 -0.050863
them 0.144496 -0.085350 0.235268 -0.094869 0.174424 -0.153806 -0.040457 0.659740 -0.058092 0.305765 0.098815 0.069138 0.084852 -0.043115 0.100930 0.245524 -0.142122 0.282942 -0.079054 0.232721 -0.246021 0.139106 0.272752 -0.113853 0.119361 -0.371308 0.198156 0.232469 0.082005 -0.176184 0.160366 -0.411193 0.138646 0.205584 0.201399 -0.246320 0.089238 0.041636 0.183120 0.262423 0.089378 -0.129973 -0.621548 0.130391 0.000938 -0.191368 -0.068843 -0.110281 0.090814 -0.075845 0.073329 0.323731 -0.140266 -0.037121 -0.066211 -0.187325 0.204689 0.340174 0.403627 0.187549 -0.255062 -0.319205 0.230590 -0.005662 0.094778 -0.028072 -0.056035 0.097522 0.195563 0.228371 0.496220 0.315579 -0.034784 -0.170118 -0.073684 -0.287004 0.076017 0.121261 -0.187836 -0.110818 -0.056056 -0.074742 0.092492 -0.296655 -0.056937 0.134585 -0.144703 -0.350594 0.104949 0.587110 -0.160809 -0.179553 -0.113206 0.234508 -0.213469 -0.181978 -0.101717 0.022423 0.089826 0.069515
one 0.034120 0.166202 0.134664 -0.002400 0.080985 -0.377756 0.125203 0.839168 -0.053498 0.526462 -0.193508 0.171295 0.411099 -0.051868 0.094750 0.167956 -0.058190 0.069739 0.084332 0.404332 -0.197431 0.089129 -0.080755 -0.132538 0.394235 -0.078704 0.025635 0.342482 0.170046 -0.107779 -0.174431 -0.272404 -0.139749 0.099941 0.284849 -0.252874 0.008758 -0.243010 0.096381 0.310916 0.018908 -0.317135 -0.601482 0.259150 0.095904 -0.033586 0.085429 0.121526 0.030695 -0.220776 -0.102482 0.159960 -0.667677 -0.035967 -0.179160 -0.205468 0.030062 0.256845 0.378172 0.277789 -0.359572 -0.157430 0.455792 -0.184934 0.335080 -0.058134 0.028197 -0.091513 0.272297 0.533358 0.383171 0.551830 -0.241806 -0.060734 -0.140260 -0.195153 0.253636 -0.178836 -0.091309 -0.159702 -0.048787 0.280538 0.254754 -0.042363 -0.044120 -0.134130 -0.153706 -0.139846 0.118805 0.505618 -0.524517 -0.307393 -0.343007 0.063151 -0.223213 -0.111906 -0.011074 -0.145683 -0.228032 0.065304
with 0.164061 0.149170 0.285414 0.070621 0.202305 -0.029092 0.061642 0.963989 -0.150156 0.172544 -0.007296 0.175171 0.107718 0.066528 -0.063648 0.191949 -0.184762 0.279373 -0.012388 0.258546 -0.119261 0.240289 0.152158 0.309409 0.159127 -0.430984 0.030804 0.292041 0.267820 0.135558 0.530687 -0.221514 0.003351 -0.037880 0.062581 -0.088847 -0.093622 -0.134204 -0.101525 0.033891 0.126630 -0.050818 -0.434675 0.153529 0.068217 0.004582 -0.246214 -0.108846 0.233688 -0.114115 -0.400461 0.099542 -0.247223 0.111865 -0.278192 -0.122433 0.036671 0.044714 0.448289 0.189651 -0.078261 -0.318727 -0.037064 -0.177059 0.085689 -0.095381 0.130095 0.093133 0.065535 0.307032 -0.055422 0.558904 -0.294892 -0.023014 -0.460409 -0.308782 0.209886 -0.066516 0.067960 -0.139121 -0.023804 -0.004896 0.103321 -0.134064 0.320570 -0.109543 -0.144534 -0.113218 -0.172643 0.336045 -0.486155 -0.501572 0.199145 0.043187 -0.059906 -0.022577 -0.516591 0.019363 -0.167327 0.107302
so 0.156791 -0.002115 0.253778 -0.121603 0.166556 -0.264172 0.042278 0.616326 -0.005323 0.404012 0.108973 0.016514 0.039874 -0.088457 0.186896 0.244333 -0.120013 0.279393 0.001877 0.219128 -0.214813 -0.014455 0.011382 -0.252720 0.211564 -0.290073 0.211639 0.368361 0.117072 -0.214279 0.154738 -0.330522 -0.064245 0.221297 0.278215 -0.240929 0.036028 -0.011213 0.338495 0.288057 -0.025325 -0.143814 -0.580828 0.120570 0.050736 -0.019497 -0.009084 -0.042188 0.092609 -0.041160 0.116851 0.234640 -0.233403 -0.054340 -0.041826 -0.194668 0.139320 0.340339 0.365566 0.056921 -0.299223 -0.344536 0.306090 0.032911 0.204476 0.077961 -0.049365 0.102749 0.226900 0.331507 0.517428 0.359411 -0.152048 -0.160730 0.081355 -0.209707 0.243327 0.156279 -0.118165 -0.013467 -0.144293 0.010476 0.143238 -0.240530 0.067552 0.001504 -0.276960 -0.278202 -0.031412 0.585072 -0.128512 -0.199085 -0.129693 0.211079 -0.275758 -0.157040 -0.061804 0.064027 0.054893 0.149875
him -0.002949 -0.125276 0.199584 -0.032808 0.091639 0.014497 0.015866 0.667320 0.045030 0.387103 -0.023747 0.160127 0.264724 0.010661 0.181534 0.119893 -0.145586 0.158871 -0.138590 0.264169 -0.056766 0.241614 0.238757 -0.139858 0.258101 -0.137614 0.232213 0.216905 0.177813 -0.255773 -0.050459 -0.414951 0.150059 0.091734 0.185185 -0.388880 0.142805 0.096814 0.202357 0.346482 0.111220 -0.119699 -0.755045 0.242306 -0.000818 -0.229532 -0.029359 -0.005341 0.098054 -0.127478 -0.014090 0.200804 -0.281187 -0.067113 -0.088392 -0.332844 0.204364 0.334987 0.356608 0.240556 -0.332438 -0.192644 0.312735 0.032158 0.215232 -0.098731 0.083529 -0.063219 0.291116 0.233207 0.485151 0.536053 -0.002058 -0.123608 -0.242597 -0.306938 -0.029645 -0.001063 -0.181911 -0.150602 -0.032693 0.092278 0.120032 -0.285372 -0.210124 0.057155 -0.175285 -0.099191 0.116826 0.630039 -0.165518 -0.165723 -0.179742 0.233681 -0.265396 -0.189996 -0.158405 0.026643 0.090860 0.073465
from 0.203877 0.050808 0.267349 -0.043915 0.162697 -0.047224 0.037950 0.746913 -0.108851 0.324321 -0.003607 0.043828 0.133075 -0.063151 0.074619 0.206270 -0.052804 0.213990 -0.052090 0.225253 -0.174169 0.163960 0.217969 0.048976 0.132319 -0.356814 0.133490 0.387764 0.201593 -0.018830 0.335601 -0.335642 0.024756 0.108813 0.183999 -0.190158 -0.062757 -0.003548 0.119160 0.184561 0.093609 -0.066100 -0.545150 0.098050 0.122806 -0.126014 -0.166400 -0.055515 0.172149 -0.103804 -0.117795 0.221638 -0.214232 0.022250 -0.104236 -0.109738 0.098580 0.247796 0.418651 0.169512 -0.169333 -0.331885 0.191815 -0.116227 0.047128 -0.014528 -0.002306 0.094051 0.149531 0.256234 0.243283 0.443172 -0.150926 -0.154776 -0.170457 -0.390381 0.150323 -0.007476 -0.048529 -0.068218 -0.095540 -0.047873 0.045026 -0.197742 0.107578 0.000021 -0.198497 -0.239710 -0.033675 0.480618 -0.256872 -0.290461 -0.001078 0.138548 -0.178804 -0.147980 -0.227331 -0.035799 0.044158 0.103595
sect 0.239621 0.119566 0.275769 0.013085 0.255334 -0.400299 0.132834 0.768253 -0.088676 0.420244 0.037342 0.215705 0.101077 -0.082518 0.002567 0.319351 -0.127315 0.268930 -0.071070 0.246959 -0.185056 0.056013 0.003409 -0.024112 0.182942 -0.270505 0.098755 0.417901 -0.002373 -0.051264 0.151642 -0.332192 0.013767 0.141124 0.150424 -0.098947 -0.052882 -0.157778 0.107457 0.175499 0.069546 -0.170700 -0.443601 0.130185 -0.036971 -0.047624 0.067270 -0.038751 0.041418 -0.203230 -0.003117 0.131954 -0.376056 -0.016396 -0.155168 -0.138510 -0.007613 0.181331 0.391299 0.088665 -0.319710 -0.333966 0.204973 -0.074480 0.236987 0.119354 -0.061582 -0.002651 0.220957 0.360825 0.310377 0.390228 -0.332200 -0.179591 -0.023867 -0.188194 0.331721 0.048604 0.015520 -0.075982 -0.087419 0.031090 0.219001 -0.196017 0.171550 -0.085293 -0.241191 -0.361961 -0.132206 0.512116 -0.415482 -0.318269 -0.095536 0.105181 -0.255778 -0.087068 -0.120277 0.060899 -0.085077 0.060903
may 0.230237 -0.020182 0.244157 -0.151964 0.186973 -0.213943 -0.036929 0.638498 0.022531 0.468573 0.230514 -0.014830 0.011763 -0.039800 0.359439 0.325442 -0.015850 0.382936 -0.089210 0.061740 -0.239194 -0.033980 0.129720 -0.154753 0.118254 -0.310541 0.344232 0.563039 0.187009 -0.276895 0.347191 -0.211083 -0.039900 0.342455 0.201426 -0.229265 -0.032417 -0.013069 0.324841 0.319756 -0.065725 0.103444 -0.547845 0.043535 0.107221 -0.031610 -0.063362 0.005256 0.154853 0.107518 0.008410 0.174522 -0.158369 0.099354 0.001804 -0.204273 0.078200 0.352769 0.499863 -0.047186 -0.184920 -0.329175 0.291089 0.011889 0.094166 0.073761 0.021001 0.086429 0.183627 0.260491 0.425682 0.480633 -0.157755 -0.083069 0.088811 -0.247539 0.345643 0.122475 -0.106208 -0.028257 -0.188185 -0.197802 0.060875 -0.256239 0.164427 -0.072987 -0.314001 -0.320209 -0.135158 0.545712 0.023564 -0.218587 -0.029749 0.197122 -0.473813 -0.137093 -0.210186 -0.020249 0.156846 0.194476
i 0.356514 -0.069843 0.252828 -0.139562 0.181919 -0.462633 0.091575 0.691290 0.078646 0.378907 0.275688 0.065526 -0.086258 0.078223 0.248342 0.449617 -0.087149 0.665732 -0.020461 0.048918 -0.329055 -0.007297 0.172471 -0.197344 -0.018995 -0.396528 0.410546 0.597754 0.013945 -0.272806 0.295241 -0.236127 0.028504 0.334095 0.117972 -0.189407 -0.179115 0.097708 0.123084 0.320370 0.016505 0.111790 -0.582686 -0.093876 -0.048777 0.053212 0.176991 -0.091616 0.157433 0.097803 0.160426 0.068226 -0.216858 0.165734 -0.071156 -0.081618 0.147204 0.451767 0.520950 -0.217899 -0.147019 -0.259898 0.216334 0.047066 0.031477 0.193343 -0.103270 0.052355 0.048622 0.304651 0.624952 0.279821 -0.124022 -0.072691 0.215785 -0.099809 0.599768 0.122616 -0.225062 0.018285 -0.114745 -0.444450 -0.000757 -0.341574 0.254192 -0.042612 -0.383012 -0.426603 -0.148988 0.628867 -0.161527 -0.066242 -0.129155 0.240892 -0.505489 -0.050991 -0.096873 0.196560 0.127227 0.106202
has -0.021491 -0.050285 0.115377 -0.010205 -0.024375 -0.089957 0.047393 0.614985 0.136485 0.693609 -0.102293 0.185949 0.587075 -0.074128 0.319984 0.052390 0.040024 -0.178551 -0.131779 0.425920 0.037751 0.194090 -0.023517 -0.175245 0.367750 0.104694 0.203351 0.476043 0.344151 -0.122866 -0.252421 -0.478975 0.082217 -0.083837 0.238044 -0.493171 0.115755 -0.158242 0.238608 0.432095 0.021415 -0.013126 -0.871597 0.339493 0.089433 -0.181853 0.051039 0.174957 -0.021055 -0.396262 -0.095422 0.171484 -0.608999 -0.151642 0.077551 -0.429098 0.091560 0.237940 0.314724 0.258523 -0.477953 0.082391 0.561801 -0.040816 0.384218 -0.154358 0.271144 -0.206711 0.484114 0.382674 0.273028 0.816823 -0.116777 0.009497 -0.402074 -0.476415 0.090783 -0.278312 -0.098596 -0.249570 -0.149965 0.336807 0.204726 -0.111386 -0.428870 -0.184884 -0.228641 0.061195 0.050895 0.575562 -0.237804 -0.202950 -0.288284 0.104822 -0.525279 -0.289078 -0.232946 -0.146131 0.028958 0.034351
right -0.065894 -0.115868 0.130824 -0.062813 0.000169 -0.031479 -0.005317 0.653699 0.122227 0.447067 0.015127 0.147976 0.455451 0.035936 0.287791 0.071691 -0.053053 0.104244 -0.076084 0.403524 -0.063848 0.189878 0.115574 -0.139049 0.311493 -0.022765 0.219860 0.206700 0.208484 -0.188264 -0.186209 -0.436377 0.116927 0.019032 0.194455 -0.431352 0.105185 0.059292 0.241661 0.360538 0.068046 -0.122621 -0.781225 0.253350 0.059929 -0.227522 0.039903 0.111771 0.018386 -0.151268 -0.044261 0.099150 -0.437463 -0.108051 -0.071804 -0.282082 0.155037 0.338825 0.360146 0.284809 -0.341602 -0.067126 0.404675 -0.025696 0.246541 -0.210300 0.177514 -0.119865 0.318176 0.238742 0.475954 0.596744 0.039610 -0.016136 -0.282527 -0.398888 0.047295 -0.114183 -0.279772 -0.241585 -0.008392 0.111325 0.105745 -0.178244 -0.379392 0.041575 -0.179252 -0.044035 0.197564 0.628013 -0.192207 -0.058817 -0.294127 0.168839 -0.339624 -0.250076 -0.096599 -0.061291 0.069777 0.030310
who 0.125946 -0.063175 0.320750 -0.072765 0.086284 -0.141958 -0.046399 0.726402 -0.016383 0.513334 0.127262 0.087580 0.267011 -0.117549 0.152511 0.235852 0.011551 0.151942 -0.143776 0.337932 -0.158103 0.097153 0.107182 -0.154801 0.268240 -0.282422 0.062480 0.170786 0.087678 -0.248353 0.030217 -0.484617 0.110846 0.118023 0.258321 -0.318913 0.134430 0.023883 0.348309 0.219697 0.067436 -0.225485 -0.550971 0.249753 0.050478 -0.193028 -0.083499 0.005756 0.077585 -0.241499 -0.010752 0.310742 -0.343795 -0.171444 -0.065466 -0.202744 0.180724 0.295602 0.393094 0.274129 -0.377678 -0.457578 0.307427 0.121768 0.288615 -0.044941 -0.122628 -0.038670 0.267980 0.310254 0.586548 0.414249 -0.094718 -0.175055 -0.064468 -0.485427 0.009042 0.153227 -0.143668 -0.253845 -0.034941 0.125351 0.214524 -0.292775 -0.121486 0.145655 -0.226032 -0.304420 0.076921 0.717921 -0.210414 -0.179223 -0.170938 0.261462 -0.192990 -0.258572 -0.036214 -0.007601 0.157604 0.098296
man -0.117684 0.102732 0.111994 0.129330 0.022257 -0.188956 0.197280 0.824747 0.051961 0.502778 -0.201084 0.261287 0.583306 -0.021678 0.186586 0.003549 -0.143032 0.004876 0.001525 0.419005 -0.012594 0.176572 -0.084671 -0.073824 0.476147 0.099046 0.126843 0.281502 0.286498 -0.145826 -0.298151 -0.325866 -0.055795 -0.047250 0.254873 -0.472789 0.008112 -0.121211 0.136250 0.377618 0.018395 -0.289747 -0.788253 0.376938 0.115492 -0.139724 0.134852 0.177129 0.015021 -0.262332 -0.231953 0.063224 -0.671570 -0.075311 -0.164788 -0.361443 0.016516 0.284727 0.337316 0.325285 -0.411190 0.019540 0.463522 -0.170309 0.391090 -0.142917 0.207976 -0.220772 0.330975 0.420970 0.424418 0.795097 -0.118577 -0.000922 -0.391207 -0.288680 0.169691 -0.254010 -0.181395 -0.279895 -0.031383 0.392275 0.176546 -0.047368 -0.302093 -0.116780 -0.204349 0.080129 0.097600 0.583172 -0.525256 -0.238291 -0.354939 0.101799 -0.347485 -0.211608 -0.103993 -0.131221 -0.163317 0.094075
men 0.154710 0.152058 0.299756 -0.039876 0.247732 -0.300314 0.093253 0.756456 -0.163755 0.343989 0.029142 0.250893 0.093894 -0.134398 -0.101168 0.276993 -0.162971 0.207368 -0.067844 0.326340 -0.191602 0.135418 -0.002583 -0.057131 0.302841 -0.346448 -0.040635 0.156460 0.008656 -0.115043 0.127989 -0.407517 0.060504 0.148538 0.196942 -0.132153 0.088050 -0.180961 0.173124 0.160310 0.098089 -0.369909 -0.376407 0.167501 0.004319 -0.156129 -0.067033 0.004672 0.002077 -0.123784 0.005894 0.245114 -0.293181 -0.138705 -0.220349 -0.116401 0.021078 0.092428 0.367698 0.276243 -0.365671 -0.469120 0.220894 -0.027961 0.239012 0.063718 -0.174993 0.053933 0.183677 0.373575 0.416045 0.301521 -0.310651 -0.247171 -0.030212 -0.236088 0.136634 0.179684 -0.027276 -0.150772 -0.042443 0.160724 0.274741 -0.204329 0.114077 0.041023 -0.084282 -0.368084 -0.023866 0.580522 -0.400089 -0.370870 -0.075563 0.187092 -0.036321 -0.108677 -0.017003 0.041796 -0.086455 0.140606
government 0.208040 0.167182 0.264871 -0.024823 0.222938 -0.286672 0.015075 0.781050 -0.195070 0.265297 -0.006032 0.085006 0.069090 -0.076082 -0.069188 0.213170 -0.154882 0.157851 0.056704 0.291389 -0.176971 0.095120 0.020582 0.031307 0.186576 -0.335822 0.030039 0.238427 0.065481 0.123544 0.183195 -0.422173 -0.054681 0.126840 0.252843 -0.040661 -0.019865 -0.168965 0.130791 0.168685 0.098044 -0.315554 -0.375305 0.193735 0.011693 -0.080689 -0.104453 -0.027485 -0.016730 -0.137166 -0.038213 0.284414 -0.277584 -0.064188 -0.180146 -0.113101 -0.007995 0.099727 0.391588 0.292919 -0.297957 -0.406397 0.148742 -0.187247 0.145038 0.081800 -0.086446 0.099816 0.141902 0.337810 0.289136 0.349189 -0.295444 -0.207338 -0.129117 -0.248404 0.139612 0.110269 0.010784 -0.096500 -0.083061 0.175438 0.265685 -0.120765 0.117453 0.000602 -0.136169 -0.324671 -0.052445 0.460051 -0.447919 -0.334764 -0.052445 0.075107 -0.008799 -0.098236 -0.086569 -0.002162 -0.139642 0.077252
will 0.212945 -0.039427 0.203993 -0.100481 0.153464 -0.113414 -0.033488 0.590648 0.028604 0.458346 0.072524 0.060588 0.096854 -0.017910 0.311987 0.225024 -0.038232 0.259256 -0.105306 0.100991 -0.157627 0.107067 0.247723 -0.129872 0.102575 -0.244709 0.383831 0.483958 0.160216 -0.210537 0.205652 -0.320225 0.034594 0.277244 0.231468 -0.243701 0.000766 0.049947 0.298646 0.396181 0.042928 0.058671 -0.599303 0.138027 0.084627 -0.134348 -0.057149 0.021181 0.104461 0.075881 0.073913 0.221968 -0.207320 0.055021 -0.037223 -0.215141 0.096038 0.339925 0.458182 0.056431 -0.264459 -0.263418 0.328431 -0.069297 0.068934 0.040577 0.023588 0.050550 0.161431 0.228683 0.504280 0.525659 -0.063969 -0.139975 0.031220 -0.305061 0.193892 0.056104 -0.128638 0.008185 -0.173655 -0.113955 0.089802 -0.226499 0.021434 -0.059840 -0.271726 -0.255449 -0.085096 0.570180 -0.049157 -0.130721 -0.096033 0.181536 -0.378795 -0.156114 -0.119819 -0.019285 0.150786 0.139337
being 0.072348 0.154343 0.307614 0.076782 0.225554 -0.130324 0.086647 0.713358 -0.085505 0.422506 -0.073418 0.202363 0.216704 -0.150959 -0.063754 0.177971 -0.130081 0.007254 -0.149224 0.288520 -0.021432 0.181258 -0.045110 -0.072972 0.350525 -0.187675 0.006175 0.271717 0.108117 -0.053777 0.040480 -0.391478 -0.018146 0.058636 0.228150 -0.255818 0.167848 -0.195009 0.218858 0.189241 0.092455 -0.288887 -0.504721 0.253761 0.047931 -0.137587 -0.080442 0.044961 0.014250 -0.213860 -0.093422 0.188712 -0.371590 -0.141268 -0.129189 -0.277257 0.006102 0.123419 0.323387 0.325315 -0.425685 -0.368985 0.291769 -0.036950 0.325786 0.055747 -0.014365 -0.006427 0.301678 0.378734 0.271131 0.534242 -0.313678 -0.195080 -0.221407 -0.272560 0.038154 0.075255 0.112352 -0.143127 -0.100705 0.344300 0.294699 -0.181397 0.016570 -0.103678 -0.156379 -0.177775 -0.100887 0.585665 -0.357887 -0.389064 -0.056954 0.094146 -0.154389 -0.125657 -0.138046 0.006591 -0.078336 0.136907
people 0.155507 0.099063 0.305593 -0.005562 0.205081 -0.072567 0.045817 0.745279 -0.152030 0.237466 -0.051075 0.174959 0.111036 -0.057121 -0.080873 0.170030 -0.146578 0.138270 -0.089517 0.312632 -0.103726 0.236428 0.170398 0.081477 0.209685 -0.327384 0.001279 0.133079 0.102165 0.020299 0.176664 -0.458078 0.027113 0.064325 0.208168 -0.098903 0.125193 -0.067736 0.154852 0.164615 0.137659 -0.300542 -0.485840 0.180918 0.024599 -0.177367 -0.169688 -0.052858 0.026956 -0.115101 -0.023219 0.238208 -0.238362 -0.093649 -0.189704 -0.154448 0.099704 0.164072 0.376740 0.323829 -0.320613 -0.399578 0.173522 -0.098259 0.136217 -0.029191 0.000549 0.051143 0.153016 0.292084 0.290030 0.391261 -0.173789 -0.260580 -0.230791 -0.306784 -0.003369 0.092814 -0.017552 -0.119403 -0.019854 0.151333 0.206807 -0.165898 0.054418 0.043765 -0.101892 -0.264080 0.006934 0.535767 -0.409769 -0.348456 -0.000599 0.107309 0.016921 -0.096916 -0.167447 0.054890 -0.065720 0.063598
if 0.284215 -0.039109 0.188434 -0.152805 0.134725 -0.247178 -0.034113 0.699057 0.050186 0.458472 0.208157 0.000291 0.037402 0.022881 0.366632 0.318900 -0.049483 0.442768 -0.036120 0.074981 -0.294152 0.003990 0.200314 -0.100724 0.001830 -0.369095 0.394938 0.584724 0.148508 -0.195325 0.368152 -0.244913 0.001364 0.304639 0.159179 -0.189602 -0.133038 0.047087 0.199809 0.303663 0.005880 0.122885 -0.612562 0.011087 0.072190 0.023487 0.007499 -0.054257 0.156904 0.057566 0.075130 0.162087 -0.179570 0.145340 -0.019805 -0.087623 0.088482 0.368557 0.496084 -0.117710 -0.116444 -0.224532 0.244005 -0.054639 0.056350 0.058554 -0.009573 0.087458 0.108251 0.234021 0.427003 0.423640 -0.107413 -0.070722 0.092925 -0.255000 0.403237 0.077418 -0.155241 0.012250 -0.153124 -0.305812 0.022917 -0.264694 0.180442 -0.051922 -0.321124 -0.355391 -0.091700 0.510725 -0.064546 -0.151246 -0.071418 0.176186 -0.474136 -0.131247 -0.209742 0.018960 0.148018 0.111386
nature -0.328273 0.536528 0.361526 0.180746 0.350785 -0.120720 0.138962 1.080029 -0.217853 0.637085 -0.458674 0.720500 0.558194 -0.359965 -0.551798 0.292686 0.032164 -0.327202 -0.242848 0.582303 0.237850 0.513740 -0.456463 -0.121293 0.960168 -0.208270 -0.633631 -0.016652 0.078060 -0.021978 -0.219111 -0.422953 0.032467 -0.127040 0.193034 -0.277063 0.460753 -0.648307 0.147772 -0.041747 0.176221 -0.930794 -0.119765 0.581603 0.148677 -0.408030 -0.028753 0.122027 -0.049311 -0.481122 -0.150088 0.000195 -0.963982 -0.339658 -0.304777 -0.328148 -0.281758 -0.421845 0.306161 0.786783 -0.844711 -0.580724 0.346630 0.029983 0.582016 0.099114 -0.151127 -0.266363 0.470814 0.801494 0.058929 0.589581 -0.946812 -0.298892 -0.391246 -0.076751 -0.054735 0.153055 0.682766 -0.218750 0.083309 1.136714 0.789890 -0.179208 0.176472 -0.111523 0.258235 -0.090660 -0.078897 0.577835 -0.813352 -0.946720 -0.089721 0.092092 0.111204 0.142185 0.005324 -0.018155 -0.553676 0.181079
society 0.098322 0.325663 0.347374 0.075475 0.263591 -0.264038 0.065780 0.868302 -0.282742 0.303782 -0.202042 0.260635 0.217331 -0.176651 -0.288039 0.191013 -0.114740 -0.073181 -0.036646 0.375202 -0.089592 0.162868 -0.127864 0.032933 0.366882 -0.269479 -0.250586 0.079001 0.106805 0.131380 -0.022845 -0.436053 -0.123205 0.022527 0.269546 -0.022275 0.228342 -0.304416 0.119895 0.087141 0.103112 -0.564922 -0.308675 0.287625 0.018577 -0.135378 -0.104952 0.029439 -0.033780 -0.316588 -0.104045 0.267090 -0.458886 -0.202703 -0.268401 -0.181454 -0.017369 -0.001208 0.291357 0.498838 -0.492556 -0.520896 0.214524 -0.116623 0.326525 0.081522 -0.147269 -0.008492 0.218211 0.511869 0.215316 0.375241 -0.489464 -0.239866 -0.252004 -0.217224 -0.024366 0.131569 0.192494 -0.139857 -0.070548 0.501056 0.431912 -0.011610 0.145943 -0.071312 -0.025203 -0.276111 -0.030682 0.472663 -0.626247 -0.549138 -0.066274 0.026456 0.121720 -0.071214 -0.060631 -0.051214 -0.295583 0.135069
state -0.095721 0.417861 0.596889 0.284086 0.559660 -0.214865 0.386799 1.074941 -0.269618 0.571801 -0.323388 0.636818 0.510536 -0.268419 -0.425097 0.225101 -0.376271 -0.408574 -0.199790 0.822726 0.496626 0.082460 -0.675863 0.166713 0.790844 0.048368 -0.616481 -0.280006 0.189894 0.047888 -0.267428 -0.772793 -0.262961 -0.463212 0.252219 -0.138729 0.651486 -0.613961 0.363032 -0.217296 0.283186 -0.766402 -0.216721 0.694616 -0.092265 0.012421 -0.306545 0.473953 -0.288412 -0.712344 -0.553747 -0.101774 -0.790761 -0.548646 -0.502382 -0.388400 -0.440205 -0.364485 0.204316 0.860105 -0.892114 -0.637254 0.255786 0.187577 0.911829 -0.059385 0.114600 -0.272271 0.668125 0.700028 -0.157131 0.758068 -0.921511 -0.065318 -0.813408 -0.429424 -0.175258 0.110115 0.449008 -0.498896 0.101623 1.044593 0.959760 0.254554 -0.097921 -0.419699 -0.037516 0.022080 -0.306563 0.527737 -0.877738 -0.921077 0.161195 -0.220253 0.303831 -0.309795 -0.451581 -0.087276 -0.349297 0.210316
law 0.073668 0.272203 0.385728 0.098736 0.381883 -0.253668 0.192216 0.794744 -0.223091 0.424080 -0.284339 0.358801 0.227529 -0.180549 -0.253126 0.177943 -0.193939 -0.181968 -0.093011 0.512927 0.159601 0.123317 -0.245236 0.016860 0.482704 -0.090407 -0.272863 0.012376 0.048477 0.096039 -0.185381 -0.603726 -0.133706 -0.059631 0.315894 -0.117310 0.292109 -0.346714 0.300156 0.090422 0.163897 -0.535498 -0.261854 0.448717 -0.005195 -0.144585 -0.150610 0.255127 -0.140780 -0.347077 -0.150520 0.068981 -0.542765 -0.306632 -0.324070 -0.270788 -0.243814 -0.108792 0.297427 0.570567 -0.640009 -0.490510 0.275776 -0.061152 0.451482 0.039064 -0.049000 -0.088816 0.373233 0.512663 0.131527 0.526536 -0.587433 -0.239894 -0.327501 -0.299162 -0.057653 0.102183 0.280770 -0.171748 -0.043525 0.617256 0.580250 0.039874 -0.039343 -0.188432 -0.026024 -0.174756 -0.121261 0.492313 -0.597124 -0.520122 -0.011834 -0.034679 0.161836 -0.125789 -0.088380 -0.017281 -0.228759 0.058509
other 0.216288 0.162257 0.129199 -0.065754 0.077948 -0.325233 0.035650 0.846561 -0.064057 0.359771 0.090595 0.087057 0.185869 0.046053 0.064029 0.133816 -0.132858 0.201836 0.158276 0.334778 -0.293031 0.064595 0.026969 0.007855 0.138243 -0.308641 0.119024 0.286348 0.219339 0.096991 0.158985 -0.252581 -0.016834 0.084962 0.218966 -0.094658 -0.145853 -0.195716 -0.004405 0.191316 0.048577 -0.078546 -0.622447 0.065259 0.047951 0.070089 -0.017530 0.022976 0.046287 -0.187598 -0.160969 0.199340 -0.405466 0.014943 -0.169427 -0.136640 0.061951 0.101106 0.415259 0.180602 -0.162308 -0.081506 0.206824 -0.279990 0.098731 -0.084998 0.053247 0.108156 0.103745 0.330976 0.161177 0.477287 -0.186239 0.029885 -0.225696 -0.327110 0.317277 -0.193318 -0.150643 -0.120466 -0.126127 -0.014084 0.114096 -0.066395 0.091110 -0.050281 -0.152406 -0.187898 0.090618 0.407434 -0.459975 -0.246789 -0.122859 0.060471 -0.165632 -0.127712 -0.243004 -0.088873 -0.224778 0.088232
can 0.254291 0.011040 0.095010 -0.231803 0.040901 -0.339910 -0.113888 0.676127 0.045620 0.623749 0.138150 0.033178 0.257726 0.003785 0.328154 0.247405 0.095523 0.240350 0.059079 0.278382 -0.337869 -0.009350 0.086895 -0.221060 0.124501 -0.192360 0.287055 0.555074 0.221373 -0.134761 0.090269 -0.306033 0.018829 0.231257 0.231935 -0.195044 -0.108496 -0.176254 0.207145 0.401099 -0.064328 0.052867 -0.659603 0.100613 0.085459 -0.056021 0.079297 0.139860 0.032140 -0.059282 0.067735 0.200264 -0.429783 0.009905 0.056503 -0.164050 0.085942 0.230593 0.507778 0.094948 -0.213470 -0.116013 0.455193 -0.080700 0.099981 -0.079843 0.038688 0.053044 0.219031 0.357092 0.396864 0.496305 -0.130855 0.046629 0.012757 -0.360261 0.385112 -0.173970 -0.217910 -0.111368 -0.188888 -0.129640 0.069407 -0.198811 -0.034794 -0.096487 -0.195248 -0.245395 0.124925 0.507866 -0.130443 -0.134427 -0.257824 0.168196 -0.457796 -0.124308 -0.121638 -0.152209 -0.012797 0.064500
such 0.044582 0.072223 0.242104 -0.018734 0.145439 -0.194031 0.053708 0.715618 -0.028964 0.411997 0.082100 0.139096 0.209225 -0.082491 0.087249 0.221015 -0.131886 0.147166 -0.052744 0.343318 -0.089011 0.149094 -0.067605 -0.112144 0.302973 -0.224318 0.089118 0.238555 0.087965 -0.100750 0.088767 -0.382626 0.022117 0.094900 0.176119 -0.241485 0.107586 -0.150340 0.188521 0.182612 0.042675 -0.230428 -0.530333 0.188392 0.008000 -0.095935 -0.056022 -0.019849 0.027199 -0.158708 -0.069293 0.198057 -0.340437 -0.094893 -0.091190 -0.228322 0.052887 0.191131 0.362923 0.275533 -0.320378 -0.310633 0.246777 -0.004125 0.266714 0.014477 0.054218 0.013464 0.270380 0.334033 0.341066 0.451997 -0.229474 -0.131758 -0.162055 -0.314282 0.098835 0.065389 -0.054888 -0.199757 -0.041263 0.155159 0.263165 -0.156120 -0.041087 0.012413 -0.177003 -0.214168 -0.011195 0.605890 -0.281227 -0.340476 -0.107055 0.103475 -0.242768 -0.170753 -0.185110 -0.002571 -0.042957 0.143945
when 0.205301 -0.065302 0.237335 -0.105288 0.127855 -0.068505 -0.037475 0.646438 -0.025909 0.429249 0.048099 0.054211 0.193359 -0.073180 0.241645 0.233460 -0.081254 0.220975 -0.110525 0.201352 -0.192212 0.125930 0.279229 -0.062988 0.097085 -0.274801 0.282883 0.442481 0.155715 -0.174496 0.219507 -0.399707 0.124013 0.188514 0.203595 -0.272423 -0.005767 0.072779 0.214751 0.293917 0.095934 -0.021064 -0.647779 0.160693 0.066726 -0.182662 -0.071581 -0.033951 0.129229 -0.096411 0.049999 0.279490 -0.174184 -0.013662 -0.031513 -0.195588 0.178885 0.359946 0.423889 0.122125 -0.236235 -0.250327 0.303192 -0.065782 0.075910 -0.002125 -0.006754 0.032005 0.243482 0.218342 0.408066 0.436457 -0.057318 -0.198295 -0.098519 -0.382342 0.132922 0.041506 -0.138995 -0.064070 -0.118666 -0.039015 0.059103 -0.260838 -0.053976 0.033913 -0.233453 -0.267221 0.019489 0.564099 -0.118482 -0.186037 -0.084154 0.183105 -0.327262 -0.221765 -0.162409 -0.006473 0.173169 0.083427
an 0.079210 0.025654 0.194956 -0.001705 0.097279 -0.290648 0.069869 0.807801 -0.007537 0.363412 0.068742 0.118552 0.151229 0.022652 0.102687 0.224523 -0.120806 0.279821 -0.004232 0.303001 -0.183157 0.123570 0.106958 -0.122851 0.216283 -0.233249 0.158255 0.312172 0.078726 -0.087544 0.056090 -0.292840 0.082183 0.094664 0.186419 -0.234652 -0.002656 -0.060528 0.094694 0.212362 0.058725 -0.088998 -0.613047 0.196839 -0.031275 -0.051272 0.032199 -0.021215 0.055296 -0.131276 -0.058600 0.205450 -0.378121 0.017505 -0.151984 -0.232040 0.101606 0.217744 0.418501 0.155976 -0.273493 -0.241423 0.240509 -0.043703 0.211921 0.002932 0.044873 0.009564 0.210089 0.344712 0.348840 0.458780 -0.190351 -0.018644 -0.181826 -0.214333 0.253356 -0.047490 -0.090574 -0.151891 -0.084366 0.040433 0.177125 -0.227909 0.017537 -0.000788 -0.176251 -0.172145 0.030078 0.579019 -0.334592 -0.267830 -0.138375 0.150107 -0.227041 -0.135589 -0.195334 0.040328 -0.084918 0.095280
there 0.331647 0.153263 0.256176 -0.250095 0.205011 -0.681440 0.058855 0.645182 -0.083192 0.700052 0.077976 0.050445 0.158541 -0.165659 0.062300 0.322553 -0.060117 0.173030 0.159417 0.421576 -0.322661 -0.238335 -0.218613 -0.343667 0.196119 -0.178951 0.124061 0.451205 -0.083260 -0.054032 -0.045731 -0.527993 -0.107544 0.205213 0.288704 -0.042894 -0.140279 -0.268875 0.397428 0.306268 -0.016422 -0.248538 -0.370447 0.196954 -0.007403 -0.036421 0.181995 0.156802 -0.100464 -0.282422 0.205510 0.272152 -0.569331 -0.184992 -0.013851 -0.098666 -0.084362 0.095836 0.423072 0.168417 -0.391535 -0.346280 0.432347 -0.037440 0.232090 0.132744 -0.192569 0.050007 0.277112 0.460867 0.505043 0.225379 -0.394356 -0.171254 0.228830 -0.250300 0.433675 0.098102 -0.089062 -0.082607 -0.190143 0.137716 0.335563 -0.192145 0.004526 -0.090351 -0.201421 -0.390241 -0.009176 0.581925 -0.301244 -0.182986 -0.312655 0.094909 -0.241752 -0.118602 0.164467 0.010649 -0.122224 0.011578
laws 0.231215 0.117107 0.315605 0.017895 0.251788 -0.147342 -0.017888 0.698726 -0.199738 0.163404 -0.026369 0.078195 0.004840 -0.066274 -0.130184 0.236013 -0.142743 0.198891 -0.042455 0.267766 -0.203936 0.216300 0.224551 0.075620 0.152452 -0.447919 0.024166 0.152839 0.055246 0.062139 0.237074 -0.384559 0.057004 0.192864 0.251197 -0.091981 0.049191 -0.114228 0.107236 0.123881 0.119759 -0.254774 -0.396929 0.141454 0.039617 -0.166754 -0.207135 -0.120003 0.104530 -0.049209 -0.023265 0.328663 -0.134562 -0.071909 -0.199951 -0.119494 0.105362 0.198316 0.386467 0.306858 -0.241299 -0.480689 0.117740 -0.165389 0.082221 0.003058 -0.120678 0.155272 0.095999 0.276383 0.296931 0.259482 -0.214453 -0.277428 -0.084312 -0.293913 0.000495 0.114881 0.006508 -0.114017 -0.067495 0.043617 0.152213 -0.196464 0.118480 0.095082 -0.051689 -0.377459 0.022285 0.541938 -0.357420 -0.307797 0.034443 0.114730 0.034303 -0.088263 -0.124502 0.043979 -0.055595 0.090367
was 0.183296 0.062212 0.293306 -0.068315 0.245931 -0.245265 0.045317 0.579676 -0.071389 0.547842 -0.060582 0.088488 0.229791 -0.208062 0.107106 0.235941 -0.106565 0.052211 -0.113824 0.237950 -0.103763 -0.020129 -0.031311 -0.186372 0.218030 -0.173123 0.143332 0.450049 0.098762 -0.085214 0.028692 -0.506145 -0.011549 0.130879 0.249095 -0.234717 0.106966 -0.164617 0.341159 0.305781 0.077494 -0.190615 -0.552318 0.220852 0.041975 -0.129495 -0.041764 0.065415 -0.053495 -0.235391 0.092229 0.298687 -0.369810 -0.110520 0.006589 -0.255850 0.019540 0.174999 0.307216 0.207582 -0.405348 -0.341856 0.392813 0.000040 0.282936 0.067659 -0.053797 0.020598 0.346180 0.321948 0.423846 0.499790 -0.241855 -0.209198 -0.039256 -0.272499 0.162407 0.109841 0.047281 -0.053349 -0.173162 0.239629 0.263561 -0.222265 -0.063219 -0.158463 -0.232925 -0.290769 -0.121488 0.537695 -0.227178 -0.225423 -0.127491 0.131318 -0.302077 -0.164884 -0.074536 -0.027450 0.033659 0.064925
s -0.030847 0.030723 0.297946 0.241127 0.091246 0.216016 0.158865 0.865800 0.003852 0.244210 -0.049106 0.247361 0.373581 0.058901 0.081272 0.004938 -0.155073 0.105593 -0.221787 0.275533 0.026485 0.351045 0.318822 0.204082 0.355531 -0.154032 0.221201 0.251849 0.374383 -0.017742 0.177758 -0.115639 0.103748 0.015436 0.201570 -0.386614 -0.046284 0.148432 -0.059262 0.249291 0.228365 -0.004272 -0.869114 0.247246 0.153015 -0.243536 -0.079547 0.030458 0.238387 -0.101724 -0.353116 0.101708 -0.248199 0.047958 -0.186240 -0.404937 0.207492 0.257495 0.404609 0.284291 -0.275143 -0.000782 0.210172 -0.266747 0.137252 -0.160639 0.229293 -0.101773 0.224081 0.191318 0.258220 0.856304 0.056570 -0.001273 -0.516146 -0.406713 0.093076 -0.265388 -0.086664 -0.173870 -0.044847 0.198208 -0.015159 -0.221739 -0.062496 -0.012368 -0.120005 0.132920 -0.002510 0.476721 -0.459000 -0.256871 -0.078551 0.248911 -0.245200 -0.186094 -0.348993 -0.109652 -0.019565 0.199446
those 0.144668 -0.049834 0.273753 -0.157279 0.212586 -0.224499 -0.048359 0.690982 -0.075117 0.419186 0.212524 0.157811 0.123931 -0.157531 0.093412 0.285325 -0.014058 0.221019 -0.155847 0.312684 -0.177729 0.263016 0.152012 -0.186175 0.220412 -0.453105 -0.045368 0.097215 -0.034083 -0.282074 0.145251 -0.542903 0.246200 0.118703 0.108327 -0.190097 0.272082 -0.001894 0.245210 0.183800 0.072188 -0.201752 -0.406106 0.111908 -0.066528 -0.287665 -0.101773 -0.036561 -0.069869 -0.155354 0.135496 0.357358 -0.150545 -0.101296 -0.112857 -0.109244 0.187971 0.185350 0.408560 0.218156 -0.399521 -0.441424 0.223399 0.104171 0.234199 0.054107 -0.167766 0.048273 0.201660 0.293280 0.550300 0.227387 -0.139658 -0.158119 -0.037080 -0.376075 0.027399 0.257274 -0.128997 -0.219561 -0.047209 0.135154 0.302250 -0.248400 -0.054553 0.197311 -0.122131 -0.457833 0.056043 0.646786 -0.167433 -0.348432 -0.144900 0.299559 -0.119716 -0.224713 0.036129 -0.050310 0.031213 0.119917
on 0.267837 -0.022775 0.253394 -0.117043 0.124054 -0.099521 -0.014661 0.722724 -0.015937 0.288741 0.178624 0.051363 0.103042 0.053830 0.154131 0.217103 -0.104266 0.302675 -0.011905 0.244757 -0.225454 0.145823 0.246489 0.055723 0.122837 -0.384655 0.250387 0.313456 0.195505 0.003500 0.401117 -0.343784 0.096685 0.140951 0.116660 -0.176086 -0.118351 0.027017 0.105394 0.204294 0.079385 0.060338 -0.615293 0.067587 0.059675 -0.103451 -0.145076 -0.086716 0.210829 -0.035167 -0.165189 0.224834 -0.159568 0.042330 -0.125504 -0.157790 0.149725 0.217199 0.496748 0.127669 -0.091490 -0.230826 0.120005 -0.081859 -0.035984 -0.064819 0.070028 0.172683 0.093175 0.221795 0.276341 0.426404 -0.084289 -0.084978 -0.195312 -0.385978 0.206091 -0.031771 -0.180127 -0.107708 -0.106304 -0.165553 0.002412 -0.204012 0.088366 0.032986 -0.203538 -0.194949 0.033146 0.508687 -0.236716 -0.189563 0.061600 0.151023 -0.219622 -0.070698 -0.311116 0.061659 0.056095 0.050567
at 0.304745 0.009451 0.227495 -0.065993 0.140953 -0.118940 0.039859 0.678573 -0.068683 0.252499 0.098163 0.029838 0.094280 0.002400 0.164955 0.225932 -0.187165 0.356183 -0.019658 0.151249 -0.285680 0.029112 0.254185 0.071815 0.023403 -0.367692 0.308306 0.484515 0.193821 -0.023572 0.445288 -0.280241 0.057792 0.185633 0.157144 -0.107481 -0.189138 0.031134 0.040314 0.223292 0.095218 0.025303 -0.630479 0.071081 0.056638 -0.044523 -0.089743 -0.098804 0.166283 -0.002840 -0.088594 0.259729 -0.134798 0.087279 -0.117640 -0.165945 0.119104 0.341516 0.437862 0.046081 -0.034154 -0.236607 0.164814 -0.238505 -0.046951 -0.063811 0.090007 0.141402 0.079399 0.137147 0.339912 0.430616 -0.014638 -0.163466 -0.128319 -0.324365 0.305923 -0.054286 -0.194549 -0.053124 -0.123089 -0.246906 -0.063818 -0.203176 0.104261 0.011174 -0.284020 -0.256424 -0.062985 0.479820 -0.280400 -0.152302 0.026208 0.126522 -0.272685 -0.092674 -0.275415 0.050474 0.006292 0.092400
into -0.081546 0.269306 0.478478 0.303478 0.305098 0.165155 0.054853 0.890436 -0.184467 0.473232 -0.197929 0.347277 0.478176 -0.301153 -0.115564 0.138739 -0.078232 -0.280386 -0.242401 0.417147 0.206976 0.388515 -0.148281 0.179987 0.629913 -0.231536 -0.254875 0.146916 0.309384 -0.087375 0.122677 -0.328113 -0.032840 -0.108869 0.202631 -0.337410 0.339204 -0.367104 0.118781 0.025181 0.120428 -0.466939 -0.396599 0.427649 0.183586 -0.152573 -0.283866 0.010074 0.137247 -0.391914 -0.390780 0.132375 -0.465998 -0.190602 -0.126240 -0.265103 -0.060810 0.062404 0.247894 0.577716 -0.489497 -0.400845 0.211144 -0.069388 0.413131 -0.136412 0.020406 -0.106106 0.446244 0.472969 0.035996 0.727062 -0.428646 -0.184404 -0.581300 -0.498704 -0.110591 0.004530 0.289003 -0.255807 0.038391 0.642916 0.396275 -0.060852 0.022514 -0.143953 -0.079663 -0.106530 -0.151424 0.556312 -0.517428 -0.609983 0.010010 0.021032 -0.026585 -0.162731 -0.343544 -0.183076 -0.152181 0.233112
what 0.116322 -0.002486 0.190652 -0.096280 0.125690 -0.315313 0.022252 0.707755 -0.030446 0.464022 -0.010225 0.122752 0.251354 -0.069025 0.159376 0.206131 -0.079614 0.191552 0.025841 0.323665 -0.173122 0.047697 0.116835 -0.189335 0.174075 -0.226756 0.176428 0.300107 0.104383 -0.167690 -0.094430 -0.393383 0.055417 0.079144 0.256577 -0.252907 0.021814 -0.031719 0.210005 0.315420 0.034161 -0.155104 -0.659331 0.216023 0.022989 -0.101249 0.107092 0.063263 0.007493 -0.188439 0.089610 0.183672 -0.432076 -0.089710 -0.057008 -0.203953 0.121109 0.284787 0.354541 0.177864 -0.347364 -0.174936 0.327832 -0.051695 0.182256 -0.010851 -0.037406 -0.022492 0.253868 0.360799 0.440998 0.428027 -0.197831 -0.063498 -0.092179 -0.252008 0.242733 -0.067606 -0.141856 -0.093061 -0.114054 0.101795 0.169688 -0.200567 -0.116315 -0.005068 -0.142082 -0.228019 0.088111 0.550526 -0.283330 -0.182577 -0.232015 0.164006 -0.230700 -0.168041 -0.078357 -0.028836 -0.031269 0.052698
legislative 0.184261 0.188642 0.251404 0.025413 0.173448 -0.259616 0.052006 0.741112 -0.177918 0.289420 -0.104340 0.140561 0.170864 -0.079204 -0.101910 0.150649 -0.092362 0.083275 -0.002944 0.359010 -0.174667 0.146183 0.076049 0.040649 0.188046 -0.211568 -0.035337 0.273176 0.033646 0.102233 0.028156 -0.432172 0.005457 0.026340 0.219759 -0.064680 -0.020867 -0.172432 0.082404 0.156307 0.103611 -0.321910 -0.427530 0.215206 0.030235 -0.116603 -0.004856 -0.010716 -0.023647 -0.234570 -0.046471 0.223609 -0.360899 -0.139298 -0.192681 -0.125394 0.003779 0.145949 0.354405 0.342711 -0.299706 -0.325625 0.196236 -0.190411 0.139528 0.034525 -0.042818 0.029821 0.201130 0.352435 0.186943 0.323340 -0.269084 -0.249150 -0.196005 -0.316763 0.089247 -0.019744 -0.002459 -0.153930 -0.072929 0.203921 0.222802 -0.116119 0.026331 0.006650 -0.090064 -0.275297 0.039309 0.497350 -0.479324 -0.331362 -0.120683 0.017280 -0.007572 -0.081440 -0.079551 0.004680 -0.142225 0.000440
than 0.323144 -0.139785 0.047891 -0.385283 -0.112475 -0.555891 -0.073974 0.659789 -0.020156 0.654734 0.049333 -0.149831 0.479636 0.116888 0.240232 0.261371 0.042501 0.314997 0.224765 0.351387 -0.492429 -0.146611 0.045872 -0.136505 0.002901 -0.084907 0.265665 0.619542 0.219996 -0.070489 0.077279 -0.427563 0.002264 0.075887 0.237461 -0.307882 -0.419958 -0.225266 0.165730 0.376869 -0.212643 0.125968 -0.750136 0.111577 0.095271 -0.093293 0.098932 0.183167 -0.012654 -0.267833 -0.085223 0.245819 -0.495950 -0.010029 0.164405 -0.036265 0.108139 0.467925 0.583959 0.126787 -0.011779 -0.042417 0.563404 -0.090552 0.090166 -0.151049 0.159578 0.129942 0.241735 0.354254 0.446233 0.506884 -0.160432 0.152214 -0.189684 -0.400196 0.494778 -0.306528 -0.400243 -0.196660 -0.242960 -0.187387 -0.100033 -0.337566 -0.245397 -0.117588 -0.274768 -0.133237 0.297169 0.615514 -0.064017 0.011455 -0.403268 0.100283 -0.437736 -0.219611 -0.102628 -0.010774 0.048261 -0.072324
where 0.314857 0.152888 0.274797 -0.131486 0.219479 -0.492336 0.076226 0.692477 -0.145118 0.527382 -0.000049 0.059807 0.171818 -0.189734 0.045845 0.335299 -0.091158 0.143969 0.076429 0.321667 -0.228758 -0.090869 -0.068296 -0.160558 0.175727 -0.243324 0.091283 0.454263 0.001357 0.013033 0.070345 -0.456969 -0.068743 0.170718 0.223356 -0.079668 -0.034903 -0.243062 0.287612 0.183768 0.057941 -0.210704 -0.392964 0.195842 0.029655 -0.009902 -0.009602 0.092847 -0.050646 -0.250880 0.064280 0.281061 -0.414255 -0.125208 -0.096638 -0.078040 -0.053779 0.126978 0.401579 0.201127 -0.342669 -0.380845 0.334364 -0.104220 0.204197 0.139432 -0.156222 0.066851 0.269351 0.397619 0.315997 0.298696 -0.371613 -0.192472 0.041458 -0.250747 0.297390 0.053944 0.003184 -0.087296 -0.152872 0.133854 0.306866 -0.130223 0.069205 -0.107968 -0.177066 -0.361637 -0.033938 0.501473 -0.319198 -0.304971 -0.117683 0.054802 -0.173308 -0.168747 -0.029988 -0.035408 -0.066639 0.041248
own 0.104584 -0.239640 0.326103 0.149911 0.076842 0.570590 0.017898 0.499439 0.089438 0.219096 -0.132846 0.134280 0.250739 0.102512 0.177253 -0.087445 -0.214343 0.091015 -0.324569 0.154634 0.085721 0.500340 0.770766 0.233513 0.118193 -0.180350 0.532277 0.159997 0.329743 -0.156331 0.182851 -0.471537 0.195178 0.158359 0.305749 -0.534382 0.033580 0.510608 0.226225 0.468730 0.254052 0.079693 -1.028409 0.230636 0.109012 -0.442581 -0.236031 -0.029354 0.279799 0.120925 -0.011151 0.308459 0.051598 -0.041525 0.001256 -0.327206 0.405350 0.622249 0.320122 0.266583 -0.279394 -0.186397 0.339196 -0.186564 -0.073276 -0.237643 0.204500 0.036904 0.061795 -0.048910 0.588374 0.782646 0.473695 -0.318896 -0.425763 -0.573830 -0.342844 -0.120150 -0.351138 -0.020160 -0.017927 -0.056567 -0.281702 -0.378691 -0.328979 0.207134 -0.208847 -0.010961 0.121945 0.726791 -0.059668 0.088095 -0.030486 0.312562 -0.170598 -0.341334 -0.265416 0.051305 0.457651 0.016981
had 0.012780 -0.113377 0.213308 -0.070467 0.076005 0.025048 -0.023522 0.583978 0.080043 0.555505 0.102003 0.130486 0.383499 -0.071887 0.295418 0.177142 -0.046356 0.066874 -0.201091 0.323358 -0.029143 0.203358 0.052565 -0.144259 0.252478 -0.125503 0.226026 0.347156 0.229871 -0.247889 0.030681 -0.464799 0.174583 0.081500 0.161481 -0.447931 0.186758 0.014013 0.274682 0.319874 0.089130 -0.031896 -0.754463 0.171825 0.068198 -0.216753 -0.085918 0.029346 0.052899 -0.223348 0.007951 0.241923 -0.278324 -0.105510 0.046297 -0.271404 0.164776 0.292854 0.334190 0.201130 -0.343637 -0.134614 0.383487 0.075441 0.274539 -0.103967 0.112132 -0.060587 0.370964 0.194928 0.401859 0.558913 -0.055613 -0.139482 -0.225927 -0.470735 0.015079 0.016318 -0.158174 -0.203957 -0.060199 0.089788 0.128638 -0.226230 -0.281077 -0.005719 -0.211921 -0.165731 0.029230 0.620412 -0.075164 -0.187286 -0.149453 0.228910 -0.457296 -0.291814 -0.207214 -0.104394 0.181382 0.101052
only 0.150376 0.056223 0.295698 -0.017513 0.211964 -0.134886 0.048361 0.653430 -0.093714 0.371628 -0.048233 0.118915 0.102755 -0.100483 0.024743 0.186722 -0.130108 0.113614 -0.123450 0.237288 -0.066830 0.117674 0.145768 -0.031945 0.181406 -0.238362 0.129366 0.254881 0.044119 -0.033537 0.097763 -0.428727 0.035002 0.146777 0.214611 -0.186522 0.058179 -0.029768 0.236150 0.223001 0.133876 -0.159225 -0.482692 0.230210 0.042640 -0.172240 -0.107540 -0.009127 0.054568 -0.155414 -0.014256 0.256259 -0.263874 -0.097733 -0.116188 -0.184218 0.037174 0.179335 0.354825 0.233785 -0.342380 -0.374623 0.246244 -0.050234 0.196617 -0.005918 -0.033819 0.061213 0.220280 0.261511 0.345736 0.403317 -0.180844 -0.215429 -0.124898 -0.309336 0.037874 0.077709 0.016204 -0.069191 -0.090058 0.119032 0.221217 -0.175799 0.005826 -0.010899 -0.167749 -0.237169 -0.040110 0.541568 -0.277217 -0.255437 -0.052641 0.144419 -0.133576 -0.154585 -0.110770 0.034082 0.020790 0.062220
over 0.018067 -0.111147 0.234516 0.104663 -0.060829 0.237432 0.032149 0.559730 0.104419 0.510715 -0.051281 0.108557 0.580183 -0.068650 0.312931 -0.052729 0.049704 -0.107394 -0.230373 0.356332 0.050585 0.368193 0.374075 -0.032618 0.280854 0.006641 0.265918 0.358157 0.259546 -0.116989 -0.096372 -0.454957 0.216761 -0.070814 0.263033 -0.599138 0.034059 0.147455 0.252269 0.380012 0.085309 0.033410 -0.950856 0.331467 0.198246 -0.333412 -0.052110 0.073412 0.090190 -0.221712 -0.137277 0.268861 -0.351695 -0.134765 0.078432 -0.381092 0.211565 0.428266 0.313473 0.341154 -0.372605 -0.055243 0.440400 -0.083625 0.162047 -0.197615 0.235360 -0.104598 0.356327 0.133448 0.380389 0.800341 0.178418 -0.105363 -0.421893 -0.688993 -0.136664 -0.272106 -0.215342 -0.298733 -0.085950 0.236080 -0.019504 -0.221907 -0.472351 0.087047 -0.193099 0.066283 0.166689 0.686187 -0.147365 -0.075619 -0.205504 0.216756 -0.357774 -0.359836 -0.202784 -0.160921 0.225240 0.034966
without 0.199930 0.110116 0.282617 0.015406 0.219850 -0.051461 0.084404 0.780365 -0.162168 0.339327 -0.100783 0.113246 0.172827 -0.086831 0.001475 0.154604 -0.151916 0.154216 -0.068738 0.249995 -0.101483 0.209751 0.274660 0.113380 0.190742 -0.303262 0.113602 0.272708 0.151537 0.014175 0.210251 -0.415003 0.019385 0.135327 0.244715 -0.168810 -0.028468 -0.008478 0.096584 0.205862 0.167146 -0.160504 -0.582116 0.189353 0.063086 -0.146403 -0.157733 -0.009775 0.132022 -0.082161 -0.104468 0.238021 -0.294150 -0.008836 -0.191098 -0.173284 0.073141 0.236874 0.411137 0.273599 -0.244302 -0.363333 0.243206 -0.174802 0.083343 -0.030554 -0.022387 0.066723 0.131017 0.259952 0.282029 0.489261 -0.138458 -0.191203 -0.197973 -0.375776 0.044428 -0.078155 -0.033075 -0.055357 -0.082559 0.035587 0.128310 -0.154697 0.046492 0.000534 -0.137162 -0.234413 -0.011964 0.527586 -0.369459 -0.285197 -0.011405 0.067491 -0.066268 -0.142688 -0.199647 -0.013414 0.002795 0.069402
himself -0.084123 0.056623 0.192710 0.072451 0.107904 -0.072045 0.051973 0.760107 -0.036116 0.412188 -0.138535 0.275993 0.411320 -0.038761 0.022317 0.095148 -0.107345 -0.004948 -0.091446 0.381750 0.003192 0.275456 0.055963 -0.076778 0.409571 -0.126627 0.037241 0.112100 0.256442 -0.146401 -0.133583 -0.382484 0.109938 -0.068765 0.206837 -0.353275 0.194555 -0.116034 0.101957 0.246582 0.092755 -0.297172 -0.655417 0.366179 0.022389 -0.180493 -0.009491 0.070073 0.040795 -0.263781 -0.131858 0.159521 -0.526948 -0.122289 -0.146283 -0.332013 0.082074 0.163086 0.333046 0.376314 -0.433350 -0.153218 0.308572 -0.034033 0.294537 -0.111704 0.109870 -0.098369 0.293143 0.362506 0.308321 0.628363 -0.224528 -0.049264 -0.406396 -0.272065 0.001918 -0.106059 0.006682 -0.198008 -0.011819 0.347236 0.249056 -0.156574 -0.171885 -0.045011 -0.070495 -0.011716 0.092654 0.557510 -0.382527 -0.335328 -0.176313 0.129194 -0.154136 -0.141638 -0.195244 -0.055870 -0.125937 0.109022
another -0.044380 0.056417 0.192181 0.098414 0.029277 -0.156968 0.080934 0.794428 0.032661 0.430613 -0.094601 0.243130 0.422878 0.023891 0.134736 0.040204 -0.053697 0.091223 -0.109116 0.310170 -0.091192 0.213809 0.105437 -0.147578 0.357117 -0.055502 0.139598 0.266526 0.237505 -0.140821 -0.180291 -0.235918 0.068470 0.001750 0.248573 -0.367270 0.043270 -0.053255 0.102176 0.322833 0.059062 -0.177464 -0.796635 0.290128 0.045908 -0.141118 0.157884 0.088435 0.056674 -0.191416 -0.111646 0.131948 -0.485790 -0.053079 -0.102260 -0.325553 0.125887 0.224884 0.372071 0.278058 -0.405380 -0.036813 0.353167 -0.101998 0.301875 -0.088495 0.099819 -0.135577 0.273422 0.371792 0.458315 0.704784 -0.079072 0.055633 -0.307512 -0.298096 0.176581 -0.163394 -0.123493 -0.219672 -0.075828 0.231999 0.122597 -0.224409 -0.178336 -0.011711 -0.100451 -0.045563 0.098624 0.563806 -0.407630 -0.195090 -0.286400 0.204618 -0.289828 -0.163388 -0.149271 -0.102946 -0.099086 0.129566
under 0.195900 0.146112 0.311330 -0.029391 0.199059 -0.124323 -0.014118 0.707175 -0.182714 0.440003 -0.083393 0.100329 0.195803 -0.203738 -0.034055 0.183953 -0.079450 0.007312 -0.050400 0.315110 -0.110920 0.130457 0.050479 0.055894 0.209647 -0.301338 -0.006763 0.294096 0.102187 0.082906 0.224163 -0.452560 -0.044987 0.054589 0.266951 -0.112319 0.037632 -0.194404 0.176187 0.139921 0.086189 -0.248130 -0.401240 0.244812 0.086980 -0.114492 -0.166378 0.031437 0.056370 -0.220304 -0.066070 0.276199 -0.322527 -0.097583 -0.087196 -0.145259 -0.013725 0.087494 0.349376 0.327331 -0.331635 -0.447792 0.190840 -0.112945 0.217509 -0.015777 -0.072356 0.058397 0.224241 0.363369 0.200101 0.422830 -0.336976 -0.248329 -0.148176 -0.398245 0.045042 0.077864 0.117469 -0.112902 -0.123304 0.223013 0.277188 -0.120819 0.096727 -0.055397 -0.118690 -0.281434 -0.115105 0.467607 -0.371938 -0.352110 -0.015670 0.066952 -0.038053 -0.135230 -0.147380 -0.043574 -0.044370 0.044373
force 0.136951 0.058799 0.271188 -0.012741 0.249157 -0.135631 0.040707 0.752570 -0.110292 0.354930 -0.042520 0.184355 0.170445 -0.078136 -0.026334 0.246524 -0.087978 0.174085 -0.081866 0.305181 -0.091243 0.198322 0.175623 0.000519 0.229181 -0.319697 0.029946 0.192993 0.089079 -0.058917 0.099983 -0.429056 0.078407 0.092585 0.197038 -0.155515 0.084773 -0.078343 0.174292 0.178732 0.129997 -0.248952 -0.438082 0.209256 0.021043 -0.208532 -0.097767 0.032415 0.049755 -0.141406 -0.029246 0.198026 -0.314491 -0.056350 -0.151486 -0.193706 0.076148 0.120902 0.431059 0.299654 -0.317749 -0.386525 0.236464 -0.049317 0.136196 -0.019218 -0.029319 -0.001972 0.186031 0.321224 0.323937 0.402895 -0.248336 -0.180100 -0.202337 -0.273135 0.071633 0.046770 -0.008679 -0.128030 -0.036985 0.134150 0.230761 -0.207492 0.022615 0.017041 -0.094037 -0.254033 0.009552 0.550975 -0.328325 -0.324962 -0.057703 0.111896 -0.096833 -0.116381 -0.126292 0.021890 -0.047381 0.054955
every -0.096892 0.179499 0.279182 0.120157 0.055949 -0.262092 0.142660 0.853140 -0.044994 0.516127 -0.150073 0.304720 0.476385 -0.088103 0.023773 0.027865 0.036227 -0.043281 -0.117690 0.405709 -0.041578 0.145780 -0.118798 -0.174870 0.471247 -0.002849 -0.031446 0.335590 0.219724 -0.049235 -0.304590 -0.191364 -0.052938 -0.024395 0.285005 -0.268067 0.066589 -0.208598 0.108901 0.244173 0.065407 -0.303209 -0.705142 0.324657 0.019129 -0.067658 0.234865 0.161420 0.012627 -0.315366 -0.112249 0.026260 -0.633381 -0.136841 -0.095947 -0.368556 0.064714 0.041904 0.293866 0.312616 -0.538138 -0.120405 0.363091 -0.079690 0.462466 -0.050146 0.045201 -0.208724 0.420173 0.517221 0.307600 0.763313 -0.266501 0.068107 -0.261202 -0.219644 0.224694 -0.181234 0.069131 -0.198255 -0.118685 0.467053 0.261934 -0.204349 -0.066444 -0.101380 -0.062721 -0.040343 -0.018879 0.489481 -0.528714 -0.314016 -0.293904 0.163453 -0.246565 -0.061533 -0.141007 -0.122404 -0.223695 0.138008
themselves 0.103266 -0.011972 0.259976 -0.035873 0.186934 -0.100055 -0.038602 0.697317 -0.073915 0.301349 0.107750 0.109514 0.084480 -0.077100 0.049546 0.246292 -0.130140 0.245814 -0.117726 0.269224 -0.167265 0.184548 0.200438 -0.069980 0.199494 -0.379702 0.104082 0.150003 0.080987 -0.191922 0.171387 -0.336620 0.121129 0.176413 0.196516 -0.236533 0.163312 -0.001078 0.149818 0.174291 0.109104 -0.204377 -0.550022 0.126150 0.028025 -0.169400 -0.122854 -0.100166 0.110171 -0.063433 0.026693 0.263924 -0.143640 -0.060173 -0.123541 -0.142049 0.169852 0.289530 0.384018 0.240758 -0.257925 -0.373917 0.173968 0.010590 0.152787 -0.008077 -0.063629 0.084260 0.176324 0.264172 0.427810 0.304739 -0.134704 -0.171622 -0.100850 -0.292851 0.023278 0.141649 -0.117891 -0.130684 -0.036279 -0.006913 0.148896 -0.253975 0.003101 0.130610 -0.121466 -0.343870 0.052342 0.600239 -0.198073 -0.277763 -0.052926 0.201683 -0.161352 -0.188325 -0.135500 -0.014722 0.052088 0.137433
upon 0.201441 0.016972 0.293072 -0.026188 0.183597 -0.111778 0.049856 0.704299 -0.077222 0.405364 0.001856 0.082877 0.203293 -0.094438 0.107944 0.211395 -0.124541 0.173570 -0.068423 0.275348 -0.127161 0.128243 0.162346 -0.008505 0.204415 -0.269772 0.164096 0.377304 0.161542 -0.075540 0.195927 -0.410998 0.022765 0.103484 0.210999 -0.226997 0.011253 -0.038758 0.181211 0.227966 0.101999 -0.109881 -0.597792 0.176620 0.085155 -0.124649 -0.122037 0.003284 0.112294 -0.118937 -0.075280 0.215244 -0.296384 -0.034052 -0.092408 -0.189899 0.112822 0.306024 0.404873 0.217413 -0.254144 -0.307851 0.269665 -0.088037 0.142781 -0.054377 0.020557 0.036871 0.230641 0.288050 0.344865 0.508466 -0.138654 -0.150593 -0.169279 -0.374848 0.140865 -0.018987 -0.102794 -0.099424 -0.082830 0.035162 0.109421 -0.173959 -0.010375 -0.035644 -0.240725 -0.234698 -0.035506 0.547821 -0.271844 -0.255460 -0.054619 0.129311 -0.233994 -0.175202 -0.203156 -0.026831 0.074280 0.081339
made 0.154258 0.072860 0.300409 -0.025940 0.229006 -0.084158 0.027487 0.706076 -0.139988 0.377500 -0.020981 0.167947 0.186167 -0.129033 -0.008493 0.180296 -0.112477 0.124180 -0.101736 0.274192 -0.085246 0.196759 0.150805 0.003326 0.239737 -0.284520 0.032634 0.233546 0.105101 -0.081188 0.183634 -0.402779 0.047360 0.106863 0.224592 -0.207170 0.074470 -0.060227 0.185152 0.184787 0.120863 -0.227234 -0.467270 0.207301 0.071615 -0.197743 -0.125840 0.030457 0.067008 -0.125490 -0.047349 0.186113 -0.231909 -0.073682 -0.151344 -0.183012 0.080217 0.193771 0.389084 0.302583 -0.304262 -0.391422 0.211800 -0.067372 0.164111 -0.026104 -0.060346 0.023664 0.210980 0.313338 0.346167 0.428314 -0.196365 -0.208546 -0.163114 -0.359201 0.050809 0.075807 -0.037432 -0.116749 -0.061178 0.136634 0.192210 -0.174554 0.004439 0.024572 -0.145058 -0.267902 -0.022639 0.540442 -0.301305 -0.312626 -0.026563 0.151610 -0.097976 -0.130927 -0.107229 -0.010176 0.004447 0.111054
make 0.152477 -0.002516 0.270561 -0.083119 0.156529 -0.049626 0.003788 0.712806 -0.119310 0.330170 -0.016325 0.078522 0.149543 -0.056240 0.059244 0.166056 -0.126482 0.216438 -0.063084 0.236684 -0.141209 0.211340 0.259351 -0.048232 0.155319 -0.313462 0.132293 0.296350 0.148276 -0.126423 0.195901 -0.364223 0.001835 0.120075 0.236867 -0.249961 0.075790 0.036060 0.133887 0.196310 0.103913 -0.150214 -0.644127 0.164261 0.081031 -0.122547 -0.127052 -0.063904 0.154045 -0.068778 -0.025428 0.197979 -0.175270 -0.009093 -0.123761 -0.162725 0.217636 0.355769 0.372079 0.226083 -0.226968 -0.350143 0.201264 -0.021250 0.095942 -0.050976 -0.054921 0.067646 0.196769 0.323395 0.400839 0.444863 -0.105214 -0.133378 -0.133509 -0.345795 0.042069 0.052077 -0.125008 -0.053571 -0.065638 -0.004928 0.109818 -0.215726 0.039903 0.027703 -0.167921 -0.268946 0.020494 0.572269 -0.237931 -0.253799 -0.026788 0.168729 -0.115303 -0.144750 -0.196858 0.019444 0.082950 0.115455
property 0.101364 0.054216 0.260231 0.053050 0.181412 -0.006018 0.062830 0.697155 -0.078343 0.263701 -0.066706 0.178092 0.210508 -0.045708 0.003388 0.104630 -0.158103 0.119904 -0.108124 0.246529 -0.059511 0.253380 0.222905 0.066127 0.237351 -0.242884 0.131537 0.182901 0.162301 -0.021406 0.125839 -0.396914 0.079472 0.075297 0.218224 -0.245913 0.049159 0.026324 0.133451 0.242259 0.160205 -0.180175 -0.578780 0.242830 0.071579 -0.225938 -0.100450 0.010296 0.060464 -0.092026 -0.083722 0.205430 -0.228650 -0.064625 -0.134479 -0.241933 0.106644 0.212123 0.359469 0.294428 -0.311578 -0.266258 0.231229 -0.141679 0.088020 -0.053107 0.054856 0.014520 0.175179 0.224307 0.343938 0.519884 -0.087213 -0.172927 -0.270012 -0.321482 0.014861 -0.006307 -0.073587 -0.117884 -0.052999 0.132016 0.106034 -0.176502 -0.070865 0.035163 -0.132235 -0.148613 0.005481 0.522435 -0.329427 -0.231795 -0.050161 0.155397 -0.112089 -0.160678 -0.156537 -0.006042 0.001499 0.092885
should 0.226777 -0.013294 0.218743 -0.142276 0.131564 -0.294258 -0.038971 0.638434 0.004894 0.508775 0.155425 0.017343 0.102079 -0.053173 0.313044 0.288329 -0.006723 0.307401 -0.037152 0.161753 -0.258740 -0.016527 0.133018 -0.201405 0.107097 -0.267475 0.305792 0.532526 0.110092 -0.217784 0.183774 -0.307153 0.003749 0.285917 0.216063 -0.206410 -0.034694 -0.046320 0.305681 0.337067 -0.026001 0.004773 -0.563250 0.105575 0.075026 -0.057468 -0.001076 0.021702 0.095347 0.007237 0.085572 0.224977 -0.269851 0.032264 -0.010461 -0.148927 0.084239 0.338228 0.452959 0.050321 -0.240947 -0.298001 0.346078 -0.015728 0.118254 0.055309 -0.023430 0.075064 0.228116 0.294476 0.478915 0.421861 -0.141406 -0.124589 0.092469 -0.286460 0.298951 0.045598 -0.158200 -0.041350 -0.165038 -0.135294 0.118356 -0.235343 0.046743 -0.038487 -0.256362 -0.330712 -0.031498 0.560651 -0.083232 -0.174880 -0.154046 0.178055 -0.411171 -0.157363 -0.109892 -0.037372 0.098648 0.133966
do 0.244515 -0.088568 0.152738 -0.204986 0.103918 -0.247999 -0.032909 0.724528 -0.005985 0.329885 0.159453 -0.056641 -0.012809 0.081790 0.240585 0.258377 -0.139710 0.480632 0.012052 0.126641 -0.338747 0.009743 0.236322 -0.120378 -0.041260 -0.369087 0.363948 0.439640 0.123904 -0.168659 0.286655 -0.266672 0.012769 0.268471 0.173242 -0.221520 -0.122702 0.067333 0.111518 0.307776 0.018206 0.079403 -0.703951 -0.003542 0.017773 0.018143 -0.012687 -0.125329 0.170288 0.006082 0.056688 0.209827 -0.151157 0.098012 -0.054614 -0.115657 0.195570 0.406267 0.455592 -0.062074 -0.063262 -0.220831 0.185572 -0.044797 0.044858 0.010261 -0.034685 0.149209 0.113713 0.233821 0.448920 0.363977 -0.053088 -0.048994 0.060607 -0.221555 0.351908 0.074407 -0.223605 -0.004718 -0.104390 -0.296997 -0.002712 -0.301981 0.143376 0.005616 -0.246666 -0.324297 0.005053 0.521748 -0.154921 -0.120676 -0.079507 0.204693 -0.355920 -0.103723 -0.169021 0.057034 0.095594 0.086199
shall 0.305106 0.017579 0.243036 -0.146461 0.187780 -0.321334 -0.032385 0.666920 -0.038752 0.472447 0.148674 0.032315 0.031908 -0.024151 0.244877 0.298994 -0.032994 0.333441 -0.026099 0.105320 -0.294004 0.013988 0.172923 -0.135448 0.054902 -0.367348 0.260082 0.518571 0.103005 -0.202072 0.286480 -0.310399 -0.017650 0.301871 0.205585 -0.143265 -0.042524 -0.030401 0.250147 0.291952 -0.034978 0.003979 -0.516976 0.043037 0.044928 -0.035520 -0.026681 -0.015893 0.118903 0.014822 0.059902 0.219087 -0.207739 0.080445 -0.036605 -0.135713 0.089141 0.332190 0.491420 -0.010116 -0.216329 -0.327398 0.272395 -0.036398 0.096882 0.094086 -0.053525 0.100337 0.132981 0.307219 0.472756 0.404492 -0.165631 -0.126326 0.100662 -0.268953 0.333488 0.109098 -0.119270 -0.005498 -0.176503 -0.173500 0.086733 -0.250517 0.162034 -0.054896 -0.293469 -0.393403 -0.076715 0.545990 -0.097406 -0.204125 -0.086352 0.180110 -0.346927 -0.101751 -0.114779 -0.007214 0.080977 0.121484
use 0.209643 0.111515 0.246800 -0.004277 0.240415 -0.119600 -0.022263 0.800296 -0.151856 0.198801 -0.034536 0.130521 0.089642 -0.005373 -0.043462 0.164586 -0.151907 0.235181 -0.010413 0.266838 -0.211238 0.185668 0.233772 0.110213 0.134009 -0.428884 0.058717 0.190327 0.170768 0.061331 0.268637 -0.385016 0.020161 0.127805 0.228999 -0.097043 0.024293 -0.055849 0.071370 0.146125 0.132248 -0.181229 -0.513616 0.169633 0.057898 -0.102555 -0.166445 -0.073314 0.073036 -0.051078 -0.065986 0.238292 -0.215985 -0.001357 -0.212957 -0.146634 0.080377 0.176623 0.403741 0.256160 -0.211719 -0.328998 0.130039 -0.186539 0.045099 -0.039835 -0.008941 0.134250 0.091617 0.305557 0.242075 0.409805 -0.212271 -0.126449 -0.215360 -0.289987 0.114574 0.047003 -0.032748 -0.064656 -0.075154 0.043725 0.131563 -0.161212 0.124015 0.025864 -0.085554 -0.264101 0.017412 0.444409 -0.388225 -0.300767 -0.004089 0.109520 -0.020492 -0.085369 -0.212520 0.003281 -0.092526 0.052165
common 0.149915 0.120718 0.287321 -0.039740 0.211761 -0.257303 0.074045 0.683901 -0.132792 0.423375 -0.036050 0.179406 0.218752 -0.138467 -0.040794 0.202780 -0.087007 0.066478 -0.038161 0.332197 -0.092936 0.100769 -0.000995 -0.069936 0.259054 -0.221106 -0.018643 0.230210 0.066706 -0.027123 0.026586 -0.433918 0.014852 0.049441 0.208759 -0.170918 0.069799 -0.174436 0.222990 0.157334 0.078932 -0.260947 -0.446029 0.211855 0.045129 -0.151651 -0.048014 0.074923 -0.012275 -0.250073 -0.044958 0.192792 -0.379065 -0.147512 -0.112377 -0.197132 0.035413 0.076593 0.348835 0.299251 -0.371653 -0.331195 0.258302 -0.047566 0.219400 0.028825 -0.063033 -0.008303 0.270227 0.350066 0.285540 0.418810 -0.301130 -0.154373 -0.137062 -0.280961 0.120542 0.033114 0.027153 -0.138128 -0.095685 0.250595 0.261725 -0.157329 -0.034286 -0.045816 -0.095424 -0.252615 -0.027058 0.486294 -0.351266 -0.324265 -0.076979 0.103051 -0.104728 -0.113574 -0.092868 -0.025731 -0.079334 0.081121
hath 0.055598 0.040139 0.250160 0.062374 0.157230 0.000579 0.076903 0.675164 -0.042554 0.437810 -0.098245 0.195206 0.344770 -0.096132 0.096469 0.106575 -0.109267 -0.016706 -0.146169 0.323219 0.022074 0.231363 0.093140 0.019350 0.295378 -0.134497 0.083457 0.256285 0.236033 -0.076928 0.023708 -0.423884 0.072022 -0.021079 0.191851 -0.353282 0.128728 -0.067795 0.157914 0.247114 0.110498 -0.126529 -0.645487 0.277497 0.068957 -0.198576 -0.122927 0.062972 0.052360 -0.253742 -0.157667 0.188153 -0.364662 -0.089240 -0.078449 -0.299250 0.076953 0.203217 0.324607 0.298134 -0.361940 -0.187534 0.293666 -0.061166 0.259488 -0.079136 0.098119 -0.062569 0.306095 0.286498 0.250955 0.638185 -0.127992 -0.111533 -0.343511 -0.424217 0.002656 -0.088564 -0.007550 -0.178485 -0.066605 0.247518 0.182760 -0.147911 -0.150997 -0.091795 -0.156110 -0.083232 -0.031216 0.534424 -0.300941 -0.281733 -0.076391 0.109331 -0.231442 -0.204889 -0.239151 -0.082147 0.029098 0.098775
more 0.227679 0.060190 0.098271 -0.119490 -0.053744 -0.588751 -0.019536 0.689284 0.101826 0.525046 0.226275 0.031717 0.411099 -0.028234 0.324309 0.082430 0.027558 0.195834 0.233333 0.413632 -0.421843 -0.118662 0.069259 -0.316743 0.007064 -0.328984 0.334705 0.376419 0.253293 -0.098354 -0.119934 -0.348868 0.136034 -0.008291 0.344893 -0.309975 -0.138517 -0.133946 0.162041 0.404967 -0.105290 0.047777 -0.984937 0.096076 0.092769 0.083059 0.289445 0.054380 -0.056720 -0.324455 0.146737 0.280344 -0.612042 -0.089464 0.147609 -0.282762 0.251107 0.275454 0.339906 0.059200 -0.282683 0.199290 0.381673 -0.190813 0.101741 -0.144397 0.069657 0.114370 0.150611 0.353754 0.402925 0.537004 -0.088111 0.170687 -0.093399 -0.404297 0.508836 -0.357730 -0.377986 -0.155356 -0.291579 -0.030792 0.014783 -0.125184 -0.265784 0.006016 -0.192002 -0.190110 0.260580 0.606709 -0.341787 -0.033142 -0.355638 0.205123 -0.452184 -0.210194 -0.196217 -0.159238 -0.209990 0.081915
were 0.185109 0.001714 0.301203 -0.086047 0.213949 -0.149094 -0.008302 0.640937 -0.065897 0.427539 0.116073 0.063549 0.099038 -0.115325 0.098630 0.292518 -0.103759 0.242950 -0.130463 0.216277 -0.192532 0.097652 0.100360 -0.092793 0.142896 -0.343919 0.145043 0.321682 0.068293 -0.159569 0.250113 -0.395284 0.086500 0.198072 0.186050 -0.222079 0.088547 -0.039699 0.217983 0.203541 0.099068 -0.133979 -0.529551 0.105159 0.043250 -0.130561 -0.141757 -0.048424 0.070718 -0.122103 0.046452 0.299382 -0.139237 -0.044446 -0.073311 -0.126128 0.115268 0.253420 0.378329 0.157679 -0.254096 -0.396028 0.228791 0.015050 0.175350 0.053155 -0.089990 0.104080 0.224727 0.221909 0.403737 0.347627 -0.173188 -0.222735 -0.035897 -0.331747 0.111159 0.180042 -0.047315 -0.084645 -0.088086 0.012907 0.159898 -0.255760 0.035471 0.027785 -0.196970 -0.359973 -0.043942 0.574914 -0.153625 -0.259119 -0.036987 0.186541 -0.244310 -0.201543 -0.126120 -0.022517 0.101043 0.126162
part 0.215029 0.211803 0.175796 0.007026 0.187472 -0.199172 0.052387 0.848469 -0.175617 0.230875 -0.084811 0.129254 0.180306 -0.006603 -0.063171 0.117634 -0.110231 0.184759 0.098039 0.248055 -0.220149 0.195274 0.141107 0.161303 0.147961 -0.288139 0.016925 0.250210 0.214043 0.170359 0.223748 -0.326133 -0.049076 0.064215 0.200682 -0.024526 -0.099719 -0.167908 -0.041889 0.148974 0.092649 -0.183858 -0.446226 0.139298 0.037320 -0.025762 -0.108695 0.026163 0.041360 -0.090145 -0.195739 0.197563 -0.334627 0.038671 -0.210796 -0.114265 -0.010189 0.088968 0.416703 0.255926 -0.184203 -0.231538 0.152955 -0.297339 0.052782 -0.021039 0.037360 0.072578 0.049238 0.354066 0.132880 0.455412 -0.253206 -0.055487 -0.276197 -0.274427 0.204540 -0.124054 -0.042279 -0.104025 -0.076887 0.039150 0.107079 -0.036913 0.143867 -0.075201 -0.117153 -0.195320 0.012438 0.358460 -0.503727 -0.317824 -0.044394 0.008258 -0.032928 -0.076511 -0.199295 -0.066376 -0.203508 0.062201
up 0.131841 0.040165 0.249745 -0.005839 0.159640 -0.073138 -0.003344 0.681127 -0.079746 0.325338 0.033818 0.078265 0.188929 -0.061067 0.098124 0.181699 -0.090690 0.152519 -0.074301 0.254685 -0.139826 0.205711 0.188259 -0.002560 0.207221 -0.313363 0.100249 0.271049 0.175617 -0.071194 0.189270 -0.357195 0.075800 0.110058 0.216955 -0.247900 0.052374 -0.037049 0.128732 0.203742 0.053392 -0.163095 -0.588068 0.164366 0.066343 -0.156080 -0.143164 -0.064908 0.114276 -0.089812 -0.064860 0.259985 -0.199268 -0.029305 -0.073490 -0.182702 0.156064 0.310256 0.377711 0.237676 -0.229973 -0.326884 0.213249 -0.085068 0.148317 -0.043639 0.024804 0.071123 0.190072 0.256442 0.328349 0.430243 -0.103526 -0.159794 -0.211805 -0.370234 0.044212 0.032882 -0.090416 -0.166440 -0.065313 0.035068 0.076314 -0.202398 -0.030525 0.054071 -0.160518 -0.266022 0.034711 0.540506 -0.228114 -0.270972 -0.064550 0.125256 -0.196070 -0.178171 -0.221116 -0.041895 0.036102 0.093778
war -0.283605 0.301324 0.314274 0.158422 0.293421 0.055951 0.072494 0.942997 -0.113821 0.478380 -0.219799 0.580929 0.434807 -0.221237 -0.291043 0.288644 0.013109 -0.146765 -0.218121 0.458180 0.166624 0.484085 -0.260406 0.027600 0.719605 -0.293693 -0.400518 -0.077078 0.166890 -0.123913 0.024231 -0.397449 0.169842 -0.095933 0.021261 -0.304488 0.422422 -0.413770 0.091940 -0.029164 0.168012 -0.614171 -0.191185 0.428350 0.092581 -0.366471 -0.155184 0.012297 0.017258 -0.357546 -0.222252 0.070163 -0.655401 -0.210678 -0.204190 -0.227538 -0.155346 -0.199093 0.296036 0.591021 -0.555284 -0.443235 0.208808 0.081949 0.405912 -0.045947 0.000934 -0.191205 0.347602 0.507983 0.060589 0.497588 -0.636670 -0.217648 -0.515960 -0.215470 -0.111293 0.137651 0.435367 -0.304253 0.154383 0.746295 0.556657 -0.164719 0.078938 -0.008900 0.140861 -0.039065 0.001907 0.532085 -0.558976 -0.802193 -0.013538 0.116889 0.014804 0.019359 -0.169834 -0.033449 -0.335399 0.194628
good 0.218207 0.149802 0.362847 -0.000116 0.294373 -0.093602 0.035503 0.695695 -0.215907 0.327933 -0.079188 0.106778 0.129622 -0.162027 -0.125120 0.180892 -0.174684 0.018436 -0.070148 0.241620 -0.092063 0.149905 0.083010 0.037527 0.230698 -0.311810 0.043182 0.226367 0.065419 0.017752 0.155247 -0.469239 -0.034262 0.125186 0.282277 -0.160882 0.126381 -0.111580 0.267861 0.149735 0.107178 -0.303547 -0.426323 0.251695 0.084327 -0.167492 -0.194159 -0.044817 0.030948 -0.154858 -0.035316 0.330724 -0.217662 -0.121495 -0.114683 -0.226410 0.039811 0.174459 0.339934 0.381655 -0.399023 -0.485519 0.252637 -0.121779 0.149939 0.034848 -0.065235 0.129251 0.188865 0.326593 0.323739 0.424326 -0.250197 -0.311619 -0.146761 -0.330997 -0.043196 0.154299 0.076624 -0.087604 -0.132542 0.262547 0.264965 -0.134013 0.057584 -0.027274 -0.164137 -0.277383 -0.051362 0.560120 -0.346802 -0.363281 0.030196 0.088122 -0.037175 -0.132986 -0.147168 0.021437 -0.066357 0.097853
consent 0.161357 0.022420 0.282768 0.029314 0.227564 0.073136 0.041077 0.646885 -0.103190 0.243180 -0.079757 0.124204 0.136000 -0.056344 0.040144 0.166633 -0.139722 0.180109 -0.169502 0.184673 -0.056851 0.308666 0.390328 0.063720 0.173940 -0.295829 0.188752 0.181098 0.129879 -0.075480 0.159796 -0.393620 0.113573 0.167824 0.257706 -0.234501 0.073714 0.078400 0.180190 0.260146 0.164428 -0.155420 -0.567945 0.205361 0.090625 -0.287911 -0.163399 -0.015274 0.113021 0.020411 -0.011661 0.237457 -0.151889 -0.031954 -0.170581 -0.209291 0.149592 0.306982 0.421315 0.300388 -0.273345 -0.322917 0.252563 -0.147787 0.006730 -0.041045 -0.007261 0.051310 0.111122 0.185156 0.430311 0.477496 -0.020670 -0.247721 -0.168160 -0.343953 -0.066192 0.021264 -0.079518 -0.068771 -0.060025 0.028594 0.078094 -0.180848 -0.055741 0.080577 -0.117448 -0.211278 0.033498 0.575440 -0.261288 -0.203545 -0.031258 0.158022 -0.101356 -0.183133 -0.111218 -0.004344 0.087102 0.098880
we 0.289556 0.070419 0.290396 -0.097063 0.226576 -0.356289 0.029951 0.731478 -0.068138 0.387934 0.174712 0.107014 -0.033659 -0.063767 0.106820 0.329632 -0.097527 0.384810 -0.053061 0.212259 -0.272267 0.018637 0.072195 -0.105863 0.168785 -0.427846 0.126276 0.353698 -0.020736 -0.189557 0.297122 -0.335736 -0.020456 0.216753 0.183649 -0.114938 -0.010980 -0.059509 0.195344 0.210958 0.001682 -0.180972 -0.430382 0.068450 0.015276 -0.021625 -0.037692 -0.088975 0.093859 -0.056663 0.067140 0.209823 -0.232426 -0.008004 -0.115154 -0.111467 0.102311 0.290831 0.435811 0.034815 -0.253249 -0.473601 0.190104 0.025642 0.138232 0.118576 -0.131951 0.111313 0.140992 0.361246 0.480179 0.305546 -0.228305 -0.208875 0.101078 -0.244456 0.337954 0.224813 -0.061712 -0.071552 -0.113617 -0.065290 0.154633 -0.265069 0.198646 0.015793 -0.261837 -0.449196 -0.084755 0.585682 -0.287436 -0.243527 -0.069764 0.182299 -0.208259 -0.035455 -0.042413 0.130899 0.034084 0.132440
yet 0.169549 0.056525 0.272482 -0.021158 0.190200 -0.191734 0.055427 0.752662 -0.082440 0.424949 -0.021063 0.148784 0.192979 -0.080264 0.060842 0.230365 -0.108702 0.190547 -0.084863 0.277975 -0.136328 0.118758 0.131456 -0.050356 0.209783 -0.268065 0.127727 0.341564 0.114906 -0.087821 0.126997 -0.388993 0.016232 0.109876 0.219514 -0.214286 0.018372 -0.077272 0.192617 0.223221 0.099574 -0.155979 -0.562325 0.205855 0.056375 -0.120627 -0.044981 0.021992 0.075196 -0.147020 -0.029191 0.192344 -0.339521 -0.063035 -0.116331 -0.178137 0.074476 0.225748 0.389278 0.205405 -0.311097 -0.335992 0.287176 -0.069207 0.188933 0.002695 -0.025579 0.024295 0.241667 0.325161 0.367251 0.471378 -0.210073 -0.147740 -0.122782 -0.300822 0.169316 0.026906 -0.051508 -0.094494 -0.103584 0.082216 0.178256 -0.213217 0.018349 -0.033477 -0.181826 -0.252752 -0.035781 0.555497 -0.310307 -0.264815 -0.089504 0.128865 -0.196983 -0.135838 -0.139192 0.009985 0.007371 0.080289
children 0.080819 -0.074048 0.237492 0.043369 0.090015 0.083920 0.037012 0.624925 0.040526 0.268420 0.037086 0.134873 0.209484 0.051827 0.134926 0.076065 -0.183692 0.175340 -0.137870 0.256003 -0.101490 0.253898 0.313615 0.073969 0.185169 -0.232675 0.258394 0.162907 0.168187 -0.082473 0.139526 -0.400079 0.154813 0.069279 0.180476 -0.363462 0.044188 0.151788 0.152365 0.272268 0.130772 -0.031183 -0.727612 0.170056 0.055381 -0.260156 -0.105977 -0.045706 0.094536 -0.080877 -0.069981 0.277425 -0.118985 -0.029944 -0.087394 -0.226897 0.218166 0.336605 0.362562 0.228622 -0.264937 -0.153368 0.236218 -0.127442 0.076119 -0.100982 0.111347 0.036915 0.143594 0.117722 0.412890 0.525936 0.109789 -0.168106 -0.298068 -0.416844 -0.009586 -0.006300 -0.222667 -0.154889 -0.054176 0.018088 -0.014060 -0.219944 -0.188167 0.121596 -0.176976 -0.114233 0.099993 0.591657 -0.224681 -0.112377 -0.096905 0.224437 -0.221163 -0.236738 -0.201136 0.034677 0.105936 0.078116
gutenberg 0.578410 0.124499 0.111322 -0.002105 0.163692 -0.060392 -0.273205 2.324905 -0.396938 -0.722448 0.539106 0.015799 -0.610021 0.926444 -0.044339 0.046804 -0.833907 1.633868 0.444696 0.199896 -1.007895 0.220522 0.886292 1.250951 -0.464866 -1.510274 0.545622 0.509553 0.629618 1.017721 2.176871 0.207824 0.031088 0.119840 -0.112270 0.439704 -1.006494 0.070496 -1.137818 -0.037354 0.244925 0.445572 -0.904544 -0.266284 -0.125696 0.441557 -0.623212 -0.785486 0.766276 0.286878 -1.157729 0.287678 0.078738 1.107560 -0.834487 0.057191 0.379511 -0.133450 1.270261 -0.201802 0.977145 -0.292487 -1.023420 -1.055769 -0.542231 -0.456700 0.490724 0.791578 -0.748916 0.085936 -0.613206 0.857784 -0.113336 0.441427 -1.231431 -0.306725 1.026730 -0.156263 -0.241802 -0.084040 0.009783 -1.252451 -0.564369 -0.350685 1.407247 0.004537 -0.133285 -0.181308 -0.342916 0.057618 -1.296278 -0.813128 0.734509 0.109973 0.044027 0.342645 -1.491332 0.364214 -0.760907 0.124084
much 0.105256 0.061313 0.233586 -0.150553 0.131963 -0.321139 0.018501 0.624601 0.025900 0.360059 0.130867 0.005424 0.032352 -0.006199 0.150963 0.199528 -0.183551 0.245300 -0.009046 0.192943 -0.214777 -0.031181 -0.170720 -0.297386 0.270104 -0.241890 0.209793 0.325182 0.095712 -0.278003 0.091485 -0.285201 -0.135656 0.164512 0.260154 -0.239916 0.057907 -0.102059 0.266704 0.283914 -0.060929 -0.181215 -0.581677 0.153170 -0.007203 0.078537 0.031439 -0.046217 0.073504 -0.070370 0.038400 0.205912 -0.299819 -0.068877 -0.055470 -0.301726 0.138151 0.279204 0.355496 0.108536 -0.311171 -0.270281 0.278323 0.091176 0.311896 0.125306 0.049511 0.079959 0.206357 0.378168 0.532730 0.460511 -0.182523 -0.117396 0.075803 -0.154677 0.250003 0.192558 -0.072057 -0.044480 -0.115620 0.128424 0.226047 -0.199883 0.094402 -0.050335 -0.317554 -0.239545 -0.072552 0.569834 -0.168468 -0.229951 -0.100327 0.199833 -0.335987 -0.080909 -0.126744 0.101177 -0.074482 0.189816
authority 0.132780 0.040091 0.220271 -0.006745 0.160138 -0.081692 0.050087 0.700935 -0.088386 0.311134 -0.050608 0.111821 0.184508 -0.036896 0.027680 0.135836 -0.140666 0.154540 -0.075245 0.256079 -0.127087 0.232609 0.216910 0.018859 0.214761 -0.220534 0.141170 0.221833 0.125564 -0.016633 0.087943 -0.417122 0.077524 0.114778 0.225272 -0.238511 0.026075 -0.018348 0.129270 0.239193 0.116135 -0.163842 -0.570552 0.201670 0.030816 -0.200786 -0.078344 0.007647 0.077492 -0.104593 -0.072075 0.239564 -0.248817 -0.051123 -0.164999 -0.222439 0.107513 0.217164 0.414025 0.297136 -0.284671 -0.259532 0.252751 -0.151676 0.108843 -0.047243 0.005967 0.038154 0.163508 0.248857 0.368225 0.463627 -0.092132 -0.167225 -0.210115 -0.349445 0.043281 -0.022056 -0.116521 -0.139063 -0.055660 0.080908 0.122800 -0.181827 -0.081944 0.056823 -0.129365 -0.187339 0.075876 0.558653 -0.321938 -0.232371 -0.095231 0.150202 -0.125359 -0.156103 -0.112534 -0.015149 -0.011789 0.070967
life 0.055121 -0.047643 0.197613 0.108952 0.087474 0.196631 0.052373 0.649379 0.005061 0.239654 -0.106332 0.169514 0.309193 0.062147 0.133415 0.002190 -0.150709 0.093973 -0.176266 0.196926 -0.012730 0.335553 0.448482 0.117485 0.178633 -0.126938 0.301124 0.230263 0.272876 -0.074704 0.095839 -0.360370 0.166634 0.028088 0.204470 -0.387471 0.002132 0.196854 0.092044 0.347752 0.170682 0.003688 -0.815187 0.265400 0.081228 -0.271512 -0.085566 -0.006306 0.113603 -0.051531 -0.150760 0.219881 -0.208232 -0.005904 -0.108320 -0.315731 0.198556 0.356338 0.380138 0.273255 -0.278851 -0.084294 0.283590 -0.193784 -0.006633 -0.134893 0.192695 -0.017957 0.134424 0.122411 0.355244 0.681829 0.144863 -0.113932 -0.422487 -0.410925 -0.057375 -0.176059 -0.186691 -0.115405 -0.055519 0.032981 -0.038492 -0.203360 -0.202343 0.050130 -0.163757 0.015476 0.107109 0.556656 -0.275418 -0.120613 -0.104819 0.202278 -0.201239 -0.206482 -0.241081 -0.028422 0.082804 0.090524
father 0.039842 -0.004135 0.193987 0.161675 0.074648 0.187455 0.093884 0.698116 -0.000908 0.151422 -0.065150 0.172114 0.276226 0.109779 0.088626 -0.057385 -0.256150 0.147870 -0.120119 0.194639 -0.036743 0.305644 0.347521 0.210531 0.205257 -0.148009 0.275954 0.181756 0.274344 -0.001603 0.163273 -0.325039 0.082625 -0.004024 0.192019 -0.355691 -0.059913 0.179267 0.043343 0.282824 0.131596 -0.063616 -0.785025 0.232615 0.090080 -0.201521 -0.107894 -0.040103 0.133935 -0.037346 -0.222629 0.206951 -0.148106 0.028316 -0.175524 -0.297794 0.177344 0.313262 0.360173 0.271701 -0.194495 -0.066494 0.179726 -0.268659 0.061035 -0.133594 0.218856 -0.005809 0.091344 0.097481 0.342461 0.700375 0.112084 -0.159611 -0.446005 -0.397005 0.004818 -0.116489 -0.191720 -0.139591 -0.024084 0.096209 -0.063001 -0.187373 -0.141784 0.040374 -0.188920 0.031583 0.043642 0.526477 -0.378316 -0.149882 -0.058861 0.186674 -0.176138 -0.175780 -0.287975 0.012342 0.024036 0.083721
cannot 0.247515 0.001063 0.230108 -0.094231 0.155974 -0.252067 -0.013920 0.667366 -0.024702 0.481140 0.079822 0.054154 0.104154 -0.044220 0.240936 0.246244 -0.029441 0.285891 -0.065177 0.176095 -0.236677 0.057664 0.224801 -0.162646 0.128938 -0.276507 0.312807 0.481101 0.114395 -0.173185 0.161798 -0.341028 0.035250 0.262063 0.224179 -0.212325 -0.032530 -0.001646 0.264087 0.342081 0.020478 -0.024510 -0.618055 0.123346 0.044416 -0.111849 0.017613 0.015012 0.099253 0.001352 0.078693 0.235733 -0.259606 0.024116 -0.038787 -0.184276 0.107168 0.334825 0.472580 0.077022 -0.261711 -0.293031 0.330121 -0.064227 0.086058 0.037095 -0.026859 0.059118 0.188042 0.272803 0.502608 0.457234 -0.113085 -0.126915 0.024673 -0.294705 0.254985 0.029254 -0.140033 -0.039631 -0.161737 -0.109637 0.102430 -0.260966 0.035640 -0.020299 -0.242924 -0.321330 -0.014713 0.582442 -0.145648 -0.176256 -0.136057 0.188775 -0.340115 -0.147133 -0.094590 -0.015297 0.097281 0.105985
