930 100
the 0.227376 0.273942 0.071124 0.069023 0.404889 -0.359494 -0.030740 0.685489 0.190058 0.393578 0.141609 -0.052914 0.051762 -0.477599 0.260653 -0.091549 0.060133 -0.010980 -0.024497 0.148124 -0.135457 -0.064092 0.324249 0.118793 0.077589 -0.407372 -0.054540 0.114622 0.021008 -0.210650 -0.164388 -0.265850 -0.054015 0.326230 0.009454 -0.038738 -0.068913 -0.072925 0.113135 0.066301 0.146392 -0.362001 -0.155036 0.108717 0.145418 -0.082399 -0.117136 -0.025186 -0.074980 -0.294018 -0.132046 0.131748 -0.271580 0.081374 -0.083522 -0.422723 -0.067196 0.177894 0.117029 -0.046890 0.008967 -0.216546 0.282285 -0.080643 0.264551 0.199749 -0.088465 0.044415 0.253375 0.007872 0.146451 0.415045 -0.060763 -0.236075 -0.316701 -0.013229 0.337328 0.012600 0.042049 -0.100374 -0.259669 0.330168 0.115443 -0.473480 -0.062998 0.209247 -0.066893 -0.313024 -0.086832 0.435020 -0.235817 0.176530 -0.133235 0.104769 -0.274842 0.061957 0.171999 0.175693 -0.304900 -0.091828
and 0.273131 0.234005 0.129372 0.042734 0.419759 -0.403472 -0.032477 0.606769 0.244236 0.428977 0.137005 -0.070582 0.122847 -0.542677 0.243721 -0.023325 0.094077 -0.050118 -0.042781 0.125330 -0.151643 -0.074340 0.291332 0.083058 0.108758 -0.392795 -0.046805 0.159679 0.042449 -0.241684 -0.199979 -0.297463 -0.079375 0.326165 0.039875 -0.105999 -0.023449 -0.022706 0.125083 0.149527 0.123277 -0.365939 -0.152742 0.110679 0.165702 -0.097854 -0.119525 -0.001605 -0.065144 -0.316140 -0.138448 0.117514 -0.260042 0.088929 -0.026071 -0.402053 -0.051063 0.229115 0.085873 -0.037593 -0.045767 -0.207505 0.334957 -0.020735 0.226610 0.218756 -0.114139 -0.020163 0.300784 -0.014750 0.156460 0.402541 -0.089137 -0.292094 -0.299944 -0.043057 0.332239 0.028387 0.063269 -0.088823 -0.260416 0.385459 0.130373 -0.473439 -0.058741 0.173868 -0.121626 -0.283645 -0.095020 0.468525 -0.222818 0.169863 -0.154671 0.104026 -0.287680 0.010437 0.234541 0.180740 -0.258419 -0.058486
of 0.268545 0.289610 0.125017 0.043913 0.413802 -0.329116 -0.016019 0.726920 0.204041 0.370745 0.159602 -0.081608 0.053952 -0.445980 0.280647 -0.066342 0.003311 0.041981 -0.011478 0.139385 -0.130837 -0.106052 0.309059 0.162770 0.042446 -0.451869 -0.040412 0.167200 0.078821 -0.174411 -0.079923 -0.278726 -0.093596 0.281899 -0.002316 -0.012523 -0.120667 -0.039095 0.052454 0.067241 0.117093 -0.299872 -0.226483 0.081459 0.191719 -0.046554 -0.169457 -0.054795 -0.051540 -0.274790 -0.156904 0.117694 -0.240611 0.102154 -0.096874 -0.336835 -0.038893 0.212511 0.144230 -0.034689 0.071910 -0.224372 0.236941 -0.081142 0.264414 0.124759 -0.076688 0.099925 0.250765 0.022979 0.069305 0.412979 -0.097404 -0.199364 -0.314484 -0.107642 0.394722 0.003577 0.052242 -0.097415 -0.231842 0.324315 0.122562 -0.482954 0.025570 0.184779 -0.060022 -0.289987 -0.093343 0.420669 -0.262183 0.134093 -0.051671 0.100107 -0.256412 0.032819 0.091302 0.184560 -0.294012 -0.068459
i 0.302174 0.161980 0.164133 0.063412 0.415278 -0.454773 -0.014489 0.475883 0.305759 0.545945 0.127638 -0.020250 0.184604 -0.657271 0.208022 0.102223 0.140727 -0.122053 -0.060366 0.102747 -0.137849 -0.015178 0.239015 -0.027715 0.187001 -0.339963 -0.021838 0.141523 0.021542 -0.349605 -0.335056 -0.352650 -0.098436 0.398354 0.098591 -0.218251 0.144255 0.015036 0.230623 0.223515 0.116628 -0.418270 -0.073091 0.110931 0.133073 -0.152109 -0.020503 0.071920 -0.055465 -0.392174 -0.086703 0.081200 -0.289571 0.038941 0.053024 -0.428432 -0.056455 0.308958 0.023966 -0.058421 -0.234511 -0.243376 0.474181 0.043914 0.191463 0.342531 -0.167221 -0.154750 0.369638 -0.029299 0.262943 0.367079 -0.109647 -0.369535 -0.225985 0.004269 0.292948 0.039250 0.036852 -0.092259 -0.234021 0.415035 0.184992 -0.484734 -0.113193 0.149892 -0.199238 -0.302463 -0.075874 0.549211 -0.122860 0.186442 -0.270032 0.093513 -0.306441 -0.046924 0.392935 0.194391 -0.171793 -0.030142
a 0.238786 0.231460 0.091928 0.036739 0.384564 -0.390255 -0.042801 0.695091 0.216592 0.412418 0.161131 -0.071188 0.084932 -0.478503 0.281208 -0.003377 0.058346 0.017864 -0.010424 0.118174 -0.150510 -0.086031 0.293496 0.105171 0.074855 -0.391346 -0.034151 0.158186 0.017414 -0.224351 -0.173447 -0.264373 -0.078890 0.330738 0.026019 -0.076046 -0.060118 -0.046395 0.116813 0.103925 0.136456 -0.328006 -0.178574 0.102343 0.160243 -0.078524 -0.116573 -0.020700 -0.070248 -0.294299 -0.133772 0.117524 -0.261510 0.092200 -0.060153 -0.369154 -0.046623 0.223869 0.132000 -0.076791 -0.017465 -0.208792 0.313542 -0.040404 0.239838 0.203904 -0.097466 0.009760 0.276102 -0.001978 0.118263 0.396289 -0.079134 -0.223587 -0.275110 -0.042050 0.375747 0.009282 0.078827 -0.115679 -0.249371 0.337019 0.142804 -0.470348 -0.008397 0.185097 -0.094309 -0.294149 -0.072545 0.457322 -0.238401 0.128990 -0.116031 0.096251 -0.275043 0.047910 0.168748 0.202017 -0.293685 -0.038976
to 0.277876 0.224534 0.114166 0.006182 0.400838 -0.389026 -0.060320 0.695428 0.228253 0.442180 0.173433 -0.070952 0.089554 -0.496844 0.284558 -0.015619 0.061262 0.010755 0.006143 0.125927 -0.170159 -0.085570 0.288885 0.104008 0.060245 -0.423393 -0.020868 0.162676 0.061657 -0.245544 -0.149059 -0.283146 -0.118481 0.347719 0.034091 -0.065053 -0.062903 0.001972 0.139522 0.161776 0.118072 -0.317854 -0.160461 0.120418 0.200361 -0.077055 -0.114412 0.012634 -0.047684 -0.262679 -0.142108 0.093506 -0.224342 0.104094 -0.065208 -0.363114 -0.053560 0.235166 0.138297 -0.068006 -0.018729 -0.235209 0.334687 -0.062398 0.218160 0.205955 -0.115711 0.005876 0.297419 -0.000756 0.115066 0.413226 -0.092408 -0.258447 -0.267409 -0.070258 0.389509 0.010793 0.057107 -0.087049 -0.266701 0.331349 0.165218 -0.475071 0.015512 0.169166 -0.118181 -0.305914 -0.059403 0.466543 -0.210590 0.123521 -0.088497 0.091400 -0.280377 0.027371 0.206531 0.200769 -0.283274 -0.049711
in 0.260803 0.265387 0.118705 0.047210 0.414643 -0.369405 -0.028676 0.700847 0.204487 0.403586 0.155378 -0.081761 0.074609 -0.475117 0.270395 -0.034908 0.037307 0.022298 -0.006188 0.130336 -0.136164 -0.081384 0.288120 0.132839 0.062910 -0.430020 -0.047333 0.160395 0.057488 -0.203832 -0.137394 -0.278809 -0.079111 0.313271 0.017284 -0.055972 -0.083062 -0.037894 0.089082 0.102982 0.117429 -0.313116 -0.184696 0.102168 0.181735 -0.069781 -0.142452 -0.029038 -0.058172 -0.277858 -0.146190 0.112403 -0.222858 0.095261 -0.074691 -0.347131 -0.059932 0.214846 0.137576 -0.047537 0.029628 -0.204322 0.285209 -0.070058 0.256511 0.167878 -0.104780 0.049331 0.256083 -0.001798 0.103236 0.407227 -0.088898 -0.236514 -0.294390 -0.084872 0.376585 0.012242 0.059456 -0.100963 -0.247046 0.323250 0.125455 -0.464657 -0.002201 0.188547 -0.088046 -0.295751 -0.078505 0.449509 -0.240086 0.143515 -0.081855 0.099440 -0.277038 0.033152 0.145862 0.191775 -0.288365 -0.062906
was 0.267939 0.180133 0.131537 0.059635 0.407545 -0.393482 -0.016171 0.526767 0.247012 0.460672 0.135268 -0.050012 0.153819 -0.566592 0.228022 0.020491 0.091557 -0.086103 -0.061694 0.109506 -0.131958 -0.067540 0.242624 0.038321 0.124840 -0.337362 -0.044453 0.151481 0.034081 -0.262278 -0.220468 -0.300904 -0.064004 0.334469 0.087750 -0.139714 0.037360 -0.027949 0.154955 0.166013 0.119215 -0.356321 -0.145639 0.088022 0.168822 -0.112490 -0.076638 0.019231 -0.074229 -0.333100 -0.112518 0.112692 -0.245938 0.058800 0.002588 -0.395275 -0.046942 0.231552 0.044978 -0.037740 -0.110304 -0.203105 0.380115 -0.006367 0.213796 0.230418 -0.134694 -0.057393 0.329050 -0.036327 0.183729 0.383906 -0.102054 -0.303287 -0.222376 -0.038929 0.311927 0.035171 0.048121 -0.075323 -0.255116 0.389926 0.135541 -0.473526 -0.069575 0.150979 -0.135109 -0.289114 -0.083576 0.468269 -0.169819 0.166134 -0.178094 0.097733 -0.292871 -0.009222 0.270705 0.154110 -0.203069 -0.047192
that 0.271353 0.211994 0.125517 0.032860 0.387536 -0.402257 -0.045516 0.634248 0.231010 0.470481 0.160813 -0.061631 0.112657 -0.512665 0.251820 0.024524 0.062856 -0.020827 -0.017620 0.119172 -0.164095 -0.070662 0.257474 0.082183 0.084741 -0.384778 -0.034018 0.150100 0.039627 -0.254005 -0.181460 -0.305982 -0.102644 0.353083 0.064649 -0.096284 -0.013477 -0.002049 0.158699 0.153206 0.112228 -0.346513 -0.163667 0.111987 0.180662 -0.099942 -0.080563 0.007264 -0.043615 -0.311435 -0.123621 0.108645 -0.230256 0.064623 -0.040363 -0.366710 -0.053055 0.246326 0.098604 -0.059034 -0.080793 -0.232607 0.381059 -0.039718 0.238311 0.231477 -0.132984 -0.035895 0.310160 -0.002666 0.152809 0.388400 -0.098670 -0.262853 -0.225615 -0.047829 0.357858 0.007332 0.049127 -0.095193 -0.247119 0.339123 0.164141 -0.467456 -0.010274 0.172603 -0.123204 -0.298398 -0.061945 0.472537 -0.192600 0.142913 -0.135365 0.085840 -0.275391 0.000681 0.244290 0.194159 -0.233497 -0.036742
it 0.266427 0.203352 0.127962 0.025235 0.385394 -0.407523 -0.040668 0.611807 0.236510 0.467462 0.157470 -0.061814 0.089935 -0.514056 0.250738 0.050173 0.066066 -0.023751 -0.014673 0.119350 -0.173751 -0.069265 0.236037 0.064141 0.092497 -0.361285 -0.022532 0.152047 0.026747 -0.238538 -0.196510 -0.297472 -0.093664 0.346213 0.063562 -0.089249 -0.018728 0.004009 0.156083 0.168383 0.125273 -0.341704 -0.144912 0.120923 0.154955 -0.071612 -0.083394 0.015000 -0.065412 -0.298083 -0.106280 0.105398 -0.244747 0.061412 -0.025595 -0.357361 -0.052110 0.251800 0.092927 -0.062846 -0.081749 -0.228835 0.371266 -0.025293 0.210355 0.244211 -0.129738 -0.031131 0.312141 -0.002262 0.144559 0.376100 -0.096289 -0.267111 -0.222961 -0.042533 0.341240 0.010075 0.061043 -0.087120 -0.235361 0.339344 0.173998 -0.448220 -0.025965 0.152692 -0.138611 -0.298572 -0.053249 0.487064 -0.183593 0.133046 -0.145190 0.072193 -0.282407 0.007693 0.240722 0.181562 -0.240371 -0.028411
my 0.245434 0.207100 0.133319 0.065269 0.421771 -0.413901 -0.026949 0.575602 0.239124 0.455114 0.117950 -0.054210 0.151581 -0.564328 0.238036 -0.011059 0.117114 -0.044136 -0.049549 0.122205 -0.132105 -0.048880 0.274562 0.035173 0.128406 -0.368146 -0.030026 0.139580 0.032792 -0.296753 -0.240120 -0.296886 -0.078491 0.347530 0.058145 -0.140884 0.028792 -0.019389 0.142880 0.168043 0.127697 -0.394351 -0.121970 0.125465 0.164589 -0.135816 -0.091392 0.017625 -0.067654 -0.345828 -0.126027 0.102809 -0.266232 0.083944 -0.002168 -0.423952 -0.059110 0.243255 0.076589 -0.056048 -0.096267 -0.210066 0.355499 -0.011756 0.217754 0.242743 -0.129490 -0.068742 0.305450 -0.037016 0.189455 0.373846 -0.081108 -0.309557 -0.302214 -0.030854 0.298408 0.043880 0.051027 -0.072937 -0.268958 0.376917 0.152929 -0.449851 -0.091967 0.165971 -0.136954 -0.288900 -0.097693 0.492095 -0.203094 0.185322 -0.195818 0.103620 -0.278999 0.017528 0.270685 0.178976 -0.227298 -0.044123
had 0.273896 0.188825 0.133329 0.042761 0.409769 -0.417105 -0.053263 0.600073 0.250261 0.501758 0.177594 -0.058638 0.159064 -0.560210 0.239066 0.023907 0.091146 -0.063460 -0.046259 0.125820 -0.149557 -0.054209 0.243073 0.032768 0.144624 -0.359169 -0.019363 0.172007 0.043988 -0.289725 -0.222634 -0.324745 -0.098031 0.374086 0.080362 -0.139847 0.055247 -0.004026 0.182096 0.186237 0.129481 -0.354144 -0.137802 0.100078 0.162923 -0.115358 -0.074887 0.030167 -0.059875 -0.342078 -0.125952 0.124742 -0.261568 0.073335 -0.017765 -0.400076 -0.045610 0.230322 0.081624 -0.053678 -0.128469 -0.219930 0.406583 -0.004186 0.247910 0.228337 -0.136247 -0.074903 0.355134 -0.039647 0.179635 0.417864 -0.123534 -0.327656 -0.237636 -0.057386 0.322791 0.017771 0.038439 -0.099212 -0.262554 0.366901 0.152448 -0.514354 -0.063333 0.172011 -0.139886 -0.324530 -0.089120 0.500815 -0.159088 0.167574 -0.181853 0.112181 -0.300225 -0.002861 0.279703 0.172373 -0.220487 -0.036922
me 0.269690 0.196591 0.134984 0.037596 0.404283 -0.412377 -0.039253 0.589405 0.237265 0.470557 0.142768 -0.058908 0.132991 -0.558083 0.245462 0.020139 0.095434 -0.048713 -0.047188 0.115892 -0.171670 -0.056890 0.273549 0.039807 0.102850 -0.384463 -0.039767 0.154162 0.033656 -0.276985 -0.226015 -0.293874 -0.083421 0.349042 0.063257 -0.126421 0.018281 -0.005065 0.154123 0.187072 0.127227 -0.390416 -0.147366 0.116693 0.163761 -0.095814 -0.075191 0.015083 -0.065846 -0.330961 -0.116123 0.096653 -0.267970 0.088226 -0.009857 -0.401001 -0.057930 0.251422 0.083722 -0.063336 -0.092535 -0.221189 0.373484 -0.012745 0.218462 0.250682 -0.124066 -0.067081 0.326808 -0.028767 0.158292 0.381600 -0.084996 -0.292895 -0.274624 -0.021311 0.334307 0.023829 0.066215 -0.078032 -0.262852 0.370061 0.169320 -0.453000 -0.055468 0.157194 -0.145250 -0.287183 -0.074586 0.478479 -0.206236 0.153736 -0.182009 0.086800 -0.281172 0.000938 0.283287 0.186895 -0.241264 -0.035554
as 0.265401 0.208778 0.127958 0.024422 0.390450 -0.399350 -0.035150 0.629811 0.229940 0.438355 0.162959 -0.071163 0.112842 -0.515773 0.247009 0.019207 0.057665 -0.012871 -0.013210 0.105503 -0.168535 -0.066096 0.256846 0.075504 0.097249 -0.389646 -0.032276 0.172077 0.051991 -0.237557 -0.166447 -0.288924 -0.109839 0.337258 0.058308 -0.120287 -0.020392 -0.009206 0.147219 0.156106 0.122194 -0.348028 -0.173388 0.112329 0.177961 -0.078257 -0.111293 0.002764 -0.051266 -0.290579 -0.120392 0.108549 -0.240834 0.094816 -0.024412 -0.374570 -0.049791 0.254782 0.112081 -0.085805 -0.066688 -0.229012 0.348089 -0.033233 0.219618 0.218146 -0.128200 -0.016046 0.306180 -0.003439 0.137910 0.385666 -0.105847 -0.267805 -0.271136 -0.039876 0.363853 0.016870 0.076016 -0.082292 -0.257475 0.357945 0.162711 -0.468517 -0.004846 0.173116 -0.121065 -0.280434 -0.064756 0.481795 -0.216173 0.120743 -0.128025 0.086917 -0.271445 0.006665 0.227921 0.188706 -0.258978 -0.030680
with 0.244181 0.284744 0.081696 0.015482 0.389926 -0.332789 -0.059906 0.808880 0.183162 0.329086 0.164135 -0.109544 0.024498 -0.378828 0.301511 -0.080789 -0.005825 0.109239 0.038169 0.136500 -0.162878 -0.099559 0.326690 0.186217 -0.012941 -0.473872 -0.014190 0.177571 0.072298 -0.168880 -0.036950 -0.239167 -0.106019 0.294678 -0.020569 0.009696 -0.190498 -0.036334 0.042418 0.077779 0.121736 -0.260171 -0.219708 0.098684 0.196970 -0.036286 -0.159911 -0.066325 -0.022528 -0.217086 -0.170933 0.105366 -0.207290 0.133940 -0.139136 -0.323717 -0.058768 0.195559 0.187700 -0.069523 0.124306 -0.206105 0.216544 -0.111567 0.249416 0.123677 -0.077338 0.101084 0.210721 0.017799 0.047158 0.412834 -0.069225 -0.172625 -0.328072 -0.100867 0.421751 -0.013679 0.056547 -0.105592 -0.254699 0.264573 0.116930 -0.449062 0.074208 0.203685 -0.042443 -0.279321 -0.084386 0.391929 -0.271370 0.126471 -0.010819 0.102168 -0.252367 0.062546 0.054728 0.208438 -0.344439 -0.073863
at 0.267044 0.221762 0.099550 0.036785 0.395684 -0.373064 -0.045838 0.623757 0.241101 0.421575 0.143602 -0.059511 0.110219 -0.491600 0.270290 -0.020413 0.081294 -0.016245 -0.019489 0.127065 -0.144200 -0.085502 0.272740 0.090413 0.083774 -0.405180 -0.037472 0.154744 0.066262 -0.265338 -0.163962 -0.277774 -0.091931 0.329361 0.043189 -0.068564 -0.038558 -0.021052 0.118758 0.123277 0.103249 -0.341421 -0.142240 0.106106 0.191533 -0.100589 -0.086198 -0.003915 -0.037036 -0.286087 -0.153602 0.100027 -0.225235 0.091051 -0.066571 -0.388637 -0.074761 0.220176 0.101937 -0.053946 -0.027527 -0.207974 0.338459 -0.068235 0.239561 0.203407 -0.100837 -0.010742 0.278940 -0.029663 0.156158 0.388621 -0.078651 -0.278626 -0.261748 -0.072395 0.358436 0.001212 0.017214 -0.088528 -0.260565 0.320854 0.133157 -0.446969 -0.023135 0.197618 -0.116438 -0.288123 -0.077727 0.452934 -0.196011 0.180796 -0.115215 0.097045 -0.272624 0.016923 0.201276 0.203666 -0.268253 -0.051671
for 0.267998 0.266420 0.110079 0.039131 0.410836 -0.382637 -0.059246 0.773050 0.222860 0.414926 0.175180 -0.090392 0.070499 -0.456976 0.310734 -0.047374 0.037514 0.057230 0.017591 0.127376 -0.172277 -0.103272 0.315169 0.149194 0.026546 -0.447398 -0.014251 0.176662 0.066929 -0.222383 -0.108304 -0.275004 -0.122225 0.329963 0.022320 -0.046125 -0.103466 -0.021076 0.098026 0.100953 0.118529 -0.309557 -0.201226 0.097526 0.198729 -0.084338 -0.132549 -0.028411 -0.030243 -0.275697 -0.158662 0.100285 -0.211349 0.124650 -0.095607 -0.352872 -0.058273 0.223653 0.149108 -0.087713 0.035067 -0.212165 0.307043 -0.071308 0.257581 0.179312 -0.109404 0.044072 0.265686 -0.003536 0.095435 0.425242 -0.083776 -0.237305 -0.302386 -0.080568 0.412107 0.000148 0.052092 -0.107632 -0.262915 0.319156 0.144202 -0.491516 0.043085 0.209864 -0.080188 -0.300186 -0.077439 0.449458 -0.254493 0.155018 -0.061502 0.114521 -0.263405 0.052775 0.146924 0.224311 -0.318624 -0.061709
but 0.267635 0.219204 0.116652 0.032031 0.393216 -0.405998 -0.037956 0.641588 0.237473 0.449789 0.157846 -0.065100 0.111372 -0.504569 0.251214 0.009092 0.071416 -0.013944 -0.021211 0.124829 -0.169497 -0.076055 0.263964 0.079399 0.093641 -0.380760 -0.027648 0.156676 0.036320 -0.236359 -0.183648 -0.296176 -0.104055 0.339134 0.053119 -0.095134 -0.027893 -0.006675 0.137990 0.151694 0.119856 -0.329359 -0.169700 0.104085 0.163045 -0.087614 -0.087097 0.009234 -0.052244 -0.302324 -0.119865 0.104524 -0.235144 0.088985 -0.050517 -0.366877 -0.047535 0.239970 0.102441 -0.061530 -0.060091 -0.220907 0.363627 -0.032941 0.235703 0.225689 -0.127788 -0.030224 0.303108 -0.003033 0.131488 0.393216 -0.089354 -0.263527 -0.247169 -0.059834 0.359337 0.019542 0.053228 -0.094549 -0.255027 0.350167 0.156867 -0.464950 -0.010364 0.167629 -0.113527 -0.290266 -0.073507 0.473293 -0.205307 0.144147 -0.128590 0.086846 -0.283568 0.012270 0.234916 0.197367 -0.262533 -0.044790
you 0.267975 0.284450 0.064491 -0.017479 0.386212 -0.377174 -0.075331 0.948529 0.192960 0.393904 0.228132 -0.135804 -0.017700 -0.342469 0.350789 -0.027565 -0.054967 0.161082 0.085852 0.117419 -0.223244 -0.136127 0.306325 0.209138 -0.021455 -0.500424 -0.027358 0.184184 0.051112 -0.169662 -0.017743 -0.276613 -0.170166 0.361698 -0.025813 0.044806 -0.231244 -0.008647 0.071587 0.063082 0.125798 -0.233272 -0.257493 0.101527 0.221761 -0.026007 -0.151352 -0.069530 -0.020970 -0.214189 -0.173708 0.107285 -0.183281 0.152519 -0.183050 -0.308307 -0.081833 0.223389 0.230233 -0.105936 0.102441 -0.259661 0.264453 -0.143577 0.259725 0.156421 -0.119505 0.100444 0.239329 0.036800 -0.001210 0.425682 -0.087515 -0.136904 -0.258048 -0.118993 0.509898 -0.052159 0.079825 -0.166669 -0.294595 0.254320 0.161415 -0.497113 0.152004 0.198374 -0.041618 -0.333945 -0.021641 0.439951 -0.281041 0.116920 0.022184 0.077300 -0.230212 0.087476 0.060468 0.280998 -0.398938 -0.060797
time 0.201734 0.224118 0.066386 0.056419 0.386899 -0.336255 -0.005001 0.713571 0.255024 0.416558 0.152275 -0.074462 0.042294 -0.455283 0.293382 -0.084700 0.106194 0.016389 -0.000815 0.157011 -0.129786 -0.118274 0.291770 0.128834 0.068954 -0.431016 -0.018786 0.079357 0.064236 -0.299991 -0.148183 -0.251477 -0.149047 0.369286 -0.008581 -0.060612 -0.066432 -0.034583 0.160372 0.072739 0.137717 -0.344776 -0.119472 0.130805 0.207328 -0.142389 -0.076811 0.013483 -0.034531 -0.308309 -0.173636 0.028692 -0.193565 0.095695 -0.103291 -0.456499 -0.085137 0.151899 0.136481 -0.034992 -0.026552 -0.218152 0.331757 -0.119697 0.290198 0.268017 -0.126852 -0.008595 0.271068 -0.047344 0.201162 0.456283 -0.058808 -0.191900 -0.300143 -0.020142 0.327103 -0.003985 -0.033668 -0.108617 -0.223927 0.312247 0.112902 -0.489457 -0.039052 0.254729 -0.111042 -0.346568 -0.038331 0.427325 -0.146500 0.253327 -0.099107 0.162950 -0.239445 0.064458 0.245247 0.220101 -0.241125 -0.117157
this 0.233107 0.291025 0.056337 0.018453 0.366863 -0.337549 -0.077601 0.874670 0.153833 0.335154 0.201450 -0.102486 -0.027826 -0.318067 0.338621 -0.097320 -0.045974 0.152254 0.065414 0.136673 -0.182266 -0.131510 0.334989 0.201217 -0.052417 -0.486596 -0.004819 0.171069 0.063393 -0.141088 -0.007492 -0.226329 -0.109453 0.325045 -0.026933 0.048363 -0.214567 -0.044165 0.054291 0.043462 0.129427 -0.259632 -0.236032 0.098510 0.203728 -0.025219 -0.154671 -0.074648 -0.030780 -0.200343 -0.160539 0.122330 -0.194175 0.137337 -0.178373 -0.323900 -0.067575 0.187263 0.221142 -0.088405 0.154833 -0.229071 0.215489 -0.146649 0.268344 0.114598 -0.073639 0.141661 0.196231 0.030959 0.020969 0.402118 -0.064524 -0.137279 -0.314264 -0.093325 0.464521 -0.023529 0.078548 -0.141547 -0.260279 0.241429 0.134859 -0.465818 0.123269 0.203476 -0.014664 -0.303548 -0.038915 0.378937 -0.287358 0.117271 0.007184 0.099014 -0.224058 0.086229 0.009044 0.239329 -0.376026 -0.069050
or 0.215327 0.343234 0.043874 -0.025831 0.379638 -0.325361 -0.091065 1.045706 0.129211 0.293557 0.235546 -0.154732 -0.056283 -0.256321 0.393613 -0.107183 -0.091777 0.227668 0.090996 0.148822 -0.203478 -0.148155 0.363220 0.269100 -0.111322 -0.551484 0.003567 0.219713 0.095564 -0.086026 0.083910 -0.209019 -0.138186 0.310935 -0.096205 0.120256 -0.331789 -0.063613 -0.017934 -0.002593 0.121362 -0.200775 -0.323548 0.102371 0.211178 0.023086 -0.213641 -0.134615 -0.006454 -0.158359 -0.181412 0.123261 -0.178482 0.175883 -0.237766 -0.284583 -0.061584 0.185381 0.296115 -0.092808 0.269614 -0.226470 0.141827 -0.182013 0.301474 0.057529 -0.055042 0.228512 0.166449 0.041819 -0.077537 0.453913 -0.059728 -0.070707 -0.362193 -0.149871 0.530855 -0.054466 0.086037 -0.158058 -0.266484 0.208765 0.110939 -0.473194 0.196257 0.229875 0.005922 -0.322637 -0.042611 0.360811 -0.350928 0.102121 0.093016 0.099404 -0.248436 0.123372 -0.090616 0.260924 -0.445613 -0.062015
were 0.291112 0.234344 0.148987 0.028342 0.418391 -0.427981 -0.025695 0.681824 0.228760 0.462262 0.202064 -0.053226 0.110075 -0.525725 0.261861 0.005123 0.065029 -0.016403 -0.044199 0.154432 -0.182984 -0.092459 0.271118 0.091016 0.075417 -0.403024 -0.049456 0.170964 0.046165 -0.233807 -0.176402 -0.313223 -0.076485 0.346951 0.043338 -0.062563 -0.052359 -0.030770 0.138679 0.141191 0.140812 -0.369121 -0.220276 0.090236 0.190374 -0.072239 -0.139452 -0.012694 -0.077678 -0.325341 -0.135487 0.158461 -0.251985 0.063613 -0.058446 -0.360924 -0.050727 0.237919 0.114966 -0.053041 -0.026881 -0.225124 0.360695 -0.040897 0.254683 0.207017 -0.102372 0.006610 0.313491 -0.012205 0.123242 0.415854 -0.082249 -0.273445 -0.281761 -0.063507 0.390482 0.011491 0.074944 -0.109948 -0.276234 0.381258 0.151799 -0.511399 -0.014909 0.192696 -0.108431 -0.325701 -0.063495 0.490594 -0.232574 0.126382 -0.116611 0.088196 -0.322188 -0.009396 0.200244 0.174832 -0.295004 -0.037245
on 0.266822 0.278011 0.096964 0.020435 0.421786 -0.369383 -0.046062 0.740949 0.218191 0.378113 0.169978 -0.085298 0.060553 -0.457500 0.297053 -0.064249 0.041712 0.041975 0.013396 0.130835 -0.153690 -0.101859 0.312985 0.150015 0.054487 -0.465085 -0.030917 0.161183 0.076434 -0.198844 -0.102865 -0.279839 -0.095882 0.325278 0.005496 -0.029118 -0.120513 -0.021112 0.073717 0.096879 0.110307 -0.302764 -0.195832 0.104256 0.185122 -0.068909 -0.142425 -0.045520 -0.040242 -0.258182 -0.165949 0.115682 -0.221178 0.110483 -0.100703 -0.358428 -0.064821 0.197259 0.160065 -0.052039 0.049344 -0.203338 0.264274 -0.078509 0.242796 0.167281 -0.095894 0.073327 0.254107 0.007706 0.110040 0.410376 -0.090755 -0.214891 -0.310598 -0.086751 0.397099 0.006236 0.051224 -0.096669 -0.262935 0.315773 0.119331 -0.470432 0.017751 0.208849 -0.067337 -0.300056 -0.065804 0.435791 -0.244395 0.160535 -0.071959 0.101529 -0.272931 0.055031 0.124956 0.208229 -0.312172 -0.072522
from 0.259481 0.245630 0.100526 0.019586 0.398995 -0.370384 -0.032136 0.723455 0.207501 0.405136 0.158278 -0.094439 0.071757 -0.463502 0.278228 -0.024769 0.046432 0.019273 -0.003487 0.140659 -0.161901 -0.090888 0.288218 0.113127 0.053537 -0.440972 -0.035386 0.172792 0.066265 -0.224674 -0.122240 -0.284813 -0.109091 0.321861 0.019702 -0.044176 -0.080561 -0.011672 0.099499 0.114344 0.123063 -0.323169 -0.198279 0.083436 0.196841 -0.071579 -0.136099 -0.024064 -0.036639 -0.275887 -0.143483 0.108882 -0.241120 0.098447 -0.076852 -0.351807 -0.057092 0.225650 0.147088 -0.050603 0.015143 -0.227833 0.295870 -0.066649 0.250498 0.186109 -0.113684 0.041657 0.279243 0.004785 0.107227 0.406019 -0.097124 -0.235289 -0.282721 -0.092143 0.395297 0.006482 0.054425 -0.098802 -0.256251 0.323982 0.133510 -0.473577 0.023221 0.189195 -0.090964 -0.297719 -0.069596 0.447577 -0.228911 0.133118 -0.092858 0.101249 -0.270439 0.027626 0.153826 0.194278 -0.299676 -0.044541
all 0.245194 0.262270 0.077957 0.018311 0.365672 -0.334194 -0.056714 0.764434 0.169820 0.337982 0.159188 -0.102450 -0.001204 -0.386275 0.282610 -0.079471 -0.008515 0.088937 0.030431 0.126909 -0.155998 -0.110371 0.299969 0.172339 -0.006642 -0.456010 -0.017171 0.155686 0.076099 -0.161800 -0.055173 -0.252302 -0.112786 0.301420 -0.004670 0.019373 -0.155562 -0.019762 0.057011 0.072725 0.123709 -0.275942 -0.218196 0.085697 0.190765 -0.050593 -0.143692 -0.052375 -0.026402 -0.231013 -0.144607 0.109036 -0.195208 0.122058 -0.135836 -0.323819 -0.052370 0.193363 0.180887 -0.058234 0.087508 -0.211109 0.233547 -0.118600 0.256887 0.138114 -0.085502 0.093920 0.213025 0.026442 0.051132 0.393231 -0.065016 -0.171548 -0.289772 -0.074343 0.421558 -0.006329 0.044017 -0.096797 -0.238652 0.255566 0.137232 -0.446617 0.078101 0.183537 -0.042753 -0.279727 -0.060411 0.377198 -0.241745 0.127257 -0.021223 0.098743 -0.226189 0.058224 0.076449 0.208244 -0.308110 -0.065756
not 0.290930 0.203752 0.103454 0.013724 0.388060 -0.433460 -0.055653 0.747334 0.226121 0.467552 0.209938 -0.076485 0.098129 -0.498780 0.298644 0.033389 0.044913 0.031321 0.034360 0.135831 -0.197965 -0.106967 0.272323 0.100006 0.072371 -0.432012 -0.013695 0.152234 0.040250 -0.260857 -0.153190 -0.318813 -0.140219 0.373671 0.030134 -0.083370 -0.045906 0.012302 0.168992 0.141593 0.126905 -0.318977 -0.192618 0.120424 0.191834 -0.078955 -0.079879 0.011724 -0.017324 -0.291335 -0.134542 0.082377 -0.234370 0.112675 -0.072273 -0.354355 -0.073867 0.253157 0.136646 -0.096294 -0.049852 -0.235850 0.364236 -0.054098 0.228986 0.248415 -0.137122 -0.033979 0.296564 -0.017595 0.127907 0.407488 -0.104191 -0.247823 -0.241431 -0.048556 0.395728 -0.016203 0.031826 -0.116904 -0.284127 0.344482 0.161260 -0.484371 0.028492 0.173967 -0.124605 -0.322540 -0.030618 0.483074 -0.197243 0.141837 -0.116999 0.096173 -0.266123 0.021689 0.239562 0.241541 -0.299839 -0.039330
then 0.264744 0.224468 0.119933 0.054522 0.430537 -0.399840 -0.039887 0.620348 0.258655 0.447449 0.134188 -0.071728 0.124221 -0.556506 0.258276 -0.027424 0.100846 -0.036371 -0.025849 0.105559 -0.146597 -0.064384 0.287923 0.075116 0.113000 -0.401070 -0.044443 0.149093 0.056196 -0.279142 -0.217945 -0.292469 -0.090716 0.355106 0.054775 -0.126178 -0.002160 -0.015872 0.149358 0.151048 0.118078 -0.369784 -0.138265 0.113257 0.178849 -0.121658 -0.095067 0.022744 -0.060854 -0.312167 -0.148342 0.096801 -0.253868 0.101409 -0.017350 -0.421906 -0.059070 0.226429 0.097924 -0.064582 -0.066359 -0.205740 0.346790 -0.034606 0.230917 0.244626 -0.120946 -0.029121 0.301194 -0.029170 0.183837 0.404945 -0.089923 -0.290430 -0.297915 -0.046043 0.343958 0.019625 0.048898 -0.074868 -0.255244 0.356868 0.138621 -0.463896 -0.055572 0.191606 -0.114715 -0.297706 -0.091230 0.473925 -0.195855 0.180905 -0.164989 0.109286 -0.285486 0.018826 0.263760 0.191406 -0.261138 -0.067456
is 0.264062 0.263952 0.095176 0.013315 0.395735 -0.364769 -0.070210 0.860089 0.186966 0.357527 0.222489 -0.117716 0.009541 -0.382343 0.336613 -0.049937 -0.029035 0.113344 0.047000 0.140938 -0.205311 -0.168231 0.319605 0.197099 -0.034479 -0.473971 -0.013783 0.193507 0.070036 -0.130921 -0.033049 -0.272852 -0.109335 0.327224 -0.040315 0.040381 -0.221341 -0.030477 0.068016 0.066267 0.149569 -0.248084 -0.269788 0.106336 0.191859 -0.024000 -0.173392 -0.058809 -0.043839 -0.226454 -0.147384 0.129365 -0.210690 0.117493 -0.151231 -0.312683 -0.053249 0.191014 0.192249 -0.086687 0.135732 -0.205186 0.263180 -0.123107 0.279256 0.137560 -0.073859 0.124453 0.235771 0.009814 0.025854 0.437102 -0.069781 -0.136717 -0.306968 -0.093774 0.481923 -0.037072 0.082462 -0.137349 -0.256807 0.278152 0.151479 -0.500831 0.103054 0.175164 -0.046842 -0.316618 -0.057949 0.407490 -0.288588 0.117614 0.012496 0.101515 -0.263207 0.064818 0.059455 0.222251 -0.365189 -0.071465
there 0.296194 0.231767 0.137058 0.009925 0.380814 -0.411013 -0.019410 0.668417 0.210682 0.423786 0.223109 -0.060910 0.080041 -0.464357 0.263595 -0.001975 0.024586 0.013195 0.020031 0.166188 -0.194240 -0.130181 0.259788 0.103084 0.035432 -0.373504 -0.027609 0.161128 0.043663 -0.177015 -0.138039 -0.312984 -0.080474 0.316296 0.025574 -0.019236 -0.104200 -0.020764 0.137525 0.116691 0.133109 -0.303344 -0.191561 0.100634 0.159698 -0.060223 -0.119444 -0.011037 -0.054213 -0.286861 -0.095485 0.145893 -0.255230 0.050324 -0.070793 -0.312405 -0.039770 0.207185 0.127079 -0.036976 -0.012812 -0.201312 0.338632 -0.047155 0.235571 0.187110 -0.079176 0.018765 0.264507 0.009582 0.101611 0.365151 -0.064538 -0.205511 -0.231716 -0.070413 0.386467 -0.004312 0.057662 -0.140918 -0.240897 0.331946 0.135050 -0.478992 0.002943 0.164408 -0.090073 -0.294802 -0.048328 0.466056 -0.213954 0.122251 -0.093268 0.069226 -0.279563 0.012420 0.166733 0.182778 -0.290582 -0.033276
his 0.274989 0.254686 0.080753 0.062125 0.415818 -0.407074 -0.006915 0.671038 0.255135 0.427424 0.124896 -0.064904 0.089710 -0.539253 0.279755 -0.058195 0.110955 -0.024660 -0.005214 0.117267 -0.135330 -0.079076 0.301257 0.086948 0.127718 -0.421605 -0.055953 0.120251 0.057206 -0.291984 -0.228495 -0.295140 -0.088770 0.357087 0.031971 -0.089497 -0.044641 -0.016325 0.137090 0.138548 0.126685 -0.364507 -0.122649 0.124916 0.180272 -0.128772 -0.110650 0.027914 -0.063106 -0.315846 -0.159061 0.084553 -0.260500 0.107627 -0.079833 -0.455613 -0.087762 0.183734 0.106294 -0.042070 -0.033302 -0.189217 0.327682 -0.071521 0.244643 0.253430 -0.126012 -0.024857 0.278369 -0.036282 0.207141 0.433115 -0.090773 -0.251998 -0.296291 -0.048655 0.337264 0.004435 0.023388 -0.096418 -0.279207 0.367351 0.128831 -0.479258 -0.085524 0.210465 -0.103389 -0.296104 -0.091772 0.480083 -0.179519 0.213196 -0.164166 0.117889 -0.267990 0.023427 0.253402 0.204345 -0.287725 -0.084993
have 0.293322 0.208434 0.127396 0.018193 0.390261 -0.407572 -0.083405 0.732750 0.234570 0.514644 0.213288 -0.077148 0.092963 -0.475389 0.287068 0.032778 0.020988 0.013268 -0.008190 0.129458 -0.207066 -0.082602 0.235135 0.088185 0.070218 -0.401389 -0.007961 0.186695 0.034197 -0.261592 -0.164569 -0.326211 -0.148526 0.387340 0.044248 -0.087495 -0.025273 0.017550 0.166354 0.141307 0.144858 -0.319484 -0.203561 0.102028 0.176639 -0.087949 -0.097729 -0.006768 -0.023618 -0.313651 -0.140604 0.109644 -0.222532 0.081533 -0.088274 -0.356338 -0.067133 0.267180 0.120816 -0.064284 -0.076900 -0.257283 0.384977 -0.046795 0.270451 0.208676 -0.157687 -0.027058 0.344294 0.011813 0.115104 0.420757 -0.121521 -0.257432 -0.219872 -0.086967 0.396406 -0.018807 0.041915 -0.115533 -0.286406 0.309451 0.183817 -0.534364 0.018364 0.177208 -0.114331 -0.339005 -0.049205 0.523577 -0.200243 0.135639 -0.125156 0.104886 -0.271459 0.011156 0.217771 0.225591 -0.253507 -0.021340
he 0.275086 0.226408 0.062065 0.048640 0.401825 -0.397369 -0.036514 0.689247 0.265980 0.455814 0.143019 -0.062444 0.086991 -0.526747 0.285377 -0.044973 0.083951 -0.011986 0.029637 0.124045 -0.156402 -0.093464 0.275050 0.097530 0.116972 -0.423843 -0.048239 0.131734 0.047395 -0.287356 -0.218301 -0.297372 -0.123640 0.359278 0.035985 -0.085560 -0.052625 -0.004504 0.154296 0.154918 0.107403 -0.337243 -0.114825 0.130780 0.181818 -0.117055 -0.086337 0.027385 -0.067099 -0.304031 -0.169026 0.071160 -0.252938 0.118897 -0.080802 -0.437656 -0.086466 0.206025 0.108958 -0.074055 -0.048896 -0.200143 0.340646 -0.079947 0.222678 0.233184 -0.139491 -0.018127 0.273853 -0.037956 0.198082 0.440397 -0.097552 -0.267503 -0.281337 -0.037283 0.360857 0.013150 0.005228 -0.093489 -0.255773 0.346548 0.117675 -0.476415 -0.056771 0.216202 -0.119695 -0.298484 -0.072287 0.460443 -0.175236 0.206273 -0.154044 0.107318 -0.253840 0.042510 0.261490 0.211877 -0.294517 -0.098688
they 0.307828 0.226564 0.143570 0.010103 0.399541 -0.422883 -0.041164 0.703041 0.227028 0.465184 0.214455 -0.050575 0.085362 -0.524012 0.287544 0.018432 0.062399 -0.001631 -0.016384 0.155031 -0.198431 -0.098632 0.270464 0.084585 0.079391 -0.429454 -0.033894 0.168140 0.034157 -0.256977 -0.173019 -0.335268 -0.107096 0.348271 0.037613 -0.056983 -0.048347 -0.016726 0.159544 0.148001 0.141598 -0.370319 -0.180045 0.100957 0.179934 -0.078248 -0.112909 0.006085 -0.053331 -0.305591 -0.113959 0.128648 -0.267432 0.059252 -0.051973 -0.345621 -0.058452 0.258078 0.118105 -0.060239 -0.047714 -0.257424 0.377744 -0.029666 0.243338 0.214619 -0.115772 -0.018917 0.312474 -0.003844 0.121905 0.384599 -0.083562 -0.253501 -0.244078 -0.073141 0.408164 0.008533 0.057349 -0.139441 -0.263341 0.351269 0.179568 -0.505573 -0.004477 0.187701 -0.108640 -0.332793 -0.057779 0.509744 -0.231699 0.133146 -0.139356 0.074599 -0.297108 0.018937 0.214933 0.228946 -0.295675 -0.011278
by 0.235178 0.260536 0.099536 0.028537 0.385964 -0.336888 -0.048772 0.754515 0.188619 0.375867 0.162354 -0.102255 0.031133 -0.415025 0.282468 -0.044259 0.021528 0.061662 0.018051 0.131888 -0.151812 -0.103645 0.304458 0.163919 0.024892 -0.447615 -0.015756 0.169562 0.073024 -0.189728 -0.078473 -0.260956 -0.111128 0.320172 0.002832 -0.011190 -0.116752 -0.029733 0.070404 0.088880 0.131209 -0.296669 -0.208709 0.101655 0.189461 -0.057275 -0.145222 -0.047325 -0.044878 -0.239854 -0.146621 0.103956 -0.214947 0.102167 -0.102697 -0.334215 -0.061847 0.203440 0.169946 -0.054448 0.058904 -0.230627 0.261631 -0.083315 0.263283 0.144018 -0.087101 0.085427 0.244382 0.004730 0.067610 0.397885 -0.075877 -0.205710 -0.293467 -0.088742 0.391699 0.002641 0.051755 -0.092996 -0.239889 0.288667 0.137726 -0.457835 0.033425 0.200714 -0.065978 -0.309541 -0.071950 0.410109 -0.236327 0.137481 -0.046782 0.095364 -0.256854 0.053289 0.110217 0.200721 -0.304721 -0.056442
one 0.258650 0.234229 0.104547 0.037421 0.406949 -0.398442 -0.031428 0.675707 0.231767 0.438714 0.160706 -0.065657 0.091857 -0.499407 0.268643 -0.010486 0.065173 -0.013301 -0.019100 0.135435 -0.158770 -0.083328 0.289834 0.103225 0.098558 -0.411803 -0.040585 0.148053 0.031929 -0.252749 -0.180139 -0.287694 -0.098603 0.340360 0.034039 -0.076913 -0.045113 -0.030448 0.132265 0.129159 0.139863 -0.355225 -0.163819 0.099984 0.176128 -0.080500 -0.109169 -0.012327 -0.064920 -0.302255 -0.131095 0.116749 -0.264367 0.093449 -0.069238 -0.381578 -0.051925 0.231718 0.117381 -0.048809 -0.029042 -0.220715 0.345320 -0.059404 0.249884 0.202029 -0.109285 -0.004220 0.283767 -0.001257 0.137470 0.402331 -0.081751 -0.263298 -0.271132 -0.044208 0.368029 0.010281 0.044841 -0.102379 -0.244258 0.345880 0.147217 -0.472255 -0.033994 0.174049 -0.104908 -0.313342 -0.070906 0.466675 -0.223398 0.157525 -0.138359 0.095990 -0.278574 0.032387 0.218277 0.198789 -0.285463 -0.062979
upon 0.265381 0.222384 0.121129 0.045415 0.411316 -0.364661 -0.041689 0.621282 0.223988 0.409632 0.144708 -0.079076 0.103595 -0.501489 0.237901 -0.040076 0.068633 -0.011732 -0.020795 0.133537 -0.137423 -0.066848 0.284226 0.079371 0.091862 -0.399298 -0.042542 0.159686 0.051406 -0.231613 -0.165015 -0.288984 -0.077294 0.321970 0.036796 -0.082324 -0.028370 -0.008112 0.109483 0.128447 0.115846 -0.337061 -0.153993 0.093488 0.182092 -0.101822 -0.124141 -0.007543 -0.046473 -0.284482 -0.136409 0.112327 -0.242333 0.090093 -0.038854 -0.373205 -0.047285 0.221722 0.113352 -0.036730 -0.017589 -0.200719 0.314867 -0.046351 0.232481 0.182870 -0.109965 -0.014252 0.286057 -0.014649 0.134045 0.389159 -0.091708 -0.273047 -0.275380 -0.060359 0.346984 0.011938 0.050746 -0.075874 -0.240009 0.348949 0.130769 -0.450560 -0.021122 0.184092 -0.109814 -0.279578 -0.082396 0.446575 -0.211691 0.142410 -0.123775 0.105728 -0.274707 0.024148 0.196789 0.167954 -0.247499 -0.059993
into 0.273031 0.241551 0.121383 0.056311 0.428795 -0.373648 -0.036367 0.639474 0.244856 0.427535 0.143102 -0.082138 0.107790 -0.532350 0.265738 -0.043174 0.079222 -0.039118 -0.020027 0.118853 -0.131497 -0.069220 0.282594 0.096422 0.117379 -0.414236 -0.043627 0.152718 0.061929 -0.262003 -0.179538 -0.287528 -0.088577 0.332416 0.045413 -0.086552 -0.030748 -0.025838 0.120715 0.135558 0.111265 -0.347551 -0.140475 0.108755 0.186212 -0.090405 -0.123189 -0.005146 -0.043120 -0.302111 -0.154708 0.105113 -0.247808 0.098321 -0.042845 -0.396627 -0.061325 0.222761 0.106997 -0.042237 -0.027056 -0.205703 0.313367 -0.053026 0.235363 0.201185 -0.121786 0.007479 0.296612 -0.014560 0.164903 0.400594 -0.094843 -0.270252 -0.293468 -0.072502 0.357375 0.028578 0.037650 -0.076534 -0.248525 0.363325 0.135630 -0.473643 -0.037878 0.188825 -0.106903 -0.301161 -0.095003 0.466937 -0.197315 0.179576 -0.147394 0.104784 -0.274831 0.022794 0.208961 0.181782 -0.274162 -0.063617
so 0.240642 0.209516 0.106762 0.034478 0.365672 -0.361826 -0.028394 0.594117 0.210044 0.403002 0.143852 -0.058879 0.101048 -0.463663 0.241595 0.006615 0.059318 -0.002214 -0.003253 0.112512 -0.151109 -0.060198 0.240352 0.072861 0.084432 -0.362889 -0.026321 0.142584 0.054607 -0.212850 -0.154427 -0.263438 -0.084028 0.308247 0.053537 -0.091624 -0.019551 -0.014925 0.127286 0.128439 0.101754 -0.317101 -0.159791 0.088019 0.166539 -0.077950 -0.089515 0.006312 -0.046491 -0.272874 -0.113566 0.100803 -0.216794 0.075818 -0.033023 -0.326657 -0.052662 0.216439 0.094523 -0.057425 -0.054890 -0.203849 0.319720 -0.033466 0.208059 0.201409 -0.096386 -0.006918 0.274235 -0.011790 0.128338 0.344688 -0.094058 -0.239752 -0.243715 -0.056487 0.335170 0.006813 0.053041 -0.078413 -0.237638 0.312519 0.133847 -0.425506 -0.002448 0.156552 -0.090385 -0.256988 -0.063532 0.431895 -0.190610 0.126426 -0.123259 0.097141 -0.245970 0.005729 0.191980 0.174339 -0.240922 -0.025541
little 0.251104 0.235682 0.130738 0.030735 0.395160 -0.361216 -0.035850 0.614859 0.223435 0.424473 0.153456 -0.059746 0.112048 -0.502151 0.243294 -0.013554 0.067259 -0.026033 -0.037370 0.139010 -0.129000 -0.072946 0.268973 0.090877 0.096911 -0.380683 -0.039484 0.150977 0.049144 -0.226486 -0.165218 -0.267806 -0.083688 0.316682 0.039970 -0.084488 -0.023002 -0.017613 0.108967 0.128077 0.113349 -0.337074 -0.177119 0.088032 0.163983 -0.077446 -0.100221 -0.014850 -0.049943 -0.299431 -0.123412 0.105929 -0.234811 0.076689 -0.046302 -0.349017 -0.041090 0.233899 0.097616 -0.040438 -0.028703 -0.210646 0.322461 -0.040487 0.246757 0.192019 -0.109049 -0.013456 0.287842 -0.011208 0.130828 0.375051 -0.092349 -0.261797 -0.257930 -0.047780 0.342592 0.007741 0.059214 -0.080170 -0.221398 0.338017 0.126835 -0.456116 -0.024114 0.179365 -0.094783 -0.279576 -0.091288 0.448591 -0.207795 0.154826 -0.118333 0.100556 -0.271751 0.001633 0.203687 0.178188 -0.240173 -0.055411
be 0.256967 0.246781 0.115533 0.001724 0.393969 -0.368233 -0.052266 0.774296 0.213389 0.448311 0.182763 -0.099496 0.030192 -0.440953 0.285045 -0.012047 -0.009307 0.061426 -0.008936 0.128778 -0.187424 -0.113277 0.278036 0.133713 0.027514 -0.448274 -0.035490 0.163472 0.020879 -0.204098 -0.125242 -0.306002 -0.128619 0.337406 0.010641 -0.019147 -0.118788 -0.003733 0.107129 0.109349 0.159765 -0.330695 -0.233510 0.088907 0.190269 -0.038798 -0.114397 -0.045465 -0.042840 -0.264918 -0.111438 0.109410 -0.218998 0.092766 -0.106205 -0.337211 -0.058415 0.264880 0.132509 -0.066193 0.012193 -0.235555 0.330518 -0.085992 0.253836 0.184520 -0.124753 0.041441 0.288772 0.034489 0.088603 0.391087 -0.101182 -0.210830 -0.242441 -0.058161 0.418533 -0.004276 0.062773 -0.111500 -0.259414 0.302963 0.170745 -0.501875 0.062928 0.163224 -0.081347 -0.324254 -0.042786 0.479383 -0.264147 0.135238 -0.078003 0.084893 -0.256595 0.042242 0.158997 0.223933 -0.303081 -0.054141
came 0.243104 0.203953 0.112145 0.045695 0.394481 -0.364998 -0.016625 0.561686 0.232326 0.409637 0.127080 -0.067534 0.121393 -0.511241 0.229462 -0.020548 0.102309 -0.033959 -0.039140 0.105893 -0.141124 -0.060013 0.276614 0.078654 0.118642 -0.376135 -0.046984 0.142331 0.035111 -0.247902 -0.212542 -0.280103 -0.065167 0.332828 0.049291 -0.115534 -0.008202 -0.024185 0.127536 0.147858 0.117965 -0.340020 -0.135501 0.100477 0.155825 -0.097670 -0.098788 0.004347 -0.070849 -0.297809 -0.141520 0.099991 -0.225871 0.088867 -0.019445 -0.385736 -0.051128 0.200117 0.080142 -0.058248 -0.059349 -0.189003 0.315119 -0.027267 0.219666 0.224498 -0.114811 -0.026681 0.274862 -0.034310 0.162467 0.368856 -0.089763 -0.287796 -0.278586 -0.037009 0.316032 0.026027 0.049065 -0.059618 -0.236300 0.355990 0.134045 -0.439982 -0.052087 0.183559 -0.101152 -0.278918 -0.089545 0.439919 -0.196387 0.170150 -0.152980 0.106377 -0.260985 0.004512 0.245145 0.176661 -0.242908 -0.066646
no 0.328219 0.224386 0.152383 0.006840 0.379152 -0.442181 -0.026272 0.785091 0.228013 0.447107 0.289090 -0.044800 0.075637 -0.458514 0.323739 0.020383 0.004852 0.063927 0.034797 0.185803 -0.233515 -0.168613 0.261690 0.102416 0.010942 -0.400332 -0.014395 0.206428 0.049918 -0.169999 -0.130686 -0.347643 -0.100450 0.357373 -0.010473 0.017685 -0.145071 -0.019663 0.159618 0.090907 0.136286 -0.280290 -0.252715 0.084065 0.170936 -0.058048 -0.150640 -0.015896 -0.058404 -0.315228 -0.106798 0.163766 -0.263134 0.050456 -0.131172 -0.291108 -0.037775 0.232860 0.151764 -0.048755 0.016817 -0.215544 0.371634 -0.062359 0.270130 0.172769 -0.096206 0.036927 0.295686 0.000344 0.073273 0.419201 -0.072050 -0.192466 -0.251023 -0.077943 0.449812 -0.040347 0.049369 -0.181863 -0.258779 0.350736 0.141430 -0.553170 0.044855 0.173575 -0.105754 -0.333768 -0.034181 0.489376 -0.221479 0.111931 -0.070337 0.061806 -0.290737 0.000444 0.136775 0.217754 -0.330382 -0.034989
some 0.253571 0.248463 0.114947 0.042589 0.393931 -0.387020 -0.041171 0.678516 0.205519 0.420828 0.163536 -0.061064 0.089034 -0.481553 0.271128 -0.021933 0.042998 0.008055 -0.019843 0.133953 -0.156231 -0.069932 0.283641 0.112321 0.064627 -0.406296 -0.027933 0.149779 0.038968 -0.229313 -0.152153 -0.279599 -0.080228 0.330318 0.038719 -0.070230 -0.060726 -0.045421 0.125821 0.112400 0.129214 -0.341515 -0.166525 0.101046 0.174765 -0.082444 -0.115923 -0.017786 -0.053096 -0.296306 -0.133754 0.123048 -0.241394 0.080493 -0.063099 -0.361723 -0.064663 0.218911 0.119558 -0.056709 -0.008374 -0.227048 0.323567 -0.060860 0.257859 0.186676 -0.109859 0.012852 0.270778 -0.002561 0.118424 0.400303 -0.074309 -0.253153 -0.276145 -0.045670 0.374459 0.006158 0.055131 -0.106151 -0.249236 0.335635 0.145030 -0.473709 -0.002512 0.190634 -0.097678 -0.311350 -0.072301 0.464664 -0.221025 0.147704 -0.112293 0.092806 -0.281011 0.029963 0.181695 0.192003 -0.272284 -0.048662
could 0.284015 0.183471 0.103866 0.005467 0.385149 -0.414662 -0.044032 0.659868 0.223469 0.435236 0.195147 -0.042253 0.130514 -0.499955 0.265059 0.022919 0.051758 -0.014088 -0.002209 0.108951 -0.193614 -0.075129 0.277818 0.077738 0.059632 -0.392567 -0.017884 0.154334 0.052063 -0.241578 -0.156087 -0.276997 -0.101673 0.361794 0.060620 -0.103560 -0.007651 -0.012346 0.139619 0.148434 0.118775 -0.304799 -0.166302 0.094283 0.181155 -0.077545 -0.096331 0.010540 -0.032599 -0.280521 -0.132222 0.112289 -0.222905 0.076711 -0.048906 -0.350415 -0.061596 0.235448 0.109419 -0.093851 -0.082189 -0.218353 0.369066 -0.038468 0.206197 0.202666 -0.126463 -0.023059 0.306424 -0.019179 0.136740 0.387342 -0.112772 -0.257900 -0.244201 -0.058707 0.361701 0.010337 0.051644 -0.091406 -0.257120 0.332639 0.150688 -0.477519 0.007944 0.183294 -0.114880 -0.295404 -0.034406 0.463027 -0.196445 0.134252 -0.101603 0.092191 -0.264234 0.029909 0.231277 0.194221 -0.262731 -0.042045
gutenberg 0.221812 0.672087 -0.142219 -0.142693 0.406602 -0.158209 -0.367198 2.309317 -0.021133 -0.150828 0.421565 -0.374328 -0.574834 0.257445 0.763465 -0.653523 -0.551644 0.993776 0.445082 0.268984 -0.494430 -0.492896 0.832680 0.904336 -0.684467 -1.266942 0.200891 0.377544 0.297163 0.303445 0.855378 -0.028031 -0.355813 0.357700 -0.420041 0.656160 -1.168480 -0.062493 -0.489074 -0.279609 0.210109 -0.008940 -0.733588 0.111284 0.371122 0.243876 -0.614624 -0.550581 0.149522 0.050290 -0.455812 0.201380 -0.165006 0.682388 -0.712634 -0.251097 -0.013234 0.052470 0.812533 -0.335021 1.167422 -0.229875 -0.386085 -0.618827 0.435387 -0.338382 0.136101 0.840944 -0.118986 0.036938 -0.601702 0.733912 0.105059 0.369488 -0.989287 -0.289112 1.133660 -0.101126 0.151522 -0.213603 -0.357141 -0.192122 0.062485 -0.612668 0.821292 0.391460 0.372364 -0.319031 -0.059104 0.115834 -0.881431 0.046253 0.681828 0.203106 -0.161818 0.444395 -0.805827 0.562029 -1.087742 -0.243652
which 0.244383 0.243652 0.103429 0.020801 0.386884 -0.362956 -0.044127 0.708743 0.197278 0.396810 0.178538 -0.078494 0.061224 -0.450021 0.278915 -0.032608 0.037403 0.025707 0.002301 0.127386 -0.158873 -0.100856 0.284818 0.134703 0.055973 -0.424348 -0.023850 0.161977 0.048212 -0.199415 -0.126275 -0.269067 -0.101382 0.323724 0.022240 -0.039967 -0.079126 -0.027116 0.101362 0.090295 0.132351 -0.317196 -0.183712 0.104353 0.181856 -0.068936 -0.123953 -0.023840 -0.043685 -0.265745 -0.132064 0.115948 -0.228698 0.094019 -0.085091 -0.345849 -0.056581 0.207342 0.152118 -0.058212 0.018948 -0.226207 0.288745 -0.074841 0.258048 0.171943 -0.100136 0.038838 0.266856 0.002541 0.095206 0.388452 -0.080962 -0.210639 -0.272710 -0.064635 0.381357 -0.002085 0.055825 -0.105632 -0.249038 0.315429 0.141297 -0.470533 0.004578 0.191116 -0.078307 -0.301045 -0.064636 0.436645 -0.238272 0.135702 -0.093247 0.091859 -0.257370 0.040874 0.146400 0.201953 -0.296834 -0.045618
their 0.256057 0.247411 0.123989 0.035068 0.408159 -0.381478 -0.041622 0.685857 0.198499 0.422008 0.166672 -0.073242 0.077952 -0.488145 0.263954 -0.023938 0.049033 0.006637 -0.025745 0.136080 -0.159674 -0.072768 0.298601 0.105433 0.069238 -0.423804 -0.035211 0.153027 0.039358 -0.223428 -0.156900 -0.284160 -0.081707 0.328251 0.030023 -0.062891 -0.069485 -0.025467 0.123767 0.115021 0.144247 -0.345324 -0.190092 0.101717 0.174001 -0.081086 -0.128866 -0.022995 -0.059434 -0.306028 -0.138493 0.125674 -0.250287 0.084087 -0.060607 -0.371640 -0.061157 0.236831 0.140725 -0.046550 -0.012214 -0.231469 0.326264 -0.062874 0.244649 0.183520 -0.107681 0.024552 0.285158 -0.002861 0.109488 0.389550 -0.068965 -0.236467 -0.289585 -0.056947 0.377290 0.007340 0.072652 -0.108925 -0.265393 0.324362 0.145624 -0.477282 -0.018740 0.192618 -0.083955 -0.306945 -0.070190 0.455390 -0.232592 0.138501 -0.104423 0.089970 -0.278139 0.023547 0.186286 0.188283 -0.289564 -0.051816
we 0.304128 0.263829 0.115298 0.031576 0.426431 -0.434375 -0.035021 0.737204 0.238397 0.470434 0.189996 -0.073813 0.082564 -0.498679 0.304592 -0.014904 0.064243 0.004483 0.001708 0.137245 -0.179560 -0.100520 0.293842 0.129408 0.076699 -0.444334 -0.047503 0.153544 0.043124 -0.247062 -0.164633 -0.314364 -0.117600 0.351821 0.032099 -0.049643 -0.066385 -0.026085 0.127208 0.123555 0.124229 -0.348211 -0.179576 0.113828 0.192198 -0.069246 -0.129035 -0.010836 -0.051069 -0.304438 -0.142830 0.110246 -0.251007 0.081972 -0.072851 -0.379682 -0.068042 0.243812 0.134671 -0.070119 -0.021254 -0.251763 0.359104 -0.058805 0.259078 0.226633 -0.114235 0.021705 0.295505 0.004582 0.134804 0.431983 -0.092520 -0.244749 -0.292464 -0.087765 0.418003 -0.000806 0.059133 -0.130561 -0.287813 0.355136 0.151825 -0.514139 -0.010772 0.195908 -0.105512 -0.343174 -0.049013 0.495196 -0.239390 0.166175 -0.117398 0.094511 -0.290877 0.032813 0.207378 0.234287 -0.301288 -0.038263
machine 0.229187 0.240233 0.063723 0.070830 0.356910 -0.334738 -0.070904 0.647396 0.191072 0.328706 0.115310 -0.082783 0.039324 -0.410839 0.277808 -0.067214 0.053187 0.053142 0.023239 0.078334 -0.103386 -0.088924 0.281650 0.126798 0.013748 -0.382633 -0.011660 0.118884 0.097271 -0.194497 -0.112292 -0.233946 -0.088878 0.283317 0.009362 -0.028802 -0.082257 0.003560 0.081260 0.098434 0.079518 -0.281610 -0.139751 0.101823 0.180136 -0.099675 -0.089976 0.004565 -0.023827 -0.214902 -0.148135 0.066553 -0.158496 0.111347 -0.123684 -0.326132 -0.083761 0.170412 0.114040 -0.098708 0.043162 -0.164378 0.246843 -0.096474 0.247645 0.191797 -0.072024 0.041698 0.232625 -0.022407 0.115415 0.359292 -0.072304 -0.221929 -0.268579 -0.060229 0.350503 -0.017967 0.007180 -0.072860 -0.233575 0.227071 0.128218 -0.417751 0.028732 0.202703 -0.047491 -0.281393 -0.068368 0.358165 -0.193339 0.162152 -0.048288 0.114878 -0.187359 0.044080 0.139442 0.189969 -0.268839 -0.088688
said 0.246345 0.169065 0.045673 0.056717 0.345471 -0.381214 -0.003407 0.593355 0.266217 0.393259 0.141032 -0.067925 0.078978 -0.489538 0.246977 -0.005741 0.118592 -0.062985 0.016966 0.098447 -0.124859 -0.112856 0.236921 0.080251 0.126629 -0.335913 -0.058809 0.095691 0.066390 -0.275230 -0.225682 -0.252150 -0.116448 0.349166 0.046288 -0.077260 -0.027839 0.000491 0.156774 0.127215 0.104867 -0.284809 -0.080357 0.095008 0.157880 -0.109091 -0.062618 0.037109 -0.038889 -0.247189 -0.157220 0.043156 -0.213382 0.098801 -0.085954 -0.390072 -0.067572 0.156008 0.087972 -0.052561 -0.098161 -0.156117 0.332781 -0.072446 0.211756 0.259784 -0.149760 -0.060193 0.261717 -0.028776 0.196721 0.393899 -0.116686 -0.246871 -0.165779 -0.035626 0.294442 0.003551 -0.015047 -0.077223 -0.227717 0.324519 0.122890 -0.425252 -0.042143 0.187957 -0.108394 -0.275070 -0.067526 0.404918 -0.080691 0.184810 -0.127492 0.091765 -0.240508 0.002145 0.258111 0.195745 -0.218769 -0.088573
saw 0.257220 0.201336 0.103686 0.035489 0.396247 -0.372515 -0.043568 0.584268 0.222371 0.420077 0.147118 -0.062045 0.136781 -0.511819 0.238859 -0.008456 0.074566 -0.031139 -0.023681 0.113178 -0.154647 -0.060107 0.270029 0.071027 0.085480 -0.374830 -0.039885 0.150882 0.043327 -0.246116 -0.179831 -0.266701 -0.093099 0.331322 0.052293 -0.117597 0.009047 -0.020166 0.115808 0.149572 0.109451 -0.328436 -0.130548 0.093318 0.171435 -0.105184 -0.090240 0.007154 -0.054705 -0.305684 -0.140153 0.095407 -0.220924 0.094268 -0.017269 -0.376902 -0.061747 0.214162 0.095336 -0.061321 -0.076413 -0.192210 0.338761 -0.028969 0.220510 0.189630 -0.105386 -0.030071 0.286325 -0.029536 0.155099 0.378077 -0.099883 -0.284929 -0.256610 -0.037595 0.329841 0.032230 0.047819 -0.073753 -0.252406 0.337005 0.132004 -0.444096 -0.054205 0.178949 -0.118416 -0.266288 -0.070003 0.452623 -0.198013 0.163420 -0.135043 0.098682 -0.267343 0.029452 0.237782 0.163873 -0.229539 -0.055384
an 0.254695 0.268032 0.097087 0.030248 0.388135 -0.384114 -0.052491 0.793846 0.194161 0.398170 0.186873 -0.088820 0.042196 -0.439608 0.295319 -0.037455 0.004070 0.065996 0.021635 0.139915 -0.182723 -0.109995 0.312854 0.150362 0.022610 -0.451762 -0.029298 0.172628 0.042642 -0.199782 -0.103260 -0.262829 -0.099472 0.343768 0.004726 -0.024474 -0.121157 -0.031307 0.082672 0.091451 0.144004 -0.302769 -0.209841 0.112650 0.182307 -0.062137 -0.140096 -0.032600 -0.045178 -0.267303 -0.146445 0.122915 -0.238322 0.120636 -0.112344 -0.365703 -0.059951 0.216930 0.161858 -0.080851 0.055348 -0.235203 0.296765 -0.077121 0.260110 0.173366 -0.098554 0.058019 0.257745 0.008371 0.076625 0.411417 -0.079914 -0.194111 -0.301849 -0.058159 0.433591 -0.006834 0.074903 -0.121969 -0.266986 0.304238 0.146335 -0.477909 0.039910 0.187433 -0.069752 -0.295781 -0.072602 0.446212 -0.256729 0.135465 -0.059351 0.091858 -0.266309 0.049146 0.124665 0.226035 -0.334393 -0.054309
down 0.254780 0.237903 0.088441 0.054535 0.432551 -0.392995 -0.035602 0.588566 0.234465 0.409615 0.122474 -0.073717 0.129047 -0.527115 0.244482 -0.038288 0.093277 -0.032287 -0.005648 0.115079 -0.132339 -0.073541 0.288104 0.087378 0.106949 -0.383691 -0.038569 0.148629 0.056309 -0.253055 -0.191118 -0.281626 -0.072917 0.327904 0.040569 -0.105192 -0.031898 -0.022754 0.119162 0.130071 0.113504 -0.337563 -0.126517 0.116560 0.170899 -0.095622 -0.112990 -0.004411 -0.072905 -0.284796 -0.137312 0.083253 -0.255924 0.112268 -0.044164 -0.379600 -0.064768 0.212396 0.091654 -0.039291 -0.051631 -0.185168 0.308943 -0.030135 0.217366 0.211835 -0.111594 -0.023864 0.280885 -0.027744 0.159544 0.393524 -0.098167 -0.280129 -0.307931 -0.051543 0.336053 0.036054 0.042846 -0.068228 -0.257918 0.352883 0.115221 -0.459353 -0.073600 0.172729 -0.099239 -0.290844 -0.072457 0.435428 -0.204486 0.184830 -0.164923 0.114333 -0.275812 0.023045 0.221924 0.165076 -0.247715 -0.057522
them 0.245630 0.207806 0.122423 0.038288 0.390353 -0.396720 -0.042501 0.621855 0.212976 0.419780 0.152955 -0.056027 0.099061 -0.499209 0.250394 0.003434 0.061208 -0.006909 -0.022899 0.122216 -0.170221 -0.075291 0.272647 0.074512 0.069018 -0.401888 -0.028310 0.161471 0.041957 -0.234472 -0.176506 -0.284334 -0.089125 0.340270 0.038687 -0.096912 -0.022090 -0.028226 0.141771 0.144085 0.121845 -0.345823 -0.161639 0.111375 0.163327 -0.087947 -0.103266 -0.013316 -0.044603 -0.306071 -0.130203 0.115616 -0.232718 0.082282 -0.034400 -0.372978 -0.065076 0.229884 0.113121 -0.052400 -0.053629 -0.203971 0.337031 -0.027193 0.221894 0.195274 -0.109320 -0.024110 0.297219 -0.012141 0.137898 0.381626 -0.072633 -0.266972 -0.274045 -0.038096 0.347463 0.016904 0.070138 -0.097420 -0.244069 0.337281 0.154412 -0.445496 -0.011968 0.177536 -0.108449 -0.289188 -0.056337 0.448740 -0.204798 0.137554 -0.124219 0.098348 -0.281650 0.008865 0.209958 0.185242 -0.249085 -0.048397
project 0.179941 0.578562 -0.143798 -0.090514 0.415690 -0.101022 -0.321684 1.987552 -0.038517 -0.129247 0.314595 -0.411235 -0.476609 0.237594 0.700334 -0.539293 -0.429530 0.844988 0.320718 0.198078 -0.395369 -0.361287 0.733453 0.777541 -0.657408 -1.025111 0.094000 0.370674 0.337788 0.234798 0.784101 -0.054705 -0.251974 0.273283 -0.508407 0.606376 -1.024857 0.011877 -0.427328 -0.308935 0.182733 0.052240 -0.641874 0.134119 0.364407 0.126903 -0.637930 -0.422529 0.107912 0.162709 -0.343232 0.072984 0.002579 0.515135 -0.677638 -0.228029 -0.090388 0.093419 0.712996 -0.283341 1.058267 -0.167969 -0.399502 -0.541485 0.435709 -0.322368 0.136809 0.850225 -0.104098 0.131527 -0.472499 0.581468 -0.003224 0.340173 -0.790627 -0.208194 1.043352 -0.144621 0.167910 -0.193750 -0.289667 -0.192147 0.123316 -0.456933 0.687176 0.317666 0.257564 -0.266710 0.009119 0.030313 -0.743487 0.095609 0.608425 0.211685 -0.024597 0.441248 -0.719638 0.345078 -0.870709 -0.270373
very 0.278874 0.225160 0.115997 0.037267 0.417951 -0.404232 -0.044574 0.676018 0.236139 0.440765 0.155246 -0.076947 0.111146 -0.525475 0.259808 0.001019 0.063518 -0.006989 -0.011917 0.128583 -0.161585 -0.083171 0.290659 0.090132 0.087894 -0.411540 -0.032268 0.163552 0.044604 -0.252502 -0.180312 -0.289480 -0.095105 0.346438 0.043553 -0.089376 -0.044978 -0.015134 0.128359 0.140700 0.135604 -0.348174 -0.162617 0.100612 0.184430 -0.083239 -0.114515 -0.006263 -0.060230 -0.311139 -0.124190 0.103088 -0.254874 0.090393 -0.047213 -0.395848 -0.059206 0.250546 0.115809 -0.070216 -0.039272 -0.230543 0.360801 -0.040106 0.236487 0.217442 -0.116350 -0.007791 0.305515 -0.013224 0.133885 0.415374 -0.087850 -0.272019 -0.279446 -0.053210 0.367461 0.014438 0.052861 -0.099210 -0.263553 0.363095 0.147506 -0.489306 -0.012447 0.172803 -0.119617 -0.296764 -0.085291 0.488449 -0.223038 0.143819 -0.121644 0.100868 -0.280047 0.017619 0.220370 0.198432 -0.273093 -0.042618
s 0.260512 0.256170 0.073568 0.039425 0.419369 -0.372930 -0.040209 0.809373 0.242154 0.407151 0.177305 -0.104865 0.047520 -0.456744 0.300776 -0.067200 0.047762 0.034533 0.027303 0.136637 -0.161420 -0.137674 0.323132 0.168576 0.056799 -0.468374 -0.033157 0.134820 0.081134 -0.232232 -0.116893 -0.269959 -0.133967 0.356204 0.005873 -0.012035 -0.134855 0.003035 0.098025 0.104951 0.139521 -0.296649 -0.196936 0.112342 0.208788 -0.091244 -0.131702 -0.009517 -0.036932 -0.262682 -0.177195 0.083428 -0.216327 0.134221 -0.130307 -0.415057 -0.061784 0.200279 0.166497 -0.078289 0.030211 -0.200830 0.305296 -0.128096 0.281532 0.194189 -0.107098 0.046437 0.266371 -0.013268 0.128665 0.453989 -0.087142 -0.195880 -0.297170 -0.071873 0.428914 -0.023356 0.015568 -0.097626 -0.265440 0.319904 0.144783 -0.498108 0.028971 0.205546 -0.062494 -0.311700 -0.066190 0.423612 -0.220848 0.178908 -0.076983 0.122054 -0.260456 0.043626 0.177534 0.221529 -0.330385 -0.096524
now 0.272581 0.208899 0.108750 0.033904 0.394167 -0.379719 -0.021094 0.632147 0.234436 0.408035 0.150918 -0.066525 0.104025 -0.489003 0.249518 -0.010428 0.064743 -0.005348 -0.013748 0.111505 -0.152171 -0.081023 0.272730 0.100700 0.080973 -0.388117 -0.043961 0.139703 0.038984 -0.236975 -0.173670 -0.283630 -0.081626 0.328292 0.048079 -0.088568 -0.048248 -0.011267 0.121900 0.137895 0.132737 -0.310528 -0.152000 0.096358 0.158500 -0.081473 -0.100387 -0.001342 -0.063577 -0.280109 -0.126833 0.105890 -0.235119 0.085948 -0.046290 -0.374031 -0.053820 0.212691 0.102254 -0.055798 -0.033149 -0.201372 0.332353 -0.050571 0.209543 0.205408 -0.116829 -0.001188 0.277205 -0.015975 0.132618 0.384300 -0.090674 -0.243961 -0.253730 -0.051778 0.340782 0.006155 0.055300 -0.092307 -0.255176 0.326203 0.146542 -0.460906 -0.016909 0.169107 -0.098998 -0.271574 -0.072500 0.446214 -0.196816 0.147797 -0.121041 0.085782 -0.263876 0.015902 0.206382 0.174312 -0.259454 -0.044233
what 0.274954 0.200379 0.096963 0.009934 0.390609 -0.410338 -0.053536 0.694564 0.232708 0.458932 0.175674 -0.068504 0.093140 -0.497161 0.274439 0.022159 0.051829 0.007296 0.008604 0.119194 -0.188026 -0.084186 0.275591 0.100308 0.076487 -0.412552 -0.024146 0.151295 0.044040 -0.260367 -0.179145 -0.303499 -0.113437 0.361261 0.046883 -0.091787 -0.034263 0.007716 0.159778 0.150651 0.125442 -0.325860 -0.169923 0.106540 0.168336 -0.090116 -0.088209 0.013014 -0.040914 -0.284152 -0.120661 0.095684 -0.239419 0.092816 -0.057269 -0.365800 -0.057872 0.253906 0.117178 -0.085865 -0.070153 -0.224798 0.359383 -0.052203 0.221612 0.235056 -0.131817 -0.027548 0.295992 -0.002079 0.134204 0.395604 -0.103475 -0.249166 -0.252006 -0.046290 0.389466 -0.002429 0.049778 -0.109469 -0.255261 0.332047 0.159956 -0.476455 -0.002567 0.169182 -0.109011 -0.301014 -0.041516 0.470828 -0.195968 0.140288 -0.127323 0.088976 -0.261545 0.013361 0.236144 0.217485 -0.272132 -0.058678
about 0.258824 0.281992 0.091398 0.025854 0.403532 -0.364442 -0.064675 0.810905 0.202093 0.368607 0.178472 -0.106069 0.039671 -0.433892 0.305483 -0.080318 0.013276 0.075487 0.033832 0.138167 -0.185453 -0.105339 0.337582 0.176688 0.005863 -0.483269 -0.012210 0.177872 0.085879 -0.188796 -0.069584 -0.264480 -0.118608 0.332205 -0.013499 -0.017608 -0.147668 -0.025255 0.056702 0.080281 0.127967 -0.297938 -0.215213 0.105665 0.210951 -0.069417 -0.163787 -0.038741 -0.032471 -0.262647 -0.174583 0.096671 -0.211697 0.151851 -0.109126 -0.368710 -0.067459 0.207540 0.188857 -0.074135 0.077142 -0.216153 0.261877 -0.098071 0.270696 0.168456 -0.086056 0.086917 0.244992 -0.014032 0.067037 0.422427 -0.077497 -0.193064 -0.341697 -0.080667 0.438462 0.001210 0.056837 -0.098131 -0.257679 0.284176 0.128502 -0.477859 0.052764 0.214443 -0.066611 -0.301103 -0.059198 0.423543 -0.270640 0.159391 -0.051743 0.116436 -0.259870 0.066817 0.113097 0.217219 -0.346203 -0.065289
any 0.223506 0.357189 0.027555 -0.010168 0.374651 -0.332090 -0.092664 1.095383 0.132373 0.288333 0.238707 -0.134785 -0.074984 -0.246792 0.407723 -0.132490 -0.094392 0.266625 0.116434 0.161229 -0.232072 -0.156486 0.391953 0.284432 -0.119642 -0.589283 0.010890 0.219635 0.101890 -0.097533 0.095272 -0.213627 -0.144877 0.316517 -0.107365 0.126880 -0.358189 -0.059877 -0.029218 -0.012769 0.120868 -0.216003 -0.338698 0.092389 0.225027 0.016950 -0.220389 -0.125003 -0.008166 -0.157821 -0.190853 0.124270 -0.191481 0.189424 -0.268302 -0.283859 -0.054832 0.175752 0.317276 -0.115472 0.288087 -0.226661 0.147022 -0.199185 0.301518 0.054774 -0.061681 0.231210 0.167968 0.050461 -0.062825 0.465887 -0.052134 -0.069105 -0.382227 -0.145963 0.563052 -0.066453 0.079831 -0.171072 -0.290894 0.192415 0.119079 -0.496650 0.228246 0.231364 0.021157 -0.330003 -0.034768 0.360755 -0.366520 0.100560 0.109667 0.112305 -0.223229 0.132047 -0.091361 0.271891 -0.485653 -0.086431
these 0.269709 0.271410 0.127055 0.023643 0.409633 -0.382702 -0.041607 0.728990 0.200611 0.412055 0.166295 -0.080480 0.057880 -0.461640 0.273245 -0.042995 0.047875 0.013614 -0.010872 0.143134 -0.155598 -0.104786 0.296294 0.128777 0.057230 -0.445975 -0.044679 0.164977 0.057348 -0.214708 -0.120794 -0.286222 -0.092069 0.322260 0.025397 -0.039422 -0.089087 -0.016602 0.113550 0.099185 0.141502 -0.331108 -0.204143 0.095734 0.186714 -0.066913 -0.147692 -0.027796 -0.059706 -0.288708 -0.139330 0.128200 -0.252538 0.084199 -0.070057 -0.364584 -0.051248 0.229989 0.155308 -0.056059 0.016138 -0.243708 0.300952 -0.072779 0.252083 0.173388 -0.094769 0.031810 0.272863 0.007426 0.100423 0.405058 -0.073932 -0.229842 -0.292980 -0.075699 0.389784 0.001382 0.071514 -0.114868 -0.252181 0.317163 0.142215 -0.488839 -0.000128 0.182119 -0.067511 -0.310734 -0.071696 0.455107 -0.245953 0.138928 -0.097726 0.094159 -0.283530 0.037567 0.145752 0.207057 -0.299766 -0.052487
its 0.263592 0.276932 0.102158 0.030910 0.425195 -0.403053 -0.055080 0.780277 0.202205 0.404119 0.181208 -0.084876 0.061178 -0.471631 0.296013 -0.045783 0.017546 0.056695 0.006856 0.142392 -0.170773 -0.099230 0.317802 0.148833 0.033133 -0.457212 -0.030905 0.172423 0.047443 -0.211329 -0.127136 -0.282568 -0.092083 0.351174 0.018623 -0.027297 -0.125730 -0.032880 0.084855 0.111318 0.144775 -0.332233 -0.221263 0.111987 0.177779 -0.063753 -0.130358 -0.041860 -0.042961 -0.273554 -0.149285 0.122315 -0.241003 0.117392 -0.100386 -0.381818 -0.054699 0.234473 0.169822 -0.058314 0.048941 -0.227710 0.294586 -0.090437 0.259526 0.170154 -0.098966 0.062568 0.270813 0.018629 0.091100 0.427783 -0.074978 -0.218940 -0.311816 -0.068067 0.430448 -0.005353 0.077834 -0.126610 -0.286059 0.321736 0.145513 -0.501839 0.021986 0.193798 -0.080187 -0.306256 -0.075508 0.464425 -0.272216 0.145146 -0.083394 0.101457 -0.289266 0.041730 0.148178 0.224692 -0.333775 -0.056912
been 0.284358 0.206226 0.134677 0.027055 0.358737 -0.423607 -0.044998 0.656174 0.247387 0.458159 0.199816 -0.068973 0.084786 -0.477230 0.264715 0.046199 0.076922 0.005737 -0.013116 0.119135 -0.154449 -0.087002 0.237687 0.095336 0.115791 -0.383462 -0.010837 0.179484 0.040462 -0.278695 -0.172033 -0.311873 -0.141083 0.377158 0.035086 -0.059465 0.003787 0.004704 0.166674 0.133566 0.106298 -0.345943 -0.155789 0.093817 0.186956 -0.100237 -0.071978 0.000436 -0.050541 -0.311676 -0.127807 0.102993 -0.249200 0.087182 -0.079826 -0.336884 -0.041257 0.250083 0.113521 -0.036670 -0.077705 -0.226408 0.350159 -0.046800 0.257972 0.219617 -0.121193 -0.060329 0.327399 -0.009945 0.127598 0.394968 -0.113403 -0.228189 -0.204316 -0.070427 0.384509 -0.019141 0.034764 -0.135753 -0.258936 0.330001 0.163544 -0.489487 -0.017152 0.171590 -0.114796 -0.311152 -0.051956 0.486325 -0.144121 0.151857 -0.153372 0.083781 -0.250571 0.005197 0.222395 0.221187 -0.244888 -0.034204
out 0.273623 0.246673 0.110284 0.051581 0.422445 -0.398418 -0.039609 0.664994 0.235977 0.426690 0.149846 -0.068557 0.097772 -0.530523 0.270688 -0.030140 0.075250 -0.024169 -0.008733 0.121285 -0.150714 -0.074474 0.295540 0.084427 0.104251 -0.420289 -0.036904 0.151561 0.061279 -0.250847 -0.184979 -0.300264 -0.076466 0.336385 0.038774 -0.099000 -0.032780 -0.025662 0.125256 0.142981 0.123648 -0.355881 -0.141080 0.116987 0.173101 -0.106393 -0.128673 0.002105 -0.069318 -0.298151 -0.136142 0.114871 -0.262097 0.091112 -0.044623 -0.398351 -0.066905 0.206691 0.108030 -0.043853 -0.026802 -0.215000 0.328063 -0.043976 0.240188 0.216783 -0.115030 -0.002595 0.285341 -0.012960 0.166511 0.416112 -0.094999 -0.274978 -0.308629 -0.057217 0.352984 0.022406 0.052898 -0.091402 -0.266867 0.358854 0.126048 -0.490356 -0.052554 0.202946 -0.093987 -0.304429 -0.085998 0.479162 -0.218666 0.161971 -0.153770 0.113637 -0.273765 0.028272 0.215291 0.187224 -0.280594 -0.056823
her 0.244314 0.196326 0.093591 0.022186 0.410166 -0.421265 -0.060125 0.612912 0.229602 0.446133 0.132637 -0.069583 0.139556 -0.532057 0.254440 -0.004516 0.100307 -0.025245 -0.005221 0.121720 -0.180593 -0.055933 0.288159 0.043389 0.091926 -0.387401 -0.029295 0.166272 0.031259 -0.276808 -0.188477 -0.284474 -0.094160 0.362327 0.037805 -0.124410 0.009980 0.004775 0.141637 0.178065 0.109712 -0.349811 -0.133196 0.117456 0.173576 -0.110148 -0.088484 0.018217 -0.035830 -0.290335 -0.125846 0.084033 -0.257588 0.114347 -0.022023 -0.404610 -0.050402 0.252035 0.100521 -0.073923 -0.082915 -0.213083 0.359752 -0.019096 0.209295 0.231866 -0.136527 -0.069640 0.323386 -0.037509 0.150237 0.397536 -0.085001 -0.284907 -0.289566 -0.039166 0.330824 0.022215 0.067068 -0.089030 -0.267937 0.353864 0.144808 -0.434270 -0.026771 0.149607 -0.144091 -0.269129 -0.059722 0.454770 -0.199401 0.156262 -0.162479 0.094546 -0.273832 0.019380 0.255445 0.188047 -0.247746 -0.043499
like 0.267263 0.240418 0.114341 0.034278 0.415818 -0.388197 -0.034123 0.666863 0.223859 0.427851 0.166769 -0.071241 0.094161 -0.498768 0.258356 -0.022131 0.049638 0.000270 -0.023385 0.120222 -0.157431 -0.083665 0.283012 0.113240 0.069998 -0.404164 -0.025700 0.157569 0.043079 -0.220906 -0.157964 -0.282503 -0.098929 0.327650 0.036457 -0.070149 -0.063635 -0.018005 0.122105 0.118698 0.124677 -0.326408 -0.170721 0.101515 0.169921 -0.067622 -0.112669 -0.007759 -0.049100 -0.295149 -0.139585 0.108799 -0.237005 0.087786 -0.059551 -0.369779 -0.060128 0.229258 0.122807 -0.059277 -0.017814 -0.218718 0.317152 -0.049644 0.243148 0.188641 -0.102784 0.015828 0.281887 0.004171 0.120007 0.388346 -0.092224 -0.256543 -0.280313 -0.073421 0.364011 0.005268 0.067857 -0.086051 -0.250280 0.343273 0.155593 -0.477309 -0.016325 0.176158 -0.096637 -0.298121 -0.079839 0.464559 -0.227812 0.132352 -0.118222 0.089227 -0.289196 0.017616 0.189843 0.196104 -0.277177 -0.053645
up 0.253568 0.237874 0.090453 0.046335 0.420585 -0.383709 -0.026540 0.621409 0.240473 0.416027 0.136153 -0.075080 0.114869 -0.504616 0.253931 -0.033888 0.092290 -0.028452 -0.006899 0.112179 -0.133668 -0.065575 0.290038 0.078014 0.109115 -0.403988 -0.051647 0.138298 0.059183 -0.238950 -0.195141 -0.287586 -0.077416 0.331036 0.043417 -0.096894 -0.038178 -0.016864 0.109148 0.136684 0.107072 -0.339569 -0.139554 0.115709 0.163710 -0.104877 -0.115652 0.003725 -0.054440 -0.286376 -0.141395 0.094304 -0.248433 0.103998 -0.038052 -0.392358 -0.062072 0.213811 0.103263 -0.048149 -0.035374 -0.197237 0.314814 -0.044279 0.220242 0.215946 -0.109765 -0.008460 0.270187 -0.016538 0.169970 0.390533 -0.090803 -0.255020 -0.293166 -0.051477 0.337371 0.028579 0.039050 -0.087476 -0.249200 0.340634 0.117739 -0.457988 -0.056304 0.188980 -0.103224 -0.291707 -0.075394 0.442946 -0.193561 0.171875 -0.159165 0.098213 -0.277416 0.025802 0.211361 0.165061 -0.266996 -0.067111
seemed 0.236633 0.178650 0.103930 0.026850 0.367713 -0.348218 -0.049327 0.575964 0.209709 0.387813 0.136171 -0.060208 0.090098 -0.465912 0.233622 0.009146 0.051002 -0.022483 -0.027723 0.101716 -0.154817 -0.071786 0.236747 0.055870 0.066550 -0.346835 -0.042946 0.145269 0.031553 -0.198127 -0.134761 -0.253902 -0.072771 0.305127 0.057547 -0.075528 -0.042052 -0.003474 0.116165 0.138527 0.115678 -0.300129 -0.162803 0.090984 0.172141 -0.070871 -0.097442 0.004393 -0.051740 -0.256177 -0.110102 0.107417 -0.212704 0.084279 -0.031003 -0.340221 -0.051339 0.214848 0.078753 -0.062990 -0.041719 -0.190447 0.324692 -0.024651 0.188245 0.195765 -0.117385 -0.019423 0.283556 -0.019239 0.112491 0.357416 -0.084443 -0.240820 -0.222666 -0.043822 0.330800 0.016298 0.063645 -0.074891 -0.233767 0.322856 0.136053 -0.407021 -0.002982 0.137225 -0.093086 -0.251507 -0.067060 0.411176 -0.185532 0.102091 -0.107523 0.073895 -0.264676 0.013272 0.202302 0.162416 -0.233474 -0.035511
man 0.283352 0.233572 0.059347 0.054767 0.367048 -0.404271 -0.004582 0.675203 0.245748 0.414585 0.149211 -0.064972 0.075835 -0.517019 0.276174 -0.026338 0.062973 0.000558 0.037566 0.116960 -0.151635 -0.114181 0.249526 0.101203 0.091341 -0.379382 -0.050761 0.135969 0.058151 -0.247536 -0.212806 -0.285976 -0.114472 0.342214 0.032785 -0.074509 -0.080367 -0.025047 0.133055 0.134390 0.113329 -0.323723 -0.130341 0.112149 0.178550 -0.096598 -0.086422 0.012593 -0.059017 -0.270451 -0.150051 0.083595 -0.256444 0.103347 -0.097109 -0.381125 -0.078715 0.202437 0.100860 -0.058643 -0.030635 -0.188420 0.323903 -0.073568 0.218906 0.223846 -0.114439 -0.009693 0.249982 -0.003999 0.176415 0.403419 -0.096545 -0.229189 -0.227749 -0.035845 0.357002 -0.001770 0.004733 -0.110739 -0.255514 0.343402 0.112675 -0.453357 -0.037407 0.193472 -0.098791 -0.291415 -0.080767 0.448645 -0.171932 0.165565 -0.131953 0.075684 -0.270474 0.019718 0.219688 0.196307 -0.284716 -0.074324
if 0.258272 0.269676 0.082970 -0.005928 0.370926 -0.364323 -0.062840 0.860274 0.183200 0.371883 0.218296 -0.106210 0.024853 -0.365524 0.322605 -0.027063 -0.021875 0.113022 0.046913 0.124446 -0.203317 -0.114793 0.299526 0.191876 -0.009761 -0.477536 -0.012895 0.178486 0.069612 -0.166803 -0.044139 -0.252325 -0.140439 0.332174 -0.024284 0.016905 -0.197356 -0.024288 0.081495 0.076200 0.136521 -0.253535 -0.245919 0.109539 0.195532 -0.024209 -0.140561 -0.040327 -0.030799 -0.212227 -0.154414 0.098062 -0.205766 0.124027 -0.157229 -0.298727 -0.067861 0.218960 0.222990 -0.089665 0.089244 -0.222045 0.260742 -0.122486 0.255983 0.147718 -0.098283 0.104178 0.224871 0.018319 0.015156 0.417420 -0.079996 -0.151053 -0.278788 -0.102555 0.452733 -0.022486 0.084929 -0.131502 -0.263733 0.270102 0.152137 -0.459257 0.112975 0.193000 -0.053106 -0.316015 -0.036757 0.421980 -0.256254 0.099662 -0.005872 0.083076 -0.262067 0.062608 0.068191 0.234210 -0.354848 -0.048513
are 0.282582 0.276093 0.107230 0.017918 0.405710 -0.398971 -0.039100 0.834374 0.211409 0.413783 0.216648 -0.103607 0.028907 -0.450288 0.317274 -0.034527 0.024371 0.078058 0.031309 0.140832 -0.195818 -0.139939 0.300503 0.172054 0.018310 -0.475575 -0.039780 0.180419 0.067628 -0.186960 -0.102359 -0.297140 -0.108301 0.355610 -0.012287 -0.004264 -0.163722 -0.022056 0.095429 0.085867 0.141936 -0.304653 -0.242601 0.091758 0.198565 -0.039837 -0.163548 -0.041962 -0.057069 -0.276876 -0.143676 0.129139 -0.228801 0.100608 -0.125499 -0.349272 -0.052290 0.222199 0.171533 -0.072752 0.060844 -0.233217 0.291540 -0.098556 0.264066 0.185235 -0.104953 0.087133 0.263227 0.002918 0.072116 0.435398 -0.093005 -0.191078 -0.289046 -0.090841 0.444420 -0.019990 0.078824 -0.137740 -0.267641 0.324176 0.151405 -0.515401 0.063968 0.198853 -0.063999 -0.338820 -0.049091 0.463615 -0.257164 0.117331 -0.043993 0.103699 -0.289874 0.031262 0.120444 0.214853 -0.344752 -0.051346
thing 0.259166 0.222572 0.107504 0.022919 0.398852 -0.388750 -0.039307 0.644200 0.233888 0.430006 0.157578 -0.075018 0.095501 -0.497980 0.251073 0.000019 0.065502 -0.004180 -0.007474 0.120257 -0.157207 -0.092273 0.267380 0.096935 0.082126 -0.392299 -0.037491 0.144474 0.048236 -0.239537 -0.176006 -0.291266 -0.096830 0.338661 0.039895 -0.081802 -0.039268 -0.001468 0.124584 0.140758 0.110205 -0.321904 -0.152202 0.099393 0.170806 -0.080088 -0.105414 -0.004716 -0.053477 -0.286287 -0.135005 0.103849 -0.241277 0.094316 -0.056876 -0.367536 -0.054653 0.221067 0.106826 -0.064210 -0.038204 -0.212526 0.327177 -0.039195 0.232159 0.220077 -0.114925 -0.013065 0.283856 -0.018916 0.138514 0.388435 -0.102779 -0.253088 -0.254041 -0.047970 0.352340 0.011796 0.035764 -0.085524 -0.234431 0.331405 0.139560 -0.448379 -0.023085 0.175271 -0.108664 -0.297394 -0.077962 0.449061 -0.198740 0.139203 -0.130059 0.097343 -0.270973 0.010215 0.211887 0.184874 -0.263320 -0.048005
again 0.257358 0.222091 0.110205 0.043344 0.411248 -0.394033 -0.047546 0.638535 0.239275 0.425929 0.146663 -0.064084 0.102227 -0.503301 0.262513 -0.019142 0.075427 -0.003429 -0.012725 0.123803 -0.156413 -0.059928 0.289740 0.093966 0.083104 -0.409526 -0.031764 0.155157 0.055225 -0.239534 -0.165298 -0.284675 -0.099907 0.348263 0.031196 -0.102504 -0.036860 -0.020883 0.124466 0.141714 0.117142 -0.339983 -0.148981 0.113149 0.171458 -0.095886 -0.100993 0.006578 -0.044235 -0.299701 -0.136645 0.096371 -0.235107 0.105577 -0.032570 -0.391152 -0.055701 0.226441 0.105448 -0.065431 -0.038258 -0.209043 0.324724 -0.042874 0.229101 0.214068 -0.106940 -0.021698 0.281531 -0.026909 0.142184 0.398677 -0.081647 -0.276206 -0.291813 -0.036531 0.355146 0.015492 0.056906 -0.083134 -0.261217 0.345655 0.141874 -0.451742 -0.017787 0.186158 -0.120009 -0.284816 -0.070795 0.461132 -0.211212 0.160345 -0.127999 0.109154 -0.274073 0.019315 0.223921 0.183286 -0.257498 -0.060535
traveller 0.271590 0.251893 0.053218 0.102743 0.403148 -0.407570 -0.062860 0.672727 0.246196 0.403017 0.102474 -0.061290 0.073702 -0.508854 0.304293 -0.079342 0.105831 0.007981 0.049159 0.080899 -0.091573 -0.082550 0.277911 0.116491 0.060030 -0.415900 -0.046106 0.105299 0.106426 -0.249747 -0.213527 -0.280913 -0.100029 0.329614 0.043468 -0.051496 -0.054438 0.008506 0.146011 0.134199 0.077826 -0.336915 -0.115994 0.131504 0.205718 -0.140202 -0.064125 0.051103 -0.043185 -0.264648 -0.180777 0.067270 -0.190640 0.120710 -0.132936 -0.417576 -0.110703 0.160439 0.089221 -0.107114 -0.002595 -0.170923 0.325720 -0.113387 0.273889 0.265924 -0.094335 -0.011557 0.265488 -0.046340 0.184443 0.419984 -0.092232 -0.282824 -0.259261 -0.057508 0.364027 -0.028024 -0.039783 -0.070554 -0.276791 0.274520 0.131208 -0.477002 -0.027979 0.249768 -0.078316 -0.319167 -0.077388 0.420664 -0.158052 0.192598 -0.099908 0.120369 -0.207397 0.032634 0.215731 0.225900 -0.278834 -0.117733
our 0.270641 0.269571 0.105411 0.035973 0.412684 -0.390404 -0.044391 0.729420 0.206751 0.413602 0.158422 -0.071312 0.059378 -0.469961 0.282161 -0.041446 0.044901 0.042242 0.007366 0.130020 -0.155769 -0.102142 0.305787 0.130747 0.042325 -0.423849 -0.035614 0.149209 0.048960 -0.221647 -0.137424 -0.283409 -0.105409 0.330877 0.032260 -0.031845 -0.092276 -0.023322 0.109121 0.104443 0.135379 -0.328195 -0.183886 0.097812 0.182168 -0.077190 -0.123943 -0.018023 -0.053618 -0.275565 -0.132475 0.110009 -0.222352 0.097771 -0.091309 -0.378455 -0.061050 0.221569 0.151780 -0.055511 0.032251 -0.218149 0.292512 -0.090267 0.261138 0.176558 -0.095691 0.043528 0.265638 0.011818 0.105556 0.409458 -0.075997 -0.225136 -0.288599 -0.063311 0.404304 -0.013269 0.061479 -0.114863 -0.275048 0.322493 0.140417 -0.472582 0.012730 0.181553 -0.081954 -0.295609 -0.059543 0.455126 -0.244809 0.138408 -0.077728 0.091807 -0.257789 0.035369 0.160356 0.208104 -0.294551 -0.053337
would 0.281833 0.228007 0.135799 0.011212 0.414157 -0.420615 -0.058516 0.719664 0.228823 0.463727 0.198176 -0.067614 0.091186 -0.501645 0.282989 0.007928 0.060510 0.011760 -0.012730 0.121649 -0.191567 -0.100413 0.276936 0.115041 0.068691 -0.434545 -0.038837 0.179812 0.064759 -0.239151 -0.155330 -0.316031 -0.113395 0.363862 0.050264 -0.062047 -0.056007 -0.004839 0.160157 0.153778 0.129819 -0.346597 -0.180838 0.112863 0.204086 -0.087300 -0.117397 0.002070 -0.064422 -0.294354 -0.151387 0.139438 -0.258557 0.097615 -0.073459 -0.379979 -0.067767 0.240094 0.139172 -0.068195 -0.045867 -0.253632 0.368698 -0.063288 0.245945 0.211364 -0.122308 -0.007027 0.316332 -0.014809 0.115230 0.422476 -0.111924 -0.243978 -0.264169 -0.086711 0.402254 -0.008149 0.071303 -0.104479 -0.276697 0.346351 0.164759 -0.505788 0.012347 0.178709 -0.098614 -0.333297 -0.068894 0.494071 -0.205737 0.117038 -0.115353 0.086913 -0.286236 0.012872 0.194416 0.209309 -0.281113 -0.029095
more 0.257648 0.263092 0.111767 0.032022 0.400738 -0.385548 -0.041119 0.715630 0.214410 0.403760 0.176884 -0.082354 0.070427 -0.455035 0.280927 -0.044949 0.044874 0.024812 0.002452 0.138376 -0.173304 -0.107775 0.293107 0.124114 0.041868 -0.440728 -0.028247 0.156841 0.055804 -0.201292 -0.128273 -0.285803 -0.093367 0.316415 0.023626 -0.040734 -0.092073 -0.031956 0.096630 0.103648 0.123599 -0.317346 -0.203776 0.091922 0.189267 -0.062227 -0.126329 -0.027441 -0.057533 -0.279597 -0.132732 0.116272 -0.236402 0.087740 -0.071645 -0.365490 -0.044237 0.210251 0.139613 -0.052987 0.024073 -0.211305 0.300071 -0.075228 0.254892 0.168894 -0.096128 0.051580 0.257159 0.004126 0.097653 0.409288 -0.081637 -0.212135 -0.289067 -0.080100 0.397412 -0.004556 0.054674 -0.110165 -0.267575 0.320657 0.136869 -0.466422 0.003989 0.190553 -0.080969 -0.303469 -0.063578 0.457830 -0.242649 0.144972 -0.089413 0.101527 -0.281482 0.035249 0.149265 0.204142 -0.313994 -0.044928
white 0.277397 0.267864 0.101926 0.042498 0.419267 -0.388949 -0.046016 0.726666 0.225298 0.423540 0.164136 -0.070384 0.080964 -0.500593 0.274595 -0.046001 0.044890 0.011361 -0.009834 0.154702 -0.156894 -0.083088 0.317411 0.117501 0.059727 -0.437425 -0.043928 0.154637 0.054818 -0.216997 -0.158828 -0.287246 -0.093590 0.331997 0.014305 -0.054678 -0.062903 -0.031924 0.097988 0.108372 0.128923 -0.331443 -0.186940 0.101885 0.187938 -0.084522 -0.140676 -0.026315 -0.047913 -0.304761 -0.134393 0.116133 -0.263164 0.109090 -0.065992 -0.388457 -0.056555 0.231973 0.148418 -0.057360 0.008641 -0.227965 0.304518 -0.055030 0.260560 0.193701 -0.094230 0.029890 0.279657 -0.006473 0.124678 0.405878 -0.089244 -0.243732 -0.302871 -0.052456 0.393653 0.018970 0.049674 -0.099278 -0.251209 0.336460 0.146048 -0.482407 -0.018302 0.198689 -0.100343 -0.312370 -0.082413 0.450716 -0.233794 0.163469 -0.105734 0.095831 -0.278922 0.042612 0.180496 0.184364 -0.299744 -0.067428
must 0.265968 0.224324 0.113643 0.010225 0.372547 -0.386544 -0.085536 0.758845 0.198093 0.424971 0.218537 -0.098298 0.047732 -0.419009 0.297425 -0.001957 0.025547 0.068687 0.031515 0.113368 -0.184915 -0.101814 0.271715 0.129378 0.048187 -0.442481 -0.002390 0.204355 0.077376 -0.219052 -0.090388 -0.277471 -0.144372 0.365978 0.029604 -0.025432 -0.077796 -0.001916 0.130755 0.117018 0.108522 -0.285251 -0.188332 0.101671 0.207941 -0.086188 -0.111090 -0.007352 -0.028470 -0.252922 -0.166599 0.116325 -0.221472 0.120619 -0.123874 -0.341770 -0.060243 0.209446 0.180729 -0.063923 -0.011777 -0.257639 0.296797 -0.090513 0.258125 0.174667 -0.112440 0.013851 0.296093 -0.007211 0.072853 0.424343 -0.105668 -0.212031 -0.253218 -0.099171 0.429281 -0.031915 0.055989 -0.125930 -0.280289 0.285258 0.166241 -0.492204 0.064835 0.186284 -0.083530 -0.329973 -0.058406 0.450914 -0.192921 0.110203 -0.070732 0.087474 -0.252626 0.037233 0.136241 0.229589 -0.280804 -0.023700
tm 0.259985 0.673993 -0.099008 -0.106848 0.536344 -0.222131 -0.301410 2.130336 0.076047 0.018438 0.390675 -0.394150 -0.448380 0.024855 0.739437 -0.539941 -0.398648 0.806682 0.333501 0.252038 -0.411313 -0.404368 0.812381 0.789483 -0.604407 -1.140495 0.078022 0.384332 0.343379 0.121543 0.694368 -0.138483 -0.311139 0.422455 -0.470043 0.530038 -0.984287 0.012667 -0.350534 -0.230388 0.182149 -0.069517 -0.652955 0.140111 0.443412 0.116869 -0.639254 -0.386096 0.110815 0.054509 -0.391842 0.123540 -0.100383 0.542581 -0.670032 -0.360450 -0.115005 0.168285 0.747993 -0.299614 0.990248 -0.275049 -0.236997 -0.494989 0.496306 -0.239040 0.066952 0.781885 0.027340 0.131266 -0.388994 0.711582 -0.012905 0.230034 -0.853535 -0.250532 1.134375 -0.151744 0.190463 -0.209501 -0.344128 -0.046991 0.164251 -0.604919 0.682135 0.368158 0.221674 -0.371056 -0.008067 0.196952 -0.783795 0.122860 0.553830 0.210758 -0.127572 0.418351 -0.631939 0.406783 -0.940610 -0.287941
felt 0.240809 0.193106 0.094853 0.036599 0.370757 -0.363736 -0.041293 0.584244 0.211303 0.401971 0.133519 -0.059105 0.120118 -0.477741 0.224168 -0.008168 0.067369 -0.021599 -0.015644 0.091820 -0.141915 -0.053903 0.252613 0.073124 0.087165 -0.363282 -0.025340 0.147798 0.042331 -0.236059 -0.176750 -0.252585 -0.095105 0.320862 0.051169 -0.115778 0.004095 -0.009514 0.121280 0.145461 0.111224 -0.313111 -0.127616 0.095820 0.155344 -0.102936 -0.081285 0.008370 -0.049732 -0.287712 -0.131369 0.092003 -0.210295 0.089984 -0.026437 -0.361906 -0.050856 0.209478 0.102482 -0.080532 -0.062097 -0.191519 0.324097 -0.025253 0.189940 0.189968 -0.118172 -0.031246 0.273613 -0.029539 0.142457 0.362693 -0.090932 -0.269373 -0.253114 -0.031344 0.316602 0.015651 0.056047 -0.074875 -0.235655 0.319576 0.134598 -0.425095 -0.023362 0.160758 -0.109452 -0.260887 -0.076976 0.427406 -0.191115 0.139999 -0.120955 0.087523 -0.239534 0.034676 0.220224 0.176146 -0.227640 -0.044429
thought 0.236646 0.194645 0.101775 0.039731 0.343335 -0.355831 -0.041137 0.572717 0.204452 0.401431 0.141273 -0.056049 0.101043 -0.447996 0.240572 -0.007878 0.054931 -0.010386 -0.008299 0.095527 -0.134780 -0.056867 0.248821 0.076233 0.080195 -0.343605 -0.019977 0.136629 0.036759 -0.225657 -0.159145 -0.247823 -0.085927 0.304214 0.051474 -0.099335 -0.007955 -0.019403 0.123418 0.118593 0.105825 -0.290508 -0.127578 0.099410 0.163095 -0.094876 -0.086762 0.007070 -0.039971 -0.262653 -0.125016 0.091376 -0.207454 0.075473 -0.053442 -0.324916 -0.056207 0.192594 0.096189 -0.070296 -0.058120 -0.196301 0.302455 -0.033375 0.205474 0.180409 -0.114512 -0.017822 0.261358 -0.020752 0.125438 0.359713 -0.099455 -0.244348 -0.226258 -0.044525 0.325527 0.008920 0.038184 -0.080945 -0.233413 0.301717 0.131128 -0.424667 -0.020994 0.164791 -0.087799 -0.256031 -0.065004 0.403732 -0.167112 0.143794 -0.120948 0.080839 -0.237533 0.019477 0.196338 0.173747 -0.229930 -0.050655
when 0.272355 0.240252 0.104138 0.026483 0.407140 -0.395281 -0.054668 0.717466 0.233070 0.418328 0.156127 -0.079334 0.095568 -0.488753 0.285306 -0.035270 0.056439 0.021485 0.002226 0.121475 -0.179496 -0.095259 0.306651 0.117625 0.054047 -0.435148 -0.035227 0.167423 0.057518 -0.238777 -0.141241 -0.284780 -0.097772 0.355777 0.030833 -0.069380 -0.067950 -0.012897 0.111631 0.131364 0.127350 -0.333357 -0.174067 0.110162 0.178884 -0.096190 -0.119104 -0.012775 -0.037770 -0.292196 -0.142748 0.103901 -0.228021 0.111643 -0.069613 -0.386729 -0.052952 0.223116 0.136280 -0.074876 -0.016621 -0.213828 0.327567 -0.063872 0.246493 0.205401 -0.119430 0.009283 0.290101 -0.011971 0.120140 0.406147 -0.089018 -0.247739 -0.294571 -0.062801 0.394053 0.009951 0.064950 -0.097148 -0.267797 0.334692 0.141098 -0.478914 0.005382 0.194129 -0.086249 -0.296357 -0.069965 0.462323 -0.230719 0.155343 -0.098763 0.107355 -0.273751 0.033260 0.192220 0.207052 -0.286008 -0.057526
work 0.177650 0.370099 -0.009461 -0.054370 0.333497 -0.225522 -0.119062 1.149346 0.060342 0.144975 0.244903 -0.186411 -0.164445 -0.085530 0.421266 -0.199493 -0.191788 0.372117 0.155348 0.152989 -0.222377 -0.203926 0.399305 0.360170 -0.228330 -0.604837 0.030712 0.220249 0.129561 0.002248 0.238795 -0.145086 -0.156921 0.257652 -0.174926 0.232343 -0.466194 -0.042489 -0.119319 -0.071955 0.116113 -0.101515 -0.358357 0.075311 0.220327 0.069382 -0.285111 -0.196896 0.034927 -0.071435 -0.190217 0.117400 -0.125688 0.242564 -0.331366 -0.207991 -0.045715 0.120563 0.376038 -0.115414 0.435769 -0.204645 -0.007205 -0.245353 0.294664 -0.043267 -0.000158 0.361551 0.066066 0.069804 -0.178942 0.414823 -0.025074 0.047890 -0.406468 -0.160034 0.592171 -0.061511 0.089975 -0.158576 -0.248648 0.079849 0.091585 -0.425113 0.303014 0.226641 0.075296 -0.260924 -0.030617 0.238411 -0.396572 0.068279 0.213918 0.093846 -0.167012 0.181073 -0.250844 0.263513 -0.509291 -0.097751
over 0.290382 0.263868 0.113136 0.046461 0.430472 -0.405312 -0.043221 0.717106 0.240855 0.448837 0.164223 -0.082940 0.099000 -0.529844 0.289808 -0.045582 0.064892 -0.000940 -0.004574 0.140968 -0.158309 -0.081983 0.310699 0.109092 0.078956 -0.451668 -0.045363 0.173535 0.062530 -0.243319 -0.173483 -0.302460 -0.101070 0.349026 0.040237 -0.080584 -0.064487 -0.011543 0.115233 0.132778 0.123205 -0.361089 -0.186516 0.110207 0.203680 -0.084585 -0.132529 -0.012903 -0.050654 -0.304152 -0.156627 0.118106 -0.254918 0.107789 -0.061390 -0.408907 -0.068568 0.229632 0.130716 -0.059792 -0.006036 -0.234297 0.328291 -0.063840 0.257135 0.213113 -0.114536 0.019179 0.302694 -0.008783 0.150173 0.437498 -0.098458 -0.264358 -0.313650 -0.075918 0.394899 0.008285 0.057512 -0.104956 -0.272544 0.361968 0.139404 -0.504491 -0.016358 0.204912 -0.098415 -0.311922 -0.091869 0.485931 -0.231184 0.163292 -0.116824 0.107389 -0.287032 0.030292 0.199176 0.199270 -0.296491 -0.070085
weena 0.275274 0.227737 0.097075 0.044352 0.414897 -0.415391 -0.052160 0.707392 0.237637 0.436662 0.159066 -0.084887 0.091059 -0.511754 0.275300 -0.019198 0.068333 0.011813 -0.003470 0.134382 -0.168892 -0.092136 0.301404 0.101561 0.082825 -0.436364 -0.034717 0.158634 0.057075 -0.238640 -0.166191 -0.292543 -0.102961 0.366948 0.028708 -0.069483 -0.057673 -0.012017 0.118664 0.147758 0.132552 -0.354053 -0.171593 0.122930 0.190995 -0.098478 -0.116199 -0.011488 -0.059604 -0.299707 -0.142131 0.104821 -0.250164 0.107671 -0.060218 -0.392742 -0.065131 0.224821 0.132006 -0.064602 -0.021468 -0.220988 0.336181 -0.055430 0.238548 0.212967 -0.107836 -0.008158 0.289586 -0.028509 0.130600 0.423772 -0.079145 -0.271701 -0.295242 -0.054042 0.388408 0.014959 0.056596 -0.101995 -0.267810 0.342325 0.139896 -0.475476 -0.015657 0.189501 -0.108977 -0.316133 -0.073521 0.473151 -0.221794 0.168320 -0.126892 0.101875 -0.278001 0.032219 0.211249 0.200673 -0.284180 -0.060869
still 0.273100 0.249325 0.116479 0.019386 0.402277 -0.384216 -0.038798 0.684451 0.216539 0.417205 0.176985 -0.071282 0.066696 -0.469593 0.267233 -0.027455 0.037037 0.014227 -0.013057 0.134564 -0.167675 -0.099324 0.279221 0.120639 0.058503 -0.418811 -0.035636 0.167884 0.055744 -0.204965 -0.139141 -0.290983 -0.093479 0.324951 0.022724 -0.051865 -0.085443 -0.026505 0.112898 0.118542 0.124551 -0.317509 -0.179165 0.095859 0.169954 -0.069260 -0.120028 -0.023362 -0.055018 -0.281489 -0.132442 0.120167 -0.230484 0.087595 -0.069421 -0.350987 -0.063771 0.212724 0.131461 -0.043719 0.002651 -0.220648 0.316393 -0.053094 0.247262 0.187104 -0.105186 0.033623 0.270208 -0.006736 0.109249 0.393063 -0.084253 -0.233554 -0.266344 -0.070232 0.384445 0.004973 0.068519 -0.102445 -0.244990 0.323566 0.138170 -0.464684 0.005985 0.169213 -0.095963 -0.304732 -0.067552 0.449432 -0.222474 0.143418 -0.093613 0.091916 -0.282564 0.018337 0.171656 0.196446 -0.289179 -0.055461
world 0.269423 0.257655 0.112980 0.038047 0.390210 -0.375766 -0.048091 0.700729 0.209668 0.415359 0.168862 -0.069711 0.072978 -0.469787 0.262437 -0.040612 0.032144 0.020114 -0.016248 0.134033 -0.166083 -0.093376 0.291397 0.119126 0.061364 -0.416144 -0.037376 0.162977 0.046011 -0.206688 -0.122577 -0.284629 -0.094574 0.320740 0.022043 -0.037719 -0.068194 -0.036153 0.099407 0.107868 0.124755 -0.327470 -0.194784 0.097999 0.175599 -0.074612 -0.133643 -0.018848 -0.042444 -0.285261 -0.125313 0.112632 -0.242473 0.104003 -0.084268 -0.358409 -0.041936 0.218669 0.138006 -0.046199 0.000366 -0.225426 0.304367 -0.068930 0.251486 0.172967 -0.089789 0.031724 0.262713 0.005908 0.108388 0.396626 -0.088825 -0.228155 -0.284610 -0.059639 0.390585 0.001611 0.054930 -0.097970 -0.252671 0.315186 0.133635 -0.472792 -0.001715 0.177658 -0.078614 -0.293344 -0.069811 0.449744 -0.226947 0.149773 -0.093067 0.106909 -0.265256 0.033538 0.156234 0.191026 -0.291420 -0.058930
even 0.269872 0.239539 0.098486 0.026632 0.383392 -0.380322 -0.047717 0.738310 0.208735 0.396067 0.181268 -0.079566 0.061188 -0.440774 0.292426 -0.028228 0.028379 0.039088 0.005856 0.131541 -0.173305 -0.108247 0.289378 0.128552 0.042235 -0.427285 -0.027085 0.156368 0.051206 -0.195417 -0.121506 -0.286595 -0.102391 0.321957 0.009093 -0.032191 -0.105386 -0.025430 0.101885 0.101326 0.121692 -0.306643 -0.199161 0.089972 0.179802 -0.061257 -0.130008 -0.029136 -0.052150 -0.255035 -0.126041 0.112274 -0.226785 0.099559 -0.089799 -0.347016 -0.053590 0.216770 0.149438 -0.070140 0.027101 -0.212072 0.293620 -0.082367 0.245730 0.183435 -0.101665 0.038275 0.262038 0.002291 0.087143 0.398241 -0.086474 -0.203103 -0.268970 -0.072354 0.400298 -0.007892 0.053289 -0.124360 -0.258903 0.309063 0.138074 -0.475035 0.033151 0.180603 -0.087497 -0.307560 -0.059200 0.440168 -0.233368 0.139859 -0.068883 0.087626 -0.261572 0.038163 0.140320 0.208102 -0.307612 -0.049394
myself 0.255785 0.220597 0.088850 0.038294 0.382285 -0.373598 -0.043152 0.671361 0.205994 0.398879 0.156641 -0.065660 0.076605 -0.459488 0.273869 -0.014741 0.050594 0.029506 0.003410 0.119031 -0.161942 -0.080724 0.277799 0.104247 0.053329 -0.406659 -0.018223 0.154609 0.052462 -0.222031 -0.135392 -0.273799 -0.098230 0.336962 0.020738 -0.068225 -0.060325 -0.019619 0.122675 0.123667 0.119534 -0.305629 -0.169764 0.100872 0.180893 -0.083187 -0.108739 -0.014832 -0.048546 -0.279578 -0.130142 0.105868 -0.225435 0.100145 -0.073463 -0.354429 -0.059735 0.220144 0.130395 -0.069123 -0.011828 -0.210804 0.312554 -0.071046 0.225645 0.195550 -0.108016 0.001267 0.264141 -0.017071 0.117731 0.383874 -0.088244 -0.225377 -0.272785 -0.043667 0.371142 0.008583 0.046746 -0.100811 -0.252871 0.305271 0.138390 -0.462100 -0.003126 0.175715 -0.082522 -0.288091 -0.055428 0.430179 -0.215593 0.155206 -0.106158 0.099649 -0.248479 0.031587 0.179688 0.189341 -0.279913 -0.053294
through 0.252586 0.238645 0.101466 0.038658 0.401997 -0.373903 -0.040255 0.715784 0.206660 0.397639 0.160920 -0.088828 0.081629 -0.450501 0.284207 -0.020394 0.036113 0.026303 0.009857 0.122835 -0.145839 -0.069614 0.284780 0.130412 0.055275 -0.424711 -0.029243 0.158272 0.052581 -0.212818 -0.125482 -0.265762 -0.096285 0.322709 0.013382 -0.049533 -0.088102 -0.024106 0.093555 0.105413 0.123978 -0.306088 -0.187766 0.104026 0.185194 -0.068793 -0.124208 -0.017975 -0.044279 -0.268961 -0.151727 0.094867 -0.215949 0.111725 -0.085182 -0.343678 -0.059523 0.216540 0.138549 -0.069291 0.013178 -0.213054 0.288154 -0.067330 0.241305 0.190341 -0.109929 0.031759 0.265773 -0.006372 0.093004 0.407985 -0.087301 -0.223039 -0.278736 -0.077801 0.390228 -0.000920 0.043713 -0.105127 -0.264926 0.316321 0.127765 -0.460824 0.017479 0.192653 -0.088795 -0.296626 -0.074923 0.438243 -0.232593 0.146525 -0.074986 0.105385 -0.265162 0.040131 0.162480 0.198092 -0.300512 -0.058049
before 0.266104 0.232395 0.109632 0.035525 0.394388 -0.390872 -0.044479 0.675910 0.217353 0.422922 0.150591 -0.073186 0.088407 -0.484743 0.271488 -0.031207 0.055813 0.006984 0.000252 0.116107 -0.167131 -0.084222 0.286762 0.111530 0.063207 -0.418452 -0.032912 0.158666 0.055896 -0.228713 -0.152059 -0.287695 -0.094642 0.329208 0.029951 -0.074885 -0.051239 -0.016519 0.111036 0.129516 0.120437 -0.335820 -0.174452 0.097551 0.188144 -0.090828 -0.115762 -0.009717 -0.039393 -0.280677 -0.138277 0.091916 -0.228027 0.106614 -0.061773 -0.377531 -0.059636 0.216516 0.127223 -0.071689 -0.014272 -0.213794 0.322522 -0.057638 0.247219 0.201775 -0.111373 0.010144 0.282872 -0.007048 0.124246 0.396853 -0.088705 -0.251898 -0.284501 -0.057821 0.375842 0.005141 0.045397 -0.088845 -0.261241 0.332932 0.146199 -0.469769 0.001064 0.190782 -0.095055 -0.292164 -0.072913 0.455972 -0.219439 0.141312 -0.098053 0.109864 -0.265154 0.021941 0.194146 0.199350 -0.274719 -0.048077
other 0.257323 0.296300 0.073393 0.012932 0.396795 -0.358830 -0.065040 0.866855 0.197736 0.362950 0.206883 -0.097540 0.010785 -0.383118 0.329076 -0.081887 -0.010014 0.113120 0.045921 0.152173 -0.189249 -0.119743 0.331683 0.190732 -0.002903 -0.505541 -0.017580 0.176630 0.081997 -0.166646 -0.052456 -0.253903 -0.113578 0.330284 -0.028525 0.018428 -0.194443 -0.045954 0.054553 0.062841 0.128732 -0.284350 -0.250710 0.091860 0.204162 -0.036025 -0.167677 -0.065446 -0.036361 -0.249162 -0.172440 0.115905 -0.224136 0.137288 -0.156062 -0.335034 -0.063058 0.192247 0.208343 -0.066182 0.125189 -0.210419 0.249071 -0.128399 0.269265 0.129151 -0.079545 0.109426 0.226117 0.003799 0.041446 0.431933 -0.062066 -0.177630 -0.346900 -0.103334 0.450751 -0.023535 0.066630 -0.125003 -0.272286 0.287221 0.132846 -0.482588 0.089541 0.216452 -0.050032 -0.305804 -0.062848 0.418488 -0.297365 0.145320 -0.023318 0.101029 -0.259006 0.063196 0.065108 0.233760 -0.379292 -0.070291
first 0.235842 0.212862 0.092919 0.045161 0.358874 -0.350579 -0.029594 0.573361 0.198510 0.373302 0.127970 -0.052194 0.084140 -0.448908 0.244337 -0.014439 0.048353 -0.006201 0.000139 0.097307 -0.136365 -0.064807 0.257419 0.090620 0.059835 -0.371019 -0.027550 0.133743 0.051635 -0.221688 -0.158237 -0.255047 -0.082369 0.300591 0.042940 -0.075215 -0.030877 -0.015953 0.116646 0.121827 0.101292 -0.311787 -0.142619 0.095486 0.182442 -0.092713 -0.079587 -0.003378 -0.041160 -0.255946 -0.122723 0.097081 -0.201847 0.084609 -0.048324 -0.351229 -0.051894 0.199304 0.104722 -0.046680 -0.029675 -0.197320 0.288944 -0.065416 0.222812 0.197201 -0.099148 -0.003854 0.252688 -0.002935 0.142878 0.364176 -0.057511 -0.232812 -0.245518 -0.041777 0.324408 0.010831 0.021172 -0.085158 -0.231214 0.297351 0.125460 -0.421334 -0.007809 0.178018 -0.087543 -0.273572 -0.074646 0.408626 -0.172367 0.140945 -0.109928 0.090296 -0.231507 0.006991 0.190927 0.184134 -0.228373 -0.044327
people 0.265920 0.237789 0.119233 0.026880 0.380264 -0.373236 -0.028642 0.711817 0.193220 0.400008 0.170523 -0.083922 0.047162 -0.449832 0.264836 -0.044669 0.045701 0.033847 -0.004727 0.147254 -0.160719 -0.093378 0.295412 0.133411 0.047134 -0.419617 -0.045037 0.156906 0.053765 -0.199162 -0.108348 -0.280944 -0.090108 0.317212 0.018318 -0.014602 -0.085326 -0.032357 0.103039 0.096463 0.124268 -0.326580 -0.205679 0.086127 0.181244 -0.060690 -0.143666 -0.036987 -0.060478 -0.270107 -0.123166 0.127095 -0.242483 0.090396 -0.088277 -0.347879 -0.049978 0.207132 0.153369 -0.055519 0.023443 -0.231466 0.291585 -0.058699 0.256749 0.161817 -0.084679 0.042951 0.262253 0.003387 0.093604 0.397941 -0.071852 -0.220457 -0.283232 -0.068197 0.389874 0.003914 0.045269 -0.106555 -0.241270 0.307596 0.136107 -0.480157 0.017758 0.180015 -0.069257 -0.303491 -0.083016 0.445652 -0.237978 0.125480 -0.079027 0.101850 -0.259411 0.038422 0.129365 0.190097 -0.305563 -0.045120
hand 0.222222 0.229820 0.084799 0.042765 0.368354 -0.344685 -0.031439 0.613125 0.215286 0.361701 0.126652 -0.073989 0.076812 -0.454118 0.250111 -0.057241 0.059707 0.006421 -0.005356 0.107043 -0.117662 -0.076122 0.258461 0.087900 0.090004 -0.380698 -0.043138 0.139122 0.054222 -0.230435 -0.157582 -0.254150 -0.088558 0.291794 0.026452 -0.078568 -0.054631 -0.014036 0.099753 0.125186 0.089771 -0.296868 -0.129751 0.100524 0.162786 -0.098559 -0.104082 0.000660 -0.060908 -0.268723 -0.148919 0.085028 -0.213895 0.093225 -0.068622 -0.364093 -0.065570 0.176024 0.111730 -0.038595 -0.006869 -0.179499 0.272585 -0.066288 0.217240 0.179057 -0.096773 0.012806 0.244634 -0.027910 0.146311 0.360698 -0.078524 -0.221209 -0.292747 -0.052642 0.324716 0.014522 0.039155 -0.078427 -0.218849 0.303849 0.096896 -0.416705 -0.030431 0.192069 -0.079568 -0.257107 -0.091818 0.400686 -0.198217 0.168581 -0.124030 0.100157 -0.239060 0.032141 0.175027 0.179502 -0.257256 -0.072554
went 0.241351 0.241119 0.096736 0.025415 0.389942 -0.365694 -0.027431 0.628304 0.223330 0.383214 0.137052 -0.072456 0.090607 -0.478065 0.250359 -0.026668 0.068559 -0.014008 -0.015052 0.112744 -0.146127 -0.066019 0.268842 0.102805 0.091903 -0.394087 -0.042582 0.153269 0.050110 -0.221639 -0.154657 -0.273109 -0.088085 0.325669 0.021914 -0.082034 -0.057127 -0.015767 0.096790 0.113415 0.117612 -0.309710 -0.150178 0.091469 0.169204 -0.083740 -0.120911 -0.017632 -0.054968 -0.266362 -0.135108 0.096199 -0.219782 0.106397 -0.056005 -0.357352 -0.060151 0.211217 0.105467 -0.050326 -0.033055 -0.191584 0.279832 -0.055090 0.230199 0.188703 -0.104926 0.005488 0.254180 -0.013780 0.133216 0.368428 -0.087508 -0.241290 -0.282906 -0.059190 0.337696 0.020630 0.049645 -0.086191 -0.242278 0.317330 0.129461 -0.436844 -0.031639 0.175954 -0.089001 -0.278125 -0.080020 0.435443 -0.209075 0.165769 -0.126190 0.094015 -0.253698 0.019912 0.180867 0.182894 -0.268321 -0.064538
see 0.272613 0.210738 0.094384 0.019820 0.385595 -0.382255 -0.052626 0.719471 0.212059 0.426107 0.194542 -0.063276 0.072400 -0.453843 0.280880 -0.001152 0.044435 0.037977 0.017501 0.135513 -0.193318 -0.092905 0.278964 0.115708 0.044336 -0.416418 -0.019957 0.152117 0.051826 -0.227096 -0.134332 -0.288995 -0.118607 0.338362 0.014520 -0.062277 -0.079987 -0.008263 0.129848 0.110112 0.130172 -0.302451 -0.188148 0.113973 0.168164 -0.080370 -0.108105 0.003069 -0.030128 -0.278949 -0.128757 0.086358 -0.213674 0.098193 -0.087704 -0.351291 -0.054558 0.235496 0.131709 -0.088153 -0.015098 -0.205475 0.322740 -0.061556 0.238313 0.212500 -0.117850 0.010253 0.272627 -0.018860 0.095305 0.401952 -0.084928 -0.216442 -0.254633 -0.045411 0.399689 0.007397 0.039554 -0.120244 -0.260167 0.305132 0.150743 -0.467901 0.017174 0.177562 -0.105468 -0.306056 -0.035588 0.452139 -0.222738 0.133560 -0.091632 0.090084 -0.251753 0.031702 0.205701 0.206809 -0.290617 -0.048135
last 0.232196 0.240854 0.101448 0.031181 0.389219 -0.363358 -0.044071 0.657067 0.207518 0.389863 0.153309 -0.076932 0.077052 -0.446505 0.277601 -0.024728 0.039766 0.022577 -0.000507 0.113592 -0.151086 -0.085884 0.284944 0.116165 0.056213 -0.413073 -0.032170 0.156081 0.055614 -0.230833 -0.134171 -0.273200 -0.098464 0.329530 0.020470 -0.066171 -0.059292 -0.029081 0.108282 0.114852 0.107814 -0.312812 -0.161596 0.107082 0.196409 -0.078346 -0.101308 -0.026525 -0.036342 -0.266803 -0.145189 0.099555 -0.216765 0.105759 -0.077906 -0.363330 -0.050329 0.206233 0.140244 -0.050460 -0.001115 -0.216708 0.291955 -0.079239 0.241272 0.183167 -0.105243 0.019927 0.255825 -0.000257 0.127712 0.398971 -0.067053 -0.233325 -0.286883 -0.058077 0.369111 0.005222 0.035937 -0.106107 -0.252815 0.308985 0.141180 -0.450719 0.006558 0.189136 -0.078910 -0.293153 -0.079965 0.430413 -0.204774 0.147869 -0.095720 0.104925 -0.255819 0.022243 0.165333 0.205095 -0.264722 -0.060525
may 0.242404 0.244831 0.110014 -0.014791 0.366399 -0.356999 -0.066002 0.771575 0.184446 0.378600 0.211810 -0.107495 0.032713 -0.382839 0.299614 -0.013659 0.008674 0.089718 0.025893 0.111830 -0.188214 -0.122377 0.265093 0.153926 0.016885 -0.436853 -0.017439 0.190913 0.069472 -0.176975 -0.056635 -0.266938 -0.132312 0.329823 0.012492 0.000761 -0.146727 -0.013541 0.102874 0.097724 0.110302 -0.242907 -0.223108 0.094496 0.193618 -0.049730 -0.140817 -0.023847 -0.046417 -0.221286 -0.150039 0.120395 -0.206504 0.110397 -0.116944 -0.309693 -0.062032 0.211721 0.194010 -0.062567 0.044956 -0.237369 0.273415 -0.095940 0.237283 0.143272 -0.102412 0.062600 0.246579 0.018871 0.029846 0.397492 -0.096790 -0.162590 -0.255552 -0.103325 0.420252 -0.018001 0.076242 -0.122045 -0.253187 0.281332 0.144078 -0.444815 0.089626 0.177879 -0.056876 -0.302147 -0.058823 0.429086 -0.222928 0.087926 -0.031644 0.080168 -0.253828 0.040893 0.086729 0.204713 -0.309779 -0.027379
under 0.251701 0.262516 0.093824 0.024901 0.397066 -0.354079 -0.053093 0.765145 0.196209 0.380507 0.167626 -0.103028 0.041272 -0.443459 0.286712 -0.076229 0.010731 0.061148 0.009822 0.139373 -0.170456 -0.096638 0.321577 0.160365 0.019525 -0.459255 -0.027863 0.160926 0.062490 -0.192751 -0.078665 -0.273188 -0.105914 0.312662 0.003427 -0.015310 -0.134419 -0.034070 0.070250 0.081266 0.132000 -0.305013 -0.221667 0.098691 0.184041 -0.053353 -0.152664 -0.043732 -0.036595 -0.260212 -0.145661 0.116398 -0.228760 0.129490 -0.104340 -0.367262 -0.059464 0.202002 0.167807 -0.061230 0.061924 -0.216811 0.249077 -0.093185 0.260508 0.151856 -0.087072 0.076323 0.244327 0.017375 0.081144 0.411972 -0.086744 -0.211027 -0.310190 -0.074653 0.411831 0.005956 0.061404 -0.106743 -0.259055 0.298787 0.135296 -0.472033 0.040895 0.189338 -0.056788 -0.297895 -0.082864 0.422224 -0.261433 0.147117 -0.063206 0.113235 -0.251136 0.056049 0.118131 0.200694 -0.325573 -0.078354
only 0.268683 0.273741 0.106601 0.020101 0.419495 -0.400833 -0.053496 0.791883 0.214812 0.416661 0.184672 -0.097583 0.053463 -0.466605 0.308470 -0.037261 0.029832 0.052698 0.008788 0.135962 -0.175372 -0.112332 0.315056 0.150561 0.034981 -0.465213 -0.019191 0.176129 0.058310 -0.210364 -0.112831 -0.290815 -0.116532 0.353018 0.009800 -0.035995 -0.124549 -0.019778 0.105322 0.106974 0.135483 -0.314113 -0.211812 0.116955 0.200974 -0.069669 -0.146214 -0.033945 -0.040995 -0.276916 -0.162409 0.123133 -0.235314 0.108774 -0.105017 -0.366085 -0.065964 0.221342 0.168531 -0.072985 0.033111 -0.231233 0.309440 -0.082862 0.271640 0.179837 -0.098105 0.057707 0.277551 -0.002309 0.097993 0.426505 -0.085792 -0.216821 -0.315065 -0.078843 0.425978 -0.012436 0.065573 -0.112787 -0.269543 0.315090 0.146550 -0.491861 0.041382 0.196651 -0.088114 -0.320252 -0.063643 0.461348 -0.251290 0.147581 -0.073218 0.111369 -0.286525 0.041311 0.145840 0.229634 -0.330465 -0.056892
