724 100
the 0.266738 0.170537 0.249272 0.091310 0.304722 -0.204625 -0.069445 0.749875 0.088946 0.124086 0.104968 -0.088286 0.262599 -0.143790 0.239337 0.023107 -0.138238 0.069782 0.005618 0.161343 -0.316146 -0.060607 0.236955 0.134926 -0.011126 -0.290670 0.266023 0.278968 -0.118575 -0.204873 0.166015 -0.388783 -0.022121 0.129071 -0.064366 -0.003515 -0.092344 -0.077346 0.078395 0.019193 0.094761 -0.225945 -0.337006 0.067468 -0.108290 0.074087 -0.211167 -0.090965 0.024451 -0.268178 -0.130569 0.392624 -0.290467 -0.070296 -0.007633 -0.255521 0.157962 0.356672 0.030173 0.002417 -0.108285 -0.150708 0.024333 0.010234 0.151832 -0.109759 -0.149647 0.145442 0.334080 0.196436 -0.023989 0.356358 0.016866 -0.318381 -0.293098 -0.143625 0.165394 0.085801 0.140999 -0.090645 -0.273914 0.345822 -0.021477 -0.213617 0.017369 0.135676 -0.129295 -0.276659 -0.012590 0.427583 -0.425267 0.054521 -0.095568 0.053595 -0.249440 -0.071755 -0.174830 0.044590 -0.276819 0.043880
of 0.282827 0.157766 0.269586 0.104061 0.315651 -0.193598 -0.051622 0.731005 0.121717 0.135336 0.104424 -0.091790 0.280921 -0.157375 0.253553 0.047428 -0.140414 0.060085 0.020159 0.164696 -0.300253 -0.073417 0.226484 0.116000 -0.010126 -0.289738 0.266762 0.296765 -0.101750 -0.196683 0.160763 -0.390543 -0.036641 0.099136 -0.065931 -0.036452 -0.083956 -0.056190 0.065354 0.034591 0.076904 -0.205772 -0.357912 0.050633 -0.085462 0.066863 -0.218219 -0.099983 0.039088 -0.291581 -0.141976 0.368528 -0.298391 -0.062310 0.010084 -0.246615 0.168437 0.391167 0.018861 -0.017231 -0.112997 -0.141199 0.027624 0.023106 0.148215 -0.110803 -0.159542 0.134923 0.334266 0.183714 -0.030482 0.354736 -0.002281 -0.322955 -0.274111 -0.177855 0.167716 0.088560 0.163225 -0.087646 -0.253336 0.370718 -0.022276 -0.205058 0.025200 0.108397 -0.154703 -0.268543 -0.007391 0.432462 -0.429889 0.048725 -0.072262 0.053568 -0.240155 -0.083728 -0.182758 0.042300 -0.254931 0.042367
and 0.308819 0.130894 0.273413 0.099868 0.309808 -0.212467 -0.053742 0.694583 0.144808 0.172126 0.093593 -0.084597 0.283647 -0.182435 0.251030 0.072070 -0.116515 0.007389 0.014146 0.152544 -0.338791 -0.076278 0.232111 0.104777 0.008341 -0.269532 0.261339 0.282709 -0.111837 -0.238369 0.133107 -0.423210 -0.049546 0.112982 -0.042521 -0.071612 -0.072880 -0.049998 0.103438 0.069346 0.073096 -0.252121 -0.333831 0.044512 -0.095043 0.047041 -0.189031 -0.090881 0.029285 -0.318678 -0.135224 0.356496 -0.313728 -0.107547 0.035358 -0.265464 0.164194 0.429534 0.006016 -0.027832 -0.169840 -0.141980 0.058002 0.038525 0.137873 -0.060326 -0.196400 0.098688 0.361375 0.187136 -0.000566 0.358558 -0.009897 -0.330494 -0.240470 -0.161801 0.172324 0.096375 0.172908 -0.097346 -0.266076 0.390879 -0.000032 -0.213814 0.005116 0.093276 -0.180228 -0.296699 0.006310 0.434014 -0.417562 0.056955 -0.131951 0.050973 -0.252879 -0.107623 -0.122322 0.053954 -0.228898 0.034467
to 0.330783 0.115012 0.260302 0.103917 0.304756 -0.202432 -0.079775 0.740233 0.128812 0.176912 0.110494 -0.087180 0.275558 -0.164223 0.283651 0.065039 -0.126664 0.037004 0.038843 0.167683 -0.348995 -0.069653 0.259377 0.119327 -0.025159 -0.283611 0.279158 0.299064 -0.102430 -0.248162 0.158282 -0.393905 -0.076983 0.131312 -0.055370 -0.050851 -0.084316 -0.034791 0.097281 0.056297 0.049474 -0.208982 -0.335866 0.034189 -0.080950 0.053005 -0.203466 -0.093256 0.035925 -0.293229 -0.150153 0.314835 -0.301922 -0.077127 0.001146 -0.246407 0.137473 0.434724 0.033507 -0.064989 -0.160594 -0.157454 0.029786 0.005147 0.114234 -0.061632 -0.196655 0.119145 0.346133 0.201576 -0.016186 0.357477 -0.023140 -0.310576 -0.238855 -0.175019 0.215274 0.094512 0.170560 -0.069735 -0.275900 0.344145 0.013102 -0.223302 0.035501 0.082577 -0.179128 -0.312535 0.013143 0.420499 -0.416490 0.060937 -0.101627 0.049946 -0.245512 -0.081009 -0.146009 0.060531 -0.245923 0.014085
a 0.298537 0.138182 0.261677 0.100254 0.304870 -0.214974 -0.056290 0.740214 0.121992 0.165415 0.100404 -0.086224 0.284559 -0.172957 0.259440 0.061070 -0.121470 0.038769 0.021749 0.151930 -0.328546 -0.064350 0.242853 0.106702 -0.002869 -0.265404 0.272417 0.293517 -0.120791 -0.233219 0.133660 -0.404616 -0.035649 0.113632 -0.043397 -0.052614 -0.080870 -0.065252 0.087491 0.037933 0.081186 -0.232832 -0.348052 0.038754 -0.096679 0.060272 -0.204247 -0.093689 0.020681 -0.306542 -0.139044 0.363552 -0.313245 -0.095720 0.017303 -0.258222 0.163400 0.418054 0.028462 -0.034993 -0.156250 -0.140592 0.036206 0.030759 0.149262 -0.069653 -0.180050 0.118605 0.349276 0.198107 -0.008979 0.364463 -0.001149 -0.313421 -0.257006 -0.157453 0.188422 0.089144 0.178826 -0.095383 -0.259213 0.382872 0.003076 -0.224316 0.011642 0.106139 -0.168142 -0.297411 0.009300 0.430881 -0.429449 0.047577 -0.115712 0.058445 -0.262549 -0.081300 -0.151904 0.055313 -0.261783 0.039082
i 0.396183 0.081567 0.292503 0.135013 0.342365 -0.217308 -0.041901 0.689183 0.194973 0.239712 0.080764 -0.064746 0.292579 -0.227058 0.274437 0.116444 -0.123877 -0.035831 0.061862 0.149731 -0.404841 -0.064936 0.266064 0.070979 0.026989 -0.254978 0.279303 0.292381 -0.126721 -0.307790 0.088926 -0.479413 -0.092278 0.152417 -0.004091 -0.137042 -0.040521 -0.019827 0.124865 0.084983 0.041500 -0.262443 -0.328718 -0.009631 -0.104922 0.025363 -0.146298 -0.088812 0.021894 -0.391602 -0.139841 0.296570 -0.365536 -0.155000 0.079467 -0.282523 0.145487 0.550161 -0.010130 -0.103428 -0.271657 -0.148128 0.089550 0.032749 0.126905 0.022694 -0.276746 0.059303 0.393200 0.208897 0.043914 0.346612 -0.051927 -0.326710 -0.189542 -0.157496 0.230569 0.093504 0.215164 -0.075224 -0.258722 0.408136 0.062921 -0.227599 -0.009036 0.044266 -0.227236 -0.351559 0.040940 0.442377 -0.411543 0.086083 -0.205590 0.060540 -0.272744 -0.128445 -0.055566 0.070395 -0.217655 -0.001169
in 0.294645 0.156187 0.271464 0.110859 0.324204 -0.209823 -0.060550 0.759173 0.111169 0.159060 0.110881 -0.097655 0.271736 -0.166287 0.263056 0.060577 -0.133207 0.061892 0.022093 0.163070 -0.323306 -0.067004 0.237839 0.136380 -0.011306 -0.304923 0.267284 0.297527 -0.109248 -0.223173 0.157212 -0.398161 -0.035619 0.121095 -0.066801 -0.038903 -0.087048 -0.062897 0.077602 0.036655 0.076092 -0.217825 -0.345057 0.045855 -0.090704 0.070085 -0.219981 -0.101523 0.028082 -0.287918 -0.146879 0.357023 -0.291875 -0.071908 0.000935 -0.240828 0.142106 0.402366 0.031019 -0.030374 -0.128982 -0.147906 0.026485 0.015818 0.142526 -0.098635 -0.184264 0.142722 0.333687 0.187001 -0.030186 0.362456 -0.006284 -0.323624 -0.267098 -0.183917 0.188029 0.097847 0.164349 -0.091073 -0.272065 0.350045 -0.015337 -0.212473 0.023204 0.113023 -0.161954 -0.299806 0.004557 0.438417 -0.435384 0.055494 -0.086079 0.042477 -0.255864 -0.081267 -0.177365 0.056911 -0.259779 0.028621
was 0.321930 0.102510 0.271792 0.114930 0.327191 -0.197240 -0.030318 0.621130 0.160057 0.202796 0.078108 -0.076400 0.302318 -0.210194 0.245510 0.074028 -0.120922 -0.046369 0.026003 0.153320 -0.334075 -0.075798 0.210880 0.059806 0.041057 -0.224965 0.242422 0.269977 -0.117718 -0.248819 0.095366 -0.446041 -0.031106 0.115001 0.012492 -0.110433 -0.053531 -0.058860 0.109906 0.086046 0.058817 -0.248785 -0.322212 0.015575 -0.095910 0.026697 -0.148006 -0.088176 0.011885 -0.367187 -0.127658 0.350480 -0.339540 -0.137861 0.084655 -0.273134 0.170742 0.450711 -0.025772 -0.042294 -0.209316 -0.106476 0.075618 0.050151 0.147700 -0.035596 -0.225869 0.070789 0.366856 0.158128 0.042747 0.339834 -0.010914 -0.323924 -0.192710 -0.164176 0.187736 0.092332 0.190107 -0.089331 -0.234832 0.419770 0.010300 -0.204024 -0.038931 0.056174 -0.202858 -0.316613 0.022899 0.405153 -0.386449 0.068207 -0.185359 0.073057 -0.273818 -0.117779 -0.069515 0.031817 -0.212520 0.016574
that 0.327673 0.110521 0.262122 0.117792 0.313368 -0.204385 -0.051851 0.681459 0.151330 0.200607 0.086141 -0.085029 0.287677 -0.177172 0.258148 0.069656 -0.124730 -0.006471 0.042249 0.159817 -0.356298 -0.062665 0.245935 0.093684 0.010965 -0.259316 0.257874 0.269535 -0.114992 -0.257670 0.116895 -0.428824 -0.065209 0.128851 -0.011954 -0.082046 -0.068246 -0.029636 0.106457 0.068031 0.046002 -0.244924 -0.329283 0.025439 -0.089628 0.036730 -0.167694 -0.092218 0.031853 -0.350153 -0.143704 0.335123 -0.331711 -0.123239 0.049224 -0.262293 0.151917 0.452720 0.004115 -0.064078 -0.204098 -0.132600 0.070718 0.014730 0.146864 -0.035301 -0.230977 0.079450 0.352933 0.187624 0.024193 0.340010 -0.024854 -0.305271 -0.210464 -0.168319 0.198056 0.093138 0.179290 -0.074039 -0.242851 0.375987 0.027089 -0.201373 0.002082 0.080664 -0.189849 -0.308639 0.019173 0.414966 -0.404373 0.067298 -0.155714 0.057558 -0.253736 -0.110230 -0.092210 0.047252 -0.222962 0.016746
he 0.371540 0.083858 0.283382 0.126409 0.328937 -0.211917 -0.037266 0.670768 0.176639 0.226733 0.089975 -0.074534 0.300750 -0.215989 0.266455 0.082440 -0.122541 -0.039468 0.068966 0.165493 -0.382153 -0.072957 0.233377 0.063460 0.047407 -0.239308 0.263004 0.282978 -0.139235 -0.290743 0.085773 -0.470925 -0.073250 0.127879 0.004377 -0.118429 -0.044938 -0.035400 0.129891 0.087561 0.028241 -0.261090 -0.317012 0.014832 -0.108558 0.020455 -0.149098 -0.082110 0.022377 -0.386443 -0.147410 0.325169 -0.364153 -0.157634 0.081427 -0.293646 0.160366 0.508128 -0.015811 -0.080813 -0.255200 -0.128681 0.076430 0.035002 0.142292 -0.013079 -0.259996 0.062000 0.387244 0.181929 0.048550 0.362354 -0.034457 -0.332039 -0.196411 -0.169722 0.204723 0.094519 0.196765 -0.082317 -0.242666 0.428611 0.027680 -0.217334 -0.036131 0.068528 -0.225593 -0.331987 0.034138 0.433301 -0.406435 0.078232 -0.197012 0.068909 -0.265063 -0.120214 -0.059455 0.050114 -0.221246 0.013712
it 0.346829 0.106895 0.273259 0.112957 0.318838 -0.220453 -0.054700 0.700210 0.162678 0.208828 0.089262 -0.080755 0.270936 -0.189770 0.271740 0.088428 -0.127574 -0.008059 0.063426 0.158882 -0.371763 -0.070414 0.236576 0.078329 0.003427 -0.251295 0.267241 0.286435 -0.111770 -0.262286 0.111743 -0.429702 -0.071744 0.132115 -0.014752 -0.088973 -0.067979 -0.030666 0.108442 0.077333 0.041640 -0.236623 -0.324429 0.020996 -0.100430 0.046945 -0.170032 -0.084617 0.022987 -0.352365 -0.147572 0.317647 -0.343668 -0.119197 0.051796 -0.261172 0.141425 0.479263 0.013628 -0.084338 -0.206581 -0.138343 0.064471 0.023898 0.133961 -0.026235 -0.231871 0.088436 0.363370 0.194291 0.020814 0.350808 -0.032682 -0.316840 -0.207721 -0.168597 0.210878 0.083433 0.193451 -0.073940 -0.245679 0.386304 0.038565 -0.212394 -0.003231 0.070214 -0.207223 -0.323373 0.033619 0.423415 -0.408195 0.074258 -0.162603 0.053021 -0.257138 -0.095478 -0.094860 0.055423 -0.236864 0.007351
you 0.382865 0.089277 0.255396 0.131781 0.320035 -0.233893 -0.077703 0.813290 0.141246 0.195695 0.107888 -0.107829 0.246876 -0.173612 0.308750 0.112055 -0.140459 0.049413 0.084381 0.148692 -0.399738 -0.054769 0.303304 0.136341 -0.036913 -0.296584 0.276331 0.314120 -0.120976 -0.277127 0.155426 -0.402053 -0.132898 0.149079 -0.058100 -0.075872 -0.092242 -0.012614 0.078825 0.036830 0.023793 -0.203419 -0.353901 -0.003151 -0.085445 0.069894 -0.196180 -0.110068 0.039885 -0.292216 -0.189986 0.255660 -0.301432 -0.063910 -0.014736 -0.254723 0.090341 0.511337 0.043676 -0.134088 -0.196559 -0.186002 0.007839 -0.008244 0.095114 0.000253 -0.253735 0.103316 0.355625 0.229856 -0.038237 0.361677 -0.060133 -0.302886 -0.213744 -0.168435 0.249688 0.093236 0.198000 -0.055264 -0.298072 0.342102 0.054904 -0.236578 0.086805 0.074348 -0.200844 -0.339480 0.032533 0.411318 -0.453061 0.079163 -0.098617 0.022056 -0.218037 -0.050412 -0.143361 0.100000 -0.261187 -0.016146
my 0.327942 0.120055 0.278802 0.118574 0.327052 -0.224241 -0.048132 0.724170 0.144723 0.196225 0.092043 -0.077683 0.298287 -0.184930 0.268459 0.070151 -0.123238 0.017252 0.028594 0.166506 -0.353148 -0.071464 0.239800 0.090646 0.017641 -0.271143 0.281102 0.285773 -0.118286 -0.269340 0.118946 -0.446961 -0.058240 0.131550 -0.030018 -0.069402 -0.077834 -0.039830 0.099037 0.064096 0.072120 -0.255281 -0.346438 0.037478 -0.098056 0.040840 -0.185999 -0.086285 0.026351 -0.359352 -0.140044 0.354191 -0.337819 -0.116805 0.043752 -0.271614 0.160283 0.458457 0.003422 -0.049677 -0.194313 -0.141209 0.059155 0.027309 0.139950 -0.047388 -0.226556 0.091142 0.365131 0.187302 0.012266 0.346552 -0.014122 -0.324752 -0.240906 -0.174782 0.196493 0.098299 0.172777 -0.081983 -0.280784 0.392072 0.022142 -0.213505 -0.007071 0.077419 -0.192335 -0.321383 0.012521 0.444921 -0.427980 0.074409 -0.151581 0.058255 -0.263910 -0.096971 -0.113556 0.055893 -0.238972 0.028176
with 0.288098 0.145389 0.245059 0.090979 0.287738 -0.199556 -0.092988 0.806808 0.096759 0.107603 0.119310 -0.111731 0.247155 -0.126112 0.264004 0.042325 -0.136484 0.112167 0.033326 0.166860 -0.319312 -0.060938 0.266358 0.159112 -0.065583 -0.317132 0.285362 0.315235 -0.092489 -0.193340 0.208884 -0.346022 -0.060949 0.108500 -0.086771 0.004411 -0.118795 -0.054939 0.058383 0.019301 0.072105 -0.167368 -0.348164 0.054906 -0.086492 0.092953 -0.242267 -0.112884 0.053155 -0.222572 -0.164274 0.337713 -0.269495 -0.027911 -0.058035 -0.228869 0.131234 0.375100 0.057786 -0.044905 -0.079194 -0.154207 -0.019799 -0.001957 0.103202 -0.120660 -0.143530 0.167256 0.302368 0.204449 -0.060604 0.364348 -0.006459 -0.299304 -0.285512 -0.176269 0.191244 0.089020 0.145805 -0.074019 -0.274752 0.301040 -0.012609 -0.219989 0.066422 0.127700 -0.134944 -0.269945 -0.013346 0.398722 -0.435338 0.045033 -0.026025 0.032195 -0.229442 -0.049012 -0.229772 0.061322 -0.284883 0.025936
his 0.332306 0.135236 0.274870 0.105891 0.323358 -0.214845 -0.035312 0.701997 0.140798 0.178640 0.078601 -0.078755 0.302924 -0.197351 0.257303 0.061264 -0.123690 0.006798 0.027194 0.150964 -0.344074 -0.057858 0.234819 0.078005 0.032781 -0.266510 0.279200 0.280360 -0.123071 -0.259930 0.118844 -0.449053 -0.031659 0.125866 -0.016107 -0.082195 -0.070084 -0.046684 0.103582 0.076484 0.075714 -0.257231 -0.342155 0.053197 -0.100612 0.032085 -0.195850 -0.080095 0.031054 -0.357158 -0.129661 0.379991 -0.333617 -0.128706 0.048951 -0.282374 0.170151 0.436033 0.000688 -0.028127 -0.187288 -0.125935 0.055924 0.040987 0.142292 -0.048684 -0.213703 0.083662 0.370958 0.172126 0.030084 0.361129 -0.003165 -0.326311 -0.238536 -0.172904 0.181796 0.089892 0.185652 -0.092769 -0.267730 0.412730 0.008966 -0.213827 -0.028300 0.085421 -0.178746 -0.306919 0.007458 0.447980 -0.417296 0.067050 -0.157880 0.063748 -0.268407 -0.112888 -0.102763 0.041420 -0.248026 0.041358
had 0.314482 0.101799 0.266638 0.107802 0.323585 -0.195776 -0.052407 0.672939 0.154430 0.203154 0.103251 -0.078678 0.301363 -0.179017 0.258255 0.067058 -0.130499 -0.006019 0.034406 0.177716 -0.344154 -0.061432 0.224732 0.078537 0.032751 -0.245132 0.273076 0.293137 -0.108686 -0.251320 0.126229 -0.439231 -0.046990 0.124617 -0.013339 -0.088047 -0.045233 -0.046845 0.104539 0.078668 0.055121 -0.227830 -0.336275 0.018568 -0.105403 0.038825 -0.162224 -0.090229 0.030048 -0.344141 -0.127403 0.346050 -0.328216 -0.121180 0.056957 -0.272224 0.171637 0.436999 -0.004538 -0.055612 -0.193653 -0.115048 0.068490 0.036947 0.157757 -0.052390 -0.212236 0.089108 0.379766 0.172250 0.012913 0.352879 -0.033529 -0.329234 -0.217461 -0.176065 0.189486 0.095793 0.170489 -0.085903 -0.253462 0.383626 0.015751 -0.223083 -0.016955 0.073525 -0.193216 -0.318637 0.015039 0.416368 -0.391795 0.068295 -0.162715 0.074170 -0.268120 -0.107845 -0.109141 0.039519 -0.225774 0.022016
for 0.317549 0.130726 0.267666 0.117110 0.312826 -0.207660 -0.079541 0.781615 0.126031 0.159609 0.115150 -0.100344 0.280371 -0.141664 0.285805 0.053461 -0.134539 0.065033 0.046483 0.176262 -0.356531 -0.069775 0.273710 0.137650 -0.036971 -0.297964 0.290863 0.316703 -0.112598 -0.230919 0.171512 -0.383991 -0.077307 0.118870 -0.052766 -0.044175 -0.092581 -0.045416 0.072677 0.028289 0.054436 -0.200797 -0.362070 0.028942 -0.094162 0.067164 -0.213681 -0.110360 0.054389 -0.293644 -0.159733 0.339218 -0.303811 -0.061319 -0.006757 -0.252127 0.151424 0.434336 0.033871 -0.070205 -0.140069 -0.138748 0.020514 0.004150 0.127801 -0.083992 -0.198758 0.136177 0.335066 0.203404 -0.025776 0.370945 -0.014771 -0.317163 -0.258817 -0.172717 0.202857 0.099207 0.177022 -0.072556 -0.276733 0.360196 0.009386 -0.216756 0.052189 0.103517 -0.167838 -0.297644 0.003485 0.415688 -0.445906 0.065553 -0.082866 0.058569 -0.249147 -0.069616 -0.179949 0.063905 -0.276327 0.023686
as 0.321529 0.117309 0.257603 0.108991 0.299321 -0.213216 -0.049964 0.713740 0.129261 0.161852 0.105559 -0.093554 0.265019 -0.163676 0.259959 0.076343 -0.128308 0.033233 0.049331 0.154345 -0.341196 -0.064099 0.242101 0.106651 -0.005375 -0.267127 0.260010 0.297205 -0.100135 -0.233569 0.152976 -0.392992 -0.072939 0.122220 -0.042169 -0.071831 -0.078111 -0.044171 0.091440 0.055339 0.052756 -0.220353 -0.345831 0.028114 -0.087741 0.059896 -0.196929 -0.099953 0.026517 -0.287701 -0.146576 0.319576 -0.301123 -0.087988 0.015448 -0.260097 0.144460 0.431710 0.034787 -0.075338 -0.162981 -0.140240 0.027428 0.009449 0.131311 -0.051336 -0.206094 0.114903 0.345869 0.198001 -0.012233 0.353118 -0.024558 -0.301912 -0.241046 -0.158001 0.198012 0.098164 0.179253 -0.077510 -0.262132 0.362481 0.015281 -0.218136 0.035373 0.096298 -0.180425 -0.293838 0.020942 0.408886 -0.417061 0.045437 -0.105697 0.041640 -0.236284 -0.085721 -0.139293 0.062557 -0.243521 0.021898
this 0.296511 0.136594 0.230508 0.111697 0.284655 -0.215632 -0.104277 0.844214 0.080897 0.118311 0.131518 -0.117098 0.229821 -0.100205 0.289841 0.033869 -0.148236 0.124237 0.060630 0.169317 -0.336651 -0.064401 0.296109 0.166016 -0.092730 -0.327611 0.291885 0.313194 -0.097875 -0.191343 0.197335 -0.316087 -0.077486 0.129981 -0.099121 0.013071 -0.122226 -0.041362 0.048420 -0.003084 0.068331 -0.165548 -0.355879 0.041785 -0.085668 0.096896 -0.243503 -0.102892 0.051115 -0.204636 -0.167231 0.324986 -0.258291 -0.003845 -0.082867 -0.235010 0.106867 0.384786 0.079942 -0.071211 -0.068023 -0.163973 -0.031036 -0.035771 0.112997 -0.098642 -0.162128 0.182955 0.284199 0.229483 -0.064795 0.358657 -0.022405 -0.280466 -0.286174 -0.160635 0.217007 0.098652 0.164311 -0.067355 -0.287080 0.297211 0.007931 -0.224499 0.103477 0.119599 -0.129282 -0.278856 0.001692 0.386252 -0.444548 0.056311 -0.014796 0.035436 -0.201366 -0.026439 -0.240126 0.081843 -0.306756 0.020842
but 0.325971 0.110893 0.258852 0.109578 0.307837 -0.208977 -0.052163 0.674880 0.152076 0.195245 0.088135 -0.075575 0.278211 -0.167770 0.252716 0.077256 -0.119127 0.006792 0.036329 0.158729 -0.351276 -0.068273 0.237084 0.084869 0.007487 -0.256680 0.258420 0.280950 -0.113360 -0.239712 0.114174 -0.414494 -0.071057 0.117804 -0.018618 -0.085780 -0.059959 -0.032280 0.095228 0.069887 0.044614 -0.225624 -0.329663 0.024773 -0.096897 0.044998 -0.159915 -0.082321 0.028280 -0.333171 -0.135683 0.317764 -0.314848 -0.105409 0.038789 -0.252345 0.143354 0.445364 0.006639 -0.068780 -0.190131 -0.134339 0.066028 0.032371 0.134920 -0.035922 -0.217770 0.082281 0.351303 0.188013 0.008692 0.336489 -0.022533 -0.309076 -0.211729 -0.169978 0.198540 0.096666 0.177998 -0.076436 -0.245684 0.371377 0.022752 -0.198883 0.008339 0.070304 -0.179159 -0.298977 0.017286 0.408322 -0.401672 0.066506 -0.145885 0.053360 -0.248990 -0.092479 -0.092392 0.055558 -0.232135 0.009828
at 0.309072 0.120495 0.265118 0.103720 0.310023 -0.200926 -0.071513 0.726725 0.130873 0.159038 0.105495 -0.093142 0.284259 -0.153644 0.268940 0.067424 -0.128956 0.040402 0.026786 0.169705 -0.345086 -0.076406 0.243730 0.116923 -0.010270 -0.294856 0.270965 0.300624 -0.102486 -0.233095 0.154533 -0.401299 -0.054568 0.114131 -0.048033 -0.040874 -0.077927 -0.056471 0.077156 0.034530 0.055010 -0.220797 -0.340013 0.043333 -0.095396 0.061642 -0.192031 -0.103415 0.041840 -0.299753 -0.148174 0.355644 -0.311168 -0.082681 0.009233 -0.264979 0.140937 0.421347 0.019443 -0.050373 -0.148159 -0.141591 0.041885 0.008524 0.141192 -0.082850 -0.183390 0.127713 0.337499 0.182523 -0.009488 0.355148 -0.007902 -0.327548 -0.247940 -0.177664 0.200362 0.087854 0.161095 -0.078507 -0.273733 0.351507 0.000042 -0.202799 0.019105 0.112398 -0.174929 -0.296645 -0.000572 0.433797 -0.430321 0.072413 -0.096288 0.052501 -0.253845 -0.083104 -0.155759 0.059526 -0.260894 0.033138
is 0.315930 0.101693 0.256933 0.125636 0.307343 -0.210576 -0.105298 0.781569 0.113137 0.151804 0.121744 -0.110194 0.256546 -0.142837 0.295999 0.066929 -0.140433 0.056457 0.067749 0.169798 -0.363429 -0.082414 0.279801 0.136853 -0.053547 -0.301999 0.278485 0.310863 -0.096208 -0.213532 0.161547 -0.366087 -0.083654 0.119396 -0.076129 -0.028362 -0.101817 -0.040947 0.070909 0.027621 0.051070 -0.176775 -0.352145 0.032679 -0.103834 0.076461 -0.216096 -0.095997 0.054167 -0.266543 -0.168287 0.312349 -0.297794 -0.043778 -0.025553 -0.243956 0.109392 0.421181 0.037901 -0.095232 -0.130761 -0.134942 0.000792 -0.017286 0.126343 -0.065946 -0.193275 0.151497 0.316138 0.202337 -0.031667 0.365326 -0.026871 -0.285059 -0.252743 -0.167130 0.233735 0.084619 0.180722 -0.062811 -0.274015 0.326814 0.028574 -0.219691 0.052437 0.077332 -0.169462 -0.306114 0.007351 0.382606 -0.438383 0.066101 -0.057754 0.053815 -0.224224 -0.049500 -0.173583 0.066289 -0.273716 0.000882
on 0.299819 0.133500 0.265577 0.096958 0.316666 -0.209410 -0.070839 0.756338 0.126007 0.139525 0.118433 -0.094428 0.276736 -0.154818 0.273412 0.054273 -0.124182 0.064001 0.028109 0.167842 -0.332605 -0.065874 0.251690 0.129102 -0.010714 -0.304716 0.275313 0.293800 -0.103322 -0.216117 0.168259 -0.393282 -0.042243 0.123791 -0.060620 -0.035616 -0.092855 -0.051518 0.075277 0.040532 0.066138 -0.208205 -0.352967 0.045617 -0.100252 0.062171 -0.207352 -0.112897 0.045279 -0.279901 -0.154125 0.358941 -0.292733 -0.072957 -0.004332 -0.254503 0.147975 0.393778 0.036637 -0.038133 -0.129588 -0.132258 0.018924 0.020191 0.128697 -0.093384 -0.181141 0.140549 0.336814 0.189579 -0.017858 0.352530 -0.003977 -0.319047 -0.266989 -0.172680 0.187162 0.099022 0.163222 -0.085074 -0.274812 0.358667 -0.018526 -0.211621 0.029577 0.123204 -0.155926 -0.288410 0.009442 0.431839 -0.435363 0.065319 -0.079470 0.051097 -0.248949 -0.067708 -0.177859 0.062944 -0.257886 0.028506
s 0.328116 0.097332 0.280679 0.139275 0.325611 -0.201680 -0.070714 0.741981 0.135749 0.161602 0.111035 -0.105880 0.302241 -0.152931 0.263200 0.052801 -0.143328 0.014534 0.051196 0.192900 -0.354731 -0.074319 0.269188 0.119187 -0.006345 -0.262997 0.276191 0.273093 -0.125403 -0.218482 0.135508 -0.390798 -0.066729 0.112540 -0.034545 -0.049699 -0.083802 -0.037142 0.072852 0.031410 0.055318 -0.197828 -0.350126 0.041343 -0.108663 0.049205 -0.205079 -0.092418 0.055683 -0.317616 -0.157909 0.349934 -0.320761 -0.098843 0.011049 -0.289082 0.166076 0.451304 0.005812 -0.068443 -0.178042 -0.106880 0.033952 -0.003363 0.163132 -0.056702 -0.210679 0.122766 0.350581 0.192651 0.013968 0.368217 -0.020667 -0.296873 -0.237559 -0.172897 0.215649 0.079903 0.187588 -0.060624 -0.265706 0.391490 0.028274 -0.208527 0.010126 0.064262 -0.174108 -0.303423 0.022302 0.398346 -0.426100 0.063144 -0.111502 0.088203 -0.251937 -0.089791 -0.129297 0.041290 -0.265561 0.029228
by 0.290677 0.140986 0.254957 0.108229 0.307097 -0.201024 -0.071951 0.774625 0.108374 0.135640 0.106617 -0.114677 0.256856 -0.143633 0.269298 0.052333 -0.133011 0.078122 0.039238 0.165841 -0.320338 -0.067768 0.253513 0.141307 -0.036288 -0.304603 0.283508 0.309738 -0.092325 -0.215090 0.176456 -0.374397 -0.063792 0.122199 -0.070841 -0.022892 -0.090114 -0.053779 0.058278 0.032716 0.071131 -0.206757 -0.360086 0.044994 -0.087631 0.074476 -0.225318 -0.104940 0.039880 -0.258312 -0.153696 0.341022 -0.289996 -0.059743 -0.014943 -0.240019 0.136484 0.394416 0.044664 -0.039054 -0.112509 -0.149612 0.004240 0.009677 0.139210 -0.098728 -0.167182 0.156597 0.321771 0.188860 -0.040142 0.366877 -0.005346 -0.313629 -0.274409 -0.177508 0.187217 0.099405 0.160908 -0.074452 -0.275244 0.345022 -0.002710 -0.213856 0.042933 0.118952 -0.158739 -0.290690 -0.008413 0.411107 -0.428289 0.063283 -0.064962 0.042113 -0.232819 -0.064361 -0.184293 0.063914 -0.268985 0.035627
be 0.336661 0.114406 0.268765 0.112316 0.316825 -0.207988 -0.060377 0.756784 0.147421 0.198117 0.097343 -0.085666 0.250869 -0.166237 0.279994 0.075629 -0.139595 0.041170 0.040002 0.156088 -0.369682 -0.068877 0.261916 0.115541 -0.022419 -0.288786 0.267344 0.292394 -0.126712 -0.260741 0.129568 -0.403642 -0.102029 0.129579 -0.051885 -0.061710 -0.081669 -0.031221 0.087981 0.049732 0.052565 -0.234973 -0.348059 0.013813 -0.095478 0.068376 -0.183415 -0.100883 0.041647 -0.303841 -0.147693 0.299527 -0.310373 -0.089935 0.002904 -0.245050 0.122951 0.481498 0.020553 -0.083744 -0.189218 -0.162963 0.041073 0.004769 0.125930 -0.036225 -0.227363 0.116312 0.361585 0.219099 -0.007800 0.353530 -0.047027 -0.319185 -0.216764 -0.162620 0.208113 0.095002 0.173172 -0.063389 -0.273779 0.352492 0.035138 -0.233953 0.047432 0.087635 -0.179932 -0.334579 0.020002 0.429091 -0.435095 0.067294 -0.124164 0.033184 -0.232966 -0.081338 -0.128053 0.072031 -0.242383 -0.001693
have 0.356986 0.082560 0.256361 0.120395 0.308166 -0.204687 -0.068164 0.707175 0.149975 0.215264 0.101352 -0.073536 0.267462 -0.178306 0.284115 0.087142 -0.132746 0.001714 0.051684 0.160783 -0.381353 -0.059433 0.247697 0.099985 -0.009086 -0.255266 0.270381 0.296705 -0.112534 -0.269765 0.125261 -0.414332 -0.091725 0.140010 -0.030864 -0.089524 -0.054633 -0.023691 0.102856 0.061763 0.044423 -0.220077 -0.346038 0.003274 -0.102111 0.044655 -0.175693 -0.096160 0.039166 -0.323938 -0.151724 0.283481 -0.310204 -0.113609 0.017422 -0.255841 0.124267 0.485332 0.009333 -0.094248 -0.215252 -0.150155 0.039529 0.012030 0.127224 -0.021954 -0.247678 0.097177 0.372304 0.207972 -0.002014 0.351778 -0.058733 -0.301771 -0.193082 -0.172440 0.210864 0.092622 0.174447 -0.055233 -0.271293 0.351984 0.049257 -0.228166 0.028114 0.072517 -0.193437 -0.332630 0.025693 0.410743 -0.404729 0.052463 -0.146648 0.053807 -0.242312 -0.102068 -0.119106 0.062695 -0.206014 0.007384
not 0.374785 0.093671 0.269979 0.119806 0.327913 -0.228920 -0.081810 0.793195 0.139168 0.192245 0.113201 -0.100701 0.285199 -0.186781 0.300544 0.101264 -0.144606 0.036679 0.072797 0.175559 -0.395598 -0.081518 0.285560 0.120964 -0.018853 -0.306281 0.291169 0.307811 -0.116097 -0.280637 0.160556 -0.434563 -0.099267 0.144117 -0.046496 -0.076379 -0.079395 -0.018791 0.099934 0.056045 0.039560 -0.221648 -0.374471 0.023691 -0.101232 0.061022 -0.187128 -0.100116 0.047293 -0.326088 -0.167377 0.299753 -0.325400 -0.081638 0.011318 -0.263981 0.120426 0.497565 0.033298 -0.107368 -0.198311 -0.159137 0.027158 0.012560 0.110028 -0.020524 -0.240976 0.104161 0.366560 0.206899 -0.002932 0.363334 -0.041053 -0.323926 -0.228302 -0.167092 0.233457 0.091101 0.191384 -0.060956 -0.294376 0.374789 0.032756 -0.220512 0.051691 0.072853 -0.201545 -0.340992 0.030824 0.419858 -0.436885 0.069270 -0.131168 0.047987 -0.244831 -0.087149 -0.126869 0.078458 -0.264437 0.001604
or 0.269258 0.176063 0.228658 0.092720 0.290053 -0.237697 -0.148990 1.011799 0.040301 0.069062 0.174472 -0.162193 0.231064 -0.058068 0.331017 0.029282 -0.174755 0.219014 0.058163 0.186506 -0.330324 -0.058941 0.325390 0.230216 -0.152193 -0.392157 0.338600 0.376290 -0.073398 -0.154308 0.280115 -0.270255 -0.091065 0.121480 -0.173825 0.088509 -0.170120 -0.048834 -0.000014 -0.043539 0.065461 -0.113564 -0.420549 0.071546 -0.097975 0.156576 -0.314527 -0.130513 0.092149 -0.131452 -0.191133 0.347438 -0.230213 0.070923 -0.166833 -0.218665 0.099008 0.351972 0.139522 -0.064157 0.022942 -0.183924 -0.098229 -0.068583 0.104915 -0.171429 -0.121915 0.269927 0.270192 0.254527 -0.147624 0.407126 -0.012600 -0.283069 -0.361481 -0.189240 0.230830 0.093352 0.143403 -0.064361 -0.325556 0.262438 -0.029179 -0.233538 0.168718 0.167757 -0.096423 -0.271788 -0.007493 0.403587 -0.504164 0.053683 0.083379 0.019204 -0.211844 0.018384 -0.354927 0.092077 -0.368938 0.026604
said 0.349518 0.039846 0.260711 0.151334 0.315627 -0.213203 -0.038553 0.646598 0.180912 0.198948 0.073110 -0.096681 0.264641 -0.203405 0.261286 0.091684 -0.096395 -0.072721 0.080744 0.163350 -0.370704 -0.071489 0.256516 0.088528 0.025130 -0.204622 0.233848 0.277393 -0.122718 -0.270418 0.076357 -0.413835 -0.087262 0.140493 -0.002525 -0.117786 -0.050188 -0.035085 0.100313 0.055032 0.023009 -0.234073 -0.298022 -0.020911 -0.112748 0.025093 -0.151128 -0.111120 0.033794 -0.339439 -0.162234 0.276223 -0.341641 -0.127734 0.052564 -0.291394 0.137201 0.498181 -0.021677 -0.106834 -0.257083 -0.099926 0.047023 0.011334 0.142592 0.030142 -0.270646 0.056239 0.346984 0.175073 0.035705 0.356772 -0.062743 -0.307123 -0.153177 -0.143830 0.194273 0.102633 0.205396 -0.047847 -0.228291 0.412008 0.062150 -0.203081 -0.002026 0.045476 -0.229941 -0.322751 0.027206 0.367562 -0.367509 0.072063 -0.168820 0.062869 -0.255530 -0.115857 -0.069245 0.054808 -0.179356 0.003250
utterson 0.362347 0.051735 0.298784 0.154944 0.339255 -0.225691 -0.057233 0.725673 0.177067 0.179804 0.068128 -0.103779 0.274219 -0.168097 0.245345 0.056059 -0.121190 -0.043780 0.106091 0.173519 -0.407632 -0.073540 0.271383 0.090183 0.004603 -0.255164 0.279509 0.266861 -0.132785 -0.264848 0.128481 -0.426394 -0.113904 0.105365 -0.015509 -0.106276 -0.058659 -0.024497 0.105703 0.058816 0.019540 -0.245653 -0.309132 0.003303 -0.088831 0.022662 -0.190673 -0.105416 0.052120 -0.363706 -0.169665 0.342414 -0.363008 -0.142377 0.058045 -0.304168 0.150570 0.521887 -0.021875 -0.131174 -0.239784 -0.104962 0.015498 0.006833 0.165121 0.019924 -0.266591 0.082479 0.352666 0.162994 0.022349 0.399106 -0.015688 -0.304027 -0.186164 -0.142421 0.202888 0.088815 0.239769 -0.064604 -0.237130 0.410210 0.073185 -0.223729 -0.003861 0.039451 -0.205514 -0.339561 0.021693 0.410415 -0.413197 0.059973 -0.146280 0.069908 -0.243630 -0.114545 -0.070637 0.061927 -0.249666 0.013462
mr 0.359301 0.047608 0.258499 0.179512 0.310239 -0.177928 -0.060876 0.615930 0.142957 0.166089 0.066940 -0.114736 0.316839 -0.194696 0.269097 0.068319 -0.104592 -0.051567 0.091358 0.183549 -0.353609 -0.042607 0.247842 0.095593 -0.012630 -0.192088 0.246199 0.279751 -0.138763 -0.214276 0.074165 -0.380550 -0.049071 0.158605 0.005396 -0.091027 -0.040573 -0.029849 0.051379 0.027340 0.021751 -0.193441 -0.326317 -0.012803 -0.119731 0.006801 -0.169268 -0.105509 0.043688 -0.323986 -0.156947 0.313032 -0.334242 -0.094806 0.049903 -0.297047 0.173867 0.474391 -0.009579 -0.088106 -0.207077 -0.096881 0.025353 -0.014160 0.157746 -0.012977 -0.244555 0.054997 0.299806 0.194064 0.050260 0.331727 -0.069973 -0.266260 -0.198356 -0.151883 0.179856 0.099968 0.199316 -0.031398 -0.219499 0.416010 0.043243 -0.144943 -0.014095 0.019512 -0.228027 -0.300303 0.017549 0.347060 -0.379379 0.090009 -0.143494 0.107949 -0.243132 -0.081829 -0.100434 0.018030 -0.222720 0.036283
me 0.325051 0.102726 0.251746 0.105851 0.294127 -0.202633 -0.053294 0.688091 0.134323 0.186244 0.093391 -0.079405 0.261089 -0.175641 0.264816 0.080961 -0.119937 0.012974 0.032735 0.145620 -0.348274 -0.058908 0.245667 0.092717 -0.007446 -0.263789 0.253271 0.276629 -0.103457 -0.250321 0.123498 -0.396669 -0.069186 0.125536 -0.025518 -0.072316 -0.063336 -0.028656 0.091434 0.064677 0.051093 -0.225261 -0.325036 0.022683 -0.086628 0.055873 -0.166552 -0.092637 0.024179 -0.307221 -0.141231 0.295226 -0.306313 -0.088910 0.026478 -0.244064 0.131287 0.436351 0.018843 -0.069757 -0.177623 -0.142889 0.038910 0.016014 0.118011 -0.031150 -0.208830 0.087212 0.340695 0.184633 -0.002336 0.332446 -0.030002 -0.295568 -0.218680 -0.151885 0.198578 0.080805 0.170281 -0.063764 -0.257477 0.347349 0.033175 -0.203351 0.016867 0.075467 -0.183706 -0.297576 0.017510 0.393624 -0.403288 0.065005 -0.138048 0.042347 -0.227697 -0.085432 -0.109961 0.067091 -0.233182 0.012026
from 0.297417 0.127077 0.258286 0.102837 0.306515 -0.204529 -0.058111 0.749655 0.116829 0.154061 0.102688 -0.102154 0.265933 -0.149606 0.268607 0.062826 -0.124392 0.048348 0.035234 0.166453 -0.338003 -0.072846 0.242732 0.116179 -0.024147 -0.296890 0.270896 0.302472 -0.098751 -0.233150 0.155272 -0.391892 -0.061488 0.115322 -0.057288 -0.038606 -0.087815 -0.046792 0.085676 0.046160 0.063526 -0.221255 -0.345762 0.032814 -0.086260 0.060698 -0.211095 -0.096468 0.044234 -0.294701 -0.150264 0.339582 -0.305980 -0.078025 0.002900 -0.242435 0.134759 0.408940 0.031617 -0.044102 -0.141068 -0.149528 0.029272 0.013343 0.136178 -0.071847 -0.189634 0.136486 0.337149 0.197486 -0.018072 0.354345 -0.018440 -0.315974 -0.251819 -0.177921 0.198060 0.094542 0.167296 -0.075977 -0.262505 0.347533 -0.003246 -0.215579 0.036759 0.109916 -0.168776 -0.296934 0.009163 0.417949 -0.421117 0.052340 -0.095252 0.050042 -0.239385 -0.081907 -0.166190 0.053908 -0.257469 0.031996
him 0.321316 0.099946 0.259022 0.103579 0.294303 -0.196354 -0.050825 0.681185 0.137935 0.180262 0.089188 -0.075131 0.271097 -0.167714 0.252809 0.068920 -0.126778 0.012960 0.046847 0.144011 -0.345591 -0.063256 0.242652 0.092877 -0.000932 -0.253576 0.248956 0.275827 -0.106387 -0.234998 0.118628 -0.398156 -0.061420 0.124392 -0.036806 -0.071358 -0.065131 -0.039612 0.091265 0.063743 0.057388 -0.218361 -0.318140 0.018964 -0.085330 0.040166 -0.171450 -0.085246 0.034905 -0.308755 -0.140085 0.305650 -0.296204 -0.096996 0.034078 -0.256610 0.139636 0.424744 0.006917 -0.059502 -0.170483 -0.129140 0.045473 0.026456 0.132566 -0.044947 -0.209656 0.087808 0.347562 0.180722 0.002320 0.332884 -0.026758 -0.294432 -0.215193 -0.152748 0.185030 0.086133 0.167037 -0.078001 -0.251772 0.351345 0.018771 -0.209848 0.009860 0.076307 -0.174566 -0.289503 0.020230 0.393266 -0.390570 0.062672 -0.137095 0.055119 -0.240668 -0.092516 -0.111353 0.058564 -0.231467 0.017238
which 0.290426 0.126892 0.255723 0.096400 0.308043 -0.204940 -0.075429 0.746577 0.113558 0.149091 0.118630 -0.099883 0.267392 -0.154342 0.270213 0.057187 -0.132676 0.053148 0.039258 0.162322 -0.329475 -0.072795 0.239717 0.128944 -0.016888 -0.291618 0.280762 0.298259 -0.105512 -0.215457 0.156749 -0.379787 -0.054942 0.123384 -0.052405 -0.035598 -0.078789 -0.044280 0.078358 0.029475 0.070713 -0.210078 -0.341643 0.052177 -0.092491 0.068177 -0.207422 -0.090861 0.043350 -0.277133 -0.139572 0.347270 -0.297049 -0.067571 -0.006902 -0.246057 0.140340 0.399470 0.043239 -0.045988 -0.126108 -0.142532 0.021399 0.002499 0.141999 -0.084447 -0.183135 0.130292 0.343527 0.190730 -0.029727 0.352379 -0.011212 -0.300677 -0.252672 -0.164689 0.194759 0.088397 0.159463 -0.077035 -0.273809 0.353796 -0.000216 -0.213819 0.024593 0.110510 -0.156941 -0.289811 0.003034 0.421592 -0.426639 0.056550 -0.095583 0.049543 -0.237025 -0.075218 -0.170546 0.063356 -0.267455 0.032435
hyde 0.300281 0.073878 0.266569 0.123506 0.311848 -0.205224 -0.059839 0.663868 0.153628 0.164799 0.065965 -0.088650 0.267331 -0.152539 0.224317 0.054312 -0.118132 -0.025900 0.062448 0.170567 -0.361185 -0.064737 0.229302 0.083752 0.006038 -0.240011 0.270243 0.248064 -0.123043 -0.226673 0.134422 -0.378334 -0.077635 0.089584 -0.001811 -0.095584 -0.061050 -0.022169 0.090466 0.039264 0.026209 -0.219207 -0.310577 0.036392 -0.074667 0.029637 -0.175893 -0.089271 0.043846 -0.304735 -0.134166 0.347519 -0.319583 -0.125027 0.035265 -0.275740 0.153619 0.450094 -0.015802 -0.089175 -0.186408 -0.097964 0.020158 0.006772 0.154981 -0.016531 -0.219509 0.110141 0.331639 0.159064 0.027714 0.353050 0.002611 -0.285574 -0.192548 -0.135524 0.193987 0.084899 0.208743 -0.049580 -0.222337 0.366686 0.047567 -0.185969 -0.008710 0.053224 -0.170197 -0.292378 0.016899 0.394790 -0.375116 0.058805 -0.128140 0.073817 -0.232413 -0.103762 -0.088864 0.040500 -0.254229 0.034702
jekyll 0.334496 0.068845 0.256961 0.146609 0.321017 -0.189659 -0.107288 0.750895 0.120525 0.128069 0.128665 -0.114439 0.297702 -0.113341 0.299099 0.027472 -0.170721 0.031843 0.097655 0.213985 -0.408941 -0.086856 0.293732 0.131388 -0.044550 -0.284405 0.316583 0.261028 -0.124656 -0.190869 0.126847 -0.364157 -0.101535 0.090055 -0.044196 -0.014725 -0.110043 -0.016166 0.052410 0.019296 0.019881 -0.153544 -0.375007 0.063433 -0.110689 0.065761 -0.228172 -0.084941 0.084704 -0.288456 -0.136623 0.331739 -0.308246 -0.074727 -0.022963 -0.281612 0.134015 0.419408 0.032559 -0.112749 -0.186836 -0.119058 0.031869 -0.050160 0.155978 -0.044607 -0.207065 0.143773 0.329740 0.233469 -0.000793 0.337894 -0.021450 -0.267950 -0.232131 -0.161214 0.250164 0.047043 0.217825 -0.036792 -0.259158 0.328598 0.021638 -0.203230 0.010717 0.050377 -0.130545 -0.302145 0.041419 0.416200 -0.404014 0.050091 -0.072773 0.093589 -0.219372 -0.089861 -0.123864 0.027879 -0.306387 0.013347
all 0.295754 0.141796 0.242593 0.098527 0.293684 -0.211291 -0.094974 0.822904 0.079277 0.108889 0.118875 -0.124861 0.234991 -0.129450 0.269774 0.036287 -0.150824 0.112636 0.041091 0.163063 -0.328506 -0.068793 0.269561 0.165649 -0.069219 -0.329734 0.292531 0.316677 -0.095396 -0.201174 0.205754 -0.349821 -0.074499 0.120897 -0.089374 0.003374 -0.117470 -0.050525 0.051835 0.002371 0.072440 -0.180326 -0.367943 0.040251 -0.090620 0.086099 -0.243179 -0.106792 0.052277 -0.231542 -0.166034 0.341217 -0.260397 -0.019322 -0.061892 -0.237390 0.129644 0.380344 0.067354 -0.047090 -0.080166 -0.156799 -0.020086 -0.013631 0.123588 -0.109946 -0.155220 0.182196 0.316418 0.218551 -0.068240 0.374955 -0.000688 -0.303084 -0.294752 -0.160801 0.212181 0.099969 0.150843 -0.066978 -0.287056 0.305252 -0.000162 -0.229650 0.085462 0.123836 -0.143017 -0.276912 -0.003683 0.388785 -0.441130 0.051051 -0.026966 0.039897 -0.217573 -0.047856 -0.228648 0.077204 -0.286377 0.028903
if 0.343833 0.115586 0.252438 0.121733 0.294515 -0.217180 -0.078364 0.798799 0.119663 0.165494 0.114998 -0.099262 0.262119 -0.159111 0.292463 0.080726 -0.133627 0.060096 0.046199 0.158277 -0.363070 -0.052056 0.281781 0.147101 -0.047030 -0.306083 0.282184 0.313717 -0.107402 -0.240761 0.171522 -0.365997 -0.098085 0.129950 -0.069377 -0.041995 -0.100301 -0.034328 0.084915 0.025494 0.054062 -0.194823 -0.360149 0.027409 -0.087863 0.082865 -0.204688 -0.092462 0.038424 -0.252626 -0.162126 0.283050 -0.297816 -0.059337 -0.046266 -0.233671 0.107157 0.454885 0.060253 -0.099593 -0.156576 -0.160175 0.008693 -0.015099 0.103795 -0.046144 -0.208237 0.140204 0.327104 0.213391 -0.045133 0.368925 -0.047881 -0.295926 -0.232047 -0.173509 0.211670 0.099964 0.179048 -0.054008 -0.283230 0.334831 0.032328 -0.214111 0.090607 0.089072 -0.169549 -0.316815 0.010795 0.402712 -0.427576 0.049369 -0.070510 0.028052 -0.236924 -0.060066 -0.185379 0.075397 -0.253670 0.013090
gutenberg 0.184288 0.219753 0.142295 0.061965 0.176795 -0.188650 -0.483098 1.778303 -0.184327 -0.340696 0.358725 -0.330198 0.067373 0.291116 0.481046 -0.184564 -0.395955 0.793936 0.113302 0.299931 -0.434417 -0.163741 0.599675 0.624291 -0.625437 -0.777083 0.540012 0.536820 0.001074 0.156761 0.816284 0.107895 -0.245241 0.104371 -0.470506 0.500546 -0.461844 -0.001587 -0.268281 -0.323238 0.080365 0.206005 -0.635886 0.156679 -0.105093 0.372916 -0.724512 -0.300958 0.262200 0.269826 -0.392424 0.391618 -0.077741 0.602077 -0.671193 -0.157154 0.037741 0.084833 0.395659 -0.194986 0.543345 -0.227083 -0.544032 -0.353661 -0.061776 -0.541622 0.131066 0.702161 0.075610 0.327224 -0.531902 0.543246 0.071780 -0.140504 -0.793804 -0.204816 0.391359 0.170794 0.086543 0.061069 -0.505966 -0.156976 -0.127483 -0.297618 0.618141 0.304650 0.148267 -0.103891 -0.127270 0.293495 -0.780280 -0.017967 0.660836 -0.023002 -0.060651 0.301916 -0.956375 0.247920 -0.767878 0.000374
there 0.321792 0.128396 0.272975 0.105880 0.310612 -0.215531 -0.054732 0.719200 0.128684 0.178000 0.115147 -0.101451 0.277379 -0.158771 0.254708 0.054008 -0.141660 0.024670 0.058744 0.171915 -0.351641 -0.074014 0.243128 0.110880 -0.012401 -0.263809 0.266620 0.282364 -0.111861 -0.232422 0.144179 -0.403276 -0.065863 0.112317 -0.040375 -0.050591 -0.085957 -0.049803 0.098552 0.048375 0.056010 -0.219552 -0.324162 0.036846 -0.098297 0.056984 -0.188733 -0.089099 0.039423 -0.316518 -0.143218 0.339539 -0.322432 -0.093951 0.021480 -0.252795 0.140516 0.424500 0.033614 -0.054479 -0.166133 -0.134173 0.038970 0.010045 0.138383 -0.057347 -0.192821 0.110799 0.328307 0.193341 -0.002401 0.344218 -0.006003 -0.300182 -0.233585 -0.174932 0.201902 0.096494 0.174794 -0.093310 -0.255024 0.364363 0.002656 -0.212053 0.009159 0.088686 -0.170478 -0.299021 0.016375 0.418682 -0.410675 0.060735 -0.114517 0.053970 -0.241835 -0.087342 -0.132474 0.053630 -0.257288 0.025077
no 0.340136 0.103151 0.270528 0.101238 0.300624 -0.215459 -0.060220 0.729414 0.150649 0.185518 0.108916 -0.078784 0.275680 -0.166581 0.273748 0.073978 -0.133072 0.018681 0.055819 0.167548 -0.366960 -0.082819 0.245672 0.090857 -0.015594 -0.264780 0.273915 0.301711 -0.110654 -0.240010 0.129057 -0.416587 -0.076197 0.127475 -0.037076 -0.064506 -0.083901 -0.040755 0.106774 0.045614 0.048467 -0.209294 -0.344200 0.024302 -0.102249 0.047695 -0.182467 -0.091324 0.039973 -0.330690 -0.148859 0.323359 -0.324181 -0.102831 0.012842 -0.249599 0.142018 0.455648 0.023063 -0.069388 -0.176889 -0.135503 0.053074 0.017834 0.132634 -0.053847 -0.213570 0.113009 0.355180 0.196392 0.003168 0.355477 -0.022466 -0.311822 -0.229298 -0.164233 0.219067 0.082694 0.177795 -0.084304 -0.256340 0.376140 0.021830 -0.229127 0.018264 0.077244 -0.188627 -0.310326 0.029339 0.408515 -0.402113 0.065066 -0.128532 0.051336 -0.247670 -0.091838 -0.131328 0.067713 -0.247717 0.010522
project 0.167949 0.207755 0.106384 0.080971 0.205279 -0.171145 -0.447620 1.576356 -0.181255 -0.289691 0.296327 -0.366438 0.066182 0.237066 0.474673 -0.126107 -0.300725 0.688876 0.090938 0.252140 -0.346386 -0.099888 0.558064 0.554599 -0.603119 -0.668751 0.454395 0.524732 0.069249 0.126313 0.753055 0.090672 -0.186491 0.099672 -0.530001 0.462356 -0.420095 0.054543 -0.235343 -0.322687 0.079516 0.201654 -0.556201 0.183528 -0.043354 0.265944 -0.723251 -0.224857 0.223875 0.339512 -0.335729 0.277642 0.039950 0.512349 -0.640122 -0.148461 -0.039489 0.114430 0.379680 -0.163973 0.527901 -0.192340 -0.522217 -0.290424 -0.013213 -0.478292 0.141212 0.698113 0.064342 0.369084 -0.452852 0.435343 0.005493 -0.106755 -0.691296 -0.147366 0.383293 0.121320 0.108856 0.052423 -0.447394 -0.160724 -0.062548 -0.224107 0.534499 0.273314 0.082650 -0.076205 -0.071176 0.238322 -0.685010 0.034941 0.604796 -0.012536 0.008093 0.324359 -0.849328 0.150974 -0.663297 -0.039054
man 0.304310 0.108101 0.242338 0.108517 0.288818 -0.198873 -0.042726 0.654065 0.130513 0.169021 0.082250 -0.078481 0.261293 -0.170673 0.238053 0.060677 -0.121283 0.012149 0.053542 0.142167 -0.324954 -0.066921 0.215853 0.086300 0.006146 -0.235633 0.244737 0.262854 -0.103191 -0.230466 0.107042 -0.385558 -0.056739 0.116066 -0.026745 -0.074164 -0.068858 -0.046978 0.087034 0.057517 0.046722 -0.217820 -0.303100 0.027497 -0.082284 0.039255 -0.164630 -0.083660 0.030432 -0.304598 -0.135277 0.307880 -0.301465 -0.096225 0.034072 -0.239043 0.132724 0.421181 0.005483 -0.061059 -0.171291 -0.124221 0.046601 0.019886 0.128021 -0.037542 -0.189885 0.087781 0.316696 0.171000 0.013238 0.319587 -0.019165 -0.286712 -0.202405 -0.146976 0.180168 0.080547 0.164358 -0.078197 -0.235939 0.355751 0.008225 -0.192521 -0.004394 0.074650 -0.170282 -0.284015 0.020214 0.385494 -0.380921 0.055379 -0.127766 0.048981 -0.237449 -0.089895 -0.104244 0.047866 -0.221801 0.019842
an 0.300607 0.143971 0.253776 0.110395 0.288991 -0.217547 -0.079061 0.794837 0.095402 0.137326 0.119707 -0.103529 0.252650 -0.137620 0.265849 0.057233 -0.151482 0.084899 0.038802 0.168664 -0.344687 -0.074133 0.260104 0.142896 -0.050633 -0.309216 0.270947 0.307526 -0.108092 -0.212145 0.182165 -0.357393 -0.066402 0.124845 -0.074061 -0.021226 -0.100412 -0.041965 0.059453 0.016743 0.070097 -0.184962 -0.350525 0.052907 -0.092491 0.075334 -0.225680 -0.094325 0.043158 -0.251515 -0.158604 0.340888 -0.284521 -0.032920 -0.039460 -0.246565 0.125445 0.394972 0.049929 -0.061130 -0.098726 -0.164666 0.002918 -0.000778 0.123256 -0.084619 -0.173493 0.150227 0.326089 0.207858 -0.045252 0.356945 -0.014982 -0.287596 -0.277373 -0.153973 0.219051 0.092098 0.170017 -0.075205 -0.289167 0.319604 0.003133 -0.217894 0.059475 0.105816 -0.142757 -0.284350 -0.005780 0.413225 -0.437483 0.052627 -0.053441 0.034142 -0.226267 -0.061828 -0.199132 0.078817 -0.284556 0.025022
one 0.307312 0.119904 0.252860 0.101866 0.303749 -0.211796 -0.053112 0.704332 0.133664 0.173736 0.095906 -0.086103 0.274891 -0.157499 0.263629 0.072617 -0.126591 0.023319 0.043404 0.158033 -0.345684 -0.061691 0.243916 0.103528 0.006575 -0.272830 0.261002 0.282754 -0.116321 -0.247178 0.136222 -0.396605 -0.060777 0.123356 -0.036113 -0.067352 -0.075595 -0.049947 0.093397 0.055099 0.063223 -0.224834 -0.332609 0.018949 -0.089070 0.055559 -0.182832 -0.091836 0.031984 -0.311737 -0.142181 0.339551 -0.316496 -0.088532 0.021120 -0.251683 0.149998 0.427548 0.021943 -0.054416 -0.161850 -0.135809 0.055193 0.011390 0.133213 -0.062585 -0.197128 0.104477 0.337994 0.191167 -0.002772 0.341422 -0.006994 -0.313782 -0.228946 -0.151142 0.198163 0.085023 0.167470 -0.085215 -0.248228 0.359615 0.014207 -0.199645 0.015093 0.081653 -0.174365 -0.298609 0.020332 0.402352 -0.415685 0.063519 -0.127523 0.051016 -0.247188 -0.082388 -0.117627 0.054675 -0.247835 0.010269
so 0.325303 0.105581 0.258876 0.115426 0.315092 -0.197860 -0.052145 0.706804 0.149141 0.187862 0.095043 -0.083597 0.271192 -0.177756 0.272002 0.080526 -0.124541 0.021640 0.053252 0.160836 -0.350589 -0.063887 0.236762 0.097632 0.005131 -0.260757 0.265264 0.284630 -0.100772 -0.251832 0.135454 -0.411770 -0.074231 0.132770 -0.031123 -0.076597 -0.063468 -0.034514 0.104636 0.054350 0.043283 -0.231255 -0.336577 0.013724 -0.090252 0.048327 -0.175629 -0.091398 0.033752 -0.322931 -0.143523 0.304700 -0.314321 -0.101436 0.024258 -0.249144 0.133918 0.453714 0.013439 -0.072448 -0.196781 -0.139189 0.050817 0.014954 0.131571 -0.035804 -0.208666 0.102792 0.357909 0.191471 0.004822 0.337705 -0.036760 -0.308283 -0.217975 -0.168212 0.206625 0.089312 0.171938 -0.068366 -0.259617 0.358664 0.021149 -0.210258 0.022493 0.078089 -0.182508 -0.302218 0.022538 0.408441 -0.396979 0.060979 -0.142538 0.056695 -0.240024 -0.102463 -0.119175 0.062281 -0.231444 0.016213
when 0.321035 0.113118 0.257291 0.102160 0.304391 -0.199982 -0.061372 0.700244 0.145625 0.169459 0.088512 -0.084310 0.279512 -0.164346 0.265778 0.063004 -0.129834 0.018116 0.048061 0.153517 -0.353367 -0.075658 0.240936 0.100375 -0.002119 -0.262635 0.259112 0.283835 -0.109939 -0.242299 0.141789 -0.404736 -0.057685 0.123804 -0.026954 -0.064476 -0.079279 -0.041237 0.089530 0.056289 0.051400 -0.217013 -0.326193 0.031332 -0.098157 0.042739 -0.175592 -0.089875 0.040503 -0.314515 -0.141105 0.329910 -0.304073 -0.097222 0.028615 -0.260841 0.149766 0.427145 0.014170 -0.065573 -0.176434 -0.125593 0.046155 0.013176 0.130165 -0.050720 -0.210653 0.103207 0.347676 0.183863 0.001910 0.340606 -0.019185 -0.308019 -0.228641 -0.168321 0.200858 0.092821 0.179418 -0.075588 -0.256859 0.368876 0.003676 -0.209262 0.009883 0.088664 -0.171171 -0.295406 0.012139 0.409062 -0.403017 0.063530 -0.119653 0.051515 -0.245799 -0.097711 -0.122845 0.061425 -0.238394 0.021037
were 0.294347 0.129226 0.261545 0.101942 0.305184 -0.207899 -0.058745 0.717437 0.118083 0.158578 0.108240 -0.084907 0.266146 -0.152665 0.256398 0.071253 -0.123325 0.049534 0.023083 0.162311 -0.330317 -0.064646 0.224567 0.112965 -0.011315 -0.274898 0.260594 0.286107 -0.107267 -0.231808 0.151560 -0.386570 -0.053467 0.121631 -0.048308 -0.044932 -0.079152 -0.054385 0.078528 0.051215 0.066214 -0.226495 -0.345938 0.034641 -0.087874 0.066251 -0.203946 -0.095488 0.028623 -0.287271 -0.144750 0.347953 -0.286599 -0.081283 0.005442 -0.242067 0.143993 0.401929 0.023016 -0.046135 -0.143488 -0.141219 0.032999 0.019336 0.130152 -0.067120 -0.181379 0.125926 0.342785 0.184599 -0.012228 0.351698 -0.005916 -0.319729 -0.255462 -0.162457 0.187979 0.098312 0.166178 -0.077225 -0.264691 0.359203 0.002407 -0.202824 0.030219 0.110927 -0.163609 -0.294712 0.012194 0.409200 -0.418309 0.048771 -0.098986 0.040679 -0.251211 -0.094174 -0.152717 0.048311 -0.246977 0.032682
more 0.319694 0.117885 0.270569 0.117538 0.308204 -0.217154 -0.065855 0.700862 0.150793 0.174282 0.102016 -0.083662 0.288776 -0.161262 0.264212 0.064817 -0.124965 0.012990 0.036863 0.163662 -0.361149 -0.078744 0.242642 0.089217 -0.018153 -0.278292 0.268969 0.287530 -0.106867 -0.231082 0.139419 -0.412414 -0.051938 0.113136 -0.020777 -0.078307 -0.071842 -0.049049 0.093668 0.056136 0.042253 -0.208065 -0.343969 0.026340 -0.080989 0.053090 -0.172604 -0.091945 0.029897 -0.329098 -0.129472 0.336489 -0.320866 -0.100263 0.041871 -0.261232 0.155364 0.436060 0.011300 -0.065729 -0.163559 -0.123849 0.048326 0.016233 0.131658 -0.069330 -0.197101 0.122158 0.336919 0.191664 -0.002383 0.354857 -0.025915 -0.300234 -0.227831 -0.179258 0.214997 0.082421 0.178110 -0.075598 -0.277580 0.363515 0.021949 -0.202820 0.003811 0.081496 -0.179508 -0.296442 0.024034 0.429510 -0.419670 0.072756 -0.123588 0.064082 -0.263494 -0.089565 -0.133361 0.059211 -0.259009 0.026476
out 0.304099 0.128910 0.260811 0.100759 0.308001 -0.203264 -0.056247 0.693045 0.129669 0.158933 0.094352 -0.081913 0.273964 -0.173543 0.252604 0.067896 -0.119775 0.019253 0.029230 0.147165 -0.332213 -0.064205 0.235013 0.092730 0.002824 -0.270687 0.262792 0.279721 -0.098949 -0.226457 0.133710 -0.409194 -0.038422 0.117536 -0.033042 -0.069295 -0.069470 -0.053532 0.086633 0.059779 0.064030 -0.233049 -0.323104 0.039340 -0.093355 0.045589 -0.193106 -0.088770 0.022339 -0.296802 -0.127506 0.346810 -0.303415 -0.098138 0.037237 -0.249738 0.154295 0.406046 0.010506 -0.034270 -0.155379 -0.136266 0.046955 0.033587 0.137525 -0.059619 -0.191851 0.104846 0.337105 0.179402 0.000600 0.347065 -0.010706 -0.314994 -0.244535 -0.165105 0.179885 0.097753 0.171806 -0.083798 -0.253183 0.366554 -0.003702 -0.215104 0.005567 0.105130 -0.162160 -0.294795 0.009251 0.422293 -0.410423 0.049641 -0.131388 0.055865 -0.246565 -0.093448 -0.125573 0.048630 -0.240729 0.036829
what 0.354123 0.076034 0.257435 0.113201 0.307621 -0.216339 -0.066123 0.706974 0.150622 0.205422 0.097447 -0.080554 0.273655 -0.181807 0.275577 0.092013 -0.124671 0.001232 0.067668 0.163557 -0.378715 -0.067923 0.264254 0.100075 -0.006529 -0.265523 0.266187 0.283090 -0.107229 -0.266238 0.107105 -0.416114 -0.082775 0.128267 -0.019546 -0.092409 -0.069509 -0.021690 0.108174 0.066852 0.032483 -0.219441 -0.339349 0.009283 -0.104561 0.037307 -0.162259 -0.089474 0.038364 -0.327566 -0.151536 0.295436 -0.325578 -0.113036 0.030902 -0.258099 0.132971 0.483329 0.007865 -0.099345 -0.214536 -0.130426 0.048234 0.008192 0.117719 -0.014392 -0.238965 0.083656 0.351514 0.199428 0.014332 0.342893 -0.047589 -0.300876 -0.203769 -0.167551 0.224699 0.080918 0.192699 -0.062602 -0.258930 0.370879 0.037463 -0.219158 0.015290 0.055993 -0.191668 -0.317384 0.036679 0.397775 -0.402590 0.063619 -0.142989 0.054615 -0.234917 -0.101929 -0.104833 0.068857 -0.224219 -0.002712
will 0.338594 0.093724 0.244232 0.113348 0.294334 -0.205347 -0.075007 0.728887 0.130213 0.181237 0.092369 -0.081872 0.262998 -0.167036 0.281506 0.078253 -0.122907 0.024080 0.047649 0.162806 -0.361601 -0.056634 0.269950 0.118363 -0.036003 -0.279202 0.277473 0.295876 -0.107084 -0.243591 0.149603 -0.386170 -0.084197 0.131526 -0.049345 -0.052881 -0.081431 -0.026895 0.095144 0.051574 0.051307 -0.198334 -0.326778 0.022383 -0.090464 0.054963 -0.202142 -0.093594 0.028720 -0.277162 -0.156168 0.297450 -0.307669 -0.080055 -0.015373 -0.251045 0.118961 0.448467 0.032072 -0.086931 -0.183805 -0.157988 0.019232 -0.012041 0.108197 -0.033420 -0.215507 0.117254 0.334736 0.200979 -0.007445 0.357880 -0.052006 -0.289285 -0.206034 -0.163646 0.205016 0.094356 0.180737 -0.047921 -0.269131 0.344789 0.044815 -0.211660 0.064691 0.076503 -0.177456 -0.307447 0.006340 0.396642 -0.404004 0.059471 -0.098718 0.035133 -0.227683 -0.073883 -0.138073 0.058014 -0.234390 0.013501
lawyer 0.300183 0.096880 0.248810 0.120989 0.305056 -0.201280 -0.062813 0.689892 0.134550 0.152595 0.097030 -0.095814 0.252990 -0.148997 0.245757 0.068423 -0.122130 0.027607 0.060487 0.145729 -0.333062 -0.059123 0.229659 0.104341 -0.009603 -0.266053 0.255734 0.266635 -0.113721 -0.223549 0.122879 -0.387104 -0.056550 0.108157 -0.043686 -0.072417 -0.059797 -0.038945 0.082394 0.040529 0.047108 -0.218342 -0.305879 0.013267 -0.095242 0.053932 -0.183952 -0.093001 0.039085 -0.297998 -0.144374 0.324522 -0.303643 -0.081706 0.024824 -0.252627 0.141333 0.409816 0.007327 -0.055418 -0.154591 -0.118072 0.030993 0.019509 0.139895 -0.048313 -0.189562 0.104276 0.326322 0.173998 -0.012700 0.347268 -0.018508 -0.296106 -0.230507 -0.156281 0.189229 0.090185 0.171037 -0.066232 -0.249718 0.351642 0.007995 -0.194835 0.009886 0.093758 -0.177799 -0.274299 0.019862 0.400319 -0.412452 0.066992 -0.104751 0.054204 -0.220695 -0.083398 -0.129114 0.045967 -0.220479 0.028389
been 0.316334 0.108035 0.257174 0.106610 0.301476 -0.208709 -0.058231 0.704225 0.142473 0.167089 0.106875 -0.087505 0.264215 -0.154848 0.261900 0.075356 -0.116155 0.035584 0.045809 0.158464 -0.343307 -0.061147 0.240939 0.112889 0.004573 -0.254666 0.271983 0.299677 -0.112321 -0.250770 0.143840 -0.402945 -0.086255 0.137692 -0.041238 -0.061605 -0.058169 -0.037186 0.093357 0.042188 0.042429 -0.225300 -0.337626 0.023685 -0.090626 0.051299 -0.178390 -0.102547 0.033063 -0.318959 -0.139131 0.300962 -0.313548 -0.096994 0.012527 -0.246946 0.143842 0.449795 0.024354 -0.062950 -0.171406 -0.134022 0.037761 0.006837 0.139947 -0.044815 -0.196308 0.098348 0.361195 0.194970 -0.007950 0.346872 -0.030409 -0.285113 -0.220228 -0.160338 0.200680 0.087106 0.166682 -0.079305 -0.268274 0.359943 0.022211 -0.214982 0.013350 0.082049 -0.177316 -0.295874 0.018658 0.407749 -0.392405 0.068653 -0.136085 0.059419 -0.234161 -0.089924 -0.124617 0.069515 -0.238283 0.010227
now 0.306412 0.103800 0.250061 0.100671 0.294138 -0.199087 -0.047903 0.669542 0.132133 0.158617 0.092769 -0.082119 0.268886 -0.150934 0.248909 0.057404 -0.116811 0.021982 0.037059 0.150445 -0.322642 -0.060202 0.235446 0.101411 0.004889 -0.259546 0.247655 0.268141 -0.104250 -0.236763 0.126782 -0.390372 -0.049925 0.117897 -0.026802 -0.068688 -0.073789 -0.039842 0.081231 0.049709 0.057953 -0.202455 -0.317327 0.025214 -0.099124 0.046385 -0.170353 -0.091226 0.028565 -0.293152 -0.134853 0.322571 -0.298211 -0.093757 0.024727 -0.251665 0.140626 0.400595 0.015470 -0.047491 -0.157369 -0.125096 0.047725 0.011314 0.123566 -0.055745 -0.199209 0.104416 0.329456 0.171929 -0.003055 0.333033 -0.012281 -0.293479 -0.220996 -0.154357 0.179429 0.078777 0.163575 -0.074833 -0.253606 0.342591 0.019067 -0.202874 0.014653 0.088733 -0.166418 -0.279677 0.010768 0.391438 -0.383742 0.061785 -0.114663 0.047394 -0.237021 -0.086917 -0.123197 0.046587 -0.229800 0.025274
your 0.339971 0.119717 0.269834 0.129528 0.317662 -0.229806 -0.081748 0.813814 0.118283 0.160267 0.110119 -0.110361 0.280975 -0.165960 0.299100 0.066035 -0.140866 0.061257 0.041038 0.169073 -0.369884 -0.073603 0.278965 0.147921 -0.042625 -0.316079 0.292897 0.309507 -0.120567 -0.246038 0.163897 -0.404121 -0.078299 0.139849 -0.073074 -0.031744 -0.105511 -0.030682 0.084722 0.028443 0.065389 -0.215979 -0.371954 0.044101 -0.102066 0.067132 -0.235699 -0.100367 0.050907 -0.300137 -0.160092 0.348673 -0.303494 -0.060502 -0.022654 -0.267494 0.138511 0.457795 0.031815 -0.063458 -0.155524 -0.162784 0.009587 0.000698 0.127776 -0.057889 -0.215526 0.139435 0.345952 0.211561 -0.031212 0.382576 -0.032084 -0.312795 -0.254672 -0.180484 0.219247 0.094116 0.176702 -0.064796 -0.298521 0.352509 0.014893 -0.226123 0.058751 0.102537 -0.168876 -0.322884 0.005416 0.425400 -0.450689 0.071510 -0.088705 0.049681 -0.248364 -0.072255 -0.176334 0.067403 -0.269837 0.029786
any 0.265307 0.183379 0.213598 0.100311 0.268618 -0.227943 -0.160076 1.052540 0.022896 0.044436 0.172795 -0.152273 0.212507 -0.035399 0.331542 0.012341 -0.174790 0.261714 0.062781 0.191349 -0.345766 -0.054294 0.354391 0.250813 -0.179127 -0.426326 0.347596 0.386751 -0.070114 -0.144094 0.315221 -0.242635 -0.101578 0.116590 -0.197043 0.111767 -0.199419 -0.046114 -0.018427 -0.073978 0.068478 -0.094599 -0.434422 0.064977 -0.094334 0.164027 -0.336568 -0.125944 0.085395 -0.102944 -0.202261 0.334082 -0.217893 0.107207 -0.212495 -0.203418 0.094283 0.322283 0.167253 -0.085092 0.054846 -0.182679 -0.120895 -0.083283 0.088088 -0.192871 -0.107181 0.284288 0.261989 0.266767 -0.156388 0.411525 -0.008181 -0.271381 -0.382315 -0.183642 0.245809 0.091548 0.138864 -0.055351 -0.346215 0.222996 -0.021832 -0.243155 0.217506 0.165180 -0.083722 -0.261803 -0.019656 0.382082 -0.517881 0.045592 0.124901 0.018219 -0.188689 0.042372 -0.386206 0.100187 -0.405227 0.008361
upon 0.330022 0.118695 0.264730 0.118687 0.318227 -0.200665 -0.069643 0.757220 0.132625 0.159968 0.111531 -0.104538 0.280451 -0.164643 0.268302 0.053485 -0.140142 0.048902 0.039817 0.168749 -0.345322 -0.060017 0.259496 0.116653 -0.014838 -0.288408 0.272186 0.305197 -0.111939 -0.228644 0.153959 -0.410614 -0.055061 0.125845 -0.052276 -0.048625 -0.081633 -0.041122 0.080112 0.037112 0.061995 -0.218460 -0.345746 0.034228 -0.093622 0.055129 -0.216743 -0.103452 0.045097 -0.289592 -0.153917 0.345021 -0.314248 -0.082084 0.006687 -0.261491 0.153738 0.441003 0.032512 -0.051889 -0.142539 -0.138109 0.026357 0.007592 0.126670 -0.080815 -0.199524 0.121400 0.345687 0.190592 -0.020682 0.361661 -0.020121 -0.319195 -0.247880 -0.177296 0.200227 0.091527 0.174439 -0.075587 -0.262690 0.368553 -0.002009 -0.212327 0.033464 0.105695 -0.177495 -0.301506 0.013262 0.424160 -0.432657 0.058734 -0.102855 0.047811 -0.254469 -0.079523 -0.164682 0.056406 -0.250714 0.016784
poole 0.340829 0.101443 0.264533 0.127307 0.308916 -0.224964 -0.065705 0.751273 0.138197 0.169853 0.098023 -0.096846 0.275589 -0.177069 0.275676 0.071906 -0.137695 0.012447 0.068798 0.158976 -0.376159 -0.081405 0.257342 0.117854 -0.003645 -0.278152 0.275267 0.298129 -0.115707 -0.251629 0.145333 -0.418170 -0.080213 0.123102 -0.050793 -0.066289 -0.077892 -0.038655 0.095383 0.041403 0.038963 -0.216083 -0.343243 0.025562 -0.111200 0.051112 -0.194708 -0.100459 0.032761 -0.316531 -0.161439 0.314467 -0.323817 -0.097180 0.017951 -0.274730 0.127638 0.454687 0.017377 -0.081613 -0.189952 -0.142523 0.035798 0.017957 0.135816 -0.041524 -0.219634 0.112848 0.342498 0.199986 -0.008152 0.368736 -0.020348 -0.316750 -0.236659 -0.157933 0.216755 0.092391 0.178866 -0.069036 -0.276759 0.374854 0.019088 -0.217232 0.018406 0.087524 -0.197357 -0.307170 0.027506 0.420726 -0.433162 0.062174 -0.122553 0.049529 -0.240868 -0.075956 -0.129474 0.056485 -0.241164 0.013674
do 0.323843 0.082062 0.220778 0.106856 0.267937 -0.197574 -0.072398 0.727697 0.109542 0.160240 0.103393 -0.095383 0.219109 -0.129763 0.259959 0.087312 -0.124785 0.045960 0.055806 0.139209 -0.341304 -0.050225 0.271840 0.133636 -0.060204 -0.272163 0.255684 0.277958 -0.082940 -0.226036 0.144147 -0.323238 -0.107287 0.127441 -0.065891 -0.056513 -0.086714 -0.019701 0.066303 0.041695 0.031906 -0.164136 -0.319645 0.006368 -0.089605 0.073308 -0.187000 -0.090026 0.041062 -0.233969 -0.156376 0.236704 -0.263771 -0.049081 -0.034957 -0.215882 0.093336 0.424731 0.050643 -0.110720 -0.136889 -0.147819 -0.005845 -0.010553 0.088639 -0.018407 -0.213464 0.121028 0.299582 0.198075 -0.036966 0.336402 -0.047475 -0.243850 -0.191153 -0.157022 0.216426 0.094111 0.166244 -0.051277 -0.245655 0.288438 0.046897 -0.210957 0.094308 0.074727 -0.155040 -0.293349 0.008632 0.333471 -0.385515 0.043731 -0.057779 0.025938 -0.206135 -0.050792 -0.143956 0.070201 -0.221094 -0.010128
very 0.333187 0.125235 0.280468 0.126666 0.331191 -0.224436 -0.075080 0.787580 0.132163 0.170331 0.105071 -0.109678 0.292085 -0.174028 0.278666 0.079688 -0.140408 0.038975 0.053651 0.170942 -0.363630 -0.080375 0.268939 0.127944 -0.009505 -0.292819 0.287627 0.316581 -0.120634 -0.258283 0.149288 -0.416359 -0.065626 0.123360 -0.054319 -0.056987 -0.085438 -0.055474 0.084462 0.037738 0.067611 -0.232895 -0.350814 0.024052 -0.103828 0.068312 -0.211500 -0.109989 0.031540 -0.327694 -0.155621 0.345956 -0.333111 -0.092192 0.010836 -0.280597 0.140941 0.465764 0.023190 -0.068305 -0.174848 -0.157562 0.038668 0.015356 0.151556 -0.061952 -0.209925 0.127568 0.360149 0.203835 -0.021148 0.390460 -0.018197 -0.333519 -0.259425 -0.171816 0.202620 0.103812 0.175667 -0.089057 -0.280216 0.395146 0.006478 -0.233594 0.026110 0.099208 -0.193340 -0.321285 0.006142 0.446567 -0.457193 0.063286 -0.111100 0.060658 -0.252397 -0.084022 -0.155254 0.065287 -0.254708 0.032579
like 0.295380 0.102595 0.233813 0.102689 0.290626 -0.191984 -0.048884 0.654192 0.133990 0.172271 0.091832 -0.072188 0.242876 -0.158232 0.233484 0.055264 -0.118945 0.016332 0.037354 0.141051 -0.321607 -0.060688 0.224550 0.098363 -0.011483 -0.237017 0.249193 0.264150 -0.106820 -0.214147 0.120296 -0.369258 -0.068310 0.108717 -0.038568 -0.060865 -0.074750 -0.034202 0.089905 0.042898 0.044873 -0.208258 -0.299178 0.020955 -0.086876 0.051076 -0.165258 -0.083943 0.035562 -0.291237 -0.142605 0.290967 -0.285127 -0.088352 0.018695 -0.237814 0.125698 0.409305 0.013426 -0.064331 -0.166069 -0.120874 0.037557 0.011939 0.129777 -0.048036 -0.188802 0.098076 0.312501 0.178804 -0.004242 0.312101 -0.026246 -0.295762 -0.203344 -0.157300 0.173442 0.077971 0.167674 -0.059114 -0.232196 0.340487 0.022208 -0.203254 0.015827 0.075253 -0.161584 -0.279941 0.018982 0.383849 -0.382913 0.046953 -0.119286 0.043261 -0.229680 -0.079305 -0.114708 0.049710 -0.214881 0.007905
we 0.382796 0.124645 0.291105 0.135077 0.342707 -0.243275 -0.073960 0.827991 0.146502 0.200651 0.119973 -0.099387 0.281834 -0.179540 0.309762 0.090606 -0.139940 0.044809 0.060082 0.171662 -0.399026 -0.083128 0.288218 0.143183 -0.025853 -0.316092 0.290078 0.325111 -0.132856 -0.287678 0.159836 -0.436442 -0.109100 0.138205 -0.060484 -0.059929 -0.080260 -0.043184 0.092128 0.044440 0.045542 -0.247390 -0.369940 0.018806 -0.104116 0.077212 -0.216904 -0.107329 0.043888 -0.342363 -0.173424 0.324938 -0.338195 -0.090834 0.005361 -0.273238 0.131272 0.512130 0.033758 -0.098560 -0.194053 -0.179266 0.036302 0.015087 0.128925 -0.041011 -0.232853 0.134044 0.380531 0.230201 -0.012753 0.401849 -0.034615 -0.342803 -0.262199 -0.191701 0.242701 0.112117 0.198555 -0.084297 -0.302064 0.392882 0.022178 -0.246829 0.041471 0.094921 -0.202901 -0.357799 0.024402 0.448145 -0.472156 0.075297 -0.127464 0.040751 -0.253991 -0.081253 -0.144326 0.091057 -0.264800 0.018658
sir 0.369462 0.100219 0.291322 0.146006 0.338817 -0.244793 -0.072339 0.787670 0.160603 0.196759 0.104009 -0.102636 0.286300 -0.189427 0.301654 0.096002 -0.138318 0.003279 0.084573 0.166891 -0.403178 -0.070293 0.275229 0.105645 -0.008770 -0.277463 0.277908 0.321086 -0.122969 -0.276693 0.145651 -0.438877 -0.082916 0.133364 -0.029602 -0.094595 -0.085832 -0.044524 0.100297 0.066579 0.045714 -0.240615 -0.355026 0.003320 -0.105180 0.055280 -0.202926 -0.105104 0.036113 -0.347369 -0.178999 0.339536 -0.354529 -0.107473 0.022981 -0.289673 0.135928 0.506912 0.018543 -0.109116 -0.219002 -0.138914 0.039158 0.016763 0.141219 -0.025858 -0.241854 0.109899 0.380696 0.202283 -0.008525 0.397742 -0.029565 -0.333018 -0.230220 -0.184769 0.241095 0.093174 0.211735 -0.076103 -0.276242 0.414593 0.029851 -0.238416 0.018661 0.081487 -0.225421 -0.344599 0.029367 0.432207 -0.462358 0.075856 -0.141872 0.063563 -0.265358 -0.082969 -0.132205 0.062926 -0.254891 0.001960
into 0.321620 0.137270 0.279781 0.119350 0.334483 -0.206597 -0.075541 0.770620 0.129197 0.161430 0.115397 -0.104778 0.290069 -0.175810 0.286818 0.057566 -0.138709 0.044475 0.036666 0.167912 -0.349874 -0.068013 0.251158 0.125341 -0.008063 -0.301200 0.288336 0.309966 -0.104231 -0.246558 0.163641 -0.412016 -0.056758 0.130546 -0.052856 -0.043807 -0.086113 -0.060255 0.088261 0.045521 0.061177 -0.230062 -0.349143 0.045961 -0.098146 0.071414 -0.222726 -0.103855 0.050368 -0.314263 -0.158434 0.368869 -0.312836 -0.080439 0.012522 -0.268796 0.153997 0.433012 0.024841 -0.042854 -0.143861 -0.140885 0.026548 0.014573 0.137366 -0.085964 -0.205902 0.139759 0.362148 0.194318 -0.008476 0.370381 -0.006206 -0.330988 -0.269949 -0.187543 0.207945 0.104162 0.173793 -0.080299 -0.272741 0.377299 -0.001985 -0.220578 0.026006 0.110346 -0.176153 -0.317940 0.002890 0.449023 -0.435551 0.074434 -0.106093 0.053679 -0.253740 -0.081035 -0.164024 0.050286 -0.272226 0.033020
are 0.319814 0.125266 0.257213 0.116399 0.296500 -0.211185 -0.092791 0.823150 0.103074 0.141872 0.129226 -0.113181 0.242183 -0.142034 0.294288 0.056853 -0.134950 0.094651 0.057660 0.166227 -0.364129 -0.077339 0.282601 0.163245 -0.071675 -0.316371 0.281490 0.319595 -0.093337 -0.220559 0.192975 -0.355600 -0.086241 0.130761 -0.092205 -0.022825 -0.108174 -0.032561 0.055820 0.009835 0.050826 -0.182601 -0.365752 0.017654 -0.098369 0.088844 -0.244904 -0.114029 0.047413 -0.254210 -0.168830 0.311495 -0.275345 -0.038756 -0.052276 -0.246032 0.121402 0.428995 0.051395 -0.090098 -0.125191 -0.163098 -0.024654 -0.015833 0.104693 -0.071029 -0.189899 0.172562 0.322975 0.210889 -0.047927 0.373695 -0.040181 -0.294013 -0.262605 -0.169731 0.215178 0.099577 0.177120 -0.063093 -0.281484 0.321645 0.022500 -0.231187 0.089461 0.108267 -0.155201 -0.307559 0.011799 0.394317 -0.442661 0.045661 -0.043805 0.045057 -0.228127 -0.061004 -0.206062 0.066934 -0.271391 0.018412
tm 0.208170 0.271315 0.139124 0.071810 0.258160 -0.198897 -0.451535 1.707166 -0.149668 -0.283614 0.341332 -0.373442 0.077992 0.187124 0.504032 -0.140736 -0.327320 0.716071 0.115116 0.282450 -0.377914 -0.140601 0.616265 0.600309 -0.648158 -0.726622 0.489332 0.551534 0.069647 0.066206 0.800592 0.056367 -0.223078 0.162683 -0.547774 0.442734 -0.421160 0.061106 -0.210408 -0.322740 0.057287 0.181516 -0.598544 0.168037 -0.026614 0.294306 -0.787787 -0.224757 0.255890 0.317409 -0.380207 0.342906 -0.000967 0.532663 -0.664686 -0.196935 -0.047027 0.179473 0.416661 -0.187339 0.512307 -0.251638 -0.526743 -0.255837 -0.001348 -0.512720 0.096491 0.727320 0.130322 0.423763 -0.446419 0.507176 0.018190 -0.152549 -0.744963 -0.195203 0.431449 0.121335 0.157283 0.054556 -0.476860 -0.114042 -0.069736 -0.240588 0.575425 0.305791 0.074093 -0.139388 -0.053364 0.300146 -0.761756 0.031372 0.625962 -0.035307 -0.020967 0.302455 -0.918613 0.161572 -0.725826 -0.055237
would 0.310544 0.097449 0.253093 0.111879 0.288939 -0.200666 -0.059149 0.665353 0.126237 0.180395 0.092793 -0.067286 0.260630 -0.166052 0.251494 0.076961 -0.107781 0.019109 0.030908 0.146289 -0.339155 -0.059679 0.233807 0.105645 -0.009128 -0.250015 0.246849 0.277200 -0.094422 -0.233976 0.117698 -0.388960 -0.066907 0.118926 -0.028055 -0.070302 -0.056885 -0.025762 0.098556 0.062202 0.047991 -0.214463 -0.305053 0.020482 -0.080939 0.044881 -0.168367 -0.083135 0.023455 -0.295471 -0.140728 0.299270 -0.302829 -0.088242 0.019946 -0.239252 0.119624 0.426657 0.016832 -0.073232 -0.190507 -0.145821 0.045621 0.015889 0.115307 -0.028193 -0.204952 0.085414 0.333825 0.173882 -0.002126 0.328926 -0.044465 -0.281454 -0.205565 -0.168508 0.188793 0.079783 0.172685 -0.058377 -0.251974 0.341267 0.020150 -0.205842 0.023249 0.068144 -0.168540 -0.303483 0.009150 0.392835 -0.377878 0.051740 -0.131625 0.046457 -0.224950 -0.088938 -0.121134 0.052701 -0.204384 0.021934
these 0.299596 0.132732 0.250994 0.097388 0.299498 -0.200736 -0.070598 0.743504 0.105277 0.141767 0.105198 -0.100019 0.247549 -0.133786 0.260681 0.052768 -0.124146 0.059250 0.035338 0.159881 -0.326611 -0.075234 0.245144 0.129286 -0.035731 -0.294073 0.268949 0.299198 -0.095300 -0.222378 0.174935 -0.363466 -0.067596 0.114818 -0.058704 -0.032793 -0.089899 -0.033485 0.076824 0.025460 0.064758 -0.196654 -0.348287 0.034931 -0.083930 0.071897 -0.215715 -0.092101 0.034694 -0.268874 -0.152079 0.321420 -0.286835 -0.062725 -0.010517 -0.238671 0.137548 0.401023 0.045724 -0.062560 -0.126649 -0.151940 0.014129 0.000029 0.116083 -0.080825 -0.169605 0.133958 0.324084 0.202410 -0.031850 0.353455 -0.010430 -0.295465 -0.255929 -0.161435 0.190169 0.089988 0.162758 -0.076337 -0.262535 0.319331 0.006407 -0.216623 0.045398 0.098443 -0.149130 -0.283514 0.008901 0.393399 -0.415722 0.050776 -0.083409 0.041212 -0.233656 -0.071496 -0.173950 0.063338 -0.258118 0.018255
well 0.347126 0.104684 0.276421 0.127424 0.318512 -0.216555 -0.056984 0.744977 0.147115 0.189527 0.103815 -0.103668 0.278496 -0.173675 0.273157 0.071229 -0.136170 -0.000072 0.066316 0.170085 -0.375383 -0.072545 0.253356 0.112586 -0.006984 -0.269834 0.275595 0.302879 -0.127145 -0.258308 0.138162 -0.415463 -0.079864 0.120959 -0.040828 -0.082481 -0.074515 -0.050766 0.100877 0.054735 0.045228 -0.239561 -0.346914 0.021579 -0.111963 0.053238 -0.189301 -0.105930 0.038429 -0.335184 -0.162758 0.331657 -0.330133 -0.100053 0.020555 -0.275730 0.138909 0.466305 0.007234 -0.083844 -0.197098 -0.138057 0.032273 0.021775 0.146597 -0.031219 -0.220658 0.112590 0.352230 0.194134 0.000117 0.378570 -0.023687 -0.320983 -0.224585 -0.174178 0.209901 0.103736 0.182507 -0.078281 -0.264236 0.394697 0.029243 -0.228053 0.015496 0.078079 -0.206205 -0.328946 0.017896 0.410150 -0.421702 0.056670 -0.125767 0.050078 -0.255835 -0.092445 -0.133796 0.064646 -0.241046 0.023994
then 0.343894 0.116539 0.281082 0.124974 0.329252 -0.221509 -0.071236 0.769156 0.141573 0.175099 0.101288 -0.108102 0.283813 -0.183378 0.283015 0.065048 -0.130055 0.025632 0.047619 0.163828 -0.374892 -0.066722 0.269188 0.121955 -0.015407 -0.287986 0.281698 0.312547 -0.115716 -0.262036 0.152099 -0.414965 -0.080682 0.131063 -0.039867 -0.068322 -0.078445 -0.044525 0.095798 0.042627 0.055731 -0.235086 -0.360157 0.019312 -0.092517 0.051390 -0.206600 -0.096940 0.034449 -0.312593 -0.166269 0.343078 -0.330036 -0.087701 0.020323 -0.277331 0.151272 0.466196 0.023608 -0.079285 -0.178416 -0.148437 0.020495 0.010874 0.134855 -0.045717 -0.214368 0.126395 0.359194 0.203551 -0.006320 0.382730 -0.021542 -0.320907 -0.250564 -0.177524 0.220963 0.091625 0.188994 -0.071627 -0.273017 0.371952 0.016174 -0.223178 0.028268 0.090118 -0.182830 -0.330383 0.009468 0.424590 -0.441781 0.066512 -0.119158 0.051753 -0.258065 -0.084908 -0.139412 0.066508 -0.267320 0.016946
they 0.340392 0.143537 0.285199 0.109794 0.335663 -0.218549 -0.082373 0.817026 0.124578 0.157564 0.127638 -0.105368 0.278001 -0.171844 0.296738 0.062480 -0.142316 0.060643 0.031915 0.178315 -0.369633 -0.076019 0.266224 0.135927 -0.021584 -0.329026 0.289828 0.316845 -0.119479 -0.256153 0.183455 -0.432047 -0.069559 0.127829 -0.067956 -0.035586 -0.093115 -0.054360 0.086173 0.043799 0.072775 -0.240901 -0.367844 0.037730 -0.101862 0.072914 -0.226820 -0.098752 0.035137 -0.301566 -0.162339 0.366067 -0.326893 -0.081360 0.001996 -0.265176 0.150413 0.446793 0.032768 -0.052440 -0.148388 -0.168153 0.025718 0.018923 0.140570 -0.091199 -0.202797 0.145299 0.370802 0.209801 -0.025984 0.383885 -0.010983 -0.337777 -0.276860 -0.188437 0.218181 0.115554 0.173697 -0.094971 -0.290725 0.370193 0.005467 -0.233886 0.040498 0.126111 -0.173705 -0.327629 0.004244 0.449587 -0.472472 0.065884 -0.111176 0.046141 -0.261134 -0.079667 -0.172443 0.077905 -0.285717 0.032437
up 0.323815 0.143113 0.271267 0.113683 0.335954 -0.222063 -0.070722 0.788043 0.135905 0.169495 0.111076 -0.109534 0.293769 -0.162236 0.287849 0.061388 -0.135662 0.045238 0.045969 0.168714 -0.357429 -0.071073 0.264774 0.121716 -0.007050 -0.308177 0.281561 0.308658 -0.111480 -0.239540 0.159582 -0.421741 -0.060115 0.127675 -0.050939 -0.057311 -0.098498 -0.051030 0.078013 0.049820 0.058845 -0.237186 -0.365374 0.048235 -0.101192 0.060733 -0.223412 -0.104559 0.049889 -0.311335 -0.158605 0.367704 -0.319676 -0.071376 0.011906 -0.268098 0.153846 0.449161 0.031402 -0.053393 -0.148132 -0.149644 0.026650 0.010365 0.140776 -0.075199 -0.202880 0.134281 0.353564 0.198263 -0.010209 0.375125 -0.007514 -0.327333 -0.275904 -0.180482 0.211455 0.105685 0.181139 -0.091882 -0.275737 0.377442 -0.005652 -0.223952 0.020612 0.113180 -0.175353 -0.322061 0.013110 0.438504 -0.444688 0.064446 -0.112227 0.049359 -0.266498 -0.088170 -0.167481 0.057840 -0.280235 0.024249
other 0.282449 0.138707 0.223966 0.097475 0.277643 -0.208221 -0.107911 0.832160 0.085784 0.111648 0.138511 -0.109649 0.223071 -0.092099 0.275158 0.043318 -0.146740 0.126625 0.054335 0.166214 -0.325921 -0.060887 0.272155 0.167367 -0.079237 -0.332920 0.286277 0.308698 -0.083909 -0.180595 0.199059 -0.309110 -0.077594 0.115542 -0.103266 0.014711 -0.124092 -0.048390 0.040762 -0.005885 0.063654 -0.153185 -0.365397 0.034759 -0.086578 0.107054 -0.240473 -0.102561 0.052446 -0.208623 -0.169037 0.315870 -0.256053 0.000021 -0.083816 -0.213981 0.106982 0.357513 0.079789 -0.058791 -0.065963 -0.146502 -0.024123 -0.029068 0.098839 -0.116799 -0.150633 0.180864 0.287610 0.206236 -0.081588 0.360799 -0.009643 -0.285674 -0.290829 -0.167610 0.203503 0.084696 0.154088 -0.062845 -0.288793 0.289672 0.002012 -0.213941 0.103633 0.126807 -0.132750 -0.266509 -0.000769 0.382822 -0.449272 0.060325 -0.007224 0.025628 -0.208417 -0.031646 -0.238337 0.075017 -0.298776 0.015781
door 0.277660 0.126319 0.240441 0.100150 0.283360 -0.201668 -0.060975 0.696999 0.102996 0.130732 0.109438 -0.094230 0.254604 -0.140937 0.259174 0.060119 -0.121731 0.052508 0.031257 0.147915 -0.311942 -0.059248 0.224620 0.126166 -0.019157 -0.275829 0.244798 0.272374 -0.088472 -0.197176 0.138969 -0.366197 -0.052110 0.118821 -0.050394 -0.037169 -0.080911 -0.055211 0.078829 0.040082 0.063704 -0.202253 -0.312170 0.035918 -0.094913 0.067499 -0.201764 -0.087631 0.041969 -0.262066 -0.133190 0.336127 -0.271530 -0.067781 -0.000769 -0.232679 0.131568 0.368349 0.021376 -0.032563 -0.130358 -0.124800 0.017189 0.012464 0.126041 -0.084516 -0.172930 0.121074 0.320358 0.167048 -0.021984 0.333774 -0.007715 -0.298672 -0.253728 -0.160481 0.187761 0.081748 0.151748 -0.077094 -0.244613 0.335986 -0.010695 -0.200338 0.021282 0.110049 -0.152875 -0.276430 -0.000716 0.401402 -0.401476 0.062362 -0.080618 0.043020 -0.220506 -0.072256 -0.155066 0.060845 -0.235840 0.026752
some 0.278859 0.124661 0.241615 0.101935 0.284675 -0.192353 -0.064047 0.691312 0.107815 0.149299 0.094437 -0.079766 0.255801 -0.142914 0.249235 0.052242 -0.124311 0.042818 0.027113 0.151963 -0.317724 -0.049242 0.228111 0.117091 -0.021806 -0.254426 0.258503 0.269620 -0.105395 -0.217295 0.144509 -0.362102 -0.049902 0.114123 -0.040172 -0.042959 -0.083084 -0.052775 0.081310 0.029930 0.064455 -0.203530 -0.309477 0.031682 -0.084580 0.060957 -0.191745 -0.091868 0.031583 -0.266520 -0.132243 0.320046 -0.276875 -0.072789 0.003875 -0.231247 0.132592 0.384618 0.025724 -0.047765 -0.129233 -0.140055 0.021254 0.003033 0.128699 -0.068071 -0.182172 0.115409 0.307388 0.182250 -0.016929 0.335439 -0.010631 -0.291101 -0.234558 -0.143288 0.183355 0.081590 0.156069 -0.073307 -0.243509 0.332464 0.007874 -0.197426 0.034715 0.089530 -0.158369 -0.281431 0.007217 0.388961 -0.390224 0.053860 -0.097358 0.044421 -0.234472 -0.070646 -0.143127 0.050134 -0.235990 0.023921
must 0.320127 0.107865 0.256824 0.115641 0.292128 -0.213226 -0.092466 0.793446 0.106946 0.155142 0.123765 -0.105996 0.246582 -0.139557 0.287705 0.071319 -0.136885 0.077052 0.050801 0.157180 -0.356312 -0.068010 0.271405 0.145978 -0.047460 -0.310301 0.283137 0.326052 -0.091159 -0.227883 0.186141 -0.360018 -0.095878 0.129663 -0.070306 -0.030643 -0.091929 -0.037492 0.069438 0.032611 0.049865 -0.184821 -0.353198 0.023981 -0.088393 0.071997 -0.215061 -0.098937 0.051005 -0.251116 -0.174385 0.303881 -0.289137 -0.038605 -0.043339 -0.240939 0.112990 0.420161 0.057579 -0.084771 -0.139439 -0.167401 -0.010668 -0.015944 0.109009 -0.066345 -0.196426 0.143703 0.333510 0.201688 -0.048705 0.372598 -0.039180 -0.292716 -0.247924 -0.175721 0.223921 0.090065 0.169587 -0.065171 -0.292655 0.319804 0.019908 -0.230124 0.083576 0.097144 -0.165567 -0.308637 0.002965 0.396783 -0.427664 0.051578 -0.063815 0.031438 -0.228993 -0.056178 -0.192412 0.082180 -0.256353 0.017132
could 0.341328 0.107457 0.253828 0.110626 0.313673 -0.218232 -0.071366 0.753684 0.130728 0.168907 0.115777 -0.088047 0.280739 -0.166912 0.275336 0.069648 -0.141704 0.035836 0.049124 0.163145 -0.372414 -0.067187 0.271347 0.115968 -0.031598 -0.290318 0.283017 0.299468 -0.101280 -0.238117 0.155909 -0.399720 -0.075570 0.135965 -0.039998 -0.059469 -0.081676 -0.033967 0.081249 0.050285 0.050156 -0.205098 -0.357675 0.024830 -0.087464 0.062607 -0.203037 -0.099347 0.047642 -0.300120 -0.158427 0.328025 -0.305526 -0.087910 0.000305 -0.261253 0.134342 0.448758 0.026576 -0.081663 -0.167941 -0.143978 0.030006 0.003688 0.122498 -0.062862 -0.213113 0.128341 0.353691 0.203535 -0.003836 0.354496 -0.033169 -0.305059 -0.242598 -0.173522 0.215955 0.096735 0.181587 -0.061576 -0.271929 0.354015 0.020407 -0.224167 0.042105 0.090719 -0.175282 -0.311001 0.026192 0.415953 -0.427418 0.064696 -0.102002 0.057449 -0.244926 -0.077448 -0.144896 0.064236 -0.263209 0.009911
see 0.311682 0.073785 0.222387 0.106222 0.275237 -0.184096 -0.061466 0.642473 0.132394 0.170119 0.090880 -0.075962 0.225498 -0.150135 0.239714 0.075535 -0.104907 0.009877 0.056195 0.143136 -0.332196 -0.057007 0.239676 0.097885 -0.012205 -0.239794 0.234186 0.254425 -0.096833 -0.233784 0.117452 -0.352277 -0.081619 0.109844 -0.032161 -0.076192 -0.073835 -0.025022 0.081787 0.042788 0.032265 -0.188980 -0.298881 0.008416 -0.087440 0.039366 -0.158003 -0.083987 0.036231 -0.278112 -0.140810 0.244610 -0.270116 -0.088772 0.010509 -0.231824 0.112489 0.424136 0.014601 -0.090915 -0.173625 -0.117864 0.025027 0.008751 0.105045 -0.015067 -0.210853 0.091320 0.302552 0.167070 -0.009484 0.315825 -0.036525 -0.258555 -0.174041 -0.142746 0.196129 0.088075 0.160004 -0.060496 -0.232437 0.313575 0.034922 -0.198838 0.031067 0.062294 -0.168268 -0.288167 0.026577 0.350796 -0.363893 0.049642 -0.109433 0.037108 -0.202819 -0.073314 -0.098081 0.055845 -0.203270 -0.000865
work 0.205142 0.173238 0.169015 0.067566 0.226982 -0.198167 -0.193296 1.042317 -0.029841 -0.035650 0.193697 -0.183756 0.152861 0.027030 0.332747 -0.012332 -0.193458 0.332536 0.065257 0.177287 -0.285378 -0.071944 0.345298 0.285372 -0.247911 -0.427019 0.321666 0.367616 -0.030972 -0.073492 0.357610 -0.138084 -0.114378 0.097367 -0.248358 0.173786 -0.215354 -0.023573 -0.059504 -0.105434 0.062151 -0.012767 -0.400952 0.071331 -0.071531 0.183265 -0.384154 -0.135911 0.117957 0.001422 -0.197633 0.294843 -0.139710 0.189380 -0.282586 -0.160488 0.051827 0.228920 0.194474 -0.080315 0.157258 -0.184002 -0.192049 -0.107820 0.058362 -0.225088 -0.036202 0.348790 0.177833 0.252961 -0.219848 0.364815 -0.000073 -0.208683 -0.395815 -0.158292 0.236973 0.099200 0.110142 -0.028876 -0.328574 0.122975 -0.034326 -0.216084 0.260007 0.186316 -0.043045 -0.179279 -0.038274 0.315396 -0.489291 0.032670 0.216641 -0.009468 -0.136006 0.103894 -0.451083 0.106832 -0.408029 0.010206
life 0.267531 0.111625 0.227811 0.096888 0.275326 -0.168293 -0.059116 0.632831 0.114754 0.153170 0.089798 -0.068900 0.246218 -0.137389 0.225770 0.043328 -0.116443 0.025642 0.019780 0.140097 -0.298903 -0.062821 0.217562 0.099273 -0.014033 -0.230027 0.238175 0.253023 -0.097591 -0.206559 0.130876 -0.347167 -0.047444 0.101741 -0.036412 -0.048651 -0.066661 -0.037703 0.071247 0.045783 0.061200 -0.191034 -0.295152 0.036397 -0.085057 0.053167 -0.170789 -0.087875 0.025247 -0.260617 -0.125828 0.303062 -0.264665 -0.084729 0.011674 -0.221261 0.140613 0.372435 0.021094 -0.035758 -0.140048 -0.126191 0.042515 0.010490 0.113024 -0.056632 -0.167447 0.103018 0.298425 0.173639 -0.010513 0.306102 -0.007842 -0.273650 -0.212659 -0.139739 0.164110 0.077318 0.142905 -0.071351 -0.222645 0.311082 0.009075 -0.192203 0.019677 0.075516 -0.149418 -0.257254 0.015221 0.369615 -0.363982 0.047372 -0.107933 0.052460 -0.219124 -0.075683 -0.122088 0.043856 -0.216936 0.028319
dr 0.293872 0.086375 0.241392 0.133401 0.255532 -0.164533 -0.094446 0.689354 0.086522 0.120151 0.122687 -0.101633 0.257793 -0.100068 0.244185 0.033979 -0.149254 0.075996 0.045483 0.191687 -0.306923 -0.040147 0.265177 0.135925 -0.048778 -0.236150 0.244786 0.246869 -0.110390 -0.151549 0.127267 -0.308358 -0.060717 0.090828 -0.041618 -0.028467 -0.065759 -0.033228 0.039884 -0.019087 0.043468 -0.128229 -0.296771 0.046594 -0.114180 0.074729 -0.202383 -0.100002 0.073990 -0.243184 -0.144054 0.320109 -0.288867 -0.065972 -0.037941 -0.249108 0.158523 0.400668 0.011485 -0.070698 -0.128909 -0.093422 -0.012368 -0.018341 0.135473 -0.063015 -0.194849 0.147366 0.293618 0.167713 -0.007942 0.316679 -0.030404 -0.258151 -0.216411 -0.154830 0.187046 0.086274 0.173566 -0.034428 -0.242273 0.330643 0.036813 -0.167686 0.061235 0.051662 -0.153921 -0.266323 0.035557 0.324312 -0.393445 0.053627 -0.039662 0.087781 -0.208100 -0.044246 -0.170468 0.047318 -0.254754 0.035920
even 0.323023 0.106040 0.246711 0.110797 0.287160 -0.204337 -0.062244 0.712665 0.129012 0.164140 0.103101 -0.079377 0.264062 -0.160700 0.265598 0.067545 -0.127713 0.030868 0.035627 0.157226 -0.344429 -0.063018 0.249422 0.105710 -0.014662 -0.272355 0.265245 0.281072 -0.106044 -0.224740 0.137874 -0.388516 -0.067785 0.116305 -0.045127 -0.061499 -0.078255 -0.041147 0.083513 0.048444 0.046653 -0.205228 -0.331714 0.021018 -0.092641 0.056159 -0.187754 -0.097182 0.029075 -0.277255 -0.139614 0.309043 -0.293253 -0.080455 0.008665 -0.243571 0.134941 0.423524 0.027235 -0.072678 -0.159581 -0.135695 0.026404 0.008532 0.115524 -0.049993 -0.203900 0.107202 0.335752 0.187176 -0.016498 0.336111 -0.029894 -0.291220 -0.221535 -0.161604 0.198919 0.088081 0.166781 -0.072364 -0.257465 0.343835 0.017132 -0.211002 0.041053 0.086833 -0.171330 -0.300952 0.008820 0.396117 -0.402927 0.061376 -0.097573 0.039509 -0.232387 -0.081821 -0.143651 0.058440 -0.243938 0.017311
1 0.299857 0.181301 0.265806 0.122732 0.281352 -0.286025 -0.133351 1.080228 0.019976 0.058004 0.192840 -0.200811 0.279753 -0.010311 0.313918 0.063872 -0.181309 0.272281 0.061172 0.175093 -0.342342 0.009298 0.307874 0.267187 -0.178666 -0.416987 0.323968 0.408805 -0.075384 -0.147706 0.330419 -0.236365 -0.095548 0.143375 -0.210598 0.051779 -0.213110 -0.101859 -0.023924 -0.068168 0.060761 -0.095821 -0.464690 0.083736 -0.097381 0.193601 -0.293687 -0.123788 0.119322 -0.085097 -0.224113 0.304142 -0.197934 0.107770 -0.226323 -0.181744 0.086673 0.366612 0.198208 -0.054201 0.054475 -0.187015 -0.149364 -0.078508 0.111551 -0.189388 -0.156442 0.266686 0.255011 0.257026 -0.169194 0.425907 -0.000606 -0.262976 -0.378201 -0.203899 0.250768 0.118615 0.131259 -0.075383 -0.386243 0.221006 -0.074609 -0.203581 0.239095 0.194683 -0.112411 -0.288407 -0.062710 0.441870 -0.551207 0.026328 0.099839 0.025866 -0.241943 0.031419 -0.393829 0.116051 -0.410054 0.035022
before 0.336403 0.123927 0.278431 0.117310 0.319545 -0.224364 -0.073187 0.776853 0.131921 0.171932 0.111583 -0.095115 0.293351 -0.161973 0.285551 0.058099 -0.142904 0.050183 0.044203 0.167628 -0.379266 -0.074496 0.269887 0.134831 -0.025137 -0.300259 0.290232 0.318373 -0.115295 -0.234059 0.168006 -0.421944 -0.064882 0.122796 -0.055892 -0.057957 -0.084586 -0.047316 0.080071 0.041597 0.055029 -0.221648 -0.370665 0.032652 -0.094045 0.064037 -0.217127 -0.107425 0.049673 -0.306713 -0.151612 0.343851 -0.316237 -0.076959 0.004046 -0.271687 0.148273 0.446908 0.032924 -0.072616 -0.154086 -0.150234 0.027840 0.008646 0.144193 -0.076173 -0.206959 0.139898 0.361483 0.209935 -0.018969 0.365337 -0.024153 -0.323090 -0.269055 -0.175596 0.216054 0.097401 0.182969 -0.071031 -0.292032 0.371459 0.009891 -0.228026 0.040220 0.104928 -0.174348 -0.309411 0.011970 0.444262 -0.450106 0.058496 -0.101629 0.062211 -0.254813 -0.091460 -0.168853 0.064435 -0.270105 0.027339
about 0.326318 0.141147 0.269205 0.116470 0.315044 -0.215452 -0.117265 0.889567 0.103350 0.121290 0.144029 -0.130972 0.272875 -0.132035 0.303068 0.046910 -0.169379 0.112646 0.059392 0.190209 -0.387802 -0.079781 0.308365 0.181992 -0.090209 -0.350231 0.318640 0.341795 -0.095001 -0.207080 0.235220 -0.374259 -0.090960 0.125101 -0.103968 -0.005656 -0.130053 -0.040397 0.048031 -0.001461 0.062922 -0.173343 -0.389575 0.049592 -0.092084 0.092576 -0.272823 -0.115950 0.068203 -0.263927 -0.195189 0.346332 -0.290869 -0.007379 -0.058867 -0.260496 0.128734 0.431162 0.074196 -0.074804 -0.095063 -0.156007 -0.037045 -0.019221 0.125321 -0.110591 -0.178951 0.200550 0.331613 0.214463 -0.068932 0.387602 -0.014384 -0.298847 -0.318462 -0.189804 0.241963 0.111344 0.177950 -0.059913 -0.300320 0.313670 -0.004314 -0.234658 0.082204 0.120981 -0.157876 -0.305497 0.013504 0.426005 -0.484368 0.064629 -0.038233 0.048229 -0.234350 -0.048515 -0.243294 0.081635 -0.328714 0.020838
once 0.313339 0.099031 0.261076 0.099934 0.291022 -0.195432 -0.058790 0.695920 0.138143 0.166798 0.090265 -0.091028 0.275639 -0.151612 0.249412 0.052250 -0.129495 0.022218 0.035058 0.160074 -0.352320 -0.062311 0.245983 0.103491 -0.003126 -0.259017 0.251212 0.275926 -0.114456 -0.232896 0.136883 -0.393951 -0.061698 0.128982 -0.040047 -0.067071 -0.081794 -0.042037 0.098313 0.040783 0.060930 -0.205243 -0.324672 0.030465 -0.083431 0.036515 -0.176140 -0.091803 0.043722 -0.298398 -0.135830 0.330442 -0.294820 -0.087581 0.019130 -0.251688 0.151038 0.420679 0.021998 -0.049178 -0.150456 -0.132408 0.032627 0.016010 0.125406 -0.069368 -0.185611 0.113806 0.336650 0.187511 0.002602 0.335895 -0.015412 -0.296197 -0.231988 -0.154089 0.193385 0.082101 0.175295 -0.068547 -0.252988 0.347644 0.013280 -0.213135 0.004369 0.082158 -0.176173 -0.296468 0.020213 0.404994 -0.391109 0.070693 -0.116400 0.060065 -0.247249 -0.092370 -0.132071 0.063486 -0.238379 0.027189
hand 0.279302 0.118843 0.234035 0.096377 0.280342 -0.192968 -0.064989 0.675029 0.116139 0.143131 0.097370 -0.087809 0.253910 -0.151986 0.243385 0.046381 -0.125385 0.036957 0.027560 0.143679 -0.309834 -0.064130 0.221801 0.101109 -0.007567 -0.257353 0.245600 0.268370 -0.100373 -0.214979 0.137452 -0.369916 -0.050592 0.101972 -0.037003 -0.052003 -0.075715 -0.036155 0.077559 0.051867 0.052388 -0.192038 -0.305004 0.036526 -0.088544 0.047579 -0.186385 -0.084198 0.029339 -0.278291 -0.136111 0.320101 -0.275420 -0.083458 0.004946 -0.233841 0.135048 0.375235 0.022766 -0.039001 -0.143828 -0.127081 0.031420 0.011547 0.113937 -0.073282 -0.173519 0.114089 0.311767 0.168337 -0.012966 0.314967 -0.008801 -0.281481 -0.234505 -0.156204 0.185142 0.083359 0.161934 -0.076509 -0.239768 0.325465 -0.007516 -0.191318 0.018643 0.096064 -0.147388 -0.265086 -0.000207 0.389713 -0.394187 0.057544 -0.099784 0.042686 -0.229395 -0.078065 -0.135144 0.050463 -0.238317 0.024386
can 0.343318 0.110059 0.247075 0.110249 0.299341 -0.215069 -0.096669 0.788243 0.123254 0.162628 0.116577 -0.093540 0.252917 -0.148829 0.286307 0.077039 -0.136537 0.066117 0.064836 0.161004 -0.373893 -0.077916 0.276825 0.143721 -0.059273 -0.301220 0.281670 0.317556 -0.091913 -0.229795 0.177161 -0.375749 -0.098232 0.137741 -0.058025 -0.038231 -0.103735 -0.031431 0.070639 0.038629 0.046462 -0.192526 -0.356523 0.024751 -0.098991 0.068208 -0.210608 -0.097985 0.042871 -0.268852 -0.165389 0.302531 -0.289616 -0.056974 -0.022596 -0.258024 0.116479 0.438769 0.055078 -0.092670 -0.150067 -0.159078 0.005076 -0.003561 0.110150 -0.055367 -0.213129 0.144816 0.329230 0.211982 -0.030076 0.364193 -0.032222 -0.291957 -0.235168 -0.163167 0.226239 0.086559 0.191534 -0.053357 -0.278243 0.333065 0.026609 -0.222373 0.077934 0.084160 -0.170766 -0.303460 0.020922 0.391938 -0.436918 0.057610 -0.078857 0.046321 -0.233264 -0.054376 -0.175083 0.064302 -0.263260 0.002240
good 0.302430 0.100197 0.244030 0.105223 0.298132 -0.192044 -0.066346 0.696788 0.117387 0.153010 0.097014 -0.091084 0.256162 -0.148564 0.243297 0.059436 -0.117997 0.028254 0.050433 0.148083 -0.328401 -0.063515 0.234420 0.109695 -0.018500 -0.257971 0.258477 0.271300 -0.109654 -0.221860 0.130120 -0.370205 -0.060977 0.114900 -0.044431 -0.051176 -0.074284 -0.036320 0.075361 0.031364 0.048520 -0.198032 -0.314546 0.025023 -0.091203 0.054143 -0.189148 -0.100829 0.033344 -0.280970 -0.143473 0.316841 -0.286303 -0.073944 0.013375 -0.245991 0.130725 0.411269 0.020629 -0.054432 -0.155596 -0.130625 0.029809 0.002950 0.120978 -0.060704 -0.189291 0.120199 0.312452 0.179635 -0.009318 0.336269 -0.019897 -0.294626 -0.220448 -0.159915 0.184080 0.088454 0.174098 -0.072972 -0.251511 0.343201 0.020081 -0.199060 0.022703 0.082534 -0.169510 -0.283627 0.016340 0.387397 -0.399091 0.054324 -0.093475 0.045817 -0.230434 -0.078663 -0.142775 0.056291 -0.239133 0.023559
know 0.311868 0.059653 0.203867 0.115865 0.259363 -0.184277 -0.058770 0.597510 0.124926 0.173108 0.072922 -0.070519 0.228232 -0.153909 0.235740 0.085345 -0.102769 -0.010264 0.062497 0.137951 -0.324338 -0.056708 0.234478 0.085213 -0.016563 -0.222680 0.225792 0.239530 -0.097536 -0.226020 0.097083 -0.337438 -0.090938 0.119377 -0.019517 -0.077496 -0.052697 -0.009050 0.075951 0.058052 0.029160 -0.184409 -0.283590 -0.000987 -0.089147 0.034927 -0.136946 -0.078512 0.026842 -0.268910 -0.136897 0.221837 -0.270390 -0.091931 0.013284 -0.225733 0.096299 0.413104 0.018994 -0.093361 -0.188938 -0.118221 0.031125 0.003812 0.087286 0.000773 -0.217493 0.069307 0.292684 0.171769 -0.002609 0.291179 -0.049205 -0.239418 -0.156850 -0.134085 0.188449 0.079674 0.157272 -0.036279 -0.215887 0.301423 0.042707 -0.179801 0.032547 0.048423 -0.171056 -0.280341 0.017978 0.321861 -0.342986 0.050893 -0.109589 0.037855 -0.192768 -0.069052 -0.085076 0.046419 -0.181676 -0.003365
than 0.337619 0.121239 0.274814 0.102956 0.315476 -0.227244 -0.085872 0.801502 0.126321 0.163460 0.112402 -0.112606 0.291116 -0.142931 0.278542 0.057581 -0.149093 0.063729 0.043477 0.178699 -0.375584 -0.078585 0.274393 0.138206 -0.040113 -0.300911 0.286959 0.316060 -0.118384 -0.236476 0.180016 -0.406446 -0.074128 0.123434 -0.058246 -0.045723 -0.107697 -0.055390 0.086500 0.028642 0.056722 -0.201402 -0.364392 0.040360 -0.096175 0.066751 -0.221514 -0.100376 0.044459 -0.306860 -0.160706 0.353839 -0.319707 -0.076303 -0.003958 -0.261742 0.146062 0.456350 0.049813 -0.059773 -0.130140 -0.157732 0.024358 0.005513 0.131488 -0.088692 -0.185688 0.155379 0.351212 0.213453 -0.025500 0.378381 -0.021864 -0.312290 -0.275990 -0.178965 0.225482 0.096783 0.187954 -0.081117 -0.297826 0.358164 0.011930 -0.236510 0.032791 0.097824 -0.178130 -0.307225 0.019545 0.446775 -0.442372 0.072044 -0.094479 0.049687 -0.260349 -0.079255 -0.177080 0.083705 -0.283878 0.023017
last 0.295142 0.110774 0.249803 0.102693 0.296495 -0.195138 -0.070369 0.705564 0.119220 0.142368 0.103695 -0.097423 0.258532 -0.141552 0.265139 0.063791 -0.130207 0.045218 0.047605 0.152249 -0.334732 -0.069681 0.247300 0.124426 -0.024696 -0.274300 0.258811 0.284018 -0.104056 -0.223070 0.149176 -0.373533 -0.069866 0.122422 -0.055127 -0.051064 -0.079268 -0.048456 0.077568 0.036032 0.049323 -0.193532 -0.317960 0.038547 -0.081282 0.062781 -0.189491 -0.099723 0.044020 -0.275450 -0.145203 0.316619 -0.284724 -0.057283 -0.004099 -0.245120 0.133472 0.401998 0.032873 -0.060741 -0.136985 -0.139901 0.022619 -0.003718 0.120056 -0.063511 -0.187685 0.122705 0.314304 0.186707 -0.012506 0.343392 -0.009045 -0.293667 -0.243902 -0.150391 0.200803 0.087505 0.157999 -0.075603 -0.260035 0.335236 0.013065 -0.198819 0.036429 0.096929 -0.158679 -0.284623 0.001643 0.392362 -0.401685 0.063491 -0.086476 0.050747 -0.224967 -0.077458 -0.150488 0.063303 -0.241005 0.014008
face 0.283207 0.114083 0.228530 0.096044 0.277288 -0.185155 -0.056186 0.659212 0.120103 0.145637 0.097051 -0.085947 0.260795 -0.145626 0.232603 0.044630 -0.122229 0.024451 0.030941 0.153266 -0.307998 -0.064710 0.222971 0.096161 -0.012289 -0.251955 0.250673 0.263442 -0.100870 -0.207733 0.134181 -0.369650 -0.047136 0.110018 -0.025412 -0.048848 -0.068835 -0.034085 0.081142 0.050372 0.051591 -0.195581 -0.306415 0.036317 -0.084672 0.051237 -0.188335 -0.085965 0.033324 -0.273865 -0.130012 0.322911 -0.276860 -0.081049 0.014957 -0.237129 0.144995 0.382324 0.019150 -0.041752 -0.147375 -0.125691 0.034097 0.013185 0.124368 -0.070850 -0.173255 0.100678 0.312010 0.173371 -0.009153 0.316431 -0.004313 -0.282705 -0.216961 -0.148926 0.181373 0.080361 0.157098 -0.076708 -0.239204 0.331826 -0.005189 -0.188146 0.018403 0.087692 -0.150840 -0.259787 0.011544 0.381739 -0.376442 0.054313 -0.097287 0.049437 -0.230740 -0.080674 -0.131648 0.044851 -0.228764 0.022538
thought 0.273298 0.085576 0.217282 0.101309 0.246506 -0.175026 -0.050410 0.580077 0.119591 0.152084 0.076768 -0.071571 0.226880 -0.135060 0.223260 0.050213 -0.106365 0.015328 0.045696 0.133075 -0.292881 -0.049476 0.216009 0.088745 -0.003089 -0.210276 0.225239 0.236726 -0.096806 -0.197665 0.102565 -0.331425 -0.058249 0.098380 -0.024881 -0.065332 -0.063640 -0.032485 0.075009 0.036671 0.037213 -0.172290 -0.273432 0.021257 -0.074716 0.030290 -0.156488 -0.077893 0.032376 -0.257500 -0.122001 0.260575 -0.263270 -0.086917 0.012508 -0.208985 0.115909 0.367128 0.011376 -0.066331 -0.150090 -0.110950 0.031682 0.010211 0.106599 -0.040922 -0.185672 0.087884 0.279797 0.150802 -0.004826 0.293816 -0.031657 -0.250511 -0.179454 -0.134878 0.171750 0.074993 0.148236 -0.056868 -0.215263 0.301330 0.018455 -0.175521 0.012258 0.060552 -0.144849 -0.249723 0.014532 0.328139 -0.330404 0.056239 -0.108847 0.044527 -0.205545 -0.075229 -0.104326 0.045749 -0.199143 0.006880
house 0.276238 0.128106 0.227625 0.097746 0.287229 -0.182739 -0.067521 0.681245 0.105131 0.138887 0.096227 -0.095364 0.251417 -0.144227 0.248866 0.050314 -0.131040 0.046040 0.038274 0.149890 -0.308989 -0.062872 0.232008 0.116239 -0.016773 -0.256382 0.248282 0.260279 -0.099777 -0.210509 0.138815 -0.354626 -0.040235 0.101666 -0.047952 -0.036245 -0.089323 -0.038158 0.072955 0.029624 0.065367 -0.186844 -0.314382 0.043989 -0.087303 0.057934 -0.198250 -0.092806 0.032215 -0.269899 -0.141608 0.326215 -0.277673 -0.059828 -0.008006 -0.225807 0.134834 0.375791 0.031316 -0.039239 -0.129097 -0.126535 0.020161 0.012215 0.117194 -0.081271 -0.168309 0.115430 0.295159 0.174333 -0.021236 0.315666 -0.001923 -0.274174 -0.241568 -0.148846 0.182436 0.091046 0.150909 -0.083408 -0.243610 0.314917 -0.009655 -0.186200 0.022951 0.097038 -0.153217 -0.261604 0.002237 0.383614 -0.383794 0.052720 -0.074991 0.043707 -0.224862 -0.073252 -0.142343 0.059033 -0.235842 0.026053
doctor 0.286897 0.099690 0.244874 0.105125 0.290907 -0.198973 -0.066398 0.687757 0.114058 0.147320 0.098101 -0.093821 0.248291 -0.144391 0.250320 0.051835 -0.118753 0.031989 0.054085 0.162547 -0.318313 -0.063001 0.231541 0.108808 -0.020243 -0.258767 0.249766 0.262644 -0.096197 -0.214265 0.126713 -0.366704 -0.059898 0.105737 -0.041805 -0.043087 -0.073329 -0.046092 0.070084 0.033984 0.050626 -0.198245 -0.313409 0.029242 -0.099004 0.058442 -0.185215 -0.087940 0.035023 -0.277134 -0.140339 0.316577 -0.287880 -0.066263 0.013864 -0.237373 0.137949 0.394754 0.021815 -0.053144 -0.141113 -0.125265 0.031941 0.003974 0.135774 -0.063327 -0.177741 0.110115 0.303327 0.175953 -0.011396 0.324986 -0.014847 -0.287992 -0.222629 -0.152863 0.188750 0.079425 0.167603 -0.067164 -0.248878 0.339391 0.006894 -0.197116 0.012692 0.083561 -0.160978 -0.278058 0.013183 0.383080 -0.393423 0.065745 -0.086766 0.059247 -0.220218 -0.076350 -0.145046 0.052561 -0.229083 0.019132
two 0.314173 0.131549 0.262900 0.105393 0.319833 -0.219450 -0.070309 0.762716 0.124303 0.155248 0.112224 -0.093982 0.263519 -0.150496 0.272063 0.064960 -0.130267 0.065648 0.045359 0.166507 -0.343725 -0.067549 0.261172 0.122028 -0.024532 -0.295371 0.289707 0.311900 -0.110759 -0.230789 0.168837 -0.397510 -0.070190 0.120247 -0.068495 -0.038650 -0.088632 -0.046829 0.075731 0.030526 0.057347 -0.220677 -0.352199 0.030652 -0.093688 0.065943 -0.206093 -0.106313 0.035961 -0.299649 -0.153193 0.337976 -0.301566 -0.070847 -0.001904 -0.255095 0.140610 0.422932 0.032403 -0.055547 -0.144443 -0.146246 0.030164 0.007557 0.135183 -0.083910 -0.193242 0.137346 0.348689 0.207631 -0.022119 0.355788 -0.019140 -0.317563 -0.257254 -0.169035 0.196588 0.101395 0.177149 -0.083272 -0.284515 0.354708 0.007191 -0.220193 0.044388 0.110537 -0.165691 -0.299111 0.010879 0.421803 -0.437865 0.064376 -0.101789 0.045773 -0.247259 -0.085283 -0.170217 0.061600 -0.272032 0.021468
own 0.289938 0.117952 0.240034 0.108284 0.287298 -0.186942 -0.059057 0.691084 0.120052 0.153690 0.096323 -0.080426 0.259296 -0.142347 0.245441 0.044710 -0.124914 0.041320 0.032029 0.147312 -0.314296 -0.055309 0.232411 0.117381 -0.011240 -0.269187 0.262564 0.268248 -0.096123 -0.220906 0.144200 -0.378301 -0.048398 0.116599 -0.040678 -0.040381 -0.089113 -0.038695 0.080812 0.043113 0.063101 -0.208190 -0.318051 0.035557 -0.091157 0.051499 -0.203725 -0.085560 0.038402 -0.280117 -0.133365 0.330897 -0.287105 -0.083728 0.008477 -0.232924 0.137473 0.388014 0.019547 -0.042549 -0.142423 -0.139093 0.029211 0.005964 0.127021 -0.077486 -0.185353 0.117986 0.306938 0.179865 -0.006515 0.325139 -0.000069 -0.288952 -0.238492 -0.162038 0.175113 0.086293 0.153000 -0.074461 -0.245773 0.333990 -0.007759 -0.202319 0.023538 0.097739 -0.150096 -0.275224 0.009026 0.402213 -0.399325 0.063127 -0.091768 0.049255 -0.222245 -0.080612 -0.144325 0.055948 -0.235350 0.022291
may 0.322995 0.120471 0.263302 0.116244 0.303246 -0.223751 -0.094571 0.821843 0.111979 0.150567 0.126432 -0.114666 0.254601 -0.144658 0.305876 0.066750 -0.127792 0.084528 0.049766 0.161361 -0.366504 -0.066717 0.279981 0.155387 -0.054655 -0.315215 0.286496 0.330186 -0.094775 -0.242406 0.190569 -0.367524 -0.100835 0.140313 -0.078926 -0.027364 -0.105950 -0.039341 0.077641 0.030140 0.044723 -0.180435 -0.365635 0.026321 -0.088974 0.077520 -0.228535 -0.097777 0.043817 -0.247685 -0.180104 0.312204 -0.295326 -0.038362 -0.045937 -0.249924 0.104352 0.438636 0.072138 -0.088161 -0.135833 -0.173954 -0.011886 -0.017393 0.110422 -0.068612 -0.195615 0.149860 0.325146 0.221420 -0.053556 0.383720 -0.043672 -0.293218 -0.261593 -0.175267 0.223268 0.098426 0.171090 -0.065798 -0.296099 0.335415 0.017620 -0.219982 0.089152 0.108345 -0.162480 -0.312934 -0.001908 0.411352 -0.437120 0.056722 -0.056420 0.036157 -0.232503 -0.052658 -0.203937 0.068849 -0.272817 0.014861
only 0.313411 0.120710 0.252751 0.104942 0.305370 -0.207275 -0.068492 0.740328 0.117847 0.154695 0.099242 -0.099253 0.257725 -0.148530 0.264784 0.060798 -0.130481 0.045593 0.041272 0.161472 -0.339009 -0.067700 0.257477 0.123094 -0.031696 -0.283559 0.276477 0.291307 -0.109642 -0.218857 0.157237 -0.377528 -0.077680 0.125943 -0.051119 -0.048435 -0.091442 -0.028886 0.078708 0.041127 0.057440 -0.196301 -0.341755 0.035096 -0.084556 0.061367 -0.207216 -0.098027 0.043222 -0.284270 -0.159080 0.328626 -0.295490 -0.072172 -0.005937 -0.245788 0.132149 0.419019 0.038249 -0.072174 -0.146280 -0.138500 0.022607 0.001536 0.127440 -0.069154 -0.190166 0.128253 0.331879 0.191130 -0.013295 0.344994 -0.020094 -0.291252 -0.247402 -0.163911 0.199834 0.087911 0.175991 -0.063596 -0.260861 0.332961 0.011307 -0.203933 0.046845 0.084396 -0.171112 -0.291411 0.015396 0.399410 -0.414617 0.055856 -0.090970 0.054132 -0.236033 -0.074397 -0.152836 0.066935 -0.261302 0.018021
never 0.312787 0.091715 0.249884 0.100749 0.293562 -0.197012 -0.056865 0.679968 0.127472 0.170048 0.093669 -0.092137 0.261157 -0.154674 0.254147 0.056485 -0.126607 0.023325 0.055296 0.157476 -0.340491 -0.061755 0.240631 0.093268 -0.011207 -0.248788 0.252842 0.279102 -0.103027 -0.225675 0.135980 -0.377347 -0.071868 0.114676 -0.036086 -0.058870 -0.066087 -0.038658 0.087838 0.041023 0.041712 -0.195510 -0.324425 0.024867 -0.097394 0.047459 -0.172545 -0.095978 0.041339 -0.296658 -0.134185 0.294795 -0.293458 -0.094108 0.016218 -0.243343 0.132342 0.417430 0.017789 -0.074967 -0.163783 -0.124582 0.035353 0.013056 0.126729 -0.050782 -0.195898 0.097161 0.330518 0.183044 -0.002569 0.334717 -0.023369 -0.283427 -0.221687 -0.153423 0.191148 0.083875 0.172505 -0.069615 -0.249642 0.340082 0.020322 -0.204329 0.014918 0.069374 -0.173012 -0.284805 0.015292 0.377884 -0.378538 0.058923 -0.118358 0.053964 -0.235831 -0.090614 -0.125786 0.057602 -0.234841 0.013897
