1582 100
the 0.047523 0.489916 0.241284 0.007328 0.669367 -0.365602 -0.030321 0.325777 -0.437395 0.383733 -0.003550 -0.201226 0.492250 -0.500478 -0.445882 0.249017 -0.044123 -0.159753 -0.362732 -0.130252 0.180984 0.740426 0.152374 -0.131742 0.097572 -0.047385 0.061487 -0.076679 -0.177331 0.088764 -0.072471 -0.284574 0.439070 0.131360 0.033224 0.181914 0.065847 -0.510153 -0.061525 -0.344155 0.344958 -0.538855 -0.384167 0.318834 -0.121498 0.213358 -0.007091 -0.524900 -0.271110 -0.592475 -0.245339 0.923452 -0.409005 -0.217110 0.420032 -0.083904 -0.057926 -0.312711 0.134676 0.622860 -0.022401 0.006231 -0.025217 0.089161 0.660586 0.057730 0.025871 0.270983 0.313418 0.171606 0.078106 0.109107 0.130911 -0.366904 -0.621655 0.254664 -0.127352 0.268482 0.467794 -0.160395 -0.198140 0.063439 -0.025618 -0.031981 -0.317185 0.489054 0.269126 -0.318556 -0.362398 0.543627 -0.202896 0.211846 -0.472056 0.011895 -0.348570 -0.171641 -0.155332 -0.047816 -0.242228 0.200248
and 0.123553 0.392541 0.365960 0.009558 0.714663 -0.140135 -0.010961 0.228959 -0.156717 0.339869 0.060892 -0.303632 0.487774 -0.706454 -0.177434 0.208682 0.092852 -0.209723 -0.258824 -0.065435 0.082285 0.427419 0.208007 -0.151220 0.189174 -0.247944 0.046140 0.238710 0.015102 0.031102 0.008761 -0.399616 0.317043 0.123935 -0.082708 -0.008562 0.086262 -0.366263 -0.098394 -0.034133 0.220317 -0.379538 -0.359888 0.308253 0.109768 0.021693 -0.244970 -0.489876 -0.036263 -0.510316 -0.435228 0.631769 -0.299428 -0.007091 0.643144 -0.264047 -0.019076 -0.066906 0.046932 0.599364 -0.060328 0.077874 -0.081002 0.175611 0.329662 0.003843 0.044340 0.292297 0.330332 -0.001914 0.159609 0.214144 -0.003386 -0.496532 -0.621576 0.049080 -0.104343 0.351162 0.408074 -0.072674 -0.213743 0.138366 -0.145774 -0.115218 -0.258082 0.367654 -0.077142 -0.207639 -0.385631 0.456484 -0.189637 0.100685 -0.224225 0.053232 -0.461395 -0.225121 -0.042576 -0.140090 -0.062887 0.072450
of -0.044848 0.366787 0.416427 0.051733 0.573837 -0.089001 -0.010711 0.416023 -0.253718 0.276612 0.098164 -0.392214 0.254481 -0.382564 -0.037315 0.170041 -0.011607 -0.068594 -0.146845 -0.018026 0.161740 0.343727 0.108019 0.053082 0.066670 -0.277990 0.078258 0.242387 0.026996 0.245889 0.196945 -0.306354 0.255641 -0.117891 -0.096323 0.246289 -0.152663 -0.431473 -0.213593 -0.251316 0.015501 -0.026291 -0.588935 0.063409 0.205254 0.200337 -0.365000 -0.471192 -0.064813 -0.397120 -0.438241 0.712049 -0.158163 -0.184903 0.363318 -0.106909 -0.077371 -0.122091 0.049455 0.554798 0.304377 0.071559 -0.126129 -0.052650 0.412173 -0.207695 0.071759 0.590462 0.265638 0.069205 -0.127631 0.427524 -0.139450 -0.407270 -0.519436 -0.240665 0.066087 0.149676 0.355651 -0.070001 -0.145554 0.201138 -0.194547 -0.298458 0.091498 0.368878 0.088458 -0.253086 -0.295944 0.221719 -0.335929 -0.037260 0.032986 -0.004092 -0.320684 -0.193784 -0.385859 -0.107887 -0.062778 0.218378
a 0.044018 0.327779 0.180309 -0.032060 0.518854 -0.398198 0.013968 0.579611 -0.096389 0.412800 0.054827 -0.230710 0.440508 -0.440169 -0.177540 0.228646 -0.047449 -0.003415 -0.240311 -0.072924 0.025964 0.356272 0.199673 -0.011229 0.024819 -0.128382 0.102508 0.094155 -0.115574 -0.041405 -0.102588 -0.202238 0.159646 0.064792 -0.018978 0.020287 0.042833 -0.426667 -0.113740 -0.177112 0.194289 -0.391374 -0.498925 0.108314 0.092525 0.100433 -0.060772 -0.513450 -0.138769 -0.418055 -0.238211 0.588887 -0.304539 -0.062081 0.353365 -0.198956 -0.040596 -0.040956 0.154728 0.338765 -0.049131 -0.014328 0.025763 0.066013 0.446532 -0.034660 0.054283 0.163937 0.247349 0.127579 0.109618 0.237179 0.096201 -0.307550 -0.536288 0.143091 0.005041 0.287910 0.350540 -0.190803 -0.100130 0.108672 -0.113021 -0.218952 -0.193821 0.451124 -0.004924 -0.238728 -0.136877 0.530218 -0.291229 -0.015922 -0.249028 0.119412 -0.381409 -0.237387 -0.160177 0.096211 -0.249403 0.066046
i 0.378225 0.288776 0.323142 -0.158733 0.651526 -0.153459 0.066413 0.638187 0.496250 0.610677 0.178806 0.035359 0.434132 -0.651744 0.276238 0.317241 -0.195036 0.019761 -0.209964 0.022304 -0.300972 -0.101405 0.410527 -0.203786 0.150563 -0.589437 0.287598 0.387764 0.067116 -0.654539 0.162900 -0.593680 -0.183299 0.633018 -0.022401 -0.538692 0.602548 0.183096 0.282212 0.374899 0.301900 -0.715267 -0.312321 -0.059788 0.363645 -0.263103 0.071035 -0.247336 0.087291 -0.110576 -0.021627 0.011573 -0.398740 0.294001 0.529197 -0.379263 0.271839 0.711739 0.219524 -0.108615 -0.538537 -0.249293 0.300992 -0.058788 -0.074727 0.049146 0.110178 -0.030570 0.414836 0.044638 0.756230 0.157952 -0.072043 -0.279445 -0.335792 0.040508 0.327838 0.201483 -0.044926 -0.144094 -0.044549 0.033731 0.055001 -0.309240 -0.215382 -0.020811 -0.404435 -0.262463 0.154563 0.782822 -0.034907 -0.216160 -0.247422 0.318039 -0.501952 -0.208676 0.460756 0.281710 -0.312565 -0.176231
to 0.188868 0.227255 0.298563 -0.208155 0.493173 -0.169566 0.020010 0.811095 0.202527 0.398227 0.313444 -0.201385 0.217733 -0.419358 0.259327 0.143361 -0.141925 0.025545 -0.134228 0.114529 -0.349250 -0.043214 0.342669 -0.018938 0.001867 -0.589475 0.192202 0.356349 0.099839 -0.278129 0.294158 -0.391118 -0.183773 0.435815 -0.034149 -0.147204 0.188316 0.054641 0.101297 0.242473 0.098769 -0.325655 -0.420011 -0.168665 0.450249 -0.024193 -0.173184 -0.275201 0.027291 0.011439 -0.218094 0.142276 -0.193033 0.188568 0.267238 -0.246035 0.080707 0.376846 0.252665 0.030402 -0.158994 -0.221474 0.130717 -0.224485 0.069812 -0.208428 0.123079 0.193140 0.288409 0.042919 0.279087 0.307570 -0.210054 -0.206370 -0.283649 -0.163005 0.362205 0.144734 0.030165 -0.053126 -0.189618 0.083018 0.016319 -0.396492 0.015094 0.091793 -0.256544 -0.301064 0.162693 0.443254 -0.156530 -0.365101 0.027641 0.181340 -0.431918 -0.222609 0.103048 0.222333 -0.338180 -0.066675
in 0.023065 0.323192 0.355576 0.002787 0.561266 -0.145162 0.021502 0.468850 -0.112928 0.335617 0.130498 -0.332672 0.299298 -0.459044 -0.017005 0.189932 -0.037199 -0.060216 -0.135745 0.013083 0.035181 0.250022 0.135066 0.022721 0.095888 -0.300607 0.088158 0.256285 0.011670 0.092924 0.131767 -0.314157 0.174022 0.036256 -0.055954 0.063530 -0.040792 -0.335814 -0.133034 -0.084073 0.044124 -0.160177 -0.491038 0.064946 0.229070 0.112218 -0.251424 -0.449213 -0.040230 -0.327833 -0.355344 0.542738 -0.172985 -0.057310 0.374702 -0.168359 -0.053270 -0.005836 0.075207 0.393328 0.099150 0.059625 -0.029026 -0.041786 0.320925 -0.151864 0.047428 0.419048 0.265887 0.040494 0.043365 0.344639 -0.109826 -0.381387 -0.442024 -0.149187 0.102949 0.210580 0.266988 -0.056699 -0.140197 0.147514 -0.163317 -0.251752 -0.015594 0.318212 -0.024760 -0.249180 -0.182322 0.326096 -0.277821 -0.066142 -0.042809 0.049063 -0.396633 -0.198989 -0.190890 -0.042779 -0.136028 0.093327
was 0.107123 0.165403 0.344296 0.015760 0.601278 -0.123147 0.089379 0.379312 0.264448 0.387445 0.111030 -0.162045 0.458884 -0.634579 0.092415 0.235180 -0.141800 -0.201350 -0.316416 0.033135 -0.099201 -0.029914 0.176216 -0.102133 0.162320 -0.274364 0.111025 0.424059 0.002770 -0.147711 0.122714 -0.440905 0.071533 0.247207 0.061792 -0.304480 0.270902 -0.178837 -0.002072 0.250611 0.243014 -0.383651 -0.473245 -0.057804 0.346897 -0.186546 -0.071963 -0.370446 0.001881 -0.336188 -0.231306 0.377723 -0.232510 0.179012 0.513912 -0.395563 0.148031 0.241225 -0.035753 0.198777 -0.223813 0.066065 0.218912 -0.027169 0.181151 -0.042201 0.068720 0.180735 0.438845 -0.068254 0.392737 0.291331 -0.131920 -0.374579 -0.273221 -0.012265 0.170898 0.278874 0.118755 0.076427 -0.166960 0.199487 -0.060583 -0.307785 -0.107197 0.115275 -0.266041 -0.187844 -0.107123 0.406229 -0.108272 -0.048715 -0.216273 0.196674 -0.614216 -0.275383 0.122392 0.002406 -0.065959 -0.126549
that 0.135445 0.219911 0.317865 -0.120477 0.453106 -0.273134 0.136544 0.696877 0.302081 0.565300 0.211545 -0.095363 0.304786 -0.352195 0.174511 0.258430 -0.240766 -0.004883 -0.248667 0.107199 -0.266780 -0.016285 0.216720 0.016941 0.003418 -0.410186 0.233377 0.346408 -0.047807 -0.315860 0.197918 -0.433089 -0.208951 0.406232 0.127285 -0.270764 0.366032 0.010007 0.176887 0.199122 0.173243 -0.497502 -0.540495 -0.269433 0.417109 -0.059659 0.060062 -0.335027 -0.039344 -0.177724 -0.032928 0.261694 -0.261112 0.055814 0.242607 -0.253300 0.179134 0.412972 0.204465 -0.019277 -0.277057 -0.210736 0.310967 -0.246678 0.241949 -0.099921 0.104689 0.105438 0.393565 0.070283 0.425033 0.329781 -0.158532 -0.176519 -0.134828 -0.102623 0.316079 0.113245 -0.038075 -0.046052 -0.060666 0.128723 0.049262 -0.397256 -0.009844 0.102494 -0.188967 -0.317557 0.185155 0.566215 -0.099400 -0.275316 -0.198642 0.209193 -0.444201 -0.285007 0.154025 0.270474 -0.256588 -0.034321
it 0.179514 0.227334 0.267129 -0.113344 0.417779 -0.275291 0.116644 0.832600 0.429300 0.552507 0.197244 -0.084591 0.240975 -0.355918 0.237224 0.262915 -0.301052 0.064778 -0.168538 0.121891 -0.344902 -0.092830 0.204379 -0.010927 -0.008045 -0.424685 0.266933 0.347309 -0.054848 -0.355258 0.179747 -0.393447 -0.229218 0.456767 0.106942 -0.314636 0.323789 0.114069 0.206848 0.289734 0.202105 -0.542477 -0.532846 -0.224702 0.401982 -0.037711 0.048564 -0.254418 -0.032048 -0.081201 0.010008 0.163648 -0.341739 0.105615 0.240076 -0.268008 0.184846 0.537802 0.265822 -0.202606 -0.289294 -0.252485 0.316001 -0.231210 0.119538 -0.066504 0.086905 0.084644 0.380019 0.078222 0.460162 0.256484 -0.164856 -0.150692 -0.141583 -0.061901 0.348629 0.117235 -0.054828 -0.043551 -0.035051 0.095353 0.103351 -0.345183 -0.020937 0.060878 -0.229398 -0.283022 0.283504 0.637689 -0.111574 -0.292040 -0.175219 0.224375 -0.414989 -0.233089 0.179262 0.332792 -0.383470 -0.124563
had 0.047607 0.078299 0.376828 -0.111007 0.422532 -0.077759 0.092429 0.616493 0.400182 0.631114 0.369472 -0.047956 0.290529 -0.230438 0.200929 0.250066 -0.376323 -0.059507 -0.321243 0.247821 -0.284536 0.023833 0.027283 0.008594 0.125422 -0.357256 0.304899 0.559104 0.009843 -0.214390 0.359611 -0.489277 -0.253669 0.408423 0.131191 -0.376775 0.694035 0.020872 0.238575 0.326326 0.267141 -0.314968 -0.615208 -0.532669 0.403198 -0.063211 0.051505 -0.270453 -0.064583 -0.157724 0.128981 0.268382 -0.153767 0.057180 0.214635 -0.334793 0.268879 0.354559 0.151309 -0.082765 -0.287210 -0.150254 0.372575 -0.229742 0.328434 -0.224584 0.220217 0.203180 0.550054 -0.084226 0.455472 0.452106 -0.364380 -0.190689 -0.111695 -0.225768 0.296973 0.115414 -0.190239 0.125971 -0.131812 0.068993 0.063149 -0.570831 -0.046873 0.006840 -0.264644 -0.408774 0.126013 0.530619 -0.037900 -0.369860 -0.157388 0.349200 -0.617111 -0.293092 0.145500 0.170794 -0.092235 0.047006
with 0.036599 0.309377 0.273312 -0.065515 0.533522 -0.148475 -0.066730 0.672649 -0.133445 0.266829 0.175881 -0.418851 0.262801 -0.382486 0.013944 0.109982 -0.077592 0.046425 -0.096689 0.024888 -0.059848 0.230460 0.233686 0.091269 -0.016349 -0.381164 0.105893 0.243608 0.055580 0.126108 0.174288 -0.243835 0.128271 0.030213 -0.101611 0.146205 -0.148202 -0.291042 -0.198232 -0.118040 0.059603 -0.101772 -0.508544 0.055513 0.221820 0.154490 -0.312058 -0.465947 -0.014951 -0.214022 -0.414908 0.496744 -0.148009 0.018124 0.303151 -0.177163 -0.100023 -0.014661 0.149313 0.352020 0.187388 0.021298 -0.126664 -0.055568 0.281874 -0.239110 0.077307 0.409207 0.189681 0.069238 -0.055537 0.354009 -0.105335 -0.336860 -0.539714 -0.133844 0.109085 0.206328 0.272322 -0.088238 -0.160619 0.075118 -0.167086 -0.292850 0.004227 0.381520 -0.032555 -0.212603 -0.186824 0.265571 -0.327009 -0.123600 0.031730 0.051979 -0.349364 -0.193717 -0.265667 0.007108 -0.239751 0.060490
my 0.238259 0.258362 0.242899 -0.083743 0.804157 -0.198756 0.034291 0.625052 0.228878 0.429421 0.047761 -0.102152 0.591311 -0.758304 0.115709 0.117664 -0.048951 0.023193 -0.299175 0.086369 -0.160004 0.013299 0.421663 -0.305333 0.148014 -0.412918 0.241027 0.316473 0.102893 -0.492860 0.103999 -0.493575 0.018665 0.567395 -0.119535 -0.295920 0.341163 0.095926 -0.025972 0.298708 0.464200 -0.675396 -0.238999 0.194102 0.352913 -0.347319 -0.182411 -0.392118 0.043866 -0.334481 -0.265792 0.151302 -0.356749 0.455230 0.641133 -0.459589 0.155929 0.363411 0.137780 0.127995 -0.419585 -0.017183 0.051070 0.055633 0.043247 -0.082441 0.002051 -0.102761 0.260973 -0.061935 0.494569 -0.015992 0.030674 -0.363123 -0.596043 0.091528 0.051993 0.405073 0.148608 -0.041646 -0.219447 -0.028611 0.137734 -0.084767 -0.296979 0.051413 -0.354808 -0.156953 -0.190055 0.686599 -0.115836 0.056518 -0.306255 0.203155 -0.556710 -0.166734 0.311143 0.094396 -0.261779 -0.169281
as 0.159174 0.173103 0.318731 -0.137841 0.400678 -0.209931 0.150813 0.711707 0.360605 0.411740 0.291210 -0.122934 0.208715 -0.330986 0.227741 0.272581 -0.283644 -0.003454 -0.206868 0.103429 -0.372919 -0.015174 0.177489 0.005653 0.023897 -0.474865 0.167055 0.367138 0.044306 -0.268503 0.302873 -0.383555 -0.298017 0.404629 0.115402 -0.365794 0.376660 0.061906 0.216621 0.240438 0.156582 -0.486115 -0.551016 -0.328236 0.434358 0.050694 -0.008100 -0.279397 -0.011861 0.011682 0.057300 0.176996 -0.237286 0.076967 0.234827 -0.259984 0.182385 0.481963 0.224594 -0.182993 -0.265583 -0.239497 0.258015 -0.293370 0.192737 -0.092474 0.149697 0.168396 0.352295 0.059443 0.416191 0.272830 -0.235007 -0.120261 -0.147120 -0.079429 0.375161 0.122700 -0.014911 0.060642 -0.183849 0.131650 0.086324 -0.386362 0.024472 0.093412 -0.207599 -0.321443 0.268604 0.593622 -0.119263 -0.409299 -0.075330 0.199598 -0.421392 -0.274642 0.185249 0.260585 -0.269004 -0.025639
at 0.120642 0.261085 0.336718 -0.100121 0.582155 -0.103542 0.046950 0.510715 0.112118 0.424950 0.142472 -0.169842 0.387727 -0.512385 0.144092 0.207549 -0.119697 -0.040458 -0.220846 0.052468 -0.114957 0.073624 0.244037 -0.076536 0.109121 -0.426128 0.181216 0.363695 0.077879 -0.202690 0.213192 -0.439325 0.045719 0.268332 -0.023615 -0.137414 0.253247 -0.125748 -0.008329 0.098388 0.175530 -0.376993 -0.418554 -0.023129 0.316495 -0.074176 -0.118829 -0.389602 0.016547 -0.236730 -0.242049 0.357481 -0.213689 0.139635 0.409443 -0.300393 0.094396 0.231621 0.126871 0.237542 -0.110838 -0.037505 0.124556 -0.112632 0.212778 -0.134588 0.116264 0.249355 0.326162 -0.013677 0.330963 0.280442 -0.117014 -0.351129 -0.366867 -0.095065 0.190901 0.178684 0.075603 -0.055955 -0.147127 0.086597 -0.062771 -0.296088 -0.053511 0.214713 -0.197589 -0.226588 -0.095437 0.443428 -0.152488 -0.093302 -0.101839 0.158926 -0.476575 -0.219282 0.041355 0.080218 -0.202946 0.014185
he 0.303741 0.237120 0.200447 -0.165733 0.535286 -0.180780 0.036943 0.808230 0.436796 0.568337 0.236416 -0.122488 0.356375 -0.522215 0.281260 0.190515 -0.199328 0.063282 -0.110547 0.099682 -0.375612 -0.124096 0.351691 -0.088427 0.124102 -0.564667 0.237575 0.436704 0.023471 -0.499379 0.073524 -0.470177 -0.187009 0.507864 -0.032675 -0.408553 0.348743 0.126468 0.157242 0.336169 0.185034 -0.554908 -0.450640 -0.094690 0.372580 -0.194333 -0.035288 -0.267954 0.076541 -0.099485 -0.163394 0.032248 -0.346196 0.286811 0.388509 -0.396147 0.157725 0.601161 0.244902 -0.114541 -0.397938 -0.176319 0.135522 -0.077598 -0.040039 -0.040332 0.085040 0.028032 0.312646 0.009752 0.571534 0.203885 -0.120279 -0.254190 -0.391884 -0.009909 0.312967 0.251793 -0.010491 -0.086524 -0.012979 0.059444 -0.003830 -0.312002 -0.144515 0.121455 -0.353073 -0.239145 0.189472 0.625633 -0.143544 -0.258881 -0.166531 0.322835 -0.461686 -0.193504 0.283828 0.249599 -0.385810 -0.213903
on 0.090475 0.317570 0.356490 -0.040163 0.620835 -0.125870 0.015013 0.422961 -0.009508 0.329337 0.166727 -0.258781 0.333159 -0.545300 0.041210 0.154314 -0.023310 -0.105480 -0.165225 0.022705 -0.050761 0.210879 0.223704 -0.061483 0.155778 -0.372308 0.102755 0.297035 0.040741 -0.012910 0.150739 -0.414202 0.185920 0.176744 -0.046285 -0.014351 0.040039 -0.227446 -0.074784 0.031907 0.101951 -0.266155 -0.425060 0.085122 0.237261 -0.001137 -0.209325 -0.417350 -0.011982 -0.317558 -0.370043 0.485947 -0.224253 0.039843 0.441234 -0.213084 0.012294 0.054581 0.094776 0.395665 -0.007063 0.053655 -0.018801 -0.011552 0.251567 -0.092902 0.046909 0.362145 0.297486 0.036660 0.180620 0.260476 -0.129127 -0.395419 -0.437756 -0.064698 0.126444 0.250768 0.237097 -0.035956 -0.184207 0.155258 -0.109970 -0.213718 -0.039599 0.277875 -0.057859 -0.234673 -0.165344 0.365018 -0.206977 -0.010391 -0.103460 0.092740 -0.420744 -0.162302 -0.054395 -0.045611 -0.130614 0.041044
for 0.069628 0.219495 0.310087 -0.090603 0.463296 -0.166378 0.045360 0.743953 0.199066 0.429063 0.203251 -0.195043 0.268336 -0.295455 0.226339 0.143315 -0.200718 0.089181 -0.185163 0.093487 -0.239692 -0.030842 0.250692 0.093364 -0.050534 -0.455468 0.224564 0.381962 0.049767 -0.162655 0.272948 -0.325929 -0.155138 0.239304 0.011308 -0.141702 0.197843 -0.099668 -0.015153 0.075973 0.112245 -0.265709 -0.544463 -0.263294 0.394593 -0.039872 -0.113154 -0.390115 0.029212 -0.127066 -0.170042 0.249621 -0.103770 0.127341 0.276270 -0.250549 0.104842 0.303377 0.162703 0.057338 -0.044812 -0.085780 0.154496 -0.210862 0.178124 -0.237420 0.115434 0.266320 0.273282 0.019784 0.233314 0.382785 -0.157509 -0.241802 -0.312098 -0.165710 0.263761 0.143792 0.020728 -0.061327 -0.102676 0.091316 -0.067540 -0.427510 0.085399 0.187123 -0.194697 -0.249933 0.063753 0.392992 -0.229272 -0.258585 0.015211 0.197856 -0.411834 -0.211841 -0.041285 0.199286 -0.244027 0.006053
were -0.034967 0.257141 0.373226 -0.049985 0.459331 -0.280658 0.151819 0.505666 -0.034503 0.413688 0.232105 -0.200567 0.217913 -0.257196 -0.057876 0.316966 -0.078060 -0.146238 -0.304551 0.114397 -0.148282 0.305537 0.008154 0.022539 0.064635 -0.273223 0.118275 0.239503 -0.092401 -0.010258 0.182499 -0.310957 0.002479 0.146186 0.054580 -0.014743 0.131608 -0.287879 0.018399 -0.023779 0.057497 -0.300479 -0.698547 -0.314963 0.294253 0.204354 -0.114080 -0.399929 -0.183384 -0.342901 -0.119256 0.582980 -0.126098 -0.219860 0.217802 -0.056182 0.055474 0.041349 0.115456 0.275869 -0.032304 -0.059239 0.147642 -0.158557 0.448602 -0.118929 0.131873 0.367176 0.351236 0.029425 0.101271 0.359606 -0.144281 -0.264681 -0.252366 -0.150968 0.177687 0.126356 0.141046 0.017073 -0.197598 0.247951 -0.052038 -0.345249 0.018240 0.281687 0.035209 -0.437469 0.066873 0.393468 -0.210473 -0.280967 -0.073495 0.140391 -0.466293 -0.380354 -0.099846 -0.022908 -0.152966 0.189495
they 0.198159 0.191701 0.312030 -0.286328 0.307494 -0.373224 0.222958 1.144842 0.411551 0.593077 0.482294 -0.063233 0.002066 -0.062918 0.354970 0.290548 -0.306495 0.091862 -0.200746 0.250286 -0.576529 -0.090150 0.195070 0.136230 -0.083924 -0.646291 0.285825 0.277753 -0.045982 -0.490188 0.341989 -0.416124 -0.587708 0.503159 0.146402 -0.258757 0.395198 0.152403 0.334167 0.255253 -0.008071 -0.502988 -0.712505 -0.714604 0.537110 0.160925 0.105805 -0.176713 -0.118622 0.145417 0.247241 0.067303 -0.220435 -0.096082 -0.047274 -0.118083 0.159035 0.658197 0.403050 -0.358300 -0.304554 -0.510031 0.387370 -0.479967 0.194319 -0.206399 0.203450 0.149907 0.331365 0.157198 0.397298 0.395438 -0.239131 0.035964 0.028215 -0.272249 0.623152 -0.041041 -0.238817 -0.127083 -0.099714 0.163070 0.137974 -0.602318 0.134317 0.058198 -0.132353 -0.596986 0.633367 0.638872 -0.216963 -0.668607 -0.033536 0.286397 -0.333829 -0.302231 0.218470 0.524472 -0.511326 0.048983
from 0.075879 0.310781 0.351568 -0.065950 0.613517 -0.070247 0.041557 0.437087 -0.023914 0.364788 0.134237 -0.286772 0.312183 -0.535827 0.057820 0.184853 -0.008167 -0.110902 -0.159859 0.049226 -0.060074 0.187722 0.197153 -0.095732 0.151863 -0.411909 0.107746 0.329545 0.066039 -0.064415 0.130759 -0.426740 0.143992 0.167885 -0.058280 -0.053285 0.082291 -0.201779 -0.032478 0.045306 0.090945 -0.287254 -0.425594 0.057035 0.260220 -0.004733 -0.236659 -0.355406 0.010845 -0.321947 -0.354579 0.440392 -0.236320 0.011289 0.451285 -0.200344 0.024215 0.094322 0.092729 0.391388 -0.044889 0.018662 0.021140 -0.031824 0.252257 -0.060576 0.059146 0.382318 0.289191 0.017162 0.204394 0.260365 -0.166207 -0.408894 -0.419046 -0.137871 0.150827 0.232155 0.219469 -0.020853 -0.147255 0.139407 -0.121472 -0.231878 -0.025689 0.266620 -0.075451 -0.262856 -0.151029 0.367384 -0.196002 -0.086091 -0.102967 0.115796 -0.423619 -0.183767 -0.017682 -0.081455 -0.154393 0.061140
but 0.137940 0.174529 0.273841 -0.159042 0.401921 -0.275587 0.125072 0.795682 0.326284 0.484359 0.261165 -0.131804 0.253549 -0.285440 0.216085 0.242102 -0.262747 0.034159 -0.220034 0.158305 -0.360470 -0.089138 0.220173 0.068682 -0.033229 -0.431949 0.238848 0.358582 -0.022966 -0.247776 0.255741 -0.383825 -0.278469 0.377427 0.087115 -0.275866 0.347194 0.027706 0.126171 0.229649 0.131248 -0.362517 -0.585937 -0.360370 0.390826 -0.003512 0.031559 -0.281699 -0.032763 -0.093455 0.015933 0.186988 -0.177468 0.074519 0.158029 -0.253847 0.167716 0.436982 0.210663 -0.113942 -0.239522 -0.194964 0.320432 -0.267924 0.194214 -0.142335 0.149742 0.160288 0.343637 0.059482 0.336882 0.338373 -0.211957 -0.129840 -0.132820 -0.150283 0.371553 0.120540 -0.083034 0.014196 -0.119040 0.133079 0.020174 -0.460758 0.088209 0.090408 -0.196817 -0.295198 0.245065 0.494998 -0.179915 -0.351177 -0.063529 0.231166 -0.446966 -0.246265 0.169575 0.268878 -0.302082 -0.046540
this 0.039930 0.229086 0.152405 -0.126327 0.338805 -0.343173 -0.014269 1.091429 0.004156 0.363947 0.278703 -0.288747 0.076462 -0.046406 0.180542 0.081997 -0.311956 0.247014 -0.067894 0.108604 -0.300231 0.053892 0.259210 0.203291 -0.248309 -0.452937 0.214510 0.126130 -0.043911 -0.020084 0.223125 -0.115964 -0.156746 0.236246 0.009922 0.089969 -0.059044 -0.085298 -0.072088 -0.105638 0.098305 -0.224409 -0.634091 -0.315829 0.297141 0.229291 -0.127757 -0.371127 -0.121174 0.006959 -0.131306 0.335054 -0.112566 0.028257 -0.031840 -0.130356 -0.046313 0.183557 0.344276 -0.066871 0.141545 -0.209061 0.050408 -0.376451 0.299512 -0.288383 0.088619 0.332730 0.123508 0.163616 -0.009417 0.331798 -0.145617 -0.036972 -0.350443 -0.108418 0.383545 0.058272 0.089707 -0.148949 -0.137914 0.055757 0.016028 -0.428303 0.192990 0.290940 0.049802 -0.325617 0.246029 0.327855 -0.365295 -0.317291 0.038871 0.152433 -0.202839 -0.160614 -0.214919 0.342377 -0.518627 0.055639
we 0.222084 0.248600 0.328415 -0.191818 0.449093 -0.315194 0.164972 0.905519 0.345365 0.550517 0.362524 -0.092522 0.108981 -0.215950 0.304364 0.282813 -0.208230 0.055679 -0.171486 0.125397 -0.414222 -0.033185 0.252445 0.083879 -0.007134 -0.580478 0.202522 0.255611 -0.003320 -0.423565 0.252514 -0.406650 -0.407887 0.440990 0.071081 -0.247377 0.341343 0.067912 0.215339 0.177459 0.037243 -0.485677 -0.562818 -0.451002 0.460046 0.105605 -0.001585 -0.249200 -0.059853 0.013456 0.067778 0.117331 -0.236423 -0.025894 0.120248 -0.171450 0.128838 0.560248 0.303209 -0.190463 -0.286599 -0.374927 0.285683 -0.349360 0.176679 -0.136679 0.153457 0.187899 0.298646 0.160834 0.393923 0.337925 -0.195388 -0.093091 -0.169122 -0.198074 0.509734 0.037630 -0.066591 -0.123304 -0.139423 0.153802 0.063489 -0.470631 0.046652 0.077919 -0.135703 -0.478940 0.406899 0.633449 -0.217318 -0.460328 -0.058045 0.249435 -0.320990 -0.227321 0.209370 0.393518 -0.375473 0.026272
by 0.027198 0.302335 0.332577 -0.045152 0.524168 -0.144143 0.011312 0.527208 -0.051004 0.361212 0.159974 -0.307832 0.269671 -0.396259 0.013170 0.163580 -0.077189 -0.025983 -0.153907 0.029143 -0.028552 0.240731 0.158880 0.030900 0.060610 -0.320626 0.133651 0.286753 0.026602 0.043300 0.156880 -0.330612 0.103328 0.123904 -0.018359 0.057054 0.046922 -0.271123 -0.092395 -0.047030 0.104597 -0.229609 -0.514854 -0.007072 0.229443 0.099335 -0.201313 -0.423356 -0.062851 -0.271827 -0.295214 0.512624 -0.202592 -0.065090 0.341521 -0.171958 -0.024257 0.022742 0.144027 0.354608 0.066748 -0.000843 -0.003976 -0.070982 0.355654 -0.155464 0.097730 0.401490 0.284255 0.043115 0.086198 0.333687 -0.134730 -0.346235 -0.443533 -0.135976 0.127432 0.190078 0.217571 -0.046659 -0.166414 0.138209 -0.110368 -0.281497 -0.025469 0.320956 -0.020524 -0.259272 -0.159302 0.355424 -0.218777 -0.083208 -0.075040 0.078277 -0.369555 -0.185620 -0.148260 0.018093 -0.178154 0.101679
me 0.150323 0.257585 0.291055 -0.096664 0.532648 -0.198183 0.088590 0.515764 0.144406 0.444871 0.181083 -0.143798 0.343730 -0.542183 0.092379 0.217116 -0.095269 -0.092543 -0.247417 0.028059 -0.208857 0.134449 0.263727 -0.128574 0.102140 -0.376632 0.125255 0.318034 0.012984 -0.230943 0.074098 -0.374729 0.015652 0.365504 0.020279 -0.224369 0.301703 -0.059449 0.083506 0.179893 0.217558 -0.525335 -0.385792 -0.014463 0.254799 -0.058306 -0.058755 -0.364522 -0.049949 -0.249676 -0.180988 0.248656 -0.314074 0.172469 0.399587 -0.293151 0.102212 0.240515 0.168195 0.153616 -0.232278 -0.084453 0.092231 -0.079540 0.223866 -0.035796 0.083769 0.099815 0.311225 0.003627 0.337798 0.172296 -0.105095 -0.256621 -0.369343 0.080631 0.144308 0.216990 0.105712 -0.022777 -0.146234 0.077475 0.044357 -0.202625 -0.144832 0.167748 -0.148461 -0.245036 -0.019998 0.461666 -0.100990 -0.099862 -0.233735 0.174326 -0.417463 -0.230207 0.174173 0.114828 -0.242435 -0.058082
there 0.118495 0.305294 0.282663 -0.096306 0.401395 -0.336239 0.182180 0.654836 0.185414 0.513369 0.209343 -0.185798 0.241207 -0.304086 0.038252 0.215435 -0.150484 -0.023196 -0.150868 0.141506 -0.227367 0.091654 0.103368 0.090777 0.004099 -0.268946 0.203420 0.285235 -0.099926 -0.137128 0.131891 -0.384180 -0.130929 0.229263 0.099813 -0.094376 0.140219 -0.158883 0.102223 0.084247 0.046552 -0.385452 -0.562146 -0.175543 0.304138 0.074137 0.002222 -0.324453 -0.070000 -0.246319 -0.055647 0.401536 -0.296099 -0.126570 0.203146 -0.154365 0.064743 0.229280 0.216317 0.099306 -0.166155 -0.160625 0.209721 -0.155783 0.275057 -0.058381 0.094984 0.202021 0.308369 0.089744 0.254203 0.280127 -0.088420 -0.218699 -0.177100 -0.125916 0.248302 0.144296 0.038530 -0.092191 -0.035469 0.169212 -0.052289 -0.323280 0.008709 0.227241 -0.041416 -0.308549 0.167255 0.524026 -0.170162 -0.212531 -0.150128 0.140182 -0.354704 -0.264730 0.023602 0.183063 -0.287577 0.027914
his 0.218309 0.330112 0.225592 -0.103704 0.615165 -0.214309 0.004825 0.578281 0.023297 0.341335 0.105818 -0.230237 0.426692 -0.637263 0.017036 0.117710 -0.056128 -0.032658 -0.193980 -0.000035 -0.153966 0.199739 0.354780 -0.164118 0.092377 -0.398579 0.093864 0.276169 0.046840 -0.189864 0.029689 -0.388105 0.134881 0.344113 -0.084793 -0.132087 0.136412 -0.126410 -0.055169 0.125001 0.274524 -0.457044 -0.343592 0.215665 0.209205 -0.109433 -0.216848 -0.415305 0.021289 -0.294385 -0.333986 0.345599 -0.323591 0.234150 0.467504 -0.370967 -0.004274 0.150596 0.163142 0.300877 -0.132342 0.001641 -0.064922 0.065749 0.170988 -0.073993 0.045274 0.076878 0.246595 0.005438 0.285134 0.146810 -0.018666 -0.302583 -0.557108 0.110095 0.043732 0.323652 0.255985 -0.093637 -0.191342 0.013044 -0.005526 -0.132977 -0.225599 0.237667 -0.187154 -0.115575 -0.161688 0.485354 -0.158823 -0.019857 -0.199181 0.150076 -0.414435 -0.186967 0.079627 0.071592 -0.259594 -0.097236
out 0.093203 0.354980 0.350999 -0.042615 0.705271 -0.125211 -0.036341 0.327444 -0.105189 0.373006 0.085068 -0.250987 0.403243 -0.625034 -0.058328 0.196537 0.044628 -0.149188 -0.221257 -0.057378 0.035176 0.363965 0.240173 -0.140516 0.186097 -0.301763 0.086565 0.236327 0.052189 -0.059854 0.057760 -0.402271 0.274106 0.184187 -0.038375 -0.039717 0.109374 -0.289389 -0.060244 -0.031180 0.200429 -0.411657 -0.327878 0.195730 0.138777 -0.001992 -0.243961 -0.433928 -0.067706 -0.367447 -0.334164 0.568112 -0.299392 0.008516 0.553985 -0.205442 0.009557 -0.044283 0.070006 0.490165 -0.048420 0.028147 -0.032472 0.082662 0.340342 -0.016009 0.038666 0.286533 0.303266 0.052059 0.203706 0.222599 -0.054385 -0.464369 -0.580000 0.004996 0.030176 0.302065 0.340961 -0.077968 -0.174126 0.125291 -0.101324 -0.169911 -0.182120 0.349817 0.000354 -0.274192 -0.305587 0.454573 -0.168567 0.046440 -0.258228 0.069790 -0.386696 -0.166621 -0.003480 -0.109223 -0.116965 0.099380
or -0.063599 0.235353 0.152168 -0.239846 0.241452 -0.424934 -0.014581 1.335946 -0.110454 0.310383 0.397306 -0.439249 -0.042492 0.179102 0.204673 0.126814 -0.318165 0.318327 -0.033590 0.133331 -0.369090 0.117240 0.192657 0.397138 -0.321823 -0.495679 0.212122 0.106293 0.001034 0.132930 0.324628 -0.018020 -0.306539 0.074103 -0.051674 0.285383 -0.227672 -0.192121 -0.180618 -0.273000 -0.129780 0.019335 -0.832752 -0.524957 0.310406 0.473044 -0.190438 -0.429180 -0.147359 0.133164 -0.088267 0.344550 0.038614 -0.097926 -0.236097 -0.012538 -0.158112 0.128771 0.391482 -0.065321 0.356337 -0.227240 -0.042436 -0.494622 0.424043 -0.478698 0.147500 0.474674 0.026820 0.210029 -0.291302 0.505864 -0.185774 0.034442 -0.342012 -0.276661 0.447246 -0.060785 0.038214 -0.177542 -0.166013 0.073768 -0.096392 -0.580478 0.326190 0.388754 0.110688 -0.443242 0.360059 0.229123 -0.546072 -0.488575 0.236760 0.147017 -0.179963 -0.212533 -0.416162 0.383575 -0.554455 0.183292
all 0.067724 0.183507 0.240353 -0.133822 0.388679 -0.280848 0.061871 0.880915 0.099101 0.402031 0.255129 -0.245445 0.109938 -0.203681 0.184629 0.141493 -0.258101 0.107797 -0.152862 0.122601 -0.294046 0.007009 0.227802 0.126239 -0.106680 -0.482218 0.217723 0.264163 -0.015005 -0.091087 0.249945 -0.298443 -0.156477 0.261481 0.031822 -0.028350 0.064399 -0.067495 0.010792 0.031423 0.082582 -0.273016 -0.631431 -0.340090 0.353978 0.086771 -0.113362 -0.341827 -0.071597 -0.079522 -0.112171 0.307767 -0.152244 0.051683 0.069404 -0.145359 0.050469 0.239601 0.273369 0.010089 -0.007909 -0.148565 0.131605 -0.326620 0.270375 -0.216788 0.109622 0.283332 0.238566 0.099583 0.125483 0.367926 -0.165207 -0.104007 -0.218480 -0.131565 0.399909 0.057569 0.021532 -0.087566 -0.131765 0.097724 0.024663 -0.429039 0.148591 0.160220 -0.042821 -0.297469 0.201854 0.325584 -0.228272 -0.323928 0.009889 0.182181 -0.305501 -0.220133 -0.076166 0.248907 -0.369187 0.020201
have 0.116025 0.068809 0.322393 -0.237008 0.313952 -0.208648 0.117779 1.105806 0.512764 0.701988 0.471004 -0.045860 0.069596 0.038858 0.392216 0.246165 -0.530636 0.161593 -0.208895 0.286579 -0.607082 -0.146331 0.104657 0.152658 -0.113003 -0.619650 0.307206 0.447003 -0.048391 -0.352002 0.386004 -0.397469 -0.595229 0.508770 0.121582 -0.402252 0.567852 0.226009 0.289188 0.302506 0.144479 -0.319442 -0.793966 -0.818871 0.536018 0.084887 0.062156 -0.238719 -0.052529 0.081596 0.245279 0.024624 -0.048950 0.048671 -0.064925 -0.240039 0.214223 0.676727 0.294123 -0.426746 -0.293943 -0.375130 0.413744 -0.476071 0.224940 -0.362785 0.177210 0.194382 0.446130 0.085012 0.411761 0.486756 -0.413505 0.041829 -0.000176 -0.317132 0.543958 -0.004008 -0.321836 0.054595 -0.138844 0.043864 0.130312 -0.741320 0.122612 -0.033418 -0.265963 -0.543049 0.548883 0.636998 -0.221314 -0.693358 0.001178 0.388959 -0.461222 -0.326560 0.159231 0.438806 -0.310186 0.036650
s 0.165303 0.094678 0.230554 -0.121910 0.551235 -0.210956 0.087503 0.858212 0.366214 0.443105 0.297453 -0.189796 0.270064 -0.441191 0.279845 0.192489 -0.191841 -0.012360 -0.163265 0.158953 -0.329295 -0.237056 0.336310 0.017578 0.080574 -0.505162 0.169460 0.375053 0.046250 -0.332751 0.181831 -0.371507 -0.202618 0.418879 -0.024893 -0.267811 0.160567 0.078528 0.008719 0.300750 0.151577 -0.349114 -0.557919 -0.254321 0.471967 -0.155619 -0.138144 -0.274660 0.021519 -0.074645 -0.222694 0.089070 -0.203062 0.273323 0.244592 -0.370914 0.118198 0.435085 0.173008 -0.124820 -0.300829 -0.080792 0.181165 -0.197802 0.079492 -0.140953 0.081355 0.091913 0.319622 0.033721 0.385643 0.289656 -0.212663 -0.204450 -0.262396 -0.120645 0.419801 0.169917 -0.019857 0.016176 -0.133823 0.161068 0.035305 -0.414083 0.018298 0.053705 -0.248137 -0.235716 0.170579 0.412024 -0.195070 -0.300758 -0.084780 0.274329 -0.502774 -0.249840 0.166036 0.200840 -0.321570 -0.162556
their 0.012922 0.353230 0.312945 -0.053981 0.519498 -0.303958 0.064411 0.601189 -0.180310 0.399240 0.165401 -0.252310 0.248560 -0.309141 -0.098195 0.209928 -0.086989 -0.038230 -0.271274 0.018002 -0.069683 0.417046 0.158000 -0.007705 0.012668 -0.276963 0.129501 0.113821 -0.091620 0.020735 0.100176 -0.270512 0.090723 0.128932 0.016998 0.069768 0.031965 -0.305789 -0.009792 -0.142800 0.136804 -0.350307 -0.555078 -0.073780 0.170659 0.203666 -0.126855 -0.439155 -0.180753 -0.343073 -0.181169 0.594342 -0.246728 -0.155326 0.259685 -0.095225 -0.039461 -0.009522 0.195583 0.331753 0.030816 -0.117977 0.035487 -0.109850 0.449149 -0.148746 0.075961 0.324683 0.258314 0.104470 0.030891 0.278830 -0.032018 -0.235495 -0.419008 -0.023863 0.113720 0.158551 0.258523 -0.138478 -0.184826 0.102959 -0.027621 -0.266588 -0.080479 0.333517 0.107051 -0.380678 -0.049554 0.429360 -0.261251 -0.136472 -0.146735 0.073999 -0.328031 -0.259605 -0.129225 0.077844 -0.268594 0.169983
not 0.285060 0.062648 0.265281 -0.338653 0.318602 -0.374454 0.132011 1.373651 0.529438 0.554592 0.524193 -0.114723 0.102690 -0.153050 0.502375 0.363165 -0.501502 0.251064 -0.117588 0.301504 -0.706840 -0.334443 0.339645 0.181614 -0.177556 -0.796482 0.356248 0.333576 0.000109 -0.570063 0.495293 -0.485474 -0.666990 0.639593 0.085030 -0.444390 0.536494 0.362484 0.327375 0.344013 0.094477 -0.423391 -0.790940 -0.705554 0.583911 0.082399 0.152967 -0.219855 0.045644 0.239091 0.242024 -0.134874 -0.115218 0.201290 -0.038118 -0.232697 0.193830 0.837986 0.412157 -0.561162 -0.319354 -0.445260 0.410950 -0.511680 0.052498 -0.185997 0.244716 0.056900 0.356453 0.090201 0.525798 0.384577 -0.329417 0.068248 0.002282 -0.194503 0.669302 -0.066778 -0.366860 -0.003614 -0.152092 0.092580 0.147391 -0.664149 0.239888 -0.057137 -0.351495 -0.488904 0.702354 0.623849 -0.184237 -0.740896 0.005323 0.407645 -0.412355 -0.343856 0.331947 0.642676 -0.550923 -0.078177
one 0.038357 0.268876 0.282589 -0.101828 0.456315 -0.315619 0.101534 0.649523 0.097187 0.479663 0.204277 -0.166713 0.269013 -0.262773 0.081253 0.245907 -0.141653 -0.029471 -0.207781 0.050833 -0.175356 0.203068 0.173543 0.048986 0.069542 -0.307774 0.165016 0.250007 -0.079204 -0.167666 0.100674 -0.301760 -0.076912 0.205337 0.054089 -0.092824 0.165396 -0.218645 0.040938 0.006841 0.092952 -0.363705 -0.544052 -0.228013 0.305106 0.115896 -0.038854 -0.399414 -0.116969 -0.230424 -0.095738 0.409307 -0.231016 -0.046503 0.184080 -0.177036 0.046477 0.181040 0.172854 0.150576 -0.088563 -0.123449 0.153664 -0.198198 0.368955 -0.148349 0.098524 0.230292 0.280882 0.141338 0.203230 0.315648 -0.096098 -0.255132 -0.288870 -0.068428 0.224999 0.135004 0.082844 -0.102009 -0.085154 0.145233 -0.020938 -0.354289 -0.014379 0.250898 -0.024183 -0.373176 0.099655 0.460540 -0.248461 -0.188849 -0.169717 0.166870 -0.368197 -0.245130 -0.006736 0.154919 -0.244808 0.061181
into 0.112758 0.458960 0.463390 0.063889 0.861001 0.012010 -0.086664 0.123249 -0.218418 0.310195 0.043177 -0.348264 0.514225 -0.860255 -0.097743 0.167077 0.147624 -0.242768 -0.192194 -0.107251 0.212306 0.452461 0.223957 -0.223429 0.294940 -0.304218 0.049802 0.305199 0.105639 0.046135 0.068446 -0.462011 0.472424 0.132102 -0.121082 0.043202 0.043604 -0.412704 -0.129024 -0.076235 0.189196 -0.354099 -0.260090 0.444084 0.115136 -0.006604 -0.361762 -0.509419 0.038344 -0.547855 -0.584244 0.686649 -0.335098 0.039645 0.762522 -0.238468 -0.020987 -0.122433 0.031239 0.744892 0.053077 0.197728 -0.171413 0.184424 0.314664 -0.000676 0.005397 0.444055 0.345741 -0.009964 0.183827 0.194740 -0.058112 -0.608486 -0.734751 -0.023624 -0.051106 0.386026 0.467651 -0.031743 -0.213570 0.166757 -0.171708 -0.054319 -0.194813 0.377405 -0.026536 -0.201348 -0.539515 0.409120 -0.158345 0.240797 -0.223645 0.006404 -0.462463 -0.114710 -0.076245 -0.273225 -0.047703 0.107924
no 0.098321 0.167946 0.301187 -0.167362 0.318919 -0.387790 0.162182 0.936830 0.340425 0.519930 0.330034 -0.098398 0.168266 -0.131181 0.241006 0.258889 -0.283439 0.082921 -0.187807 0.173370 -0.408701 -0.113136 0.153881 0.127364 -0.093252 -0.437003 0.262873 0.334641 -0.080056 -0.267148 0.220913 -0.345021 -0.346043 0.361657 0.103638 -0.166382 0.241810 -0.012582 0.158166 0.121540 0.069900 -0.370691 -0.674126 -0.510580 0.454599 0.053088 0.047637 -0.300989 -0.072195 -0.067933 0.052143 0.230299 -0.177750 -0.026231 0.022011 -0.154755 0.126277 0.427250 0.269463 -0.121556 -0.160078 -0.262787 0.328620 -0.359764 0.286451 -0.200541 0.145063 0.180977 0.347045 0.093622 0.305290 0.389928 -0.181442 -0.100338 -0.096627 -0.150364 0.450105 0.030980 -0.116262 -0.100535 -0.068598 0.191789 0.025018 -0.545749 0.115149 0.117112 -0.148704 -0.413162 0.404422 0.511436 -0.157177 -0.430426 -0.078492 0.247977 -0.383605 -0.334064 0.022732 0.387552 -0.352287 0.004511
them 0.075028 0.250188 0.285366 -0.100970 0.445863 -0.326893 0.126955 0.627574 0.080917 0.440354 0.199907 -0.129861 0.236178 -0.280144 0.025801 0.258699 -0.134538 -0.031087 -0.243512 0.052527 -0.218397 0.214134 0.168490 0.011306 0.000780 -0.329130 0.128075 0.214987 -0.065563 -0.145457 0.112056 -0.310728 -0.095674 0.286251 0.070044 -0.102977 0.224637 -0.186038 0.091016 0.023104 0.131990 -0.421631 -0.528329 -0.209269 0.260099 0.122927 -0.033059 -0.388553 -0.117460 -0.246462 -0.058814 0.384691 -0.223891 -0.075863 0.217166 -0.177110 0.042805 0.180848 0.206160 0.136309 -0.135627 -0.134130 0.155720 -0.149087 0.361192 -0.135455 0.090512 0.180321 0.298869 0.108976 0.224333 0.265987 -0.080704 -0.195355 -0.287480 -0.038843 0.182315 0.152923 0.113665 -0.074404 -0.127017 0.136750 0.026463 -0.320420 -0.029342 0.250651 -0.029531 -0.376339 0.116267 0.485554 -0.187275 -0.227645 -0.160736 0.173316 -0.370218 -0.272783 0.022943 0.154876 -0.224872 0.058899
so 0.139871 0.197275 0.290761 -0.129820 0.440731 -0.226641 0.142869 0.727669 0.308902 0.456824 0.258871 -0.083799 0.232055 -0.329177 0.219306 0.263036 -0.238291 0.031797 -0.211581 0.125809 -0.314345 -0.000055 0.183677 -0.036062 0.024410 -0.455721 0.217880 0.312256 0.036337 -0.314012 0.254804 -0.380028 -0.248802 0.425662 0.075662 -0.312069 0.408282 0.052385 0.218331 0.213420 0.150826 -0.497384 -0.516781 -0.306773 0.394257 -0.007583 0.041817 -0.245430 -0.012806 -0.056290 0.044645 0.166795 -0.233110 0.066527 0.229558 -0.208839 0.178480 0.439573 0.235928 -0.102118 -0.285523 -0.233380 0.277677 -0.249959 0.187626 -0.075590 0.159695 0.138767 0.339520 0.036888 0.407677 0.257169 -0.195722 -0.136317 -0.161681 -0.094531 0.346838 0.077117 -0.046328 -0.005794 -0.140551 0.092089 0.064581 -0.354947 0.013581 0.067333 -0.185909 -0.296206 0.218770 0.566509 -0.091183 -0.359159 -0.100938 0.246074 -0.419180 -0.284324 0.178232 0.260769 -0.306851 -0.009567
about 0.045780 0.341049 0.353528 -0.066304 0.529169 -0.131218 0.034428 0.502845 -0.112796 0.335753 0.185134 -0.296544 0.300639 -0.423111 0.004192 0.146008 -0.087520 -0.095579 -0.178404 0.050185 -0.072052 0.290413 0.178631 0.001716 0.050915 -0.372427 0.151817 0.281347 0.032721 0.059871 0.173755 -0.341368 0.116671 0.099900 -0.048303 0.035037 0.025847 -0.264648 -0.103790 -0.052173 0.087603 -0.240556 -0.486352 0.017034 0.253673 0.098593 -0.230557 -0.398159 -0.055298 -0.292596 -0.342344 0.506937 -0.201807 0.016276 0.398982 -0.172468 -0.024725 0.013033 0.164534 0.391041 0.044060 -0.034227 -0.040107 -0.067821 0.325123 -0.141506 0.091019 0.403728 0.257079 -0.004764 0.090567 0.318341 -0.109719 -0.306277 -0.449613 -0.107817 0.133086 0.186087 0.205450 -0.065583 -0.137498 0.076654 -0.113359 -0.261859 -0.072851 0.326334 -0.015383 -0.299739 -0.125335 0.326682 -0.235000 -0.094311 -0.101054 0.101530 -0.390450 -0.231601 -0.131161 -0.015763 -0.226760 0.093267
is 0.053853 0.045851 0.196827 -0.172421 0.328397 -0.267747 0.005317 1.265650 0.290388 0.385691 0.401113 -0.340567 0.002345 -0.025595 0.412238 0.147363 -0.393043 0.206964 -0.047100 0.209214 -0.508072 -0.313114 0.277611 0.286713 -0.208542 -0.632075 0.235528 0.333082 0.031353 -0.104234 0.350917 -0.222979 -0.391937 0.290629 0.007884 -0.092613 -0.013535 0.088656 -0.034174 0.117417 0.007462 -0.097819 -0.807706 -0.581319 0.490874 0.124856 -0.157101 -0.263448 -0.024456 0.171706 -0.091351 0.107211 -0.043900 0.146815 -0.088807 -0.198723 0.019893 0.442477 0.307006 -0.332614 0.039808 -0.192374 0.179607 -0.504815 0.154647 -0.351824 0.146404 0.333916 0.188582 0.095059 0.097958 0.484092 -0.308830 0.030099 -0.182285 -0.273218 0.638526 -0.013283 -0.084698 -0.016425 -0.143737 0.129471 0.028268 -0.634808 0.297505 0.092551 -0.139329 -0.355018 0.440992 0.260976 -0.378089 -0.562446 0.176243 0.283282 -0.360341 -0.218906 -0.101313 0.384556 -0.518167 -0.070182
upon 0.082963 0.318550 0.390400 -0.033249 0.621518 -0.067750 0.003735 0.426151 -0.011661 0.348463 0.140832 -0.293507 0.326331 -0.516621 0.029566 0.146689 -0.053065 -0.091581 -0.168592 0.010397 -0.017064 0.240188 0.200507 -0.090520 0.140290 -0.367572 0.084880 0.324907 0.058981 -0.012672 0.134731 -0.403846 0.157711 0.165880 -0.028527 -0.037997 0.116470 -0.230771 -0.062288 0.001229 0.137118 -0.292217 -0.413688 0.048748 0.260701 0.017832 -0.233375 -0.395433 0.011492 -0.287096 -0.338009 0.485323 -0.238657 0.030340 0.476324 -0.227620 0.042447 0.092429 0.116695 0.377643 0.008857 0.026452 0.003122 -0.062327 0.282366 -0.124252 0.068512 0.351586 0.295804 0.013771 0.177005 0.296587 -0.143108 -0.412175 -0.448618 -0.113550 0.109641 0.213145 0.239586 -0.013262 -0.166535 0.153847 -0.101135 -0.227545 -0.054115 0.294361 -0.100211 -0.255006 -0.179725 0.381777 -0.200358 -0.078438 -0.107932 0.092100 -0.447280 -0.196756 -0.069877 -0.062824 -0.126469 0.049225
then 0.137229 0.328600 0.344531 -0.012614 0.704650 -0.082188 -0.007004 0.278823 0.036577 0.354020 0.061079 -0.240106 0.481303 -0.722269 -0.004787 0.160724 0.006511 -0.157293 -0.219899 -0.061492 0.011704 0.282217 0.247808 -0.152409 0.203897 -0.319282 0.064396 0.352752 0.083022 -0.090580 0.016285 -0.398542 0.221688 0.208954 -0.045248 -0.172105 0.200003 -0.275853 -0.062502 0.047201 0.236146 -0.435681 -0.322226 0.206796 0.196181 -0.105732 -0.179668 -0.450638 0.033935 -0.407866 -0.409999 0.446485 -0.303940 0.123798 0.661904 -0.343313 0.047140 0.068949 0.054709 0.433991 -0.124834 0.088165 -0.035271 0.084272 0.241895 0.018768 0.047185 0.253252 0.298550 -0.010179 0.293401 0.184128 -0.067235 -0.480584 -0.603873 0.038112 0.004304 0.334634 0.300115 -0.012853 -0.162026 0.086132 -0.124515 -0.125303 -0.199192 0.326063 -0.149027 -0.166556 -0.327809 0.451642 -0.155441 0.096948 -0.223390 0.101162 -0.474182 -0.165664 0.066044 -0.079770 -0.091271 -0.024340
been 0.073387 0.177707 0.424237 -0.199521 0.261814 -0.422801 0.226410 0.774503 0.379874 0.636889 0.377321 0.013839 0.104335 0.021235 0.262945 0.357588 -0.213459 0.087218 -0.372520 0.061402 -0.222146 0.044251 0.111030 0.138266 0.012524 -0.358827 0.348624 0.359230 -0.073482 -0.436514 0.270278 -0.293863 -0.487515 0.464830 0.128705 -0.161881 0.610531 0.023943 0.347740 0.092459 0.084981 -0.595715 -0.648263 -0.666200 0.449903 0.066912 0.242272 -0.337178 -0.177313 0.006813 0.259579 0.167884 -0.308020 -0.131432 -0.132237 -0.056230 0.297450 0.508906 0.379721 -0.101607 -0.181688 -0.356893 0.345699 -0.513444 0.479224 -0.169589 0.313169 0.055330 0.485753 0.146501 0.437837 0.483153 -0.191856 0.072654 0.083807 -0.227438 0.499692 -0.126426 -0.187677 -0.202571 0.026408 0.147384 0.106229 -0.601214 0.005424 -0.060478 -0.048634 -0.395570 0.346901 0.678428 0.051760 -0.478943 -0.223497 0.303371 -0.238307 -0.284422 0.080648 0.549896 -0.353779 0.095288
up 0.129821 0.389260 0.327338 -0.030044 0.739096 -0.106039 -0.024431 0.314267 -0.074428 0.343186 0.085618 -0.292778 0.463854 -0.700419 -0.024762 0.170396 0.052314 -0.154314 -0.175099 -0.066143 0.032713 0.329490 0.275933 -0.181055 0.210902 -0.359017 0.025941 0.283354 0.060726 -0.036288 0.030310 -0.439715 0.299782 0.203714 -0.067642 -0.072605 0.058480 -0.268133 -0.103771 0.003816 0.187717 -0.421010 -0.331704 0.304458 0.168756 -0.038387 -0.262729 -0.457749 0.019824 -0.402978 -0.438125 0.526958 -0.324688 0.119272 0.608729 -0.264643 -0.005099 0.029402 0.089721 0.512279 -0.045785 0.070695 -0.095152 0.083126 0.268686 -0.004639 0.033672 0.307013 0.255066 0.024107 0.236527 0.146835 -0.067956 -0.459159 -0.627658 0.037857 0.035875 0.356376 0.346335 -0.062859 -0.197513 0.109823 -0.115218 -0.113859 -0.188635 0.342139 -0.038779 -0.210212 -0.306396 0.424901 -0.170038 0.090025 -0.218665 0.069521 -0.432058 -0.155409 0.000290 -0.117490 -0.120072 0.018350
said 0.243149 -0.038595 0.131117 -0.280788 0.454094 -0.285877 0.170818 1.049711 0.699663 0.481257 0.490032 -0.170407 0.177587 -0.465020 0.520052 0.183492 -0.234433 -0.001236 -0.113383 0.231260 -0.689827 -0.514704 0.479634 0.151885 0.073642 -0.653381 0.106701 0.560493 0.129881 -0.527630 0.230121 -0.424914 -0.496517 0.701089 0.006799 -0.501343 0.344082 0.265399 0.146839 0.510454 0.097525 -0.388056 -0.414287 -0.515118 0.599182 -0.220830 -0.122287 -0.275259 0.101233 0.176701 -0.172827 -0.286093 -0.163401 0.487613 0.120057 -0.485228 0.167291 0.618695 0.224190 -0.379785 -0.560550 -0.197826 0.274291 -0.312000 -0.039999 -0.147959 0.097332 -0.110953 0.310030 0.012522 0.480410 0.283324 -0.384365 -0.132277 -0.063827 -0.125196 0.558574 0.200016 -0.131781 0.101077 -0.142816 0.175832 0.084452 -0.527621 0.116034 -0.016809 -0.477075 -0.239170 0.398723 0.450702 -0.064577 -0.476346 -0.030092 0.323641 -0.543328 -0.285132 0.370429 0.392140 -0.318362 -0.328593
be 0.120147 0.143618 0.241273 -0.245521 0.283177 -0.281407 0.142278 1.240827 0.431113 0.544579 0.380482 -0.150786 -0.051926 0.025318 0.349265 0.216717 -0.471782 0.223142 -0.118653 0.231972 -0.633906 -0.218759 0.198905 0.177614 -0.202905 -0.679194 0.224543 0.263543 -0.081824 -0.310957 0.297181 -0.303848 -0.569607 0.436247 0.091749 -0.255562 0.217435 0.223764 0.157551 0.204670 0.048062 -0.324790 -0.786665 -0.703459 0.499990 0.175154 0.019530 -0.212337 -0.041863 0.158797 0.193820 -0.007805 -0.090471 0.052379 -0.129851 -0.146932 0.102011 0.715747 0.318053 -0.443018 -0.187486 -0.376482 0.328891 -0.515361 0.133097 -0.313380 0.126871 0.203885 0.271027 0.161531 0.273835 0.362193 -0.323529 0.104171 -0.009310 -0.220812 0.599816 -0.009560 -0.237425 -0.018448 -0.139058 0.095351 0.119808 -0.642207 0.224647 0.001317 -0.165753 -0.501664 0.653510 0.530536 -0.349298 -0.675919 0.073445 0.286971 -0.299100 -0.271436 0.122823 0.481186 -0.478674 -0.042627
martians 0.054359 0.259330 0.395779 -0.115511 0.367118 -0.216186 0.156605 0.603650 0.074756 0.468016 0.198913 -0.111029 0.125273 -0.184261 0.165607 0.214005 -0.108173 -0.018558 -0.218817 0.106373 -0.182157 0.144425 0.118917 0.040514 -0.021264 -0.359504 0.220896 0.245135 -0.056918 -0.155788 0.253895 -0.355379 -0.125269 0.223233 0.085116 -0.035409 0.229759 -0.102363 0.129826 0.035016 0.036920 -0.314944 -0.534253 -0.326615 0.302994 0.131229 -0.044777 -0.256110 -0.140619 -0.186915 0.001998 0.381031 -0.205479 -0.184773 0.095473 -0.086891 0.104929 0.205438 0.229160 0.134795 -0.010562 -0.204381 0.202062 -0.312538 0.330637 -0.133898 0.149187 0.339580 0.319089 0.105148 0.204067 0.389952 -0.167492 -0.103785 -0.131456 -0.203937 0.338611 0.011029 -0.024722 -0.111646 -0.097899 0.156451 0.012488 -0.401214 0.120749 0.112186 0.066085 -0.380423 0.160012 0.377687 -0.169177 -0.251827 -0.088820 0.140211 -0.232246 -0.166684 0.025590 0.195832 -0.250917 0.166143
people 0.023154 0.313147 0.355964 -0.089429 0.449344 -0.299621 0.150926 0.516366 -0.136804 0.448333 0.155116 -0.197729 0.222176 -0.273293 -0.041523 0.216001 -0.041564 -0.046066 -0.244977 0.064220 -0.040942 0.353848 0.098192 0.024379 0.025483 -0.213436 0.149186 0.175292 -0.091523 -0.022800 0.132320 -0.326512 0.053089 0.105109 0.025666 0.087471 0.117703 -0.304756 0.031562 -0.094491 0.030130 -0.348835 -0.562676 -0.129429 0.174624 0.187518 -0.087336 -0.407822 -0.187249 -0.319746 -0.085924 0.554507 -0.240565 -0.194430 0.184123 -0.061676 0.015168 0.009066 0.195439 0.316604 0.031621 -0.102602 0.085727 -0.128455 0.475253 -0.128536 0.118864 0.315993 0.284810 0.105057 0.115154 0.326405 -0.047198 -0.230009 -0.299050 -0.078558 0.186349 0.113604 0.138334 -0.122605 -0.102715 0.129388 -0.050489 -0.306116 -0.007651 0.275647 0.129313 -0.389797 -0.027376 0.427193 -0.209832 -0.131298 -0.170918 0.120243 -0.276365 -0.227241 -0.096292 0.059989 -0.220972 0.200447
its 0.025528 0.326667 0.301882 -0.025731 0.515473 -0.285624 0.025597 0.602718 -0.118653 0.351578 0.124587 -0.252558 0.294752 -0.357411 -0.057690 0.179440 -0.130040 0.000567 -0.213179 -0.008788 -0.009555 0.320129 0.169187 0.000289 -0.011028 -0.254211 0.135908 0.144749 -0.062250 0.013279 0.085821 -0.245524 0.135538 0.148623 0.014474 0.072535 0.031798 -0.275892 -0.071611 -0.106768 0.173547 -0.342045 -0.540645 0.003984 0.166742 0.137597 -0.098981 -0.438939 -0.120462 -0.314767 -0.226407 0.563452 -0.257717 -0.058935 0.280841 -0.165459 -0.011874 0.024852 0.202593 0.314515 0.087475 -0.038435 0.002452 -0.120146 0.405136 -0.136365 0.078014 0.325753 0.253004 0.114860 0.093442 0.285946 -0.043437 -0.254209 -0.450613 0.001717 0.136858 0.165929 0.244063 -0.128688 -0.165101 0.082134 -0.043840 -0.254560 -0.073015 0.318631 0.065634 -0.269663 -0.113711 0.418888 -0.249997 -0.063307 -0.177259 0.097629 -0.333074 -0.205086 -0.141935 0.118761 -0.285649 0.115984
him 0.231857 0.244035 0.251843 -0.131387 0.574535 -0.188086 0.027631 0.608577 0.200844 0.431210 0.166236 -0.115026 0.424584 -0.586636 0.135134 0.171801 -0.143320 -0.025227 -0.213460 0.027559 -0.259886 0.058251 0.354240 -0.140583 0.071437 -0.430937 0.124073 0.341989 0.042367 -0.300605 0.096732 -0.408080 -0.017332 0.453432 -0.042018 -0.282119 0.339853 -0.020116 0.063473 0.217041 0.295597 -0.517779 -0.323011 0.017068 0.281845 -0.142832 -0.091459 -0.379276 0.028190 -0.216845 -0.230951 0.182720 -0.274287 0.308542 0.439215 -0.388913 0.110398 0.313898 0.169226 0.121494 -0.261894 -0.076828 0.094627 -0.041357 0.142998 -0.089154 0.069681 0.017002 0.313536 -0.005886 0.388618 0.144469 -0.092659 -0.247785 -0.425546 0.099987 0.133400 0.266129 0.086850 -0.062529 -0.171866 0.014849 0.034524 -0.229066 -0.153621 0.148967 -0.272038 -0.177631 -0.016886 0.504098 -0.100530 -0.085509 -0.202903 0.215298 -0.457681 -0.202458 0.206264 0.157117 -0.252701 -0.130404
you 0.162329 0.125475 0.073876 -0.381737 0.250233 -0.462240 0.063149 1.873947 0.403485 0.474702 0.640804 -0.400239 -0.204015 0.188716 0.573188 0.162119 -0.518650 0.442609 0.120834 0.249790 -0.814212 -0.351942 0.405733 0.485248 -0.305361 -0.873325 0.234259 0.226029 0.028729 -0.315186 0.437249 -0.178064 -0.765310 0.472341 0.011055 -0.059958 -0.091868 0.244976 0.007619 0.076373 -0.176537 -0.126986 -0.888089 -0.859539 0.611180 0.328785 -0.141725 -0.255216 -0.072361 0.468875 0.010573 -0.117772 -0.013284 0.136296 -0.371851 -0.144243 -0.064628 0.687945 0.555475 -0.661188 -0.003252 -0.515925 0.163505 -0.720365 0.102510 -0.461649 0.144049 0.271487 0.083091 0.289041 -0.014608 0.502169 -0.360575 0.199019 -0.129879 -0.357881 0.915780 -0.093587 -0.176787 -0.193979 -0.169803 0.123554 0.058650 -0.785779 0.452484 0.148297 -0.115649 -0.542915 0.834898 0.416262 -0.587264 -0.835476 0.332916 0.303786 -0.183931 -0.161545 -0.069516 0.764966 -0.836847 -0.059605
came 0.098319 0.405117 0.340822 -0.019909 0.781956 -0.084753 -0.031171 0.192385 -0.190793 0.307944 0.043279 -0.310891 0.516517 -0.764735 -0.135142 0.182040 0.113152 -0.182430 -0.245643 -0.118073 0.076740 0.442572 0.272598 -0.184276 0.244666 -0.273685 -0.018435 0.250023 0.025703 0.037555 -0.036815 -0.410049 0.404719 0.191116 -0.087533 -0.037150 0.060955 -0.390742 -0.133073 -0.051880 0.245533 -0.411774 -0.306841 0.359834 0.060990 0.024806 -0.287807 -0.530735 -0.043539 -0.515737 -0.519528 0.621749 -0.283414 0.078999 0.685435 -0.280514 -0.009397 -0.116815 0.033890 0.609145 -0.042015 0.139035 -0.163004 0.162919 0.364800 0.010069 0.015129 0.328676 0.243514 -0.006203 0.147800 0.105897 -0.032380 -0.552575 -0.715818 0.105797 -0.088308 0.377681 0.446617 0.001628 -0.236288 0.130706 -0.115025 -0.044420 -0.194631 0.424074 -0.005837 -0.199038 -0.440552 0.413552 -0.209954 0.205184 -0.247918 0.060563 -0.451585 -0.180030 -0.006246 -0.199791 -0.073999 0.046327
an 0.044713 0.278648 0.259054 -0.091144 0.425864 -0.288746 0.034138 0.776789 -0.000540 0.384799 0.204589 -0.247527 0.234480 -0.263276 0.022855 0.193753 -0.216932 0.063798 -0.178648 0.061059 -0.175890 0.189963 0.181172 0.069798 -0.062554 -0.344230 0.161793 0.204379 -0.032647 -0.022559 0.166123 -0.233004 -0.035745 0.201518 0.012363 -0.008986 0.093023 -0.180704 -0.047619 -0.063317 0.147261 -0.274643 -0.568575 -0.148865 0.235186 0.139982 -0.110995 -0.387146 -0.091566 -0.180797 -0.143684 0.442074 -0.202309 -0.021987 0.199604 -0.177898 -0.008965 0.123457 0.219942 0.125729 0.036196 -0.129587 0.085296 -0.170424 0.352369 -0.182987 0.104868 0.280103 0.259177 0.100833 0.097908 0.320653 -0.113631 -0.164970 -0.391188 -0.048464 0.231583 0.133979 0.159731 -0.094816 -0.154811 0.063618 -0.033499 -0.350128 0.007939 0.282304 -0.014789 -0.284197 0.030469 0.434025 -0.272791 -0.228744 -0.054759 0.132434 -0.335645 -0.230416 -0.131603 0.194718 -0.326079 0.073567
over 0.145208 0.336517 0.332083 -0.021939 0.637986 -0.076884 -0.009070 0.401277 -0.036350 0.324629 0.122951 -0.320837 0.372181 -0.619969 0.028154 0.135977 -0.006372 -0.119930 -0.131143 0.025347 -0.039979 0.229636 0.260135 -0.108691 0.124554 -0.411826 0.082675 0.326533 0.057882 0.002465 0.095762 -0.413874 0.225385 0.171702 -0.065012 -0.057994 0.012896 -0.214340 -0.109061 0.046101 0.129187 -0.312650 -0.443990 0.167035 0.243370 -0.010897 -0.294001 -0.421498 0.023117 -0.335383 -0.444802 0.494391 -0.266316 0.094532 0.543422 -0.253936 -0.012316 0.066894 0.106151 0.431524 -0.020542 0.062325 -0.063352 0.033513 0.199758 -0.053729 0.045225 0.349042 0.282789 -0.012119 0.190290 0.260745 -0.113682 -0.414840 -0.537378 -0.071796 0.082737 0.281411 0.286803 -0.048736 -0.167561 0.118909 -0.143776 -0.177784 -0.112667 0.303327 -0.083005 -0.193963 -0.236414 0.346287 -0.192629 -0.020521 -0.099583 0.086029 -0.424312 -0.189495 -0.035820 -0.103757 -0.160953 -0.003018
down 0.133227 0.412426 0.349998 -0.005266 0.785435 -0.081358 -0.057954 0.270321 -0.147812 0.308788 0.076460 -0.308465 0.454049 -0.754174 -0.047571 0.139320 0.091144 -0.163543 -0.160664 -0.073846 0.061759 0.356501 0.277171 -0.174932 0.217756 -0.333880 0.039728 0.272319 0.078537 -0.027347 0.053061 -0.434833 0.370202 0.209595 -0.094373 -0.007926 0.029320 -0.300894 -0.114498 -0.042342 0.206850 -0.389781 -0.288524 0.338390 0.135307 -0.014347 -0.320421 -0.484677 -0.013463 -0.423583 -0.488317 0.559049 -0.332657 0.126459 0.616894 -0.235854 -0.018975 -0.043068 0.089143 0.590214 -0.019240 0.123149 -0.152590 0.106140 0.286882 -0.012037 0.017838 0.340894 0.263821 0.007202 0.182798 0.153495 -0.077561 -0.501434 -0.684334 0.029197 0.031320 0.359354 0.384955 -0.030689 -0.224492 0.126405 -0.109587 -0.076696 -0.172196 0.342522 0.005998 -0.230638 -0.367277 0.382370 -0.182679 0.164640 -0.229810 0.080959 -0.417116 -0.110324 -0.012394 -0.171133 -0.114914 0.062716
saw 0.136684 0.234067 0.305338 -0.067296 0.655050 -0.097893 0.030053 0.292439 0.072571 0.322916 0.136920 -0.234522 0.473891 -0.666777 0.038321 0.185259 -0.043076 -0.179246 -0.225033 0.001053 -0.090512 0.181669 0.259582 -0.095992 0.171893 -0.337239 0.018373 0.380556 0.069464 -0.062111 0.110110 -0.418838 0.129549 0.252949 -0.038948 -0.212788 0.230401 -0.227344 -0.067291 0.122441 0.206884 -0.340344 -0.309760 0.088853 0.252230 -0.095516 -0.183033 -0.444153 0.037821 -0.374935 -0.378994 0.383957 -0.185551 0.160534 0.556468 -0.355807 0.058529 0.060108 0.025030 0.364196 -0.194775 0.094844 0.046027 0.010045 0.251113 -0.034974 0.075341 0.232256 0.312845 -0.029999 0.283089 0.186688 -0.161708 -0.447296 -0.451672 0.017120 0.057396 0.335286 0.244948 0.090426 -0.226854 0.116143 -0.090901 -0.202704 -0.114305 0.285777 -0.182208 -0.166804 -0.241889 0.418107 -0.143450 0.017377 -0.151913 0.109585 -0.517779 -0.184551 0.104010 -0.089539 -0.005459 -0.033383
towards 0.072107 0.426799 0.402757 -0.025465 0.765490 -0.089308 0.003626 0.242406 -0.198123 0.306434 0.085171 -0.315654 0.448178 -0.715955 -0.109645 0.174549 0.057288 -0.193676 -0.226010 -0.045434 0.105206 0.459110 0.184491 -0.175137 0.233951 -0.320717 0.068319 0.254244 0.041497 0.055207 0.071087 -0.441755 0.378983 0.130861 -0.069698 0.030404 0.068938 -0.357193 -0.106453 -0.049866 0.177746 -0.359866 -0.358426 0.290772 0.130609 0.048806 -0.261401 -0.476032 -0.036376 -0.479617 -0.456596 0.666255 -0.289778 -0.001119 0.648178 -0.213483 -0.004032 -0.097332 0.062147 0.647033 -0.011845 0.124817 -0.083994 0.093555 0.383579 0.004003 0.037902 0.421579 0.312967 -0.006349 0.169759 0.215586 -0.087397 -0.517655 -0.620586 0.012505 -0.026806 0.319223 0.396018 -0.025433 -0.250286 0.143593 -0.148674 -0.109909 -0.187494 0.394227 -0.001560 -0.259727 -0.401985 0.413437 -0.202434 0.111562 -0.228557 0.058431 -0.482284 -0.161777 -0.040266 -0.213128 -0.094954 0.087595
through 0.058614 0.355300 0.366359 0.004797 0.684871 -0.130218 -0.011304 0.405420 -0.164624 0.321903 0.094983 -0.355047 0.381723 -0.575482 -0.040560 0.195966 -0.001464 -0.115293 -0.163083 -0.023183 0.084090 0.379368 0.207075 -0.070362 0.122109 -0.335557 0.086606 0.231131 0.026885 0.070421 0.107998 -0.346735 0.298360 0.109408 -0.080549 0.055850 -0.008317 -0.329710 -0.145041 -0.082134 0.147984 -0.289509 -0.451563 0.185687 0.166697 0.096670 -0.289694 -0.474130 -0.047127 -0.411014 -0.426363 0.601098 -0.250026 -0.016718 0.519165 -0.181470 -0.030981 -0.049693 0.108439 0.504314 0.071722 0.082045 -0.090146 0.033015 0.333202 -0.065136 0.032898 0.422926 0.266033 0.039467 0.070336 0.276822 -0.083613 -0.432357 -0.576980 -0.065275 0.049869 0.266419 0.339557 -0.068608 -0.212823 0.153612 -0.147388 -0.174503 -0.080232 0.379964 0.008948 -0.230161 -0.307404 0.360824 -0.265518 0.038417 -0.109481 0.059085 -0.394557 -0.153396 -0.110895 -0.124519 -0.155758 0.089375
man 0.134062 0.252444 0.212283 -0.105387 0.466824 -0.260095 0.076893 0.667809 0.154760 0.401512 0.201617 -0.243558 0.274371 -0.433961 0.117144 0.190469 -0.113933 0.001855 -0.097115 0.059353 -0.211843 0.050282 0.226512 0.032309 0.056560 -0.368541 0.101582 0.322715 0.007588 -0.157927 0.062384 -0.334037 -0.065469 0.251513 -0.016341 -0.141170 0.092046 -0.140871 -0.019643 0.107201 0.053585 -0.330219 -0.490925 -0.057324 0.308818 -0.007040 -0.109086 -0.371746 -0.013592 -0.192737 -0.240025 0.279478 -0.246427 0.076737 0.268317 -0.267594 -0.003044 0.263241 0.153279 0.111538 -0.131564 -0.064452 0.084475 -0.099006 0.193078 -0.098365 0.076458 0.183082 0.238388 0.075178 0.228335 0.243361 -0.136945 -0.261597 -0.351242 -0.051782 0.219742 0.218872 0.112634 -0.056861 -0.100638 0.146903 -0.087105 -0.287335 -0.036111 0.252525 -0.138965 -0.236445 0.053807 0.420562 -0.234397 -0.180973 -0.088599 0.154886 -0.393212 -0.207804 0.023959 0.132897 -0.251954 -0.062266
black 0.005997 0.354444 0.368797 0.013552 0.610972 -0.192127 -0.015782 0.343330 -0.220434 0.317909 0.050656 -0.362757 0.390155 -0.497319 -0.171876 0.206142 0.038667 -0.113349 -0.187772 -0.057908 0.134153 0.450238 0.085616 -0.037825 0.098270 -0.180477 0.028813 0.159356 -0.052938 0.161814 0.004123 -0.314387 0.313628 -0.017366 -0.030595 0.158839 -0.079955 -0.481850 -0.163732 -0.203046 0.133071 -0.306389 -0.512837 0.220457 0.102390 0.155228 -0.237831 -0.482016 -0.075451 -0.468403 -0.362100 0.782265 -0.271413 -0.207198 0.475545 -0.168041 -0.083580 -0.155788 0.066163 0.570510 0.172778 0.093384 -0.079165 0.081276 0.463500 -0.043915 0.045796 0.453538 0.277951 0.090296 0.022459 0.256450 0.006610 -0.445914 -0.579002 -0.022064 -0.025021 0.280119 0.381798 -0.104120 -0.167119 0.151952 -0.170619 -0.169212 -0.096024 0.452022 0.102821 -0.217406 -0.294814 0.379657 -0.254854 0.075937 -0.174029 0.004036 -0.341460 -0.203710 -0.200865 -0.098891 -0.065681 0.137337
time 0.106209 0.183207 0.303475 -0.116355 0.462677 -0.210470 0.113756 0.637533 0.303355 0.495378 0.174791 -0.042928 0.310033 -0.372458 0.220257 0.197873 -0.201183 0.041771 -0.270061 0.098665 -0.258413 -0.033684 0.221201 0.006597 -0.003143 -0.397878 0.237260 0.338997 0.000863 -0.305223 0.210316 -0.382549 -0.198257 0.354557 0.049352 -0.301201 0.395824 -0.062219 0.123011 0.162918 0.223064 -0.445075 -0.466150 -0.236206 0.376965 -0.124928 0.046255 -0.338419 -0.012722 -0.168553 -0.035809 0.208606 -0.158094 0.123170 0.280173 -0.299247 0.180899 0.365940 0.159338 0.029048 -0.232246 -0.166339 0.280821 -0.231466 0.193194 -0.100737 0.127694 0.120153 0.363919 0.002528 0.398568 0.334123 -0.098619 -0.201891 -0.248151 -0.037118 0.230099 0.117560 -0.064111 -0.062868 -0.060326 0.092096 -0.009001 -0.411978 -0.004569 0.134364 -0.254106 -0.280045 0.143624 0.492700 -0.106545 -0.179242 -0.113971 0.227673 -0.410441 -0.237445 0.150566 0.218533 -0.178439 -0.037532
some 0.067552 0.322597 0.319222 -0.078608 0.530107 -0.286907 0.074135 0.590375 -0.029917 0.415195 0.153929 -0.201283 0.322268 -0.367888 0.010808 0.194982 -0.103356 -0.032921 -0.252835 0.034583 -0.117488 0.288666 0.196385 -0.001903 0.026613 -0.307178 0.159814 0.206397 -0.048609 -0.098676 0.118884 -0.333537 0.036101 0.185375 0.019562 -0.030615 0.104085 -0.267143 0.001874 -0.051000 0.146310 -0.387894 -0.500119 -0.078549 0.241752 0.100889 -0.113718 -0.428220 -0.116268 -0.298403 -0.181348 0.500633 -0.237033 -0.059042 0.316611 -0.174273 0.023505 0.088855 0.160478 0.275885 -0.040200 -0.109742 0.065898 -0.111080 0.369990 -0.122284 0.065335 0.267721 0.275301 0.098454 0.169648 0.301526 -0.051093 -0.299550 -0.411165 -0.016549 0.164768 0.190470 0.192251 -0.110373 -0.138632 0.132482 -0.050687 -0.293854 -0.053433 0.297816 -0.021511 -0.348139 -0.037583 0.488124 -0.228954 -0.110757 -0.166449 0.122847 -0.364828 -0.237806 -0.048847 0.084298 -0.222806 0.094444
these 0.100243 0.235918 0.305555 -0.171985 0.399817 -0.350234 0.133249 0.901443 0.117203 0.466424 0.313990 -0.167952 0.145374 -0.136799 0.141582 0.243754 -0.221851 0.051013 -0.214116 0.140860 -0.301351 0.101061 0.178690 0.106000 -0.085040 -0.453171 0.208884 0.228252 -0.029257 -0.210451 0.254225 -0.297624 -0.249643 0.296149 0.074253 -0.081056 0.206522 -0.061181 0.122037 0.022319 0.078773 -0.358705 -0.657742 -0.418751 0.376622 0.159263 -0.044687 -0.328761 -0.138140 -0.093669 -0.009550 0.326031 -0.187394 -0.088688 0.077657 -0.143546 0.066744 0.299208 0.299767 -0.039374 -0.101963 -0.284785 0.184758 -0.322450 0.324107 -0.211099 0.143984 0.211784 0.280845 0.138718 0.201078 0.380371 -0.150155 -0.090613 -0.212936 -0.165763 0.367329 0.038146 -0.004012 -0.120342 -0.119190 0.108642 0.042362 -0.475571 0.067906 0.185495 -0.038265 -0.438166 0.272973 0.495368 -0.238049 -0.415470 -0.067383 0.201464 -0.348234 -0.291386 -0.021027 0.306265 -0.362913 0.101965
could 0.231240 0.073115 0.235908 -0.277264 0.388992 -0.311651 0.162875 0.886439 0.461415 0.442148 0.386654 -0.049538 0.253633 -0.344640 0.313826 0.269826 -0.294679 -0.013177 -0.225801 0.172407 -0.542787 -0.178299 0.317835 0.056233 -0.061307 -0.585007 0.218271 0.430217 0.107727 -0.410817 0.356786 -0.383124 -0.457954 0.612618 0.098123 -0.438846 0.531055 0.143044 0.206157 0.394557 0.161902 -0.411306 -0.524512 -0.503390 0.555296 -0.053379 0.030032 -0.257226 0.028162 0.070249 0.029371 -0.024990 -0.139675 0.167373 0.136329 -0.368486 0.181243 0.584239 0.245234 -0.292912 -0.422945 -0.290564 0.382481 -0.366215 0.075279 -0.189525 0.194131 0.060307 0.361735 0.031908 0.483526 0.303062 -0.326294 -0.041793 -0.103610 -0.155480 0.463292 0.106460 -0.171665 0.106888 -0.201201 0.095799 0.090626 -0.524643 0.084485 0.037666 -0.355449 -0.304829 0.406848 0.557596 -0.127898 -0.521390 0.039356 0.310967 -0.518064 -0.251953 0.328294 0.363962 -0.332570 -0.124560
what 0.248573 0.064391 0.156462 -0.354599 0.329296 -0.404999 0.155568 1.362004 0.621593 0.631220 0.499518 -0.133781 0.043643 -0.152191 0.506861 0.298354 -0.399288 0.221766 -0.077634 0.265167 -0.736240 -0.382894 0.385172 0.231497 -0.120634 -0.757474 0.297304 0.402923 0.018142 -0.569084 0.319831 -0.404968 -0.635746 0.659799 0.089724 -0.427394 0.362048 0.330986 0.271781 0.386914 0.049067 -0.441638 -0.725693 -0.705441 0.595484 0.001067 0.034908 -0.199481 -0.019652 0.245163 0.101111 -0.149585 -0.201291 0.195947 -0.077792 -0.272382 0.177450 0.807115 0.406122 -0.556228 -0.429609 -0.417802 0.385344 -0.495631 0.030588 -0.205867 0.178635 0.024835 0.305584 0.138595 0.457278 0.382808 -0.357724 0.049062 -0.032926 -0.227392 0.720039 -0.002001 -0.242625 -0.049761 -0.071838 0.133686 0.092725 -0.656781 0.188747 -0.005719 -0.305507 -0.426033 0.693990 0.604111 -0.191058 -0.730187 0.015991 0.374531 -0.406477 -0.310032 0.272183 0.584661 -0.561833 -0.174553
little 0.053846 0.342336 0.313699 -0.030171 0.602622 -0.164201 0.016970 0.362343 -0.071607 0.361690 0.073514 -0.247287 0.400719 -0.548145 -0.051299 0.193646 -0.012051 -0.101078 -0.209926 -0.020571 0.042154 0.300794 0.181865 -0.072612 0.146470 -0.230627 0.089208 0.238976 -0.002294 -0.009221 0.040624 -0.337346 0.214155 0.121781 -0.038961 -0.017758 0.077829 -0.307832 -0.094440 -0.034786 0.150566 -0.356855 -0.407319 0.157609 0.162231 0.027498 -0.158919 -0.455543 -0.042674 -0.390538 -0.311881 0.520545 -0.260549 0.000795 0.458536 -0.212157 0.011030 0.011841 0.059356 0.427281 -0.006141 0.047569 -0.009019 0.033475 0.335633 -0.045679 0.046155 0.281563 0.268262 0.041915 0.154930 0.203785 -0.046961 -0.422905 -0.485748 0.024295 0.021044 0.264957 0.281495 -0.055926 -0.130968 0.129565 -0.119080 -0.170787 -0.118138 0.329667 -0.021440 -0.208170 -0.236615 0.414219 -0.208308 0.062523 -0.178910 0.085111 -0.391289 -0.200794 -0.046553 -0.052136 -0.110572 0.047289
men 0.056139 0.275017 0.282758 -0.105016 0.468076 -0.303488 0.110861 0.654734 0.018476 0.425777 0.191938 -0.205152 0.222213 -0.290136 0.048176 0.232213 -0.109178 -0.014852 -0.187735 0.050920 -0.160563 0.208249 0.171558 0.048723 0.030974 -0.311039 0.128266 0.197296 -0.043221 -0.115480 0.117095 -0.314885 -0.026786 0.187727 0.025104 -0.029641 0.071028 -0.205987 0.015427 -0.018182 0.055571 -0.352731 -0.562075 -0.166367 0.275148 0.123169 -0.109283 -0.368561 -0.131897 -0.211381 -0.135484 0.438868 -0.231197 -0.096431 0.193800 -0.126410 -0.002218 0.122279 0.175122 0.167591 -0.051728 -0.131250 0.104179 -0.165755 0.352207 -0.128178 0.069269 0.259210 0.260235 0.126111 0.161598 0.310324 -0.099063 -0.247167 -0.303597 -0.087656 0.239140 0.142906 0.125109 -0.123084 -0.108142 0.146828 -0.032151 -0.320860 -0.013308 0.267090 0.026769 -0.357927 0.079576 0.447893 -0.239694 -0.215948 -0.128111 0.139557 -0.322352 -0.257713 -0.055713 0.132008 -0.259565 0.097762
again 0.146578 0.302801 0.312824 -0.055258 0.656421 -0.128824 -0.007545 0.411212 0.069094 0.376278 0.122898 -0.199763 0.388219 -0.626890 0.049377 0.171516 -0.013300 -0.086230 -0.196441 -0.014604 -0.083453 0.216845 0.281449 -0.124636 0.157566 -0.371217 0.086871 0.318536 0.063491 -0.129298 0.086475 -0.409108 0.139399 0.309289 -0.061878 -0.174230 0.188010 -0.179732 -0.004284 0.087597 0.229643 -0.434788 -0.321421 0.127076 0.198852 -0.062374 -0.185098 -0.397107 0.019547 -0.316544 -0.324649 0.365581 -0.295898 0.157971 0.540663 -0.285481 0.065032 0.137646 0.110078 0.315923 -0.144016 0.007121 -0.016554 0.039398 0.207488 -0.029760 0.068560 0.185611 0.275968 -0.018510 0.267904 0.170900 -0.069169 -0.384520 -0.530897 0.041130 0.081405 0.283060 0.258700 -0.037553 -0.179557 0.105232 -0.053005 -0.149501 -0.140872 0.252151 -0.148889 -0.189659 -0.193993 0.463935 -0.132870 -0.000802 -0.172307 0.128054 -0.431626 -0.182778 0.077212 -0.024074 -0.150293 -0.020163
which 0.053591 0.263318 0.268735 -0.114094 0.447535 -0.262532 0.058948 0.696715 0.023151 0.416971 0.242456 -0.237321 0.215874 -0.297528 0.078596 0.201997 -0.153767 0.027779 -0.181130 0.058619 -0.173713 0.172617 0.176180 0.077174 -0.009001 -0.338442 0.173667 0.236837 -0.021025 -0.067587 0.168534 -0.282957 -0.059942 0.235764 0.023570 -0.017362 0.150192 -0.147512 0.010107 -0.019692 0.130084 -0.323301 -0.527702 -0.157160 0.250533 0.133621 -0.101828 -0.375752 -0.111681 -0.169062 -0.122009 0.395784 -0.220183 -0.027541 0.163816 -0.154517 0.034505 0.137275 0.241246 0.136734 -0.009062 -0.133893 0.063072 -0.207670 0.362836 -0.156861 0.128927 0.270191 0.267573 0.074924 0.119734 0.301685 -0.140300 -0.168580 -0.316665 -0.082657 0.238104 0.127157 0.118326 -0.074846 -0.139750 0.106069 -0.006216 -0.339615 0.002149 0.244163 0.010149 -0.314459 0.048386 0.428242 -0.220034 -0.206397 -0.116088 0.145317 -0.310701 -0.204183 -0.068146 0.185421 -0.305721 0.097330
are 0.085136 0.168389 0.215871 -0.230970 0.355838 -0.332904 0.120871 1.087290 0.273885 0.451574 0.429005 -0.253079 0.025993 -0.125313 0.308140 0.233985 -0.241175 0.124976 -0.088002 0.193510 -0.522770 -0.119508 0.231250 0.208466 -0.102300 -0.610129 0.149270 0.296147 0.017542 -0.240332 0.285921 -0.273715 -0.375192 0.380914 0.027547 -0.185165 0.110872 0.073464 0.075775 0.123513 -0.017118 -0.247017 -0.704212 -0.577068 0.471746 0.177030 -0.118738 -0.280185 -0.074526 0.042671 -0.025591 0.110641 -0.057276 0.015486 -0.033621 -0.146717 0.064952 0.432983 0.297913 -0.214462 -0.147560 -0.254722 0.181132 -0.391838 0.200826 -0.233163 0.137393 0.272840 0.216401 0.106891 0.152841 0.371762 -0.314848 -0.044423 -0.148927 -0.242669 0.482050 0.053710 -0.020609 -0.024972 -0.157366 0.196381 0.020518 -0.541025 0.213537 0.183264 -0.104053 -0.451318 0.447408 0.423231 -0.293461 -0.592837 0.099088 0.263801 -0.387322 -0.295910 0.024699 0.295181 -0.406929 0.033005
our 0.075663 0.269800 0.293444 -0.135265 0.440443 -0.306759 0.048763 0.825599 0.037885 0.438165 0.246932 -0.207853 0.172951 -0.211503 0.088419 0.198984 -0.188895 0.075315 -0.177562 0.081781 -0.238268 0.163635 0.203800 0.082745 -0.083121 -0.407970 0.174439 0.187663 -0.032036 -0.111640 0.188507 -0.258776 -0.151625 0.260857 0.047487 -0.021931 0.142828 -0.126599 0.032304 -0.025275 0.115732 -0.322147 -0.589083 -0.285066 0.292827 0.173083 -0.093553 -0.365623 -0.115067 -0.138745 -0.082247 0.379331 -0.161836 -0.058463 0.128374 -0.158308 0.025067 0.207686 0.270969 0.075202 -0.009001 -0.193193 0.111616 -0.273873 0.348344 -0.220450 0.123880 0.283245 0.249356 0.120043 0.124570 0.333293 -0.137939 -0.134587 -0.320758 -0.122417 0.303489 0.086401 0.096551 -0.098838 -0.181197 0.095322 0.010482 -0.393435 0.049267 0.236918 -0.008242 -0.358834 0.157630 0.461777 -0.270441 -0.316349 -0.046719 0.155013 -0.320588 -0.232726 -0.062616 0.232732 -0.342917 0.110433
road 0.063777 0.438141 0.378726 -0.017661 0.735078 -0.102755 -0.017495 0.203809 -0.239799 0.301063 0.034710 -0.298575 0.423247 -0.692467 -0.121659 0.181387 0.092812 -0.173163 -0.202926 -0.082067 0.136768 0.500462 0.204696 -0.188893 0.228170 -0.235789 0.024479 0.222131 0.023458 0.068790 0.039079 -0.428371 0.426501 0.112727 -0.090814 0.076032 0.039177 -0.387788 -0.115864 -0.113499 0.211436 -0.346704 -0.364483 0.355990 0.057784 0.077399 -0.290821 -0.495772 -0.075023 -0.536553 -0.472067 0.669571 -0.298791 -0.015985 0.595096 -0.186237 -0.023831 -0.152819 0.067657 0.651013 0.070074 0.157395 -0.146477 0.099392 0.421893 0.022454 0.042094 0.415187 0.242063 0.021965 0.083451 0.159446 -0.064215 -0.495263 -0.666983 0.054529 -0.066755 0.299484 0.436417 -0.045670 -0.225551 0.125441 -0.104003 -0.019928 -0.120276 0.391558 0.091549 -0.197518 -0.448002 0.355529 -0.214682 0.211372 -0.219093 0.049366 -0.391575 -0.112002 -0.060371 -0.215618 -0.089662 0.107798
now 0.125291 0.295979 0.308977 -0.073059 0.522572 -0.218292 0.069069 0.567191 0.088065 0.384457 0.161672 -0.195809 0.304752 -0.410342 0.059735 0.191258 -0.125209 -0.035282 -0.210655 0.032396 -0.145255 0.176458 0.213636 -0.015250 0.052720 -0.361839 0.139648 0.261237 -0.005542 -0.116997 0.158903 -0.376051 0.025918 0.240638 0.021137 -0.118172 0.150640 -0.169529 0.013847 0.039345 0.175006 -0.353193 -0.464373 -0.078020 0.254591 0.043580 -0.111102 -0.382320 -0.064058 -0.239450 -0.182701 0.418178 -0.227589 0.006706 0.357157 -0.209791 0.053223 0.149806 0.159643 0.217493 -0.069529 -0.086797 0.093813 -0.100616 0.268329 -0.106112 0.075696 0.261293 0.299886 0.037189 0.215786 0.284367 -0.079117 -0.296569 -0.375926 -0.047738 0.162180 0.157704 0.172927 -0.082630 -0.136113 0.102144 -0.033504 -0.283984 -0.039004 0.257451 -0.094943 -0.274226 -0.045047 0.460444 -0.172410 -0.130457 -0.123891 0.131603 -0.401568 -0.245257 -0.005719 0.090481 -0.221477 0.037177
brother 0.359129 0.339146 0.178999 -0.180917 0.788691 -0.027351 -0.074796 0.593133 0.146472 0.467200 0.152309 -0.123193 0.363492 -0.845884 0.246158 0.125653 -0.060917 0.101518 -0.125231 -0.042946 -0.239762 -0.097031 0.590366 -0.256705 0.122296 -0.617995 0.163684 0.292043 0.179967 -0.427188 0.294354 -0.625463 0.162171 0.549830 -0.217298 -0.246696 0.214855 0.069008 0.095330 0.255467 0.289960 -0.499635 -0.112249 0.268119 0.240501 -0.256910 -0.315883 -0.314652 0.044170 -0.008111 -0.363592 0.116727 -0.261487 0.496565 0.640409 -0.282254 0.103950 0.358297 0.146375 0.156558 -0.325777 -0.065658 0.065448 0.183319 -0.121082 -0.162086 0.014942 0.052529 0.338707 0.002392 0.412438 0.177397 0.042980 -0.485237 -0.480727 0.048094 0.112139 0.186234 0.218583 -0.224026 -0.057704 -0.020296 -0.073640 -0.181894 -0.144669 0.084170 -0.436138 -0.093974 -0.200970 0.440187 -0.045666 -0.081273 -0.055992 0.110319 -0.495578 -0.211747 0.225673 -0.036607 -0.281339 -0.228716
us 0.106952 0.269970 0.282112 -0.124030 0.462677 -0.278876 0.089367 0.726650 0.117062 0.407035 0.237354 -0.186638 0.193503 -0.324699 0.110904 0.224002 -0.159365 0.000708 -0.188818 0.075827 -0.290975 0.139230 0.220333 0.019419 -0.016710 -0.427880 0.131263 0.231698 -0.014297 -0.151053 0.167078 -0.330926 -0.120370 0.320332 0.045638 -0.128868 0.165145 -0.083370 0.061448 0.056637 0.124283 -0.395682 -0.548584 -0.215606 0.296463 0.126378 -0.086330 -0.363360 -0.094577 -0.166236 -0.118491 0.307370 -0.212903 0.005046 0.220031 -0.184499 0.043523 0.260447 0.221962 0.051383 -0.095450 -0.160805 0.107641 -0.229557 0.288411 -0.142149 0.093270 0.225927 0.251643 0.077766 0.198057 0.258492 -0.144457 -0.166856 -0.312205 -0.055672 0.251157 0.124680 0.080063 -0.059041 -0.173791 0.127461 0.038216 -0.318321 0.035122 0.211524 -0.056244 -0.362917 0.139083 0.440129 -0.216565 -0.240021 -0.104750 0.180443 -0.356314 -0.243226 0.048275 0.203631 -0.324892 0.035658
would 0.107856 0.142455 0.330369 -0.199750 0.405083 -0.287604 0.093249 0.835985 0.271740 0.462404 0.362515 -0.124095 0.203741 -0.235967 0.223594 0.220389 -0.216541 0.036612 -0.250576 0.106488 -0.361041 -0.031731 0.227717 0.071848 -0.038492 -0.491800 0.186948 0.363438 0.053063 -0.280368 0.263785 -0.342061 -0.315746 0.395055 0.089768 -0.207128 0.338825 0.020259 0.161576 0.201240 0.115182 -0.377247 -0.523906 -0.407421 0.474180 0.010770 -0.014268 -0.301067 -0.066545 0.000131 -0.047070 0.192643 -0.192345 0.081254 0.118929 -0.263476 0.098254 0.396857 0.241303 -0.095515 -0.220978 -0.286266 0.263858 -0.331177 0.245364 -0.213279 0.170304 0.127240 0.364098 0.055499 0.299163 0.385941 -0.262510 -0.093625 -0.165797 -0.178591 0.391691 0.052917 -0.045752 -0.031568 -0.179641 0.097570 0.050593 -0.510374 0.016857 0.077850 -0.201107 -0.360637 0.243209 0.514151 -0.120089 -0.439129 -0.071230 0.227205 -0.412957 -0.287279 0.085936 0.332217 -0.285315 0.003629
way 0.091165 0.328862 0.294829 -0.068066 0.618491 -0.149146 -0.007973 0.454325 -0.082440 0.323056 0.133316 -0.258481 0.306167 -0.517992 0.041544 0.146140 -0.020312 -0.042043 -0.174627 -0.014659 -0.047972 0.224072 0.276176 -0.089256 0.099103 -0.375703 0.097395 0.232556 0.045741 -0.023847 0.141326 -0.365753 0.206445 0.201190 -0.084279 0.004805 0.027064 -0.241009 -0.061074 -0.008067 0.127010 -0.293675 -0.367521 0.106006 0.199650 0.032221 -0.248912 -0.402403 -0.038401 -0.297419 -0.355241 0.457882 -0.217407 0.067440 0.417516 -0.191551 -0.012757 0.032349 0.092507 0.373082 -0.002752 0.018331 -0.036229 -0.001255 0.265768 -0.109902 0.035245 0.322630 0.226784 0.041565 0.100674 0.235626 -0.069968 -0.391029 -0.465353 -0.028924 0.082845 0.227139 0.282765 -0.096345 -0.171030 0.115596 -0.085877 -0.203174 -0.043558 0.273949 -0.050342 -0.225712 -0.194281 0.355931 -0.214821 -0.001847 -0.097195 0.078962 -0.364978 -0.154348 -0.048631 -0.048885 -0.188245 0.051528
night 0.060173 0.290108 0.324720 -0.034585 0.516993 -0.172132 0.063947 0.436181 0.064545 0.397773 0.119193 -0.165405 0.310898 -0.424248 0.047595 0.203316 -0.086739 -0.091118 -0.215594 0.010270 -0.071668 0.191324 0.128545 -0.072792 0.097177 -0.298663 0.156582 0.295419 -0.008525 -0.103777 0.118726 -0.365055 0.087069 0.201989 0.032317 -0.098324 0.185709 -0.199542 0.004680 0.037758 0.159377 -0.393430 -0.457150 -0.046342 0.264095 0.003562 -0.089354 -0.360943 -0.054799 -0.301081 -0.190821 0.442355 -0.245622 0.017099 0.369051 -0.198420 0.068624 0.123851 0.118994 0.259844 -0.079399 -0.027898 0.090890 -0.101532 0.292683 -0.078353 0.080323 0.268522 0.334576 0.030156 0.248591 0.259374 -0.098077 -0.294680 -0.341940 -0.039973 0.140359 0.168470 0.125908 -0.051059 -0.118867 0.132409 -0.024956 -0.241710 -0.071399 0.228056 -0.054934 -0.265183 -0.084433 0.397305 -0.144243 -0.057359 -0.173887 0.136234 -0.396749 -0.216414 -0.004679 0.049644 -0.165065 0.032970
after 0.087039 0.286784 0.310288 -0.086598 0.540545 -0.189446 0.056647 0.543086 0.126256 0.399433 0.173852 -0.193867 0.348106 -0.453488 0.119046 0.192894 -0.116279 -0.058548 -0.218558 0.033803 -0.168958 0.129869 0.225039 0.009859 0.085291 -0.382179 0.162603 0.361750 0.052633 -0.147757 0.168565 -0.377545 -0.018735 0.254505 0.001287 -0.133429 0.199224 -0.188996 -0.003775 0.073871 0.132433 -0.377448 -0.481109 -0.102200 0.312732 0.003765 -0.135842 -0.420129 -0.023032 -0.238674 -0.237409 0.350047 -0.209791 0.078135 0.362105 -0.243789 0.069017 0.189509 0.144171 0.235593 -0.089096 -0.060476 0.081268 -0.129654 0.281209 -0.126375 0.105963 0.261190 0.290813 0.031249 0.245380 0.298823 -0.139694 -0.314101 -0.379407 -0.078180 0.182117 0.204499 0.128916 -0.041991 -0.124886 0.130634 -0.066300 -0.319970 -0.014989 0.263330 -0.130957 -0.291343 -0.046001 0.427766 -0.180433 -0.132593 -0.121990 0.157710 -0.429372 -0.223177 0.017666 0.093724 -0.190064 0.009555
went 0.169651 0.354067 0.301080 -0.068724 0.743428 -0.093024 -0.020503 0.323701 -0.001703 0.319515 0.080453 -0.212043 0.463111 -0.766106 -0.001849 0.173493 0.002558 -0.147100 -0.246323 -0.043727 -0.091021 0.283354 0.325300 -0.201142 0.212543 -0.399043 0.063240 0.323857 0.075167 -0.125510 0.121656 -0.488794 0.257243 0.366054 -0.113538 -0.165158 0.182368 -0.162147 -0.032236 0.094830 0.306287 -0.455199 -0.246163 0.248420 0.176390 -0.099489 -0.242629 -0.454043 -0.001658 -0.362583 -0.393384 0.393982 -0.269072 0.242828 0.639446 -0.280101 0.054237 0.081214 0.070619 0.430529 -0.181859 0.084366 -0.054984 0.101459 0.217992 -0.021098 0.030900 0.194757 0.278382 -0.045058 0.280135 0.077274 -0.062410 -0.460211 -0.581365 0.095823 -0.005875 0.347987 0.308499 -0.012654 -0.223373 0.069298 -0.029135 -0.076123 -0.201717 0.244189 -0.154942 -0.190185 -0.311262 0.468264 -0.110189 0.105356 -0.213825 0.093601 -0.482784 -0.179806 0.106869 -0.110032 -0.124236 -0.037694
any 0.015168 0.246279 0.164448 -0.264653 0.302412 -0.396196 -0.016673 1.464952 -0.003634 0.352998 0.427670 -0.406698 -0.029765 0.058133 0.297197 0.105396 -0.353833 0.367791 -0.017576 0.167342 -0.488246 0.026226 0.307905 0.348187 -0.322876 -0.661755 0.250764 0.184269 0.038616 -0.008440 0.380763 -0.110636 -0.338985 0.206875 -0.059467 0.177565 -0.162025 -0.091438 -0.137355 -0.169976 -0.049053 -0.099267 -0.840526 -0.533403 0.387522 0.379860 -0.208675 -0.404738 -0.118444 0.169280 -0.125030 0.274625 -0.035050 0.013856 -0.187394 -0.069587 -0.076839 0.250535 0.464322 -0.152645 0.259545 -0.261760 0.009479 -0.529661 0.329981 -0.465083 0.175088 0.445832 0.087534 0.194573 -0.142864 0.507152 -0.235749 0.026116 -0.378512 -0.249582 0.554393 -0.026555 0.035071 -0.175123 -0.202962 0.045418 -0.051469 -0.611316 0.360962 0.339547 0.031323 -0.429925 0.388841 0.295087 -0.513285 -0.558083 0.249961 0.193477 -0.211419 -0.188094 -0.310746 0.437471 -0.656713 0.091864
across 0.071290 0.376125 0.384166 -0.028316 0.649509 -0.111939 0.013037 0.385300 -0.129006 0.321479 0.110244 -0.306852 0.358087 -0.586241 -0.030041 0.190417 0.007323 -0.130252 -0.155625 -0.014307 0.047025 0.321660 0.212988 -0.090479 0.122338 -0.335660 0.090928 0.265226 0.047566 0.031383 0.118472 -0.370509 0.258514 0.117861 -0.057062 0.040920 0.029161 -0.305445 -0.113111 -0.052441 0.135908 -0.294772 -0.444778 0.174890 0.175683 0.065128 -0.246945 -0.422493 -0.030291 -0.408137 -0.398697 0.570265 -0.257431 -0.036552 0.489297 -0.210324 -0.001745 -0.010296 0.116377 0.480391 0.047065 0.064840 -0.059158 -0.010447 0.318497 -0.049631 0.061638 0.421625 0.273052 0.037795 0.134962 0.273345 -0.119949 -0.421102 -0.558212 -0.051841 0.074278 0.258000 0.298599 -0.042052 -0.189091 0.139601 -0.136782 -0.168326 -0.066680 0.347494 0.019179 -0.233535 -0.274878 0.355475 -0.230833 0.017530 -0.135159 0.082906 -0.391765 -0.144382 -0.064305 -0.091088 -0.142517 0.094428
still 0.114445 0.304727 0.310916 -0.076395 0.522222 -0.228292 0.072173 0.554665 0.070116 0.406763 0.169977 -0.198416 0.305703 -0.439091 0.035547 0.190049 -0.125013 -0.061501 -0.211563 0.046693 -0.133403 0.186745 0.186420 -0.019122 0.069899 -0.337957 0.131632 0.284623 -0.012328 -0.099863 0.127158 -0.366467 0.029884 0.228486 0.011164 -0.107549 0.149731 -0.198203 0.017592 0.052742 0.150797 -0.368729 -0.466663 -0.059071 0.244327 0.040389 -0.099763 -0.388734 -0.067262 -0.271398 -0.202106 0.428062 -0.255856 0.003006 0.341067 -0.214847 0.037146 0.139456 0.164051 0.232569 -0.081369 -0.079287 0.096734 -0.087582 0.299367 -0.075386 0.082555 0.269076 0.302326 0.032607 0.223438 0.269328 -0.102033 -0.287866 -0.350887 -0.039723 0.184118 0.184238 0.172832 -0.048288 -0.123240 0.111809 -0.050925 -0.254842 -0.047429 0.238448 -0.072718 -0.280614 -0.042610 0.460529 -0.172449 -0.112061 -0.149002 0.138770 -0.417106 -0.230873 0.009562 0.094438 -0.232698 0.024160
like 0.072177 0.314760 0.295855 -0.059082 0.581568 -0.198852 0.022252 0.573100 -0.021904 0.387173 0.155401 -0.294384 0.297865 -0.448894 0.007791 0.180753 -0.067494 -0.024066 -0.163197 0.009868 -0.066155 0.208959 0.211018 0.018435 0.063092 -0.332467 0.118976 0.243593 -0.000207 -0.011796 0.125033 -0.341083 0.075185 0.149472 -0.034922 0.016534 -0.003310 -0.243297 -0.072748 -0.053679 0.096275 -0.272786 -0.496424 0.016881 0.237200 0.081554 -0.196309 -0.411821 -0.041535 -0.293040 -0.310258 0.478678 -0.218211 -0.012525 0.356529 -0.192369 -0.017265 0.089512 0.124771 0.291153 -0.006037 -0.012196 0.005680 -0.057014 0.299802 -0.131374 0.062238 0.317388 0.263531 0.086064 0.103751 0.283743 -0.095774 -0.360381 -0.455096 -0.098148 0.142010 0.202809 0.243450 -0.065491 -0.137071 0.143736 -0.102721 -0.283882 -0.032298 0.300515 -0.035669 -0.256402 -0.111497 0.400983 -0.267610 -0.098986 -0.105994 0.080898 -0.386439 -0.210198 -0.096929 0.031074 -0.202711 0.047698
gutenberg -0.048928 0.387274 0.029280 -0.463706 0.353440 -0.255245 -0.580585 2.713182 -0.613307 -0.107386 0.741884 -1.090530 -0.353172 0.332362 0.460671 -0.428410 -0.767463 1.117450 0.357360 0.243461 -0.782693 0.005857 0.732297 0.905910 -0.999777 -1.328531 0.426379 0.084769 0.313282 0.797231 0.973612 0.268631 -0.273117 0.039059 -0.387998 1.003691 -1.010419 -0.226463 -0.881708 -0.758080 -0.042159 0.440512 -1.229715 -0.516102 0.253668 0.928075 -0.937789 -0.915330 -0.026803 0.497586 -0.833061 0.531119 0.134889 0.512326 -0.391360 0.048248 -0.405461 -0.206290 0.941311 -0.055459 1.330636 -0.072082 -0.834965 -0.887442 0.362378 -1.229158 0.334794 1.156901 -0.404828 0.100640 -1.040152 0.855012 -0.193244 0.269317 -1.382915 -0.328464 0.803852 -0.015993 0.315883 -0.292384 -0.349993 -0.430334 -0.321874 -0.781397 0.905019 0.788682 0.403846 -0.302196 0.134493 -0.266336 -1.102085 -0.788567 0.919946 0.111095 -0.031285 -0.026229 -1.227111 0.646324 -1.429876 0.154826
seemed 0.078561 0.212986 0.303731 -0.086904 0.467288 -0.188316 0.067970 0.619020 0.150107 0.374295 0.206005 -0.159239 0.235981 -0.339899 0.114511 0.204794 -0.173197 -0.036051 -0.243947 0.051522 -0.196586 0.091499 0.178205 -0.035409 0.026662 -0.394662 0.139630 0.277708 0.007035 -0.150441 0.208489 -0.315458 -0.082989 0.284250 0.067738 -0.149344 0.194541 -0.076854 0.061464 0.112678 0.148427 -0.373377 -0.495770 -0.180064 0.342785 0.016634 -0.068782 -0.302649 -0.057162 -0.134110 -0.111300 0.321084 -0.205923 0.055481 0.265120 -0.220050 0.072502 0.266726 0.149639 0.063175 -0.123491 -0.132360 0.167524 -0.182682 0.238643 -0.133821 0.102308 0.206939 0.314295 0.029278 0.234739 0.289486 -0.142098 -0.198151 -0.242541 -0.073365 0.256972 0.131470 0.076530 -0.021945 -0.169592 0.101275 0.019318 -0.320297 -0.046100 0.140620 -0.104170 -0.297847 0.069979 0.430120 -0.143158 -0.248179 -0.110517 0.148177 -0.418864 -0.232427 0.041448 0.159144 -0.241760 -0.001718
project -0.043245 0.313222 0.018337 -0.313109 0.364664 -0.235271 -0.500002 2.294194 -0.544437 -0.026747 0.606964 -1.070427 -0.291152 0.252766 0.527448 -0.304728 -0.553790 0.899895 0.254851 0.128643 -0.649390 0.036310 0.631705 0.754687 -0.863663 -1.086458 0.290769 0.172316 0.358881 0.658395 0.846532 0.162512 -0.119123 0.012050 -0.548290 0.847266 -0.873467 -0.062994 -0.695331 -0.726782 -0.039678 0.472547 -1.065990 -0.416543 0.270685 0.649732 -0.949474 -0.686351 -0.062823 0.555301 -0.665317 0.332458 0.301628 0.347638 -0.399042 -0.011882 -0.491476 -0.084078 0.774046 -0.049769 1.180308 -0.034441 -0.765418 -0.772232 0.385326 -0.979168 0.278476 1.121942 -0.301911 0.213737 -0.844264 0.652024 -0.321436 0.235022 -1.111535 -0.225540 0.777480 -0.126500 0.318034 -0.296876 -0.318955 -0.326738 -0.152212 -0.654330 0.780912 0.648669 0.208900 -0.250252 0.228503 -0.293398 -0.983261 -0.520590 0.799370 0.167061 0.138744 0.094007 -1.008456 0.405484 -1.108496 0.045269
first 0.115391 0.244954 0.299171 -0.091348 0.515850 -0.194656 0.071893 0.527764 0.113008 0.416355 0.145996 -0.116387 0.320458 -0.434116 0.131717 0.200758 -0.158623 -0.020894 -0.204568 0.037687 -0.173035 0.077830 0.248911 -0.030964 0.021951 -0.370718 0.178469 0.285679 0.002725 -0.190854 0.177850 -0.386623 -0.017558 0.289270 0.023353 -0.160607 0.255143 -0.094717 0.054138 0.067618 0.192801 -0.395448 -0.411928 -0.098419 0.300219 -0.038062 -0.059229 -0.347780 -0.030816 -0.201721 -0.126446 0.323486 -0.190664 0.107747 0.321655 -0.230559 0.126781 0.229571 0.145882 0.155884 -0.130455 -0.076851 0.141507 -0.154066 0.243775 -0.099071 0.078357 0.202074 0.310760 0.048527 0.305076 0.274673 -0.081955 -0.252377 -0.297323 -0.025108 0.203721 0.160721 0.056276 -0.067964 -0.119448 0.112196 -0.013728 -0.316344 -0.005935 0.174307 -0.120478 -0.263675 0.002244 0.426563 -0.120192 -0.115164 -0.147884 0.141880 -0.374958 -0.212193 0.072175 0.125937 -0.193291 0.018965
two 0.041183 0.319909 0.276644 -0.096423 0.473188 -0.331445 0.068007 0.675027 -0.061988 0.363721 0.187386 -0.236185 0.254559 -0.265587 0.011834 0.203674 -0.110067 0.014402 -0.190817 0.049386 -0.114834 0.270810 0.187488 0.045573 0.007195 -0.292084 0.144658 0.207116 -0.030803 -0.017493 0.122334 -0.273748 0.002318 0.114336 -0.006412 0.055183 0.017699 -0.275484 -0.060412 -0.103045 0.058298 -0.293989 -0.572504 -0.146642 0.253796 0.161940 -0.137686 -0.437202 -0.138596 -0.257848 -0.186960 0.484448 -0.188105 -0.088734 0.214167 -0.136443 -0.046420 0.048591 0.166789 0.254159 0.034375 -0.094072 0.044638 -0.132100 0.423815 -0.200953 0.081221 0.299766 0.224321 0.140787 0.054885 0.306879 -0.096819 -0.282216 -0.394055 -0.080062 0.157827 0.150027 0.200973 -0.117024 -0.146975 0.124852 -0.061750 -0.319398 0.031152 0.360759 0.022151 -0.342934 -0.013645 0.408684 -0.296557 -0.151441 -0.103310 0.117891 -0.352385 -0.276450 -0.140742 0.105985 -0.261161 0.108808
if 0.115769 0.156480 0.208946 -0.256057 0.315479 -0.333858 0.107191 1.232266 0.366903 0.455901 0.465250 -0.228388 0.041582 -0.094774 0.396026 0.221513 -0.360600 0.200189 -0.102236 0.192528 -0.575338 -0.158340 0.253523 0.243307 -0.139757 -0.656198 0.220767 0.334940 0.043176 -0.293473 0.360714 -0.262431 -0.490785 0.427779 0.033984 -0.217708 0.163979 0.133483 0.129373 0.165726 0.023529 -0.303149 -0.728558 -0.606627 0.518312 0.166606 -0.053054 -0.264454 -0.054961 0.187265 0.034456 0.028088 -0.109906 0.091226 -0.074499 -0.179833 0.088589 0.550369 0.381814 -0.362961 -0.156402 -0.310289 0.221755 -0.473361 0.159699 -0.280850 0.174688 0.237664 0.231325 0.111753 0.196910 0.405746 -0.320346 0.016870 -0.132120 -0.233316 0.567264 0.029609 -0.093867 -0.036121 -0.152645 0.125900 0.050367 -0.568659 0.225559 0.136322 -0.161898 -0.432796 0.501967 0.483682 -0.283309 -0.624288 0.112288 0.268425 -0.379823 -0.257908 0.028833 0.428609 -0.499463 -0.031751
did 0.186483 0.113209 0.226267 -0.275605 0.322320 -0.324564 0.174480 0.948185 0.433935 0.455815 0.315598 -0.073877 0.207066 -0.241725 0.323414 0.322699 -0.306195 0.043829 -0.244224 0.227952 -0.550689 -0.165357 0.271417 0.113813 -0.119714 -0.558892 0.255904 0.391923 0.059873 -0.377453 0.354423 -0.330920 -0.468527 0.544125 0.068055 -0.421029 0.513540 0.152754 0.194846 0.330601 0.137743 -0.397780 -0.624038 -0.579464 0.477017 0.020375 0.045269 -0.249056 0.001855 0.028469 0.103041 -0.011815 -0.120122 0.095886 0.076302 -0.292830 0.221746 0.633234 0.297291 -0.301167 -0.375782 -0.270606 0.394834 -0.400195 0.101128 -0.162406 0.226781 0.105767 0.293084 0.022854 0.419206 0.316217 -0.308002 0.030988 -0.084459 -0.206001 0.466957 0.065313 -0.183948 0.092654 -0.175435 0.108631 0.064512 -0.530810 0.163163 0.081482 -0.303871 -0.326940 0.454618 0.533454 -0.182778 -0.589459 0.063377 0.319387 -0.496155 -0.288667 0.293672 0.344969 -0.383767 -0.072192
martian 0.082189 0.283521 0.313404 -0.067040 0.503724 -0.191470 0.036292 0.567381 0.043028 0.383363 0.160681 -0.232511 0.270220 -0.398198 0.086071 0.195345 -0.105537 -0.022417 -0.163432 0.022495 -0.114929 0.170356 0.204520 0.001577 0.038831 -0.352110 0.135989 0.274595 0.025739 -0.075338 0.151086 -0.318870 0.021716 0.188166 -0.013969 -0.031524 0.108825 -0.167246 -0.020043 0.005805 0.112245 -0.304117 -0.490878 -0.063793 0.255507 0.062497 -0.151805 -0.374084 -0.056200 -0.225717 -0.221604 0.395179 -0.223319 0.016458 0.302405 -0.196943 0.034262 0.139967 0.161283 0.221563 0.000869 -0.049612 0.058771 -0.127187 0.287118 -0.114870 0.095797 0.299752 0.279354 0.067056 0.184578 0.305200 -0.122240 -0.280726 -0.380341 -0.084193 0.183242 0.161314 0.142702 -0.066941 -0.122290 0.103711 -0.061102 -0.294989 -0.013320 0.250680 -0.035499 -0.247619 -0.049544 0.380690 -0.202014 -0.120203 -0.092070 0.113041 -0.334473 -0.191404 -0.043182 0.092117 -0.236658 0.036222
pit 0.032978 0.349957 0.339016 -0.031849 0.556873 -0.132596 0.032264 0.319818 -0.137796 0.352678 0.067501 -0.248580 0.322688 -0.498328 -0.040545 0.188717 0.000869 -0.125462 -0.188977 -0.028694 0.032423 0.323058 0.169728 -0.085482 0.130772 -0.253407 0.084868 0.230687 -0.000618 0.044081 0.095561 -0.352746 0.252947 0.114097 -0.042620 0.025355 0.070478 -0.274767 -0.063608 -0.055189 0.141520 -0.292733 -0.396776 0.124290 0.140342 0.081186 -0.181526 -0.399990 -0.087935 -0.399379 -0.313260 0.533799 -0.265505 -0.042485 0.407024 -0.155579 0.001899 -0.048415 0.091377 0.430668 0.040856 0.052739 -0.046076 -0.025618 0.334854 -0.057026 0.061313 0.359500 0.262399 0.028781 0.121218 0.241715 -0.098952 -0.352894 -0.467390 -0.010255 0.055895 0.207190 0.269628 -0.058796 -0.152232 0.115372 -0.073285 -0.147029 -0.053058 0.285470 0.056421 -0.238507 -0.231564 0.311847 -0.185832 0.055205 -0.172773 0.070367 -0.325557 -0.145061 -0.075664 -0.066141 -0.137801 0.110077
water 0.083539 0.313603 0.269951 -0.084407 0.546895 -0.222505 0.018833 0.585026 -0.051649 0.363629 0.148653 -0.274369 0.291681 -0.448515 0.029155 0.170196 -0.070565 -0.015825 -0.168994 0.002069 -0.097537 0.232723 0.226132 -0.008563 0.035232 -0.341391 0.117239 0.216389 0.005719 -0.041708 0.121073 -0.320081 0.096916 0.182991 -0.048039 0.007461 0.046853 -0.221149 -0.058707 -0.034158 0.145408 -0.306692 -0.462064 0.019415 0.209879 0.091862 -0.180099 -0.417807 -0.074185 -0.263131 -0.278509 0.453741 -0.233789 0.026512 0.335207 -0.189172 -0.015429 0.070583 0.168841 0.288178 -0.002979 -0.032107 -0.000582 -0.085813 0.314250 -0.126176 0.074530 0.301210 0.234419 0.070325 0.118071 0.256154 -0.102210 -0.290388 -0.461443 -0.022274 0.134219 0.201210 0.221714 -0.091946 -0.161409 0.096999 -0.075775 -0.238349 -0.043553 0.292592 -0.029077 -0.255826 -0.098691 0.378593 -0.226523 -0.086610 -0.108517 0.105170 -0.367776 -0.189853 -0.082039 0.062203 -0.259739 0.040899
who 0.077448 0.242806 0.315447 -0.139649 0.425793 -0.311994 0.090184 0.805022 0.128696 0.508738 0.302644 -0.193665 0.225645 -0.197233 0.135043 0.235590 -0.175239 0.039238 -0.224742 0.090449 -0.235675 0.126314 0.185662 0.088459 0.009536 -0.386044 0.205969 0.269022 -0.042527 -0.185162 0.210235 -0.333831 -0.184717 0.292636 0.034085 -0.060601 0.206914 -0.107222 0.103071 0.028630 0.082217 -0.351575 -0.612746 -0.317271 0.344769 0.126636 -0.054497 -0.388252 -0.107794 -0.164915 -0.079964 0.352664 -0.214741 -0.045356 0.109670 -0.161397 0.085598 0.237577 0.256111 0.084730 -0.093728 -0.206443 0.157691 -0.251516 0.366638 -0.191046 0.130060 0.224401 0.309690 0.124095 0.225857 0.384717 -0.148444 -0.155676 -0.242502 -0.154850 0.332384 0.098201 0.031003 -0.121264 -0.107916 0.127528 -0.000114 -0.458242 0.050154 0.175131 -0.052895 -0.384563 0.174873 0.516320 -0.222002 -0.311365 -0.084361 0.216252 -0.355756 -0.268078 -0.019674 0.254768 -0.294089 0.072984
very 0.096106 0.262775 0.299334 -0.097482 0.495451 -0.234713 0.063142 0.665760 0.107720 0.405850 0.189056 -0.203370 0.281470 -0.377433 0.093995 0.216037 -0.158731 0.005802 -0.210071 0.063013 -0.194146 0.116944 0.217368 0.007400 0.014087 -0.393165 0.173081 0.278688 -0.010714 -0.147518 0.170420 -0.326283 -0.058572 0.272768 0.012142 -0.120701 0.183323 -0.122110 0.028553 0.051869 0.157349 -0.376878 -0.497725 -0.145677 0.299663 0.053860 -0.090511 -0.380756 -0.055420 -0.212767 -0.150678 0.335912 -0.227764 0.035071 0.288912 -0.215867 0.063791 0.227148 0.197544 0.128901 -0.096627 -0.113363 0.119470 -0.159489 0.271353 -0.122542 0.101240 0.234153 0.298424 0.046782 0.223098 0.295728 -0.115442 -0.227589 -0.339528 -0.055336 0.217812 0.156132 0.106086 -0.065962 -0.133140 0.106978 -0.022241 -0.320513 -0.012877 0.207678 -0.103475 -0.289600 0.032957 0.471676 -0.192432 -0.200567 -0.106802 0.166720 -0.386165 -0.230433 0.017527 0.156788 -0.268678 0.021911
more 0.069726 0.240866 0.281613 -0.133420 0.400649 -0.320182 0.090115 0.838693 0.145406 0.425483 0.276673 -0.217012 0.197358 -0.217968 0.149269 0.198847 -0.196144 0.047871 -0.151763 0.122042 -0.305584 0.031758 0.193388 0.103636 -0.095648 -0.446458 0.190811 0.253923 -0.007150 -0.118985 0.212783 -0.283143 -0.184485 0.239959 0.063748 -0.079197 0.137099 -0.115415 0.021630 0.043590 0.038022 -0.265252 -0.626653 -0.340075 0.379490 0.133284 -0.060101 -0.356476 -0.071106 -0.132787 -0.081600 0.311464 -0.147164 -0.025327 0.134841 -0.180296 0.038944 0.254432 0.215734 0.014544 -0.052862 -0.162281 0.177627 -0.281333 0.283306 -0.226581 0.128408 0.279675 0.246364 0.102242 0.157804 0.356178 -0.177170 -0.138361 -0.258391 -0.170299 0.324954 0.087498 0.019672 -0.065314 -0.160322 0.134530 -0.022366 -0.427001 0.087114 0.236514 -0.084836 -0.348783 0.219439 0.430906 -0.280037 -0.332628 -0.014580 0.184812 -0.375659 -0.252324 -0.048361 0.234623 -0.343505 0.055521
smoke 0.052527 0.342855 0.337704 0.004846 0.611538 -0.180002 -0.025978 0.421079 -0.167838 0.324425 0.053594 -0.343714 0.361880 -0.483127 -0.132274 0.208640 -0.013794 -0.101157 -0.164706 -0.051896 0.063719 0.402901 0.168751 -0.042288 0.083799 -0.239410 0.044745 0.209132 -0.018481 0.121296 0.063229 -0.302533 0.296103 0.033118 -0.024933 0.107143 -0.032992 -0.415415 -0.149027 -0.189542 0.153091 -0.266765 -0.485683 0.171749 0.120106 0.132333 -0.248491 -0.489107 -0.066455 -0.453647 -0.376271 0.693619 -0.275838 -0.096614 0.427810 -0.181240 -0.078974 -0.117907 0.094560 0.509730 0.133894 0.087165 -0.062336 0.028863 0.419897 -0.058260 0.074737 0.384341 0.263206 0.091879 0.051970 0.250274 -0.023460 -0.397515 -0.579352 -0.016670 0.003371 0.268209 0.379185 -0.077432 -0.178241 0.136237 -0.134294 -0.179335 -0.089876 0.425137 0.040214 -0.218366 -0.295646 0.358824 -0.262613 0.020225 -0.177555 0.042108 -0.367585 -0.165032 -0.187797 -0.066366 -0.116871 0.121590
when 0.155183 0.248035 0.286207 -0.108273 0.555539 -0.158169 0.012318 0.613785 0.155089 0.391590 0.178060 -0.188899 0.351069 -0.473065 0.152130 0.161473 -0.152590 -0.004554 -0.194615 0.034647 -0.196666 0.064165 0.290105 -0.037480 0.038266 -0.429391 0.149694 0.337722 0.056932 -0.170398 0.202798 -0.376138 -0.017487 0.335728 -0.025204 -0.177159 0.224124 -0.071884 0.009284 0.117385 0.206699 -0.377253 -0.406523 -0.067937 0.297855 -0.062105 -0.132371 -0.377937 0.015361 -0.186234 -0.233326 0.277343 -0.207613 0.181724 0.387502 -0.290254 0.093128 0.227827 0.168243 0.145833 -0.146796 -0.056579 0.087049 -0.115339 0.195583 -0.131694 0.079084 0.188202 0.304547 0.014809 0.287015 0.245635 -0.135379 -0.281478 -0.397312 -0.047507 0.210754 0.198107 0.133209 -0.044656 -0.154686 0.070771 -0.029760 -0.295138 -0.053436 0.187122 -0.178026 -0.223271 -0.051527 0.448956 -0.156767 -0.144258 -0.103663 0.163912 -0.436540 -0.210240 0.063876 0.114688 -0.228367 -0.041062
before 0.119399 0.251549 0.314198 -0.130305 0.501181 -0.232166 0.060550 0.732793 0.143031 0.442719 0.260844 -0.210228 0.265017 -0.353227 0.154313 0.200821 -0.188973 0.022887 -0.188009 0.069437 -0.251536 0.098472 0.233167 0.044641 0.015097 -0.457213 0.173610 0.327406 0.027964 -0.163185 0.227481 -0.377183 -0.110709 0.287203 0.013909 -0.146802 0.224918 -0.111568 0.035481 0.072871 0.128979 -0.361665 -0.562798 -0.219852 0.350054 0.050422 -0.115880 -0.392494 -0.030797 -0.142004 -0.144274 0.317099 -0.196622 0.070638 0.270331 -0.232450 0.069687 0.271003 0.217248 0.095221 -0.100237 -0.137397 0.125026 -0.188978 0.282007 -0.173936 0.132028 0.256528 0.306490 0.064856 0.250297 0.326548 -0.168814 -0.232558 -0.347376 -0.106484 0.279736 0.150898 0.080190 -0.049569 -0.154474 0.108653 -0.030756 -0.396607 0.012074 0.226386 -0.136614 -0.322070 0.080758 0.485084 -0.216786 -0.276996 -0.071486 0.203289 -0.417957 -0.254901 0.009395 0.182813 -0.263243 0.026889
under 0.077996 0.277050 0.305029 -0.109734 0.525726 -0.188350 0.003184 0.679932 -0.016701 0.363744 0.217652 -0.307554 0.250662 -0.392710 0.098216 0.142952 -0.124687 0.017657 -0.152265 0.051330 -0.155967 0.181351 0.245400 0.045934 0.004088 -0.437966 0.150052 0.270796 0.039929 -0.034160 0.213193 -0.338454 0.014949 0.192720 -0.046858 0.013980 0.048015 -0.186675 -0.076499 -0.025833 0.107938 -0.253021 -0.528985 -0.079332 0.270721 0.093996 -0.218682 -0.420112 -0.038193 -0.197213 -0.275552 0.412890 -0.188364 0.057034 0.292780 -0.208306 -0.015629 0.111865 0.202893 0.251195 0.037370 -0.054944 -0.020613 -0.152808 0.295703 -0.196754 0.102597 0.337407 0.243883 0.066373 0.114290 0.331443 -0.151697 -0.267683 -0.431510 -0.109698 0.224266 0.174929 0.185383 -0.089288 -0.175516 0.089684 -0.070216 -0.319441 0.023530 0.269679 -0.047339 -0.281133 -0.057596 0.361801 -0.255275 -0.157685 -0.043318 0.139886 -0.346388 -0.182400 -0.099490 0.101620 -0.276450 0.042378
even 0.120484 0.253717 0.278182 -0.115689 0.457942 -0.268945 0.085532 0.749539 0.132570 0.409147 0.240873 -0.206667 0.236694 -0.338712 0.141368 0.216659 -0.176054 0.012751 -0.200144 0.080552 -0.258872 0.100143 0.217121 0.035468 0.003692 -0.425667 0.171092 0.267887 -0.001258 -0.150978 0.208730 -0.338629 -0.115978 0.284227 0.011495 -0.121832 0.164789 -0.108249 0.046492 0.069805 0.105320 -0.370881 -0.547937 -0.211285 0.324057 0.084813 -0.103258 -0.362489 -0.076107 -0.129804 -0.116916 0.325174 -0.211150 0.026853 0.236893 -0.201138 0.069106 0.260317 0.224745 0.065597 -0.104887 -0.149757 0.127931 -0.200578 0.260415 -0.146610 0.107593 0.235635 0.282478 0.068567 0.211621 0.303406 -0.137058 -0.188150 -0.294159 -0.087881 0.288904 0.141153 0.087790 -0.075235 -0.150857 0.116675 -0.010326 -0.359928 0.029864 0.213690 -0.100654 -0.324589 0.111836 0.473311 -0.224233 -0.262267 -0.052019 0.160772 -0.390224 -0.246867 0.004944 0.181324 -0.309594 0.023190
