2405 100
the -0.361787 0.567446 0.042244 0.330633 0.887595 -0.423164 0.102714 0.870038 -0.318556 0.327552 0.016820 -0.019763 0.085177 -0.444639 -0.263722 0.071484 -0.043526 0.127960 -0.297503 0.406048 0.192069 0.368537 0.551216 0.103535 0.377787 -0.227186 0.306776 -0.383826 -0.409284 -0.367862 -0.172806 -0.124267 0.429195 0.324165 -0.296775 0.152348 -0.084862 -0.057859 0.256739 -0.129328 0.510334 -0.799939 -0.406973 0.312749 0.003713 0.170783 -0.029945 0.090912 -0.272308 -0.314139 -0.491166 0.598166 -0.575214 -0.424023 -0.144841 -0.594217 0.423250 0.072659 0.381946 0.314348 -0.139393 -0.176513 0.279359 0.005141 0.646842 -0.024579 -0.071549 0.079985 0.389936 0.192083 -0.105388 0.682075 0.175204 -0.344423 -0.789637 0.341581 0.061271 0.020733 0.337716 -0.327226 -0.024726 0.438897 0.118244 -0.298426 -0.160760 0.190355 0.042955 -0.157900 -0.256818 0.258024 -0.246299 -0.106248 -0.254973 0.149151 -0.602624 0.506430 -0.162398 -0.084513 -0.289640 0.028969
of 0.187502 0.553858 0.485820 0.407343 0.738884 -0.081857 0.128482 0.448019 0.013100 0.061077 0.027381 -0.294977 0.296411 -0.570549 0.355044 0.466715 0.182017 -0.212957 0.018163 0.511392 0.095127 -0.324737 0.106078 0.007560 0.485163 -0.280729 0.310593 0.420990 0.039827 -0.076717 0.322435 -0.269669 0.343766 -0.108985 -0.184310 0.193812 -0.094674 -0.370050 -0.020105 -0.227334 0.059716 -0.143002 -0.481782 0.262389 0.395408 0.110892 -0.664518 -0.286264 -0.137517 -0.347797 -0.491773 0.130935 -0.535585 -0.463720 0.089753 0.084576 0.112214 0.362058 0.006390 0.468072 -0.056108 -0.490018 0.098026 0.296728 0.163509 -0.404286 0.229970 0.304866 0.364177 0.262172 -0.333734 0.259825 -0.193513 0.054244 -0.388009 -0.461732 0.227352 -0.154388 0.167707 -0.254162 -0.028603 0.526887 -0.125426 -0.371498 -0.067825 -0.069663 -0.391913 -0.264052 -0.121016 0.464300 -0.399419 -0.081129 0.284153 -0.110943 -0.131359 -0.299546 -0.376829 0.076113 -0.193928 -0.254425
and 0.210631 0.227204 0.290843 0.426922 0.701226 -0.210904 0.200838 0.500833 0.111126 0.193415 -0.094641 -0.289800 0.408073 -0.812594 0.127987 0.179999 0.153176 -0.062412 -0.267684 0.388757 0.135376 -0.069799 0.174606 0.027951 0.389913 -0.226257 0.034141 0.210994 -0.017452 -0.317394 0.034659 -0.459859 0.165252 -0.008836 -0.177203 -0.046000 -0.194901 -0.206554 0.101519 0.126518 0.364866 -0.408559 -0.155365 0.338887 0.239660 -0.023157 -0.259492 -0.066932 -0.149710 -0.324173 -0.253681 0.250598 -0.426073 -0.299853 0.247762 -0.559840 0.217738 0.255179 0.052520 0.263414 -0.006545 -0.329755 0.166094 0.255529 0.015347 -0.174699 0.000687 0.176023 0.272194 0.049733 -0.156493 0.282789 0.171110 -0.462478 -0.452496 -0.222715 0.203878 0.232396 0.378280 -0.246247 -0.183038 0.438179 -0.148795 -0.316977 -0.120431 0.109725 -0.308337 -0.093072 -0.270922 0.500406 -0.367525 0.018320 0.190514 -0.107490 -0.563085 -0.000586 -0.076163 0.091754 -0.261834 -0.063411
to 0.725646 -0.261484 0.218275 -0.184490 0.065781 -0.205421 -0.108359 0.612355 0.301050 0.488473 0.400360 -0.005351 0.297540 -0.581990 0.683340 0.184841 0.145641 0.119792 -0.155025 -0.234015 -0.254982 -0.080616 0.172678 -0.028681 0.081925 -0.356780 -0.292354 0.594881 0.361217 -0.436570 0.582472 -0.737877 -0.320200 0.447692 0.358305 -0.147703 0.085977 0.048719 0.415044 0.369698 -0.110958 -0.110930 0.455189 0.280093 0.176429 -0.142716 -0.555630 -0.305212 -0.028534 0.034121 0.117595 0.045354 -0.142407 0.273175 0.175146 -0.490741 -0.271567 0.264828 0.116146 -0.388268 -0.073032 -0.701007 -0.017051 -0.263754 -0.425444 0.104648 0.078378 0.035152 0.087575 0.360904 0.312470 0.061554 -0.201229 -0.032513 -0.133684 -0.579789 0.422281 0.238051 -0.064575 0.223647 -0.509166 0.082663 -0.180564 -0.513419 0.332888 0.247676 -0.373254 -0.412455 0.032209 0.744305 -0.177248 -0.002111 0.357883 -0.222034 0.034593 -0.020239 0.062109 0.507597 -0.177786 -0.038647
a -0.313959 0.438481 0.010262 0.323939 0.362986 -0.516362 -0.146857 0.882632 -0.130498 0.448949 0.029449 -0.111858 0.335836 -0.301487 -0.046923 0.235094 0.189628 0.229580 -0.209361 0.109493 0.044045 0.118853 0.438172 0.031476 0.087412 -0.149777 0.319613 -0.341921 -0.532916 -0.081279 -0.253018 -0.167596 0.264943 0.134999 0.174120 -0.147848 -0.155023 -0.208531 0.274631 -0.182282 0.117376 -0.513709 -0.411760 0.118897 -0.065464 0.402885 0.154766 -0.034618 -0.269294 -0.485462 -0.266102 0.361934 -0.374471 -0.229913 0.184397 -0.378469 0.325729 0.044162 0.375285 0.023658 -0.148308 -0.209820 0.400401 -0.046817 0.634491 0.017310 -0.056492 0.050888 0.195474 0.308400 0.002740 0.752350 0.040293 0.002490 -0.605086 0.202297 0.234488 -0.035886 0.320524 -0.331705 -0.037332 0.527292 0.038957 -0.282286 0.028912 0.234759 -0.031545 -0.211480 -0.197746 0.358801 -0.239581 0.021131 -0.104175 0.132194 -0.615692 0.260544 -0.190621 0.102069 -0.390031 0.110916
in 0.386335 0.264994 0.462722 0.334945 0.536201 -0.017451 0.020518 0.441580 0.155495 0.215833 0.119681 -0.263139 0.381660 -0.620827 0.380416 0.383706 0.162872 -0.149441 -0.027389 0.395747 0.037195 -0.275480 0.053955 0.047222 0.326782 -0.342035 0.116471 0.548728 0.211276 -0.155606 0.417991 -0.481768 0.201870 -0.049727 0.000661 -0.052463 -0.014085 -0.318024 0.094296 0.037078 0.013213 0.019931 -0.202664 0.192131 0.335272 0.066724 -0.658539 -0.297975 -0.112086 -0.229503 -0.192506 0.137345 -0.374771 -0.290068 0.170510 -0.133551 -0.011973 0.220261 -0.022091 0.111934 -0.050116 -0.454676 0.091154 0.157784 -0.083809 -0.301145 0.216494 0.337359 0.175919 0.205933 -0.182808 0.239078 -0.162933 -0.162668 -0.306036 -0.621909 0.279153 0.078529 0.096806 -0.125746 -0.170231 0.343356 -0.231215 -0.369460 -0.026381 0.036142 -0.375537 -0.300646 -0.146364 0.542523 -0.392036 -0.066355 0.443235 -0.105706 -0.270052 -0.209676 -0.278269 0.120182 -0.206922 -0.154748
i 0.933922 -0.482664 0.202585 -0.402637 -0.302404 -0.485261 0.023708 0.660243 0.835139 0.613674 0.675938 0.218461 0.004232 -0.435694 0.560666 0.434299 -0.160043 0.939862 -0.337731 -0.725671 -0.151509 -0.033208 0.310135 0.215536 0.108669 -0.382791 -0.117891 0.321448 -0.242569 -0.819760 -0.227799 -1.350094 -0.877683 0.998093 0.534835 -0.402642 0.561586 0.669715 0.531612 -0.018777 0.180180 -0.453286 0.799060 -0.162196 -0.313365 -0.114218 0.102603 -0.409762 0.037461 -0.610328 0.807367 -0.166464 -0.076968 0.247156 0.221398 -0.496016 0.101955 0.929505 0.009843 -0.728594 0.066317 -0.398196 0.095346 -0.299504 -0.567647 0.681621 -0.227538 -0.290374 0.297556 0.421710 0.739551 -0.434147 -0.101010 -0.246883 -0.373517 -0.352634 0.833223 0.334178 -0.126654 0.155558 -0.448935 -0.032248 0.133760 -0.665707 -0.107639 0.235815 -0.350784 0.069368 0.454471 1.224406 -0.181989 0.518521 -0.500045 -0.015992 0.428748 0.355897 0.647103 1.569869 -0.175991 -0.041126
that 0.538788 -0.302034 0.082716 -0.245269 -0.124311 -0.551407 -0.282663 0.803973 0.400648 0.616657 0.504214 0.044719 0.216608 -0.216110 0.409022 0.309772 -0.141185 0.513669 -0.180102 -0.395085 -0.282151 -0.195003 0.214751 0.137069 -0.247831 -0.256061 -0.115839 0.372560 -0.153586 -0.275363 0.031933 -0.971856 -0.283359 0.606700 0.579820 -0.412130 0.324498 0.341757 0.482590 0.120877 0.025031 -0.253372 0.036103 -0.121310 -0.176409 0.128589 -0.067271 -0.312727 -0.048501 -0.539909 0.427731 0.225585 -0.086025 0.174396 0.124867 -0.397382 0.083643 0.358651 0.048722 -0.646161 -0.100965 -0.230037 0.284613 -0.343143 -0.130713 0.360305 -0.261708 -0.146149 0.188976 0.342698 0.485662 0.163071 -0.356718 -0.122272 -0.177972 -0.312408 0.497578 0.129314 -0.015986 0.243600 -0.367483 0.192906 0.139944 -0.702421 0.311206 0.248074 -0.151111 -0.197367 0.186143 0.727254 -0.281206 0.057171 -0.163990 -0.004423 -0.035045 0.205425 0.277625 0.600268 -0.064878 -0.156900
it 0.421898 -0.079733 0.091696 -0.442747 -0.225911 -0.752254 -0.223947 1.060169 0.571182 0.809940 0.478593 0.033990 0.013977 -0.228693 0.463242 0.460007 -0.352643 0.758087 0.010964 -0.410831 -0.291998 -0.169414 0.242154 0.090506 -0.181211 -0.181943 -0.004078 0.082635 -0.394171 -0.179929 -0.145217 -0.864070 -0.506672 0.762615 0.643137 -0.261874 0.001501 0.470064 0.400457 0.116417 0.003338 -0.356840 0.194589 0.231792 -0.354318 0.250226 0.155888 -0.133691 -0.080362 -0.414086 0.363081 0.062097 -0.257973 0.318576 0.206980 -0.311184 -0.005818 0.372382 0.289467 -0.733255 0.004388 -0.354364 0.283344 -0.373361 -0.115057 0.690440 -0.386462 -0.205379 0.070295 0.501503 0.626284 0.038644 -0.121449 -0.068844 -0.240380 -0.061557 0.615729 0.066863 -0.238328 0.350484 -0.255625 0.168805 0.190076 -0.510512 0.232643 0.312924 -0.202897 -0.060579 0.383311 0.866728 -0.275930 0.243918 -0.477761 -0.083212 0.052777 0.483707 0.369932 0.923113 -0.393637 -0.163888
was 0.344826 -0.327670 0.129968 0.362411 0.359487 -0.188032 -0.260758 0.496095 0.431402 0.352166 -0.057235 -0.179668 0.688354 -0.765383 0.443953 0.267797 -0.079204 -0.079764 -0.420323 -0.070468 0.100553 -0.450588 0.089047 -0.173944 -0.108063 -0.187401 -0.091337 0.774930 0.018496 0.076480 0.000947 -0.828113 0.095303 0.072027 0.300168 -0.456871 -0.003538 -0.354704 0.250642 0.262532 0.367286 0.189621 -0.359984 -0.096691 0.108160 0.149426 -0.283029 -0.230768 -0.194373 -0.451424 0.132489 0.366656 -0.285339 0.004619 0.404778 -0.478088 0.303337 0.179446 -0.373863 -0.375164 0.085140 -0.047698 0.386212 -0.015128 -0.291960 -0.249409 -0.026674 0.239574 0.102815 -0.082917 0.087295 0.370000 -0.245147 -0.488611 -0.188980 -0.503064 0.348806 0.178530 0.378861 0.242711 -0.345915 0.324896 -0.177292 -0.737995 0.204288 -0.037729 -0.454961 -0.262014 -0.354429 0.382464 -0.571838 -0.058350 0.389401 -0.024365 -0.838048 -0.055339 -0.188194 0.025071 -0.061505 -0.412277
my 0.044342 -0.261642 0.047819 0.107229 0.422265 -0.413089 -0.011195 0.824992 0.051281 0.391072 -0.031088 0.143669 0.396142 -0.484736 0.054938 -0.364393 -0.133247 0.434264 -0.588430 0.139423 0.331766 0.396001 0.379145 -0.006131 0.253661 -0.106027 0.107085 0.014031 -0.331173 -0.790779 -0.258164 -0.671346 -0.058068 0.429322 -0.047647 -0.077423 0.166069 0.359496 0.381249 0.156360 0.805345 -0.649930 0.176658 0.278760 -0.082998 -0.359944 0.043345 0.047143 -0.099018 -0.554859 0.092140 0.498937 -0.316910 0.016435 0.035068 -1.147714 0.611655 0.231525 0.258456 -0.037228 0.199507 0.028966 0.229967 -0.232584 0.214192 -0.286213 -0.250246 -0.239197 0.440991 -0.174712 0.044119 0.330857 0.202292 -0.444172 -0.702440 0.041484 -0.021430 0.431249 0.140908 -0.165705 -0.446476 0.107096 0.160536 -0.469179 -0.240773 0.139377 -0.307451 0.039304 -0.410701 0.575412 -0.271878 0.083999 -0.223983 0.004919 -0.521609 0.488470 0.006255 0.351298 -0.105167 -0.021095
with 0.359533 0.132704 0.291074 0.427528 0.560326 0.061709 0.017640 0.563497 0.141906 0.151755 -0.062639 -0.411863 0.422265 -0.738949 0.412213 0.140707 0.062418 -0.063212 -0.085314 0.344595 0.004109 -0.180003 0.160925 0.049946 0.243129 -0.381201 -0.003753 0.511895 0.107638 -0.159820 0.381890 -0.469475 0.109475 -0.137972 -0.068216 -0.096371 -0.225971 -0.260062 -0.007436 0.062399 0.154042 0.063169 -0.194919 0.237083 0.241358 0.034869 -0.581784 -0.343128 -0.041813 -0.207294 -0.326288 0.080857 -0.242127 -0.101232 0.205184 -0.364247 0.124561 0.229442 -0.071228 0.052042 0.087530 -0.390694 -0.040924 0.157710 -0.140434 -0.375703 0.130891 0.332827 0.127967 0.143990 -0.255017 0.249485 -0.067048 -0.221499 -0.397327 -0.508940 0.307079 0.171513 0.163889 -0.099907 -0.209804 0.208404 -0.316739 -0.443289 0.092708 0.054037 -0.397876 -0.242738 -0.277886 0.396695 -0.435814 -0.074631 0.559550 -0.109852 -0.400286 -0.203371 -0.326494 0.144552 -0.242384 -0.142090
as 0.409806 -0.212627 0.125217 -0.171362 -0.175717 -0.171536 0.071313 0.854058 0.322371 0.462393 0.435591 -0.211448 0.069904 -0.443998 0.537171 0.181838 -0.231172 0.387263 -0.107444 -0.348170 -0.214364 -0.014493 -0.044340 0.060725 0.009322 -0.163409 -0.307822 0.488998 0.220362 -0.420492 0.555757 -0.546537 -0.522174 0.214388 0.381815 -0.463514 0.032164 0.241540 0.442427 0.272117 -0.020234 -0.526383 0.069942 0.080122 -0.017756 0.063109 -0.563758 -0.493110 -0.017855 -0.054599 0.086101 0.133080 0.162055 0.269090 -0.040234 -0.752630 -0.096553 0.217671 0.088085 -0.707174 -0.123086 -0.527229 -0.195697 -0.255340 -0.047070 0.410110 0.090591 0.079742 0.227959 0.346152 0.219822 0.185608 -0.093613 -0.183840 -0.237876 -0.348552 0.250370 0.420488 -0.034722 0.102478 -0.489241 0.114878 0.079844 -0.675087 0.351543 0.204777 -0.241583 -0.284735 0.036932 0.739172 -0.226216 -0.210661 0.423851 -0.214628 0.083360 0.012854 -0.046886 0.562471 -0.060413 0.225575
which 0.200572 -0.019651 0.188285 -0.213185 0.153294 -0.444791 -0.150881 0.755292 0.123960 0.470201 0.494806 0.074764 0.092139 -0.128510 0.282589 0.255415 -0.067227 0.455063 -0.241840 -0.013519 -0.018178 0.066819 0.248531 0.172155 0.169190 -0.099123 0.224122 0.140720 -0.287210 -0.448576 -0.051133 -0.631356 -0.170930 0.489655 0.266357 0.031736 0.363364 0.277017 0.421234 -0.088327 0.278080 -0.606934 0.033973 0.105304 -0.074849 0.009509 -0.019092 -0.170233 -0.086074 -0.524895 0.147844 0.236709 -0.182512 -0.080819 -0.099225 -0.257413 0.300086 0.363402 0.225976 -0.108484 -0.001423 -0.182857 0.162534 -0.156408 0.333735 0.030924 -0.084485 -0.171364 0.576299 0.263884 0.146101 0.263261 -0.144943 -0.076137 -0.334578 -0.114948 0.212339 0.093122 -0.084688 -0.109631 -0.224307 0.267573 0.195119 -0.579056 -0.159425 0.200861 -0.132130 -0.162890 0.069512 0.686158 -0.175179 -0.005783 -0.440772 0.079219 0.117318 0.231463 0.107995 0.578476 -0.085143 -0.073372
at 0.503621 -0.112548 0.345702 0.091690 0.422910 0.339865 0.036407 0.288679 0.336705 0.295555 0.117324 -0.070447 0.725272 -0.586235 0.523263 0.109426 0.115571 -0.000334 -0.529173 0.417399 0.116962 -0.076659 -0.052448 -0.062973 0.685362 -0.411025 -0.132316 0.790731 0.369699 -0.606546 0.455826 -0.588026 0.122931 0.145699 -0.033036 0.197230 0.151705 -0.211209 -0.104187 0.065511 0.172540 -0.269881 0.163490 0.369752 0.313973 -0.089636 -0.045424 -0.514669 -0.020796 -0.338535 -0.068508 0.337959 -0.263490 -0.103661 0.037317 -0.870391 0.023747 0.375907 -0.003757 0.020325 0.201277 -0.239336 0.198142 -0.059951 -0.123348 -0.637750 0.328701 0.209869 0.277473 -0.084176 0.030918 -0.006257 0.243036 -0.549386 -0.242472 -0.646525 0.378950 0.188814 -0.072071 -0.053142 -0.416363 -0.045846 -0.300857 -0.195509 -0.235560 0.479790 -0.688043 -0.223452 -0.375805 0.776136 -0.522389 0.284679 0.364063 -0.184207 -0.543123 -0.072846 -0.257470 0.365694 -0.368878 0.133640
had 0.282477 -1.064103 0.190421 -0.177468 0.020066 0.408826 -0.927959 0.512843 0.188226 1.061744 0.806618 0.335509 0.548442 0.007977 0.591561 -0.331393 -0.291339 0.143660 -0.639026 0.411153 0.078674 0.374625 -0.210585 -0.152433 0.179353 0.004373 0.161782 1.355464 0.275872 -0.593199 0.557924 -1.276265 0.190204 0.401271 0.570744 -0.254295 1.308480 0.269304 0.639516 0.322274 0.613185 0.340637 -0.038719 -0.381470 -0.506183 -0.119350 -0.609178 -0.448579 0.225156 -0.797553 0.731169 0.733294 0.154891 0.060942 -0.177916 -0.964326 0.512499 -0.013491 -0.141064 -0.684430 -0.271594 0.195401 0.216952 -0.199419 0.376754 -0.940083 0.311978 0.255350 0.923972 -0.015075 -0.043400 0.708990 -0.967328 -0.599304 -0.420623 -0.873813 -0.234815 0.364129 -0.390810 0.102577 -0.606007 -0.537253 -0.072924 -1.260053 -0.356697 -0.096300 -0.446735 -0.887685 -0.608552 0.705356 -0.142370 -0.383795 0.284039 0.488700 -0.289764 -0.054399 -0.406509 0.230231 0.532740 -0.052735
is 0.446860 -0.214623 0.217220 0.149252 0.067628 -0.348362 -0.387883 0.769877 0.489813 0.598093 0.233354 -0.307974 0.337895 -0.469045 0.597332 0.629312 -0.162469 0.099162 -0.021988 -0.467846 -0.429362 -0.739386 0.071192 -0.128464 -0.563095 -0.387594 -0.184403 0.644519 0.000430 0.442610 0.295109 -0.837983 -0.020058 0.210028 0.539750 -0.635282 -0.175410 -0.158575 0.170583 0.158938 -0.195751 0.347061 -0.526518 -0.275812 -0.164303 0.541151 -0.474212 -0.416519 -0.130435 -0.301625 0.226187 0.201085 -0.115871 0.191476 0.380613 0.035442 -0.342929 0.170094 -0.365042 -0.874207 -0.206233 -0.338323 0.257222 -0.234708 -0.414465 0.354284 -0.114191 0.283392 -0.363274 0.426433 0.359871 0.277824 -0.560215 -0.029157 -0.126455 -0.589779 0.706074 -0.098595 0.197238 0.472149 -0.374025 0.272240 -0.085156 -0.742840 0.690138 -0.068079 -0.201098 -0.485807 0.079469 0.500642 -0.649149 0.001864 0.479339 -0.099855 -0.325599 -0.031525 -0.019982 0.198172 -0.209293 -0.355659
for 0.477847 -0.160609 0.353203 0.016002 0.135451 -0.060093 -0.280325 0.540688 0.188579 0.420363 0.450311 -0.071375 0.342825 -0.217558 0.600612 0.244170 0.176951 0.171852 -0.146562 0.019139 -0.181692 -0.146817 0.134253 0.097561 0.110274 -0.288834 0.033296 0.595078 0.051596 -0.328862 0.436930 -0.722167 -0.114232 0.252784 0.380705 -0.086638 0.322880 -0.033468 0.221261 -0.001530 -0.101992 -0.009651 0.089488 -0.033019 0.063569 0.013847 -0.365049 -0.502044 0.036380 -0.430970 0.206832 0.035162 0.000602 0.075089 0.090849 -0.076311 -0.043986 0.336488 -0.030174 -0.225579 -0.056930 -0.338077 0.048474 -0.066862 -0.073356 -0.312510 0.144699 0.111324 0.228862 0.372659 0.102201 0.225885 -0.347403 0.014127 -0.216054 -0.568847 0.357364 0.084625 -0.130003 -0.004712 -0.356683 0.118923 -0.208750 -0.560023 0.061382 0.104858 -0.324789 -0.414394 -0.010924 0.689558 -0.244958 0.070185 0.214509 0.042345 0.117037 -0.222382 -0.067296 0.504410 -0.081582 -0.060544
not 0.900700 -0.554934 0.194314 -0.568694 -0.459301 -0.746564 -0.381805 1.123407 0.527687 0.809955 0.763354 -0.018995 0.069761 -0.121252 0.680707 0.517276 -0.336389 0.815881 0.078016 -0.690760 -0.674166 -0.457102 0.237091 0.136715 -0.613729 -0.487081 -0.294491 0.298937 -0.299961 -0.245471 0.289299 -1.281485 -0.654642 0.748733 0.793943 -0.617797 0.337883 0.605814 0.463610 0.143728 -0.279269 -0.055520 0.214134 -0.187499 -0.457041 0.214720 -0.093179 -0.476478 0.110370 -0.524841 0.747666 -0.081664 0.118496 0.571471 0.286847 -0.218382 -0.325465 0.490468 0.048111 -1.165806 -0.185745 -0.494951 0.099244 -0.408390 -0.478158 0.729385 -0.384666 -0.212509 -0.036519 0.696683 0.769476 -0.103506 -0.565631 0.040909 -0.211616 -0.381114 0.790068 0.152833 -0.235549 0.467335 -0.619550 0.066530 0.067128 -0.793522 0.667434 0.187352 -0.143662 -0.294741 0.622387 0.991731 -0.333771 0.204811 -0.216474 -0.080442 0.460288 0.208763 0.590425 1.134548 -0.223907 -0.109758
but 0.475465 -0.112777 0.178118 -0.063012 0.027125 -0.478247 -0.170045 0.706090 0.404011 0.505211 0.294200 -0.116481 0.310447 -0.331821 0.375249 0.357632 -0.088995 0.312633 -0.085551 -0.160195 -0.260987 -0.376255 0.162522 0.087845 -0.212097 -0.281778 -0.030309 0.363712 -0.170995 -0.049782 0.051348 -0.804762 -0.153639 0.319147 0.427620 -0.364609 0.101532 0.095485 0.211277 0.072409 0.016153 -0.048314 -0.119512 -0.078657 -0.109867 0.220116 -0.089501 -0.280134 -0.071520 -0.478454 0.323984 0.141448 -0.109991 0.052766 0.220100 -0.247612 0.036552 0.304082 -0.002271 -0.459940 -0.053205 -0.243927 0.284197 -0.127973 -0.154833 0.186384 -0.155486 0.041203 0.097864 0.340462 0.263495 0.104793 -0.269769 -0.153232 -0.226923 -0.382326 0.504425 0.126986 0.083429 0.183728 -0.293449 0.254322 0.015296 -0.551959 0.268373 0.159005 -0.169543 -0.168092 0.142233 0.649548 -0.405859 0.094144 0.021307 -0.071067 -0.181012 0.060622 0.163048 0.470085 -0.196016 -0.174536
this 0.087644 0.171439 -0.029320 -0.055522 0.135605 -0.571703 -0.175544 1.071345 0.021833 0.536656 0.317143 -0.110644 0.040406 -0.123990 0.240568 0.158088 -0.178687 0.470832 0.049584 -0.150851 -0.267100 -0.025706 0.479189 0.173132 -0.223433 -0.369752 0.026980 -0.167496 -0.382160 -0.061475 0.078809 -0.359252 -0.036252 0.461862 0.357317 -0.193686 -0.148506 0.167361 0.153515 -0.069555 0.056132 -0.265501 -0.138643 0.124435 -0.181577 0.307406 0.031976 -0.249137 -0.142984 -0.274950 -0.039975 0.222861 -0.048957 0.210900 -0.001068 -0.327877 0.015463 0.079056 0.351570 -0.433344 -0.011483 -0.266863 0.178950 -0.367768 0.207588 0.197284 -0.229523 0.033644 -0.079010 0.495415 0.273980 0.374069 -0.067062 0.078321 -0.458096 0.095826 0.528690 0.031964 0.101766 0.097136 -0.206147 0.193079 -0.009430 -0.447866 0.433333 0.290353 0.041711 -0.265431 0.173152 0.381550 -0.354891 0.083120 -0.055354 0.005437 -0.109266 0.311042 0.034965 0.394032 -0.449879 -0.011402
his 0.075680 0.090212 0.073296 0.105024 0.385700 -0.286359 0.147437 0.853702 0.115223 0.371244 0.099261 -0.046596 0.202820 -0.498987 0.133966 -0.058724 -0.068737 0.320597 -0.383582 0.148489 0.250706 0.243789 0.360725 0.047293 0.400077 -0.131466 0.126140 0.026308 -0.237729 -0.633053 -0.122818 -0.524076 -0.001829 0.359336 0.033828 -0.004479 0.051633 0.146896 0.337735 0.110180 0.528427 -0.621702 -0.004469 0.350097 -0.004333 -0.139926 -0.085481 -0.025726 -0.166304 -0.350834 -0.138895 0.298453 -0.374391 -0.060296 -0.055135 -0.826330 0.490430 0.178796 0.250081 0.008396 0.114095 -0.124567 0.130664 -0.065964 0.283378 -0.106379 -0.093655 -0.112164 0.369372 -0.005428 0.074103 0.473918 0.208884 -0.317091 -0.563113 0.011124 0.071683 0.263274 0.104657 -0.138002 -0.204913 0.334976 0.066318 -0.386229 -0.179626 0.182775 -0.339772 0.042620 -0.239906 0.516072 -0.262416 0.070967 -0.182283 0.002318 -0.381489 0.353277 0.005088 0.402098 -0.225307 -0.058048
from 0.167995 0.348354 0.395872 0.452352 0.799518 0.085009 0.257566 0.472668 -0.036787 0.039096 -0.055374 -0.339432 0.330645 -0.759457 0.293853 0.213242 0.127629 -0.165216 -0.176829 0.557542 0.144401 -0.009848 0.145666 -0.056254 0.525803 -0.329503 0.135884 0.384132 0.136074 -0.341034 0.309742 -0.315161 0.231462 -0.073121 -0.342070 0.153597 -0.133232 -0.302286 -0.016071 0.007854 0.332015 -0.362327 -0.280484 0.335979 0.405425 -0.056223 -0.615498 -0.266642 -0.095564 -0.264654 -0.423369 0.199036 -0.411163 -0.345914 0.103703 -0.324923 0.202331 0.320995 0.009203 0.437194 0.020920 -0.366769 -0.023080 0.278324 0.110810 -0.426254 0.182376 0.342596 0.371071 0.101131 -0.303520 0.246900 0.071530 -0.303924 -0.458808 -0.384941 0.132083 0.171445 0.216606 -0.226027 -0.124093 0.347352 -0.223951 -0.358344 -0.076107 0.078866 -0.408890 -0.306822 -0.255935 0.482491 -0.383780 -0.155281 0.333486 -0.075335 -0.372664 -0.187184 -0.330940 -0.002191 -0.213228 -0.099257
he 0.636436 -0.414164 0.027151 -0.329733 -0.244293 -0.292914 -0.049950 0.878661 0.698706 0.736562 0.642526 0.037302 0.019826 -0.367046 0.649627 0.245629 -0.204773 0.659537 -0.251279 -0.433815 -0.126543 -0.018966 0.187755 0.147491 0.197090 -0.202470 -0.141507 0.465413 -0.125093 -0.641946 -0.014765 -1.120448 -0.591012 0.805014 0.560711 -0.265623 0.316977 0.447215 0.540512 0.162222 0.147796 -0.299434 0.419271 0.089082 -0.311350 -0.070254 -0.084337 -0.316777 -0.005159 -0.414705 0.390668 -0.079859 -0.151395 0.335660 0.036854 -0.577685 0.157930 0.463882 0.040302 -0.723910 0.024856 -0.287850 -0.022263 -0.291107 -0.253976 0.397455 -0.204147 -0.196535 0.206917 0.286164 0.532807 0.092638 -0.123453 -0.269363 -0.271840 -0.306852 0.503035 0.268351 -0.276181 0.254128 -0.309192 0.138348 0.007303 -0.669776 0.012069 0.243748 -0.451606 0.000693 0.213307 0.882409 -0.198506 0.270595 -0.256653 0.049740 0.185297 0.341599 0.399898 1.106296 -0.199505 -0.196555
upon 0.467278 0.030959 0.315223 0.442235 0.753682 0.173788 0.264665 0.393536 0.201038 0.076591 -0.022275 -0.285310 0.465963 -0.937478 0.433918 -0.009327 0.138257 -0.177562 -0.296982 0.538054 0.199894 0.013532 0.101973 -0.008405 0.671104 -0.319773 -0.038570 0.700780 0.271268 -0.522550 0.327030 -0.616658 0.152110 0.010537 -0.301105 0.058854 0.019320 -0.200927 0.060029 0.140620 0.453824 -0.156069 -0.011506 0.348006 0.413703 -0.313024 -0.699472 -0.286876 -0.032986 -0.234565 -0.292682 0.193510 -0.384083 -0.248078 0.145544 -0.652846 0.336203 0.387399 -0.051507 0.327018 0.141890 -0.321835 -0.055434 0.199337 -0.180696 -0.550274 0.155355 0.272301 0.368528 -0.111146 -0.326794 0.122766 0.026464 -0.498405 -0.367968 -0.559821 0.135768 0.325623 0.216633 -0.122760 -0.231699 0.292095 -0.281648 -0.438489 -0.092034 0.126468 -0.597515 -0.173179 -0.337987 0.522514 -0.408197 -0.089871 0.492994 -0.138497 -0.469233 -0.201868 -0.293628 0.109606 -0.078553 -0.208468
by 0.245037 0.210249 0.411680 0.193849 0.378313 -0.061729 -0.099814 0.563943 0.138948 0.397311 0.271798 -0.230196 0.281245 -0.328195 0.343854 0.327554 0.047106 -0.046168 0.023971 0.411593 -0.046100 -0.248157 0.062315 -0.024133 0.216728 -0.304770 0.207464 0.444798 0.052222 -0.131875 0.357877 -0.531941 0.231147 0.006088 0.136945 -0.011705 0.114972 -0.174194 0.125865 -0.005516 0.011716 -0.006097 -0.361898 0.125120 0.121746 0.166417 -0.505031 -0.316145 -0.108069 -0.327223 -0.080751 0.194099 -0.336509 -0.299888 0.120621 -0.114972 0.056652 0.165137 0.052599 0.019338 -0.155906 -0.328623 0.167838 0.138238 0.149201 -0.305118 0.148815 0.274379 0.260033 0.323501 -0.109458 0.319359 -0.263957 -0.079444 -0.387360 -0.538202 0.208502 0.020359 -0.052769 -0.088130 -0.168252 0.305731 -0.085100 -0.412414 -0.052681 0.052840 -0.304076 -0.396424 -0.099588 0.592696 -0.343190 -0.071554 0.191306 -0.017404 -0.168691 -0.139057 -0.214015 0.176785 -0.179612 -0.116185
or -0.055293 0.540708 0.378725 0.165878 0.284790 -0.452787 -0.242345 0.873064 -0.324461 0.383925 0.198099 -0.417728 0.215375 0.019240 0.262776 0.503193 0.137703 0.072546 0.196792 0.173182 -0.380812 -0.198893 0.310525 -0.044280 -0.228395 -0.434726 0.254019 -0.222267 -0.394237 0.242668 0.336384 -0.062676 0.247717 -0.151858 0.211750 0.057271 -0.269329 -0.305403 -0.098847 -0.295571 -0.436929 -0.207953 -0.518354 0.148068 -0.013566 0.556896 -0.180432 -0.377604 -0.112942 -0.315851 -0.261742 0.068420 -0.067651 -0.171240 0.190692 0.287205 -0.213111 0.136634 0.284583 0.105811 -0.143784 -0.437843 0.200181 0.009550 0.531579 -0.272149 0.141285 0.304467 0.051748 0.736939 -0.071851 0.546537 -0.351700 0.525498 -0.558950 -0.201603 0.395064 -0.232277 0.052622 -0.255744 -0.181456 0.316235 -0.168074 -0.234246 0.284663 0.027235 -0.028795 -0.591870 0.192988 0.529431 -0.314983 0.030137 0.146306 -0.066814 0.006823 -0.236760 -0.251594 0.250634 -0.396765 0.081159
have 0.596565 -1.222037 0.254182 -0.604571 -0.662182 0.067714 -0.962032 1.031861 0.330291 1.534619 1.237631 0.182675 0.100713 0.401854 0.851518 -0.037131 -0.734768 0.795817 -0.371317 -0.329298 -0.636449 0.195955 -0.328312 -0.069239 -0.602171 -0.307363 -0.161093 0.934307 -0.201858 -0.457607 0.516033 -1.561624 -0.408689 0.758358 0.922950 -0.652927 1.137602 0.819923 0.645252 0.134700 0.158578 0.095384 -0.085734 -0.608375 -1.060739 0.269099 -0.418072 -0.834291 0.354728 -1.029538 1.124939 0.383473 0.689450 0.426723 -0.186975 -0.639196 0.000653 0.330412 -0.091552 -1.345917 -0.519737 -0.014261 -0.027003 -0.433981 0.250451 -0.126866 -0.122594 0.210505 0.618462 0.729711 0.547332 0.433836 -1.171846 -0.184794 -0.390910 -0.796152 0.298322 0.329595 -0.629566 0.464221 -0.802673 -0.754929 0.144420 -1.492135 0.272176 0.010250 -0.161777 -1.081486 0.129159 1.228339 -0.225215 -0.276094 -0.000096 0.447725 0.371170 0.003871 0.073768 0.919392 0.504647 0.128156
me 0.436223 -0.386211 0.097958 -0.262152 -0.130613 -0.418950 -0.192077 0.856191 0.288184 0.662759 0.448213 0.038778 0.153636 -0.241797 0.444834 0.147755 -0.174932 0.546556 -0.361063 -0.388744 -0.241048 0.084679 0.231441 0.010172 -0.159677 -0.229061 -0.112412 0.228482 -0.255238 -0.478052 0.006672 -0.847916 -0.391442 0.575347 0.438157 -0.267784 0.277363 0.354780 0.396981 0.105776 0.176213 -0.457399 0.219397 -0.029953 -0.302785 0.060137 0.051473 -0.349106 -0.029957 -0.511632 0.393047 0.127215 0.022975 0.290624 0.081062 -0.530592 0.093781 0.395715 0.108515 -0.522019 -0.045285 -0.250153 0.123837 -0.291995 0.061529 0.171324 -0.162917 -0.179784 0.322007 0.327607 0.359865 0.158811 -0.213529 -0.119482 -0.353524 -0.172249 0.330000 0.227558 -0.097874 0.113636 -0.440422 0.019029 0.106516 -0.642471 0.145332 0.168899 -0.235603 -0.220819 0.101108 0.784096 -0.200313 0.119202 -0.219797 -0.021436 0.075039 0.204956 0.214086 0.785692 -0.130483 -0.032350
be 0.565134 -0.551755 0.417193 -0.629364 -0.754249 -0.625322 -0.449314 1.371593 0.549566 1.183329 0.700802 -0.169846 -0.096668 0.250187 0.655110 0.523645 -0.874249 1.122229 -0.095966 -0.918161 -0.844347 -0.400437 -0.106624 -0.178300 -1.116724 -0.376868 -0.352783 0.053638 -0.809621 0.067080 0.002996 -1.242037 -0.824149 0.684893 0.814813 -0.653346 0.077992 0.749842 0.213564 0.079279 -0.213849 -0.486188 -0.276230 -0.383470 -0.931279 0.651316 0.187048 -0.646085 0.105675 -0.858744 0.981385 -0.067679 0.453742 0.611189 0.216568 0.004077 -0.350847 0.671723 -0.081423 -1.341592 -0.342373 -0.181914 0.103232 -0.467432 -0.027837 0.714520 -0.528795 -0.103452 -0.036424 1.001941 0.977389 0.024087 -0.681847 0.154323 -0.265163 -0.188056 0.738876 0.118681 -0.476124 0.630168 -0.686639 -0.211355 0.279653 -0.984635 0.841558 0.017366 -0.120940 -0.657112 0.700292 1.313497 -0.578158 0.189915 -0.452266 -0.078293 0.558756 0.227834 0.567950 1.174254 -0.092953 -0.130840
all 0.254300 0.164446 0.109639 -0.059857 0.301098 -0.533469 0.065211 0.798249 0.071858 0.400257 0.295508 -0.096959 0.042892 -0.352831 0.147532 0.171198 -0.164775 0.380088 -0.067588 0.015227 -0.066394 -0.060819 0.413700 0.231506 0.028472 -0.362492 0.023240 0.001442 -0.296679 -0.210373 -0.041594 -0.469996 -0.124190 0.376618 0.224674 -0.030572 -0.087979 0.056090 0.211863 -0.064072 0.332695 -0.293158 -0.017921 0.101726 0.016922 0.080812 0.014804 -0.212333 -0.162281 -0.285371 -0.035986 0.224652 -0.093357 -0.047961 -0.006960 -0.275233 0.251131 0.178618 0.265094 -0.143057 0.096827 -0.245670 0.170112 -0.179270 0.106887 0.042746 -0.068759 0.077237 0.179222 0.345155 0.141675 0.202958 0.064001 -0.129017 -0.400503 0.012210 0.488223 0.144227 0.217048 0.088861 -0.131317 0.197736 0.016691 -0.491613 0.190355 0.233168 -0.080058 -0.156095 0.099776 0.390086 -0.264836 -0.037346 -0.094815 -0.029970 -0.189321 0.186186 0.046937 0.445033 -0.241701 -0.057000
no 0.517741 -0.138866 0.450429 -0.409055 -0.377317 -0.981272 -0.489209 0.757683 0.330270 0.812781 0.696009 0.152450 0.339759 0.244927 0.261252 0.625131 0.006368 0.593022 -0.014329 -0.323184 -0.458150 -0.687670 0.135719 0.001949 -0.680679 -0.225375 0.165595 0.170344 -0.614115 0.138496 -0.236131 -1.017177 -0.235135 0.446757 0.865463 -0.294502 0.338931 0.107578 0.560588 -0.109372 -0.315876 -0.104520 -0.126351 -0.343478 -0.298722 0.385267 0.327204 -0.194191 -0.186921 -0.893902 0.693361 0.191696 -0.129605 -0.119366 0.361850 0.291228 0.055335 0.369405 0.180508 -0.443107 -0.153112 -0.254298 0.668197 -0.185690 0.158247 0.152047 -0.186044 -0.091116 0.289226 0.661441 0.596643 0.183616 -0.636263 0.319956 -0.297640 -0.270171 0.618014 -0.197871 0.018599 0.102184 -0.259197 0.382857 0.153465 -0.639535 0.201234 0.081952 -0.002778 -0.336271 0.465501 0.950883 -0.159813 0.146897 -0.568425 0.006994 0.119166 -0.052855 0.275823 0.751206 -0.101953 -0.236669
its -0.147418 0.514352 0.274901 0.258084 0.630692 -0.478817 0.077136 0.747052 -0.193463 0.292184 0.013158 -0.115049 0.238247 -0.424388 -0.025387 0.179404 0.006082 0.204906 -0.158419 0.351396 0.115337 0.138957 0.334387 -0.012087 0.220484 -0.208633 0.273069 -0.299720 -0.434074 -0.248777 -0.158107 -0.174963 0.195496 0.141008 -0.081138 0.149885 -0.202106 -0.082183 0.106692 -0.067016 0.357862 -0.720309 -0.303036 0.358678 0.060392 0.184515 0.068693 -0.012061 -0.214148 -0.415243 -0.287681 0.303138 -0.376869 -0.269814 0.142301 -0.332887 0.323985 0.223521 0.328178 0.309224 0.012850 -0.233448 0.235449 0.074201 0.469879 -0.174413 -0.041226 0.068345 0.339867 0.283478 -0.066737 0.438422 0.208298 -0.090590 -0.634798 0.128730 0.201070 0.028802 0.239115 -0.320098 -0.137459 0.362986 0.036673 -0.252247 -0.155405 0.153970 -0.098754 -0.210311 -0.123873 0.447060 -0.298958 -0.009146 -0.212987 -0.015217 -0.438587 0.175744 -0.111670 0.192616 -0.365996 0.045095
we 0.592399 -0.027328 0.317131 -0.454354 -0.096660 -0.540719 0.002129 0.721303 0.334738 0.699576 0.843691 0.162625 -0.090295 -0.053243 0.380386 0.419271 -0.058704 0.669349 -0.148392 -0.408092 -0.392247 -0.038998 0.192085 0.221090 -0.036943 -0.334632 -0.136189 0.000603 -0.232388 -0.574840 0.167555 -0.923360 -0.588364 0.705440 0.541852 -0.129452 0.450238 0.437309 0.377497 0.038298 -0.107963 -0.715964 0.455980 -0.198498 -0.251825 0.209753 0.114796 -0.424886 -0.047543 -0.468250 0.580349 0.001902 0.106660 0.069700 0.067250 -0.160059 -0.236581 0.518447 0.154540 -0.557970 -0.272417 -0.435931 0.064909 -0.273412 -0.053715 0.468094 -0.042645 -0.142229 0.251210 0.672929 0.598890 -0.075288 -0.131127 -0.026886 -0.288563 -0.306017 0.622857 0.167224 -0.119140 -0.016667 -0.458565 0.075897 0.123359 -0.497672 -0.014007 0.293073 0.026494 -0.414443 0.474203 1.002663 -0.189529 0.254569 -0.409406 -0.050140 0.520512 0.245554 0.517132 1.027967 -0.159296 0.240275
an -0.076298 0.322967 0.146503 0.184338 0.345932 -0.513229 0.005925 0.877499 -0.102863 0.431728 0.131935 -0.071727 0.242797 -0.342148 0.018923 0.144317 0.005203 0.286097 -0.224300 0.151584 0.021207 0.093110 0.432128 0.057684 0.135204 -0.238626 0.181485 -0.181834 -0.458676 -0.282361 -0.171285 -0.302350 0.096598 0.279448 0.164993 0.023147 -0.071165 -0.038983 0.249097 -0.081110 0.296495 -0.573030 -0.159018 0.284806 0.003290 0.129671 0.154406 -0.079798 -0.254184 -0.396097 -0.157090 0.346206 -0.314870 -0.114483 0.072638 -0.414659 0.317668 0.143606 0.309601 0.045925 0.027827 -0.247817 0.336005 -0.074638 0.457627 -0.131005 -0.045676 -0.037828 0.257035 0.289578 0.088568 0.490621 0.087740 -0.021949 -0.586187 0.163057 0.262863 0.050273 0.215236 -0.165461 -0.134646 0.362393 0.012522 -0.326426 -0.055506 0.220337 -0.121937 -0.153522 -0.130914 0.504287 -0.258753 0.043373 -0.191615 -0.002972 -0.357129 0.202624 -0.075073 0.302864 -0.357710 -0.003050
so 0.324437 -0.112131 0.154584 -0.137517 -0.074809 -0.268683 -0.120145 0.749810 0.355774 0.584498 0.378523 -0.039226 0.232466 -0.353370 0.456333 0.302665 -0.168572 0.398871 -0.141910 -0.157743 -0.092953 -0.041107 0.040430 0.021106 0.083315 -0.126649 -0.014987 0.312380 -0.059718 -0.288525 0.116576 -0.658316 -0.369956 0.330654 0.429463 -0.249440 0.200270 0.108084 0.426747 0.102462 0.090281 -0.343092 0.065843 0.054363 -0.117341 0.122541 -0.130047 -0.251713 -0.026080 -0.337132 0.239782 0.083042 -0.060687 0.076545 0.118962 -0.435769 0.099121 0.289462 0.075662 -0.487945 -0.079726 -0.289696 0.153409 -0.148578 0.038421 0.216461 0.087682 0.047117 0.318035 0.299411 0.273168 0.194456 -0.185552 -0.175563 -0.212379 -0.296376 0.311963 0.196202 -0.123349 0.103639 -0.343270 0.126815 0.033286 -0.566467 0.043142 0.125581 -0.269496 -0.215796 0.009141 0.724433 -0.204012 -0.024089 -0.028110 0.012789 -0.073349 0.114670 0.050008 0.633848 -0.100405 0.054810
were 0.152670 0.105518 0.378327 0.306316 0.515942 -0.176403 0.165472 0.493085 0.021778 0.408625 0.220998 -0.169533 0.380538 -0.579417 0.125628 0.200726 0.132890 -0.021697 -0.333572 0.351177 -0.074418 -0.212848 0.003492 -0.043435 -0.002231 -0.325275 0.006568 0.389806 -0.056719 -0.211435 0.172797 -0.514657 0.238192 -0.006324 -0.021163 -0.214137 -0.019614 -0.345833 0.114293 0.165483 0.360687 -0.336804 -0.422598 -0.166319 0.162061 0.166564 -0.329997 -0.304855 -0.307927 -0.482882 -0.012930 0.482321 -0.019214 -0.358720 0.151686 -0.304327 0.291648 0.126863 -0.093003 0.097142 -0.180368 -0.251881 0.127144 0.176583 0.110321 -0.316396 0.088216 0.484296 0.293948 0.094873 -0.102569 0.367695 -0.058935 -0.381680 -0.413136 -0.325249 0.144544 0.284786 0.601119 -0.044899 -0.155276 0.396131 -0.118351 -0.551549 0.229750 0.133646 -0.088628 -0.529014 -0.184279 0.366079 -0.380410 -0.318241 0.424420 -0.080087 -0.677912 -0.330034 -0.229725 -0.279590 -0.021758 -0.024890
been 0.643813 -0.271669 0.331003 -0.835071 -0.368091 -0.729479 -0.335841 0.712544 0.388900 0.458193 1.344961 0.593260 -0.034629 0.334865 0.630463 0.710612 0.495632 0.993918 -0.769615 -0.793303 0.020867 0.317100 0.452343 0.493538 0.564924 0.118578 0.295390 0.535926 -0.293988 -1.240733 -0.014478 -1.108597 -1.013154 1.161831 0.900474 0.334665 1.274972 0.404940 1.072737 -0.412711 -0.005091 -1.501160 0.944788 -0.365782 0.060054 -0.127815 0.289902 -0.629244 -0.163752 -0.887926 0.661395 -0.095013 -0.005953 -0.009248 -0.413330 0.210610 0.336743 0.973688 0.235058 -0.074666 0.198044 -0.340020 0.064241 -0.551136 0.554548 0.088316 0.436644 -0.638953 1.277673 0.451873 0.568721 0.211645 -0.224091 0.347662 -0.185436 -0.326675 0.463169 0.012536 -0.361871 -0.453864 -0.410364 0.410029 0.321809 -0.909650 -0.694277 0.307802 -0.288489 -0.219190 0.372734 1.351989 0.387193 0.309214 -1.005341 0.189992 1.127169 0.138812 0.449960 1.803230 0.231457 -0.074837
there 0.339639 0.616855 0.499340 -0.033432 0.326259 -0.746961 0.155003 0.703227 0.368711 0.605311 0.330338 -0.233878 0.263363 -0.334401 0.043405 0.414209 -0.134416 0.257775 0.305958 0.320834 -0.247451 -0.605163 0.142635 0.093457 -0.090375 -0.317586 0.131089 -0.179841 -0.346613 0.061939 -0.043750 -0.679722 0.020504 0.132018 0.374297 -0.060515 -0.333445 -0.017224 0.136326 0.102064 -0.065031 -0.250802 -0.155639 0.260021 0.060438 0.344889 0.215093 -0.027582 -0.314132 -0.419432 0.164962 0.225015 -0.475054 -0.342753 0.470229 -0.020485 -0.045984 0.104568 0.284681 -0.068272 -0.185591 -0.357753 0.464528 0.109176 -0.056904 0.298290 -0.258501 0.048087 -0.054748 0.552462 0.251031 -0.031017 0.157277 -0.054263 -0.310372 -0.264281 0.570558 0.049197 0.114153 -0.074379 -0.057465 0.500788 0.028984 -0.106907 -0.044286 0.327587 0.059429 -0.114993 0.299335 0.770045 -0.498010 0.167834 -0.382379 -0.224403 -0.286498 0.173380 0.256131 0.266034 -0.602863 -0.047642
more 0.516940 0.395423 0.577699 0.390894 -0.201984 -1.189924 -0.664053 0.337290 0.216868 0.407413 0.327590 -0.160948 0.891305 -0.037754 0.126134 0.515944 0.435488 -0.098525 0.249904 -0.056595 -0.699173 -1.051860 0.180310 -0.233426 -0.890181 -0.640397 0.397431 -0.117128 -0.716757 0.865383 -0.425606 -0.931000 0.301631 -0.264090 1.173126 -0.567309 0.263578 -0.444051 0.369166 -0.220297 -0.818381 0.461085 -0.738732 -0.388724 -0.072457 0.786620 0.578008 -0.337623 -0.337615 -1.006349 0.765388 0.214780 -0.311134 -0.372794 1.120656 0.237824 0.256904 0.164757 -0.093837 -0.347035 -0.262320 -0.050876 1.066409 -0.005007 0.144487 -0.367381 -0.106661 0.053873 -0.014416 0.923146 0.312193 0.210887 -0.932600 0.740835 -0.306059 -0.676251 0.767604 -0.492429 0.090417 -0.097814 -0.397186 0.521111 0.026891 -0.066356 0.039232 0.131867 0.060904 -0.413489 0.345340 1.040651 -0.584184 0.286828 -0.183329 -0.052839 -0.456061 -0.412308 -0.038205 0.452261 -0.487434 -0.111124
you 0.917441 -0.400248 -0.077001 -0.768046 -0.503499 -0.791100 -0.191593 1.753090 0.340531 1.136991 1.176743 -0.270830 -0.540535 0.180342 0.813921 0.295036 -0.445014 1.146144 0.281446 -1.297569 -1.269178 -0.056208 0.475210 0.392310 -0.945715 -0.858360 -0.682511 -0.103647 -0.222690 -0.324798 0.928729 -1.162649 -0.787980 1.088674 0.896888 -0.766855 -0.018869 1.009418 0.182383 0.072459 -0.745092 -0.301119 0.419686 -0.496178 -0.802070 0.496539 -0.384453 -0.973780 0.148144 -0.248576 0.619260 -0.068921 0.792420 0.944419 -0.071745 -0.436079 -0.962862 0.344225 0.319893 -1.581371 -0.570508 -0.841499 -0.408679 -0.875557 -0.371939 1.265211 -0.534670 -0.098831 -0.375379 1.298289 0.894064 -0.052895 -0.526697 0.400462 -0.409372 -0.369799 1.169883 0.281444 -0.159044 0.364963 -0.821563 -0.263964 0.066383 -0.944191 1.343511 0.444340 0.387718 -0.742135 0.919248 1.105695 -0.398176 0.200348 0.184393 -0.192626 1.043325 0.422908 0.621025 1.284029 -0.479103 0.279477
one -0.091025 0.525771 0.337942 0.345990 0.531039 -0.401062 -0.007128 0.616978 -0.051740 0.259458 0.096409 -0.223204 0.350228 -0.344048 0.086050 0.469422 0.056810 -0.022855 -0.021542 0.475110 0.056678 -0.247009 0.284760 -0.048175 0.173453 -0.294732 0.414507 0.071050 -0.382704 0.021113 -0.073964 -0.246210 0.360582 -0.075218 0.027262 0.008473 -0.041832 -0.391956 0.134771 -0.231901 0.164297 -0.259770 -0.610250 0.128052 0.224773 0.333439 -0.159131 -0.223081 -0.282243 -0.477160 -0.243906 0.366531 -0.456813 -0.479758 0.145715 -0.011222 0.418482 0.199778 0.105441 0.266304 -0.023300 -0.176702 0.439818 0.156774 0.414284 -0.319150 0.087316 0.253189 0.333383 0.332532 -0.143321 0.444350 -0.102332 -0.073543 -0.514827 -0.127012 0.217304 -0.091445 0.270681 -0.203595 0.039160 0.546098 0.019560 -0.319838 -0.052490 0.048450 -0.193695 -0.305318 -0.068755 0.433687 -0.422717 -0.113131 -0.065970 0.016177 -0.483037 -0.100762 -0.263779 -0.004550 -0.281134 -0.182136
into 0.262245 0.392343 0.423436 0.568007 0.868990 0.087523 0.186629 0.316285 -0.035307 0.011189 -0.051728 -0.354961 0.490773 -0.850779 0.316526 0.194799 0.261146 -0.273697 -0.198456 0.591970 0.167845 -0.058806 0.140686 0.002933 0.668075 -0.342927 0.139628 0.440532 0.128985 -0.315579 0.218107 -0.298476 0.244090 -0.124397 -0.286342 0.198375 -0.142498 -0.459879 0.012064 -0.058925 0.282507 -0.290774 -0.177003 0.385094 0.483169 -0.052180 -0.480973 -0.280078 -0.094421 -0.296200 -0.470076 0.167977 -0.424759 -0.433664 0.236131 -0.329496 0.257279 0.391541 0.021332 0.567446 0.116739 -0.375112 0.056598 0.333203 0.085910 -0.619957 0.250160 0.389403 0.441570 0.085113 -0.344934 0.216649 0.091350 -0.265230 -0.464788 -0.438958 0.231124 0.132841 0.303298 -0.301683 -0.120492 0.383185 -0.286389 -0.314575 -0.218783 0.110687 -0.473523 -0.297769 -0.332449 0.526036 -0.325911 -0.049208 0.352763 -0.075437 -0.484306 -0.295898 -0.386987 0.077606 -0.232194 -0.097409
him 0.474657 -0.518202 -0.047334 -0.286409 -0.095776 -0.422876 -0.139437 0.871535 0.310655 0.600340 0.408447 0.083384 0.211215 -0.295466 0.423543 -0.039622 -0.197344 0.562026 -0.390202 -0.369145 -0.162208 0.162995 0.313427 0.088383 -0.096839 -0.173464 -0.204947 0.281223 -0.200400 -0.606458 -0.027291 -0.903503 -0.407395 0.650591 0.390578 -0.270064 0.322966 0.388891 0.440420 0.206178 0.344317 -0.414552 0.382595 0.010269 -0.273656 -0.158104 0.051412 -0.290819 -0.006030 -0.457778 0.325939 0.185959 0.062945 0.370692 0.028400 -0.808966 0.272712 0.325424 0.139718 -0.515046 0.059134 -0.137154 0.100985 -0.328934 0.008360 0.088958 -0.226190 -0.267891 0.390609 0.181254 0.362799 0.175592 -0.171474 -0.252825 -0.352910 -0.119993 0.254487 0.368202 -0.065567 0.102330 -0.456356 -0.017043 0.058526 -0.704707 0.157545 0.236326 -0.233892 -0.104130 0.054848 0.698911 -0.157386 0.072064 -0.225846 -0.014239 -0.026321 0.269039 0.237814 0.733355 -0.075098 -0.068356
than 0.517302 0.083364 0.752085 -0.023559 -0.236342 -1.070629 -0.740005 0.418205 -0.020364 0.569025 0.123489 -0.297706 0.871099 0.122996 0.094458 0.867285 0.229106 0.065745 0.141212 0.061583 -0.568236 -1.230044 0.013789 -0.150368 -0.917984 -0.307669 0.234579 0.017897 -0.773305 0.715370 -0.301926 -0.738741 0.138101 -0.490197 0.882027 -0.351423 -0.000791 -0.539228 0.311962 -0.350267 -0.808497 0.440133 -0.467706 -0.156598 -0.085276 0.542150 0.315349 -0.107672 -0.124104 -0.929599 0.334195 0.058890 -0.230345 -0.573419 0.942893 0.597921 -0.167678 0.396844 0.084794 0.099209 -0.039196 -0.443501 1.067143 0.351507 0.292131 -0.428657 0.106661 0.176676 0.391968 0.768021 0.174755 0.172079 -1.193381 0.771838 -0.476317 -0.619486 0.582900 -0.473059 0.218070 -0.127812 -0.296475 0.382414 -0.111112 -0.395166 0.046697 -0.266550 -0.122432 -0.332268 0.341237 1.054394 -0.169719 0.230913 -0.269594 -0.131394 -0.170819 -0.651923 -0.033512 0.699018 -0.087294 -0.237853
are 0.229541 0.164246 0.264501 0.110396 0.221315 -0.226669 0.149686 0.805039 0.020063 0.632418 0.442852 -0.331709 0.013147 -0.350477 0.295663 0.321892 0.062682 0.185107 -0.003721 -0.110956 -0.525380 -0.298451 0.048948 0.077778 -0.410264 -0.565218 -0.151865 0.249655 0.002126 0.027788 0.509897 -0.480883 0.183305 0.174603 0.104374 -0.477633 -0.162420 -0.067378 0.050012 0.057689 -0.138147 -0.198498 -0.508172 -0.384602 -0.124970 0.475414 -0.558371 -0.547503 -0.208110 -0.336955 0.058480 0.353433 0.247528 -0.102202 -0.014792 -0.147436 -0.188078 0.088825 -0.048849 -0.367336 -0.487987 -0.508042 -0.103135 -0.058763 -0.001411 0.304759 -0.084900 0.525611 -0.099194 0.513646 0.126129 0.335855 -0.303318 -0.041410 -0.286790 -0.361671 0.370425 0.158597 0.494104 0.110609 -0.181403 0.313966 -0.048239 -0.630737 0.813542 0.165268 0.212833 -0.682551 0.158702 0.421849 -0.383379 -0.355736 0.568871 -0.099693 -0.250951 -0.264196 -0.098401 -0.216083 -0.088979 0.137513
on 0.296622 0.208750 0.294091 0.303971 0.704742 0.070773 0.103059 0.565644 0.054590 0.096741 0.113936 -0.317434 0.313795 -0.630713 0.400936 0.122945 0.119729 -0.111081 -0.110303 0.450667 0.032502 -0.051949 0.243201 0.084884 0.430353 -0.395547 0.073027 0.445681 0.208617 -0.270576 0.492655 -0.384380 0.261426 0.018967 -0.172345 0.085955 -0.084116 -0.190803 -0.044896 0.042735 0.205083 -0.053491 -0.233431 0.278958 0.294644 -0.046417 -0.648181 -0.347748 -0.036226 -0.140350 -0.399861 0.172388 -0.268068 -0.161489 0.010712 -0.373173 0.132876 0.194369 0.058143 0.181238 0.033721 -0.324585 -0.091616 0.125233 -0.020462 -0.407122 0.163584 0.351174 0.228570 0.142964 -0.242225 0.263702 -0.039379 -0.193658 -0.396838 -0.421918 0.228944 0.159181 0.114491 -0.125092 -0.205515 0.275975 -0.269315 -0.367774 0.087883 0.124992 -0.353874 -0.276835 -0.167296 0.385161 -0.416206 -0.086988 0.472685 -0.067780 -0.305867 -0.105130 -0.322195 0.084979 -0.216126 -0.138759
very 0.222700 0.063239 0.181191 0.127237 0.235952 -0.226710 -0.166050 0.610305 0.191104 0.357124 0.232122 -0.136388 0.333610 -0.417263 0.282600 0.320304 0.031385 0.162998 -0.101109 0.087979 0.010768 -0.164070 0.196512 0.074948 0.161821 -0.164320 0.141195 0.332460 -0.073376 -0.215538 0.086057 -0.547457 -0.034917 0.168441 0.291826 -0.163584 0.104559 -0.118533 0.257733 -0.041911 0.095698 -0.116700 -0.071588 0.028679 0.068771 0.137556 -0.224457 -0.270043 -0.088659 -0.404321 0.055791 0.129338 -0.229466 -0.134670 0.159752 -0.300968 0.121177 0.253406 0.050152 -0.174272 -0.058958 -0.303880 0.240894 -0.018557 0.095709 -0.072829 0.079545 0.120094 0.274329 0.246184 0.002163 0.307405 -0.198927 -0.121945 -0.316416 -0.315044 0.300308 0.107529 0.069081 -0.105312 -0.183742 0.293831 -0.090794 -0.513660 -0.027100 0.098059 -0.241517 -0.235892 -0.125906 0.539821 -0.282665 0.017843 0.101312 0.035455 -0.220225 0.032603 -0.079956 0.369010 -0.171568 -0.045961
now 0.618710 -0.329478 0.017776 -0.227185 0.087162 -0.422448 0.001267 0.779940 0.451513 0.591464 0.465571 -0.048526 0.106839 -0.391155 0.447733 0.099833 -0.209799 0.447684 -0.109396 -0.281246 -0.251749 -0.160542 0.212056 0.190365 -0.109448 -0.331196 -0.264389 0.395170 -0.009091 -0.423847 0.209115 -0.957277 -0.256779 0.601347 0.364025 -0.397707 0.114005 0.373696 0.309641 0.241468 0.157908 -0.065573 0.264935 -0.079263 -0.215793 -0.024559 -0.227464 -0.323886 -0.028370 -0.306972 0.277098 0.228509 -0.014270 0.250333 0.095724 -0.621706 0.006958 0.241846 0.063482 -0.572932 -0.103770 -0.341204 0.047965 -0.271411 -0.346826 0.394137 -0.336874 -0.029629 0.096104 0.267562 0.339655 -0.020362 -0.130554 -0.345208 -0.234916 -0.342333 0.458531 0.312114 0.080617 0.197723 -0.362536 0.068980 0.031132 -0.673096 0.361108 0.273614 -0.079782 -0.154781 0.168697 0.615014 -0.278515 0.009481 0.016459 -0.123996 -0.065282 0.230085 0.225908 0.496257 -0.149297 -0.091241
what 0.643259 -0.516535 -0.034908 -0.446011 -0.303341 -0.747651 -0.340204 1.137917 0.528859 0.897560 0.633274 0.011357 0.061309 -0.144935 0.564988 0.358243 -0.332909 0.746455 -0.055667 -0.699844 -0.531744 -0.273884 0.268306 0.138742 -0.555531 -0.364183 -0.262138 0.288962 -0.266641 -0.222260 0.090719 -1.146765 -0.418325 0.822741 0.760448 -0.616361 0.167241 0.552609 0.492128 0.211889 -0.117553 -0.124125 0.121796 -0.162258 -0.504578 0.198942 -0.016282 -0.343162 -0.012767 -0.480877 0.568626 0.180291 0.048721 0.486738 0.168028 -0.433115 -0.143116 0.324540 0.084181 -1.057202 -0.180110 -0.321261 0.198497 -0.502021 -0.306600 0.718721 -0.495778 -0.200334 -0.067919 0.581262 0.713135 0.088485 -0.399644 -0.106106 -0.252754 -0.256374 0.734012 0.159971 -0.066837 0.428798 -0.452969 0.088721 0.130327 -0.820683 0.608812 0.265947 -0.024768 -0.219049 0.443111 0.839998 -0.315578 0.124911 -0.214220 -0.043151 0.109238 0.349178 0.432220 0.817241 -0.207526 -0.173904
could 0.999516 -0.807492 0.017367 -0.580446 -0.483041 -0.856857 -0.653131 0.805346 0.447619 0.866096 0.914635 0.355713 0.444367 -0.214599 0.618500 0.304887 0.031078 0.306385 -0.218571 -0.883597 -0.763803 -0.371784 0.288757 0.044689 -0.803309 -0.452251 -0.332375 0.723534 0.266090 -0.139859 0.474114 -1.305030 -0.475561 0.832717 1.221610 -0.690982 0.747773 0.187109 0.731269 0.355132 -0.335457 0.219487 0.447916 -0.492439 -0.237419 0.135966 -0.236718 -0.520880 0.019314 -0.349174 0.953303 0.330902 0.198446 0.399699 0.277260 -0.530771 -0.404351 0.206868 0.028141 -1.132469 -0.371724 -0.472616 0.499861 -0.670829 -0.458032 0.255028 0.003916 -0.065314 0.190253 0.591441 0.821261 0.115660 -1.057432 0.132608 -0.106454 -0.786669 0.582844 0.185517 -0.047757 0.550519 -0.766068 -0.061688 -0.031525 -0.953090 0.631640 0.293824 -0.026927 -0.616410 0.315656 1.017930 -0.156524 -0.002324 0.250629 -0.059280 0.123833 0.077739 0.272999 0.737136 0.049132 -0.070701
some -0.058710 0.189842 0.175336 0.078905 0.350772 -0.397816 -0.059904 0.687665 -0.116566 0.413533 0.318393 0.068001 0.239700 -0.155801 0.125839 0.090722 0.161707 0.316915 -0.386266 0.172345 0.128361 0.320552 0.378039 0.125405 0.351782 -0.079333 0.270218 -0.090821 -0.448729 -0.548880 -0.123752 -0.409513 0.015081 0.303589 0.213117 0.125408 0.211663 -0.051020 0.381345 -0.175620 0.326245 -0.690155 0.124563 0.092825 0.005208 0.048080 0.181835 -0.204830 -0.193341 -0.536702 -0.033667 0.282345 -0.144497 -0.199292 0.005035 -0.279251 0.440616 0.227478 0.278087 0.195125 0.038052 -0.162056 0.227996 -0.104410 0.588338 -0.339333 0.039484 -0.085958 0.507982 0.237678 -0.004373 0.524702 0.091089 -0.092903 -0.523503 0.058143 0.152512 0.099720 0.151292 -0.388936 -0.117162 0.336055 0.016693 -0.430950 -0.255361 0.183415 -0.173074 -0.287803 -0.138902 0.530453 -0.059581 0.056399 -0.304145 0.097677 -0.170311 0.076042 -0.050673 0.413897 -0.129971 0.071304
their -0.106413 0.440016 0.285401 0.219560 0.577129 -0.475983 0.135412 0.743240 -0.183076 0.362474 0.129352 -0.094050 0.189745 -0.412239 -0.052698 0.195186 0.034326 0.219756 -0.237056 0.317338 0.068793 0.101902 0.359106 0.022045 0.221347 -0.250448 0.269286 -0.245486 -0.428089 -0.365753 -0.134478 -0.296981 0.181027 0.156576 -0.057720 0.058010 -0.092907 -0.056376 0.233505 -0.105825 0.382031 -0.738973 -0.245102 0.201326 0.088506 0.130218 0.003216 -0.106879 -0.267238 -0.469411 -0.215820 0.410897 -0.340342 -0.354809 0.102522 -0.337105 0.305464 0.222150 0.301202 0.287321 -0.086097 -0.282182 0.271956 0.052040 0.458586 -0.135660 -0.071397 0.064770 0.382746 0.234913 -0.061629 0.389556 0.152920 -0.099662 -0.639223 0.056021 0.154714 0.108666 0.333424 -0.306910 -0.101734 0.426333 0.073736 -0.325406 -0.109677 0.220292 -0.039637 -0.272465 -0.119739 0.484889 -0.272935 -0.057958 -0.191824 -0.038603 -0.375656 0.138628 -0.071838 0.117832 -0.276630 0.062909
these 0.071107 0.419165 0.253665 0.062875 0.331769 -0.528710 0.070916 0.775583 -0.031060 0.377347 0.375905 -0.083634 0.057352 -0.110791 0.017277 0.245371 0.020496 0.268092 -0.046072 0.142951 -0.048066 -0.079731 0.296702 0.149830 0.033725 -0.299661 0.235612 -0.147664 -0.322174 -0.245284 0.041213 -0.385885 0.135139 0.190553 0.180372 -0.090626 0.063389 0.065849 0.313529 -0.160179 0.110252 -0.505887 -0.305616 -0.060051 0.005950 0.242826 -0.132918 -0.203519 -0.236033 -0.456582 -0.033132 0.320768 -0.232261 -0.337646 0.012386 -0.180140 0.248538 0.156900 0.276878 -0.002877 -0.165850 -0.273510 0.219183 -0.076890 0.388386 0.049241 -0.048387 0.025698 0.281897 0.409373 0.023370 0.385376 -0.005962 -0.027758 -0.515115 -0.095375 0.216161 0.037228 0.187364 -0.293990 -0.053801 0.403202 0.185488 -0.381447 0.015242 0.154674 0.088843 -0.244506 0.096155 0.495843 -0.268307 -0.083580 -0.188535 -0.007656 -0.116856 0.137390 -0.061891 0.231520 -0.218579 0.033521
her 0.022799 0.098584 0.059614 0.195125 0.639968 -0.343910 0.048734 0.727378 0.045892 0.310654 0.040155 -0.118353 0.299505 -0.484476 0.126776 -0.093305 0.137343 0.228586 -0.319620 0.350567 0.103413 0.284356 0.494413 0.012878 0.371232 -0.154346 0.295909 0.071182 -0.278559 -0.558496 -0.081499 -0.532128 0.150212 0.280777 -0.214564 0.114618 0.064192 0.084981 0.207275 0.079992 0.534294 -0.517306 0.024111 0.246801 0.006602 -0.113386 -0.161582 0.006590 -0.040321 -0.422961 -0.169903 0.350505 -0.457826 -0.083740 0.054744 -0.689343 0.527898 0.349177 0.258472 0.263387 0.035567 -0.183851 0.131973 -0.009761 0.393375 -0.270441 -0.107114 -0.071107 0.531989 0.027087 -0.236294 0.485131 0.076269 -0.267028 -0.704859 -0.062832 0.004709 0.228232 0.101920 -0.379994 -0.245197 0.335728 -0.108601 -0.382863 -0.161537 0.109856 -0.308639 -0.045894 -0.194220 0.469338 -0.252376 0.032881 -0.172939 -0.011252 -0.277383 0.244433 -0.085361 0.254112 -0.242571 -0.103322
they 0.475542 0.093611 0.396743 -0.292384 0.019285 -0.548751 0.036772 0.724723 0.164737 0.615183 0.732065 0.062316 0.028331 -0.130063 0.256006 0.247426 0.036469 0.453001 -0.141805 -0.089918 -0.353622 -0.063366 0.161152 0.123660 -0.074557 -0.365721 -0.042397 -0.056476 -0.209954 -0.479829 0.192161 -0.793581 -0.302327 0.388373 0.463546 -0.096997 0.280223 0.231216 0.397751 0.099171 -0.065035 -0.626878 0.243418 -0.096930 -0.094362 0.153705 0.054170 -0.339029 -0.183830 -0.394359 0.405614 0.162669 0.025263 -0.107991 0.148462 -0.199204 -0.084204 0.264954 0.221131 -0.282300 -0.256430 -0.433026 0.132047 -0.140195 0.097567 0.210574 -0.038301 -0.064675 0.304888 0.577639 0.357311 0.045381 -0.105241 0.043714 -0.311813 -0.358285 0.426687 0.208661 -0.018751 -0.136444 -0.351524 0.162748 0.139763 -0.392249 -0.000468 0.351005 0.088601 -0.450277 0.278021 0.903468 -0.195156 0.047168 -0.259898 -0.114935 0.210177 0.120426 0.291221 0.641310 -0.201348 0.243420
would 0.740531 -0.672180 0.244970 -0.580892 -0.339829 -0.547273 -0.594150 0.692043 0.270251 0.854784 0.935907 0.321844 0.283887 -0.074018 0.629771 0.266240 0.127935 0.398547 -0.320950 -0.558443 -0.517886 -0.107318 0.166116 0.026372 -0.325842 -0.286194 -0.249697 0.756319 0.230674 -0.427454 0.547769 -1.126881 -0.422859 0.683963 0.949877 -0.266136 0.715248 0.249045 0.795075 0.280192 -0.268321 -0.151869 0.532773 -0.185869 -0.142081 -0.006688 -0.271291 -0.493361 -0.005568 -0.286418 0.615590 0.334920 0.075202 0.337989 0.058896 -0.411138 -0.330689 0.233482 0.082663 -0.778276 -0.306874 -0.555902 0.241646 -0.520854 -0.121864 0.109935 0.156490 -0.178933 0.418848 0.551057 0.585624 0.227820 -0.802884 0.213082 -0.166294 -0.705550 0.428185 0.090246 -0.244731 0.273169 -0.673244 -0.104531 -0.045725 -0.850083 0.218758 0.231009 -0.128709 -0.680079 0.132850 1.039768 0.016500 -0.073838 -0.010433 -0.065392 0.371084 0.009333 0.142532 0.792278 0.107722 0.046917
any -0.055999 0.445150 0.216783 -0.041190 -0.016221 -0.743006 -0.353091 1.143207 -0.281909 0.521235 0.449311 -0.192426 0.034550 0.285670 0.174148 0.399640 -0.002723 0.394863 0.211348 -0.142724 -0.610925 -0.090764 0.479629 0.027598 -0.545844 -0.528693 0.239820 -0.427949 -0.584254 0.279066 0.239651 -0.162083 0.096959 0.139004 0.467101 -0.092517 -0.162735 -0.045109 0.024233 -0.334862 -0.425200 -0.335442 -0.534796 -0.070869 -0.248643 0.672851 0.044395 -0.406407 -0.193999 -0.383744 0.022223 0.163486 0.071534 0.055629 0.063171 0.228810 -0.139065 0.032084 0.415963 -0.314565 -0.180445 -0.273197 0.257430 -0.340759 0.597505 -0.009394 -0.043139 0.118275 -0.040210 0.902720 0.227772 0.578803 -0.375469 0.646912 -0.600017 -0.013120 0.547291 -0.252857 -0.003384 -0.096298 -0.272848 0.229706 0.026902 -0.332605 0.568253 0.170887 0.196939 -0.630909 0.364424 0.536678 -0.353527 0.017575 -0.031292 0.012235 0.166589 0.035141 -0.084252 0.377771 -0.491826 0.059536
when 0.416469 -0.066468 0.151055 0.062673 0.308756 -0.250639 -0.021249 0.629700 0.183231 0.312831 0.248695 -0.101911 0.334193 -0.429764 0.372346 0.071990 0.041426 0.174958 -0.193811 0.086330 -0.081412 -0.056361 0.210123 0.139409 0.158070 -0.296348 -0.032766 0.385548 -0.029262 -0.393400 0.212698 -0.651848 -0.047192 0.281633 0.173777 -0.092748 0.120020 0.032792 0.198996 0.082958 0.234078 -0.218011 0.052345 0.081721 0.043068 -0.084585 -0.210031 -0.274160 -0.048254 -0.399256 0.046431 0.183423 -0.085406 0.010837 0.106632 -0.487096 0.232972 0.246476 0.102210 -0.108346 0.033258 -0.212820 0.074652 -0.114488 0.002427 -0.235898 -0.018399 0.093585 0.282874 0.156424 0.021423 0.182810 -0.071465 -0.232163 -0.337675 -0.321113 0.318889 0.237094 0.135502 -0.053485 -0.297885 0.201139 -0.134423 -0.502151 0.080663 0.211212 -0.244645 -0.208025 -0.066152 0.532484 -0.272084 -0.008546 0.164186 -0.047480 -0.222900 -0.029963 -0.040236 0.349678 -0.142548 -0.086641
said 0.803527 -0.711749 -0.173580 -0.315085 -0.203561 -0.487806 -0.166209 1.015391 0.577848 0.711632 0.659054 -0.132286 0.079842 -0.396694 0.715765 0.080206 -0.108678 0.394377 -0.153641 -0.649567 -0.499617 -0.228120 0.271580 0.256968 -0.254543 -0.342739 -0.524942 0.655239 0.158298 -0.428556 0.393819 -1.137806 -0.376333 0.782611 0.681325 -0.588075 0.225279 0.420727 0.460234 0.286356 -0.123811 0.122416 0.393996 -0.251937 -0.349757 -0.000380 -0.385429 -0.582645 0.103506 -0.222203 0.395904 0.141413 0.152541 0.569143 -0.007860 -0.865227 -0.186604 0.179750 0.022507 -0.984084 -0.241200 -0.359688 -0.020027 -0.530725 -0.421056 0.512225 -0.334898 -0.113497 -0.002165 0.365049 0.528788 0.141933 -0.504068 -0.222421 -0.098262 -0.454255 0.542081 0.377348 0.001622 0.417295 -0.515959 0.037140 -0.030324 -0.869675 0.666943 0.316905 -0.183710 -0.210790 0.181843 0.684601 -0.203069 0.089535 0.226623 -0.130180 0.052186 0.131133 0.259929 0.729506 -0.034401 -0.163628
if 0.341188 -0.015623 0.087505 -0.268790 -0.249366 -0.426336 -0.130862 1.072784 0.143865 0.653236 0.568398 -0.144578 0.030219 -0.118041 0.507833 0.226362 -0.142374 0.400283 -0.005165 -0.433404 -0.544380 0.003419 0.188819 0.117738 -0.386714 -0.421196 -0.123699 0.050733 -0.088168 -0.151969 0.488294 -0.475853 -0.345104 0.334842 0.464357 -0.370821 0.035953 0.184653 0.269792 0.051492 -0.215614 -0.365708 -0.064702 -0.104028 -0.269826 0.338222 -0.304723 -0.453340 -0.025371 -0.164367 0.219738 0.028520 0.296892 0.247580 -0.059793 -0.288628 -0.241454 0.168618 0.240828 -0.648853 -0.259522 -0.423449 -0.060895 -0.380998 0.113553 0.366329 0.035144 0.165961 0.024150 0.601404 0.300868 0.307496 -0.313942 0.217167 -0.249743 -0.300482 0.357826 0.220415 -0.061293 0.163715 -0.414600 0.071649 0.066552 -0.536722 0.603628 0.195403 0.027759 -0.514425 0.279795 0.641277 -0.193801 -0.136171 0.285061 -0.108109 0.128599 0.055217 0.010355 0.504988 -0.131452 0.209617
then 0.444341 -0.145920 0.085224 0.010744 0.225835 -0.256950 -0.003185 0.688297 0.293165 0.464355 0.285536 -0.118416 0.216341 -0.537554 0.359469 0.048221 -0.090712 0.275473 -0.173931 -0.069686 -0.132254 -0.065570 0.188609 0.120144 0.067576 -0.322753 -0.163202 0.384595 0.014093 -0.393270 0.165024 -0.712523 -0.145905 0.394312 0.214387 -0.244227 0.033623 0.134064 0.251207 0.145844 0.227309 -0.180527 0.098789 0.071109 -0.048467 -0.030219 -0.228242 -0.291185 -0.073624 -0.285446 0.066645 0.209257 -0.099853 0.126158 0.120840 -0.591968 0.109446 0.225211 0.072105 -0.319330 -0.023553 -0.299285 0.028485 -0.139712 -0.171853 0.094912 -0.115684 0.086705 0.128780 0.193628 0.183394 0.114200 -0.043874 -0.300637 -0.347884 -0.286051 0.404782 0.261100 0.139727 0.116460 -0.271309 0.103519 -0.107587 -0.547128 0.202934 0.244733 -0.187863 -0.207506 -0.031616 0.518703 -0.283722 -0.004812 0.144817 -0.067964 -0.269247 0.103715 0.038401 0.392497 -0.182837 -0.076566
s 0.044616 0.389638 0.200690 0.345383 0.666347 -0.211734 0.178506 0.800388 -0.074701 0.214667 0.036374 -0.368031 0.188256 -0.480021 0.187495 0.140365 0.058024 0.041008 -0.080003 0.335598 -0.012044 -0.003571 0.387485 0.101778 0.302544 -0.339398 0.103397 0.011702 -0.149411 -0.173794 0.190611 -0.222030 0.230753 0.095786 -0.168905 0.099029 -0.332521 -0.139161 -0.038541 -0.104678 0.231188 -0.285391 -0.343470 0.311994 0.163066 0.075127 -0.341439 -0.210375 -0.129442 -0.232726 -0.475265 0.189304 -0.299024 -0.179185 0.018306 -0.347941 0.162445 0.191179 0.225956 0.175988 0.000080 -0.292601 0.043108 0.030166 0.258388 -0.238348 0.034222 0.249203 0.122572 0.279502 -0.134375 0.423432 0.085869 -0.006036 -0.572529 -0.071075 0.332123 0.028631 0.206960 -0.207541 -0.114072 0.368627 -0.147217 -0.331198 0.146027 0.119162 -0.208828 -0.220127 -0.113252 0.323564 -0.398295 -0.028605 0.182299 -0.050351 -0.325708 -0.000139 -0.188685 0.108489 -0.383313 -0.099207
will 0.884854 -0.646684 0.061285 -0.438529 -0.325053 -0.522544 -0.360605 0.906683 0.403737 0.882666 0.679114 0.059326 0.265858 -0.389742 0.731222 0.195912 -0.052817 0.339510 -0.119937 -0.695517 -0.719457 -0.306255 0.172715 0.049291 -0.645596 -0.528842 -0.486297 0.712085 0.272520 -0.183913 0.668835 -1.120077 -0.438645 0.658277 0.808524 -0.606372 0.245608 0.230750 0.544274 0.435912 -0.261346 0.167348 0.343221 -0.177891 -0.224632 0.067571 -0.487478 -0.508964 -0.006902 -0.120829 0.578332 0.202694 0.239173 0.519246 0.186898 -0.554261 -0.469797 0.163824 0.030470 -1.041094 -0.363403 -0.675302 0.073659 -0.550622 -0.518826 0.407737 -0.120618 0.085830 -0.064337 0.573856 0.633794 0.133016 -0.734140 0.083794 -0.033801 -0.661367 0.571935 0.289457 0.002545 0.595804 -0.702184 -0.045446 -0.127447 -0.870386 0.884612 0.262206 -0.067926 -0.601219 0.208802 0.838137 -0.230450 -0.111843 0.445135 -0.218189 0.100464 0.010282 0.219248 0.498904 -0.026107 -0.014204
about 0.134068 0.349864 0.260275 0.395184 0.668570 -0.053621 0.159658 0.634325 0.001504 0.147717 -0.003042 -0.375404 0.336166 -0.629489 0.281807 0.118858 0.044834 -0.011564 -0.119372 0.452783 0.067015 -0.015085 0.243428 0.075533 0.412448 -0.345797 0.112247 0.240500 -0.033173 -0.222314 0.246423 -0.305759 0.191704 -0.038098 -0.187075 0.078507 -0.264374 -0.241604 -0.080860 -0.050199 0.303802 -0.236658 -0.249237 0.338554 0.257159 0.038721 -0.401806 -0.260816 -0.136009 -0.285454 -0.433601 0.175492 -0.256257 -0.177253 0.134655 -0.412072 0.246732 0.224771 0.142230 0.274035 0.105673 -0.284255 0.006276 0.140767 0.153613 -0.399750 0.088119 0.328983 0.239930 0.129788 -0.253141 0.298388 0.149244 -0.196092 -0.542658 -0.264356 0.276925 0.177013 0.233124 -0.194069 -0.125295 0.259277 -0.236894 -0.353332 0.012709 0.153644 -0.326979 -0.251846 -0.193140 0.389978 -0.424088 -0.041935 0.285367 -0.066676 -0.453535 -0.113701 -0.295000 0.106935 -0.339565 -0.070818
most 0.147601 0.411899 0.283606 0.229643 0.646121 -0.237624 0.134606 0.671401 -0.006174 0.168309 0.087371 -0.225895 0.205396 -0.472451 0.171991 0.236251 -0.026956 0.073211 -0.029695 0.405903 0.047854 -0.104827 0.314860 0.112193 0.300534 -0.335669 0.224755 0.142951 -0.126576 -0.224623 0.140626 -0.302795 0.191599 0.085448 -0.173168 0.142524 -0.116579 -0.149912 0.030137 -0.113874 0.284651 -0.322954 -0.323839 0.233373 0.264829 0.039508 -0.394387 -0.218650 -0.167786 -0.264537 -0.310453 0.243924 -0.366732 -0.283941 -0.015158 -0.173970 0.288577 0.241609 0.152731 0.221359 0.060974 -0.292410 0.109431 0.077194 0.197608 -0.259966 0.065668 0.199043 0.287060 0.197375 -0.192822 0.297441 -0.017999 -0.165675 -0.483858 -0.163309 0.276468 0.055717 0.187871 -0.138910 -0.066422 0.383791 -0.081727 -0.380292 0.028064 0.093643 -0.242196 -0.213062 -0.063129 0.348766 -0.407706 -0.058433 0.080310 -0.037155 -0.222475 0.028975 -0.196613 0.126759 -0.250410 -0.154957
who 0.427347 -0.174555 0.224887 -0.302972 -0.099193 -0.407587 -0.158295 0.765571 0.338804 0.615029 0.655301 0.022480 0.100154 -0.061316 0.457302 0.355364 -0.020844 0.460060 -0.187676 -0.236045 -0.210291 -0.089791 0.195643 0.109263 0.059663 -0.181463 0.015793 0.301764 -0.159226 -0.415705 0.119689 -0.804005 -0.317561 0.564804 0.447884 -0.106862 0.343030 0.259896 0.454073 -0.047938 0.031824 -0.399122 0.133695 -0.033065 -0.127731 0.081972 -0.107148 -0.377438 -0.039986 -0.486450 0.289217 0.099906 -0.095119 0.033960 -0.036387 -0.206531 0.084015 0.394045 0.146011 -0.352471 -0.091573 -0.300762 0.135257 -0.222459 0.098602 0.176330 -0.049623 -0.113154 0.349850 0.449581 0.364334 0.181771 -0.233786 0.029350 -0.254808 -0.328187 0.389169 0.088458 -0.157549 0.000352 -0.293622 0.206284 0.113502 -0.625788 0.063417 0.193303 -0.235104 -0.271063 0.225479 0.842492 -0.177761 0.074101 -0.272104 0.036385 0.262477 0.096866 0.209606 0.752951 -0.077958 -0.096855
even 0.391394 -0.038470 0.220327 -0.032085 -0.021567 -0.562151 -0.201977 0.747307 0.221346 0.527963 0.333941 -0.051082 0.309125 -0.251917 0.301457 0.272666 -0.064655 0.278972 -0.089031 -0.134444 -0.339255 -0.234243 0.197974 -0.016197 -0.289818 -0.359918 0.042011 0.120482 -0.289156 -0.048249 0.013691 -0.728513 -0.114770 0.268839 0.447893 -0.310605 0.129496 0.043257 0.281446 0.041137 -0.054355 -0.151453 -0.140495 -0.064843 -0.161575 0.231005 -0.034136 -0.276706 -0.126261 -0.451021 0.331660 0.198478 -0.096148 0.016960 0.287168 -0.267609 0.080733 0.247102 0.087074 -0.409286 -0.130595 -0.245573 0.322203 -0.177303 0.039327 0.059721 -0.124375 0.026305 0.138329 0.438051 0.274669 0.206059 -0.379227 0.040570 -0.339655 -0.292353 0.402221 0.064615 0.027246 0.113264 -0.336974 0.202432 0.021752 -0.463043 0.266664 0.157664 -0.132100 -0.323292 0.142703 0.697331 -0.338082 0.064094 -0.024870 -0.068387 -0.148913 0.042437 0.075111 0.440472 -0.212439 -0.059036
our 0.065201 0.214504 0.191134 0.055205 0.410328 -0.308325 -0.031289 0.773726 -0.096264 0.474323 0.291238 -0.090602 0.176451 -0.310929 0.207213 0.174085 0.022928 0.252488 -0.189831 0.149989 -0.059405 0.128642 0.325197 0.080302 0.176140 -0.262002 0.119438 0.006068 -0.220128 -0.352294 0.113916 -0.393984 0.035069 0.307152 0.125963 0.027412 0.063441 0.009961 0.232351 -0.024503 0.231326 -0.505267 -0.102523 0.142376 -0.034411 0.134593 -0.106630 -0.232656 -0.117536 -0.362649 -0.091648 0.263210 -0.126475 -0.096831 -0.009041 -0.375637 0.159414 0.199750 0.246251 -0.011208 -0.083260 -0.275133 0.104563 -0.119374 0.358884 -0.167860 0.033486 0.122068 0.298095 0.326438 0.032515 0.436417 -0.037366 -0.100598 -0.495727 -0.079144 0.250973 0.097688 0.114994 -0.140102 -0.227507 0.240747 -0.032511 -0.438999 0.041820 0.183499 -0.113798 -0.360869 -0.051690 0.486168 -0.229036 -0.053310 -0.003215 0.031642 -0.204835 0.107726 -0.083042 0.298170 -0.214946 0.089868
only 0.274148 0.047244 0.163357 -0.091656 0.082288 -0.443497 -0.126484 0.763765 0.186234 0.449100 0.354433 -0.064083 0.162270 -0.218226 0.309297 0.317324 -0.060199 0.308546 -0.101930 -0.132292 -0.213495 -0.141845 0.247033 0.059017 -0.117806 -0.265159 0.096284 0.129399 -0.192982 -0.155104 0.115546 -0.588514 -0.135286 0.337923 0.333182 -0.183899 0.104797 0.097287 0.246922 0.000769 0.023874 -0.267836 -0.101253 -0.016786 -0.102669 0.199928 -0.161247 -0.261861 -0.082825 -0.374148 0.138879 0.161477 -0.122155 0.009316 0.104472 -0.203920 0.038300 0.267507 0.138904 -0.294584 -0.104200 -0.277490 0.186698 -0.171950 0.109246 0.094084 -0.054136 0.037146 0.204038 0.373643 0.216739 0.227503 -0.236489 0.018797 -0.352812 -0.240057 0.332656 0.067845 0.005358 0.030986 -0.255539 0.214264 0.035840 -0.463882 0.219379 0.142695 -0.127500 -0.262820 0.158489 0.607456 -0.274928 0.020032 -0.060189 -0.012484 -0.036209 0.106016 0.049135 0.454956 -0.189110 -0.066354
up 0.216147 0.168900 0.181785 0.135890 0.416870 -0.262893 0.095910 0.680172 0.080667 0.321530 0.191292 -0.157917 0.242635 -0.487532 0.289355 0.100476 0.080155 0.181397 -0.217909 0.137410 0.000109 0.099396 0.269006 0.051465 0.281506 -0.279372 0.033855 0.147453 -0.098449 -0.401779 0.126701 -0.470452 -0.045946 0.201363 0.055319 -0.012806 -0.033041 -0.020421 0.192663 0.074345 0.237985 -0.505645 0.012358 0.231788 0.100523 -0.012513 -0.211559 -0.233158 -0.130336 -0.287495 -0.127307 0.191139 -0.187125 -0.056417 0.101962 -0.463459 0.229837 0.270026 0.176608 0.074792 0.033429 -0.318052 0.045199 -0.036183 0.177053 -0.146668 0.030443 0.071773 0.316947 0.217821 -0.017658 0.267919 0.108391 -0.171134 -0.434295 -0.185539 0.225474 0.232927 0.134709 -0.196060 -0.213337 0.261450 -0.078422 -0.396553 -0.006937 0.204810 -0.214889 -0.252659 -0.089750 0.539271 -0.230615 -0.033928 0.050916 -0.088449 -0.232377 0.035599 -0.100248 0.312969 -0.236140 -0.004218
yet 0.427995 -0.187595 0.106893 -0.113250 0.016839 -0.441155 -0.254836 0.764212 0.285820 0.525970 0.375841 0.009668 0.257724 -0.290925 0.376916 0.248936 -0.071565 0.321102 -0.159077 -0.223151 -0.241995 -0.161336 0.248414 0.091327 -0.174081 -0.290886 -0.003093 0.352939 -0.065220 -0.194733 0.152485 -0.753555 -0.183216 0.418086 0.447536 -0.318991 0.202624 0.131921 0.336385 0.071184 0.034912 -0.102202 0.023516 -0.060220 -0.120227 0.116196 -0.228689 -0.266937 -0.034596 -0.366666 0.274701 0.193661 -0.110806 0.107086 0.126434 -0.341984 0.013503 0.256372 0.084961 -0.456703 -0.086097 -0.310442 0.230338 -0.255432 -0.071306 0.131514 -0.080219 0.024563 0.181905 0.308933 0.278481 0.214787 -0.359590 -0.059511 -0.300469 -0.359163 0.384299 0.140086 -0.000738 0.157759 -0.343711 0.137888 0.003869 -0.596002 0.247794 0.162878 -0.154239 -0.268329 0.079377 0.629735 -0.268158 0.028926 0.057771 -0.026985 -0.092149 0.139672 0.061368 0.486398 -0.115669 -0.124308
man 0.310075 0.096871 0.169368 0.041641 0.127665 -0.405358 -0.079024 0.756044 0.253458 0.395639 0.243920 -0.199550 0.209455 -0.360656 0.325792 0.289636 -0.079354 0.212006 0.017065 -0.039542 -0.232182 -0.323600 0.213520 0.066173 -0.064197 -0.244938 0.039300 0.261197 -0.128144 -0.039818 0.084239 -0.556800 -0.066924 0.224812 0.272336 -0.207780 -0.077738 -0.036951 0.205841 -0.029909 -0.053255 -0.100927 -0.204618 0.111572 0.020522 0.150348 -0.196065 -0.275416 -0.118283 -0.284265 -0.041774 0.148184 -0.258244 -0.032003 0.084346 -0.198488 0.029140 0.293992 0.050606 -0.291730 -0.058585 -0.305443 0.224552 -0.078552 -0.027843 0.122621 -0.035352 0.054955 0.080605 0.394779 0.173710 0.204676 -0.251238 0.051216 -0.284121 -0.218234 0.412417 -0.011692 0.004874 0.056705 -0.191385 0.320433 -0.019656 -0.422921 0.200388 0.136140 -0.198113 -0.154569 0.079459 0.543646 -0.399505 0.007094 -0.004763 -0.122824 -0.148719 0.025048 -0.007549 0.356727 -0.255547 -0.178053
through 0.108236 0.412199 0.331488 0.420125 0.766515 -0.076331 0.151243 0.576909 -0.072012 0.148671 0.044609 -0.327684 0.326217 -0.611438 0.270135 0.237907 0.151598 -0.066897 -0.130484 0.478097 0.073545 0.015722 0.247283 0.062619 0.442714 -0.335090 0.202235 0.235783 -0.060208 -0.265600 0.236513 -0.287886 0.258700 -0.014999 -0.206502 0.142956 -0.141912 -0.269601 -0.041090 -0.081542 0.282949 -0.362641 -0.280388 0.257943 0.288645 0.090158 -0.415996 -0.279283 -0.142582 -0.330979 -0.398504 0.181286 -0.307761 -0.286604 0.114947 -0.212205 0.228299 0.291804 0.102134 0.355775 0.002709 -0.344216 0.023022 0.199771 0.224179 -0.410166 0.144367 0.309923 0.335495 0.171073 -0.299340 0.362615 0.063918 -0.154788 -0.505528 -0.290084 0.230202 0.104506 0.236914 -0.297530 -0.133967 0.379403 -0.232552 -0.357808 -0.061353 0.120828 -0.301037 -0.326308 -0.213050 0.424947 -0.373032 -0.066784 0.272114 -0.028770 -0.355299 -0.143921 -0.283363 0.072461 -0.282154 -0.083738
them 0.340065 -0.104565 0.203410 -0.091925 0.097492 -0.467644 -0.123994 0.684688 0.112081 0.497112 0.397971 0.021365 0.219932 -0.240105 0.239807 0.170838 -0.057173 0.335545 -0.213530 -0.104899 -0.228126 -0.069831 0.208905 0.068051 -0.141297 -0.307157 -0.014296 0.151231 -0.207935 -0.298490 0.053557 -0.678020 -0.159227 0.381111 0.344129 -0.191899 0.222515 0.120080 0.327138 0.042287 0.127446 -0.376401 0.033756 -0.040246 -0.115227 0.097265 -0.022684 -0.301615 -0.091311 -0.472752 0.241126 0.254740 -0.011636 -0.000921 0.116144 -0.370584 0.091769 0.263107 0.146268 -0.240326 -0.104305 -0.234199 0.209052 -0.164097 0.106002 -0.018119 -0.068720 0.009876 0.307391 0.348170 0.254071 0.190696 -0.211967 -0.080726 -0.375332 -0.226232 0.313849 0.160118 0.095022 0.014166 -0.311470 0.126507 0.039572 -0.528027 0.142355 0.215877 -0.064795 -0.343670 0.096385 0.645072 -0.217372 -0.007667 -0.084555 -0.020949 -0.104576 0.061467 0.074525 0.437674 -0.108614 0.001977
out 0.091409 0.325062 0.250080 0.287179 0.631693 -0.177098 0.116158 0.668111 -0.063866 0.286679 0.120845 -0.216507 0.259949 -0.570334 0.190803 0.126109 0.002682 0.053488 -0.154643 0.357840 0.008910 0.085477 0.303362 0.004931 0.304391 -0.359659 0.132930 0.110537 -0.115680 -0.308414 0.142417 -0.357634 0.170114 0.122239 -0.134096 0.061636 -0.096147 -0.136860 0.097300 0.006061 0.344024 -0.450911 -0.198793 0.291676 0.161363 0.054792 -0.281620 -0.237063 -0.172065 -0.292385 -0.241136 0.303147 -0.276192 -0.217955 0.094351 -0.416865 0.266478 0.225129 0.161510 0.192757 -0.008421 -0.276127 0.098885 0.090051 0.242521 -0.285330 0.060938 0.231917 0.313083 0.226558 -0.106856 0.341038 0.091328 -0.230231 -0.560154 -0.146543 0.213166 0.185543 0.217272 -0.166707 -0.162976 0.280646 -0.128692 -0.403146 -0.037762 0.194482 -0.201170 -0.341361 -0.163548 0.482256 -0.353323 -0.111291 0.077432 -0.010222 -0.388384 0.004485 -0.193308 0.115470 -0.269498 -0.012651
long 0.200855 -0.016254 0.132863 0.052366 0.234941 -0.184993 -0.150122 0.649698 0.094179 0.358725 0.357194 -0.051774 0.239587 -0.284747 0.317617 0.151666 0.082806 0.259644 -0.249402 0.063019 -0.005723 0.103457 0.254833 0.144493 0.262617 -0.161337 0.186977 0.270294 -0.113482 -0.419014 0.143790 -0.529458 -0.050578 0.264909 0.252151 -0.043515 0.271000 0.000197 0.254735 -0.086235 0.197395 -0.328507 0.034240 0.042951 -0.018659 0.040785 -0.199222 -0.296571 -0.042105 -0.403295 0.004486 0.157341 -0.076309 -0.054109 0.003118 -0.383009 0.242339 0.267136 0.086858 -0.083153 -0.016503 -0.217008 0.124015 -0.094434 0.229154 -0.178835 0.096252 0.050559 0.412694 0.192918 -0.005001 0.365853 -0.132232 -0.129596 -0.402342 -0.272058 0.205843 0.156077 0.020204 -0.177248 -0.209142 0.198256 -0.077280 -0.530868 -0.077831 0.163648 -0.225643 -0.273567 -0.099827 0.495656 -0.186795 0.003367 0.047853 0.087189 -0.114957 0.036717 -0.105418 0.422322 -0.114510 -0.015961
while 0.250883 0.076512 0.174495 0.211957 0.374406 -0.302295 -0.037319 0.648367 0.016216 0.350986 0.134136 -0.212046 0.326665 -0.471988 0.267886 0.112474 0.059791 0.074206 -0.139802 0.136625 -0.112662 -0.082324 0.238167 0.054620 0.068874 -0.325408 0.015201 0.186683 -0.121212 -0.183727 0.115752 -0.490562 0.096434 0.116632 0.138592 -0.124583 -0.052100 -0.115993 0.162904 0.031225 0.162298 -0.187139 -0.153677 0.122686 0.048590 0.069791 -0.212880 -0.249522 -0.115621 -0.349379 -0.084780 0.219766 -0.129893 -0.077414 0.203184 -0.390291 0.170412 0.171111 0.114635 -0.023713 -0.046141 -0.279418 0.150045 0.005584 0.110376 -0.208011 -0.024800 0.159913 0.214353 0.227410 -0.022240 0.320911 -0.131881 -0.139937 -0.412034 -0.258446 0.288364 0.163989 0.239186 -0.068219 -0.226163 0.235438 -0.128722 -0.463659 0.143396 0.142376 -0.186740 -0.280208 -0.096146 0.459724 -0.283768 -0.055474 0.180479 -0.022162 -0.361499 -0.060947 -0.120473 0.201276 -0.178745 -0.048258
thus 0.420151 -0.194056 0.152991 -0.197335 -0.004752 -0.418260 -0.180787 0.722628 0.278349 0.577317 0.456715 0.039412 0.187703 -0.265174 0.393558 0.207682 -0.046193 0.393969 -0.202859 -0.230040 -0.225010 -0.074690 0.192693 0.087067 -0.057321 -0.254486 -0.089026 0.323802 -0.107947 -0.345449 0.142262 -0.773928 -0.259657 0.472371 0.425683 -0.189004 0.213139 0.188523 0.405775 0.088506 0.066536 -0.281531 0.169802 -0.022954 -0.122256 0.063452 -0.099133 -0.313885 -0.068376 -0.376676 0.256232 0.183575 -0.072489 0.125576 0.098380 -0.376503 0.037117 0.276469 0.121308 -0.413384 -0.075585 -0.309879 0.136557 -0.249161 -0.012567 0.132361 -0.069491 -0.044943 0.254187 0.344573 0.322316 0.176252 -0.233513 -0.071704 -0.297529 -0.291389 0.380434 0.148766 -0.034872 0.109455 -0.355799 0.113337 -0.002943 -0.591786 0.154844 0.211337 -0.177024 -0.279142 0.082689 0.714579 -0.192494 0.028314 -0.073131 -0.027853 0.003733 0.129526 0.128752 0.588568 -0.097792 -0.055886
other 0.013221 0.758650 0.384868 0.412517 0.557495 -0.506646 0.014633 0.735296 -0.160944 0.191267 0.129336 -0.375940 0.281150 -0.254258 0.097011 0.353594 0.207762 -0.019078 0.146278 0.392962 -0.203638 -0.293182 0.348721 0.042650 -0.010601 -0.518918 0.356835 -0.222540 -0.372466 0.192956 0.090306 -0.144353 0.408528 -0.164230 0.081836 0.054215 -0.291607 -0.375167 -0.062911 -0.283917 -0.116349 -0.259421 -0.644953 0.107252 0.202957 0.470418 -0.133584 -0.299264 -0.312427 -0.439217 -0.310789 0.229207 -0.306879 -0.386501 0.245744 0.121869 0.174027 0.100813 0.222167 0.318225 -0.049855 -0.269938 0.294174 0.075786 0.427338 -0.351329 0.061116 0.283223 0.070429 0.511606 -0.188814 0.436120 -0.046967 0.275414 -0.587847 -0.194644 0.403003 -0.177512 0.299559 -0.310635 -0.046637 0.533588 -0.079429 -0.146968 0.152780 0.158483 -0.028657 -0.367951 0.069303 0.414304 -0.496499 0.006879 0.099735 -0.085985 -0.328408 -0.186703 -0.301246 0.036922 -0.513465 -0.051359
such 0.257268 -0.000033 0.168253 -0.211457 -0.156169 -0.418653 -0.085641 0.937344 0.262404 0.658798 0.545120 -0.100918 0.026438 -0.153838 0.407195 0.290244 -0.211373 0.493775 -0.039201 -0.306670 -0.308900 -0.085509 0.118057 0.112490 -0.183378 -0.257205 -0.011327 0.106092 -0.210207 -0.203305 0.236154 -0.575945 -0.351084 0.365951 0.467711 -0.282590 0.096482 0.201918 0.363695 0.002516 -0.057382 -0.429893 -0.030714 -0.107111 -0.247895 0.298977 -0.167388 -0.410026 -0.058172 -0.306107 0.195283 0.127921 0.105247 0.118779 -0.013344 -0.286779 -0.043407 0.228460 0.181931 -0.557056 -0.182015 -0.343830 0.042275 -0.259094 0.129009 0.359754 0.018750 0.056634 0.184229 0.533781 0.323845 0.256388 -0.201337 0.028080 -0.329977 -0.236205 0.371914 0.152236 -0.100069 0.061270 -0.287373 0.120672 0.125908 -0.580676 0.235736 0.183642 -0.048630 -0.365803 0.193812 0.705510 -0.237348 -0.061580 -0.014520 -0.054013 0.092215 0.120154 0.029107 0.614761 -0.141784 0.119451
before 0.462472 -0.203342 0.198300 -0.087774 0.018703 -0.262131 -0.186060 0.626943 0.268813 0.523864 0.455265 -0.019173 0.295624 -0.304196 0.490515 0.146870 0.013258 0.264761 -0.219601 -0.123826 -0.193790 -0.059477 0.131840 0.070726 0.057309 -0.277848 -0.051808 0.442609 -0.016943 -0.326206 0.234052 -0.781220 -0.223383 0.336625 0.424327 -0.204936 0.295042 0.083649 0.372354 0.088452 0.033135 -0.198679 0.117419 -0.016106 -0.056517 0.043202 -0.193510 -0.383266 -0.017429 -0.385240 0.263390 0.113985 -0.032159 0.092912 0.130335 -0.411213 0.094077 0.281819 0.061608 -0.369816 -0.044312 -0.269093 0.107172 -0.185647 -0.016539 -0.059464 0.066471 0.046665 0.296982 0.318534 0.209336 0.181811 -0.248737 -0.106101 -0.266570 -0.449817 0.357332 0.168748 -0.085169 0.054929 -0.387488 0.100044 -0.053652 -0.565605 0.042770 0.191576 -0.258749 -0.329544 0.009390 0.727568 -0.216643 0.000376 0.084987 0.013581 -0.049341 -0.015394 -0.000045 0.584091 -0.076877 0.001930
has 0.271847 -0.661800 0.232576 -0.208224 -0.051434 0.123042 -0.649513 0.625842 0.186215 0.882455 0.700341 0.145993 0.295785 0.010347 0.559572 -0.025590 -0.190239 0.265365 -0.403565 0.119230 -0.118860 0.182291 -0.060995 -0.101905 0.045664 -0.106790 0.088063 0.859679 0.084306 -0.383870 0.438501 -0.973371 0.012450 0.379020 0.495992 -0.191465 0.776338 0.231810 0.480334 0.172523 0.245903 0.069673 -0.063555 -0.200230 -0.400487 0.050496 -0.452326 -0.433204 0.129720 -0.581008 0.473795 0.438705 0.099064 0.111116 -0.111561 -0.553679 0.195417 0.114769 -0.051047 -0.614041 -0.252296 -0.053970 0.119518 -0.200428 0.260146 -0.405733 0.183162 0.138818 0.567535 0.274767 0.106324 0.522990 -0.675888 -0.237472 -0.360584 -0.623900 0.052382 0.165961 -0.330548 0.095957 -0.494021 -0.281655 -0.024378 -0.927537 -0.104453 -0.025313 -0.307277 -0.705929 -0.243691 0.719588 -0.168381 -0.229108 0.121705 0.267794 -0.028386 -0.009422 -0.202574 0.417450 0.233480 -0.016307
made 0.403853 -0.159361 0.203915 -0.063606 0.179488 -0.183867 -0.174310 0.639000 0.179699 0.492037 0.413914 -0.030423 0.280206 -0.324794 0.435114 0.119014 0.009439 0.196162 -0.206070 0.003996 -0.110788 0.004080 0.144719 0.070434 0.100755 -0.249173 -0.023546 0.463491 0.043197 -0.394157 0.331137 -0.692077 -0.102063 0.338805 0.318498 -0.138243 0.287907 0.078630 0.310884 0.134233 0.141100 -0.209104 0.103734 0.009300 -0.045384 0.016447 -0.309040 -0.340530 -0.023254 -0.350610 0.166618 0.170082 -0.034410 0.065108 0.039410 -0.418558 0.103759 0.236342 0.080652 -0.240176 -0.074250 -0.287734 0.058545 -0.133554 0.040436 -0.172280 0.065238 0.075101 0.329110 0.278326 0.124426 0.255857 -0.219062 -0.162669 -0.297316 -0.430520 0.254129 0.203621 -0.036564 -0.009274 -0.336941 0.092326 -0.075742 -0.584092 0.041095 0.164440 -0.246541 -0.373028 -0.039588 0.621572 -0.212369 -0.057254 0.139988 0.002218 -0.079072 -0.016937 -0.037553 0.412367 -0.058272 -0.038918
myself 0.337090 -0.102196 0.075918 0.009071 0.154373 -0.396858 -0.064447 0.717730 0.159875 0.405798 0.281276 -0.038666 0.222131 -0.320919 0.318561 0.082233 -0.084810 0.323806 -0.218548 -0.099772 -0.125595 0.022251 0.251985 0.108087 -0.037910 -0.292252 0.004622 0.187080 -0.190253 -0.335397 0.038210 -0.651028 -0.119225 0.388210 0.245052 -0.208325 0.151161 0.136095 0.281340 0.031297 0.230110 -0.286938 -0.004836 0.005957 -0.077535 0.021327 -0.095473 -0.300642 -0.080656 -0.459164 0.152790 0.216433 -0.056996 0.058531 0.081901 -0.468387 0.230784 0.268070 0.141470 -0.253285 0.006427 -0.178688 0.157128 -0.197631 0.081533 -0.047924 -0.124991 -0.014478 0.253335 0.236794 0.159997 0.212278 -0.140108 -0.145091 -0.380199 -0.167715 0.314975 0.216065 0.074151 0.000774 -0.294859 0.148799 0.025865 -0.556869 0.127495 0.188613 -0.148080 -0.205614 0.025889 0.567077 -0.275175 0.027655 -0.025007 0.003236 -0.152468 0.102162 0.038371 0.416014 -0.153670 -0.070969
own 0.409930 0.045560 0.267863 0.223830 0.368867 -0.173728 0.076711 0.661441 0.243725 0.248216 0.107829 -0.134060 0.288578 -0.569917 0.366650 0.090763 0.010480 0.138247 -0.198609 0.202644 0.026988 0.003735 0.214046 0.082794 0.326863 -0.328777 0.101330 0.379500 -0.058586 -0.424625 0.178887 -0.636316 -0.045385 0.196069 0.032963 -0.036710 -0.001040 0.032589 0.226494 0.069155 0.287002 -0.286325 -0.027997 0.282175 0.148021 -0.158212 -0.412770 -0.211321 -0.105089 -0.341396 -0.057731 0.142007 -0.295649 -0.082085 0.139377 -0.417777 0.290192 0.329558 0.065977 0.028875 0.140316 -0.346469 0.026608 -0.044904 -0.003121 -0.290079 -0.012064 0.095388 0.229981 0.121438 -0.090047 0.159582 0.020534 -0.161922 -0.438100 -0.335725 0.267297 0.209437 0.050516 -0.083965 -0.231234 0.269043 -0.113716 -0.459371 0.008219 0.134718 -0.400644 -0.135872 -0.128083 0.584445 -0.383396 0.046156 0.183261 -0.116765 -0.147455 -0.031990 -0.101747 0.407425 -0.215255 -0.244979
well 0.437408 -0.239662 0.087845 -0.279658 -0.231814 -0.394484 -0.173100 0.996858 0.337144 0.737667 0.567455 -0.068745 0.080175 -0.220921 0.521627 0.179642 -0.263361 0.501635 -0.128128 -0.427172 -0.367741 -0.025845 0.106472 0.111197 -0.249485 -0.279945 -0.156574 0.298038 -0.096342 -0.295828 0.297752 -0.725034 -0.404977 0.483437 0.534619 -0.429878 0.176309 0.297778 0.441470 0.144695 -0.015556 -0.332796 0.055994 -0.073443 -0.311048 0.184688 -0.269863 -0.425001 0.009516 -0.305531 0.287515 0.151658 0.171321 0.274645 -0.016104 -0.529120 -0.075066 0.229791 0.145121 -0.740102 -0.176745 -0.363665 0.030486 -0.348718 0.019577 0.397284 -0.043960 0.038620 0.160889 0.451072 0.394633 0.242608 -0.298968 -0.050898 -0.260763 -0.326376 0.393000 0.267393 -0.134930 0.215173 -0.422812 0.028533 0.112806 -0.727441 0.381939 0.195955 -0.118701 -0.391684 0.167747 0.746338 -0.209623 -0.087525 0.120219 -0.066094 0.027083 0.162338 0.057480 0.661273 -0.069344 0.094443
within 0.151194 0.389313 0.299836 0.409560 0.727718 -0.074800 0.131155 0.606985 -0.036806 0.125884 0.035651 -0.321163 0.287896 -0.627906 0.299989 0.180029 0.132289 -0.073267 -0.096608 0.469499 0.024486 -0.035982 0.257260 0.057429 0.417880 -0.360085 0.164130 0.262532 0.010412 -0.229856 0.297573 -0.306135 0.261044 -0.024185 -0.217286 0.120295 -0.183942 -0.239727 -0.051054 -0.028355 0.250778 -0.265608 -0.310574 0.301373 0.279101 0.052352 -0.486228 -0.266259 -0.125927 -0.246024 -0.385685 0.196462 -0.341724 -0.245732 0.091623 -0.270291 0.203513 0.258021 0.089262 0.319435 0.034138 -0.336902 -0.005065 0.157534 0.151405 -0.394159 0.110064 0.334423 0.243286 0.182142 -0.268284 0.331858 0.038913 -0.152500 -0.505626 -0.280121 0.227434 0.103924 0.233133 -0.199040 -0.134243 0.359807 -0.220933 -0.344448 0.051570 0.106165 -0.297961 -0.293102 -0.169485 0.376262 -0.398768 -0.092335 0.306938 -0.067374 -0.354009 -0.136420 -0.297771 0.035790 -0.280242 -0.109222
first 0.327946 -0.106950 0.095331 -0.043636 0.265463 -0.284667 0.057420 0.667722 0.125269 0.420856 0.303367 -0.081280 0.158199 -0.451146 0.364696 0.088572 -0.160806 0.253049 -0.169549 0.031519 -0.057849 0.045836 0.291278 0.141332 0.147277 -0.292855 -0.126027 0.308234 -0.152026 -0.386348 0.077415 -0.591585 -0.195383 0.378616 0.169476 -0.073330 0.090395 0.074210 0.246915 0.065775 0.400504 -0.247130 0.116113 0.153909 0.043943 -0.089688 -0.133687 -0.306281 -0.060672 -0.265661 0.051715 0.169007 -0.037575 0.049479 0.019840 -0.456093 0.263615 0.268496 0.120481 -0.201455 0.066373 -0.227856 0.051175 -0.146802 0.004705 -0.127640 -0.032811 0.096677 0.282562 0.231674 0.145971 0.187495 -0.043257 -0.251079 -0.293710 -0.107840 0.347604 0.272527 0.131814 0.127823 -0.265700 0.119305 -0.091538 -0.615711 0.117565 0.200278 -0.271007 -0.263484 -0.024264 0.505502 -0.238263 -0.067135 0.020999 -0.039151 -0.153998 0.036930 0.057762 0.436256 -0.088844 -0.090461
many 0.100064 0.270210 0.271223 0.128366 0.339253 -0.359365 -0.039683 0.672562 -0.015265 0.351886 0.339239 -0.094916 0.207119 -0.219188 0.163443 0.226254 0.112367 0.246720 -0.157267 0.150718 -0.065952 -0.034376 0.267243 0.132643 0.143886 -0.234336 0.225049 0.016569 -0.292481 -0.255486 0.062070 -0.436232 0.069175 0.157745 0.218072 -0.007326 0.071954 -0.071531 0.215117 -0.127658 0.094128 -0.432669 -0.145987 0.032353 0.044893 0.183855 -0.047874 -0.289793 -0.184339 -0.471922 -0.046592 0.204039 -0.125770 -0.193632 0.078024 -0.155151 0.213534 0.227754 0.180329 0.052910 -0.087956 -0.248910 0.211898 -0.000237 0.350371 -0.152790 0.043672 0.076567 0.334631 0.359494 0.017476 0.365074 -0.055704 -0.007960 -0.439323 -0.164543 0.284652 0.053869 0.148115 -0.248636 -0.148985 0.323766 -0.011105 -0.390020 -0.025746 0.159775 -0.082114 -0.298761 0.006344 0.545111 -0.237503 -0.002235 -0.088901 0.033670 -0.145975 -0.018923 -0.078099 0.314172 -0.219615 0.039883
length 0.146336 -0.014006 0.014316 0.050322 0.447585 -0.384533 0.284556 0.701263 -0.126928 0.412202 0.183295 -0.143480 0.203406 -0.644415 0.229316 -0.123841 -0.170176 0.211944 -0.239449 0.305078 0.092751 0.284179 0.475327 0.154419 0.385720 -0.335719 -0.258955 0.070074 -0.443745 -0.494563 -0.236996 -0.423255 -0.278602 0.350026 0.032361 0.136027 -0.120923 -0.145781 0.229719 0.013528 0.857140 -0.413694 0.277482 0.432926 0.168301 -0.237019 0.272728 -0.257639 -0.136525 -0.232861 -0.112605 0.143378 0.027994 -0.083990 0.061704 -0.656921 0.648243 0.184827 0.285280 0.059502 0.280175 -0.122764 0.112666 -0.064840 0.164447 -0.490020 0.018092 0.182403 0.422574 0.188032 0.090860 0.294191 0.255437 -0.356462 -0.406147 0.268429 0.344871 0.433968 0.439331 0.121884 -0.215030 0.088622 -0.220045 -0.623538 -0.041652 0.335368 -0.378766 -0.298264 -0.188600 0.391228 -0.187543 -0.127412 -0.062092 -0.025534 -0.494220 -0.045249 0.083842 0.433834 -0.118592 -0.030859
still 0.367492 0.124724 0.200220 0.090207 0.319455 -0.407549 0.004848 0.660845 0.166375 0.400782 0.251723 -0.152033 0.235974 -0.429390 0.244556 0.187907 -0.014882 0.188403 -0.080917 0.048948 -0.186785 -0.211656 0.227877 0.100287 -0.029683 -0.365877 -0.000262 0.167808 -0.133727 -0.180667 0.100788 -0.602944 0.013730 0.236465 0.186669 -0.197408 -0.044140 -0.001047 0.154651 0.043544 0.086101 -0.181558 -0.081088 0.030329 -0.001475 0.138752 -0.154793 -0.256713 -0.137820 -0.373618 0.050446 0.208429 -0.169952 -0.072095 0.211396 -0.318355 0.073793 0.225116 0.114968 -0.122176 -0.064873 -0.319089 0.182199 -0.035910 -0.017778 0.032552 -0.133836 0.131370 0.121670 0.293077 0.107805 0.153839 -0.105464 -0.137517 -0.367314 -0.268771 0.405935 0.142971 0.213115 -0.022999 -0.206816 0.261815 -0.071806 -0.417706 0.198035 0.173833 -0.109954 -0.240052 0.064213 0.532527 -0.335761 0.030172 0.064529 -0.075342 -0.247771 0.033241 0.015881 0.281868 -0.264365 -0.083984
us 0.325370 -0.063410 0.140628 -0.133458 0.116048 -0.363613 -0.057098 0.839770 0.141696 0.583293 0.451668 -0.055824 0.053459 -0.269498 0.379254 0.176137 -0.098759 0.391937 -0.216321 -0.182460 -0.298190 0.090031 0.239111 0.069043 -0.054739 -0.328504 -0.106261 0.108405 -0.195600 -0.375751 0.191903 -0.682907 -0.244674 0.508268 0.317137 -0.168580 0.125092 0.234327 0.262710 0.082419 0.094349 -0.493877 0.055263 0.008163 -0.226303 0.167743 -0.093622 -0.376458 -0.070138 -0.404588 0.177604 0.127948 0.020415 0.151782 0.048911 -0.395813 -0.013444 0.301265 0.161309 -0.380659 -0.141231 -0.299153 -0.002682 -0.245357 0.128346 0.118214 -0.113973 0.014152 0.202947 0.435704 0.290146 0.247826 -0.124317 -0.075753 -0.347385 -0.156468 0.369317 0.180935 -0.019922 0.044071 -0.375302 0.111314 0.019058 -0.526036 0.230064 0.207576 -0.124874 -0.384561 0.121453 0.636827 -0.211030 0.058900 -0.077106 0.000265 0.022819 0.113908 0.144806 0.560382 -0.193662 0.035363
over 0.344647 0.109062 0.261653 0.278597 0.524196 -0.074388 0.105821 0.571262 0.162267 0.249597 0.110603 -0.266166 0.339363 -0.652844 0.359500 0.128626 0.040942 0.062175 -0.183929 0.289790 0.031886 -0.084879 0.184569 0.065686 0.314833 -0.332091 0.006629 0.442977 0.045054 -0.308775 0.207310 -0.549627 0.067258 0.100617 -0.049072 -0.062930 -0.073290 -0.112377 0.099184 0.037002 0.297693 -0.219189 -0.128945 0.212995 0.220290 -0.018856 -0.437817 -0.301977 -0.107922 -0.306793 -0.189565 0.200765 -0.257197 -0.135466 0.124697 -0.453989 0.220409 0.283904 0.017299 0.068675 0.074818 -0.323482 0.019373 0.068956 -0.030178 -0.255887 0.052758 0.247328 0.261512 0.114376 -0.107481 0.221957 0.006394 -0.275876 -0.413301 -0.379109 0.296872 0.203061 0.221355 -0.083969 -0.199066 0.265083 -0.187549 -0.481933 0.036119 0.153506 -0.337414 -0.227693 -0.181999 0.493108 -0.384306 -0.056022 0.295098 -0.078302 -0.340174 -0.076165 -0.178804 0.206606 -0.203139 -0.140769
like 0.176213 0.292973 0.272119 0.311951 0.492842 -0.232333 0.038811 0.636970 0.092166 0.266498 0.093062 -0.295701 0.311297 -0.532312 0.268198 0.266663 0.045365 0.055582 -0.081349 0.230961 -0.059036 -0.179692 0.211093 0.035802 0.147906 -0.305386 0.144764 0.211034 -0.134998 -0.088584 0.130798 -0.412992 0.098349 0.017891 0.018828 -0.047495 -0.155536 -0.204851 0.062712 -0.061364 0.131744 -0.237218 -0.289130 0.149172 0.143197 0.192080 -0.275212 -0.250149 -0.138918 -0.353434 -0.202938 0.166373 -0.262692 -0.186030 0.191554 -0.216155 0.143150 0.256357 0.039677 0.059949 -0.028284 -0.298627 0.146047 0.080538 0.120953 -0.188229 0.059201 0.225540 0.192234 0.272003 -0.107847 0.279000 -0.051377 -0.127215 -0.416663 -0.289458 0.312579 0.068272 0.205288 -0.129930 -0.155934 0.360257 -0.124767 -0.393483 0.049142 0.094959 -0.238987 -0.260279 -0.098956 0.473432 -0.419074 -0.027481 0.178536 -0.069910 -0.340119 -0.074217 -0.185550 0.177178 -0.290041 -0.103739
she 0.333456 -0.102357 0.103210 -0.052526 0.205614 -0.372050 -0.045276 0.723656 0.276607 0.462168 0.327284 -0.070938 0.192732 -0.341728 0.387637 0.132277 0.011452 0.399444 -0.227398 -0.022889 -0.086231 0.082268 0.325740 0.080989 0.166556 -0.204505 0.075255 0.237429 -0.204136 -0.434185 0.003070 -0.718649 -0.210705 0.435449 0.162194 -0.086354 0.149528 0.196335 0.297617 0.069453 0.273434 -0.363549 0.155565 0.101442 -0.091078 -0.015521 -0.119105 -0.198089 -0.009828 -0.414176 0.128201 0.135112 -0.201115 0.082318 0.099158 -0.466784 0.270898 0.425817 0.166263 -0.162566 0.035334 -0.272713 0.069843 -0.159107 0.091948 0.021769 -0.111972 -0.055730 0.356370 0.249959 0.092144 0.238157 -0.068294 -0.151587 -0.415047 -0.209154 0.288813 0.211142 -0.035956 -0.105464 -0.310459 0.187810 -0.047241 -0.523136 0.010177 0.155760 -0.285124 -0.137050 0.057863 0.671178 -0.229123 0.084926 -0.130998 -0.022240 -0.000059 0.167956 0.090897 0.604377 -0.212517 -0.103044
may 0.565912 -0.262346 0.187365 -0.339605 -0.177795 -0.428503 -0.308920 0.874275 0.180869 0.741565 0.647875 -0.055929 0.130042 -0.236903 0.589182 0.292290 0.008291 0.328666 -0.023157 -0.508640 -0.643725 -0.259229 0.145081 0.059070 -0.511640 -0.480250 -0.310667 0.428057 0.191099 -0.083155 0.676462 -0.741497 -0.298866 0.459786 0.641700 -0.391883 0.108808 0.131148 0.398809 0.247299 -0.355518 -0.033379 0.115476 -0.118496 -0.162398 0.235219 -0.443315 -0.467079 -0.057508 -0.081555 0.298210 0.180937 0.205581 0.361349 0.100919 -0.292336 -0.513251 0.112400 0.139591 -0.770883 -0.356983 -0.658970 0.011629 -0.412905 -0.191295 0.327777 0.022415 0.156871 -0.041408 0.652155 0.448956 0.236282 -0.581727 0.250366 -0.155747 -0.514627 0.521520 0.142692 -0.025370 0.343405 -0.532936 0.004795 -0.118777 -0.647613 0.710881 0.233136 0.037718 -0.632968 0.222983 0.733404 -0.187183 -0.148756 0.359203 -0.147452 0.146619 -0.022778 0.064824 0.389287 -0.114268 0.119124
say 0.603938 -0.455073 0.031965 -0.249589 -0.119575 -0.543017 -0.187421 0.944375 0.406063 0.687667 0.393788 -0.055426 0.150549 -0.281163 0.475144 0.150549 -0.340517 0.495355 -0.066875 -0.438270 -0.425872 -0.229246 0.159991 0.090316 -0.504969 -0.384399 -0.294772 0.359374 -0.133348 -0.166906 0.222238 -0.950933 -0.292909 0.546354 0.477170 -0.535121 0.092242 0.393077 0.269740 0.239504 0.061502 0.013780 0.046485 -0.150934 -0.369679 0.089123 -0.204325 -0.323089 0.019020 -0.392915 0.444683 0.214366 0.104914 0.399499 0.167690 -0.541874 -0.094850 0.186863 0.033162 -0.849599 -0.153277 -0.287030 0.120426 -0.369417 -0.301607 0.409965 -0.382026 -0.019799 -0.041665 0.376080 0.458973 0.034480 -0.341920 -0.228029 -0.238851 -0.307542 0.520902 0.292081 0.020183 0.376721 -0.460645 -0.022662 0.044494 -0.746528 0.604479 0.200052 -0.046310 -0.274464 0.219174 0.680357 -0.369716 -0.014786 0.096942 -0.114869 -0.061458 0.239838 0.257842 0.484033 -0.143873 -0.151905
much 0.275872 0.026158 0.151892 -0.040921 0.054182 -0.420503 -0.141881 0.721377 0.229370 0.458665 0.389930 -0.060515 0.235483 -0.284404 0.315695 0.260651 -0.022116 0.324556 -0.178049 -0.123886 -0.134130 -0.084165 0.210655 0.090482 0.015260 -0.223138 0.085853 0.176104 -0.201628 -0.243537 0.042042 -0.600285 -0.166903 0.317821 0.404660 -0.223507 0.164552 0.036416 0.344056 -0.009827 0.068289 -0.317202 -0.055313 -0.001457 -0.054864 0.182302 -0.072087 -0.264185 -0.112983 -0.402532 0.134808 0.179455 -0.096696 -0.029027 0.126861 -0.341075 0.174669 0.261202 0.116250 -0.305202 -0.036908 -0.248762 0.243329 -0.150196 0.150022 0.091903 0.017331 0.016587 0.247406 0.302134 0.208821 0.295317 -0.159236 -0.060784 -0.326407 -0.236843 0.345555 0.117512 0.046140 -0.019667 -0.264130 0.267779 0.036711 -0.510087 0.058928 0.186553 -0.174083 -0.227665 0.035982 0.618690 -0.225916 0.033815 -0.021913 0.002378 -0.180874 0.088865 0.005237 0.500401 -0.176424 -0.013976
once 0.242306 -0.041107 0.169151 0.055357 0.297581 -0.349488 0.027299 0.597027 -0.024318 0.421132 0.180354 -0.093498 0.325695 -0.459446 0.226488 0.012676 -0.053624 0.167902 -0.229090 0.232601 -0.007073 0.071858 0.329419 0.061550 0.208741 -0.298051 -0.101943 0.179205 -0.342185 -0.342439 -0.118902 -0.505405 -0.147363 0.250925 0.153829 0.026384 0.040333 -0.106161 0.272248 -0.015696 0.466056 -0.263301 0.133537 0.270143 0.091100 -0.106474 0.138143 -0.228158 -0.082532 -0.345943 0.026943 0.168663 -0.081995 -0.111968 0.153974 -0.475033 0.434733 0.230540 0.196781 0.028330 0.161685 -0.185208 0.212947 -0.031717 0.151597 -0.433757 0.054327 0.110519 0.394573 0.254334 0.075170 0.243863 -0.008051 -0.201448 -0.396542 -0.022284 0.302710 0.217012 0.246177 0.022994 -0.242478 0.107800 -0.148983 -0.517069 -0.089228 0.194873 -0.340294 -0.285961 -0.136695 0.535295 -0.186015 -0.027888 -0.046031 -0.022019 -0.342596 -0.061631 0.004803 0.456726 -0.115637 -0.046496
little 0.299448 0.086066 0.262184 0.107055 0.158609 -0.388252 -0.209734 0.667662 0.180301 0.456711 0.265759 -0.181538 0.357658 -0.343974 0.325606 0.311957 0.033831 0.181726 -0.080969 0.003315 -0.204869 -0.271700 0.192639 0.019923 -0.105759 -0.292273 0.104206 0.235177 -0.227385 -0.033928 0.065033 -0.616623 -0.005239 0.155036 0.370582 -0.240414 0.046818 -0.089711 0.205572 -0.027034 -0.038174 -0.116407 -0.206540 -0.014007 -0.046458 0.265340 -0.108817 -0.304734 -0.111870 -0.487743 0.125019 0.154365 -0.147690 -0.078807 0.278423 -0.180074 0.092151 0.263876 0.037292 -0.192292 -0.074658 -0.288352 0.273962 -0.041591 0.111361 -0.073381 -0.041314 0.111949 0.192436 0.375013 0.094626 0.274192 -0.289879 0.012118 -0.342991 -0.336692 0.395583 0.023044 0.106344 -0.030602 -0.230347 0.292999 -0.084173 -0.476180 0.119983 0.117525 -0.175183 -0.301581 0.012064 0.625897 -0.344471 0.053049 0.071759 -0.028003 -0.221132 -0.066892 -0.054075 0.375021 -0.229834 -0.099429
did 0.622008 -0.437112 0.015220 -0.111267 -0.043705 -0.379543 -0.251397 0.785026 0.351279 0.570203 0.377172 -0.029349 0.360244 -0.468822 0.542289 0.154331 -0.069457 0.197961 -0.203238 -0.357160 -0.403006 -0.149440 0.215197 0.037533 -0.320245 -0.386431 -0.227690 0.526587 0.123936 -0.201828 0.358291 -0.902308 -0.222270 0.464662 0.503231 -0.518180 0.230858 0.114369 0.282109 0.248158 0.013670 0.091132 0.110455 -0.170618 -0.174109 0.086920 -0.376411 -0.410438 0.038279 -0.313921 0.401734 0.194372 0.081414 0.270577 0.197782 -0.589927 -0.101658 0.233468 -0.019397 -0.682819 -0.173678 -0.336578 0.171638 -0.345575 -0.319470 0.112034 -0.097509 0.113619 0.047315 0.299340 0.332245 0.157561 -0.480937 -0.155966 -0.227433 -0.548024 0.413165 0.280333 0.063962 0.328539 -0.507048 0.020831 -0.104738 -0.713844 0.544358 0.225125 -0.200243 -0.384808 0.050954 0.639931 -0.340457 -0.024359 0.414631 -0.067477 -0.190380 0.053617 0.092608 0.415705 -0.080614 -0.089191
might 0.579756 -0.499297 0.134108 -0.506033 -0.253380 -0.465295 -0.431481 0.744639 0.225984 0.756947 0.881273 0.243067 0.104272 -0.061489 0.536047 0.239373 0.042130 0.461407 -0.250248 -0.506721 -0.409833 -0.025504 0.177595 0.145387 -0.203368 -0.275863 -0.160531 0.566976 0.143681 -0.459237 0.493818 -0.932375 -0.394071 0.676303 0.772996 -0.247275 0.598784 0.301445 0.666437 0.134127 -0.167497 -0.236775 0.413741 -0.221817 -0.199093 0.037049 -0.280932 -0.485252 0.020113 -0.294003 0.480202 0.284395 0.157878 0.269587 -0.079912 -0.407540 -0.222823 0.215582 0.128443 -0.675773 -0.268812 -0.470612 0.118089 -0.460742 -0.022786 0.212373 0.122075 -0.098713 0.399137 0.489366 0.489305 0.208086 -0.584702 0.091750 -0.197951 -0.514269 0.417376 0.157551 -0.142641 0.172795 -0.521768 -0.078427 0.041106 -0.803210 0.215289 0.232120 -0.044479 -0.547696 0.174950 0.865045 0.029878 -0.085638 -0.003610 0.003313 0.308145 0.095835 0.107260 0.748979 0.091125 0.119738
found 0.438066 -0.152234 0.157027 -0.139032 0.114048 -0.375975 -0.065159 0.713398 0.214793 0.509536 0.380801 -0.039550 0.225964 -0.389513 0.397990 0.148171 -0.054074 0.283170 -0.167223 -0.124788 -0.197684 -0.087406 0.191748 0.096687 -0.034629 -0.292070 -0.143884 0.345827 0.019042 -0.324487 0.272014 -0.667348 -0.197083 0.382428 0.349514 -0.190566 0.104768 0.096591 0.320233 0.164859 0.105413 -0.220799 0.149266 0.078601 -0.027196 -0.001310 -0.238434 -0.311530 -0.090893 -0.238633 0.113428 0.224975 -0.037058 0.111550 0.071692 -0.465123 -0.003481 0.178961 0.144105 -0.335575 -0.070439 -0.381217 0.106474 -0.219852 -0.079330 0.045136 -0.040934 0.037884 0.189272 0.308675 0.240092 0.171052 -0.184303 -0.131413 -0.256486 -0.310879 0.348731 0.225213 0.060236 0.100345 -0.323784 0.113515 -0.056009 -0.547288 0.236343 0.230839 -0.141455 -0.321524 0.029969 0.622116 -0.232800 -0.042339 0.098996 -0.105844 -0.104641 0.078202 0.038474 0.388245 -0.147642 -0.022196
however 0.374300 -0.080860 0.135677 -0.117104 0.088856 -0.366084 -0.096499 0.823643 0.223827 0.494368 0.410180 -0.080185 0.155574 -0.279845 0.388545 0.231866 -0.061311 0.359551 -0.126199 -0.167983 -0.225624 -0.050227 0.255398 0.127152 -0.043636 -0.292730 -0.025578 0.210631 -0.120490 -0.305492 0.211505 -0.658055 -0.195349 0.409005 0.338645 -0.200953 0.124555 0.157147 0.248700 0.047650 0.058513 -0.295924 0.042327 0.004607 -0.098333 0.111693 -0.199769 -0.343101 -0.046505 -0.348036 0.167814 0.129242 -0.035218 0.131867 0.052657 -0.342793 0.018985 0.266421 0.145041 -0.385827 -0.068682 -0.319627 0.082046 -0.210644 0.021803 0.127623 -0.045775 0.020069 0.170940 0.365885 0.221578 0.215250 -0.178969 -0.063147 -0.317482 -0.258476 0.393979 0.163263 -0.019391 0.058570 -0.311237 0.163138 -0.020360 -0.536786 0.225127 0.196809 -0.161897 -0.261315 0.120134 0.628628 -0.268477 0.037582 0.036632 -0.033114 -0.002092 0.115203 0.083202 0.528502 -0.201866 -0.030898
