1515 100
the 0.082009 0.304259 0.087638 -0.008285 0.186437 -0.474249 -0.064948 0.507680 -0.345458 0.240424 -0.083420 0.313355 0.053885 -0.315926 -0.119501 -0.331958 -0.045374 -0.161074 -0.196778 0.313238 -0.370912 0.240404 0.827291 -0.046609 0.258355 0.306851 0.031475 0.018997 -0.228578 -0.238801 -0.021210 -0.482712 0.317707 0.412947 0.225923 0.471991 0.134651 -0.697367 0.190833 -0.054364 0.514409 -0.549994 -0.240966 0.464146 0.063973 0.225622 -0.003628 -0.300841 -0.386055 -0.117363 -0.085440 0.704848 0.070116 -0.279481 -0.017947 -0.693523 0.404189 -0.375913 0.027732 0.481397 0.121788 -0.209059 -0.226264 -0.291146 0.251321 -0.070227 0.112465 0.443102 0.463098 0.681560 0.190909 0.363749 0.199951 -0.347033 -0.689782 0.294320 -0.125467 0.123128 0.248450 -0.490939 -0.416418 0.747904 0.112099 0.001663 -0.308397 0.527102 0.154534 -0.217334 -0.301515 0.385794 -0.366206 0.256187 -0.117888 -0.006787 -0.691415 -0.221515 -0.617979 0.076902 -0.279407 0.285644
and 0.325001 0.115167 0.266985 -0.222829 0.173280 -0.452528 -0.227855 0.340254 -0.041847 0.348398 0.003669 -0.069120 0.312184 -0.351524 0.321627 -0.025525 -0.055480 -0.201495 -0.393120 0.071545 -0.357856 -0.027321 0.411670 0.022309 0.129344 -0.270117 0.116101 0.392430 0.063996 -0.335175 0.210575 -0.566880 0.068893 0.170753 0.049498 -0.173138 0.195067 -0.013781 0.237751 0.276443 0.281037 -0.411924 -0.293124 0.094784 0.127768 0.012386 -0.104425 -0.197187 -0.131862 -0.319112 -0.107938 0.175686 -0.002751 0.026816 0.062484 -0.340393 0.061188 0.285656 0.152711 0.031134 0.048048 -0.060944 -0.069931 0.152505 -0.055720 -0.069912 -0.046059 0.067046 0.225215 0.170603 0.032695 0.278513 -0.045775 -0.421175 -0.454473 -0.321918 0.053733 0.341723 0.120993 -0.198256 -0.306621 0.311059 0.027058 -0.104968 -0.184736 0.055951 -0.056813 -0.200170 -0.105994 0.539212 -0.224546 -0.001627 -0.035453 0.053311 -0.523591 -0.068680 -0.197967 0.133049 0.038236 -0.030714
i 0.516300 -0.358653 0.173579 -0.095802 0.237985 -0.477359 -0.257819 0.989323 0.687919 0.584925 0.195919 -0.241932 -0.110640 -0.267563 0.636201 0.458872 -0.045481 0.394350 -0.061600 -0.118979 -0.599703 -0.058556 0.365366 0.334575 -0.176395 -0.389223 0.235464 0.374217 -0.264466 -1.007156 -0.293665 -0.557523 -0.519851 0.411205 0.166365 -0.364355 -0.144937 0.757493 0.547326 0.447105 -0.221644 -0.289197 -0.152030 0.027476 -0.067502 -0.391190 0.107574 0.046866 -0.003347 -0.607156 0.157617 -0.164024 -0.362318 0.338893 0.004532 -0.415227 -0.122914 1.001494 0.294501 -0.798950 -0.397632 -0.239388 0.280506 0.143897 -0.591491 0.712521 -0.523695 -0.343284 0.159229 0.109957 -0.014207 -0.055779 0.106745 -0.035727 -0.245060 -0.014946 0.670522 0.396958 -0.089443 -0.047856 -0.218254 -0.009888 0.503211 -0.770069 -0.166148 -0.217439 -0.235660 -0.045880 0.393598 0.835287 -0.361296 0.135174 -0.396717 0.364098 0.054016 0.236230 0.236299 0.817945 0.109050 -0.736223
a -0.088454 0.265159 0.059295 -0.032157 0.097164 -0.573645 -0.195983 0.745159 0.090487 0.280894 0.132337 0.047987 0.074533 -0.039155 0.152892 0.101590 -0.084494 0.220135 -0.054476 -0.131670 -0.360143 0.125615 0.479417 -0.029514 -0.014824 0.043652 0.338566 0.335547 -0.213266 -0.285905 -0.123484 -0.221731 -0.009931 0.260158 -0.105078 -0.032593 0.063946 -0.137288 0.203867 0.030213 0.149050 -0.344205 -0.464047 0.206093 0.091908 0.090584 0.089520 -0.324772 -0.165846 -0.349184 -0.088899 0.271071 -0.181877 -0.052268 -0.032107 -0.354031 0.177468 0.281202 0.326746 -0.056415 -0.139015 -0.147615 -0.178483 0.085860 0.093773 -0.023439 -0.116254 0.087145 0.307949 0.229701 0.005179 0.247087 0.102309 0.136082 -0.539385 0.012076 -0.053263 0.125222 0.293212 -0.331053 -0.221430 0.303615 -0.019157 -0.239033 -0.016187 0.230840 0.030090 -0.019325 -0.178750 0.683532 -0.360686 -0.178277 -0.173089 0.232291 -0.308596 -0.003552 -0.232341 0.323273 -0.434904 -0.087622
of 0.316175 0.418974 0.516862 -0.148459 0.266758 -0.174067 -0.159701 0.520554 -0.396926 0.262691 -0.040340 0.078322 0.289185 -0.266759 0.123485 0.006646 -0.205461 -0.178443 0.030603 0.302185 -0.200606 -0.263671 0.429121 0.005327 0.180430 -0.369642 -0.022774 0.228509 0.436577 0.149353 0.508275 -0.459221 -0.103415 -0.320216 -0.080246 0.058391 -0.017582 -0.493428 -0.075971 -0.219032 0.097864 -0.251232 -0.575995 0.032357 0.304039 0.177430 -0.136066 -0.389024 0.010160 -0.196652 -0.268761 0.348027 0.147977 -0.303594 0.129153 -0.161234 0.111975 0.121521 0.197350 0.293780 0.407980 -0.098844 -0.187605 -0.112178 0.170634 -0.706872 0.081400 0.531694 0.098783 0.247270 -0.013658 0.425215 0.081980 -0.378828 -0.647096 -0.565242 -0.071773 0.142518 0.169031 -0.479672 -0.170774 0.386841 -0.441733 0.118929 -0.017768 0.283390 -0.138821 -0.347979 -0.274605 0.389999 -0.416372 -0.111614 0.306927 -0.069199 -0.538959 -0.216531 -0.493173 0.087114 -0.404745 0.031408
to 0.321125 -0.038234 0.161204 -0.338414 0.138435 -0.372550 -0.554920 0.614043 0.043965 0.374495 0.250395 -0.182917 0.133226 -0.002728 0.648672 0.166480 0.001084 0.224796 -0.179335 -0.032326 -0.427969 -0.108990 0.353178 0.332099 -0.192060 -0.531871 0.255898 0.486036 0.163742 -0.483804 0.330108 -0.354846 -0.186682 0.340109 0.043671 -0.195656 0.127257 0.384911 0.483973 0.389055 -0.121127 -0.157509 -0.096273 -0.014832 0.201922 -0.182860 -0.065302 -0.040156 -0.001749 -0.207688 -0.088274 -0.054661 -0.193736 0.296845 -0.080064 -0.093406 -0.141604 0.386427 0.406061 -0.389712 -0.033918 -0.226187 0.200575 0.153081 -0.311257 0.051023 -0.168525 -0.062431 0.204535 -0.015846 -0.293250 0.280145 -0.090455 -0.137043 -0.248826 -0.399038 0.387290 0.241593 0.023390 0.009653 -0.375180 -0.005443 0.052455 -0.473002 0.102081 -0.177510 -0.138387 -0.346942 0.105217 0.597858 -0.180115 -0.092479 0.038283 0.247359 -0.169888 0.279567 -0.170156 0.287700 0.071845 -0.239859
was 0.218022 -0.012390 0.206306 -0.069954 0.417553 -0.409261 -0.203690 0.485398 0.077383 0.522760 0.064260 -0.295422 0.575218 -0.320708 0.123188 0.201006 -0.320297 -0.187789 -0.596637 0.116119 -0.202852 -0.494104 0.358947 -0.118117 -0.034115 -0.097787 0.201406 0.442512 0.084439 -0.047069 0.225895 -0.470968 0.103007 0.280794 0.334024 -0.330231 0.023989 -0.080549 0.323216 0.411357 0.479295 -0.156902 -0.690287 -0.023854 0.198204 0.056280 0.115999 -0.267674 -0.194018 -0.481570 0.021941 0.297202 -0.285410 0.035016 0.158617 -0.417056 0.176293 0.511697 0.071111 -0.209789 -0.046669 0.257964 0.251789 0.212760 -0.062669 0.004031 -0.107552 0.011302 0.331950 0.019252 0.325200 0.389780 -0.074081 -0.416004 -0.233975 -0.306867 0.135256 0.408218 -0.003392 -0.045263 -0.353632 0.423323 0.023729 -0.450161 0.040206 0.018727 -0.207261 -0.117992 -0.110112 0.212252 -0.289559 0.043347 -0.284510 0.038157 -0.748832 -0.275008 0.041731 -0.146447 -0.232495 -0.432590
you 0.090731 -0.425107 0.129082 -0.198139 0.171063 -0.695812 -0.099956 1.912674 0.921093 0.404264 0.305442 -0.576337 -0.600608 -0.020216 1.057540 0.638433 -0.090572 0.644581 0.443307 -0.278641 -1.257272 -0.200201 0.587326 1.125449 -0.593397 -0.646954 0.121740 0.677234 -0.307395 -1.257446 -0.262016 -0.234417 -0.982614 0.679743 0.020834 -0.147296 -1.083050 1.172620 0.399316 0.127192 -0.668399 -0.313640 -0.634678 -0.274686 -0.257876 -0.860919 -0.083227 -0.138572 -0.073219 -0.401873 -0.227743 -0.647877 -0.466194 0.653776 -0.233764 -0.814005 -0.434782 0.672901 0.574438 -1.105590 -0.865297 -0.099050 0.289254 0.245446 -0.460316 1.005663 -0.880857 -0.289894 0.070577 -0.369377 -1.094436 0.105334 0.187914 0.388594 -0.002760 0.018140 0.950673 -0.009111 0.093259 -0.084211 -0.443275 0.087864 0.465414 -1.381470 0.556499 -0.283938 -0.418252 -0.314601 0.420519 0.637227 -0.439355 0.275219 -0.026683 0.726599 0.390307 0.629329 0.136826 1.099949 -0.039545 -1.031118
in 0.350621 0.299387 0.412242 -0.189515 0.184132 -0.300186 -0.231982 0.367831 -0.352259 0.274771 -0.038257 0.055447 0.304167 -0.355556 0.202670 -0.126154 -0.106697 -0.155236 -0.141797 0.259249 -0.169453 -0.049666 0.396894 -0.072147 0.239939 -0.324222 0.061198 0.270639 0.314698 -0.061615 0.387293 -0.548342 0.096250 -0.108667 -0.000896 -0.017300 0.223935 -0.360835 0.053341 0.022540 0.242729 -0.313760 -0.282528 0.177725 0.327288 0.159858 -0.204221 -0.293864 -0.038672 -0.197108 -0.200767 0.347702 0.144167 -0.162053 0.079001 -0.174399 0.049807 0.102632 0.190625 0.277809 0.395789 -0.154151 -0.227989 -0.125896 0.051423 -0.559422 0.099380 0.355907 0.133345 0.242393 0.093894 0.338895 0.014246 -0.433363 -0.663566 -0.479836 -0.049848 0.224305 0.136141 -0.359518 -0.183850 0.265615 -0.251275 0.153606 -0.290931 0.256451 -0.006874 -0.221080 -0.234097 0.518811 -0.316032 -0.075271 0.151491 -0.084285 -0.557283 -0.192405 -0.504144 0.077559 -0.207805 0.068242
he 0.427244 -0.422455 0.194740 -0.131869 0.102631 -0.444250 0.076743 0.782994 0.483714 0.659303 0.108475 -0.389001 -0.030596 -0.594160 0.452868 0.161273 0.000654 0.263817 0.065193 0.304363 -0.442948 -0.180038 0.071297 0.294001 0.136093 -0.001301 0.128952 0.378682 -0.301546 -0.899750 -0.374019 -0.751380 -0.258075 0.133035 0.505663 -0.149738 -0.323659 0.345848 0.542436 0.293748 -0.060403 -0.377659 -0.145119 0.299773 0.043239 -0.391374 0.014351 0.131203 -0.128242 -0.252418 0.082804 0.128117 -0.309026 0.223914 -0.024854 -0.731810 0.010546 0.481935 0.126326 -0.398657 -0.276230 -0.111366 0.105229 -0.112428 -0.506660 0.552596 -0.269889 -0.276672 0.003021 0.079835 0.122146 -0.021710 0.106514 -0.281477 -0.145239 0.039158 0.396874 0.353639 -0.247245 -0.055798 -0.166005 0.358352 0.507846 -0.499809 -0.349486 0.099300 -0.168875 0.127437 0.237909 0.550110 -0.222714 0.373194 -0.434708 0.234803 -0.256460 -0.090517 -0.020734 0.488267 0.081117 -0.510770
that 0.240217 -0.197820 0.103376 -0.133099 0.147305 -0.398595 -0.165061 0.810249 0.289514 0.537026 0.171767 -0.360176 0.118582 -0.244580 0.438666 0.289116 -0.112348 0.288471 -0.025677 0.137396 -0.522948 -0.247060 0.286700 0.344193 -0.166516 -0.211706 0.199258 0.412379 -0.095841 -0.529977 -0.049538 -0.470415 -0.229791 0.260564 0.315494 -0.176819 -0.246380 0.282809 0.450085 0.220700 -0.023621 -0.233454 -0.367247 0.104259 0.095835 -0.272014 0.055267 -0.071845 -0.048379 -0.281867 -0.019463 0.129299 -0.227076 0.180695 -0.046391 -0.431552 0.008812 0.472570 0.242568 -0.391538 -0.159343 -0.020398 0.249808 0.005141 -0.275717 0.295362 -0.338127 -0.125626 0.089988 0.066069 -0.045900 0.128626 -0.020043 -0.137387 -0.094223 -0.119827 0.344629 0.298067 -0.209110 -0.043017 -0.198624 0.240019 0.215027 -0.477775 0.101171 0.041004 -0.159285 -0.101008 0.143403 0.421539 -0.243918 0.146883 -0.256611 0.211244 -0.262071 -0.022724 -0.041671 0.322400 -0.019998 -0.417017
it 0.250914 -0.069494 0.026982 -0.078146 0.203027 -0.469050 -0.247891 0.915980 0.382396 0.525417 0.235743 -0.332081 -0.015740 -0.163193 0.376844 0.362830 -0.149191 0.437992 0.141550 0.001005 -0.544643 -0.207112 0.283224 0.282031 -0.290370 -0.201005 0.301138 0.335001 -0.107071 -0.490098 -0.073241 -0.339982 -0.285553 0.334830 0.235394 -0.264871 -0.324359 0.380004 0.473306 0.327120 -0.055674 -0.147166 -0.333747 0.149227 0.051414 -0.184263 0.109343 0.017827 -0.057217 -0.315184 0.045447 0.142831 -0.313202 0.214861 -0.003784 -0.326439 0.036253 0.584678 0.356315 -0.566037 -0.135752 -0.083476 0.272803 0.044321 -0.353191 0.378334 -0.391902 -0.110189 0.117758 0.073276 -0.037383 0.064407 0.111310 -0.019513 -0.166462 -0.043439 0.369949 0.344186 -0.074554 0.026051 -0.158063 0.181714 0.199409 -0.519280 0.210812 0.051800 -0.189486 -0.007198 0.193305 0.548076 -0.313273 0.042980 -0.253801 0.230574 -0.099852 0.090470 0.090076 0.364298 -0.241070 -0.559034
had 0.331391 -0.118306 0.070836 -0.373106 0.180030 -0.346836 -0.531650 0.232171 -0.179118 0.659322 0.248553 -0.227714 0.674352 -0.260062 0.269405 0.047237 -0.310419 -0.142567 -0.791572 0.200514 -0.148586 -0.108478 0.143264 -0.196398 0.226496 -0.168799 0.382392 0.648280 0.165046 -0.232015 0.423416 -0.688726 0.311356 0.360956 0.389433 -0.174879 0.691392 -0.124368 0.493420 0.528614 0.661055 -0.283097 -0.383815 -0.024806 0.249228 0.225596 0.002675 -0.225332 -0.110362 -0.341969 0.109824 0.426497 -0.107694 0.054617 -0.078562 -0.345012 0.118377 0.352718 0.094630 -0.091100 0.007150 0.093302 0.160198 0.162615 0.015330 -0.185680 0.085045 0.037696 0.507939 0.090488 0.355347 0.465020 -0.453837 -0.666792 -0.345800 -0.497132 0.025566 0.467199 -0.212147 -0.016370 -0.378168 0.102592 0.038901 -0.409401 -0.250773 0.121573 -0.047120 -0.340865 -0.126086 0.370499 -0.092575 -0.032952 -0.321763 0.139426 -0.866351 -0.353191 -0.273095 -0.169254 0.206127 -0.050377
with 0.237818 0.221237 0.414596 -0.194827 0.138282 -0.318312 -0.127346 0.492342 -0.214446 0.184702 -0.075668 -0.023259 0.187960 -0.367245 0.246443 -0.146778 -0.042579 -0.153355 -0.023175 0.260606 -0.276694 -0.115923 0.436526 0.107885 0.127342 -0.304123 0.063547 0.363481 0.246242 -0.136477 0.327708 -0.492176 -0.003907 -0.126145 0.021084 -0.015890 -0.060418 -0.226752 0.008635 0.000655 0.139761 -0.287093 -0.322936 0.160555 0.235060 -0.002004 -0.237983 -0.298988 -0.078308 -0.113563 -0.320444 0.203943 0.057390 -0.064355 0.052000 -0.352770 0.031748 -0.000798 0.191496 0.202572 0.232120 -0.108240 -0.249688 -0.080008 0.009841 -0.403802 0.081655 0.277289 0.025658 0.117334 -0.118119 0.330419 0.057407 -0.364650 -0.568331 -0.438002 -0.023301 0.105975 0.149235 -0.303036 -0.184138 0.344141 -0.152946 0.018666 -0.178378 0.196487 -0.049204 -0.165546 -0.303153 0.393306 -0.283180 -0.028601 0.209013 -0.008595 -0.508683 -0.138074 -0.508750 0.070251 -0.197305 0.008306
his 0.335162 0.409681 0.322815 -0.238399 0.075726 -0.781942 -0.095353 0.166921 -0.246284 0.293674 -0.111108 0.151305 0.393012 -0.761203 0.126999 -0.485770 0.024020 -0.202870 -0.538683 0.157881 -0.100137 0.395105 0.499798 -0.462262 0.613397 0.014164 0.227873 0.294255 -0.072285 -0.468352 -0.031096 -0.909337 0.539479 0.254687 0.128938 -0.061687 0.646593 -0.393289 0.282226 0.412821 0.712184 -0.661866 -0.083616 0.596717 0.340396 0.192380 -0.229090 -0.172484 -0.241559 -0.335129 -0.097598 0.582725 0.049916 -0.024487 0.041673 -0.603090 0.172894 0.005536 0.151274 0.532149 0.249452 -0.224085 -0.535282 -0.035987 -0.090826 -0.199340 0.251086 0.074549 0.352786 0.405039 0.444586 0.256207 -0.024938 -0.542118 -1.007980 -0.227242 -0.329101 0.340447 0.285863 -0.388020 -0.268875 0.516215 0.149382 0.385820 -0.911337 0.369551 0.293679 0.214713 -0.422329 0.940720 -0.228668 0.051826 -0.258542 -0.074102 -0.816750 -0.388738 -0.515875 0.066825 -0.084018 0.252184
as 0.363147 -0.155516 0.034122 -0.237171 0.172797 -0.570705 -0.376004 0.519103 0.235378 0.584300 0.276972 -0.378022 0.309851 -0.298762 0.358545 0.212443 -0.219857 0.237370 -0.398205 -0.037532 -0.319986 -0.154363 0.047855 0.009830 0.031030 -0.187575 0.288283 0.544842 0.025506 -0.462758 0.231548 -0.542183 -0.062600 0.338941 0.261276 -0.320675 0.161042 0.282147 0.556744 0.489648 0.176202 -0.199207 -0.398400 0.094347 0.120966 0.080345 0.032792 -0.043670 -0.084866 -0.293487 0.178500 0.177302 -0.296393 0.273970 -0.053229 -0.363236 -0.022006 0.673740 0.332316 -0.611137 -0.129049 0.060284 0.176408 0.204858 -0.370778 0.245023 -0.184377 -0.122612 0.226284 0.022928 0.230408 0.253579 -0.140937 -0.330904 -0.254138 -0.297775 0.279471 0.602761 -0.066112 0.126817 -0.288074 0.097066 0.237102 -0.497018 0.026413 0.056492 -0.139230 0.069611 0.140771 0.554469 -0.264484 -0.035823 -0.320412 0.170608 -0.359663 -0.064441 0.099151 0.163700 0.015155 -0.437216
my 0.176990 0.016576 0.100450 -0.111979 0.125301 -0.545752 -0.253680 0.480042 0.071505 0.321863 -0.010634 -0.052042 0.187267 -0.277434 0.379375 -0.094738 0.006718 0.050780 -0.350855 0.022734 -0.335152 0.129053 0.490567 -0.023661 0.017411 -0.152324 0.278581 0.370516 -0.168305 -0.546244 -0.031649 -0.498363 0.147121 0.446414 0.120181 -0.140413 0.195096 0.087601 0.260961 0.370256 0.389980 -0.437133 -0.182010 0.255854 0.082756 -0.090094 -0.053489 -0.172032 -0.214105 -0.401970 -0.045819 0.201750 -0.131129 0.158651 0.033090 -0.453295 0.080936 0.301367 0.147694 -0.073314 -0.041501 -0.120535 -0.102334 0.082690 -0.164613 0.166636 -0.142346 -0.102193 0.222831 0.161617 0.039256 0.162916 0.023373 -0.206218 -0.483445 -0.073181 0.057357 0.258155 0.052905 -0.102067 -0.347338 0.290885 0.238365 -0.170438 -0.311478 0.010162 0.059632 -0.085783 -0.114519 0.600201 -0.256109 0.074663 -0.207909 0.119908 -0.438970 0.096617 -0.252886 0.226651 -0.018074 -0.072458
s 0.021840 -0.409800 0.391651 -0.001358 0.327455 -0.353514 0.391760 1.121202 0.394309 0.428157 -0.021520 -0.545917 0.069839 -0.457317 0.326489 0.308048 -0.001597 -0.178485 0.073970 0.418128 -0.567603 -0.676165 0.429057 0.683937 -0.128740 0.048634 -0.053604 0.463987 -0.045138 -0.466742 -0.215492 -0.384602 -0.299350 0.169034 0.546067 -0.000348 -1.041783 0.268447 0.161572 -0.086493 -0.058980 -0.119108 -0.786246 -0.057611 -0.022926 -0.650533 -0.127725 -0.172934 -0.267660 -0.155482 -0.307523 -0.012832 -0.344753 0.135005 -0.035475 -1.063514 0.055350 0.007527 0.094753 -0.271074 -0.576359 0.355778 0.195805 -0.021418 -0.037891 0.463791 -0.396273 -0.046191 0.005378 -0.199219 -0.379191 0.370578 0.082428 -0.138978 0.146481 -0.103521 0.432449 -0.091300 -0.080040 -0.120432 -0.353730 0.773241 0.338506 -0.844884 0.211936 -0.064824 -0.346009 -0.153205 -0.061697 -0.165529 -0.209596 0.494009 -0.163613 0.286430 -0.514228 -0.210071 -0.149579 0.205705 -0.102638 -0.604421
for 0.272265 -0.030478 0.240434 -0.162694 0.212262 -0.300452 -0.210340 0.675168 0.102637 0.396432 0.088942 -0.247119 0.168234 -0.167353 0.383482 0.171337 -0.115756 0.065146 -0.104150 0.105351 -0.388662 -0.273775 0.311458 0.274570 -0.113092 -0.314457 0.120629 0.411077 0.129578 -0.296380 0.226156 -0.356021 -0.200088 0.136690 0.151377 -0.168647 -0.179153 0.135729 0.236049 0.141534 0.063807 -0.188254 -0.433688 -0.049039 0.115464 -0.138146 -0.051169 -0.176378 -0.059277 -0.264997 -0.096807 0.061130 -0.120557 0.113495 0.011159 -0.296678 0.018854 0.347978 0.228946 -0.249422 -0.048288 0.038898 0.108304 0.073427 -0.122966 0.017595 -0.214366 0.073681 0.085366 -0.012022 -0.129789 0.287037 0.013971 -0.263158 -0.215821 -0.313668 0.257897 0.245943 -0.014442 -0.086474 -0.245696 0.233664 0.008946 -0.394032 0.119488 0.030477 -0.172870 -0.207842 -0.010449 0.339664 -0.277272 0.046504 0.007681 0.135154 -0.337622 0.003316 -0.127855 0.184165 -0.089373 -0.339101
on 0.354212 0.274377 0.414024 -0.260854 0.179831 -0.395175 -0.119441 0.283846 -0.291478 0.272421 -0.041235 0.034623 0.365433 -0.527594 0.181940 -0.178905 -0.006481 -0.280755 -0.210431 0.293945 -0.179799 -0.040622 0.421826 -0.058271 0.379567 -0.298097 0.031498 0.271064 0.284551 -0.111878 0.319298 -0.705643 0.159481 -0.052098 0.080713 -0.044538 0.181333 -0.340165 0.103402 0.086009 0.275632 -0.391630 -0.298910 0.226203 0.292981 0.076901 -0.189310 -0.255445 -0.065813 -0.192532 -0.240727 0.408240 0.103226 -0.128991 0.109492 -0.362519 0.058122 0.023236 0.149651 0.365935 0.308263 -0.080089 -0.237504 -0.065463 -0.001060 -0.421622 0.122983 0.287274 0.139098 0.234601 0.148116 0.299999 0.012358 -0.570123 -0.605218 -0.455967 -0.097460 0.269790 0.097722 -0.335824 -0.214461 0.418188 -0.128998 0.235531 -0.333440 0.265638 0.043221 -0.134708 -0.233970 0.552657 -0.272141 0.060255 0.080375 -0.093096 -0.674050 -0.225791 -0.465164 0.056708 -0.075198 0.114534
we 0.586134 -0.071341 0.087537 -0.166481 0.191793 -0.457526 -0.425841 0.680687 0.261910 0.498919 0.293454 -0.053740 0.002757 -0.086004 0.513555 0.292717 -0.094824 0.396212 -0.204189 -0.155844 -0.508013 0.113728 0.337197 0.146848 -0.000865 -0.465969 0.134102 0.209008 -0.180710 -0.697536 0.068405 -0.556402 -0.369593 0.326013 0.006811 -0.120870 0.299654 0.345185 0.475090 0.310465 -0.129072 -0.475924 -0.108530 -0.000430 -0.010458 -0.019071 0.085385 -0.039137 0.033173 -0.444659 0.240400 -0.018065 -0.107212 0.141113 -0.064184 -0.102379 -0.121674 0.797684 0.269653 -0.526499 -0.061987 -0.296276 0.258281 0.135627 -0.335118 0.263460 -0.294753 -0.054361 0.287074 0.234447 0.016413 0.024508 0.050993 -0.174016 -0.406116 -0.118481 0.543855 0.476742 -0.004981 -0.179424 -0.356523 -0.116339 0.192828 -0.394288 -0.132292 -0.011859 -0.082766 -0.295958 0.373769 0.833526 -0.427406 0.039883 -0.238222 0.236427 0.046804 0.223915 0.148431 0.658687 0.105669 -0.271897
but 0.227838 -0.054141 0.174059 -0.111612 0.262161 -0.361657 -0.156771 0.717151 0.198481 0.465562 0.172336 -0.263960 0.216062 -0.166965 0.316390 0.298436 -0.175403 0.085827 -0.161681 0.085266 -0.405068 -0.332865 0.303350 0.200675 -0.141303 -0.226717 0.180484 0.403970 0.039253 -0.268021 0.075145 -0.378196 -0.203640 0.236108 0.224869 -0.214802 -0.173397 0.160068 0.356202 0.231813 0.066101 -0.171018 -0.497805 -0.047281 0.124666 -0.139315 0.090026 -0.125011 -0.095432 -0.334485 -0.007314 0.154821 -0.233488 0.097626 0.017290 -0.334189 0.045072 0.462450 0.212298 -0.338566 -0.136113 0.059864 0.300397 0.099905 -0.105288 0.127143 -0.264935 -0.031304 0.187212 -0.003605 -0.014505 0.246703 0.017936 -0.190448 -0.133661 -0.212633 0.293340 0.276479 -0.056431 -0.090794 -0.254027 0.274764 0.059342 -0.489013 0.190475 0.044389 -0.214590 -0.168034 0.064798 0.325780 -0.280595 0.074522 -0.167267 0.153291 -0.358040 -0.031291 0.033089 0.178102 -0.167047 -0.423973
at 0.492701 0.325807 0.432271 -0.222539 0.212389 -0.251278 -0.296816 0.197790 -0.396576 0.353799 -0.091330 0.167145 0.454768 -0.397449 0.148237 -0.198334 -0.050762 -0.235537 -0.320118 0.372011 -0.134427 -0.056634 0.529516 -0.227077 0.352230 -0.303781 0.056415 0.241269 0.285878 -0.103914 0.410519 -0.724214 0.181028 -0.081942 0.153442 0.050638 0.414528 -0.588700 0.119488 0.059799 0.368345 -0.514025 -0.180258 0.274122 0.415536 0.250338 -0.035077 -0.330728 -0.085857 -0.244528 -0.111671 0.580332 0.170553 -0.282010 0.183514 -0.272419 0.221435 0.133670 0.094491 0.377627 0.574576 -0.208592 -0.120862 -0.245925 0.078185 -0.570671 0.235737 0.393795 0.168940 0.433358 0.360056 0.294717 0.119190 -0.695409 -0.760477 -0.408399 -0.025796 0.349618 0.014393 -0.415790 -0.303317 0.383584 -0.209393 0.312997 -0.457745 0.402763 -0.021072 -0.262263 -0.248448 0.616847 -0.407483 0.096170 0.058840 -0.175100 -0.783740 -0.232933 -0.555492 0.092320 -0.277264 0.236994
me 0.236525 -0.069542 0.151069 -0.151136 0.167915 -0.422706 -0.144174 0.714645 0.243712 0.362001 0.050773 -0.179009 0.007400 -0.254444 0.461688 0.178749 -0.025378 0.066076 -0.129594 -0.028304 -0.472560 -0.062387 0.417440 0.248122 -0.112371 -0.282456 0.095365 0.359709 -0.087568 -0.545008 -0.057201 -0.388093 -0.186167 0.334629 0.154936 -0.194498 -0.130059 0.280437 0.260125 0.253401 0.078526 -0.383969 -0.297024 0.045867 0.001710 -0.209601 -0.013612 -0.131566 -0.163469 -0.329115 -0.081446 -0.035543 -0.186042 0.240240 0.021489 -0.444955 -0.018392 0.394535 0.174206 -0.281908 -0.185664 -0.050401 0.067345 0.080897 -0.145822 0.300951 -0.241352 -0.098024 0.098299 -0.009272 -0.184653 0.142676 0.075814 -0.178574 -0.268355 -0.055835 0.283673 0.172463 0.052688 -0.072113 -0.315783 0.227681 0.247917 -0.418231 -0.039709 -0.034549 -0.121821 -0.186206 0.070841 0.437634 -0.275734 0.114828 -0.152644 0.187177 -0.232198 0.101264 -0.055847 0.305999 -0.014234 -0.335342
all 0.348097 0.077159 0.174452 -0.165854 0.162464 -0.337890 -0.244036 0.534397 -0.061983 0.312975 0.072533 -0.089560 0.116196 -0.227724 0.275102 0.064462 -0.115894 0.113923 -0.104701 0.070173 -0.326598 -0.075283 0.392409 0.096685 0.017845 -0.323707 0.124721 0.251212 0.078077 -0.240401 0.172495 -0.480250 -0.073096 0.159224 0.110565 -0.089937 0.079254 -0.042755 0.230955 0.148043 0.175226 -0.335016 -0.269829 0.090348 0.107196 -0.011835 -0.024096 -0.133705 -0.070336 -0.228464 -0.037819 0.238997 -0.005457 0.044936 0.024309 -0.222483 0.050187 0.288745 0.207310 -0.067759 0.159104 -0.110409 0.073087 -0.043011 -0.055583 -0.046849 -0.107158 0.105875 0.116653 0.177346 -0.002773 0.215173 0.081967 -0.294955 -0.396830 -0.179738 0.204803 0.310640 0.000630 -0.206429 -0.242254 0.165820 0.011130 -0.150075 -0.022409 0.165206 -0.043252 -0.203740 0.018042 0.434376 -0.320066 0.028561 -0.005891 0.084295 -0.296516 0.006664 -0.206030 0.218894 -0.088633 -0.097593
not 0.276953 -0.276283 0.068206 -0.181589 0.240886 -0.452173 -0.383068 1.041339 0.387094 0.615785 0.351892 -0.466910 0.136720 -0.010761 0.571774 0.501166 -0.300083 0.432068 -0.151137 -0.018240 -0.600554 -0.378153 0.253845 0.358946 -0.349290 -0.364035 0.325230 0.518531 -0.040391 -0.538910 0.083581 -0.365190 -0.374003 0.371860 0.215291 -0.331824 -0.173892 0.525591 0.566502 0.347326 -0.046732 -0.063486 -0.562362 -0.118558 0.014442 -0.182385 0.132490 -0.121616 0.046798 -0.425725 0.052016 -0.111082 -0.400305 0.320937 -0.119921 -0.276655 -0.101051 0.817610 0.351252 -0.764398 -0.310074 0.044716 0.360893 0.244124 -0.342634 0.369331 -0.440299 -0.163470 0.198370 -0.083456 -0.094807 0.225712 -0.147658 -0.011978 -0.065236 -0.251121 0.488001 0.349142 -0.176816 0.077957 -0.314702 0.011413 0.158027 -0.852367 0.311898 -0.123178 -0.292711 -0.195449 0.235294 0.472198 -0.268939 -0.016503 -0.327162 0.338167 -0.137032 0.031386 0.179976 0.387803 -0.043486 -0.693655
this 0.048920 0.064783 0.078570 -0.075260 0.105859 -0.299898 -0.112926 1.004666 0.042058 0.166827 0.118194 -0.061688 -0.209012 0.151906 0.320541 0.041160 -0.129517 0.357502 0.372811 0.165963 -0.534079 -0.102403 0.578058 0.371361 -0.242486 -0.221359 0.114206 0.256134 -0.001166 -0.277819 0.009693 -0.106247 -0.275197 0.295068 0.063042 0.183899 -0.372198 -0.088376 0.086947 -0.131749 0.038476 -0.229709 -0.374115 0.068115 0.011227 -0.127620 -0.022129 -0.193079 -0.151972 -0.045273 -0.176240 0.161739 -0.022008 0.092545 -0.064714 -0.378288 0.088895 0.001420 0.311326 -0.157864 0.112172 -0.116474 -0.007952 -0.257027 0.057720 0.037655 -0.211883 0.288773 0.014974 0.103990 -0.314106 0.220810 0.211539 0.112982 -0.380008 0.116738 0.286442 -0.018703 0.099086 -0.340890 -0.226418 0.271652 -0.060572 -0.416309 0.214773 0.277361 -0.108605 -0.252403 0.007444 0.219714 -0.356475 0.151592 0.090881 0.170194 -0.066584 0.128929 -0.381900 0.380171 -0.419658 -0.223805
by 0.221893 0.167924 0.339402 -0.150341 0.161827 -0.276709 -0.068428 0.643318 -0.112209 0.267359 -0.002647 -0.057716 0.045717 -0.221235 0.250249 0.001158 -0.042554 -0.012835 0.127941 0.258107 -0.321131 -0.140097 0.405052 0.198783 0.071487 -0.254755 0.009428 0.259597 0.267194 -0.190548 0.232951 -0.390664 -0.128114 0.019180 0.094704 0.061663 -0.196171 -0.231233 0.043680 -0.075215 0.050560 -0.274470 -0.389074 0.090292 0.178446 -0.070530 -0.120836 -0.210976 -0.068679 -0.103980 -0.162392 0.207714 0.032387 -0.078525 0.074640 -0.353425 0.049223 -0.001970 0.210168 0.116314 0.151607 -0.077878 -0.070741 -0.116642 0.054243 -0.243422 -0.062035 0.333272 0.047043 0.093224 -0.158314 0.314109 0.135550 -0.269489 -0.434006 -0.279446 0.112760 0.113951 0.102655 -0.351542 -0.245935 0.381197 -0.150680 -0.118441 -0.025426 0.264973 -0.155081 -0.284367 -0.115268 0.326544 -0.282724 0.110725 0.158578 0.031457 -0.387459 -0.064884 -0.377716 0.198697 -0.246123 -0.092059
said 0.124098 -0.774253 0.334404 -0.205002 0.236989 -0.638235 0.430360 1.342474 0.687656 0.603066 0.047755 -0.922475 -0.077376 -0.697482 0.828727 0.383039 0.115162 -0.101297 0.009157 0.482229 -0.828125 -0.768494 0.422056 1.095198 -0.204772 0.021637 -0.101487 0.839330 0.008495 -1.017559 -0.323541 -0.529603 -0.347966 0.468208 0.855118 -0.021948 -1.209564 0.637558 0.440043 0.048578 -0.152154 -0.163816 -0.718124 -0.142496 -0.056557 -0.902388 -0.244660 -0.163544 -0.251309 -0.083127 -0.307572 -0.203997 -0.559645 0.463325 -0.158468 -1.446989 -0.075570 -0.033254 0.125064 -0.567626 -0.952762 0.487891 0.289782 0.128021 -0.267744 0.996818 -0.626953 -0.308958 -0.030983 -0.351425 -0.618559 0.477999 -0.099938 -0.370508 0.461467 -0.042308 0.735326 0.077528 -0.217975 0.062248 -0.456291 0.886119 0.669797 -1.270175 0.332431 -0.123376 -0.560592 -0.092094 0.140481 -0.208220 0.016334 0.776046 -0.282595 0.347787 -0.565181 -0.147901 -0.187830 0.401897 0.318014 -0.919005
were 0.283927 0.073201 0.168297 -0.256418 0.225687 -0.401696 -0.323319 0.349868 -0.172340 0.491593 0.203341 -0.112773 0.442045 -0.209923 0.125990 0.065903 -0.222990 -0.106907 -0.573684 0.120021 -0.295181 -0.094357 0.252206 -0.118648 0.113026 -0.214782 0.146836 0.417543 0.100684 -0.107565 0.420122 -0.544382 0.130893 0.287158 0.198704 -0.100956 0.336032 -0.187590 0.348208 0.317788 0.457151 -0.357536 -0.471230 -0.046728 0.178874 0.196891 0.018780 -0.195708 -0.208786 -0.275131 0.038638 0.411476 0.036268 -0.004646 -0.013223 -0.263396 0.123719 0.286995 0.167468 -0.061670 0.121561 0.064809 0.149240 0.135902 0.067362 -0.200414 0.026650 0.191069 0.385637 0.099913 0.227184 0.394153 -0.127750 -0.593101 -0.416501 -0.359771 0.084791 0.464517 0.051988 -0.159374 -0.385899 0.248596 -0.064504 -0.241359 0.012169 0.248860 -0.033663 -0.313983 -0.032934 0.336918 -0.266196 -0.014471 -0.091169 0.076024 -0.710103 -0.291765 -0.167450 -0.108576 -0.035178 -0.027366
him 0.298795 -0.055807 0.107104 -0.174707 0.133473 -0.488135 -0.182618 0.545709 0.168599 0.411237 0.061505 -0.130713 0.163876 -0.340624 0.360576 0.076526 -0.078452 0.046336 -0.212356 0.020345 -0.389887 -0.003783 0.368861 0.059993 -0.009336 -0.190814 0.123176 0.325102 -0.062372 -0.502379 -0.039969 -0.496156 -0.010563 0.337097 0.211427 -0.178607 0.081246 0.110017 0.321718 0.332538 0.238500 -0.356212 -0.222014 0.134143 0.103826 -0.082190 -0.005659 -0.112302 -0.122517 -0.320395 -0.023435 0.118029 -0.137430 0.150479 0.021259 -0.445203 0.036134 0.378639 0.117733 -0.205966 -0.069892 -0.034667 0.036785 0.071324 -0.179672 0.196386 -0.138784 -0.074939 0.195391 0.116564 0.043590 0.144467 -0.020686 -0.297340 -0.355482 -0.089734 0.185220 0.299890 0.006697 -0.095872 -0.273951 0.232721 0.242609 -0.292581 -0.199334 0.064177 -0.050244 -0.035971 0.062846 0.490923 -0.249912 0.107097 -0.210524 0.126788 -0.350046 -0.014311 -0.093318 0.256812 -0.009876 -0.276415
have 0.297158 -0.491655 -0.061490 -0.347633 0.075667 -0.261377 -0.637512 1.058793 0.414648 0.757719 0.421652 -0.508471 0.074880 0.185502 0.810923 0.461025 -0.488179 0.512504 -0.444268 -0.101740 -0.753007 -0.085588 0.058643 0.397281 -0.338018 -0.426563 0.505658 0.764335 -0.286675 -0.747047 0.084732 -0.447890 -0.419696 0.512393 0.167655 -0.278583 0.138737 0.819576 0.550607 0.420681 0.192796 -0.229549 -0.654603 -0.324529 -0.199234 -0.162862 -0.025803 -0.175019 0.066278 -0.503872 0.125289 -0.401582 -0.246851 0.384082 -0.469245 -0.294793 -0.193423 1.029597 0.262446 -0.746587 -0.504645 0.024345 0.217758 0.326035 -0.264311 0.342569 -0.496802 -0.175333 0.379424 -0.135236 -0.249578 0.239456 -0.471738 0.006260 -0.027903 -0.362956 0.450540 0.380798 -0.397510 0.233675 -0.432651 -0.382770 0.265193 -1.142812 0.222361 -0.295041 -0.129085 -0.490587 0.294799 0.695839 -0.227889 -0.119102 -0.356975 0.573516 -0.109456 0.127582 0.035644 0.389526 0.444294 -0.627189
one 0.168759 0.130507 0.233630 -0.096167 0.152711 -0.388755 -0.003389 0.632765 -0.045567 0.330270 0.008123 -0.033688 0.104619 -0.250856 0.221828 0.105391 -0.052102 -0.016447 0.047516 0.204939 -0.393664 -0.103371 0.478430 0.172378 0.035390 -0.114721 0.105367 0.229405 -0.023800 -0.278365 -0.062753 -0.423528 -0.084680 0.064950 0.173711 -0.005611 -0.152434 -0.199832 0.225952 -0.030773 0.071331 -0.378912 -0.315555 0.138700 0.169310 -0.117718 0.012379 -0.238782 -0.150581 -0.226318 -0.174490 0.325112 -0.099880 -0.082969 0.059410 -0.439812 0.131721 0.137279 0.149555 0.118171 0.027513 -0.118513 0.059710 -0.116660 0.018445 -0.048937 -0.064602 0.152540 0.117348 0.234401 -0.033921 0.200962 0.165634 -0.210491 -0.373730 -0.057209 0.117393 0.079835 0.071740 -0.330708 -0.233087 0.438501 0.017969 -0.145628 -0.065739 0.178922 -0.072305 -0.187641 -0.069385 0.405548 -0.313078 0.133638 -0.081774 0.104701 -0.415702 -0.068282 -0.286059 0.247140 -0.231704 -0.080561
there 0.206621 -0.045640 0.243074 -0.060713 0.169159 -0.409587 0.088896 0.814463 0.231958 0.454019 0.127325 -0.283852 -0.002375 -0.322874 0.240980 0.214378 -0.032800 0.134975 0.269988 0.266122 -0.506003 -0.292858 0.262705 0.343299 -0.106083 -0.030167 0.094716 0.236101 -0.030133 -0.373659 -0.100410 -0.423626 -0.219030 0.071134 0.317327 -0.104578 -0.539767 0.051752 0.327224 0.042479 -0.106227 -0.226417 -0.404238 0.160663 0.094214 -0.274840 0.032182 -0.038486 -0.109135 -0.172597 -0.047956 0.259113 -0.223974 -0.043292 0.067803 -0.530749 0.084374 0.174315 0.216198 -0.171297 -0.177944 -0.024745 0.164717 -0.090473 -0.151793 0.216166 -0.257589 0.042761 -0.010318 0.082850 -0.126180 0.107685 0.227256 -0.127679 -0.143416 -0.099972 0.240826 0.156554 -0.027341 -0.199068 -0.190436 0.470068 0.098871 -0.363118 0.125337 0.213544 -0.200487 -0.073515 0.058948 0.359255 -0.255560 0.202137 -0.119717 0.154722 -0.302262 -0.097137 -0.081778 0.263344 -0.272288 -0.357381
now 0.264855 -0.360169 0.179109 -0.193578 0.169467 -0.501036 0.047440 1.013375 0.496870 0.483075 0.121394 -0.471639 -0.039183 -0.360350 0.607216 0.357679 0.032894 0.143091 0.079717 0.089468 -0.661860 -0.348728 0.301925 0.688246 -0.215024 -0.268989 0.046734 0.543415 -0.042632 -0.752513 -0.114389 -0.432106 -0.354221 0.350659 0.399551 -0.258141 -0.647002 0.530636 0.418552 0.224593 -0.128178 -0.253506 -0.418907 -0.042282 -0.072488 -0.570599 -0.031833 -0.015231 -0.169635 -0.244811 -0.128433 -0.074739 -0.404481 0.354017 -0.029891 -0.732782 -0.100584 0.331070 0.241404 -0.533582 -0.517706 0.088193 0.277208 0.119867 -0.301176 0.616550 -0.483050 -0.246102 0.005595 -0.214777 -0.454105 0.218591 0.098510 -0.170137 0.089170 -0.113269 0.502215 0.149789 -0.073966 0.013465 -0.317179 0.402910 0.381662 -0.793462 0.231012 -0.049963 -0.311963 -0.154562 0.175242 0.266589 -0.171895 0.297022 -0.144111 0.303859 -0.221132 0.130932 0.038981 0.388343 0.082834 -0.637016
so 0.255685 -0.121267 0.110399 -0.191909 0.234748 -0.449278 -0.296842 0.719344 0.238189 0.561037 0.237627 -0.311346 0.264914 -0.178648 0.423996 0.275411 -0.187019 0.251217 -0.271432 0.043846 -0.372106 -0.218484 0.173012 0.134404 -0.053678 -0.231526 0.300580 0.490450 0.017718 -0.438626 0.103085 -0.454347 -0.160167 0.317396 0.240893 -0.270263 0.075390 0.303307 0.559462 0.341488 0.092319 -0.195125 -0.418018 0.015108 0.154784 -0.057388 0.104847 -0.079765 -0.041907 -0.358228 0.086256 0.080025 -0.309735 0.255295 -0.092600 -0.303080 -0.033052 0.632230 0.295202 -0.456788 -0.204846 -0.030189 0.240028 0.154527 -0.261396 0.200140 -0.188618 -0.106192 0.268673 -0.001467 0.080816 0.227000 -0.127875 -0.172159 -0.226463 -0.267383 0.310103 0.343585 -0.089233 0.027802 -0.328660 0.108072 0.151976 -0.567227 0.063859 -0.033029 -0.124232 -0.066577 0.085876 0.561897 -0.183666 -0.012890 -0.308709 0.288198 -0.321075 -0.084722 0.010144 0.236555 -0.031302 -0.430575
be 0.182525 -0.322681 -0.001821 -0.164359 0.235583 -0.286501 -0.467650 1.289673 0.555937 0.626845 0.365583 -0.483958 -0.182234 0.210055 0.636675 0.453804 -0.495342 0.725039 -0.210585 -0.141748 -0.724681 -0.184761 0.248248 0.344591 -0.386907 -0.434112 0.299969 0.463461 -0.457995 -0.671017 -0.089445 -0.318544 -0.629525 0.467856 0.012208 -0.217700 -0.205264 0.756984 0.406545 0.299565 0.098260 -0.258756 -0.705232 -0.241353 -0.221595 -0.092117 0.093673 -0.162449 0.079952 -0.529377 0.185801 -0.439829 -0.296892 0.426528 -0.342806 -0.160326 -0.132646 1.144005 0.288389 -0.771478 -0.318896 -0.021835 0.212196 0.193136 -0.337532 0.420296 -0.520098 -0.130025 0.253155 -0.032651 -0.137088 0.026965 -0.130816 0.176551 -0.118835 -0.067183 0.533218 0.433047 -0.269849 0.078544 -0.356697 -0.315052 0.217067 -1.010920 0.338350 -0.193043 -0.124935 -0.332742 0.347390 0.781540 -0.494222 -0.048803 -0.383978 0.404858 0.166334 0.167226 0.179240 0.537486 0.037660 -0.829516
man 0.186388 -0.110890 0.270419 -0.099233 0.152269 -0.367528 0.099131 0.823910 0.242765 0.435791 0.038820 -0.291467 0.116253 -0.367661 0.322712 0.292636 -0.061774 0.001620 0.155253 0.245056 -0.449206 -0.407224 0.240872 0.356815 -0.121699 -0.128764 0.056128 0.388810 0.051723 -0.342653 -0.121215 -0.424297 -0.277912 0.003402 0.306433 -0.190025 -0.543499 0.092605 0.243188 0.015665 -0.137667 -0.224364 -0.475848 0.055838 0.144405 -0.355248 0.044717 -0.185071 -0.060704 -0.253938 -0.179580 0.111211 -0.271745 0.005289 0.022844 -0.578119 0.010697 0.327055 0.110824 -0.241650 -0.218272 0.070055 0.171291 -0.028885 -0.152518 0.138072 -0.224276 -0.022849 -0.061800 -0.002005 -0.135783 0.186574 0.080450 -0.194107 -0.092011 -0.166934 0.261236 0.083702 -0.095810 -0.168196 -0.182026 0.446926 0.123489 -0.397081 0.073409 0.084283 -0.265963 -0.075191 0.027503 0.268689 -0.274986 0.205053 -0.134502 0.138649 -0.403481 -0.114957 -0.123768 0.266720 -0.171525 -0.436383
or -0.035337 0.279234 0.123728 -0.269782 0.063301 -0.338166 -0.418389 0.948605 -0.306859 0.088890 0.226483 -0.061833 0.015043 0.232126 0.309289 -0.014596 -0.288343 0.337179 0.132511 0.067132 -0.415678 0.067716 0.444359 0.079555 -0.096421 -0.328462 0.236539 0.359444 0.195492 0.024603 0.418780 -0.134239 -0.153656 0.100350 -0.274536 0.267944 -0.020844 -0.267168 -0.075278 -0.211202 0.035672 -0.186929 -0.583363 0.038670 0.105555 0.282618 -0.102738 -0.459070 0.030791 -0.007153 -0.186210 0.080125 0.136959 -0.016691 -0.248882 -0.154100 -0.044343 0.071530 0.452300 0.023614 0.330168 -0.156873 -0.346321 -0.118401 0.172158 -0.553128 -0.002586 0.526522 0.121337 0.105040 -0.286926 0.413892 0.004178 0.118460 -0.677543 -0.347354 0.013719 -0.023012 0.152688 -0.400156 -0.276930 0.024916 -0.429406 -0.195834 0.224053 0.322459 0.032453 -0.339814 -0.152885 0.458277 -0.431995 -0.190498 0.237178 0.177635 -0.259023 0.000669 -0.599491 0.237678 -0.456811 0.019796
they 0.445844 -0.115717 0.155474 -0.160521 0.215892 -0.403606 -0.344153 0.862101 0.288977 0.493282 0.356543 -0.136713 -0.047557 -0.105633 0.476351 0.298542 -0.132972 0.382376 -0.136407 -0.086515 -0.519226 0.012253 0.186258 0.241393 0.002814 -0.415139 0.156313 0.305086 -0.136122 -0.669921 0.107144 -0.507542 -0.404633 0.295300 0.017455 -0.118759 0.057282 0.374821 0.504823 0.279534 -0.090974 -0.397263 -0.240686 -0.065390 0.010157 -0.110345 0.064132 -0.018068 -0.011612 -0.410383 0.164807 0.017544 -0.191007 0.173804 -0.132248 -0.136149 -0.157604 0.665179 0.341019 -0.468980 -0.190018 -0.247606 0.198295 0.096813 -0.262400 0.178555 -0.372556 -0.065786 0.297853 0.049132 -0.092719 0.065815 0.074257 -0.104180 -0.271937 -0.213772 0.469666 0.350215 -0.034340 -0.181997 -0.290748 -0.091127 0.131603 -0.525840 0.010102 0.084653 -0.097049 -0.290022 0.246674 0.744820 -0.355989 -0.006187 -0.272239 0.293178 0.012273 0.071413 0.118002 0.562360 -0.013469 -0.389451
out 0.358612 0.238244 0.288550 -0.171242 0.183438 -0.405014 -0.200820 0.287352 -0.217269 0.332182 -0.009969 0.078582 0.301523 -0.433026 0.172527 -0.085240 -0.066308 -0.163033 -0.257134 0.153040 -0.242617 0.051857 0.490252 -0.134174 0.283994 -0.213719 0.112976 0.269903 0.119220 -0.242354 0.183928 -0.636005 0.169814 0.076840 0.130476 -0.031371 0.331337 -0.291683 0.214673 0.152988 0.321040 -0.481892 -0.188448 0.241230 0.238229 0.098106 -0.107595 -0.216308 -0.136754 -0.207054 -0.075680 0.453437 0.052201 -0.082487 0.108317 -0.345269 0.116753 0.129071 0.103140 0.216983 0.246472 -0.170009 -0.097138 -0.062485 0.004383 -0.225142 0.074154 0.209042 0.231286 0.328537 0.208840 0.269542 0.003297 -0.481546 -0.629792 -0.237287 -0.011158 0.305393 0.106593 -0.330234 -0.265012 0.343150 -0.031769 0.089225 -0.373062 0.277785 0.043131 -0.183292 -0.145955 0.558739 -0.291039 0.027804 -0.068465 -0.002827 -0.567592 -0.169194 -0.359173 0.131723 -0.102846 0.137564
if 0.161356 -0.254926 -0.031187 -0.335564 0.051087 -0.546137 -0.410470 1.064359 0.382255 0.469861 0.383934 -0.474280 0.044200 0.075520 0.754332 0.438954 -0.222746 0.415463 -0.180571 -0.207573 -0.717832 -0.199259 0.140399 0.587843 -0.416746 -0.464284 0.277046 0.729860 0.052132 -0.577702 0.245055 -0.210169 -0.393190 0.514917 0.099267 -0.258157 -0.257985 0.640945 0.521737 0.288925 -0.104864 -0.127937 -0.582423 -0.240503 -0.043377 -0.297777 0.017493 -0.080759 -0.036826 -0.262280 -0.009465 -0.300513 -0.366859 0.456585 -0.328999 -0.343095 -0.257783 0.598208 0.495920 -0.800226 -0.472893 0.124997 0.274539 0.337363 -0.239083 0.375135 -0.472836 -0.163091 0.161460 -0.330505 -0.545235 0.382691 -0.213425 0.082118 0.040381 -0.356546 0.481556 0.195078 -0.049576 0.138333 -0.378641 -0.044992 0.141644 -0.935128 0.546236 -0.133047 -0.259987 -0.279908 0.225774 0.412971 -0.171304 -0.081962 -0.063845 0.443051 -0.088787 0.250973 0.075524 0.328586 0.126006 -0.606295
captain 0.315227 -0.466052 0.385810 -0.201253 0.075969 -0.283254 0.379840 0.861379 0.294127 0.462426 -0.114980 -0.387623 -0.144128 -0.675146 0.514788 0.186187 0.118252 -0.119500 0.391559 0.613318 -0.618156 -0.391816 0.230818 0.645787 -0.035308 0.013191 -0.233047 0.367924 0.166924 -0.612920 -0.193585 -0.571164 -0.240891 -0.047662 0.665442 0.018511 -0.921769 0.133472 0.209007 -0.138870 -0.305049 -0.200643 -0.335794 0.074762 0.103567 -0.680648 -0.194058 0.022110 -0.094691 -0.013476 -0.131323 0.145470 -0.165615 0.138918 0.008495 -0.988588 -0.089979 -0.090016 0.011656 -0.223651 -0.307344 0.104497 0.159994 -0.148911 -0.249368 0.361263 -0.316443 -0.003209 -0.255950 -0.127436 -0.399796 0.165082 0.103997 -0.352710 0.142498 -0.043001 0.459432 0.033863 -0.229940 -0.224636 -0.254468 0.630883 0.407628 -0.481829 -0.063354 0.054147 -0.329236 -0.143693 0.263623 -0.058559 -0.148566 0.584687 -0.068206 0.133118 -0.366013 -0.092289 -0.322767 0.395115 0.079027 -0.453343
t -0.472882 -0.121543 0.381310 0.000845 0.521850 -1.161676 0.048979 2.172163 1.278297 0.512432 0.508062 -0.373588 -0.149837 -0.195448 1.129594 0.615996 -0.311158 0.195005 0.435231 -0.414672 -1.538965 -0.458875 0.658289 1.049133 -0.634878 -0.962397 -0.044108 1.129178 0.358769 -1.295407 -0.249366 0.135354 -1.184752 1.142244 -0.067614 -0.274054 -1.535659 0.991377 0.717246 0.272953 -0.852015 0.127023 -1.291589 -0.761569 0.163402 -1.157986 0.207908 -0.220806 0.087747 -0.632118 -0.365574 -0.703110 -0.748582 1.022739 -0.312318 -0.987627 -0.691127 0.514377 0.953282 -1.678048 -1.097611 0.607337 0.706147 0.558554 -0.163025 0.763536 -1.273762 -0.230206 0.214058 -0.902485 -1.346495 0.422033 -0.289925 0.559921 -0.022303 -0.214819 1.037450 -0.287638 0.168967 -0.306333 -0.296667 0.109074 0.108296 -1.611712 0.610555 -0.266628 -0.896817 0.001164 0.309872 0.184166 -0.103339 0.066929 -0.133564 0.935410 0.235480 0.306430 0.691459 1.227325 -0.407685 -1.527834
from 0.382164 0.339441 0.451123 -0.182808 0.226989 -0.282461 -0.106632 0.329753 -0.395667 0.262228 -0.132437 0.108036 0.278685 -0.454658 0.161247 -0.204829 -0.066880 -0.256710 -0.161911 0.364422 -0.173057 -0.048599 0.536961 -0.111195 0.360356 -0.295767 -0.031696 0.182522 0.273081 -0.110269 0.294384 -0.679793 0.106845 -0.117709 0.070769 0.093643 0.204505 -0.503527 0.045665 -0.031460 0.327237 -0.497401 -0.265860 0.214312 0.324650 0.140293 -0.189988 -0.300497 -0.084719 -0.191818 -0.203811 0.445229 0.173366 -0.204353 0.147848 -0.295687 0.129343 -0.009118 0.089573 0.469240 0.470827 -0.170084 -0.228607 -0.214078 0.114644 -0.489191 0.160530 0.421732 0.155325 0.357027 0.170600 0.303905 0.077660 -0.576226 -0.733314 -0.362493 -0.067189 0.240135 0.126212 -0.470619 -0.239032 0.426407 -0.193233 0.260986 -0.385134 0.355026 0.013398 -0.299396 -0.234303 0.516133 -0.346712 0.064296 0.097432 -0.136029 -0.631782 -0.248155 -0.570645 0.065786 -0.200045 0.179088
ll 0.078582 -0.435300 -0.057297 -0.473404 0.007827 -0.801996 -0.380202 1.279833 0.560074 0.542190 0.354184 -0.676246 0.003186 0.014579 1.157347 0.620830 0.018413 0.315876 -0.190442 -0.290747 -1.042131 -0.307252 0.365900 1.025333 -0.694822 -0.684750 0.342879 1.086650 0.019761 -0.986035 0.126429 -0.245780 -0.446927 0.824821 0.252234 -0.380455 -0.519679 1.072540 0.640737 0.435665 -0.324216 -0.208962 -0.602315 -0.346396 -0.103417 -0.784760 -0.016475 -0.138723 -0.216962 -0.299575 -0.274523 -0.499800 -0.571399 0.678269 -0.268422 -0.719184 -0.384858 0.567851 0.512028 -1.047041 -0.901103 0.149859 0.509865 0.582826 -0.375385 0.799980 -0.675728 -0.427554 0.161317 -0.564641 -1.046851 0.511646 -0.279926 0.081859 0.235344 -0.377976 0.731255 0.091020 0.017580 0.284981 -0.610600 0.218158 0.385767 -1.352062 0.725109 -0.448136 -0.393270 -0.441840 0.299030 0.372341 -0.110876 0.127934 0.024098 0.672775 -0.143615 0.639568 0.043524 0.445773 0.360510 -0.691801
is 0.034604 -0.468221 0.260485 -0.098264 0.274373 -0.282316 0.047034 1.362537 0.407937 0.319273 0.072650 -0.649158 -0.180757 -0.173922 0.666092 0.389919 -0.080504 0.149146 0.358381 0.253644 -0.762621 -0.732190 0.458710 0.900733 -0.454648 -0.405338 -0.045128 0.608895 0.142880 -0.481369 0.058555 -0.208976 -0.578941 0.233409 0.291826 -0.046734 -1.142953 0.481095 0.100860 -0.035346 -0.219336 -0.006475 -0.810477 -0.199194 -0.135192 -0.662224 -0.216352 -0.163037 -0.142101 -0.071033 -0.293681 -0.260503 -0.337760 0.410099 -0.046792 -0.805679 -0.146189 0.083616 0.281511 -0.659733 -0.371659 0.331272 0.200393 -0.035627 -0.157459 0.484688 -0.485060 0.015312 -0.179868 -0.394652 -0.733254 0.358181 0.138019 0.087362 0.130471 -0.106180 0.694257 -0.078006 -0.110198 -0.061081 -0.296874 0.357722 0.232743 -1.015614 0.504068 -0.156297 -0.450903 -0.271921 0.086149 -0.229289 -0.321240 0.398625 0.100778 0.335816 -0.102361 0.204394 -0.158934 0.382250 -0.173836 -0.783106
silver 0.172683 -0.407980 0.226132 -0.180790 0.039040 -0.474592 0.231333 1.084213 0.444115 0.430660 0.086211 -0.438466 -0.166907 -0.448706 0.505348 0.286499 0.018558 0.175564 0.308350 0.287585 -0.732671 -0.264574 0.219789 0.636528 -0.157248 -0.067051 0.030134 0.481137 -0.061660 -0.768414 -0.245764 -0.460600 -0.347579 0.187389 0.467516 -0.020743 -0.814755 0.342970 0.301036 0.007778 -0.234656 -0.276088 -0.419297 0.082183 -0.028906 -0.626911 -0.127307 0.023186 -0.162074 -0.086153 -0.122835 -0.041692 -0.302256 0.218431 -0.109120 -0.935172 -0.094481 0.128809 0.187127 -0.390595 -0.495501 0.016333 0.115444 -0.012906 -0.246496 0.555532 -0.400032 -0.088532 -0.040736 -0.187162 -0.497804 0.205096 0.090507 -0.079765 0.002109 -0.069302 0.427562 0.001323 -0.065758 -0.164952 -0.247539 0.532231 0.339643 -0.736050 0.082114 0.125130 -0.326819 -0.123165 0.201010 0.203412 -0.173847 0.373079 -0.085176 0.340378 -0.200238 0.011753 -0.141481 0.456728 0.006678 -0.556754
doctor 0.316804 -0.669397 0.393732 -0.212953 0.178859 -0.347425 0.359187 1.043659 0.362095 0.544065 -0.150688 -0.545968 -0.326344 -0.682811 0.727287 0.199161 0.249751 -0.085610 0.437052 0.595357 -0.631727 -0.480069 0.323900 0.880931 -0.191328 -0.163845 -0.313851 0.372447 0.190974 -0.896794 -0.320623 -0.583540 -0.455754 0.085097 0.800155 0.113005 -0.992638 0.313876 0.209002 -0.032659 -0.286742 -0.282158 -0.313670 -0.016389 -0.041821 -0.752381 -0.211384 0.147763 -0.236299 0.004337 -0.185985 0.008231 -0.290050 0.431780 0.087401 -1.017678 -0.078278 -0.041605 -0.008422 -0.423589 -0.431225 0.121956 0.354680 -0.210944 -0.270428 0.668382 -0.389078 -0.142043 -0.314123 -0.212852 -0.521718 0.116149 0.153062 -0.403958 0.357718 0.077565 0.712283 -0.015712 -0.168754 -0.007887 -0.366465 0.711142 0.569682 -0.691468 -0.009334 -0.112413 -0.447456 -0.231768 0.313221 -0.128342 -0.162507 0.797252 -0.017153 0.228090 -0.217953 0.096115 -0.289418 0.425896 0.263047 -0.619562
up 0.322469 0.205855 0.278936 -0.192357 0.153664 -0.422904 -0.168586 0.407325 -0.067083 0.314815 -0.021559 0.022439 0.182080 -0.363900 0.301766 -0.109845 0.019276 -0.069258 -0.171500 0.108021 -0.252618 0.095620 0.443692 -0.036620 0.217035 -0.277263 0.063923 0.264856 0.060453 -0.342674 0.081026 -0.585253 0.048603 0.127782 0.076877 -0.095289 0.184976 -0.123405 0.152127 0.182906 0.228090 -0.495957 -0.151996 0.240741 0.178323 0.006415 -0.121788 -0.176193 -0.094810 -0.247000 -0.118539 0.235670 0.036632 0.056800 0.077988 -0.322283 0.076733 0.202483 0.148998 0.157348 0.213581 -0.182079 -0.174621 -0.050048 -0.056569 -0.142287 0.017602 0.129237 0.122950 0.205779 0.066318 0.178285 0.073758 -0.385983 -0.608864 -0.228319 0.050306 0.268517 0.114801 -0.302032 -0.220872 0.267383 0.014789 0.041690 -0.367153 0.209419 0.049354 -0.155330 -0.111442 0.591966 -0.279824 0.026647 -0.047456 -0.007817 -0.449899 -0.070117 -0.321099 0.193669 -0.073178 -0.018471
like 0.168457 0.089813 0.277254 -0.174518 0.169268 -0.401506 -0.095602 0.736389 0.198367 0.358739 0.099775 -0.114321 0.057617 -0.260720 0.296972 0.136274 -0.111840 -0.032968 -0.005336 -0.018586 -0.438569 -0.141523 0.182099 0.271034 -0.065072 -0.277554 0.061742 0.373447 0.128435 -0.306170 0.110173 -0.293459 -0.292789 0.112577 0.019695 -0.184100 -0.349065 0.181681 0.203510 0.101972 -0.055173 -0.217605 -0.396151 -0.027169 0.105280 -0.165678 -0.020525 -0.149419 -0.018710 -0.319217 -0.208468 -0.019917 -0.150985 0.076721 -0.037365 -0.368160 -0.063505 0.349790 0.235288 -0.196253 -0.204235 -0.006436 -0.004314 0.090322 -0.050500 -0.036955 -0.217979 0.060829 0.090156 -0.063145 -0.267213 0.208228 0.047379 -0.217757 -0.270928 -0.356286 0.122180 0.083159 0.143196 -0.125211 -0.146774 0.232552 0.003445 -0.396000 0.083421 0.089723 -0.194392 -0.107318 -0.070011 0.443761 -0.246632 -0.080507 0.009774 0.158183 -0.271750 -0.064944 -0.028866 0.208409 -0.150616 -0.450382
no 0.181824 -0.183595 0.149946 -0.139302 0.146819 -0.515803 -0.160561 1.091166 0.449493 0.487330 0.243341 -0.224943 0.006013 0.064487 0.464621 0.361610 -0.177510 0.294177 0.004419 0.082111 -0.652000 -0.308109 0.323059 0.343369 -0.384080 -0.136572 0.138177 0.385479 0.001602 -0.454190 -0.016135 -0.211550 -0.341588 0.413568 0.219930 -0.139620 -0.391828 0.284137 0.439211 0.124974 -0.080417 -0.009665 -0.562643 -0.129756 0.058069 -0.274933 0.102811 -0.114427 -0.069497 -0.453461 0.019859 -0.005234 -0.372603 0.130598 -0.097476 -0.367502 0.039663 0.523058 0.332279 -0.524078 -0.342360 0.031144 0.255466 0.176109 -0.131322 0.272338 -0.391064 0.051795 0.214302 -0.055142 -0.240840 0.289535 0.037306 0.049529 -0.125963 -0.061680 0.530589 0.070171 0.007465 -0.150102 -0.278942 0.244191 0.126574 -0.872201 0.272459 0.040666 -0.316755 -0.144289 0.237541 0.352581 -0.229156 0.078091 -0.202975 0.280436 -0.148985 -0.031716 0.053778 0.470601 -0.226982 -0.692219
what 0.190852 -0.361705 -0.014422 -0.186947 0.169865 -0.545210 -0.227243 1.220137 0.530571 0.537671 0.245362 -0.471838 -0.088356 -0.077481 0.726533 0.480054 -0.104745 0.423187 0.132077 -0.062052 -0.832002 -0.299563 0.429394 0.656263 -0.520787 -0.405899 0.230702 0.552474 -0.110063 -0.786076 -0.128962 -0.274239 -0.432268 0.542283 0.294705 -0.304765 -0.556634 0.640510 0.526534 0.318831 -0.138785 -0.177435 -0.525585 -0.084187 -0.119954 -0.525932 0.056794 -0.041026 -0.116919 -0.325397 -0.050291 -0.166770 -0.422410 0.418360 -0.066083 -0.531308 -0.115361 0.585804 0.346593 -0.812844 -0.459625 0.072992 0.411574 0.176195 -0.360439 0.685736 -0.577024 -0.237140 0.075225 -0.168563 -0.504434 0.168288 0.025721 0.085248 0.014745 -0.020662 0.642227 0.181882 -0.086053 0.057833 -0.338480 0.192674 0.323056 -0.959556 0.375833 -0.145521 -0.275035 -0.193946 0.300499 0.334269 -0.264549 0.184490 -0.188098 0.382438 -0.017284 0.299880 0.121571 0.528373 -0.015381 -0.723809
when 0.349261 -0.098777 0.126943 -0.260342 0.143088 -0.408631 -0.290920 0.474603 0.081107 0.431339 0.092467 -0.217738 0.273132 -0.276052 0.432280 0.081481 -0.063727 0.040725 -0.306594 0.050495 -0.359503 -0.133328 0.279401 0.170273 0.004710 -0.277181 0.146134 0.474124 0.053745 -0.451389 0.211673 -0.497681 -0.013729 0.300951 0.242893 -0.162194 0.108926 0.136795 0.374652 0.322524 0.197083 -0.289816 -0.214942 0.054477 0.119484 -0.094492 -0.010554 -0.100533 -0.111188 -0.242802 -0.027331 0.127467 -0.129230 0.167449 -0.014677 -0.367707 0.014940 0.347676 0.198908 -0.257218 -0.076536 -0.012877 0.148331 0.082842 -0.194447 0.129075 -0.155246 -0.049621 0.196426 0.060290 -0.021735 0.257096 -0.082306 -0.390962 -0.258581 -0.286810 0.262710 0.344919 -0.026337 -0.019657 -0.309860 0.239229 0.127549 -0.343737 -0.044678 0.059126 -0.095085 -0.162999 0.020094 0.417121 -0.190776 0.085208 -0.097502 0.118255 -0.414404 -0.002129 -0.137592 0.149354 0.091736 -0.202765
here 0.120076 -0.445678 0.258470 -0.135897 0.147053 -0.419617 0.224919 1.196461 0.487703 0.444721 0.056029 -0.586853 -0.168972 -0.383597 0.741351 0.368000 0.105201 0.135625 0.318071 0.242119 -0.839119 -0.533717 0.455281 0.976624 -0.349655 -0.264618 0.011333 0.651698 -0.085016 -0.856671 -0.223544 -0.339964 -0.450671 0.323845 0.466822 -0.090470 -1.016257 0.507381 0.326248 0.037971 -0.319835 -0.270132 -0.563694 -0.060075 -0.076246 -0.848507 -0.142156 -0.084974 -0.224343 -0.057678 -0.245798 -0.153345 -0.357386 0.342586 -0.035909 -0.975883 -0.115545 0.025833 0.254376 -0.517427 -0.600826 0.165238 0.323149 0.025683 -0.237599 0.726547 -0.522089 -0.183333 -0.131136 -0.302305 -0.765943 0.279067 0.152246 -0.029255 0.202783 0.009417 0.594206 -0.041835 -0.114929 -0.029669 -0.393791 0.610330 0.364738 -0.922014 0.366040 -0.098161 -0.439741 -0.285697 0.119811 0.056369 -0.150040 0.504380 0.028126 0.375837 -0.253407 0.263848 -0.122223 0.412064 0.071832 -0.568939
could 0.247256 -0.139310 -0.269677 -0.347691 0.146114 -0.686894 -0.735875 0.588245 0.123276 0.466416 0.394587 -0.346772 0.531631 0.084703 0.514270 0.384899 -0.350942 0.260393 -0.568746 -0.335830 -0.507750 -0.137675 0.345113 0.062524 -0.487358 -0.467432 0.485776 0.662217 0.151964 -0.324609 0.425714 -0.218617 0.044427 0.757440 0.201310 -0.384642 0.389788 0.374750 0.546148 0.677220 0.249690 -0.025434 -0.462057 -0.188636 0.194899 0.083496 0.162864 -0.203584 -0.042984 -0.326935 0.076774 -0.002442 -0.348995 0.273188 -0.136832 -0.163203 -0.140311 0.763982 0.359883 -0.795546 -0.216989 0.110595 0.472898 0.491266 -0.312194 0.181208 -0.234360 -0.149845 0.466191 -0.066607 -0.017623 0.426776 -0.396203 -0.147333 -0.145119 -0.412647 0.328453 0.461100 -0.053404 0.270390 -0.470961 -0.016722 0.093530 -0.778800 0.404745 -0.166460 -0.150929 -0.152136 0.235338 0.434282 -0.221019 -0.194358 -0.110150 0.313128 -0.361149 0.297789 0.101694 0.100784 -0.023717 -0.459694
us 0.240326 0.166749 0.145141 -0.116482 0.170551 -0.398441 -0.209719 0.559575 -0.042811 0.334693 0.091844 0.057380 0.108552 -0.214947 0.215754 0.041510 -0.138373 0.009894 -0.168696 0.095144 -0.403815 0.037813 0.474276 -0.001183 0.053992 -0.183108 0.080105 0.225170 -0.012197 -0.265410 0.091430 -0.448587 -0.028746 0.277703 0.119632 0.035994 0.126837 -0.184931 0.226544 0.100608 0.243796 -0.443110 -0.308091 0.123259 0.118606 0.080602 0.006866 -0.246417 -0.143421 -0.254046 -0.075564 0.289132 0.007706 -0.052140 -0.007606 -0.351527 0.097158 0.210416 0.129917 -0.002410 0.132745 -0.095710 -0.005649 -0.076886 0.047269 -0.091165 -0.046916 0.193906 0.272668 0.256304 0.066824 0.214547 0.045196 -0.263124 -0.492638 -0.061871 0.121758 0.202420 0.076560 -0.314142 -0.324234 0.272976 0.032707 -0.143382 -0.127002 0.214927 -0.021276 -0.275043 -0.035745 0.438687 -0.316440 0.104154 -0.112549 0.112739 -0.420647 -0.077649 -0.261967 0.241876 -0.190730 -0.048537
would 0.149309 -0.298835 0.011151 -0.386349 0.123653 -0.589339 -0.653932 0.782511 0.152376 0.608656 0.536500 -0.483249 0.373010 0.073049 0.749897 0.487671 -0.165730 0.406399 -0.527124 -0.123798 -0.510011 -0.267978 0.110669 0.428406 -0.313443 -0.447172 0.533063 0.882184 0.057093 -0.552128 0.210524 -0.416094 -0.176719 0.563761 0.246419 -0.317411 0.341511 0.672582 0.814203 0.569475 -0.039314 -0.127190 -0.315924 -0.129889 0.233220 -0.257472 0.108777 -0.119264 0.000217 -0.320430 -0.042802 -0.070008 -0.504794 0.460859 -0.339060 -0.249914 -0.276162 0.655984 0.452777 -0.680570 -0.467542 -0.087762 0.426493 0.352479 -0.357592 0.235871 -0.269262 -0.392207 0.443543 -0.249507 -0.225233 0.412040 -0.494694 0.049877 -0.035801 -0.513312 0.372027 0.203813 -0.163011 0.216299 -0.471357 -0.101326 0.133345 -0.914889 0.255357 -0.289693 -0.162374 -0.326094 0.094429 0.628190 -0.006516 -0.187140 -0.330398 0.487863 -0.266725 0.088470 -0.092462 0.214928 0.267610 -0.394519
been 0.358060 -0.186643 0.078835 -0.187892 0.087849 -0.494313 -0.316882 0.634016 0.146821 0.551782 0.367024 -0.208794 0.261167 -0.086305 0.495040 0.300408 -0.159943 0.465098 -0.460853 0.044161 -0.172721 -0.024663 0.109426 0.105477 0.186626 -0.167094 0.342829 0.517149 -0.163608 -0.583217 -0.053822 -0.641422 -0.170737 0.351624 0.195163 0.047162 0.596831 0.208801 0.658312 0.265360 0.107895 -0.423645 -0.135012 0.046217 0.263438 -0.023613 0.145529 -0.173094 -0.002442 -0.368485 0.120420 0.152133 -0.249812 0.141290 -0.355130 -0.114984 -0.074743 0.609904 0.262401 -0.201628 -0.128984 -0.212352 0.070382 -0.020151 -0.200440 0.057905 -0.135634 -0.245231 0.462903 0.148015 0.284299 0.245636 -0.280753 -0.116080 -0.305596 -0.176861 0.342675 0.220515 -0.236834 -0.174501 -0.237939 0.004747 0.127156 -0.454218 -0.303448 0.054029 0.023283 -0.117638 0.158159 0.741309 -0.146305 0.024063 -0.515369 0.269357 -0.216004 -0.199648 -0.183797 0.472132 0.170530 -0.258203
then 0.270804 0.030318 0.219013 -0.181713 0.131590 -0.426900 -0.069810 0.482181 0.066861 0.350452 -0.017994 -0.150753 0.138267 -0.386331 0.326665 0.022481 0.009410 -0.053439 -0.155099 0.073711 -0.372124 -0.062295 0.400520 0.183818 0.058092 -0.202167 0.073504 0.383501 -0.010181 -0.419244 0.017352 -0.492707 -0.039581 0.158794 0.199098 -0.139949 -0.050210 0.000587 0.242055 0.142038 0.189890 -0.422407 -0.295937 0.115758 0.056645 -0.129457 -0.060458 -0.147047 -0.195253 -0.189298 -0.145393 0.175502 -0.108833 0.091504 0.093569 -0.476928 0.077913 0.188776 0.133217 -0.062962 -0.039063 -0.025487 -0.007791 0.047423 -0.086053 0.137083 -0.062912 0.029021 0.069018 0.100612 -0.079816 0.211481 0.075390 -0.358485 -0.360560 -0.143149 0.148874 0.233588 0.080260 -0.124592 -0.268167 0.350003 0.148625 -0.190683 -0.114992 0.119362 -0.066560 -0.141441 -0.059911 0.396453 -0.233528 0.163199 -0.053218 0.076773 -0.454480 0.006333 -0.191163 0.178758 -0.016447 -0.139285
upon 0.469848 0.328014 0.463939 -0.218844 0.201910 -0.383957 -0.199928 0.208115 -0.382737 0.289781 -0.096073 0.092668 0.396323 -0.554188 0.174187 -0.292595 -0.036931 -0.278586 -0.265856 0.321634 -0.143292 0.031815 0.489007 -0.181368 0.422582 -0.293017 0.041929 0.285144 0.265134 -0.138467 0.342398 -0.789788 0.218884 -0.099597 0.051343 -0.004347 0.354860 -0.434957 0.102679 0.112549 0.360208 -0.473432 -0.182068 0.274132 0.362807 0.163355 -0.227626 -0.265038 -0.096753 -0.187056 -0.176823 0.490012 0.161092 -0.163599 0.154793 -0.295259 0.120956 0.062007 0.151933 0.426178 0.480592 -0.174070 -0.266713 -0.153115 -0.002059 -0.531188 0.191377 0.312727 0.154145 0.356663 0.229388 0.307345 0.042351 -0.650469 -0.773852 -0.459894 -0.108665 0.316682 0.126375 -0.407943 -0.220137 0.417912 -0.154586 0.344367 -0.488551 0.320802 0.040997 -0.167257 -0.257900 0.622226 -0.306571 0.000628 0.082980 -0.136624 -0.733657 -0.254167 -0.559935 0.062471 -0.124438 0.187696
well 0.200842 -0.578216 0.136544 -0.254874 0.144539 -0.574022 0.032298 1.221021 0.638519 0.612588 0.205365 -0.692184 -0.046844 -0.371788 0.782442 0.467938 -0.047604 0.166099 0.042984 0.140347 -0.846195 -0.462996 0.232948 0.835016 -0.367218 -0.244418 0.116998 0.790254 -0.056866 -0.913598 -0.143475 -0.408804 -0.428459 0.462724 0.523126 -0.260622 -0.808095 0.702617 0.521142 0.281050 -0.210934 -0.191415 -0.596697 -0.141552 -0.109633 -0.702639 -0.041028 -0.030698 -0.168229 -0.246756 -0.106847 -0.199486 -0.502648 0.487306 -0.155449 -0.967954 -0.178846 0.385119 0.274796 -0.825619 -0.752892 0.233317 0.373015 0.251196 -0.366543 0.814017 -0.571295 -0.329987 0.014365 -0.365979 -0.569954 0.308904 -0.049988 -0.120575 0.268029 -0.141223 0.660985 0.162830 -0.182403 0.103446 -0.392490 0.432259 0.479744 -1.143187 0.367340 -0.176260 -0.469934 -0.168265 0.273185 0.138284 -0.130176 0.372533 -0.199263 0.439547 -0.274723 0.169292 0.036210 0.448683 0.174975 -0.802611
more 0.211929 0.085033 0.210584 -0.109091 0.167175 -0.460292 -0.332183 0.654566 0.171832 0.422185 0.195789 -0.131308 0.273275 -0.019879 0.332638 0.159513 -0.118986 0.079470 -0.079008 0.161192 -0.479309 -0.234516 0.332332 -0.039459 -0.260870 -0.253485 0.200600 0.259715 0.148063 -0.208670 0.157976 -0.313377 -0.042573 0.176398 0.186822 -0.190738 0.005156 -0.024855 0.342831 0.154237 -0.014120 -0.020104 -0.501042 -0.046981 0.341496 0.010973 0.132920 -0.237027 -0.030094 -0.429397 0.103557 0.179315 -0.210467 -0.101700 0.065085 -0.217595 0.115861 0.460155 0.217966 -0.290944 -0.021222 -0.000156 0.143268 0.144107 -0.126247 -0.161823 -0.130334 0.263709 0.155412 0.135163 -0.017596 0.254376 -0.044015 -0.059372 -0.379821 -0.275684 0.346270 0.170032 -0.000519 -0.212797 -0.325936 0.183865 -0.042115 -0.319564 -0.027661 0.108878 -0.167651 -0.125239 0.148772 0.520350 -0.292964 -0.036259 -0.129713 0.136805 -0.391470 -0.124117 -0.150856 0.310361 -0.370926 -0.337595
down 0.334539 0.220301 0.253516 -0.201723 0.174725 -0.413052 -0.242419 0.325359 -0.197938 0.308530 -0.027769 0.045672 0.253026 -0.371283 0.261943 -0.143732 -0.010693 -0.119213 -0.250504 0.144398 -0.264346 0.077311 0.467630 -0.056959 0.236418 -0.255964 0.092403 0.257785 0.073232 -0.313067 0.194090 -0.594286 0.114148 0.108144 0.063839 -0.047244 0.286073 -0.221709 0.196435 0.144759 0.317517 -0.463575 -0.171750 0.193413 0.206675 0.080971 -0.124557 -0.217349 -0.155578 -0.219679 -0.114041 0.284184 0.070657 0.013448 0.062819 -0.269901 0.069040 0.164289 0.152349 0.211117 0.224415 -0.165445 -0.149979 -0.016000 -0.014257 -0.232878 0.090063 0.197599 0.214580 0.252573 0.081079 0.213470 0.015363 -0.450220 -0.627400 -0.253127 0.031315 0.282966 0.129697 -0.273047 -0.308430 0.269273 -0.004109 0.085007 -0.365545 0.187624 0.084966 -0.243775 -0.103569 0.583680 -0.281422 0.056122 -0.032519 0.031951 -0.513987 -0.100224 -0.380760 0.131971 -0.028490 0.118237
see 0.307833 -0.294143 0.048577 -0.259616 0.169968 -0.413246 -0.270233 0.977360 0.495058 0.522666 0.225961 -0.399826 -0.021315 -0.046562 0.662619 0.448097 -0.171390 0.280374 -0.192203 -0.095670 -0.747643 -0.255107 0.331982 0.477422 -0.381710 -0.472486 0.124516 0.516016 -0.045272 -0.637849 0.080791 -0.317200 -0.435263 0.386797 0.139233 -0.401121 -0.309784 0.623327 0.359315 0.275048 -0.030228 -0.187368 -0.574999 -0.195787 -0.218947 -0.327567 -0.000268 -0.083762 -0.030469 -0.426247 0.030022 -0.361536 -0.268080 0.405796 -0.103991 -0.421383 -0.118082 0.779200 0.280883 -0.798678 -0.386564 0.148485 0.271361 0.360828 -0.249701 0.520507 -0.481762 -0.133660 0.086857 -0.225867 -0.402855 0.252883 -0.074496 -0.078712 0.016807 -0.211816 0.582637 0.381429 -0.072232 0.072140 -0.355680 0.016900 0.270967 -0.886391 0.372184 -0.177167 -0.315610 -0.309529 0.319827 0.391974 -0.302642 0.050390 -0.137238 0.308104 -0.039685 0.262776 0.261266 0.361920 0.187233 -0.659637
them 0.174767 0.154225 0.121448 -0.136423 0.146555 -0.464373 -0.246641 0.545394 -0.037417 0.295179 0.124416 0.014881 0.126890 -0.163022 0.245046 0.088613 -0.127750 0.073834 -0.175740 -0.009063 -0.403622 0.053480 0.443348 0.032310 0.007123 -0.229346 0.186864 0.295553 -0.043002 -0.305060 0.073220 -0.419422 -0.031340 0.267390 0.039536 -0.047935 0.182045 -0.072176 0.290926 0.159289 0.169608 -0.393850 -0.294402 0.098617 0.116204 0.058849 0.020413 -0.236816 -0.109695 -0.269616 -0.074894 0.242310 -0.042309 0.002895 -0.014118 -0.282944 0.021334 0.286513 0.207691 -0.042822 0.019318 -0.127916 0.022101 0.031748 -0.020403 -0.064513 -0.086018 0.108323 0.259136 0.210741 0.033447 0.205277 0.015068 -0.187830 -0.475471 -0.126354 0.081680 0.230192 0.094148 -0.252207 -0.278552 0.171556 0.013028 -0.169771 -0.050684 0.176883 0.008886 -0.213544 -0.013572 0.526439 -0.292627 -0.017724 -0.104560 0.165449 -0.354089 -0.041281 -0.219172 0.236840 -0.135939 -0.058756
your 0.013771 -0.221440 0.089448 -0.210643 0.022738 -0.525061 -0.042309 1.115142 0.397433 0.265358 0.144970 -0.362697 -0.202551 -0.112220 0.698879 0.264679 0.000751 0.257799 0.106270 -0.070507 -0.763720 -0.081521 0.368610 0.674055 -0.323463 -0.311544 0.134460 0.542908 -0.114150 -0.723548 -0.103704 -0.219080 -0.374784 0.461408 0.076420 -0.067847 -0.598822 0.583468 0.254089 0.048435 -0.210358 -0.250161 -0.526590 -0.097564 -0.144667 -0.527901 -0.140557 -0.119710 -0.131425 -0.235020 -0.173294 -0.277584 -0.258413 0.397935 -0.229443 -0.667717 -0.193298 0.239548 0.345216 -0.470535 -0.548757 0.040207 0.049527 0.204360 -0.161435 0.511672 -0.501661 -0.111608 0.030656 -0.271739 -0.719231 0.258684 -0.003684 0.147859 -0.043635 -0.118962 0.409029 -0.051565 0.070988 -0.040613 -0.366109 0.223087 0.256194 -0.755585 0.326208 -0.125562 -0.171195 -0.238804 0.111970 0.366279 -0.186352 0.179220 0.008247 0.426051 -0.040580 0.303272 -0.094450 0.460232 0.091449 -0.447951
our 0.333959 0.351475 0.200276 -0.177529 0.217795 -0.398660 -0.365578 0.400661 -0.294445 0.305844 0.035868 0.161450 0.261541 -0.200354 0.137561 -0.130951 -0.162753 0.035594 -0.309423 0.105268 -0.273629 0.136395 0.599155 -0.199965 0.181333 -0.244609 0.156905 0.186137 0.015707 -0.161172 0.282086 -0.541334 0.123086 0.226537 -0.005603 0.025193 0.446109 -0.371618 0.178425 0.152921 0.449920 -0.507491 -0.264133 0.222562 0.190766 0.280984 -0.024229 -0.277676 -0.137601 -0.275761 -0.017530 0.414758 0.159636 -0.082158 0.046377 -0.191066 0.165908 0.254037 0.205255 0.208699 0.426559 -0.221950 -0.132557 -0.096406 0.080566 -0.360079 0.108982 0.332941 0.306092 0.398756 0.224508 0.238298 0.077309 -0.373452 -0.781065 -0.165910 -0.004253 0.358013 0.158266 -0.376559 -0.358278 0.223588 -0.123219 0.112621 -0.251286 0.298049 0.119912 -0.266616 -0.136336 0.663653 -0.436985 -0.060535 -0.011978 -0.029489 -0.493510 -0.103107 -0.378657 0.120065 -0.233654 0.154697
before 0.381661 0.090481 0.253869 -0.221447 0.143232 -0.412241 -0.237589 0.365824 -0.103100 0.434017 0.061162 -0.090547 0.373361 -0.352001 0.253036 0.015073 -0.100411 -0.059432 -0.316605 0.141301 -0.259259 -0.100594 0.317676 -0.005652 0.148459 -0.223530 0.140629 0.392192 0.136140 -0.217166 0.227374 -0.632590 0.078907 0.088238 0.174172 -0.140809 0.275729 -0.130384 0.309807 0.234986 0.255095 -0.348088 -0.274406 0.111158 0.245467 0.056191 -0.043458 -0.186530 -0.050906 -0.252127 -0.042540 0.298087 -0.047891 -0.006051 0.023246 -0.293974 0.086452 0.274640 0.169805 -0.006777 0.118768 -0.071608 0.014553 0.053234 -0.046865 -0.153654 0.020233 0.090805 0.240471 0.195680 0.158698 0.274663 -0.073960 -0.490939 -0.442279 -0.357387 0.092334 0.335432 -0.004051 -0.169639 -0.249520 0.282630 0.001728 -0.116682 -0.185331 0.186266 -0.049502 -0.140521 -0.095980 0.520343 -0.236276 -0.017645 -0.090547 0.045190 -0.551348 -0.208664 -0.237590 0.093187 0.003740 -0.064366
about 0.278573 0.138602 0.265450 -0.158773 0.172701 -0.285139 -0.179342 0.579895 -0.058528 0.252555 0.034408 -0.058956 0.085816 -0.210364 0.271857 0.036282 -0.084613 0.004301 0.021000 0.130689 -0.381347 -0.111309 0.420279 0.180437 0.005561 -0.324983 0.038466 0.291070 0.190016 -0.211913 0.269423 -0.369908 -0.139916 0.076371 0.029822 -0.041323 -0.104715 -0.107133 0.116634 0.021725 0.101495 -0.273503 -0.336846 0.052961 0.131964 -0.018530 -0.082088 -0.175770 -0.081962 -0.186581 -0.138447 0.186820 0.017978 0.060673 0.062329 -0.275206 0.036838 0.154764 0.246806 -0.042839 0.164811 -0.076957 -0.048631 -0.041258 0.006211 -0.131379 -0.078194 0.238769 0.067200 0.094768 -0.130308 0.227952 0.140108 -0.254760 -0.423947 -0.227499 0.177940 0.205546 0.079913 -0.237993 -0.218558 0.210668 -0.105949 -0.147374 -0.000180 0.189616 -0.113747 -0.241611 -0.046890 0.353422 -0.315715 0.055265 0.091829 0.056147 -0.321781 -0.002383 -0.262593 0.218357 -0.217824 -0.129312
an 0.166325 0.104248 0.171781 -0.112535 0.117121 -0.461051 -0.209324 0.673394 -0.029993 0.295801 0.105998 -0.081000 0.118604 -0.157403 0.256942 0.030254 -0.138003 0.159544 -0.102592 0.121570 -0.381575 -0.033866 0.421102 0.061671 0.003292 -0.176411 0.171088 0.326732 -0.024547 -0.289532 0.106225 -0.391096 -0.017098 0.218788 0.068047 -0.002380 0.072888 -0.077365 0.188978 0.091599 0.208768 -0.279106 -0.348827 0.158271 0.133258 0.019612 -0.041921 -0.218014 -0.102685 -0.234662 -0.065779 0.228911 -0.075556 0.077331 -0.056994 -0.332382 0.061329 0.226530 0.242226 -0.068562 0.093036 -0.121891 -0.103356 0.002236 -0.044107 -0.081834 -0.070104 0.134592 0.195464 0.181688 -0.016166 0.236650 0.013005 -0.094622 -0.487975 -0.112745 0.146208 0.178980 0.081174 -0.254119 -0.266694 0.217716 -0.017955 -0.198729 -0.110677 0.160324 -0.006593 -0.112384 -0.081308 0.503460 -0.314300 -0.000853 -0.068986 0.119858 -0.334375 -0.076472 -0.325776 0.273969 -0.208898 -0.128697
time 0.377660 0.244054 0.296366 -0.163786 0.255499 -0.309011 -0.225889 0.421285 -0.157463 0.421487 0.064063 0.081199 0.265800 -0.198000 0.201264 -0.058455 -0.135967 0.014416 -0.275197 0.268757 -0.180276 -0.111195 0.453978 -0.109067 0.183812 -0.263493 0.040727 0.189570 0.163941 -0.203522 0.224873 -0.523903 -0.000584 0.215515 0.165703 -0.008879 0.349040 -0.423688 0.302155 0.151936 0.393274 -0.438714 -0.216535 0.154480 0.340443 0.140572 0.095106 -0.215455 -0.067954 -0.303864 0.028285 0.441194 0.075746 -0.100594 0.122857 -0.183419 0.205189 0.196000 0.128512 0.204204 0.357477 -0.160674 0.090291 -0.166125 0.082839 -0.249460 0.072849 0.263563 0.256521 0.287379 0.286843 0.305561 0.105712 -0.461803 -0.614735 -0.112681 0.127923 0.298387 0.003132 -0.384395 -0.254219 0.295833 -0.152077 -0.032450 -0.257924 0.384132 -0.092261 -0.289594 -0.059671 0.505630 -0.309328 0.138049 -0.055518 -0.055922 -0.532906 -0.178594 -0.270652 0.108664 -0.183227 -0.052725
good 0.203762 -0.125475 0.114929 -0.176001 0.165226 -0.364712 -0.189025 0.781508 0.184556 0.414666 0.141507 -0.269747 0.066410 -0.155453 0.406705 0.231279 -0.061515 0.166369 0.003305 0.043709 -0.459669 -0.209167 0.287266 0.343814 -0.164957 -0.218774 0.190995 0.425325 -0.029385 -0.454854 0.028296 -0.319932 -0.252998 0.218425 0.190937 -0.134365 -0.245190 0.243711 0.291932 0.111675 -0.047339 -0.231141 -0.376173 0.014741 0.052432 -0.220274 0.006380 -0.159523 -0.093397 -0.209559 -0.087815 0.041415 -0.195250 0.154960 -0.039676 -0.425949 -0.021334 0.369714 0.238924 -0.329557 -0.202564 -0.021965 0.172129 0.029410 -0.177827 0.178950 -0.225958 -0.021521 0.067666 -0.006576 -0.201945 0.207037 0.027879 -0.127836 -0.163388 -0.145721 0.283793 0.194016 0.012837 -0.069951 -0.287181 0.226173 0.151431 -0.502123 0.137971 0.016009 -0.178532 -0.163083 0.061551 0.362308 -0.260744 0.079414 -0.087013 0.191237 -0.262227 0.066225 -0.136595 0.275746 -0.099838 -0.354624
their 0.307926 0.337614 0.206424 -0.193331 0.195830 -0.427128 -0.406574 0.464887 -0.298062 0.318215 0.103479 0.158230 0.250643 -0.188962 0.184317 -0.120398 -0.187684 0.054251 -0.318056 0.065212 -0.299175 0.224405 0.535043 -0.221601 0.212143 -0.296870 0.213060 0.235137 0.024050 -0.202237 0.285320 -0.553521 0.115338 0.212418 -0.076990 0.000717 0.483574 -0.353486 0.245297 0.166660 0.441336 -0.502532 -0.273078 0.202947 0.225350 0.288206 -0.039650 -0.296301 -0.118898 -0.331710 -0.036010 0.422965 0.134564 -0.065348 0.005329 -0.130943 0.109960 0.299544 0.260271 0.204839 0.373617 -0.266126 -0.157709 -0.074073 0.057509 -0.416476 0.064766 0.327612 0.346115 0.359171 0.195649 0.238684 0.046473 -0.327959 -0.822578 -0.224341 -0.032052 0.342481 0.163536 -0.404081 -0.314491 0.121972 -0.158925 0.091440 -0.311289 0.337281 0.150422 -0.266130 -0.137395 0.727968 -0.402932 -0.120996 -0.049820 0.020091 -0.487440 -0.155496 -0.393355 0.181006 -0.238520 0.131177
do 0.154394 -0.338334 -0.008206 -0.245287 0.192676 -0.560948 -0.385011 1.468625 0.622034 0.480197 0.342754 -0.501897 -0.144009 0.176032 0.817968 0.599317 -0.257930 0.471788 -0.019264 -0.268986 -0.956032 -0.282334 0.402267 0.701848 -0.677990 -0.602867 0.242972 0.692017 -0.007528 -0.702118 0.123745 -0.108541 -0.633667 0.626947 0.024880 -0.360265 -0.588373 0.836728 0.395603 0.334659 -0.166230 -0.093598 -0.789994 -0.361682 -0.253017 -0.429221 0.015112 -0.124133 -0.043897 -0.469160 -0.041797 -0.498917 -0.431210 0.557772 -0.218294 -0.436316 -0.227980 0.809479 0.488775 -1.054137 -0.550198 0.147419 0.320921 0.425966 -0.241133 0.613962 -0.684466 -0.154818 0.149447 -0.381674 -0.705989 0.329619 -0.040541 0.235671 0.018987 -0.232056 0.719373 0.200231 0.009645 0.078910 -0.378180 -0.043500 0.204405 -1.244854 0.678951 -0.246931 -0.370142 -0.336767 0.320419 0.370812 -0.366766 -0.050759 -0.019967 0.515444 0.078926 0.413783 0.245516 0.540187 -0.001020 -0.935274
again 0.319198 0.086085 0.217730 -0.191727 0.162712 -0.497014 -0.228222 0.458061 0.058209 0.361707 0.026591 -0.072044 0.167936 -0.337271 0.355693 -0.016397 -0.010461 0.008326 -0.215968 0.051027 -0.354059 0.054288 0.402716 0.066430 0.092497 -0.312266 0.125271 0.344155 0.011888 -0.429491 0.129566 -0.552925 -0.009113 0.254414 0.092164 -0.196344 0.120504 0.024189 0.274441 0.291294 0.223856 -0.428080 -0.177319 0.175037 0.123682 -0.034371 -0.051212 -0.103075 -0.125297 -0.294200 -0.071589 0.177518 -0.070675 0.140317 0.081731 -0.368444 0.030201 0.315783 0.167406 -0.085459 0.063709 -0.137905 -0.039470 0.083967 -0.146370 0.055001 -0.048281 0.020269 0.135489 0.112874 -0.018364 0.170269 0.060906 -0.381852 -0.487785 -0.208018 0.147680 0.311057 0.094558 -0.134937 -0.295227 0.268962 0.128511 -0.123967 -0.216540 0.102232 -0.035237 -0.120291 -0.013035 0.586366 -0.264617 0.056596 -0.059794 0.082502 -0.416413 0.002402 -0.188334 0.200956 -0.003638 -0.126877
into 0.439133 0.316002 0.465137 -0.193093 0.228913 -0.346076 -0.157137 0.298540 -0.383347 0.312975 -0.113762 0.068526 0.337821 -0.581463 0.180625 -0.233636 -0.048487 -0.283313 -0.173354 0.347098 -0.179337 -0.003417 0.531834 -0.105922 0.407938 -0.259555 0.023277 0.247713 0.276408 -0.168384 0.309754 -0.739870 0.174486 -0.082651 0.124678 0.060819 0.234238 -0.499002 0.101935 0.036425 0.342234 -0.500100 -0.204166 0.296457 0.351445 0.157075 -0.206060 -0.287387 -0.098246 -0.170806 -0.208747 0.521784 0.186254 -0.159570 0.153421 -0.380794 0.145522 -0.003030 0.107356 0.424142 0.478716 -0.158215 -0.261191 -0.203388 0.040831 -0.480528 0.159343 0.375721 0.157707 0.386589 0.214744 0.300451 0.078652 -0.644205 -0.768765 -0.377321 -0.054165 0.298006 0.107987 -0.429580 -0.235004 0.475597 -0.136799 0.291556 -0.459802 0.332356 0.028185 -0.213896 -0.267169 0.536381 -0.318706 0.108656 0.057546 -0.131323 -0.720552 -0.260707 -0.586477 0.093885 -0.176311 0.182189
her 0.272393 0.133487 0.122358 -0.192700 0.180412 -0.456905 -0.366465 0.515877 -0.055266 0.350460 0.112067 -0.025609 0.209233 -0.158752 0.298204 -0.021557 -0.135943 0.105156 -0.259873 0.047958 -0.359895 0.073881 0.455786 -0.062606 0.061019 -0.265197 0.211774 0.324231 -0.003537 -0.336402 0.201717 -0.460792 0.017819 0.292691 0.012046 -0.047522 0.280541 -0.079325 0.244852 0.227780 0.278972 -0.360763 -0.267098 0.105597 0.141304 0.129423 -0.023951 -0.217796 -0.074537 -0.293209 -0.006596 0.206942 -0.022455 0.071857 -0.026135 -0.245921 0.059408 0.365294 0.219274 -0.065977 0.153453 -0.145094 -0.063005 0.055729 -0.067746 -0.143669 -0.038017 0.147442 0.280958 0.214139 0.073605 0.239487 -0.036206 -0.258263 -0.579157 -0.198940 0.095430 0.304439 0.093926 -0.236218 -0.329570 0.145625 -0.008927 -0.125441 -0.175521 0.128625 0.003368 -0.205792 0.000373 0.597397 -0.315629 -0.037126 -0.113690 0.099390 -0.375003 -0.030739 -0.265895 0.230199 -0.119958 -0.083129
hand 0.344632 0.279739 0.350899 -0.259952 0.075724 -0.510754 -0.105187 0.288195 -0.186196 0.273667 -0.099398 0.048262 0.248060 -0.590946 0.258215 -0.291688 0.001691 -0.206023 -0.277678 0.208018 -0.204809 0.117797 0.411454 -0.131193 0.375394 -0.235366 0.073747 0.341771 0.091721 -0.364766 0.124561 -0.756116 0.208378 0.047972 0.118560 -0.124228 0.283306 -0.222346 0.162784 0.274205 0.368621 -0.499680 -0.094000 0.314804 0.285681 0.020983 -0.224538 -0.173521 -0.196347 -0.234279 -0.226943 0.359717 0.088586 0.001740 0.086787 -0.404545 0.062562 0.035689 0.150769 0.357329 0.244354 -0.182515 -0.303064 -0.090232 -0.076798 -0.287881 0.150903 0.143525 0.153043 0.219036 0.129241 0.207288 0.030064 -0.528145 -0.736706 -0.333104 -0.089955 0.259738 0.164193 -0.318880 -0.169784 0.364819 0.012854 0.216194 -0.519701 0.269498 0.103973 -0.029136 -0.275169 0.654821 -0.255353 0.064438 -0.026568 -0.064897 -0.617686 -0.217296 -0.445337 0.088409 -0.046822 0.098079
old 0.190727 0.021180 0.297626 -0.127565 0.117989 -0.345394 -0.019118 0.601954 0.060410 0.298507 0.026115 -0.127145 0.076918 -0.338163 0.248083 0.059649 -0.048921 0.012796 0.037389 0.183914 -0.396844 -0.127269 0.321315 0.197330 0.055073 -0.148785 0.071512 0.309611 0.057127 -0.311984 0.041244 -0.450648 -0.125486 0.014069 0.158113 -0.055491 -0.216782 0.002526 0.178890 0.008548 0.045412 -0.303547 -0.333962 0.136164 0.135850 -0.166714 -0.079740 -0.156288 -0.109631 -0.164253 -0.153623 0.146503 -0.067167 -0.010642 0.034898 -0.473493 0.011918 0.191209 0.164029 -0.007887 -0.015042 -0.074769 -0.047425 -0.068217 -0.084303 -0.000912 -0.130594 0.113152 0.054889 0.076241 -0.121910 0.196431 0.055202 -0.223463 -0.317088 -0.235278 0.101485 0.128395 0.027807 -0.238702 -0.194828 0.367283 0.038262 -0.188761 -0.097197 0.158323 -0.089279 -0.133088 -0.079761 0.396722 -0.242554 0.085934 -0.024121 0.105952 -0.361348 -0.107537 -0.254532 0.207963 -0.129799 -0.188385
still 0.322612 0.254813 0.272311 -0.170479 0.209566 -0.442980 -0.216409 0.436915 -0.159791 0.347326 0.045769 0.022435 0.244470 -0.343662 0.160138 -0.106932 -0.119913 -0.022206 -0.175669 0.187372 -0.281354 0.001335 0.437195 -0.084751 0.195869 -0.175011 0.137919 0.259035 0.121377 -0.207943 0.228644 -0.553513 0.098920 0.110440 0.085403 -0.070512 0.173788 -0.298640 0.214727 0.163311 0.288522 -0.341818 -0.265083 0.213955 0.229811 0.133781 -0.052376 -0.217882 -0.127283 -0.255507 -0.072321 0.418900 0.036725 -0.052384 0.089738 -0.304230 0.104631 0.174806 0.223786 0.143558 0.262187 -0.157811 -0.118919 -0.039448 -0.026316 -0.253615 0.024936 0.262007 0.198920 0.254754 0.173685 0.242117 0.082726 -0.395731 -0.622352 -0.260552 0.013316 0.325704 0.127319 -0.301557 -0.223355 0.317310 -0.093659 0.047637 -0.246571 0.267008 0.008339 -0.127156 -0.145927 0.553769 -0.306907 0.013660 -0.048874 -0.006301 -0.533931 -0.196978 -0.316694 0.146353 -0.255376 -0.022221
long 0.158179 -0.194410 0.263418 -0.157392 0.073048 -0.402424 0.088516 0.752989 0.151428 0.344996 0.137561 -0.330226 0.036456 -0.270944 0.253109 0.187507 -0.089770 0.185651 0.110776 0.240324 -0.484053 -0.198027 0.201452 0.310509 0.031204 -0.026086 0.191142 0.338933 -0.008896 -0.471516 -0.096348 -0.431668 -0.175426 0.074010 0.322168 0.050151 -0.340554 0.107366 0.191617 -0.065688 0.026334 -0.302778 -0.314420 0.131185 0.087475 -0.315613 -0.130620 -0.092323 -0.077063 -0.025917 -0.139477 0.021587 -0.083970 -0.027821 -0.064831 -0.677421 -0.009829 0.171085 0.114675 -0.027809 -0.200042 -0.037860 0.055307 -0.090462 -0.118913 0.159333 -0.194804 0.101913 0.143433 -0.063555 -0.206328 0.243445 -0.041343 -0.110639 -0.305486 -0.247823 0.148075 0.096093 -0.005436 -0.280325 -0.212357 0.395378 0.022433 -0.499288 -0.005981 0.283743 -0.163438 -0.208762 0.057549 0.289899 -0.134533 0.137341 -0.047692 0.215000 -0.290970 -0.217003 -0.254239 0.236992 -0.042977 -0.320675
ship 0.184682 -0.091201 0.247094 -0.102273 0.152431 -0.315213 0.065438 0.819390 0.181165 0.336386 0.057872 -0.253656 -0.065218 -0.308644 0.388091 0.229689 -0.017949 0.099056 0.236090 0.199298 -0.508023 -0.252991 0.335040 0.443799 -0.128401 -0.223701 -0.026836 0.316173 0.104301 -0.406171 -0.030139 -0.348159 -0.297929 0.115692 0.230863 -0.031118 -0.509984 0.132015 0.192699 -0.051018 -0.130895 -0.257020 -0.411542 0.013868 0.062272 -0.361116 -0.069548 -0.094783 -0.052415 -0.128907 -0.114919 0.069284 -0.122073 0.105397 -0.004865 -0.526071 -0.027903 0.124393 0.170875 -0.213950 -0.139339 0.053240 0.124380 -0.057533 -0.114218 0.173404 -0.277559 0.072012 -0.039034 -0.032641 -0.312805 0.170369 0.122966 -0.126010 -0.114665 -0.087190 0.329725 0.078479 -0.017383 -0.195800 -0.217611 0.369899 0.094760 -0.361976 0.149613 0.088439 -0.215890 -0.183195 0.092206 0.206336 -0.229201 0.243277 -0.019067 0.147809 -0.204627 0.011387 -0.173945 0.314686 -0.116589 -0.362031
two 0.287945 0.331370 0.283371 -0.172676 0.196737 -0.420798 -0.212496 0.525531 -0.294306 0.289522 0.083903 0.129600 0.197675 -0.216110 0.133799 -0.074909 -0.125273 0.045539 -0.087901 0.196493 -0.235620 0.084747 0.499283 -0.135828 0.257910 -0.191120 0.129004 0.215094 0.099238 -0.134812 0.222343 -0.542069 0.020652 0.010340 -0.001598 0.111434 0.260650 -0.474956 0.123238 -0.060055 0.236612 -0.479163 -0.292082 0.176364 0.251536 0.225491 -0.013347 -0.332440 -0.103402 -0.211430 -0.086290 0.430969 0.116139 -0.174483 0.022601 -0.231120 0.125667 0.132451 0.213647 0.270618 0.349015 -0.224679 -0.148446 -0.153146 0.127540 -0.461554 0.089508 0.382932 0.229737 0.355920 0.177540 0.260633 0.093216 -0.371392 -0.724829 -0.247262 -0.024943 0.247537 0.162399 -0.485398 -0.281638 0.299829 -0.202484 0.101203 -0.210730 0.423572 0.060901 -0.237800 -0.138536 0.603352 -0.398034 -0.015519 -0.022739 0.000833 -0.517291 -0.247523 -0.437950 0.192039 -0.337530 0.124253
who 0.231395 -0.110139 0.230819 -0.084641 0.159552 -0.359540 0.028737 0.789375 0.189116 0.393132 0.072780 -0.210618 0.013436 -0.304443 0.308561 0.187027 -0.008304 0.087151 0.098406 0.210786 -0.404979 -0.204638 0.314566 0.321890 0.003175 -0.094686 0.013737 0.241756 0.027953 -0.413369 -0.093105 -0.421036 -0.222612 0.119427 0.282850 -0.009443 -0.368802 0.053604 0.260291 -0.014494 -0.041533 -0.260595 -0.334760 0.091059 0.071685 -0.230828 -0.009265 -0.098970 -0.076147 -0.187775 -0.090388 0.152889 -0.167250 0.038435 -0.031760 -0.510947 0.047641 0.175100 0.160108 -0.129921 -0.148286 -0.038143 0.073560 -0.075446 -0.095850 0.185650 -0.253080 0.043903 0.043472 0.108433 -0.104028 0.207228 0.108342 -0.180707 -0.175585 -0.100163 0.278652 0.122323 -0.045467 -0.239497 -0.202054 0.377506 0.140956 -0.380668 -0.021753 0.149800 -0.188367 -0.133738 0.066460 0.315506 -0.255816 0.221008 -0.108224 0.164392 -0.272842 -0.092963 -0.151491 0.341329 -0.080145 -0.342616
sea 0.299919 0.173645 0.272860 -0.157480 0.181638 -0.333728 -0.225671 0.437773 -0.151141 0.283888 -0.006055 0.030176 0.173170 -0.306771 0.239280 -0.042541 -0.056577 -0.056172 -0.133221 0.142635 -0.264599 0.024714 0.467268 -0.013736 0.145317 -0.276629 0.096915 0.251708 0.089942 -0.241305 0.182434 -0.514810 0.008913 0.112998 0.069795 -0.032888 0.166647 -0.178110 0.143793 0.088870 0.245422 -0.438000 -0.240446 0.167402 0.178047 0.064789 -0.093343 -0.221067 -0.094863 -0.223042 -0.112617 0.251424 0.066218 0.020805 0.050094 -0.288304 0.061518 0.191936 0.135417 0.100874 0.250406 -0.146856 -0.143943 -0.080058 -0.003435 -0.216901 0.009246 0.213750 0.147605 0.235939 0.052376 0.211410 0.056263 -0.342869 -0.568499 -0.192293 0.056908 0.262140 0.077396 -0.273070 -0.264480 0.243233 -0.034595 0.035866 -0.264606 0.167141 0.016474 -0.221209 -0.113589 0.486145 -0.301681 0.032889 -0.015469 0.016495 -0.445471 -0.091855 -0.377738 0.197019 -0.108188 0.015279
some 0.257696 0.180326 0.226443 -0.146100 0.169609 -0.371205 -0.187948 0.559421 -0.138775 0.304929 0.055074 0.019284 0.155987 -0.205591 0.222032 -0.018362 -0.104045 0.037688 -0.097178 0.173578 -0.327910 -0.005118 0.446153 0.024940 0.080744 -0.182860 0.131387 0.231423 0.048153 -0.236381 0.160417 -0.453423 -0.008758 0.137386 0.094333 0.016508 0.085996 -0.245577 0.189425 0.046961 0.215886 -0.364110 -0.290268 0.149777 0.166915 0.069180 -0.035861 -0.229670 -0.135630 -0.225769 -0.093743 0.344104 0.010281 -0.068788 0.049316 -0.285151 0.107708 0.179041 0.194575 0.081279 0.203272 -0.159043 -0.056579 -0.107315 0.022030 -0.207303 -0.030929 0.234780 0.173166 0.246934 0.054631 0.252058 0.107566 -0.285433 -0.542015 -0.140134 0.095927 0.212997 0.096053 -0.315189 -0.255669 0.308293 -0.059003 -0.083475 -0.131870 0.255746 -0.020595 -0.229966 -0.080602 0.493000 -0.329041 0.065048 -0.030729 0.053238 -0.427263 -0.097203 -0.330388 0.202669 -0.221844 -0.024483
where 0.238429 -0.063161 0.136317 -0.205507 0.158324 -0.413275 -0.161052 0.654549 0.077354 0.348233 0.130673 -0.234902 0.142740 -0.244584 0.391557 0.159142 -0.094620 0.095687 -0.082375 0.091114 -0.446326 -0.166294 0.314243 0.272889 -0.050990 -0.284310 0.125142 0.420179 0.090369 -0.378719 0.140091 -0.380608 -0.118228 0.249910 0.167309 -0.102547 -0.121492 0.112942 0.299508 0.168737 0.102364 -0.243499 -0.350982 0.006381 0.083928 -0.138065 -0.066461 -0.109022 -0.097546 -0.196414 -0.076020 0.133014 -0.140758 0.171841 -0.046928 -0.358823 -0.040421 0.235487 0.246211 -0.204489 -0.101583 -0.007462 0.090112 0.053513 -0.093343 0.105769 -0.223689 0.024266 0.129039 -0.009641 -0.182473 0.228587 -0.022890 -0.209180 -0.206190 -0.210099 0.245732 0.201127 -0.017463 -0.119946 -0.240139 0.221452 0.059476 -0.338338 0.063930 0.091178 -0.107148 -0.202695 0.042987 0.338562 -0.202208 0.073203 -0.055843 0.168216 -0.297003 -0.021927 -0.141780 0.204875 -0.026070 -0.261418
last 0.281295 0.183957 0.281100 -0.167732 0.160535 -0.323487 -0.127313 0.404191 -0.197337 0.276949 -0.039140 0.046330 0.195816 -0.330824 0.201138 -0.095890 -0.039438 -0.075473 -0.104289 0.217950 -0.271154 -0.000176 0.528375 0.036630 0.178372 -0.183437 0.027258 0.212270 0.085172 -0.242312 0.124557 -0.562775 0.059957 0.171221 0.176457 0.034212 0.137497 -0.341007 0.132435 0.059288 0.251658 -0.421437 -0.143870 0.262928 0.239462 0.056194 -0.023643 -0.248388 -0.125368 -0.143456 -0.129165 0.392410 0.107666 -0.050863 0.084192 -0.379824 0.188836 0.061489 0.114418 0.189333 0.301571 -0.166916 -0.088882 -0.213495 0.002418 -0.183251 0.027513 0.244674 0.097151 0.337446 0.139238 0.248831 0.121930 -0.446734 -0.586985 -0.109880 0.051631 0.245034 0.018914 -0.340796 -0.247676 0.392171 -0.020099 0.043902 -0.255272 0.338453 0.013238 -0.183169 -0.141717 0.415335 -0.297524 0.143645 -0.002673 -0.025455 -0.526961 -0.140551 -0.414733 0.180037 -0.125808 0.037093
hands 0.248243 0.012844 0.249339 -0.151873 0.149960 -0.385647 -0.056856 0.564472 0.052486 0.308613 0.027709 -0.135034 0.124772 -0.339441 0.290920 0.017633 -0.033061 -0.004746 -0.075966 0.182664 -0.397224 -0.105665 0.341519 0.179861 0.041982 -0.194920 0.085123 0.358626 0.054968 -0.367965 0.068487 -0.502830 -0.068160 0.137864 0.206614 -0.052574 -0.105002 -0.013876 0.212309 0.121556 0.105016 -0.319033 -0.289443 0.137319 0.134610 -0.153336 -0.097677 -0.112214 -0.171249 -0.171220 -0.112539 0.221080 -0.044197 0.079815 0.027451 -0.433204 0.020024 0.157992 0.176428 -0.053378 0.017003 -0.067729 0.010519 -0.032617 -0.089633 0.005251 -0.122582 0.079135 0.071019 0.077001 -0.048963 0.210530 0.044861 -0.285952 -0.340517 -0.172363 0.152751 0.209171 0.010356 -0.198686 -0.207587 0.318184 0.070266 -0.197624 -0.105154 0.152872 -0.085119 -0.117528 -0.022769 0.366946 -0.242842 0.147817 -0.016873 0.097634 -0.397752 -0.068216 -0.261556 0.195871 -0.047114 -0.158543
back 0.322803 0.094969 0.263641 -0.225211 0.156600 -0.449831 -0.204368 0.427398 -0.015507 0.327395 0.015747 -0.051764 0.196275 -0.368565 0.353327 -0.077442 -0.040856 -0.044395 -0.229148 0.115614 -0.348022 0.049019 0.396686 0.038749 0.170876 -0.313190 0.110859 0.375095 0.059417 -0.416220 0.167120 -0.604866 0.045416 0.225696 0.099531 -0.135819 0.170210 -0.014624 0.282775 0.263944 0.246294 -0.429399 -0.191288 0.162710 0.178830 -0.029599 -0.137819 -0.117850 -0.096436 -0.255305 -0.089620 0.208753 -0.003051 0.145435 0.041585 -0.352769 0.002810 0.229531 0.185413 0.035388 0.105730 -0.134264 -0.109345 0.021506 -0.116795 -0.055494 -0.041838 0.088242 0.170731 0.131476 0.023492 0.197847 -0.000754 -0.409140 -0.513656 -0.267181 0.124706 0.319095 0.051032 -0.182130 -0.246217 0.245390 0.081886 -0.082343 -0.266326 0.138039 0.033882 -0.149191 -0.051731 0.577960 -0.217349 0.056789 -0.061950 0.068482 -0.439301 -0.084999 -0.265416 0.170355 0.036228 -0.085556
squire 0.230116 -0.356553 0.309534 -0.158264 0.104023 -0.364067 0.232210 0.947744 0.299353 0.450288 -0.030904 -0.387984 -0.215740 -0.514589 0.538680 0.191089 0.094593 0.033379 0.307012 0.422317 -0.602244 -0.316927 0.289016 0.672811 -0.116685 -0.119396 -0.166647 0.351404 0.098714 -0.659758 -0.197202 -0.466152 -0.310783 0.098828 0.507874 0.074350 -0.801869 0.198844 0.253557 -0.063618 -0.235072 -0.244898 -0.373115 0.054200 0.038622 -0.581114 -0.153661 -0.003942 -0.139706 -0.038255 -0.144314 0.031320 -0.206846 0.216217 -0.042131 -0.841361 -0.057597 -0.035999 0.108579 -0.260516 -0.326886 0.101216 0.154823 -0.119685 -0.194186 0.425251 -0.326265 0.011324 -0.127658 -0.112161 -0.443090 0.190353 0.130747 -0.254740 0.088350 -0.010155 0.493595 0.013789 -0.089903 -0.131793 -0.268472 0.569260 0.348386 -0.550264 0.066528 0.052112 -0.321914 -0.159324 0.183399 0.062820 -0.174949 0.495747 -0.041160 0.204622 -0.265782 0.002701 -0.267376 0.388577 0.056994 -0.465239
cried 0.152804 -0.389375 0.320451 -0.187406 0.165972 -0.462852 0.247768 1.056553 0.419291 0.431646 0.049764 -0.530188 -0.036837 -0.475858 0.525484 0.315014 0.002602 -0.044141 0.078762 0.280024 -0.659058 -0.479743 0.321007 0.723946 -0.159207 -0.071712 -0.072414 0.541656 0.087308 -0.634877 -0.135924 -0.406437 -0.310067 0.237021 0.491331 -0.051188 -0.853121 0.364127 0.291023 -0.002416 -0.104801 -0.204509 -0.576280 -0.096525 -0.017566 -0.583083 -0.162963 -0.096434 -0.165376 -0.133354 -0.210549 -0.070571 -0.323208 0.242660 -0.089294 -0.936151 -0.063787 0.028372 0.159772 -0.362945 -0.574751 0.231455 0.135967 0.103701 -0.121149 0.535566 -0.434807 -0.086795 -0.000386 -0.241179 -0.505947 0.343038 0.005926 -0.223072 0.148405 -0.142922 0.477949 0.004240 -0.063275 -0.102219 -0.313547 0.593642 0.316351 -0.816885 0.198882 0.008169 -0.401094 -0.175844 0.088159 0.003641 -0.098526 0.414000 -0.098719 0.271935 -0.370440 -0.094516 -0.122131 0.314148 0.073528 -0.644056
over 0.411760 0.302921 0.393246 -0.204904 0.179440 -0.415590 -0.209991 0.341386 -0.274110 0.322730 -0.040659 0.052556 0.314130 -0.467051 0.204470 -0.222068 -0.043391 -0.158488 -0.236463 0.249664 -0.191787 0.053760 0.491439 -0.130810 0.320228 -0.292804 0.071700 0.284072 0.209279 -0.202004 0.275558 -0.701900 0.149554 0.023227 0.087578 -0.044006 0.280886 -0.330721 0.136204 0.147233 0.347948 -0.461356 -0.233559 0.255950 0.318577 0.137813 -0.182929 -0.238161 -0.118901 -0.220201 -0.155792 0.435240 0.115274 -0.081916 0.111692 -0.320609 0.102349 0.088367 0.186154 0.303704 0.380170 -0.173720 -0.225906 -0.118377 -0.012523 -0.384503 0.122238 0.302924 0.184865 0.291023 0.200029 0.297686 0.059840 -0.541870 -0.757973 -0.393070 -0.033496 0.306999 0.148254 -0.376671 -0.232387 0.354693 -0.115153 0.188617 -0.413379 0.309410 0.062604 -0.162969 -0.229349 0.616547 -0.326242 0.024370 0.040917 -0.089182 -0.624064 -0.216030 -0.470689 0.097188 -0.155872 0.079233
which 0.287688 0.208950 0.228419 -0.231538 0.156096 -0.393407 -0.287154 0.478375 -0.267652 0.278349 0.059122 0.020500 0.222376 -0.284832 0.227610 -0.098457 -0.129964 0.009723 -0.148224 0.172422 -0.279741 0.038337 0.455692 -0.039668 0.181367 -0.246574 0.149712 0.297835 0.168075 -0.179241 0.273811 -0.514695 0.083668 0.114689 0.063048 0.053209 0.256396 -0.299550 0.161095 0.076464 0.324286 -0.390558 -0.267066 0.197629 0.238129 0.153356 -0.115498 -0.252372 -0.084836 -0.172898 -0.116156 0.384034 0.075529 -0.035713 -0.001934 -0.276334 0.081033 0.117645 0.223126 0.181951 0.303852 -0.163458 -0.179433 -0.114218 0.034236 -0.335638 0.058849 0.281993 0.224922 0.256568 0.082051 0.294514 0.007740 -0.348832 -0.631320 -0.264992 0.002450 0.246284 0.097848 -0.331981 -0.258026 0.266125 -0.129716 0.031605 -0.223931 0.304019 0.044865 -0.210660 -0.156861 0.532290 -0.312220 -0.015016 0.013603 0.006815 -0.481263 -0.147526 -0.467687 0.150685 -0.195547 0.060110
little 0.333341 0.240514 0.303059 -0.203506 0.207046 -0.362703 -0.254130 0.423079 -0.182390 0.354521 0.042129 0.011207 0.296642 -0.309299 0.195074 -0.065808 -0.138162 -0.050935 -0.215462 0.178228 -0.235000 -0.022954 0.413032 -0.104382 0.201295 -0.224935 0.142256 0.275164 0.137215 -0.192209 0.241158 -0.514048 0.042884 0.030897 0.053419 -0.055739 0.239060 -0.266417 0.172552 0.100119 0.261341 -0.378168 -0.298082 0.151349 0.244365 0.163500 -0.055671 -0.290716 -0.050386 -0.245785 -0.097280 0.313270 0.060870 -0.091653 0.055021 -0.236338 0.099164 0.269973 0.178573 0.140616 0.279950 -0.131910 -0.125488 -0.055167 0.004134 -0.349373 0.067033 0.259243 0.206079 0.262431 0.167238 0.249923 0.002639 -0.402075 -0.635528 -0.299962 0.012810 0.295328 0.131757 -0.306261 -0.235973 0.250184 -0.137558 0.012574 -0.252174 0.257863 -0.005699 -0.176651 -0.153941 0.566991 -0.313013 -0.023575 -0.038565 -0.012742 -0.530592 -0.210559 -0.342110 0.136948 -0.193765 -0.024762
men 0.281068 0.089348 0.254265 -0.165045 0.181981 -0.352365 -0.076413 0.627673 -0.060415 0.329444 0.072378 -0.024230 0.124882 -0.305051 0.227028 0.059877 -0.102447 -0.009097 0.003894 0.217942 -0.374035 -0.081967 0.362583 0.132441 0.111221 -0.206524 0.013456 0.237844 0.132154 -0.258954 0.140144 -0.494162 -0.103884 0.075876 0.143785 0.020587 -0.089644 -0.181765 0.216262 0.019401 0.065635 -0.339611 -0.354506 0.082642 0.182467 -0.056445 -0.047004 -0.172241 -0.073904 -0.219398 -0.076599 0.311784 -0.013046 -0.045828 -0.003637 -0.348985 0.006995 0.133685 0.166344 0.032475 0.090086 -0.075781 0.024929 -0.085899 -0.003420 -0.177598 -0.108620 0.209163 0.125673 0.156157 -0.003858 0.202427 0.084794 -0.304661 -0.384465 -0.187060 0.160656 0.186958 -0.003053 -0.335461 -0.221032 0.276271 -0.037759 -0.117702 -0.106793 0.236022 -0.065237 -0.211695 0.004243 0.405982 -0.304339 0.120212 -0.041413 0.085044 -0.386422 -0.151985 -0.249239 0.256198 -0.171141 -0.105312
sir 0.111768 -0.510054 0.181022 -0.225120 0.102074 -0.526397 0.072592 1.203187 0.526175 0.501368 0.151432 -0.561049 -0.131045 -0.326394 0.706682 0.389432 -0.022211 0.125670 0.136883 0.211574 -0.818427 -0.390910 0.258064 0.774941 -0.340107 -0.137962 0.010148 0.653760 0.023779 -0.810747 -0.134793 -0.331182 -0.379984 0.396040 0.512158 -0.102181 -0.871880 0.548874 0.403922 0.123932 -0.216932 -0.112341 -0.576048 -0.159946 -0.035665 -0.637273 -0.098981 -0.037712 -0.141166 -0.171197 -0.123665 -0.187826 -0.456536 0.387329 -0.195041 -0.913102 -0.168968 0.227141 0.239379 -0.663178 -0.711597 0.192104 0.274162 0.190950 -0.270407 0.662338 -0.539355 -0.164261 0.029174 -0.305460 -0.613379 0.333923 -0.055477 -0.054283 0.220100 -0.117673 0.602155 0.027567 -0.137782 0.004776 -0.359650 0.445514 0.400799 -1.048894 0.299794 -0.103282 -0.425742 -0.163470 0.269563 0.085634 -0.140978 0.374335 -0.142483 0.405350 -0.226177 0.104116 -0.067519 0.439857 0.119977 -0.769952
are 0.049287 -0.269331 0.079603 -0.246492 0.097263 -0.386518 -0.118841 1.098349 0.316170 0.368475 0.229777 -0.439633 -0.120517 -0.012042 0.637429 0.346674 -0.111614 0.262337 0.055831 0.008510 -0.762610 -0.282153 0.303867 0.677680 -0.403459 -0.362265 0.100469 0.578564 0.018576 -0.528270 0.095940 -0.166953 -0.401200 0.401462 0.159198 -0.083266 -0.571046 0.492294 0.261825 0.053107 -0.147299 -0.157068 -0.634527 -0.242553 -0.137463 -0.408761 -0.079751 -0.141498 -0.147224 -0.175160 -0.138344 -0.225241 -0.231897 0.358106 -0.211972 -0.561211 -0.147260 0.287292 0.346842 -0.581429 -0.436863 0.137038 0.206443 0.194700 -0.105791 0.395808 -0.441758 -0.014896 0.052964 -0.299458 -0.628208 0.338340 -0.052110 0.044960 0.055563 -0.166170 0.471260 0.062980 0.009298 -0.014936 -0.375499 0.197877 0.157313 -0.888480 0.519977 -0.069929 -0.264834 -0.366709 0.183983 0.159344 -0.204111 0.138690 0.058493 0.395072 -0.121758 0.215717 -0.076643 0.311061 0.036170 -0.495400
can 0.199667 -0.316512 0.034119 -0.357562 0.046583 -0.576824 -0.304281 1.445390 0.575405 0.445845 0.339013 -0.484546 -0.296560 0.097466 0.809313 0.608949 -0.080090 0.415055 0.175597 -0.253847 -0.935489 -0.300143 0.197380 0.944036 -0.649179 -0.503551 0.137211 0.698424 0.141919 -0.677273 0.212010 -0.088538 -0.617918 0.565964 0.139508 -0.297214 -0.773769 0.828955 0.415725 0.256929 -0.311510 -0.136005 -0.592044 -0.268581 -0.207738 -0.565070 -0.026819 -0.009020 -0.110068 -0.341709 -0.154254 -0.342946 -0.495552 0.469871 -0.215482 -0.569298 -0.230590 0.510430 0.494007 -0.877014 -0.734222 0.031894 0.263319 0.376980 -0.241266 0.605397 -0.675719 -0.165762 0.088440 -0.464722 -0.919989 0.411995 0.123705 0.121694 0.184124 -0.295784 0.649219 0.010631 0.113112 0.113727 -0.372836 0.186006 0.189512 -1.233823 0.815086 -0.132502 -0.434009 -0.375547 0.289625 0.357679 -0.286871 0.006101 0.127849 0.528557 0.078703 0.472506 0.128513 0.444660 0.006835 -0.919320
come 0.197833 -0.284586 0.073198 -0.192763 0.123003 -0.441477 -0.130151 0.884973 0.379063 0.438572 0.161690 -0.359351 -0.059710 -0.204361 0.599537 0.256163 -0.081745 0.240115 -0.091746 0.051589 -0.605518 -0.155556 0.293857 0.464952 -0.162718 -0.290408 0.121567 0.510002 -0.153548 -0.716268 -0.083132 -0.397203 -0.314359 0.430577 0.241282 -0.122698 -0.266677 0.464491 0.386678 0.244587 0.005431 -0.304505 -0.376648 -0.051740 -0.057497 -0.345468 -0.023914 -0.076167 -0.117361 -0.254124 -0.030849 -0.116142 -0.261696 0.363577 -0.154066 -0.536191 -0.115390 0.410051 0.230601 -0.485027 -0.363108 0.018146 0.183540 0.097756 -0.243829 0.455509 -0.367694 -0.188129 0.122530 -0.103014 -0.315771 0.167337 -0.061574 -0.066307 -0.060903 -0.039096 0.436170 0.174358 -0.098591 -0.015676 -0.335260 0.173790 0.309522 -0.679520 0.083913 -0.073990 -0.185424 -0.193800 0.206760 0.383636 -0.204433 0.198625 -0.188537 0.315659 -0.141637 0.132061 -0.057045 0.393755 0.117089 -0.455290
first 0.322892 0.017650 0.242721 -0.140471 0.181874 -0.326112 -0.068122 0.523422 0.006426 0.340228 0.022465 -0.101507 0.138595 -0.330228 0.280152 0.077938 -0.073450 -0.010932 -0.057564 0.201286 -0.361014 -0.121882 0.409003 0.169044 0.059033 -0.202771 0.063518 0.293929 0.071493 -0.339910 0.074241 -0.489559 -0.064087 0.124664 0.226693 -0.028532 -0.064350 -0.083631 0.213314 0.079132 0.128891 -0.345776 -0.267404 0.100636 0.158081 -0.097186 -0.051858 -0.149837 -0.116957 -0.186160 -0.062263 0.274154 -0.031274 0.028804 0.057741 -0.414783 0.080821 0.183344 0.147740 -0.026039 0.066466 -0.058010 0.036705 -0.103641 -0.053842 0.010519 -0.119741 0.127171 0.102637 0.172910 0.028841 0.205447 0.092447 -0.338288 -0.330230 -0.140406 0.204424 0.240828 -0.024165 -0.227381 -0.235906 0.359216 0.047860 -0.184493 -0.088344 0.194818 -0.098184 -0.200289 -0.004426 0.367916 -0.253118 0.157404 -0.073461 0.055632 -0.393816 -0.084291 -0.240134 0.224980 -0.091896 -0.137434
very 0.231484 -0.018133 0.246949 -0.176295 0.169031 -0.343035 -0.128331 0.636662 0.007637 0.369960 0.083143 -0.221414 0.149262 -0.307892 0.306183 0.096257 -0.086485 0.064631 -0.061571 0.199013 -0.349092 -0.180953 0.308512 0.190962 0.043711 -0.172188 0.137835 0.372276 0.082617 -0.335837 0.098434 -0.448396 -0.098931 0.080124 0.210742 -0.044638 -0.129870 0.002931 0.241263 0.062984 0.084843 -0.270453 -0.356819 0.089921 0.161817 -0.086491 -0.069130 -0.184258 -0.092570 -0.177195 -0.097280 0.175087 -0.115414 0.054454 -0.032301 -0.443375 0.014197 0.224492 0.197712 -0.093018 -0.026294 -0.053630 0.026906 -0.025098 -0.084643 -0.018276 -0.110491 0.096942 0.117305 0.068723 -0.059570 0.251578 0.002721 -0.251910 -0.318617 -0.241127 0.153261 0.217787 -0.004736 -0.188322 -0.262796 0.303125 0.037846 -0.287719 -0.035451 0.130606 -0.114802 -0.164720 -0.052513 0.405994 -0.244898 0.093077 -0.071632 0.126632 -0.389809 -0.101186 -0.271381 0.194503 -0.097413 -0.192973
jim 0.193616 -0.428796 0.156006 -0.248063 0.136048 -0.496096 0.022745 1.124563 0.492359 0.498725 0.120681 -0.538353 -0.132464 -0.299791 0.765306 0.345226 0.002037 0.189251 0.055257 0.140631 -0.771187 -0.363023 0.362709 0.804574 -0.293437 -0.281381 0.092040 0.669744 -0.124085 -0.854600 -0.133966 -0.419655 -0.415680 0.407721 0.399476 -0.154364 -0.665052 0.614033 0.404279 0.170623 -0.185293 -0.287742 -0.514073 -0.082657 -0.113644 -0.637500 -0.092517 -0.074442 -0.210910 -0.195488 -0.152731 -0.207119 -0.365674 0.435179 -0.104264 -0.859803 -0.151160 0.294806 0.276505 -0.612056 -0.585618 0.112579 0.260257 0.125787 -0.301465 0.670918 -0.470574 -0.231002 0.017812 -0.254219 -0.589898 0.265465 0.029171 -0.077855 0.127145 -0.051000 0.578013 0.122467 -0.086870 0.047806 -0.438672 0.391585 0.437613 -0.933455 0.299603 -0.138825 -0.347634 -0.251499 0.192958 0.240945 -0.177589 0.382256 -0.119758 0.402781 -0.238453 0.242452 -0.106944 0.428657 0.147803 -0.590486
