2448 100
and 0.285253 0.127845 0.372811 -0.036909 0.399607 -0.298165 -0.385864 0.652075 -0.157725 -0.040257 -0.094248 -0.104626 0.410381 -0.235078 0.067903 -0.077080 0.224905 -0.241027 -0.322129 0.235057 -0.434648 0.113686 0.466314 0.001146 0.159221 -0.297161 0.190131 0.181065 -0.033894 -0.671920 0.298421 -0.344642 -0.120165 0.248859 -0.170047 0.093760 0.134163 -0.135270 0.328720 0.401432 0.269562 -0.149793 -0.030393 0.552368 0.106947 0.019485 -0.219114 0.146643 0.049971 -0.008300 0.001860 0.059779 0.047205 0.118055 -0.033303 -0.307257 0.036031 0.309335 0.290511 0.188400 0.086137 -0.466898 -0.219263 0.366416 -0.186208 -0.030050 -0.161375 -0.021786 0.304698 0.233446 0.022196 0.317453 0.093944 -0.324046 -0.672273 0.020762 -0.078675 0.551369 -0.072488 -0.321117 -0.269284 0.485615 0.073264 0.032109 -0.161736 0.017544 -0.140815 -0.264287 -0.195219 0.495873 -0.202602 -0.088213 0.041425 0.143994 -0.232002 0.020710 -0.070225 0.294977 0.142181 -0.178943
the -0.236347 0.031094 -0.245055 0.185635 0.496210 -0.683086 -0.528810 0.875033 -0.564060 0.045588 -0.025739 0.043936 0.766072 0.063559 0.192367 -0.033827 0.160995 0.300974 -0.688699 0.647963 -0.142503 0.140430 0.530701 -0.795286 0.022345 0.086969 0.495555 -0.038607 -0.225763 -0.546091 -0.080272 -0.171735 0.508526 0.451232 0.100576 0.583250 0.682495 -0.653713 -0.238433 0.036255 1.435315 -0.871481 -0.094361 0.875491 -0.391446 0.226355 -0.266155 0.006203 -0.570075 0.053538 0.160536 0.458305 -0.611749 -0.083618 -0.374158 -0.831010 0.482362 -0.169242 0.620899 0.458122 0.564152 -0.423200 -0.283345 0.147079 0.309083 -0.364291 -0.203580 -0.299674 0.344336 0.064015 0.194433 0.364742 0.357858 -0.170376 -0.957078 0.625664 0.028085 0.228801 0.110762 -0.563015 -0.262386 0.461343 -0.014186 0.284755 -0.604223 0.331371 0.210134 -0.343166 0.049568 0.446466 -0.158482 0.002875 -1.008481 -0.006530 -0.427342 0.212337 -0.041638 -0.314194 -0.369943 0.094104
i 1.165242 -0.106989 0.787917 0.233252 0.170156 0.305075 -0.043579 0.507770 0.626949 0.635500 0.423100 0.418593 -0.659547 -0.457304 0.133850 0.828039 -0.563384 0.549216 0.513561 -0.456126 -0.554654 -0.076241 0.662805 0.266434 -0.469042 -0.667196 0.448285 0.233726 0.512143 -0.488690 -0.467808 -0.686542 -0.862528 0.450576 -0.448729 -0.733231 0.209581 1.152380 0.877399 0.564120 -0.368221 0.653102 0.515182 -0.351419 -0.094706 0.061811 0.402431 -0.145658 0.368509 -0.524533 0.641255 -0.525979 -0.643060 0.270736 0.593584 0.092048 -0.532906 1.419700 0.082835 -0.729042 -0.495199 -0.693213 0.372862 0.242752 -0.883661 0.934544 -0.167374 0.439494 -0.118013 0.283502 0.281214 0.018732 -0.143920 -0.236227 -0.195087 0.093503 0.514262 0.071727 0.208557 0.097048 -0.072140 -0.314723 0.418091 -0.985169 0.198269 -0.074465 -0.461150 -0.159592 0.349719 1.461743 -0.471369 0.295642 0.214565 0.108094 0.341729 0.321928 0.546249 0.999027 -0.388937 -0.591954
to 0.483539 0.318146 0.322474 -0.324303 0.225626 -0.084475 -0.706478 0.704289 -0.318718 0.366377 0.104841 0.404370 -0.133716 -0.281039 0.520119 0.057615 0.358647 -0.562667 0.160815 -0.122530 -0.301914 0.285126 0.670008 0.474925 -0.300175 -0.745824 0.143300 0.507273 0.168327 -0.542293 0.307682 -0.570469 -0.164132 0.531358 -0.121276 0.133394 0.107088 0.191436 0.809335 0.426136 -0.783469 0.148470 0.777639 0.529423 0.508148 -0.171640 -0.174893 0.105826 0.254126 0.431929 -0.212372 -0.248981 -0.165578 0.432666 -0.012123 0.085155 -0.695819 0.170806 0.020539 0.137252 -0.183633 -1.190126 0.315495 0.268855 -0.316043 0.147184 0.293593 0.098482 0.149046 0.056585 -0.065309 0.247536 -0.258062 -0.500688 -0.102162 -0.121376 0.284203 0.242505 0.250292 -0.249627 -0.530277 -0.214619 0.100778 -0.451811 0.032824 -0.169581 -0.353147 -0.617732 -0.226272 0.624385 0.133849 -0.343170 0.666246 0.083151 -0.117036 0.353625 -0.123606 0.463926 0.032570 0.026852
a -0.101081 -0.006575 -0.159138 0.264964 0.155402 -1.038351 -0.107316 0.767935 -0.225998 0.265255 0.070000 -0.056737 0.392797 -0.041585 -0.092844 0.267655 -0.003705 0.261713 -0.141120 0.186203 -0.074326 0.029283 0.261939 -0.591392 -0.191688 0.240427 0.618220 -0.018643 -0.209109 -0.401929 -0.268459 -0.085003 0.534448 0.339525 0.109481 0.191289 0.250293 -0.018730 0.112124 0.005678 0.542267 -0.681429 -0.278031 0.599403 -0.091760 0.002657 -0.195059 -0.213828 -0.559574 -0.283725 0.221257 0.711370 -0.935800 0.063235 -0.125321 -0.491440 0.124055 0.057703 0.500941 0.146143 0.106036 -0.378434 0.239354 0.037172 0.551335 -0.139408 -0.066138 -0.177761 0.281106 0.087517 0.103899 0.617114 0.179542 0.245097 -0.271081 0.384792 0.251770 -0.307782 0.420449 -0.380351 -0.382255 0.368546 0.095054 -0.111988 -0.509783 -0.106259 -0.034864 -0.057567 -0.077752 0.624493 -0.203003 -0.039231 -0.604848 0.011726 -0.043747 -0.026267 -0.170112 -0.033563 -0.466325 0.087969
of -0.244344 0.402165 0.534161 -0.149654 0.601104 0.194140 -0.135631 0.756184 -0.262726 0.028927 -0.004425 -0.015628 0.487215 -0.482639 0.438649 0.319783 0.053609 0.041847 -0.170790 0.622671 0.219117 -0.522978 0.002882 -0.297810 0.385255 -0.538591 0.587636 0.220202 -0.151095 0.144239 0.484893 -0.628924 0.344277 -0.327341 -0.063983 -0.184196 -0.180195 -0.189911 -0.347648 -0.436840 0.363784 0.054543 -0.395021 0.228193 0.246913 0.199558 -0.483158 -0.336569 0.075208 -0.359024 -0.267695 0.403242 -0.388156 -0.460148 0.039689 -0.121562 0.100888 0.138322 -0.053998 0.559431 0.428125 -0.573899 0.188336 0.258257 0.085258 -0.642753 0.165291 0.345358 0.433959 -0.203072 0.132779 0.121125 -0.107931 -0.157476 -0.180114 -0.631465 0.136929 -0.261607 0.376119 -0.416231 0.014245 0.149568 -0.418836 -0.220771 -0.323841 -0.113376 0.004269 -0.282241 -0.117656 0.842690 -0.149485 -0.036852 0.577281 0.044514 -0.644884 -0.247312 -0.567372 -0.258209 0.003650 0.036396
he 1.175682 -0.466961 0.080349 -0.068673 -0.330715 -0.039537 -0.265256 0.447998 0.422959 0.461005 0.564047 -0.258054 -0.241902 -0.088870 0.027858 0.605144 -0.685183 0.984300 0.525400 0.302820 -0.714011 -0.097722 0.309127 -0.022021 -0.296880 -0.016609 0.648862 0.057508 0.291175 -0.624706 -0.040672 -0.430602 -0.598262 -0.165745 -0.306926 -0.354187 0.301403 0.991423 0.569795 0.856247 0.186313 0.402018 0.037144 0.090104 -0.099514 0.236051 0.293097 -0.160916 0.062722 -0.133968 0.457980 -0.088212 -0.437247 -0.504397 0.376790 0.081019 0.292026 1.485973 0.516456 -0.411959 -0.116367 -0.318800 -0.188424 -0.148685 -0.666637 0.419655 -0.034974 0.269545 -0.056898 0.736707 0.273799 0.249861 0.242007 -0.073673 -0.347643 -0.130306 0.072082 0.415449 -0.170411 0.333649 0.087726 -0.066769 0.571990 -0.528715 0.054180 0.329400 -0.391343 -0.044040 0.582925 1.167509 -0.788967 0.248987 -0.150359 0.288245 0.398681 0.304192 0.240816 0.546545 -0.270757 -0.553815
you 1.290790 -0.134302 0.213882 -0.021238 -0.375595 -0.402102 -0.291153 1.102915 0.376200 0.777189 0.678443 0.182508 -1.481010 -0.213647 0.739616 0.875410 0.022360 0.467666 0.235121 -0.824576 -0.908992 -0.019680 0.673956 0.735499 -0.716260 -1.081688 -0.175755 0.123868 -0.236720 -0.648006 -0.292885 -0.989616 -0.944075 0.931257 -0.635776 -0.045152 0.261775 1.374132 0.381348 0.141150 -1.186580 -0.293274 0.660438 -0.912746 -0.172129 -0.271150 0.284667 -0.911705 0.102024 -0.207768 0.628812 0.000809 -0.267552 0.198600 0.518721 0.720045 -0.725654 1.386707 -0.391711 -0.758834 -1.258605 -1.157291 0.863242 0.022358 -0.343935 1.237041 -0.209903 -0.268934 0.042581 0.886968 -0.359803 -0.318531 -0.538557 -0.130347 0.830050 -0.331406 1.130398 -0.218616 0.348064 -0.108000 -0.864644 -0.508930 1.182537 -0.926340 0.975912 0.547446 0.261782 -0.967640 0.686629 1.087709 -0.960985 0.338796 -0.118852 0.128858 0.893014 0.838687 0.181858 1.067504 -0.060340 -0.305341
her 0.161416 -0.096829 -0.326915 -0.074453 0.152977 -0.860099 -0.045851 0.671550 0.022156 0.239720 -0.176455 -0.202518 0.447928 -0.243167 0.061119 0.006124 -0.112168 0.364394 -0.289484 0.181165 -0.581975 0.639567 0.402761 -0.639825 -0.658856 0.040943 0.421058 0.237170 0.282948 -0.967405 -0.018651 -0.031779 0.256333 0.690121 -0.150972 0.282511 0.614158 0.102175 0.253994 0.785042 0.674756 -0.391603 -0.224626 0.356134 -0.309643 -0.031315 -0.111132 0.157868 0.091912 -0.489068 0.354458 0.043762 -0.755078 0.453443 -0.003876 -0.794851 0.630445 0.609114 0.557094 -0.033987 -0.054457 0.237315 -0.305906 0.035745 0.187814 0.174010 -0.310040 -0.610413 0.518471 -0.057222 -0.149878 0.717393 -0.005043 -0.090939 -0.970558 0.389121 -0.332077 0.328770 0.016695 -0.128434 -0.280966 0.346934 0.276297 0.209915 -0.364327 -0.181482 -0.551664 0.097192 0.356217 0.122084 -0.459692 0.141384 -0.914762 0.014631 0.020765 0.239099 0.220408 0.249743 -0.629262 -0.153165
in -0.025697 0.400798 0.281420 -0.242530 0.475592 0.032797 -0.417327 0.663600 -0.413464 -0.033139 -0.003452 -0.179792 0.389488 -0.258598 0.226940 0.109592 0.165601 -0.134619 -0.054123 0.565125 0.098907 -0.127890 0.202365 -0.085719 0.264100 -0.305703 0.541969 0.234526 -0.163980 -0.240290 0.701102 -0.556307 0.279296 -0.253368 0.110468 -0.056166 -0.055756 -0.312764 0.075309 -0.099652 0.121273 -0.099445 -0.055704 0.556057 0.286694 0.155080 -0.513436 -0.159546 -0.105678 0.030135 -0.203309 0.404690 -0.178868 -0.345106 -0.018355 -0.098999 0.012304 0.045999 0.210846 0.505742 0.430487 -0.678122 -0.076926 0.212363 0.026267 -0.463409 0.192167 0.287142 0.253461 0.024722 0.111609 0.252470 0.007020 -0.284494 -0.341822 -0.377227 0.125260 0.167286 0.183223 -0.358249 -0.164882 0.248868 -0.306263 -0.099768 -0.458577 -0.110602 0.018585 -0.386858 -0.158357 0.762436 -0.055952 -0.166658 0.446507 0.005327 -0.538725 -0.157656 -0.643264 -0.072419 0.046584 0.097456
his 0.075706 -0.268982 -0.289043 0.199253 0.296081 -0.881407 -0.121758 0.724655 -0.163029 -0.195418 -0.230362 -0.426816 0.973339 -0.134811 0.011947 -0.045213 -0.114665 0.426840 -0.516158 0.591634 -0.386514 0.642095 0.459386 -0.998567 -0.395011 0.112314 0.801917 0.027383 0.056130 -0.927213 -0.055627 0.049017 0.522683 0.543585 -0.066532 0.376694 0.677930 -0.048831 -0.020030 0.750452 0.993949 -0.452695 -0.632877 0.656948 -0.058816 -0.037596 -0.451543 0.239229 -0.158709 -0.421316 0.272345 0.449874 -0.791962 0.222591 -0.153592 -1.142949 0.776614 0.538926 0.744330 0.117238 0.349058 0.311196 -0.310854 -0.019614 0.112882 -0.166460 -0.428511 -0.671259 0.430325 0.138968 0.281106 0.869381 -0.122805 0.325305 -1.127316 0.326394 -0.392262 0.200890 -0.294823 0.027163 -0.349651 0.681542 0.403993 0.464779 -0.709647 -0.324814 -0.471560 0.381942 0.042287 0.080491 -0.434940 0.349539 -1.001704 0.270895 -0.137844 0.153852 0.031234 0.003336 -0.610122 0.160781
it 0.538581 0.027376 -0.152087 0.056801 -0.273768 -0.613215 -0.044338 0.893026 0.373536 0.502687 0.490983 -0.137174 -0.343500 -0.049530 0.235628 0.583790 -0.611036 0.912002 0.578997 0.007294 -0.588633 -0.469842 0.333884 -0.011812 -0.404884 -0.228149 0.437770 0.016644 0.429605 -0.207668 0.001829 -0.355710 -0.359059 0.342108 -0.069838 -0.193437 -0.292194 1.054937 0.177109 0.272776 0.143497 -0.045195 -0.140110 0.095645 -0.131451 0.140989 0.337345 -0.279336 0.003742 -0.215734 0.303883 0.174188 -0.545120 -0.179720 0.081255 0.058003 0.042916 0.570029 0.415809 -0.540829 -0.007648 -0.387684 0.321387 -0.022501 -0.418623 0.481981 -0.535780 0.280291 -0.121049 0.497516 0.031799 -0.007467 0.104816 -0.089227 0.042212 -0.005716 0.406009 -0.033843 0.261554 0.143745 0.056788 -0.077128 0.467679 -0.358124 0.609991 0.340360 0.122952 -0.107078 0.552814 0.960185 -0.491478 0.063611 -0.411395 0.060717 0.131852 0.111031 0.127596 0.181949 -0.391542 -0.505518
she 1.061611 -0.303665 0.000548 -0.159968 -0.285355 -0.080222 -0.237091 0.424206 0.351414 0.540958 0.452892 -0.334757 -0.095938 -0.061701 0.013390 0.503593 -0.629649 0.951510 0.599037 0.263581 -0.724980 0.062307 0.439963 0.059615 -0.401559 0.073415 0.624104 0.139179 0.346078 -0.788877 0.157493 -0.503958 -0.598361 -0.068358 -0.291239 -0.408162 0.330475 0.907402 0.772386 0.865304 0.149110 0.405576 0.016384 0.098312 -0.110571 0.153089 0.310277 -0.017326 0.261912 -0.203051 0.523325 -0.223585 -0.504469 -0.262357 0.535230 0.005187 0.371700 1.455321 0.507467 -0.458644 -0.066224 -0.315837 -0.280415 -0.081526 -0.661342 0.583654 -0.004853 0.197354 0.005895 0.581702 0.156052 0.253458 0.328439 -0.239151 -0.527618 -0.042220 0.047459 0.624785 -0.171809 0.201505 0.021415 0.042815 0.465874 -0.425421 -0.022040 0.151597 -0.453700 -0.003181 0.651386 1.018713 -0.658506 0.134616 -0.149008 0.142081 0.258587 0.242771 0.197075 0.762473 -0.341315 -0.514793
that 0.510650 0.003102 0.085815 -0.133344 -0.275708 -0.144900 -0.162183 0.856238 0.096215 0.432482 0.445532 -0.209846 -0.058988 -0.010752 0.310838 0.495567 -0.400378 0.579725 0.143013 0.132314 -0.418045 -0.205512 0.332807 0.176931 -0.315536 -0.380972 0.427939 0.180047 0.080292 -0.093142 0.265116 -0.463841 -0.439391 0.313051 -0.077870 -0.283437 0.017664 0.707796 0.211851 0.128537 0.039986 0.078283 -0.425510 -0.178755 0.126299 0.113665 0.343351 -0.335875 0.324122 -0.359023 0.283140 0.097721 -0.283550 -0.232700 -0.037153 0.255743 0.119799 0.551843 0.155502 -0.308060 -0.088339 -0.150012 0.334391 -0.026183 -0.320366 0.264904 -0.382369 0.100813 0.082436 0.528423 0.261507 0.182277 -0.337199 -0.025548 0.105700 -0.188809 0.320630 0.152276 -0.052168 0.126097 -0.020768 0.104806 0.287336 -0.391013 0.640160 0.116867 0.030377 -0.190282 0.352973 0.566616 -0.478796 -0.075413 -0.294104 0.131966 -0.018849 -0.095624 0.033081 0.237935 0.053223 -0.430678
was 0.232341 -0.161051 0.334828 0.016107 0.343661 -0.302617 -0.082101 0.206481 -0.153867 0.148556 0.181176 -0.274439 1.176598 -0.167241 0.374994 0.319504 0.147638 -0.465650 -0.758153 0.319356 0.129617 -0.301352 0.127487 -0.215490 -0.320064 -0.207011 0.700489 0.759699 0.666845 0.700143 0.630373 -0.556753 0.502657 0.272009 -0.089145 -0.199794 0.122705 -0.207394 -0.184610 0.368105 1.087940 0.249034 -0.752816 -0.152881 0.411128 0.285143 -0.341142 0.006865 -0.022045 -0.250434 0.113112 0.198700 -0.527123 -0.578833 0.018340 -1.024800 0.765376 0.274004 -0.256826 0.293432 -0.061937 0.540087 0.613829 -0.172160 -0.112291 -0.162360 0.284956 0.405229 0.602838 -0.097774 0.430681 1.032827 -0.117035 0.145688 -0.747684 -0.781878 0.192532 0.512897 0.280142 0.380524 -0.387107 0.766929 -0.000189 -0.707829 0.266251 -0.620681 -0.291022 0.052940 -0.317927 -0.130571 -0.362067 -0.041104 -0.059414 0.270556 -1.015976 -0.319078 -0.365357 -0.775395 0.020293 0.321655
my 0.096057 -0.219915 -0.244867 0.302090 0.197035 -0.730601 -0.147780 0.970569 0.030917 0.162056 -0.294568 -0.004957 0.141677 -0.130368 0.270564 0.004936 0.169728 0.485912 -0.241214 0.069329 -0.341050 0.080655 0.570543 -0.689115 -0.465303 -0.120274 0.439868 -0.070126 0.188939 -0.843377 -0.425677 -0.088458 0.300726 0.831981 -0.238283 0.451182 0.236778 0.490074 -0.109999 0.349727 0.786365 -0.580659 0.005293 0.448186 -0.469793 -0.211138 -0.181912 0.098214 -0.081044 -0.438582 0.305020 0.105434 -0.674064 0.383793 -0.253185 -0.672590 0.349167 0.421362 0.428291 0.091218 0.052244 -0.255996 -0.261948 0.025989 -0.081360 0.127460 -0.684048 -0.513909 -0.002267 0.125949 -0.057566 0.381515 0.356756 -0.102648 -0.482006 0.449291 0.055659 -0.053406 0.109074 -0.128640 -0.355343 0.229536 0.410561 0.148121 -0.058645 0.015823 -0.196981 -0.050862 0.173537 0.451488 -0.319584 0.266629 -0.791986 0.157795 -0.044514 0.406911 0.242978 0.014097 -0.485022 -0.142503
me 0.413674 0.094072 0.057960 -0.035173 -0.236438 -0.793639 -0.075532 0.868277 0.353375 0.631420 0.243525 0.241886 -0.607698 -0.424344 0.418983 0.307233 0.106853 -0.054266 -0.263860 -0.595864 -0.888283 0.454129 0.422350 0.209487 -0.796276 -0.833057 -0.295521 0.494695 0.325798 -0.674097 -0.482348 -0.192069 -0.293323 1.162556 -0.319667 0.101908 0.392636 0.532337 0.324261 0.468918 -0.383589 -0.462668 -0.044908 -0.530289 -0.320729 -0.154697 0.376085 -0.228881 0.173685 -0.333275 0.313886 -0.193335 -0.328194 0.728628 -0.135158 0.014607 -0.104113 0.611581 -0.015493 -0.276998 -0.778436 -0.103708 0.232107 0.076304 0.264975 0.735659 -0.516662 -0.480618 0.244414 0.245029 -0.462077 0.233149 -0.689680 -0.263378 -0.087159 0.296917 0.246803 0.062678 0.382637 -0.229589 -0.333892 -0.104998 0.571847 -0.418458 0.511196 0.232376 -0.141839 -0.542701 0.469370 0.223005 -0.458607 0.030732 -0.714301 0.196703 0.338203 0.398584 0.311423 0.491404 -0.353485 -0.198394
not 1.090150 -0.089411 0.068410 -0.592207 -0.707635 -0.124749 -0.262200 1.306300 -0.103634 0.644489 0.705916 -0.233460 -0.478228 -0.072460 0.528773 0.792953 -0.657555 0.973622 0.321998 -0.087163 -0.602426 -0.314743 0.779578 0.646780 -0.642080 -0.910573 0.436690 0.220142 0.078150 -0.214412 0.535030 -1.152189 -0.943125 0.659025 -0.281460 -0.585601 0.131370 1.360342 1.000398 0.104134 -0.277650 0.376286 -0.171542 -0.189084 0.125971 0.203427 0.834171 -0.255267 0.666712 -0.222389 0.480207 -0.498396 -0.198400 0.244987 0.072603 0.789499 -0.166028 0.720180 -0.033857 -0.651963 -0.227643 -0.308373 0.352396 0.453673 -1.038820 1.217582 -0.624669 -0.139730 0.045561 0.571627 0.090092 0.022395 -0.632902 -0.346983 0.253454 0.188684 0.590740 0.463569 -0.110191 0.208802 -0.299557 0.247875 0.606995 -0.644234 1.568930 -0.085848 0.157216 -0.395287 0.805924 0.606594 -0.359752 -0.125070 -0.546715 -0.179083 0.283207 -0.167904 0.249636 0.863604 0.153572 -0.824068
as 0.682268 0.740954 -0.149817 -0.534981 -0.402700 -0.903030 0.231891 0.519777 -0.365656 -0.097829 0.950115 -0.780367 0.591744 0.043540 -0.637276 0.886638 -1.489573 0.816386 0.091072 -0.058543 -0.423670 0.158821 -0.082246 0.364693 -0.259731 0.067801 0.141810 -0.085869 0.587769 -0.159745 1.365492 -0.434191 -0.765298 -0.470163 0.887186 -0.696656 -0.076286 0.223373 0.831907 0.322219 0.347548 -0.623849 -0.889407 0.639708 0.747193 0.696078 -0.007221 -0.229695 0.125644 0.986779 0.382061 0.285308 -0.208228 -0.414399 0.128214 -0.887839 0.250069 0.442591 0.975225 -1.113763 -0.024032 -0.044913 0.055354 0.496224 -0.361120 0.614773 0.302867 0.981638 0.438981 0.523586 -0.046778 0.565487 -0.172361 -0.007858 -0.973307 -0.132121 -0.000229 1.546620 0.758999 0.515127 -0.528935 0.685032 0.450892 -0.576026 1.081002 0.313763 0.095494 0.515474 0.537909 0.876574 -0.794853 -0.541365 0.384416 -0.777422 -0.023659 -0.423358 -0.626972 -0.058741 0.041603 0.395474
him 0.584040 0.084043 -0.020830 -0.141121 -0.359587 -0.729538 0.022363 0.709600 0.346202 0.560028 0.181457 0.117528 -0.359133 -0.214830 0.241908 0.316096 -0.323604 0.206089 -0.211607 -0.453514 -0.733499 0.501958 0.273685 -0.038271 -0.840256 -0.465460 -0.104008 0.354749 0.369334 -0.632685 -0.248129 -0.190510 -0.322888 0.936352 -0.173445 0.046765 0.421287 0.500932 0.358546 0.604874 -0.152139 -0.400464 -0.147800 -0.412626 -0.227085 -0.018196 0.379583 -0.224950 0.209934 -0.460291 0.368209 -0.124340 -0.407536 0.471439 0.052086 -0.160565 0.145880 0.767908 0.073101 -0.325718 -0.628085 0.091145 0.133925 0.111288 0.138577 0.577646 -0.503844 -0.351362 0.411464 0.332097 -0.327445 0.407378 -0.580948 -0.210245 -0.247482 0.247539 0.124237 0.286513 0.247375 -0.043436 -0.290105 -0.005828 0.565690 -0.456130 0.536526 0.098806 -0.285441 -0.286207 0.598663 0.336744 -0.677420 0.105620 -0.679934 0.014744 0.360371 0.368028 0.208530 0.492855 -0.397239 -0.286555
for 0.315030 0.206548 0.399039 -0.276750 0.017994 0.073166 -0.329872 0.642957 -0.144662 0.352592 0.331372 -0.009563 -0.130305 -0.134757 0.293568 0.336436 0.122048 -0.187220 0.139692 0.148964 -0.120105 -0.152795 0.096305 0.354033 -0.096197 -0.330050 0.388561 0.400223 -0.038402 -0.041628 0.759120 -0.440417 -0.091874 -0.040623 0.047550 -0.246568 -0.197689 0.222601 0.179496 -0.012287 -0.428654 0.084415 -0.112429 -0.003061 0.244944 -0.053553 -0.114255 -0.288299 0.159346 -0.150755 0.033067 0.367123 -0.168204 -0.261050 0.077683 0.175543 -0.106519 0.323475 0.013741 0.117048 -0.200206 -0.680528 0.353101 -0.003937 0.017200 -0.119526 0.229957 0.395128 0.112864 0.345490 0.093638 0.249484 -0.209448 -0.268389 0.189886 -0.605113 0.278545 0.059181 0.229588 -0.142026 -0.216611 0.080202 -0.067181 -0.538338 0.213607 0.016967 -0.030187 -0.585851 -0.099019 0.792799 -0.349751 -0.245052 0.573893 0.150266 -0.277871 -0.027335 -0.457866 -0.005742 0.112373 -0.075218
with -0.093831 0.372074 0.455611 -0.176994 0.539446 0.147117 -0.439363 0.745155 -0.298207 -0.131064 -0.172899 -0.088349 0.340778 -0.422249 0.302959 -0.122054 0.369408 -0.567350 -0.145429 0.430249 -0.220659 0.078179 0.312018 0.198893 0.204386 -0.672304 0.264295 0.538139 -0.011248 -0.264182 0.739641 -0.272310 0.193551 0.003059 -0.008947 -0.062318 -0.283401 -0.367063 -0.091115 0.065338 -0.078561 0.105563 -0.370804 0.259802 0.277362 -0.011122 -0.512323 -0.142007 0.229575 0.079810 -0.343296 0.286887 0.220057 0.037749 -0.195281 -0.126386 0.057227 0.089265 0.174198 0.477944 0.247781 -0.468459 -0.179751 0.117723 0.170874 -0.528068 0.051245 0.340712 0.088078 0.177298 0.020796 0.316481 -0.235493 -0.276450 -0.491233 -0.566239 0.041809 0.290529 0.048866 -0.348411 -0.060922 0.232776 -0.274613 -0.168103 -0.252358 0.031036 -0.117282 -0.482793 -0.384133 0.427205 -0.098726 -0.297902 0.716688 0.367228 -0.614825 -0.166344 -0.625295 -0.084307 0.144339 0.060162
s 0.548496 -0.799168 0.459915 0.842184 0.232294 -0.648260 -0.295269 0.591101 0.264111 0.103930 0.360164 -0.070641 0.661851 -0.057342 0.664663 0.211079 0.970841 -0.689236 -0.147652 0.213305 -0.163837 -0.716076 0.421508 0.302773 0.013325 -0.242826 0.535344 0.911356 0.534626 0.556237 0.168248 0.124589 0.531880 0.974834 -0.484932 -0.031443 -0.319789 0.662848 -0.526233 0.526697 0.396592 0.649465 -0.818515 -0.529735 0.272427 -0.498322 -0.354102 -0.039233 0.082230 -0.434804 0.020856 0.816864 -0.270571 -0.152236 -0.380309 -0.699310 0.638793 0.469414 0.152657 0.331530 -0.298337 0.418561 0.525299 -0.970421 0.250826 -0.253942 -0.260782 0.011514 -0.426918 0.801923 0.525720 0.975771 -0.174696 0.735024 -0.431798 -0.906214 0.445767 -0.427628 -0.233317 0.426815 -0.433988 0.944291 0.548443 -0.455728 0.506551 -0.489074 -0.342755 0.164435 -0.773397 -0.509661 -0.321873 0.130466 -0.246673 1.365875 -0.617267 -0.207120 -0.240992 -0.612638 -0.100955 0.016314
on 0.013510 0.438857 0.440945 -0.425697 0.645300 0.020646 -0.508068 0.488671 -0.238398 -0.191407 -0.169873 0.086683 0.865130 -0.399639 0.200539 -0.069917 0.407928 -0.456141 -0.216241 0.837942 0.266931 -0.059067 0.062324 -0.195379 0.618517 -0.100622 0.504145 0.448054 0.151221 -0.438126 0.987862 -0.390369 0.486241 -0.289482 0.191519 -0.093056 0.057738 -0.674636 0.139038 0.228078 0.306757 0.051265 -0.133424 0.619847 0.373120 0.159934 -0.490786 0.076036 0.018331 -0.220823 -0.354505 0.534085 -0.232454 -0.496531 0.017354 -0.276355 0.396630 0.100097 0.329662 1.021222 0.548156 -0.410359 -0.409021 0.205186 0.128269 -0.781108 0.352589 0.233215 0.389443 -0.065298 0.140360 0.520387 0.234801 -0.574711 -0.781417 -0.473376 -0.093547 0.427442 0.125913 -0.460790 -0.011291 0.570757 -0.657726 0.000698 -0.677152 -0.101674 -0.317728 -0.259980 -0.259998 0.753864 -0.152282 -0.206765 0.531596 0.026044 -0.717743 -0.245181 -0.703635 -0.050944 -0.020974 -0.061294
at 0.100169 0.016692 0.528929 -0.242695 0.397735 0.362525 -0.595690 0.436237 -0.031416 0.078538 0.107772 0.167713 0.598202 -0.043902 0.548304 0.067009 0.561186 -0.165164 -0.285906 0.657239 -0.019400 -0.694513 0.159330 -0.076027 0.642834 -0.408857 0.327507 0.733899 0.351516 -0.118097 0.717781 -0.394433 0.232903 -0.144085 0.050760 -0.028862 0.018645 -0.272468 -0.293536 0.070944 0.316013 0.337743 -0.077360 0.166994 0.333246 0.078078 -0.205102 -0.095270 0.133034 0.074259 -0.146457 0.448916 -0.045882 -0.550714 -0.212278 -0.164664 0.147744 0.046225 0.318225 0.680137 0.529135 -0.476464 -0.006892 -0.014947 0.014437 -0.692992 0.355956 0.468798 -0.004241 0.062709 0.270597 0.111187 0.251023 -0.451165 -0.499672 -0.729256 0.315012 0.195971 -0.153328 -0.336259 -0.019043 0.029823 -0.409820 -0.189473 -0.203042 0.306500 -0.205969 -0.325518 -0.166698 0.611016 -0.013622 -0.131632 0.362302 0.354486 -0.860896 -0.198727 -0.392628 -0.170847 -0.059040 -0.154982
be 0.560142 -0.130715 0.550803 -0.039047 -0.249739 0.762462 0.485773 1.310356 0.261018 0.928825 0.152770 -0.491256 -1.062541 -0.405038 0.220434 0.953809 -1.005593 0.519393 -0.275191 -0.455420 -0.705135 0.204005 0.124693 -0.014906 -0.993176 -0.866996 0.026464 -0.061527 -0.454178 0.189358 -0.094408 -0.470674 -0.788819 0.453633 -0.427416 -0.532718 -0.395612 0.799329 -0.319957 -0.419672 0.190743 -0.403073 -1.272447 -1.121933 -0.753080 0.254643 0.503577 -1.056017 0.792961 -0.926970 0.888140 -0.327891 0.030243 0.242123 -0.057495 0.417840 0.266454 1.393105 -0.675158 -0.734625 -0.859019 0.248067 0.423244 0.030896 -0.036016 0.614097 -1.014748 0.255963 0.458911 1.073630 0.341293 0.133777 -1.016534 -0.062203 0.600829 -0.011935 0.404736 0.136765 -0.025070 0.092116 -0.138237 -0.045746 0.601889 -1.195057 1.223618 0.160125 0.119700 -1.080345 0.734411 1.128778 -1.452676 0.384429 -0.170701 0.006673 0.143988 -0.096219 0.138347 0.294624 0.245881 -0.740915
but 0.593721 0.037638 0.281845 -0.160639 -0.077052 -0.404735 -0.158617 0.660624 0.180145 0.356933 0.289701 0.088828 0.046891 -0.139568 0.327537 0.319829 -0.104385 0.178845 -0.073698 -0.032313 -0.351945 -0.352263 0.316656 0.226273 -0.165753 -0.367920 0.274398 0.355238 0.293873 -0.088028 0.294924 -0.519912 -0.301695 0.385963 -0.168612 -0.256529 0.011315 0.536722 0.301943 0.293915 0.145042 0.277104 -0.059304 -0.068018 0.056645 0.131002 0.275386 -0.035532 0.178059 -0.313938 0.235824 -0.005204 -0.262882 -0.165483 0.031339 0.045091 0.016278 0.400188 0.055988 -0.097189 -0.239660 -0.136392 0.293206 0.130814 -0.339669 0.320824 -0.137306 0.162410 0.154024 0.264019 -0.012707 0.227483 -0.015942 -0.233830 -0.183051 -0.341324 0.418076 0.323118 0.145141 0.094058 -0.221457 0.175160 0.174343 -0.513017 0.615988 0.025252 -0.065263 -0.182034 0.185951 0.561688 -0.355144 -0.068690 -0.174679 0.023094 -0.115673 0.018553 0.105500 0.248244 -0.063021 -0.454035
had -0.225977 -0.090804 0.124765 -0.879599 -0.051507 -0.078286 -0.449652 -0.173178 -0.504146 0.494064 0.599105 -0.558269 1.316245 0.367988 0.329928 0.111624 -0.183420 -0.061935 -0.998073 0.860602 -0.123853 0.441253 -0.356354 -0.399870 -0.452978 -0.003159 1.018522 1.415530 0.442042 0.368149 1.305513 -0.814191 0.515340 -0.117682 0.385194 -0.195806 1.231235 -0.610750 0.216983 0.790894 0.915080 0.536438 -0.878644 -0.570340 0.552783 0.341514 -0.400651 -0.041365 -0.135472 -0.293525 0.451696 0.646700 -0.374710 -0.710916 0.180505 -1.129867 0.994691 0.166478 0.140067 0.094976 -0.104187 0.688373 0.769828 0.132059 0.250319 -0.195833 0.788876 0.354006 1.264828 -0.160517 0.262792 0.996652 -1.295540 -0.192999 -1.029812 -1.028624 -0.266730 1.169032 -0.265599 0.286480 -0.366148 0.314088 -0.143294 -0.738465 -0.174306 -0.512174 -0.198264 -0.343947 0.123850 -0.298802 -0.186934 -0.304895 -0.340307 0.231419 -1.329202 -0.268554 -0.736282 -0.890779 0.264838 0.814406
is 0.558941 -0.521458 0.557942 0.364622 0.190946 -0.314257 -0.158546 0.508891 0.155233 0.306942 0.415992 -0.152630 0.273476 -0.323455 0.827286 0.589672 0.715987 -0.771091 -0.194542 -0.205877 -0.090334 -0.951066 0.277459 0.481296 -0.406377 -0.796850 0.600668 0.852589 0.775001 1.275171 0.319494 -0.563412 0.502419 0.583990 -0.522568 -0.352376 -0.629880 0.694243 -0.417547 0.082512 0.362926 0.567247 -0.616502 -0.522247 0.263886 -0.032490 -0.403302 -0.176656 0.014412 0.014609 0.001582 0.284145 -0.296446 -0.543453 -0.134456 -0.547352 0.184050 0.295142 -0.631201 0.104824 -0.558607 0.089673 1.127748 -0.679012 -0.221059 0.221587 0.215221 0.688432 -0.130688 0.289765 0.350874 0.727040 -0.163632 0.441916 0.133243 -1.251171 0.759928 -0.272238 0.553166 0.656075 -0.579939 0.357707 0.491037 -1.174106 1.033073 -0.393850 0.051965 -0.355903 -0.587673 0.046357 -0.367844 -0.015096 0.542238 0.858120 -0.913483 -0.149803 -0.333713 -0.955340 0.113042 0.327822
have 0.478621 -0.145183 0.559319 -0.917045 -0.668979 1.000216 -0.025320 0.603994 -0.068234 1.231063 0.417850 -0.519927 -0.726803 0.046861 0.440743 0.614874 -0.540913 0.104656 -0.482244 0.085997 -0.377319 0.337290 -0.509069 0.150914 -0.927677 -0.524872 0.475974 0.767900 -0.329379 0.279607 0.795263 -0.823621 -0.453613 -0.013966 -0.167769 -0.620545 0.361022 0.418286 0.053236 -0.076006 0.055583 0.182051 -1.170458 -1.444519 -0.494059 0.174474 0.354849 -0.776321 0.651677 -1.118019 0.853690 0.013131 0.193566 -0.509885 0.061226 0.393638 0.663507 1.151171 -0.708668 -0.108533 -0.977097 0.339710 0.396950 0.098003 0.058978 0.340573 -0.346402 0.496065 0.885301 0.899807 0.121757 0.343219 -1.469401 -0.540716 0.548932 -0.755738 0.018096 0.707255 -0.142021 0.129099 -0.021836 -0.129342 0.188201 -1.409991 0.994552 -0.020808 0.167815 -1.480893 0.745452 0.863493 -1.063672 -0.118492 0.046576 0.170500 -0.592175 -0.150048 -0.384881 -0.285232 0.795364 -0.264158
t -0.364724 1.488912 1.650202 1.574080 0.906960 -2.648003 0.487760 1.767294 1.666539 1.214100 0.617660 1.722148 -0.528615 -0.694443 0.858385 -0.806395 0.456199 -1.566189 -0.076099 -1.899745 -2.089215 -0.584867 0.813203 1.341869 0.137463 -2.940948 -1.548172 1.550236 1.004184 -0.824221 -1.395976 0.398503 -1.312345 3.090830 -0.413839 -0.245501 -1.315173 0.816146 0.668661 0.585895 -2.619695 0.078182 -0.784415 -2.077796 1.005538 -1.138675 1.050914 -0.119432 0.612383 -1.056171 -0.071311 0.350923 0.300373 1.979810 -0.316769 0.006097 -2.202397 -0.635651 0.328577 -1.617234 -1.296398 0.351158 1.740083 0.185610 1.321023 0.308184 -1.608803 1.265120 -0.275358 -0.372266 -0.856897 0.203766 -1.449563 0.461894 0.262393 -1.183880 1.995391 -0.787191 0.857510 -0.578252 -0.325737 -0.748921 0.233220 -0.922918 0.929910 0.653621 -0.409763 0.154420 -0.465026 -0.097173 0.248877 -0.708795 -0.331482 1.389173 0.400235 0.317794 1.510540 1.455944 -0.888880 -0.643541
from -0.098077 0.368678 0.412268 -0.293027 0.594903 0.164871 -0.358089 0.559552 -0.269287 -0.222044 -0.072482 -0.166325 0.870877 -0.360537 0.172747 0.040750 0.053155 -0.242606 -0.222024 0.719945 -0.014077 -0.077559 0.204762 -0.148964 0.406753 -0.316917 0.569835 0.494409 0.248543 -0.220830 0.857720 -0.479304 0.245628 -0.324559 0.181992 -0.231004 0.007313 -0.485567 0.105333 0.177709 0.374665 0.144035 -0.337958 0.497909 0.538724 0.226814 -0.506145 0.037523 0.164801 0.012356 -0.308623 0.310247 -0.213671 -0.376372 -0.012963 -0.354028 0.241727 0.140887 0.355751 0.585276 0.576542 -0.344106 -0.151793 0.196804 0.025286 -0.610557 0.304449 0.391797 0.350712 -0.129867 0.230308 0.500417 -0.025122 -0.307923 -0.802054 -0.539799 -0.040388 0.453907 0.074984 -0.247726 0.015792 0.405362 -0.530315 -0.151804 -0.491937 -0.096766 -0.311854 -0.047194 -0.281257 0.601197 -0.090772 -0.250480 0.576954 0.107207 -0.691850 -0.288027 -0.613456 -0.106717 0.008876 0.079310
heathcliff 0.844017 -0.980674 -0.435292 -0.319996 -0.725260 -1.314691 -0.827780 0.702219 0.776459 0.064774 -0.115207 -0.452400 0.326275 -0.077061 0.375910 -0.169235 0.079236 1.048987 -0.301315 0.470574 -1.557664 -0.820945 0.511159 -0.413706 -0.042402 -0.545750 0.448240 0.501970 0.872063 -0.876219 -0.622863 -0.336081 -0.297476 0.311353 -1.107445 0.567342 0.580300 1.177357 0.013873 1.405388 0.661661 0.834135 0.427551 0.259617 0.013367 0.257805 0.055865 -0.251999 -0.258763 0.676343 -0.234895 -0.127217 0.425864 -0.813036 -0.244618 0.833343 0.349074 1.027844 0.785967 0.629508 0.091730 -0.186774 -0.369202 0.210875 -0.796155 0.087673 -0.197302 0.052214 0.002683 0.722170 -0.307516 0.191719 0.594154 -0.050184 -0.696299 -0.803212 -0.015255 0.576711 -0.543998 0.530784 0.178085 -0.757038 0.944974 -0.413091 0.212141 1.118975 0.196104 -0.380948 0.597715 0.454797 -0.392373 -0.154036 -0.833172 0.919215 0.210739 0.228995 0.323318 0.311415 0.831411 -0.903869
by -0.111541 0.473470 0.402705 -0.099993 0.566275 0.010951 -0.378523 0.585166 -0.090162 -0.041793 -0.209202 0.103164 0.522607 -0.362993 0.321081 -0.103859 0.189638 -0.407297 -0.040853 0.554681 -0.041940 -0.018345 0.263328 -0.153475 0.414845 -0.431849 0.316742 0.455231 0.079128 -0.469532 0.505644 -0.324158 0.241478 0.028084 0.124669 -0.066970 -0.029696 -0.520180 0.036030 0.103174 0.017650 0.046999 -0.197007 0.303364 0.335682 0.051723 -0.327357 -0.145645 0.000714 -0.175606 -0.258153 0.358461 -0.206357 -0.153959 0.063776 -0.113435 0.073385 0.106626 0.209076 0.602853 0.415365 -0.483731 -0.120215 0.205677 0.194872 -0.673472 0.047614 0.278689 0.216695 -0.018932 0.048113 0.263087 -0.044078 -0.421159 -0.556594 -0.392610 0.112814 0.152772 0.065726 -0.489533 0.024587 0.180768 -0.422999 -0.048405 -0.671844 0.038157 -0.287385 -0.327585 -0.182189 0.668556 -0.059137 -0.144497 0.387137 0.178286 -0.546491 -0.082463 -0.411819 0.172705 -0.163035 -0.098049
if 0.573980 0.677137 0.259276 -0.537744 -0.421445 -0.556919 -0.153942 0.813681 -0.236441 0.441249 0.809556 -0.192723 -0.180379 -0.006047 0.163215 0.532243 -0.543784 0.225867 -0.297330 -0.303676 -0.536963 0.219215 0.228510 0.790956 -0.447287 -0.880659 0.007923 0.175907 -0.157968 -0.248552 0.595354 -0.797543 -0.846262 0.154021 0.227913 -0.305398 0.136367 0.348293 0.844266 -0.076903 -0.587417 -0.463804 -0.328084 -0.085486 0.563467 0.275331 0.422177 -0.217068 0.297005 0.417455 0.333982 -0.177218 -0.016571 -0.119387 -0.134488 0.312318 -0.492441 0.247953 0.075958 -0.629835 -0.441604 -0.328838 0.637858 0.530667 -0.238689 0.662492 0.063628 0.470740 0.508712 0.359259 -0.065745 0.206521 -0.899521 -0.138287 0.267662 -0.310555 0.453280 0.716889 0.473771 0.082586 -0.527052 0.104005 0.361200 -0.652355 0.998021 0.224106 0.405038 -0.462885 0.469940 0.624556 -0.315126 -0.366619 0.070324 -0.371190 0.088008 -0.087548 -0.202306 0.379655 0.439852 0.187341
would 0.534660 0.149079 0.136666 -0.750808 -0.337397 -1.374947 -0.771300 0.030918 -0.313625 0.666771 0.815004 0.205499 0.500209 0.119922 0.424704 0.439670 0.537471 -0.409148 -0.531532 -0.194532 -0.340799 -0.007218 0.243149 0.545833 -1.121973 -0.760690 0.593814 1.258360 0.740023 0.163767 0.530685 -1.269639 0.222116 0.535486 0.022272 0.296227 0.866268 0.375591 1.195254 0.752547 -0.719229 0.282306 0.898687 0.191090 1.090069 -0.077425 -0.202636 0.218030 -0.353993 0.603019 -0.088819 0.254474 -0.848764 -0.301210 0.142449 -0.474980 -0.704253 0.065900 -0.157990 0.205080 -0.800495 -0.885672 1.761056 0.315877 -0.322251 0.647117 1.180904 0.178322 0.958482 -0.374063 0.097362 0.906395 -1.083317 -0.022040 0.099744 -0.910993 0.490660 0.255283 0.613024 0.532868 -1.215077 -0.213312 0.452208 -1.063126 0.311020 -0.562247 0.119850 -0.377992 -0.235654 0.158990 0.421305 -0.386490 -0.008801 0.024386 -0.426452 0.165195 -0.470778 -0.273091 0.476151 1.062288
your 0.287447 -0.262457 -0.073444 0.529259 -0.012351 -1.052072 -0.066529 1.162488 0.172193 0.403383 0.028707 0.103244 -0.690966 -0.254745 0.389597 0.213767 0.666687 0.203151 -0.112282 -0.469911 -0.523020 -0.109684 0.388565 -0.142161 -0.611180 -0.594019 0.057170 -0.175389 -0.134132 -0.755122 -0.768639 0.002594 0.219157 1.054013 -0.484330 0.511470 -0.167155 0.943841 -0.209157 0.020281 -0.139735 -0.854745 -0.047332 -0.073380 -0.594695 -0.580974 -0.256243 -0.174876 -0.267081 -0.381469 0.368337 0.461022 -0.339694 0.462988 -0.351872 -0.286777 -0.129495 0.471087 0.144011 -0.013010 -0.577023 -0.619976 0.169139 -0.134530 0.241848 0.430055 -0.769734 -0.363985 -0.312508 0.381274 -0.265514 0.149350 0.022681 0.181109 0.374850 0.205372 0.434653 -0.649331 0.576840 -0.147811 -0.604529 -0.045381 0.767880 -0.097104 0.385244 0.352494 0.241226 -0.491072 0.137270 0.555147 -0.367812 0.195890 -0.537270 0.526135 0.222056 0.469112 0.219907 -0.070553 -0.279393 0.096990
linton 0.981036 -1.187648 -0.446009 0.087700 -0.595730 -1.257916 -0.798802 0.837961 0.894831 -0.013233 -0.259658 -0.405585 0.246040 -0.092016 0.498377 -0.175363 0.457701 0.845573 -0.030560 0.505688 -1.585160 -0.807235 0.699674 -0.309359 0.030133 -0.552557 0.385222 0.626579 0.719697 -0.976286 -0.762129 -0.018822 -0.184375 0.698744 -1.289113 0.696198 0.448640 1.238948 -0.216096 1.413037 0.528568 0.918481 0.390402 0.071961 -0.066554 -0.060859 -0.049242 -0.258647 -0.136001 0.437413 -0.288621 -0.051342 0.397569 -0.549778 -0.232420 0.910870 0.434700 1.226802 0.789217 0.721085 0.092570 -0.180628 -0.568308 -0.127444 -0.582210 -0.048607 -0.394599 -0.201005 -0.236742 0.926976 -0.236285 0.249046 0.534585 0.159520 -0.637485 -0.679619 0.002568 0.202842 -0.818465 0.450137 0.167032 -0.530755 1.090499 -0.158994 0.087870 1.011465 -0.067348 -0.270577 0.430583 0.194150 -0.451969 0.059122 -0.873041 1.301334 0.326698 0.288526 0.322248 0.525895 0.660071 -1.017964
no 0.505948 -0.304271 0.153139 -0.229707 -0.603490 -0.705630 -0.214397 0.577103 0.058517 0.772587 0.430530 0.034572 -0.182441 0.409677 0.495406 0.402613 0.140507 0.531750 -0.186040 0.070427 -0.412079 -0.717359 0.323446 -0.030331 -0.600251 -0.308626 0.634240 0.540143 -0.275195 0.042696 -0.211340 -0.791876 -0.104221 0.481371 -0.334140 0.017638 0.238974 0.614558 0.342918 -0.151187 -0.080676 0.248608 -0.025282 -0.457818 -0.069252 -0.091281 0.407991 -0.437032 -0.144661 -0.614401 0.495252 0.147279 -0.629303 -0.384356 -0.068596 0.653179 -0.010159 0.481488 0.114369 0.309638 -0.124889 -0.224140 0.765145 0.009844 0.003696 0.276915 -0.154486 -0.056819 0.178901 0.451959 0.112256 0.332975 -0.342597 0.217859 0.468753 -0.220974 0.916190 -0.508008 -0.091300 -0.202187 -0.550778 -0.127792 0.244164 -0.735476 0.388835 -0.192121 0.061462 -0.352822 0.554469 0.380432 0.206123 0.229139 -0.916223 0.210902 -0.049433 -0.033854 -0.011981 0.322969 0.055144 -0.497102
or -0.403059 0.618662 0.225559 -0.465049 0.107167 -0.177242 -0.208830 1.106540 -0.757157 0.569238 0.231060 -0.019351 -0.477491 -0.071251 0.274470 0.408109 -0.038505 -0.030339 -0.108383 0.066322 -0.092093 0.093914 -0.176039 -0.356941 -0.501471 -0.628661 0.544216 -0.067755 -0.908679 0.242310 0.359535 -0.361490 0.319569 -0.116855 0.184278 0.029169 -0.161233 -0.311845 -0.318843 -0.867849 -0.421996 -0.715231 -0.397564 -0.020156 -0.204158 0.234394 -0.209505 -0.836290 -0.187999 -0.236820 0.289454 0.628052 -0.408890 -0.008300 -0.097908 0.264527 -0.485081 -0.183005 -0.025477 0.047901 0.124832 -0.934847 0.507749 0.183858 0.686724 -0.487168 0.188896 0.526011 0.426439 0.051553 -0.138606 0.031301 -0.574301 0.031553 0.566420 -0.259217 0.415760 -0.636558 0.631042 -0.826436 -0.461365 -0.360146 -0.371885 -0.380238 -0.293300 0.119137 0.316946 -1.104843 0.293118 1.002459 -0.172651 -0.139721 0.464843 -0.244195 -0.344422 -0.075457 -0.545169 -0.142588 -0.184319 0.148237
catherine 0.847894 -0.536918 -0.030639 0.505532 -0.222560 -0.209711 -0.338763 0.617680 0.511210 0.134612 0.211265 -0.339312 -0.129533 0.042220 0.479589 0.300099 0.149852 0.607355 0.548816 0.301554 -0.697469 -0.413694 0.779772 0.164110 -0.056811 -0.266916 0.407008 0.375590 0.325236 -0.648560 -0.263955 -0.225798 -0.329133 0.483456 -0.453613 -0.130911 0.028628 0.865257 -0.023211 0.636359 0.109198 0.367619 -0.155099 -0.253546 -0.094581 -0.154491 0.087545 -0.312632 0.180647 -0.186728 0.211740 0.097115 -0.118263 -0.149262 0.093582 0.314391 0.471137 1.243207 0.506382 -0.023890 0.200651 -0.219369 -0.280079 -0.434524 -0.333244 0.148002 -0.553830 -0.075193 -0.574452 0.992989 0.249845 0.125462 0.224788 0.166662 -0.268769 -0.132414 0.364415 -0.052588 -0.464712 0.102127 0.135931 0.224919 0.635807 -0.112866 0.152922 0.358037 -0.241235 0.045143 0.367339 0.432666 -0.424848 0.377095 -0.498690 0.866029 0.031909 0.187441 -0.046250 0.591703 -0.263704 -0.514550
said 0.749336 -0.470582 0.263849 -0.092276 -0.337091 -0.773750 -0.503698 0.530035 0.312763 0.297298 0.275171 -0.117611 0.190882 -0.084256 0.874568 0.115234 0.845133 -0.608411 -0.300886 -0.106799 -0.617898 -0.592537 0.658556 0.807756 -0.354155 -0.738048 0.055166 1.274977 0.632312 0.085317 0.330820 -0.521320 -0.009388 1.200975 -0.544326 0.082811 -0.024484 0.776095 0.178412 0.568141 -0.296156 0.752484 -0.148574 -0.635563 0.320665 -0.390517 0.068430 -0.070743 0.294122 -0.100952 -0.055577 0.105733 0.030336 -0.001218 -0.289795 0.103237 0.292779 0.492027 -0.171061 0.474713 -0.675934 0.103761 0.572887 -0.335989 -0.241632 0.494819 -0.353514 -0.307143 -0.113135 0.809562 -0.022730 0.610681 -0.733270 -0.061198 -0.071936 -0.722355 0.619988 0.199641 -0.288663 0.389838 -0.605315 0.405347 0.690611 -0.647942 1.091768 -0.258259 -0.090223 -0.310047 -0.175493 -0.394050 -0.054757 0.020404 -0.491108 0.854351 -0.452670 0.000610 -0.261095 -0.004474 0.479002 -0.247086
ll 0.536161 0.565366 0.126507 -0.672537 -0.597844 -1.530907 -0.530698 0.803551 -0.016597 0.978514 0.344289 0.744770 -0.878399 -0.056018 0.823177 0.215770 1.294601 -1.174681 -0.432357 -0.974517 -0.290258 -0.177272 0.149905 0.890186 -1.305923 -1.302674 -0.264093 1.303215 0.883658 -0.078004 0.391505 -0.698780 0.236023 1.635553 -0.248150 0.383731 -0.084579 0.820819 0.530323 0.342310 -1.363143 -0.400523 0.795455 -0.525253 0.172434 -0.526027 0.040942 -0.018928 -0.073946 -0.018840 -0.123448 0.216634 -0.362218 0.188201 -0.343770 -0.141063 -0.744774 -0.059999 -0.596049 0.494572 -1.439505 -1.038160 1.262323 0.203553 0.029934 0.753557 -0.016297 0.260923 0.236885 0.071303 -0.665725 0.586740 -0.725469 -0.692814 0.828056 -0.718914 0.944934 0.142970 1.267452 0.117169 -1.113021 -0.076922 0.443570 -1.314082 1.696274 -0.035803 0.213117 -1.190450 0.070875 0.348223 0.012090 -0.594357 0.241065 0.171109 -0.501869 0.523765 -0.484418 -0.499725 0.222435 0.503721
so 0.600861 0.327343 0.099453 -0.367653 -0.216111 -0.487323 0.015990 0.651832 0.006096 0.493436 0.605948 0.042970 -0.067033 -0.067240 0.051514 0.582534 -0.473198 0.437774 0.056212 -0.181624 -0.301482 -0.013751 0.147692 0.359371 -0.486678 -0.357773 0.236677 0.178754 0.452170 -0.156689 0.609815 -0.621405 -0.464959 0.297006 0.218444 -0.412500 0.123755 0.523721 0.666729 0.210609 -0.110350 -0.162883 -0.118037 -0.037823 0.251141 0.231934 0.323652 -0.028861 0.150066 -0.045562 0.421766 0.038725 -0.458216 -0.163490 0.179419 -0.217262 -0.156632 0.425970 0.149367 -0.578530 -0.434342 -0.286531 0.545454 0.289378 -0.422421 0.701181 0.103839 0.432906 0.328775 0.172351 0.042302 0.235418 -0.287655 -0.231079 -0.148535 -0.186460 0.428583 0.601561 0.486759 0.267889 -0.444201 0.198068 0.262736 -0.655590 0.918551 0.134870 0.082695 -0.088905 0.414891 0.767069 -0.462605 -0.276574 -0.060787 -0.335087 -0.004117 -0.022163 0.014206 0.156922 -0.124913 -0.015055
we 1.063583 0.127382 0.198910 -0.110430 0.053863 0.104707 -0.266470 0.548589 0.217421 0.365533 0.797937 -0.064284 -0.498917 -0.026962 0.242489 0.849783 -0.480330 1.139344 0.077519 0.096566 -0.450486 -0.051985 0.307219 0.320963 0.016113 -0.307673 0.068166 -0.297791 -0.315998 -0.735939 0.085377 -0.895477 -1.015914 -0.281388 -0.223035 -0.139994 0.653265 0.448176 0.389025 0.071494 0.049353 -0.423230 0.381791 -0.273290 -0.048835 0.410803 0.201413 -0.555962 0.035920 0.004623 0.706778 -0.143909 -0.243802 -0.558800 0.572499 0.428736 -0.094288 1.287083 0.130242 -0.618145 -0.215309 -0.724998 0.064541 0.266881 -0.523938 0.700599 0.259426 0.158833 0.382046 0.589360 0.090293 -0.344872 0.026864 -0.257474 -0.094306 -0.046517 0.509010 0.456728 0.153917 -0.163499 -0.341570 -0.076593 0.608270 -0.306154 0.154964 0.674526 0.289537 -0.442520 0.873064 1.268858 -0.883856 0.398608 -0.290965 -0.369007 0.585993 0.354657 0.085561 0.885315 0.071276 -0.125179
were -0.014935 0.417307 0.303038 -0.325510 0.165424 -0.522128 -0.059365 0.319196 -0.293561 0.125187 0.786514 -0.129498 0.452928 -0.145260 -0.038504 0.605464 0.497612 0.071669 -0.922481 0.221558 -0.002596 0.280366 -0.665684 0.007858 -0.396680 -0.554011 0.045055 0.452943 0.520093 0.121390 0.817792 -0.268641 0.128329 0.200314 0.055502 -0.058613 0.530654 -0.386896 -0.395009 0.117349 0.409864 -0.669835 -0.908208 -0.708048 0.320697 0.346062 -0.478717 -0.069353 -0.217709 -0.024006 0.284844 0.624285 0.073731 -0.627570 -0.142557 -0.888463 0.551369 0.250307 -0.078746 -0.063234 -0.270883 0.250856 0.347163 0.244994 0.035088 0.102856 0.488567 0.685999 0.701619 -0.267617 -0.001627 0.451358 -0.688664 -0.048678 -0.624578 -0.640684 -0.043956 0.875455 0.892632 0.233845 -0.402820 0.684502 0.123287 -0.289945 0.767526 0.505676 0.300833 -0.235863 0.309144 0.099026 -0.593790 -0.427410 0.123054 0.038092 -0.857279 -0.411763 -0.586572 -1.092014 0.101758 1.113289
this -0.025378 0.025791 -0.208994 0.227369 0.020890 -0.500389 -0.250803 1.157646 -0.377412 0.407889 0.116554 0.272790 -0.534078 0.103606 0.454033 0.134499 0.221662 0.447132 0.127361 0.039423 -0.214323 -0.313509 0.285417 -0.416281 -0.456946 -0.341650 0.335703 -0.225627 -0.482844 -0.038066 -0.249837 0.105451 0.531568 0.420953 0.050646 0.290671 -0.128064 0.106735 -0.597319 -0.463767 0.456296 -0.741678 -0.106747 0.115615 -0.666482 0.023536 -0.028810 -0.549579 -0.426609 -0.303937 0.261067 0.673113 -0.429485 0.179965 -0.361381 -0.001968 0.022908 -0.155528 0.396256 0.233690 0.302089 -0.675958 -0.065366 -0.268506 0.583592 -0.324073 -0.387226 0.034104 -0.340253 0.384236 -0.152023 -0.070651 0.252409 0.111426 0.130019 0.370389 0.576804 -0.594743 0.487630 -0.762796 -0.256020 -0.160489 0.044159 -0.114602 0.121693 0.514154 0.344955 -0.741585 0.379161 0.620507 -0.226893 0.061798 -0.391796 0.142219 0.026644 0.178462 -0.231279 -0.124380 -0.697738 -0.350606
up 0.221254 0.359917 0.269107 -0.091226 0.753909 -0.101330 -0.503307 0.599248 0.317311 -0.164790 -0.386068 0.247930 0.337172 -0.662276 0.317778 -0.160041 0.555746 -0.465139 -0.104295 0.161878 -0.197424 0.064304 0.330882 0.046292 0.526786 -0.387822 -0.285981 0.463685 0.696370 -0.740215 0.300653 -0.071422 0.181239 0.308829 -0.142964 -0.011003 -0.075112 -0.276994 -0.015393 0.563146 0.156272 -0.139224 0.189043 0.333560 -0.058399 -0.012401 -0.369058 0.164311 0.327027 -0.089899 -0.309619 0.053276 0.102695 0.284547 -0.011366 -0.162501 0.308531 0.436827 0.274817 0.772703 0.259641 -0.297475 -0.789756 0.079304 0.071327 -0.229212 -0.119245 -0.024723 -0.048962 0.056507 -0.212509 0.235407 0.474033 -0.702609 -1.113534 -0.078698 0.040597 0.658782 0.169501 -0.507466 0.200715 0.333512 -0.347808 -0.047428 -0.326683 0.349604 -0.356762 -0.358833 -0.045599 0.535810 -0.362424 -0.092870 0.166132 0.172820 -0.331576 0.058884 -0.353339 0.265987 -0.287098 -0.388355
there 0.671211 -0.181059 -0.147704 -0.001576 -0.296962 -0.507399 -0.303704 0.509694 0.344028 0.417896 0.687462 -0.294973 -0.212358 0.156686 0.351626 0.593233 -0.116027 0.872106 0.615761 0.451029 -0.442038 -0.816778 0.295578 0.130359 -0.024375 -0.113311 0.536847 0.173696 0.206816 -0.202909 0.248816 -0.612768 -0.259408 0.014419 -0.127298 -0.100028 -0.090419 0.845944 0.117867 0.178462 0.031666 0.210965 0.062402 -0.003217 0.030303 0.066932 0.190657 -0.375717 -0.234921 -0.021001 0.346035 0.411760 -0.444463 -0.728028 0.194771 0.330191 0.154251 0.669319 0.360099 -0.169774 0.035475 -0.548149 0.422709 -0.083216 -0.508079 0.377768 -0.088360 0.265187 -0.222577 0.712133 0.139859 -0.225884 0.141082 -0.031603 0.163405 -0.383885 0.546573 -0.081298 -0.011077 0.127304 -0.111549 -0.059552 0.512303 -0.272159 0.310170 0.474058 0.324078 -0.227676 0.599535 0.920780 -0.295582 0.185488 -0.444817 0.278121 -0.056354 0.052575 -0.116104 0.081301 -0.155758 -0.278946
an -0.043648 0.355761 -0.054009 0.195379 0.179942 -0.725232 -0.048733 0.945865 -0.425308 0.213583 0.121461 0.079322 0.153431 -0.102976 -0.087744 0.332924 -0.145614 0.424233 -0.206415 0.201223 -0.069123 0.095203 0.202880 -0.476354 -0.138860 0.045957 0.342213 -0.205800 -0.444392 -0.449145 -0.107038 -0.082489 0.335700 0.217303 0.220426 0.199553 0.323952 -0.151240 -0.129339 -0.212550 0.595984 -0.848632 -0.212827 0.574883 -0.268338 0.099454 -0.146718 -0.286825 -0.345503 -0.198831 0.293533 0.655197 -0.806667 0.193977 -0.173405 -0.457894 0.110466 0.078344 0.478651 0.092049 0.295562 -0.497751 0.015333 0.203283 0.604722 -0.184088 -0.050784 -0.195104 0.280160 0.116641 -0.043088 0.365423 0.137541 0.159842 -0.404831 0.549929 0.271980 -0.169419 0.525470 -0.634653 -0.397594 0.328675 0.006498 0.001708 -0.421973 0.092956 0.088335 -0.068809 0.125548 0.706892 -0.345610 0.071957 -0.373261 -0.259954 0.080548 -0.034160 -0.313640 0.166799 -0.583151 -0.003929
are 0.122025 0.316881 0.656717 -0.115951 -0.149118 -0.331214 -0.184788 0.562107 -0.232243 0.553526 0.922101 -0.023629 -0.656827 -0.377664 0.556791 0.679939 1.519015 -0.789323 -0.574500 -0.333583 -0.160484 -0.106136 -0.529637 0.753472 -0.826831 -1.466544 -0.129623 0.705302 0.361510 0.532574 0.467447 -0.315672 0.297961 0.710514 -0.352682 -0.190146 -0.126664 0.224901 -0.658604 -0.445273 -0.846673 -0.604663 -0.999720 -1.517828 -0.009138 -0.217131 -0.463954 -0.362101 -0.158597 -0.158700 0.260556 0.617717 0.429560 -0.474964 -0.393983 -0.342043 0.088162 0.387609 -0.750684 0.131449 -1.058504 -0.380064 0.912432 -0.145042 0.080654 0.399207 0.112271 0.946088 -0.035314 0.266256 -0.000690 0.106077 -1.303188 0.016236 0.630822 -0.981344 0.410161 0.109435 1.276894 0.138894 -0.581414 0.376009 0.337307 -0.804874 1.437843 0.658822 0.705146 -1.155657 0.154474 0.203744 -0.362207 -0.509719 0.728124 0.852390 -1.122384 -0.259000 -0.715370 -1.442996 0.447491 1.365303
out 0.168434 0.277742 0.151053 0.015823 0.507102 -0.087225 -0.305153 0.881558 0.007368 0.096440 -0.055363 0.307084 -0.015953 -0.444759 0.228860 0.183211 0.080241 -0.106692 -0.086380 0.095624 -0.103118 0.154615 0.418311 -0.064951 0.175444 -0.332758 0.025105 0.063985 0.160774 -0.547600 0.167557 -0.273391 0.057123 0.329786 0.077793 0.016054 0.038055 -0.112959 0.024950 0.108778 0.215805 -0.531190 0.150636 0.329573 -0.139363 0.020654 -0.080937 -0.028359 -0.047574 -0.187073 0.032763 0.216509 -0.268909 0.149164 -0.089098 -0.006559 0.072151 0.067130 0.095191 0.255250 0.114344 -0.426722 -0.205997 0.108906 0.142325 -0.023816 -0.217205 -0.168540 0.032345 0.050412 -0.036560 0.162919 0.228601 -0.493999 -0.368805 0.248422 0.287822 0.130757 0.332019 -0.378491 0.040836 0.199973 -0.174647 -0.054991 -0.149696 0.283657 0.086860 -0.454186 0.007193 0.775292 -0.398066 -0.151908 -0.208420 -0.109322 0.072819 0.104549 0.024929 0.185732 -0.328093 -0.243079
mr 1.700632 -1.133645 0.377954 1.286146 -0.393870 0.814080 -0.728569 0.405344 -0.156089 -0.079173 0.886253 -0.604961 0.267896 0.363361 1.107003 0.954714 0.790062 -0.322805 0.572705 0.532960 -0.193430 0.306139 1.130359 0.952720 -0.502413 -0.309327 0.500770 1.093171 0.276183 0.334477 0.462853 0.058012 -0.314397 1.202125 -0.335353 -0.429195 0.453976 0.659825 -0.579578 0.592479 -0.194748 0.683023 -1.250004 -1.084169 0.261304 -0.646973 0.016720 -0.617062 0.772889 -0.052455 0.450765 0.456301 -0.095498 0.392110 -0.245754 -0.412477 1.295522 2.036548 0.341284 -0.250108 -0.086765 0.007946 0.029881 -1.448653 -0.294041 0.067312 -0.688686 -0.574533 -1.219958 2.320742 1.350529 0.695257 -1.310832 0.905274 -0.656364 -0.189857 0.158191 0.173767 -1.282797 0.319808 -0.205849 1.480552 1.100914 -0.052935 0.854806 -0.304515 -0.650329 -0.013160 -0.230536 -0.716992 -0.866959 0.669649 -0.319629 1.801199 -0.352627 0.151454 -0.651008 0.093180 -0.382084 0.145850
what 0.832153 -0.283338 -0.089187 -0.367254 -0.687152 -0.521504 -0.387876 0.974207 0.202365 0.855311 0.742910 -0.202307 -0.623268 -0.063357 0.728023 0.725845 -0.058344 0.701261 0.292451 -0.167661 -0.811574 -0.322325 0.690853 0.732018 -0.719547 -0.889422 0.368122 0.543895 0.201966 -0.301867 -0.051274 -1.038740 -0.538045 0.800817 -0.357680 -0.195545 0.231343 1.258396 0.660658 0.168167 -0.496015 0.180269 -0.052231 -0.563501 -0.016317 -0.112134 0.540035 -0.327641 0.130899 -0.051440 0.461651 -0.145827 -0.260911 -0.072244 0.006856 0.758844 -0.103504 0.766469 -0.156829 -0.347811 -0.617237 -0.410900 0.755447 0.022723 -0.587118 1.201535 -0.405285 -0.177508 -0.020024 0.741192 -0.032808 -0.052051 -0.826146 -0.149838 0.478263 -0.105238 0.809176 0.015036 0.126495 0.215878 -0.367069 -0.194454 0.832135 -0.726437 1.116149 0.194243 0.484923 -0.589243 0.729592 0.526988 -0.182973 -0.015894 -0.789127 0.321816 0.142866 0.082602 0.084024 0.433095 0.306424 -0.255045
when 0.472039 0.031412 0.001832 -0.403757 -0.201402 -0.366705 -0.497295 0.400317 -0.025801 0.061542 0.211243 -0.333629 0.559286 0.125895 0.397780 0.111372 0.089396 0.409296 -0.302936 0.388976 -0.386738 -0.243940 0.376340 0.185209 -0.085930 -0.263733 0.321617 0.504378 0.362413 -0.385328 0.612499 -0.647268 -0.202604 0.245218 -0.079233 0.053245 0.389073 0.197487 0.300334 0.395019 0.422841 0.142330 -0.118198 0.074402 0.271847 0.156366 0.095334 0.045787 0.167448 0.086260 0.117043 -0.083751 0.020600 -0.409673 -0.075733 -0.001248 0.482013 0.409248 0.274520 0.231084 0.139518 -0.024390 -0.071303 0.201100 -0.503876 0.235185 -0.033540 0.028761 0.284539 0.404079 0.062343 0.240203 -0.180533 -0.273011 -0.518454 -0.295704 0.167293 0.785407 -0.163063 0.131363 -0.211378 0.372422 0.255451 -0.176765 0.472168 0.152645 0.160807 -0.129168 0.329136 0.178102 -0.164239 -0.094659 -0.450686 0.141377 -0.405538 -0.154919 -0.261069 0.074384 0.373947 -0.050195
they 0.888249 0.362931 0.026672 -0.162065 0.211711 -0.398614 -0.348743 0.750622 -0.017834 0.134747 0.880655 0.062475 -0.375567 -0.181201 0.183726 0.752544 -0.158751 1.089372 0.005306 0.135893 -0.437581 0.026288 0.313123 0.264203 0.059402 -0.565265 0.103479 -0.576804 -0.323049 -0.892091 0.249439 -1.051509 -0.820054 -0.137878 -0.149207 -0.000165 0.640738 0.381733 0.447769 0.004551 -0.144253 -0.725121 0.572849 0.044562 0.135277 0.358009 0.055094 -0.218299 -0.296428 0.217653 0.619999 0.023763 -0.419671 -0.512113 0.675819 0.220551 -0.470023 0.822670 0.064877 -0.768796 -0.166198 -1.028820 0.327118 0.544902 -0.744352 0.774942 0.361505 0.095960 0.485072 0.090510 -0.084750 -0.560438 0.128814 -0.199384 -0.046472 -0.140792 0.564422 0.463827 0.434195 -0.148159 -0.618849 0.020733 0.633102 0.085714 0.169115 0.898691 0.542269 -0.310171 0.756437 1.195897 -0.732922 0.199946 -0.215155 -0.540312 0.527358 0.393329 0.201697 0.793062 -0.171790 0.250749
all 0.401708 0.034781 -0.000622 -0.093241 -0.079307 -0.408880 -0.306425 0.658918 0.027413 0.179002 0.397829 -0.072749 -0.183020 -0.018491 0.275281 0.280869 0.108996 0.580653 -0.049225 0.048914 -0.347001 -0.226298 0.314102 0.230807 -0.182717 -0.498397 0.193867 0.155503 0.052656 -0.324193 0.067781 -0.519842 -0.173564 0.174840 -0.019327 0.163161 0.173297 0.324201 0.064878 0.006263 0.052254 -0.293691 -0.028885 -0.201894 0.034686 -0.001883 -0.015809 -0.287400 -0.133686 -0.005166 0.211887 0.290966 -0.108528 -0.131209 -0.051563 0.138314 0.108786 0.357853 0.255964 0.094473 0.010963 -0.353159 0.135639 -0.062113 -0.000026 0.236732 -0.023996 -0.002114 0.017449 0.357122 -0.093199 0.077951 -0.090832 -0.010266 -0.052887 -0.009767 0.575575 0.061591 0.229158 -0.156990 -0.305630 -0.007119 0.338168 -0.251703 0.317299 0.344431 0.346308 -0.157488 0.341388 0.379742 -0.207196 0.073106 -0.281687 0.128928 0.121326 0.016492 -0.269293 0.189451 -0.040134 0.033979
one -0.184446 0.383854 -0.073022 -0.252044 0.135550 -0.346313 -0.070284 0.691711 -0.258094 0.315895 0.240668 -0.102086 0.302208 0.065293 0.233849 0.415406 -0.370535 0.469324 -0.179702 0.512229 -0.055972 0.040382 0.094548 -0.594340 -0.108993 -0.170164 0.623270 0.019360 -0.473121 -0.250427 0.223408 -0.415525 0.213684 -0.082481 0.366334 0.003027 0.404197 -0.416465 -0.098026 -0.321561 0.425020 -0.511955 -0.393427 0.060055 0.023688 0.291660 0.016635 -0.545893 -0.261569 -0.436044 0.361081 0.548558 -0.858977 -0.396958 0.046121 -0.079947 0.300449 0.136251 0.215402 0.149720 0.379687 -0.206930 0.371725 0.050372 0.379530 -0.385085 0.133540 -0.024583 0.506970 0.100575 0.106375 0.205470 -0.233160 -0.056123 -0.014982 0.038344 0.325733 -0.302726 0.228683 -0.496075 -0.165007 -0.011390 -0.186740 0.044671 -0.606019 0.033874 0.016008 -0.295442 0.535041 0.722924 -0.220389 0.173912 -0.553228 -0.284859 -0.202116 -0.018318 -0.167300 0.035878 -0.510236 -0.028867
then 0.395467 0.053626 0.157068 -0.142321 0.073284 -0.287365 -0.280298 0.535975 0.303256 0.078837 -0.142557 -0.082977 0.000909 -0.301231 0.391870 -0.032221 0.301504 -0.067132 -0.137460 0.056778 -0.427949 -0.028170 0.425264 0.216405 -0.063797 -0.458108 0.033541 0.579266 0.533660 -0.661027 0.186681 -0.269682 -0.144628 0.614038 -0.332342 -0.045281 0.046969 0.307125 0.177468 0.468586 0.045301 0.076450 -0.133363 -0.189201 -0.105062 -0.098586 -0.027576 0.033407 0.216939 -0.259035 -0.063540 -0.079850 0.063540 0.071801 -0.041481 -0.048918 0.339936 0.583939 0.135541 0.306439 -0.105760 -0.029718 -0.306984 0.071447 -0.200468 0.261581 -0.498812 -0.041025 -0.012323 0.378682 -0.170555 0.220605 -0.033384 -0.416508 -0.503221 -0.179661 0.194715 0.438361 -0.042557 -0.002463 0.013283 0.254928 0.234196 -0.206986 0.383450 0.119400 -0.113197 -0.256421 0.153301 0.286223 -0.302268 0.005461 -0.263785 0.369422 -0.271240 0.112008 -0.149438 0.292363 -0.009347 -0.264313
could 0.400411 0.740208 -0.076388 -0.753397 -0.306195 -1.287384 -0.057961 0.240939 -0.371597 0.618660 0.724018 0.348691 0.334883 0.000808 0.227259 0.514316 -0.005253 -0.538083 -0.495506 -0.396715 -0.044890 0.346615 -0.074890 0.309228 -1.340410 -0.565944 0.477256 0.770770 0.953545 0.451674 0.984877 -0.783700 0.139762 0.675575 0.357869 -0.095930 0.467846 0.181916 0.516374 0.472764 -0.299578 -0.245134 0.204077 -0.060204 0.594100 0.255988 -0.053700 0.216247 -0.048446 0.133706 0.182501 0.179372 -1.005198 -0.468590 0.287766 -1.145096 -0.275708 -0.008637 -0.301406 -0.357504 -0.986289 -0.341761 1.553340 0.183504 -0.251303 0.514930 0.825876 0.632353 0.905392 -0.524954 -0.079420 0.844700 -0.608480 -0.205702 -0.090224 -0.902584 0.330042 0.700988 1.161357 0.616328 -0.958187 0.217482 0.085898 -1.084082 1.001620 -0.263540 -0.105639 -0.191113 0.168447 0.268741 -0.364323 -0.538982 0.443723 -0.486421 -0.652816 0.375898 -0.360003 -0.724567 -0.259247 0.915327
do 0.927619 0.045290 0.421483 -0.476073 -0.646031 -0.289477 0.086082 1.038029 0.081028 1.072372 0.781007 -0.026998 -1.232373 -0.266899 0.468460 0.933479 0.064801 -0.016195 -0.227794 -0.733862 -0.679428 -0.022009 -0.048893 0.735004 -1.223785 -1.159766 0.044806 0.396056 0.210045 0.296921 0.264341 -0.649389 -0.505375 0.758955 -0.510840 -0.486053 -0.097242 1.059557 0.090141 -0.032719 -0.531369 -0.290248 -0.490990 -1.088759 -0.455746 0.062191 0.324479 -0.595995 0.243094 -0.400065 0.626255 -0.014513 0.006953 -0.201009 0.012712 0.244729 -0.096707 0.870325 -0.610491 -0.557815 -1.366827 -0.306662 0.867005 0.030549 -0.121508 1.031165 -0.217171 0.605197 0.318576 0.621483 -0.213797 0.226818 -0.873592 -0.167872 0.813632 -0.636510 0.613033 0.290343 0.901266 0.250368 -0.462648 -0.111444 0.746343 -1.406843 1.803787 0.494228 0.422591 -1.325130 0.650741 0.843086 -1.077307 -0.281004 0.276652 0.206537 -0.078007 0.212945 -0.036297 -0.247014 0.274542 -0.042667
into -0.010856 0.321785 0.473955 -0.075594 1.051237 0.064247 -0.590941 0.686753 -0.097952 -0.349333 -0.386645 0.073225 0.906629 -0.678017 0.266343 -0.211883 0.316319 -0.489873 -0.184529 0.731153 -0.006879 0.091763 0.276608 -0.140131 0.861920 -0.141392 0.247847 0.413235 0.274726 -0.701095 0.723779 -0.154345 0.393874 -0.086597 0.023690 0.021949 0.013565 -0.766484 0.023481 0.373577 0.570034 0.012034 -0.014241 0.791174 0.272532 0.135877 -0.615363 0.163108 0.165666 -0.119405 -0.513620 0.385444 -0.072685 -0.098715 -0.072837 -0.372256 0.400161 0.185434 0.472298 0.948749 0.647785 -0.336887 -0.786858 0.082597 0.241676 -0.815912 0.170534 0.020569 0.321390 -0.063579 0.012601 0.515837 0.400157 -0.543481 -1.260245 -0.299466 -0.144336 0.460517 0.013286 -0.531148 0.161851 0.541565 -0.520401 0.173289 -0.887039 -0.001707 -0.446548 -0.226712 -0.437357 0.697341 -0.234116 -0.134969 0.375185 0.139641 -0.446086 -0.130484 -0.489205 0.138084 -0.191994 -0.215202
should 0.633914 -0.018713 0.024433 -0.455266 -0.618850 -1.380630 -0.766018 0.304054 -0.085312 0.827771 0.763972 0.350557 -0.027685 0.267200 0.700393 0.355035 0.969671 -0.431467 -0.310616 -0.329892 -0.355185 -0.286311 0.236501 0.616891 -1.202093 -0.830108 0.387446 1.352772 0.868018 0.185687 0.404980 -0.921645 0.245403 1.028016 -0.247523 0.390883 0.604205 0.756199 0.679533 0.674687 -0.829548 0.277964 0.790472 -0.339147 0.652279 -0.295518 -0.032270 -0.016945 -0.188100 0.288852 -0.021171 0.415734 -0.635850 -0.202096 -0.071037 -0.238741 -0.534683 0.172917 -0.221716 0.268633 -0.973565 -0.841428 1.541303 -0.006227 -0.220026 0.586298 0.698375 0.185257 0.466933 0.064152 0.003366 0.747655 -0.901046 -0.068703 0.400973 -0.946358 0.653280 0.017753 0.539738 0.489779 -1.060858 -0.156294 0.615995 -1.050434 0.909573 -0.285049 0.204657 -0.583068 -0.108762 -0.017652 0.192110 -0.413851 -0.157370 0.385563 -0.449440 0.277179 -0.445104 -0.415494 0.330393 0.728847
will 0.686808 0.134625 0.214546 -0.383655 -0.369988 -0.938684 -0.626978 0.634147 -0.152905 0.807177 0.641483 0.412571 -0.571188 -0.121954 0.673956 0.563278 1.040956 -0.716279 -0.053790 -0.592854 -0.304630 -0.240981 0.251155 0.900735 -1.092463 -1.169307 0.173727 1.009497 0.608802 0.246371 0.395580 -0.893710 0.175499 0.935148 -0.228424 0.195988 -0.003785 0.851587 0.579391 0.200322 -1.125482 -0.032890 0.629721 -0.316762 0.447446 -0.389495 -0.203059 -0.094450 -0.168037 0.402168 -0.010061 0.311626 -0.372402 -0.005366 -0.182371 -0.128185 -0.784467 0.236496 -0.486094 0.188816 -1.098149 -1.205059 1.404784 -0.020203 -0.252924 0.710251 0.443085 0.395038 0.172854 0.207830 -0.068711 0.485060 -0.874611 -0.172301 0.728020 -0.763890 0.772859 -0.105051 0.925767 0.344014 -1.130626 -0.112231 0.647613 -1.172308 1.219059 -0.108813 0.356734 -0.872065 -0.194208 0.460367 0.035482 -0.372375 0.493357 0.329933 -0.363696 0.227210 -0.475752 -0.443342 0.368065 0.766530
did 0.560819 0.090668 0.010824 -0.777574 -0.439454 -0.973208 -0.312759 0.219828 0.003163 0.455021 0.488838 0.107687 0.383718 -0.175763 0.534937 0.338326 0.455908 -0.444728 -0.671726 -0.168311 -0.440034 0.215248 0.102074 0.426926 -1.221102 -0.732943 0.443655 1.123998 1.313076 0.374080 0.887850 -0.647327 0.112638 0.884624 -0.266079 -0.123307 0.584017 0.530317 0.257664 0.923376 -0.107201 0.408269 0.006401 -0.521722 0.359915 0.170321 -0.044810 0.300377 0.233110 -0.037966 0.098510 -0.069065 -0.440106 -0.518305 0.087365 -0.758395 0.209513 0.442127 -0.341914 -0.047746 -1.028839 0.109434 1.148513 -0.091156 -0.630524 0.607364 0.553055 0.361797 0.562813 -0.222170 -0.037768 0.745601 -0.637059 -0.253969 -0.378252 -1.182859 0.163324 0.915056 0.554862 0.916812 -0.638860 0.218315 0.312867 -0.994954 1.273581 -0.003192 -0.144329 -0.329154 0.180069 -0.137054 -0.464133 -0.511758 0.169721 0.196957 -0.828967 0.275512 -0.158398 -0.776813 0.097691 0.598035
now 0.778193 -0.213189 0.187545 0.032384 -0.307144 -0.576715 -0.299432 0.646061 0.363804 0.471320 0.435957 0.038050 -0.371796 -0.082723 0.525693 0.396086 0.379268 0.051583 0.131409 -0.178466 -0.527460 -0.390484 0.517560 0.535045 -0.451857 -0.692517 0.216121 0.594647 0.408332 -0.232498 -0.004924 -0.547677 -0.226270 0.757765 -0.397011 -0.109331 -0.026739 0.961228 0.308245 0.358464 -0.410585 0.257856 0.019540 -0.480009 0.046618 -0.233892 0.161559 -0.194366 0.057574 -0.162638 0.237316 0.103587 -0.237872 -0.104223 -0.001651 0.174060 -0.051982 0.727292 -0.037016 -0.004188 -0.525781 -0.396882 0.531436 -0.163086 -0.387026 0.626853 -0.330873 0.081230 -0.186779 0.626159 0.016085 0.236051 -0.332257 -0.090937 0.205984 -0.377280 0.620792 -0.021473 0.162462 0.210175 -0.400397 0.106686 0.639952 -0.637692 0.804334 0.100860 0.094873 -0.362394 0.206118 0.439193 -0.232142 0.031817 -0.253963 0.504108 -0.081421 0.140546 -0.057941 0.157323 0.100080 -0.131806
how 0.798363 0.181023 0.202359 -0.442715 -0.502706 -0.429383 -0.084029 1.045525 0.108323 0.783328 0.596031 0.094323 -0.711897 -0.141512 0.305200 0.534674 -0.323143 0.433395 0.047849 -0.517422 -0.704047 0.036072 0.438169 0.655974 -0.822980 -0.869416 0.098104 0.285269 0.187630 -0.279821 0.292601 -0.764518 -0.749840 0.754884 -0.083538 -0.380369 0.110983 0.908928 0.744334 0.135056 -0.538396 -0.110300 -0.130956 -0.483994 -0.002728 0.038976 0.559049 -0.187620 0.386020 -0.248720 0.579354 -0.192808 -0.187628 0.245094 0.093797 0.356762 -0.344048 0.550331 -0.101190 -0.664699 -0.718149 -0.318726 0.549250 0.280442 -0.432217 1.019789 -0.379364 0.201776 0.188358 0.463062 -0.160542 0.117579 -0.682629 -0.244082 0.311427 -0.059205 0.684600 0.445078 0.399753 0.134711 -0.475007 -0.033492 0.567873 -0.846721 1.328058 0.209123 0.203056 -0.533082 0.632105 0.657815 -0.511109 -0.246487 -0.279617 -0.112447 0.197103 0.069547 0.191580 0.529731 0.046484 -0.358446
them 0.121453 0.466487 0.127261 -0.149449 0.086641 -0.577179 -0.048925 0.702899 0.004443 0.347757 0.168242 0.137837 -0.362250 -0.289882 0.090726 0.278746 -0.042434 0.214466 -0.316719 -0.200093 -0.510200 0.447559 0.036510 -0.074253 -0.376189 -0.533639 -0.168580 0.035476 -0.082091 -0.734179 -0.068089 -0.260595 -0.235979 0.479460 -0.051193 0.069825 0.363125 -0.079662 0.139696 0.056155 -0.160893 -0.812068 -0.153987 -0.246747 -0.251207 0.095190 0.062079 -0.317760 -0.023491 -0.330470 0.341913 0.120127 -0.215196 0.214996 0.106247 -0.055594 -0.055716 0.451637 0.126644 -0.185357 -0.320858 -0.263932 -0.006085 0.346310 0.277389 0.259316 -0.204641 -0.033434 0.488908 0.039224 -0.379399 0.042220 -0.346319 -0.285496 -0.213006 0.142203 0.147097 0.238795 0.523907 -0.460700 -0.263937 -0.005828 0.198085 -0.110102 0.094959 0.474526 0.079049 -0.516342 0.587618 0.604762 -0.482502 -0.024682 -0.314177 -0.177688 0.104450 0.183086 -0.005730 0.341742 -0.286794 0.024933
been 0.832951 -0.101611 0.082402 -0.615195 -0.693712 -0.883722 -0.428425 0.043741 -0.043925 0.458730 0.916885 -0.402702 0.645058 0.694170 0.343515 0.590243 -0.356294 1.278956 -0.610446 0.365726 -0.351786 -0.362415 0.491782 0.241720 -0.333883 0.057601 1.017495 0.692243 -0.273604 -0.482282 0.005576 -1.441724 -0.669599 -0.003998 -0.163538 0.077660 1.304118 0.330214 1.081476 0.246762 0.379505 0.164635 0.201616 -0.163153 0.637915 0.315060 0.418575 -0.462829 -0.250376 -0.100280 0.558149 -0.180441 -0.944064 -0.931232 0.244085 0.538292 0.429013 1.074586 0.477164 0.344852 0.139556 0.017826 0.504046 0.162396 -0.166818 0.548755 0.668269 -0.329197 0.910495 0.370346 0.176184 0.696523 -0.510628 0.381540 -0.066043 -0.188026 0.681177 0.313167 -0.157178 -0.121664 -0.626897 0.116107 0.472114 -0.663230 -0.056037 -0.398614 0.003184 0.339882 0.713612 0.303066 0.194256 0.342812 -1.409077 -0.170983 0.312061 -0.024445 -0.290071 0.746136 0.321161 -0.056723
more 0.546635 0.078089 0.413275 -0.199973 -0.366049 -0.354378 -0.096346 0.134150 0.036970 0.645768 0.368672 -0.252181 -0.061771 0.162732 0.392838 0.396735 -0.217910 0.373479 0.191744 0.199311 -0.282065 -0.497380 0.019967 -0.451689 -0.667424 -0.521016 0.746166 0.058929 -0.487362 0.117449 0.192601 -0.793599 0.219450 -0.185807 0.203053 -0.362475 0.012485 0.212345 0.348178 -0.266302 -0.572192 0.192505 -0.575651 -0.549140 0.229727 0.155876 0.251576 -0.686401 -0.355721 -0.746707 0.797899 0.446037 -0.741482 -0.626953 0.577123 0.409778 0.074220 0.594625 -0.240554 0.023371 0.012740 -0.261801 0.738296 0.085350 -0.293738 0.016515 0.028093 0.595051 0.287457 0.573059 0.195180 0.088815 -0.692657 0.226506 0.604592 -0.524342 0.905266 -0.452817 0.034242 -0.167544 -0.731266 -0.426044 0.213249 -0.591379 -0.244498 -0.116117 0.053543 -0.551536 0.797293 1.003109 -0.088056 0.333359 -0.235435 0.045171 -0.312463 -0.243566 -0.220985 0.243159 -0.241027 -0.157326
master 0.683497 -0.348631 0.199325 0.054392 -0.107591 0.317193 -0.453656 0.468669 0.425786 -0.107098 0.242333 -0.363402 0.162367 -0.187204 0.555799 0.394717 0.127865 0.297745 0.346022 0.491912 -0.443571 -0.530550 0.609170 0.357052 0.250060 -0.404166 0.362169 0.566553 0.544904 -0.201131 0.299020 -0.608317 -0.297819 0.066463 -0.293623 -0.248689 -0.075951 0.603872 0.038271 0.340123 0.022386 0.586626 -0.202339 -0.248490 0.291889 -0.008475 0.013935 -0.297719 0.386851 0.075114 -0.140212 -0.025010 0.061990 -0.439562 -0.029781 0.423967 0.497264 1.115841 0.186211 0.371055 0.261110 -0.311107 -0.122260 -0.292905 -0.614639 0.042167 -0.239046 -0.055038 -0.371609 0.835133 0.327533 0.172933 -0.164510 -0.216843 -0.253312 -0.416077 0.258382 0.191541 -0.395286 0.153011 0.127068 0.318917 0.296885 -0.249851 0.331916 0.185572 -0.083088 -0.018461 0.177041 0.487001 -0.306065 0.267788 0.061585 0.630851 -0.213576 -0.102673 -0.399156 0.273244 0.281179 -0.335083
than 0.472134 -0.095024 0.413719 -0.716215 -0.565867 -0.464599 -0.290691 0.315748 -0.223269 0.838282 0.233422 -0.129535 -0.015513 0.303716 0.093482 0.458892 -0.000294 0.143148 -0.166005 0.175184 -0.376445 -0.425157 -0.134257 0.079246 -0.686758 -0.263642 0.531005 0.379902 -0.342978 0.121989 0.565983 -0.734162 0.084817 -0.004964 0.082543 -0.248901 -0.193059 0.048963 0.438864 -0.302097 -0.630472 0.174596 -0.354733 -0.339942 0.289946 -0.069563 0.144666 -0.250999 -0.291360 -0.515491 0.399087 0.494418 -0.305155 -0.627867 0.195037 0.553043 -0.115124 0.489431 0.002198 0.383411 -0.051760 -0.599495 0.994916 0.252983 -0.168572 0.056912 0.105028 0.493549 0.372573 0.561087 0.241177 0.299038 -0.944656 0.084609 0.439305 -0.534300 0.815694 -0.143677 0.030986 -0.126634 -0.802322 -0.230883 0.101330 -0.875605 0.307109 -0.232986 0.200541 -0.685176 0.524357 0.854072 0.165873 0.123203 -0.218780 0.054608 -0.442076 -0.332224 -0.341872 0.078959 0.350674 -0.161289
shall 0.517407 0.472281 0.283743 -0.549612 -0.455743 -1.158614 -0.494079 0.557655 -0.164324 0.947739 0.467076 0.691842 -0.590143 0.058586 0.779398 0.270504 1.114233 -1.015551 -0.473216 -0.821105 -0.115729 -0.164246 0.184375 0.777485 -1.278055 -1.101912 -0.010558 1.235565 0.711804 0.151129 0.463047 -0.834718 0.200484 1.312882 -0.154080 0.269183 0.168242 0.574881 0.512047 0.246079 -1.104734 -0.275374 0.713907 -0.545516 0.239865 -0.400736 0.014052 -0.046874 -0.010227 -0.116115 -0.007141 0.235400 -0.497920 0.075386 -0.205126 -0.295446 -0.639244 0.017687 -0.539268 0.401104 -1.272392 -0.926146 1.361068 0.077288 0.058491 0.619844 0.298388 0.298865 0.341807 -0.027395 -0.351814 0.646012 -0.745359 -0.454141 0.672341 -0.729551 0.888820 0.087485 1.101310 0.096859 -1.075748 -0.054000 0.280254 -1.299757 1.327030 -0.226801 0.134452 -0.966416 -0.042573 0.265102 0.071466 -0.492659 0.258779 0.155112 -0.540535 0.435101 -0.490687 -0.475400 0.147173 0.607375
must 0.496696 0.248149 0.232419 -0.503819 -0.409609 -1.123297 -0.620458 0.482712 -0.129010 0.710130 0.515799 0.452317 -0.388236 0.054119 0.660682 0.132648 1.011503 -0.719376 -0.417028 -0.636880 -0.368802 -0.041092 0.191059 0.771409 -1.000407 -0.989463 0.009776 1.183207 0.697702 -0.026523 0.382135 -0.649951 0.087232 1.121103 -0.249287 0.288926 0.351136 0.542336 0.539173 0.452029 -0.923367 -0.087884 0.591473 -0.454734 0.298329 -0.357104 -0.049939 0.070136 -0.027462 0.124418 -0.037029 0.166050 -0.251334 0.168974 -0.226614 -0.187032 -0.514807 0.043589 -0.211845 0.315764 -0.991367 -0.741995 0.937289 0.049046 0.044104 0.590274 0.298476 0.181150 0.317122 0.006630 -0.390143 0.574759 -0.785702 -0.325989 0.297861 -0.634382 0.618033 0.213344 0.779934 0.100668 -0.889862 -0.074211 0.381225 -0.996176 1.059391 -0.105586 0.150863 -0.821751 -0.031936 0.044945 0.118078 -0.480115 0.076011 0.293790 -0.367778 0.351007 -0.406220 -0.288362 0.267013 0.563583
m 0.712796 0.172835 0.150450 -0.181773 -0.722529 -0.895450 -0.061968 0.781908 0.176787 0.820847 0.369365 0.343054 -0.600386 0.199538 0.644117 0.285603 0.444484 -0.385294 -0.479730 -0.755408 -0.296539 -0.364771 0.206008 0.510161 -1.155319 -0.810033 -0.045979 0.830466 0.808445 0.272009 0.321328 -0.393712 -0.255895 1.459893 -0.369246 -0.079635 -0.104340 0.981567 -0.056035 0.261393 -0.313301 -0.174328 -0.056456 -0.925632 -0.204421 -0.167556 0.464074 -0.263648 0.331786 -0.620027 0.344707 -0.051546 -0.325385 -0.051478 -0.256172 -0.181624 0.079612 0.447127 -0.361348 -0.090356 -1.120728 0.011447 0.783952 -0.134710 -0.215036 0.647180 -0.607154 0.334626 0.022911 0.481420 -0.268808 0.548820 -0.280813 -0.240552 0.429142 -0.576206 0.867137 0.394932 0.613989 0.306627 -0.549767 0.286982 0.447810 -1.210270 1.948094 0.020781 0.025782 -0.634923 0.380462 0.085607 -0.538756 -0.348936 -0.303191 0.190733 -0.338850 0.337287 -0.094443 -0.351640 -0.022368 -0.254211
which -0.128602 0.202396 0.027285 -0.211937 0.268435 -0.209484 -0.252596 0.715720 -0.292649 0.081928 0.088427 -0.287266 0.684668 -0.018434 0.280864 0.106213 -0.391396 0.451986 -0.314076 0.582983 -0.207101 -0.004901 0.375661 -0.393435 0.045734 -0.162333 0.673417 0.253819 -0.252664 -0.305910 0.326001 -0.545920 0.114220 -0.051848 0.204957 0.005981 0.390707 -0.298666 0.110605 -0.026031 0.714731 -0.171031 -0.417221 0.329096 0.205454 0.275230 -0.098370 -0.238184 -0.018398 -0.250701 0.159341 0.247089 -0.503853 -0.159801 -0.054392 -0.160199 0.370988 0.149676 0.433064 0.198571 0.565569 -0.030197 -0.017785 0.170090 0.203276 -0.320007 -0.060843 -0.113728 0.535090 0.065475 0.125429 0.386619 -0.247950 -0.010269 -0.551050 0.016369 0.174436 0.173599 -0.159337 -0.373484 -0.150153 0.237002 -0.148483 -0.039474 -0.480832 -0.149151 -0.071712 -0.015400 0.201843 0.416437 -0.119206 0.096947 -0.521160 -0.100857 -0.282342 -0.132747 -0.285672 0.218911 -0.202629 -0.132552
come 0.849637 -0.084006 0.275342 -0.183043 -0.350703 -0.092519 -0.287868 0.860094 0.400109 0.547153 0.170355 0.082730 -0.994668 -0.451314 0.546623 0.404163 0.221794 -0.044952 -0.057449 -0.418033 -0.854474 0.185588 0.498777 0.676412 -0.592019 -0.964475 -0.334129 0.547064 0.211599 -0.632800 -0.100100 -0.476147 -0.619957 0.954533 -0.668427 -0.077390 0.119431 0.822840 0.293556 0.404068 -0.601308 0.011603 0.087615 -0.624633 -0.419647 -0.140973 0.355744 -0.376624 0.497054 -0.236657 0.250880 -0.367426 0.152020 0.441982 -0.055875 0.563729 -0.040719 1.141373 -0.308139 -0.099706 -0.918115 -0.385246 0.051004 0.064556 -0.257200 0.834413 -0.561764 -0.243906 -0.015286 0.732916 -0.308926 -0.018030 -0.602588 -0.513272 0.169583 -0.037366 0.338164 0.359693 0.083083 -0.033371 -0.230728 -0.080644 0.658357 -0.678202 0.984205 0.433190 -0.029170 -0.890572 0.500892 0.664915 -0.729921 0.083628 -0.150578 0.331523 0.244720 0.414428 0.058978 0.583784 0.148469 -0.471503
can 1.079032 0.413467 0.406857 -0.410077 -0.248270 -1.069929 -0.332632 0.926939 0.094168 0.764657 0.656855 1.057648 -1.028708 -0.314711 0.411046 0.504764 1.003241 -0.892206 0.086363 -0.956024 -0.060936 -0.340322 -0.232062 1.078209 -0.715859 -0.555655 -0.336704 0.559182 0.897764 0.103332 0.898727 -0.192328 0.083477 0.995097 -0.037484 -0.112372 -0.377443 0.790563 0.210042 0.348205 -0.820464 -0.501790 0.663640 -0.308086 -0.109627 -0.305012 0.046034 0.050328 0.023305 -0.255096 0.147183 0.675256 -0.403643 -0.160471 -0.021605 -0.332917 -0.407787 0.080541 -0.156312 0.174825 -1.313418 -0.944533 0.493902 -0.285263 0.212550 0.492110 0.367149 0.510104 -0.056123 0.178763 -0.733362 0.566170 0.336465 -0.608726 0.377015 -0.720713 0.746310 0.144601 1.622775 -0.013951 -0.740960 0.328798 0.226114 -1.122985 1.674065 0.348019 0.018343 -0.906416 -0.060248 0.797207 -0.793831 -0.747234 0.813473 -0.059580 0.017354 0.410883 -0.343528 -0.485643 -0.324844 -0.083046
us 0.235870 0.076655 0.075995 -0.026894 -0.022447 -0.452633 -0.209701 0.850739 0.084884 0.488831 0.210475 0.146521 -0.522820 -0.236392 0.404568 0.328314 0.288176 0.051437 -0.322156 -0.223778 -0.603793 0.229804 0.224197 -0.015201 -0.545714 -0.761182 -0.152999 0.262118 -0.029933 -0.432883 -0.256983 -0.229233 -0.104651 0.755432 -0.240838 0.196589 0.306890 0.228522 -0.074708 0.060465 -0.195455 -0.573735 -0.136822 -0.459358 -0.318336 -0.079764 0.061606 -0.405707 -0.005150 -0.271512 0.269526 0.109489 -0.127233 0.329542 -0.173998 0.083335 -0.089824 0.455095 -0.031993 -0.080894 -0.392927 -0.326906 0.229396 0.094695 0.232671 0.299142 -0.353953 -0.217091 0.252741 0.276867 -0.207540 0.052619 -0.570590 -0.173294 0.067739 0.110994 0.301990 -0.071870 0.294277 -0.344444 -0.365978 -0.119345 0.418911 -0.256779 0.341224 0.351126 0.131328 -0.752099 0.446982 0.316242 -0.382737 0.098046 -0.514916 0.205052 0.053552 0.206358 0.077261 0.201972 -0.174141 -0.017338
don 1.758522 -0.027928 0.836168 -0.026335 -0.172734 -1.021285 -0.387863 1.576674 0.876483 0.747833 0.475716 1.525268 -1.734434 -0.908237 0.487471 0.504741 1.510634 -1.015358 0.432456 -1.009454 -0.354680 -0.605456 -0.338677 1.349901 -0.153003 -0.480935 -0.805541 0.413615 1.155441 -0.499051 0.835718 0.415676 -0.111976 1.352808 -0.635340 -0.258017 -0.762066 1.456231 -0.136511 0.777087 -0.945904 -0.303534 0.638303 -0.655296 -0.687369 -0.579044 0.248233 -0.016451 0.375903 -0.986929 0.185879 1.045822 -0.135342 -0.132673 -0.169122 0.149583 -0.092063 0.860214 -0.013425 0.500557 -1.724907 -0.943768 -0.449439 -0.744066 0.281434 0.341537 -0.115107 0.284508 -0.688000 0.829666 -1.077678 0.479597 1.097322 -0.992907 0.204319 -0.923424 0.696971 -0.016366 1.576778 -0.147348 -0.363372 0.606432 0.403226 -1.036872 2.038378 1.031617 -0.325851 -1.193920 -0.121444 1.402092 -1.716850 -0.804652 1.021954 0.455075 0.535720 0.535922 0.026499 -0.146689 -0.573009 -1.138133
never 0.627516 0.020044 0.122888 -0.426574 -0.377938 -0.253055 -0.217524 0.618009 0.011475 0.618388 0.399968 -0.194584 -0.240410 0.020911 0.290907 0.410037 -0.348496 0.458571 -0.078290 -0.047213 -0.562359 0.052560 0.395879 0.234503 -0.609721 -0.497121 0.295361 0.391334 -0.009101 -0.397389 0.221491 -0.746968 -0.505058 0.320818 -0.134969 -0.130375 0.365330 0.529759 0.620576 0.252360 -0.209205 0.050395 -0.055480 -0.235755 0.044754 0.104918 0.369805 -0.331953 0.229413 -0.165707 0.441463 -0.177507 -0.282343 -0.071286 0.123717 0.296109 -0.036085 0.731100 0.028459 -0.255562 -0.366685 -0.289083 0.370946 0.268744 -0.280453 0.576414 -0.101344 0.031683 0.378891 0.468709 0.041144 0.230392 -0.582761 -0.224870 0.095291 -0.113836 0.370678 0.369487 -0.004538 0.029429 -0.371987 -0.089512 0.427356 -0.620832 0.477273 0.007554 0.028138 -0.450850 0.503314 0.596118 -0.337687 0.009837 -0.382608 -0.049763 0.049438 0.082996 -0.031135 0.475496 0.149862 -0.242408
hareton 0.517791 -0.451396 -0.187974 0.071459 -0.206644 -0.541690 -0.446175 0.608286 0.180444 0.062278 0.170183 -0.285302 0.219722 0.013229 0.411868 0.189898 0.228469 0.412906 0.005994 0.396815 -0.563158 -0.347462 0.427435 -0.088906 -0.079628 -0.218858 0.372245 0.370669 0.394893 -0.287376 -0.018109 -0.191498 0.023298 0.380616 -0.374344 0.162772 0.184808 0.555617 -0.180578 0.537204 0.442577 0.219779 -0.136744 0.027061 0.005139 0.014883 -0.090033 -0.248689 -0.082516 0.113284 0.021062 0.272500 -0.058044 -0.328562 -0.171587 0.089036 0.454022 0.640940 0.428082 0.275617 0.117804 -0.165875 -0.079383 -0.198997 -0.211529 -0.006464 -0.218819 -0.114442 -0.170908 0.652310 0.113361 0.274858 0.096154 0.078137 -0.395381 -0.287538 0.159459 0.168755 -0.221456 0.103249 -0.012687 0.105169 0.503732 -0.181242 0.246607 0.367184 0.067119 -0.183774 0.222477 0.233609 -0.408828 0.068871 -0.492374 0.587951 -0.126765 0.039123 -0.140502 -0.027692 0.064250 -0.295604
go 0.721118 0.029304 0.265010 -0.093839 -0.201745 0.006333 -0.064797 0.893955 0.436269 0.552265 -0.057465 0.229700 -0.952985 -0.428814 0.444206 0.294894 -0.013159 -0.115227 -0.185933 -0.495358 -0.790403 0.359073 0.344750 0.377876 -0.621290 -0.838242 -0.513362 0.450179 0.278973 -0.586430 -0.145673 -0.131840 -0.536120 0.960958 -0.455509 -0.092144 0.074414 0.536716 0.014234 0.371713 -0.231937 -0.198035 -0.170794 -0.723310 -0.660149 -0.054020 0.399969 -0.387443 0.552223 -0.506093 0.383304 -0.315838 0.179774 0.547826 -0.115996 0.245864 0.161874 1.009429 -0.204889 -0.154690 -0.812885 -0.044749 -0.216381 0.004987 0.030484 0.608528 -0.780527 -0.144361 0.015975 0.683684 -0.387763 0.076929 -0.472953 -0.580371 -0.092263 0.140777 0.247881 0.456483 0.107229 -0.165731 -0.085209 -0.076336 0.527522 -0.603333 0.947004 0.514463 -0.180939 -0.862119 0.588160 0.623551 -0.927967 0.095732 -0.222713 0.216444 0.220907 0.410650 0.183540 0.514159 -0.130736 -0.685755
little 0.208121 0.098127 0.267616 -0.117861 0.176926 -0.247663 -0.301913 0.406688 0.083539 0.160887 0.256983 -0.202121 0.521350 -0.095987 0.310248 0.249258 -0.058618 0.175505 -0.088864 0.399080 -0.237154 -0.360920 0.217509 0.034416 0.228885 -0.231268 0.451823 0.432954 0.085020 -0.129619 0.298073 -0.515454 -0.071593 -0.037447 -0.048144 -0.145725 0.081652 0.085014 0.140037 0.120527 0.211492 0.202785 -0.291623 -0.112068 0.377226 0.128118 -0.066422 -0.292975 0.020844 -0.146925 0.048475 0.236022 -0.250992 -0.459323 0.100796 0.020885 0.224781 0.481399 0.198256 0.220206 0.239076 -0.123378 0.203878 0.003395 -0.005101 -0.178682 0.096918 0.192556 0.318171 0.256012 0.146955 0.319934 -0.180642 -0.010481 -0.309060 -0.482649 0.300480 0.090078 -0.018595 -0.104759 -0.140998 0.222644 0.034488 -0.311088 -0.165817 -0.112481 -0.088614 -0.005185 0.024018 0.408140 -0.139324 0.096642 -0.084824 0.233518 -0.296379 -0.203139 -0.318674 0.180806 0.103607 -0.074188
any -0.149966 0.375950 0.106500 -0.275805 -0.007951 -0.449154 -0.037079 1.080693 -0.636865 0.535705 0.211751 0.139734 -0.387114 0.020871 0.224672 0.496484 -0.040729 0.364055 -0.285314 0.033606 -0.130232 0.079939 -0.052973 -0.490740 -0.664613 -0.529267 0.549168 -0.245676 -0.846054 0.164190 0.072538 -0.433421 0.380798 -0.015312 0.117162 0.045431 -0.015912 -0.261773 -0.346023 -0.868093 -0.015436 -0.916048 -0.445992 -0.101391 -0.329202 0.248495 -0.121937 -0.687218 -0.451695 -0.421209 0.490360 0.598899 -0.673256 -0.046203 -0.056428 0.167772 -0.235725 -0.066223 0.030025 0.047942 0.135075 -0.662685 0.613222 0.119690 0.653597 -0.259441 0.130087 0.246387 0.409358 0.036717 -0.064997 0.135463 -0.386044 0.274791 0.422438 0.010864 0.705878 -0.683812 0.698101 -0.773628 -0.718562 -0.260058 -0.157226 -0.461045 -0.049877 0.173509 0.354258 -0.846088 0.500703 0.925259 -0.246105 0.109772 -0.043614 -0.338357 -0.086599 -0.020460 -0.350349 -0.049744 -0.503133 0.083797
see 0.577580 0.160451 0.391507 -0.277633 -0.193539 -0.021577 -0.074421 0.833366 0.222932 0.523961 0.249598 0.213717 -0.722064 -0.461613 0.438195 0.357233 0.224538 -0.365428 -0.235563 -0.399124 -0.564082 0.204107 0.232450 0.650227 -0.638082 -0.950441 -0.300026 0.603013 0.397492 -0.195836 0.392826 -0.321210 -0.405344 0.805599 -0.330604 -0.246365 -0.049285 0.449353 0.094071 0.236018 -0.447318 -0.056714 -0.235494 -0.677692 -0.249463 -0.080649 0.273332 -0.221081 0.563174 -0.339764 0.190347 -0.174354 0.169290 0.285256 -0.138138 0.158066 0.047388 0.639337 -0.352361 -0.120028 -0.880482 -0.083734 0.226181 0.040746 -0.032825 0.566839 -0.350028 0.102279 0.138027 0.403138 -0.228958 0.236976 -0.635526 -0.464761 0.118719 -0.344541 0.317104 0.471766 0.333118 0.042503 -0.165807 0.118615 0.322016 -0.764068 1.158054 0.339876 -0.020360 -0.847612 0.304294 0.440734 -0.753709 -0.225103 0.156253 0.205537 -0.062025 0.173758 -0.027233 0.097005 0.101383 -0.288106
down 0.071493 0.532665 0.379898 -0.049432 0.762836 -0.265797 -0.317615 0.689910 0.236084 -0.086936 -0.366893 0.372587 0.145331 -0.717951 0.171846 -0.204602 0.407945 -0.518917 -0.080945 0.042301 -0.264536 0.114260 0.272665 0.154905 0.413504 -0.457669 -0.256029 0.379198 0.455421 -0.859204 0.275932 -0.042941 0.077064 0.420311 -0.110006 0.022997 -0.177167 -0.272634 0.134992 0.354122 -0.015660 -0.210236 0.167345 0.292394 -0.003464 -0.049762 -0.300840 0.116079 0.192611 -0.200907 -0.299992 0.069352 0.009860 0.348348 -0.042693 -0.212052 0.013854 0.262880 0.222402 0.539938 0.036545 -0.355448 -0.582261 0.183553 0.213745 -0.214230 -0.152962 0.048104 0.119203 -0.113901 -0.357884 0.241297 0.291297 -0.670970 -0.835668 -0.063822 0.082068 0.417471 0.353698 -0.466707 0.035563 0.302546 -0.284861 -0.045747 -0.278088 0.236278 -0.322595 -0.298237 -0.152014 0.626499 -0.310817 -0.140634 0.313894 0.109009 -0.166444 0.116540 -0.202031 0.330132 -0.260464 -0.257810
over 0.121868 0.224597 0.364818 0.046774 0.581411 0.000373 -0.309773 0.663059 0.010321 -0.139883 -0.122489 -0.024236 0.511120 -0.421311 0.281888 0.021264 0.198126 -0.154557 -0.050446 0.451612 -0.130104 -0.094093 0.342005 -0.043023 0.370563 -0.352067 0.271615 0.341917 0.203126 -0.399085 0.409187 -0.286722 0.153814 0.044461 -0.040163 -0.109609 -0.111682 -0.206351 -0.048699 0.163890 0.289558 0.018398 -0.280247 0.240286 0.249370 0.068783 -0.374398 -0.083204 0.126626 -0.149382 -0.188129 0.284258 -0.137297 -0.085275 -0.002430 -0.215138 0.263217 0.322270 0.285596 0.459459 0.412600 -0.276319 -0.331765 0.035634 0.061330 -0.406179 -0.053593 0.125286 0.103293 0.087782 0.050480 0.333086 0.122933 -0.240511 -0.721855 -0.292715 0.114608 0.218727 0.082533 -0.338621 0.034224 0.372600 -0.199656 -0.026649 -0.356165 0.030269 -0.234228 -0.069679 -0.161475 0.535493 -0.235168 -0.032848 0.255977 0.229279 -0.363705 -0.141167 -0.372595 0.141450 -0.178566 -0.163008
has 0.465679 -0.417796 0.296372 -0.501430 -0.363662 -0.325006 -0.459636 0.103051 -0.015954 0.528341 0.699105 -0.333164 0.489425 0.178038 0.613122 0.207935 0.295862 -0.408127 -0.466855 0.261369 -0.450024 -0.135177 0.042738 0.446442 -0.478202 -0.443452 0.684101 1.382740 0.617878 0.500956 0.901021 -0.688474 0.154950 0.418345 -0.113090 -0.261475 0.467358 0.410455 0.232170 0.774835 0.006742 0.869988 -0.550844 -0.763108 0.494234 -0.109130 -0.111097 -0.100775 0.140324 -0.140486 0.278017 0.452712 -0.116118 -0.545508 0.044188 -0.481764 0.494638 0.402734 -0.074800 -0.007046 -0.675485 0.371183 0.960977 -0.281978 -0.070273 0.256239 0.402779 0.304168 0.462494 0.426958 0.172974 0.795697 -1.039652 0.019457 -0.275343 -1.272486 0.231526 0.607568 -0.205032 0.538048 -0.452969 0.205265 0.358018 -0.971922 0.653428 -0.349441 -0.112699 -0.437118 -0.089525 -0.313173 -0.227870 -0.294780 -0.025212 0.704900 -0.842306 -0.078579 -0.464852 -0.566597 0.411793 0.325251
about 0.245578 0.285351 0.351955 -0.110503 0.203034 -0.202581 -0.264208 0.607832 0.020145 0.053238 0.160889 0.024998 0.133061 -0.263902 0.299192 0.100713 0.142639 -0.103893 0.025778 0.098988 -0.322884 -0.214676 0.277369 0.381618 0.047526 -0.574236 0.160456 0.418634 0.280259 -0.137172 0.498288 -0.380070 -0.096930 0.142252 -0.059308 -0.167862 -0.217274 0.070872 0.101195 0.063997 -0.137379 0.111862 -0.192392 -0.029498 0.283712 0.035742 -0.135563 -0.083193 0.142841 -0.023132 -0.114294 0.151510 0.043123 -0.024996 -0.014166 0.048686 -0.028271 0.209341 0.192407 0.166385 0.084375 -0.291002 0.038122 0.053343 -0.017348 -0.045723 0.026866 0.370753 0.021154 0.154287 -0.096584 0.189139 -0.133297 -0.122922 -0.329713 -0.439966 0.364871 0.218589 0.219815 -0.152929 -0.126599 0.133041 -0.030885 -0.324733 0.215952 0.119190 0.015431 -0.214849 -0.002546 0.434219 -0.165661 -0.132770 0.291742 0.183748 -0.248289 -0.123575 -0.342000 0.143556 -0.015823 -0.074792
after 0.242865 0.261559 0.315991 -0.241355 0.114276 -0.091734 -0.378599 0.423798 -0.083254 0.149298 0.257036 -0.043075 0.298793 -0.087526 0.299719 0.174999 0.119918 0.046636 -0.153320 0.297594 -0.169912 -0.145231 0.183551 0.217871 0.107134 -0.338659 0.338714 0.493595 0.149248 -0.235994 0.576510 -0.481976 -0.099878 0.027296 0.038956 -0.119718 0.175232 -0.066214 0.193970 0.146829 0.063964 0.065989 -0.132369 -0.004463 0.274036 0.105085 -0.097310 -0.158114 0.111334 -0.053145 0.039790 0.188545 -0.157534 -0.273708 0.022463 -0.049261 0.146236 0.318167 0.211982 0.253263 0.132903 -0.337632 0.042203 0.106081 -0.034976 -0.118800 0.226012 0.306081 0.252380 0.219175 0.044112 0.263488 -0.194160 -0.226514 -0.360247 -0.419193 0.205273 0.382264 0.105842 -0.198433 -0.155483 0.207274 -0.064630 -0.327879 0.030893 0.075618 -0.040963 -0.301877 0.068443 0.483172 -0.164252 -0.127904 0.125197 0.115303 -0.355913 -0.113128 -0.411043 0.087688 0.080677 0.027529
its -0.200679 0.355492 -0.016174 0.117577 0.636651 -0.343167 -0.144840 0.877972 -0.284710 -0.168788 -0.177712 -0.214801 0.649082 -0.278392 0.072885 0.142428 -0.331463 0.538357 -0.299477 0.533857 -0.190608 0.176742 0.326688 -0.758469 0.094488 -0.182115 0.465676 -0.135375 -0.179918 -0.665986 0.013506 -0.264603 0.325648 -0.028397 0.181287 0.172216 0.264030 -0.514174 -0.219885 -0.081574 0.971736 -0.715895 -0.485287 0.557024 -0.081978 0.304442 -0.406404 -0.299545 -0.189917 -0.164281 0.108344 0.334076 -0.531529 0.078602 -0.041656 -0.565003 0.466285 0.328745 0.594556 0.264086 0.768345 -0.198820 -0.462539 0.220669 0.316513 -0.475422 -0.175101 -0.054014 0.401556 -0.010501 0.008100 0.340071 0.143192 -0.014779 -0.936097 0.387647 0.052714 0.094787 0.231016 -0.634882 -0.144178 0.289414 -0.111782 0.248271 -0.773497 0.109437 -0.108316 0.069293 0.238706 0.696567 -0.304121 0.245760 -0.382305 -0.153138 -0.214858 -0.078584 -0.330119 0.189647 -0.575944 0.014135
who 0.418854 -0.310657 -0.026245 0.019150 -0.133990 -0.181798 -0.324661 0.610925 0.033238 0.223896 0.410072 -0.489680 0.306105 0.050845 0.372389 0.439258 -0.141213 0.703426 0.045217 0.475753 -0.453405 -0.304099 0.452927 -0.048763 -0.090742 -0.224248 0.615539 0.242590 0.010040 -0.174304 0.052470 -0.561079 -0.176598 0.096303 -0.217325 -0.083873 0.218006 0.435366 0.103355 0.143377 0.468363 0.149393 -0.418081 -0.077012 0.127101 0.154002 0.015467 -0.358556 -0.011715 -0.037683 0.239582 0.141444 -0.259250 -0.389814 -0.000997 0.164159 0.416103 0.725563 0.308578 -0.008517 0.238529 -0.153402 0.145860 -0.083918 -0.268548 0.166307 -0.162270 -0.017077 0.058143 0.633617 0.351239 0.205896 -0.229061 0.199390 -0.261230 -0.192795 0.246482 0.115231 -0.265456 0.022012 -0.120776 0.180615 0.439789 -0.227636 0.106387 0.101614 0.113055 -0.114925 0.303941 0.426156 -0.283397 0.214771 -0.526814 0.398018 -0.166962 -0.145908 -0.174370 0.174355 0.132440 -0.158862
before 0.153538 0.469395 0.327078 -0.327027 0.179158 -0.324668 -0.269210 0.526175 -0.111947 0.259741 0.113567 0.111196 0.191675 -0.163445 0.278831 0.053048 0.022779 -0.094356 -0.229918 0.071807 -0.204917 -0.040377 0.173073 0.173810 -0.039872 -0.511766 0.126067 0.430178 0.094625 -0.333680 0.471707 -0.547586 -0.082834 0.191789 0.098986 -0.082340 0.110694 -0.122572 0.395337 0.081503 -0.093207 -0.127139 -0.066647 0.025269 0.280893 0.094873 -0.035475 -0.086599 0.089801 -0.152087 0.042304 0.117058 -0.131677 -0.049035 0.013264 -0.034489 -0.087603 0.065848 0.101997 0.178661 -0.002017 -0.306979 0.121035 0.331100 0.025744 -0.001708 0.047815 0.308936 0.403233 0.017240 -0.123354 0.249307 -0.311065 -0.366461 -0.266753 -0.245685 0.321204 0.383264 0.284086 -0.237624 -0.280864 0.102744 -0.102403 -0.372344 0.124533 0.029199 0.018044 -0.358609 0.126546 0.570965 -0.094811 -0.232816 0.062125 -0.071882 -0.295685 -0.114432 -0.262139 0.185973 0.096164 0.009199
some 0.095827 0.059695 0.092856 -0.138733 0.104487 -0.319387 -0.316814 0.673387 -0.126859 0.239956 -0.003448 0.010346 0.146065 -0.071289 0.278053 0.102185 0.071993 0.272546 -0.282160 0.251816 -0.323220 0.065280 0.338448 -0.254533 -0.143562 -0.287467 0.412197 0.202200 -0.197757 -0.517261 -0.045743 -0.443226 0.104006 0.215585 -0.096917 0.156324 0.338356 -0.063373 0.163031 0.043370 0.259611 -0.277325 -0.013502 0.096290 -0.050079 0.070873 -0.090585 -0.230626 -0.146988 -0.256171 0.155373 0.175355 -0.346083 -0.008689 -0.021646 0.076921 0.114742 0.347316 0.222571 0.340185 0.211102 -0.375790 -0.010905 0.140314 0.184578 -0.096802 -0.079334 -0.158366 0.314545 0.132386 -0.023811 0.281282 -0.120360 -0.114768 -0.278290 0.107526 0.274855 -0.017020 0.039532 -0.428637 -0.265272 0.037945 0.037169 -0.175820 -0.262255 0.050375 -0.048137 -0.360184 0.229335 0.530068 -0.110224 0.124644 -0.392149 0.069629 -0.071207 0.052830 -0.161446 0.318732 -0.095757 -0.136837
answered 0.918240 -0.213361 0.307265 -0.216966 -0.386616 -0.823951 -0.370782 0.574336 0.379003 0.410684 0.335631 0.219864 -0.120074 -0.072260 0.678563 0.102714 0.640880 -0.544310 -0.151893 -0.339422 -0.550740 -0.502049 0.386698 0.823354 -0.375029 -0.635314 -0.049253 1.034078 0.823825 0.021431 0.606868 -0.359392 -0.167391 1.113393 -0.396801 -0.111312 -0.110522 0.844458 0.232640 0.709206 -0.421336 0.579808 0.008190 -0.615435 0.170816 -0.293499 0.220622 0.037623 0.338556 -0.271541 0.108945 0.151611 0.017039 -0.075120 -0.106654 0.028739 0.154975 0.445570 -0.061124 0.197188 -0.812575 0.052400 0.399921 -0.275380 -0.264109 0.530710 -0.266118 0.071872 -0.143062 0.643324 -0.283886 0.513201 -0.292515 -0.255462 -0.149745 -0.815420 0.651134 0.425389 0.083946 0.373630 -0.490125 0.340383 0.516991 -0.802023 1.339863 -0.002462 -0.153915 -0.370422 0.020614 -0.075455 -0.353847 -0.251583 -0.170396 0.541837 -0.269853 0.142851 -0.115654 -0.037295 0.171024 -0.429872
like 0.409844 0.251734 0.460186 -0.030567 0.045764 -0.338681 -0.100675 0.861494 0.380073 0.442626 0.316886 0.182645 -0.308330 -0.441543 0.341416 0.222061 0.076966 -0.266510 0.075289 -0.199147 -0.594335 -0.216299 0.158270 0.559794 -0.078478 -0.784594 -0.117253 0.477159 0.356830 -0.152583 0.321911 -0.186001 -0.427693 0.548943 -0.226338 -0.288661 -0.422084 0.496500 0.136094 0.212312 -0.492059 0.098203 -0.376489 -0.472541 0.140735 -0.076222 0.213018 -0.230351 0.402714 -0.257530 0.008230 0.146107 0.103407 -0.005339 -0.083581 0.168718 -0.186855 0.455623 -0.016138 -0.192733 -0.483002 -0.174261 0.265242 -0.035725 0.015403 0.131740 -0.301008 0.459182 0.005288 0.388873 -0.131523 0.189382 -0.315936 -0.232583 0.032255 -0.671730 0.392088 0.159632 0.329348 0.044257 -0.036481 0.061266 0.218605 -0.576542 0.703917 0.342714 -0.047605 -0.458550 0.040001 0.596952 -0.563212 -0.295368 0.290578 0.354223 -0.102602 -0.024566 0.004065 0.186607 0.057825 -0.343361
till 0.262849 0.241915 0.333945 -0.144095 0.241551 -0.193902 -0.340284 0.621182 0.063027 0.089079 -0.008360 0.218151 0.157774 -0.194610 0.348592 -0.001153 0.205679 -0.143280 -0.128920 0.116328 -0.243807 -0.163325 0.329865 0.208421 0.154234 -0.380022 0.075454 0.433334 0.291838 -0.378368 0.429610 -0.321629 -0.090265 0.329050 -0.044070 -0.043477 -0.020496 0.032509 0.137729 0.251545 0.071727 0.052169 0.061667 0.093089 0.105559 -0.006985 -0.011227 -0.005174 0.252078 -0.182926 -0.048129 0.112799 -0.076090 0.014480 -0.049083 -0.046884 0.043528 0.190788 0.205441 0.289705 0.047157 -0.303509 -0.126305 0.075001 -0.034959 -0.096055 -0.070518 0.106904 0.095152 0.147857 -0.104304 0.233369 0.103111 -0.398669 -0.466362 -0.249430 0.265183 0.364102 0.092923 -0.252567 -0.109245 0.205100 -0.127821 -0.256971 0.173314 0.116118 -0.148227 -0.249959 0.000722 0.453481 -0.217396 -0.136078 0.084276 0.088205 -0.220131 0.049483 -0.173894 0.212057 -0.066806 -0.299888
only 0.406547 0.128955 0.120094 -0.279688 -0.123568 -0.235368 -0.137742 0.737564 -0.012602 0.423494 0.311859 -0.141741 -0.168782 -0.094955 0.286894 0.458637 -0.298717 0.497871 0.023817 0.052021 -0.364963 -0.231858 0.335657 0.119647 -0.292406 -0.530803 0.390721 0.172141 -0.076709 -0.172542 0.167170 -0.749200 -0.312223 0.169613 -0.108580 -0.198643 0.050113 0.473797 0.362282 -0.051263 -0.044742 -0.008168 -0.074811 -0.052347 0.108103 0.160241 0.140331 -0.345262 0.054884 -0.143923 0.240753 0.020872 -0.313249 -0.170697 0.101803 0.311263 -0.138297 0.446286 0.001380 -0.151958 -0.076602 -0.394864 0.424368 0.252121 -0.253270 0.356254 -0.086064 0.158865 0.268452 0.251450 0.055040 0.070261 -0.315581 -0.095276 0.105831 -0.144581 0.493169 0.047804 0.181228 -0.056560 -0.282701 -0.095361 0.251157 -0.486791 0.343751 0.060443 0.164340 -0.341421 0.412384 0.733794 -0.242505 0.028114 -0.202969 -0.066195 -0.003810 -0.057642 -0.067516 0.364824 0.046617 -0.200440
their -0.054157 0.379301 0.023300 -0.087587 0.303911 -0.460406 -0.159489 0.776522 -0.310739 0.095401 0.173922 -0.003688 0.172556 -0.159413 0.079227 0.282889 0.049107 0.426674 -0.362399 0.261179 -0.160874 0.210671 0.104603 -0.421232 -0.187487 -0.320272 0.324993 -0.108451 -0.114693 -0.495514 0.203149 -0.333050 0.182544 0.186122 0.123603 0.113273 0.344938 -0.276071 -0.146094 -0.135176 0.484680 -0.786410 -0.316995 0.126740 -0.140263 0.200287 -0.220942 -0.199686 -0.240852 -0.288401 0.301319 0.384145 -0.450796 -0.077264 0.031634 -0.403630 0.237398 0.203721 0.311551 0.076701 0.226512 -0.336462 -0.038587 0.263523 0.149292 -0.088545 -0.073539 0.069789 0.403171 -0.070944 -0.083002 0.158576 -0.031602 -0.087597 -0.464677 0.159366 0.148624 0.176976 0.490332 -0.460592 -0.307781 0.282598 -0.025007 0.072745 -0.134933 0.345856 0.159420 -0.255360 0.404979 0.605773 -0.341582 0.009100 -0.298081 -0.190559 -0.243873 -0.049117 -0.221540 -0.084916 -0.412048 0.207820
house -0.028609 0.398592 0.263575 -0.029828 0.653709 0.149456 -0.226859 0.698301 0.078816 -0.078062 -0.072343 -0.012692 0.350178 -0.526989 0.405610 0.256133 -0.076895 0.107937 -0.136067 0.426717 -0.126939 -0.124676 0.220661 -0.105378 0.455195 -0.468928 0.045870 0.238647 0.070310 -0.392266 0.191660 -0.410551 0.053810 -0.011942 0.023251 -0.056720 0.017340 -0.357701 -0.182112 -0.144937 0.463700 -0.230244 -0.294548 0.053491 0.103207 0.210420 -0.246882 -0.311886 0.115642 -0.200148 -0.169746 0.157126 -0.128175 -0.097486 -0.070380 -0.081004 0.306211 0.396035 0.101255 0.407290 0.401694 -0.179673 -0.258163 0.158574 0.145522 -0.330403 -0.087866 0.008029 0.258774 -0.013141 -0.069765 0.065148 -0.100512 -0.356779 -0.608098 -0.029568 0.191874 0.173542 0.231420 -0.490549 0.107785 0.161875 -0.195342 0.007848 -0.334205 0.227552 -0.100500 -0.128632 0.139066 0.660789 -0.288830 0.151214 0.052997 0.009420 -0.281483 -0.113838 -0.323256 0.214752 -0.206026 -0.081105
let 0.749382 0.368682 0.669659 -0.325822 0.005913 -0.205129 -0.451042 0.881940 0.215499 0.678335 0.202267 0.530713 -0.923025 -0.631762 0.586467 0.169905 0.724722 -1.041464 0.016166 -0.542945 -0.573345 0.167597 0.326546 1.097144 -0.398515 -1.254156 -0.526873 0.870491 0.417791 -0.490081 0.475363 -0.399170 -0.414469 0.987166 -0.439811 -0.140692 -0.243067 0.500475 0.473980 0.428423 -1.330957 0.075417 0.290517 -0.494705 0.116843 -0.386445 0.122151 -0.199712 0.526910 -0.141117 -0.108318 -0.013525 0.289845 0.382812 -0.061745 0.426263 -0.546404 0.589300 -0.434168 0.156524 -1.162595 -0.839790 0.372015 0.075630 -0.018951 0.470263 -0.135679 0.260808 0.048777 0.489803 -0.373382 0.232993 -0.611828 -0.764245 0.389465 -0.684054 0.496135 0.371805 0.509957 -0.131225 -0.391256 -0.083810 0.287347 -0.919120 0.992938 0.385842 -0.150667 -1.175390 -0.083639 0.773800 -0.607672 -0.490056 0.821786 0.408187 -0.028717 0.379552 -0.138196 0.329995 0.325189 -0.240116
joseph 0.359076 -0.040032 0.025628 0.190565 0.208041 -0.205197 -0.232418 0.658230 0.203968 0.007236 0.075646 -0.238966 0.223528 -0.147496 0.220062 0.216663 -0.210617 0.578187 0.076984 0.396223 -0.502952 -0.120023 0.418590 -0.206017 0.188043 -0.158270 0.253907 0.070808 0.110315 -0.626502 -0.058359 -0.232387 -0.192451 0.151010 -0.186008 -0.008540 0.166320 0.198704 -0.083982 0.321157 0.553047 -0.099994 -0.258730 0.081366 -0.110082 0.164942 -0.030411 -0.290922 0.008325 -0.167604 0.147787 0.129225 -0.133967 -0.129452 0.043550 -0.007726 0.437069 0.765077 0.467418 0.036242 0.365706 -0.111026 -0.395401 0.001424 -0.070088 -0.072577 -0.356679 -0.049110 0.007465 0.492941 0.050782 0.101166 0.177248 -0.064885 -0.637778 0.082334 0.109280 0.230581 -0.157557 -0.222114 0.136802 0.216157 0.263490 0.068860 -0.205915 0.375401 -0.088542 -0.014226 0.349379 0.572613 -0.474145 0.254366 -0.437785 0.278942 0.031819 0.033755 -0.078769 0.421414 -0.243272 -0.367047
too 0.306938 0.138710 0.118178 -0.043444 0.000420 -0.385546 -0.116752 0.654137 0.107794 0.217610 0.230273 -0.073239 0.074784 -0.153321 0.181127 0.289465 -0.100853 0.265872 0.012210 0.084657 -0.360244 -0.230482 0.283583 0.049731 -0.142013 -0.357650 0.265248 0.249301 0.268522 -0.224032 0.276784 -0.445215 -0.130408 0.258457 -0.032319 -0.143335 -0.048618 0.314009 0.169518 0.144502 0.144263 -0.070034 -0.207328 0.047450 0.106261 0.133691 0.052876 -0.174209 0.043796 -0.084857 0.166906 0.130826 -0.293764 -0.085947 0.012251 -0.039012 0.087394 0.374056 0.199187 -0.100742 -0.020077 -0.265890 0.187626 0.141513 -0.176769 0.194327 -0.135815 0.205360 0.133802 0.250457 -0.011529 0.210475 -0.043261 -0.117039 -0.243312 -0.170575 0.318409 0.228061 0.221485 -0.008495 -0.222512 0.186112 0.189081 -0.347343 0.347310 0.146981 0.059441 -0.129657 0.206408 0.604249 -0.310257 -0.049184 -0.115471 0.052366 -0.148785 -0.102303 -0.133569 0.125316 -0.091389 -0.172114
again 0.339921 0.277186 0.308834 -0.101119 0.241766 -0.296903 -0.321278 0.698892 0.073974 0.203964 0.086224 0.271588 -0.141971 -0.386990 0.333958 0.085263 0.306256 -0.277404 -0.116029 -0.058280 -0.387463 0.185715 0.369489 0.327992 -0.124650 -0.641521 -0.101817 0.423921 0.248921 -0.534566 0.275615 -0.344294 -0.122428 0.539097 -0.140400 0.012619 0.085727 0.079783 0.271098 0.329349 -0.255597 -0.133916 0.107475 -0.008346 0.028140 -0.057025 -0.032372 0.011295 0.182751 -0.096242 0.030653 0.044021 -0.089378 0.288341 -0.026820 -0.093446 -0.089983 0.351354 0.057004 0.104729 -0.257052 -0.413993 -0.028686 0.158157 0.001729 0.178793 -0.121449 -0.020325 0.118747 0.123731 -0.220472 0.201904 -0.201780 -0.440033 -0.370999 -0.087980 0.228717 0.339048 0.272771 -0.225511 -0.263353 0.199041 0.116263 -0.244813 0.241498 0.197300 -0.142109 -0.389833 0.061696 0.515223 -0.315971 -0.136322 0.124234 0.120939 -0.088036 0.162624 -0.112696 0.278711 -0.140918 -0.107645
